svm_type c_svc
kernel_type rbf
gamma 3.05176e-05
nr_class 2
total_sv 1173
rho 0.529909
label 0 1
probA -1.8891
probB 0.0160493
nr_sv 650 523
SV
0.6957729194027718 1:0 2:0 3:0 4:0 5:0 6:0 7:0 8:-100 9:0 10:0 11:100 12:0 13:0 14:0 15:0 16:0 17:0 18:0 19:0 20:0 21:20 22:0 23:20 24:0 25:20 26:0 27:20 28:40 29:0 30:0 31:0 32:20 33:0 34:0 35:40 36:80 37:20 38:40 39:0 40:40 41:50 42:51 
2 1:-100 2:0 3:0 4:0 5:0 6:0 7:0 8:0 9:100 10:0 11:0 12:0 13:0 14:0 15:0 16:0 17:0 18:0 19:0 20:0 21:0 22:40 23:0 24:0 25:0 26:40 27:0 28:20 29:20 30:20 31:0 32:20 33:20 34:20 35:40 36:40 37:0 38:20 39:20 40:40 41:32 42:64 
2 1:-100 2:100 3:0 4:0 5:0 6:0 7:0 8:0 9:0 10:0 11:0 12:0 13:0 14:0 15:0 16:0 17:0 18:0 19:0 20:0 21:0 22:40 23:0 24:0 25:0 26:40 27:0 28:20 29:20 30:20 31:0 32:20 33:20 34:20 35:40 36:40 37:0 38:20 39:20 40:40 41:32 42:64 
0.5018136592122208 1:0 2:0 3:0 4:0 5:0 6:0 7:0 8:0 9:0 10:0 11:0 12:0 13:0 14:0 15:0 16:0 17:0 18:-100 19:100 20:0 21:60 22:40 23:20 24:0 25:0 26:20 27:0 28:20 29:20 30:20 31:20 32:0 33:0 34:0 35:0 36:60 37:20 38:40 39:0 40:20 41:45 42:46 
2 1:0 2:0 3:0 4:0 5:100 6:0 7:-100 8:0 9:0 10:0 11:0 12:0 13:0 14:0 15:0 16:0 17:0 18:0 19:0 20:0 21:20 22:40 23:20 24:0 25:0 26:0 27:40 28:20 29:20 30:20 31:0 32:40 33:0 34:20 35:0 36:20 37:20 38:0 39:20 40:60 41:45 42:25 
0.9869761598191392 1:0 2:0 3:0 4:0 5:0 6:0 7:0 8:0 9:0 10:0 11:0 12:0 13:0 14:-100 15:0 16:0 17:100 18:0 19:0 20:0 21:0 22:60 23:40 24:0 25:40 26:0 27:0 28:0 29:0 30:20 31:20 32:20 33:0 34:0 35:40 36:40 37:0 38:40 39:0 40:40 41:55 42:4 
0.648763857555516 1:0 2:0 3:0 4:0 5:0 6:0 7:-100 8:0 9:0 10:0 11:0 12:0 13:0 14:0 15:0 16:0 17:0 18:0 19:0 20:100 21:0 22:100 23:0 24:0 25:20 26:0 27:0 28:20 29:40 30:0 31:0 32:20 33:0 34:0 35:0 36:20 37:0 38:100 39:20 40:20 41:54 42:25 
2 1:0 2:0 3:0 4:0 5:0 6:0 7:0 8:0 9:0 10:0 11:0 12:-100 13:0 14:0 15:0 16:0 17:0 18:100 19:0 20:0 21:20 22:40 23:0 24:40 25:20 26:0 27:0 28:60 29:20 30:0 31:20 32:20 33:0 34:0 35:20 36:20 37:40 38:20 39:20 40:0 41:14 42:40 
0.4145965043232181 1:0 2:0 3:0 4:0 5:0 6:0 7:0 8:0 9:0 10:0 11:0 12:-100 13:0 14:0 15:0 16:0 17:0 18:100 19:0 20:0 21:20 22:40 23:0 24:40 25:20 26:0 27:0 28:60 29:20 30:0 31:20 32:20 33:0 34:0 35:20 36:20 37:40 38:20 39:20 40:0 41:14 42:40 
2 1:0 2:0 3:0 4:0 5:0 6:0 7:0 8:0 9:0 10:0 11:0 12:-100 13:0 14:0 15:0 16:0 17:0 18:100 19:0 20:0 21:20 22:40 23:0 24:40 25:20 26:0 27:0 28:60 29:20 30:0 31:20 32:20 33:0 34:0 35:20 36:20 37:40 38:20 39:20 40:0 41:21 42:52 
2 1:0 2:0 3:0 4:0 5:0 6:0 7:0 8:0 9:0 10:0 11:0 12:-100 13:0 14:0 15:0 16:0 17:0 18:100 19:0 20:0 21:20 22:40 23:0 24:40 25:20 26:0 27:0 28:60 29:20 30:0 31:20 32:20 33:0 34:0 35:20 36:20 37:40 38:20 39:20 40:0 41:28 42:63 
0.4904172400503384 1:0 2:0 3:0 4:0 5:0 6:0 7:0 8:0 9:100 10:0 11:0 12:-100 13:0 14:0 15:0 16:0 17:0 18:0 19:0 20:0 21:20 22:40 23:0 24:40 25:20 26:0 27:0 28:60 29:20 30:0 31:20 32:20 33:0 34:0 35:20 36:20 37:40 38:20 39:20 40:0 41:21 42:51 
1.738815953422381 1:0 2:0 3:0 4:0 5:0 6:0 7:0 8:0 9:0 10:0 11:0 12:0 13:0 14:0 15:0 16:0 17:0 18:0 19:100 20:-100 21:60 22:0 23:0 24:0 25:20 26:0 27:20 28:20 29:20 30:40 31:20 32:0 33:0 34:20 35:0 36:0 37:0 38:0 39:20 40:0 41:42 42:25 
1.106868786695002 1:0 2:0 3:0 4:100 5:0 6:0 7:0 8:0 9:0 10:0 11:0 12:0 13:0 14:0 15:-100 16:0 17:0 18:0 19:0 20:0 21:0 22:20 23:20 24:0 25:0 26:20 27:20 28:60 29:20 30:20 31:20 32:20 33:0 34:0 35:20 36:40 37:0 38:40 39:20 40:20 41:31 42:25 
1.2589476100876 1:0 2:0 3:0 4:0 5:0 6:0 7:0 8:0 9:100 10:0 11:0 12:0 13:0 14:0 15:0 16:0 17:0 18:0 19:0 20:-100 21:60 22:0 23:0 24:0 25:20 26:0 27:20 28:20 29:20 30:40 31:20 32:0 33:0 34:20 35:0 36:0 37:0 38:0 39:20 40:0 41:8 42:25 
2 1:0 2:0 3:0 4:0 5:0 6:0 7:0 8:0 9:100 10:0 11:0 12:0 13:0 14:0 15:0 16:0 17:0 18:0 19:0 20:-100 21:60 22:0 23:0 24:0 25:20 26:0 27:20 28:20 29:20 30:40 31:20 32:0 33:0 34:20 35:0 36:0 37:0 38:0 39:20 40:0 41:42 42:25 
2 1:100 2:0 3:0 4:0 5:0 6:0 7:0 8:0 9:0 10:0 11:0 12:-100 13:0 14:0 15:0 16:0 17:0 18:0 19:0 20:0 21:20 22:20 23:20 24:0 25:20 26:20 27:20 28:20 29:20 30:0 31:0 32:60 33:0 34:0 35:40 36:20 37:0 38:0 39:20 40:20 41:21 42:53 
2 1:0 2:0 3:0 4:0 5:0 6:0 7:0 8:0 9:0 10:0 11:0 12:-100 13:0 14:0 15:100 16:0 17:0 18:0 19:0 20:0 21:20 22:20 23:20 24:0 25:20 26:20 27:20 28:20 29:20 30:0 31:0 32:60 33:0 34:0 35:40 36:20 37:0 38:0 39:20 40:20 41:14 42:42 
0.08604912559260963 1:0 2:0 3:0 4:0 5:0 6:0 7:0 8:0 9:0 10:0 11:0 12:-100 13:0 14:0 15:100 16:0 17:0 18:0 19:0 20:0 21:20 22:20 23:20 24:0 25:20 26:20 27:20 28:20 29:20 30:0 31:0 32:60 33:0 34:0 35:40 36:20 37:0 38:0 39:20 40:20 41:14 42:38 
2 1:0 2:0 3:0 4:0 5:0 6:0 7:0 8:0 9:0 10:0 11:0 12:-100 13:0 14:0 15:100 16:0 17:0 18:0 19:0 20:0 21:20 22:20 23:20 24:0 25:20 26:20 27:20 28:20 29:20 30:0 31:0 32:60 33:0 34:0 35:40 36:20 37:0 38:0 39:20 40:20 41:17 42:46 
0.7439714959094526 1:0 2:100 3:0 4:0 5:0 6:0 7:0 8:0 9:0 10:0 11:0 12:-100 13:0 14:0 15:0 16:0 17:0 18:0 19:0 20:0 21:20 22:20 23:20 24:0 25:20 26:20 27:20 28:20 29:20 30:0 31:0 32:60 33:0 34:0 35:40 36:20 37:0 38:0 39:20 40:20 41:17 42:46 
2 1:0 2:100 3:0 4:0 5:0 6:0 7:0 8:0 9:0 10:0 11:0 12:-100 13:0 14:0 15:0 16:0 17:0 18:0 19:0 20:0 21:20 22:20 23:20 24:0 25:20 26:20 27:20 28:20 29:20 30:0 31:0 32:60 33:0 34:0 35:40 36:20 37:0 38:0 39:20 40:20 41:21 42:53 
0.3922050205552158 1:0 2:0 3:100 4:0 5:0 6:0 7:0 8:0 9:0 10:0 11:0 12:-100 13:0 14:0 15:0 16:0 17:0 18:0 19:0 20:0 21:20 22:20 23:20 24:0 25:20 26:20 27:20 28:20 29:20 30:0 31:0 32:60 33:0 34:0 35:40 36:20 37:0 38:0 39:20 40:20 41:14 42:42 
2 1:0 2:0 3:100 4:0 5:0 6:0 7:0 8:0 9:0 10:0 11:0 12:-100 13:0 14:0 15:0 16:0 17:0 18:0 19:0 20:0 21:20 22:20 23:20 24:0 25:20 26:20 27:20 28:20 29:20 30:0 31:0 32:60 33:0 34:0 35:40 36:20 37:0 38:0 39:20 40:20 41:28 42:62 
1.123747190475064 1:0 2:0 3:100 4:0 5:0 6:0 7:0 8:0 9:0 10:0 11:0 12:-100 13:0 14:0 15:0 16:0 17:0 18:0 19:0 20:0 21:20 22:20 23:20 24:0 25:20 26:20 27:20 28:20 29:20 30:0 31:0 32:60 33:0 34:0 35:40 36:20 37:0 38:0 39:20 40:20 41:42 42:64 
1.263095533297521 1:0 2:0 3:100 4:0 5:0 6:0 7:0 8:0 9:0 10:0 11:0 12:-100 13:0 14:0 15:0 16:0 17:0 18:0 19:0 20:0 21:20 22:20 23:20 24:0 25:20 26:20 27:20 28:20 29:20 30:0 31:0 32:60 33:0 34:0 35:40 36:20 37:0 38:0 39:20 40:20 41:21 42:53 
1.456798402435045 1:0 2:0 3:0 4:0 5:0 6:0 7:0 8:0 9:0 10:0 11:0 12:-100 13:0 14:0 15:0 16:0 17:0 18:0 19:0 20:100 21:20 22:20 23:20 24:0 25:20 26:20 27:20 28:20 29:20 30:0 31:0 32:60 33:0 34:0 35:40 36:20 37:0 38:0 39:20 40:20 41:14 42:42 
0.181533676916956 1:0 2:0 3:0 4:0 5:0 6:0 7:0 8:0 9:0 10:0 11:0 12:-100 13:0 14:0 15:0 16:0 17:0 18:100 19:0 20:0 21:20 22:20 23:20 24:0 25:20 26:20 27:20 28:20 29:20 30:0 31:0 32:60 33:0 34:0 35:40 36:20 37:0 38:0 39:20 40:20 41:21 42:53 
1.426770247084396 1:0 2:0 3:0 4:0 5:100 6:0 7:0 8:0 9:0 10:0 11:0 12:-100 13:0 14:0 15:0 16:0 17:0 18:0 19:0 20:0 21:20 22:20 23:20 24:0 25:20 26:20 27:20 28:20 29:20 30:0 31:0 32:60 33:0 34:0 35:40 36:20 37:0 38:0 39:20 40:20 41:14 42:42 
0.3875848808080615 1:100 2:0 3:-100 4:0 5:0 6:0 7:0 8:0 9:0 10:0 11:0 12:0 13:0 14:0 15:0 16:0 17:0 18:0 19:0 20:0 21:40 22:0 23:60 24:0 25:0 26:0 27:0 28:60 29:120 30:0 31:40 32:0 33:0 34:0 35:20 36:20 37:0 38:0 39:0 40:0 41:55 42:25 
0.491400967560257 1:0 2:0 3:0 4:0 5:0 6:0 7:0 8:0 9:100 10:0 11:0 12:0 13:0 14:-100 15:0 16:0 17:0 18:0 19:0 20:0 21:40 22:20 23:20 24:0 25:20 26:0 27:0 28:60 29:40 30:0 31:20 32:40 33:0 34:0 35:0 36:0 37:20 38:0 39:80 40:0 41:42 42:25 
1.265455193897361 1:0 2:0 3:0 4:0 5:0 6:0 7:0 8:0 9:0 10:0 11:0 12:0 13:0 14:0 15:0 16:0 17:0 18:0 19:100 20:-100 21:20 22:20 23:40 24:0 25:20 26:0 27:0 28:80 29:20 30:20 31:40 32:0 33:0 34:0 35:20 36:40 37:0 38:20 39:20 40:0 41:63 42:25 
0.5261743440986257 1:0 2:0 3:0 4:0 5:0 6:0 7:0 8:0 9:100 10:0 11:0 12:0 13:0 14:0 15:0 16:-100 17:0 18:0 19:0 20:0 21:0 22:20 23:40 24:0 25:20 26:0 27:60 28:20 29:20 30:60 31:0 32:20 33:20 34:0 35:40 36:0 37:0 38:20 39:20 40:0 41:50 42:39 
0.2807415709084455 1:0 2:0 3:0 4:0 5:0 6:0 7:0 8:100 9:0 10:-100 11:0 12:0 13:0 14:0 15:0 16:0 17:0 18:0 19:0 20:0 21:20 22:20 23:0 24:0 25:0 26:20 27:20 28:40 29:40 30:0 31:20 32:20 33:40 34:20 35:20 36:20 37:0 38:0 39:40 40:20 41:20 42:68 
1.24867413806428 1:0 2:0 3:0 4:0 5:0 6:0 7:0 8:-100 9:0 10:0 11:100 12:0 13:0 14:0 15:0 16:0 17:0 18:0 19:0 20:0 21:60 22:20 23:20 24:0 25:0 26:0 27:20 28:60 29:20 30:20 31:0 32:40 33:0 34:0 35:20 36:40 37:0 38:20 39:20 40:0 41:53 42:30 
1.401965714985305 1:0 2:0 3:0 4:0 5:0 6:0 7:0 8:0 9:0 10:0 11:0 12:0 13:0 14:0 15:0 16:0 17:0 18:-100 19:0 20:100 21:20 22:40 23:20 24:40 25:0 26:0 27:20 28:0 29:60 30:0 31:0 32:60 33:0 34:0 35:40 36:0 37:0 38:20 39:40 40:0 41:64 42:47 
0.4355864526188984 1:0 2:0 3:0 4:0 5:100 6:-100 7:0 8:0 9:0 10:0 11:0 12:0 13:0 14:0 15:0 16:0 17:0 18:0 19:0 20:0 21:20 22:40 23:20 24:20 25:20 26:0 27:0 28:0 29:0 30:0 31:40 32:0 33:0 34:0 35:20 36:60 37:0 38:60 39:0 40:60 41:53 42:25 
2 1:0 2:0 3:0 4:0 5:0 6:0 7:0 8:-100 9:0 10:0 11:0 12:0 13:0 14:0 15:0 16:0 17:0 18:0 19:0 20:100 21:20 22:20 23:20 24:0 25:20 26:0 27:20 28:20 29:60 30:40 31:40 32:0 33:0 34:20 35:0 36:0 37:40 38:40 39:0 40:0 41:55 42:25 
1.848221419807071 1:0 2:0 3:0 4:0 5:0 6:0 7:0 8:0 9:100 10:0 11:0 12:0 13:0 14:0 15:0 16:0 17:0 18:-100 19:0 20:0 21:20 22:40 23:20 24:40 25:0 26:0 27:20 28:0 29:60 30:0 31:0 32:60 33:0 34:0 35:40 36:0 37:0 38:20 39:40 40:0 41:21 42:50 
0.3421955565367161 1:0 2:0 3:0 4:0 5:0 6:0 7:0 8:0 9:0 10:0 11:100 12:-100 13:0 14:0 15:0 16:0 17:0 18:0 19:0 20:0 21:20 22:20 23:40 24:0 25:20 26:0 27:0 28:40 29:20 30:0 31:0 32:0 33:20 34:0 35:20 36:40 37:0 38:40 39:60 40:20 41:46 42:63 
2 1:0 2:0 3:0 4:0 5:0 6:0 7:0 8:-100 9:0 10:0 11:0 12:0 13:0 14:0 15:100 16:0 17:0 18:0 19:0 20:0 21:20 22:20 23:20 24:0 25:20 26:0 27:20 28:20 29:60 30:40 31:40 32:0 33:0 34:20 35:0 36:0 37:40 38:40 39:0 40:0 41:55 42:4 
0.7669434502658762 1:0 2:0 3:0 4:0 5:0 6:0 7:0 8:-100 9:0 10:0 11:100 12:0 13:0 14:0 15:0 16:0 17:0 18:0 19:0 20:0 21:20 22:20 23:20 24:0 25:20 26:0 27:20 28:20 29:60 30:40 31:40 32:0 33:0 34:20 35:0 36:0 37:40 38:40 39:0 40:0 41:55 42:25 
1.770030280332217 1:0 2:0 3:0 4:0 5:0 6:100 7:0 8:-100 9:0 10:0 11:0 12:0 13:0 14:0 15:0 16:0 17:0 18:0 19:0 20:0 21:20 22:20 23:20 24:0 25:20 26:0 27:20 28:20 29:60 30:40 31:40 32:0 33:0 34:20 35:0 36:0 37:40 38:40 39:0 40:0 41:55 42:25 
2 1:0 2:0 3:0 4:0 5:0 6:0 7:0 8:0 9:0 10:0 11:0 12:0 13:0 14:0 15:0 16:0 17:100 18:-100 19:0 20:0 21:20 22:40 23:20 24:40 25:0 26:0 27:20 28:0 29:60 30:0 31:0 32:60 33:0 34:0 35:40 36:0 37:0 38:20 39:40 40:0 41:21 42:50 
0.5399766175930902 1:0 2:0 3:0 4:0 5:0 6:0 7:0 8:0 9:0 10:0 11:100 12:0 13:-100 14:0 15:0 16:0 17:0 18:0 19:0 20:0 21:40 22:0 23:0 24:0 25:60 26:0 27:20 28:0 29:0 30:20 31:60 32:20 33:0 34:0 35:0 36:40 37:0 38:60 39:20 40:20 41:47 42:25 
2 1:0 2:0 3:0 4:0 5:0 6:0 7:0 8:0 9:100 10:0 11:0 12:0 13:0 14:0 15:0 16:0 17:0 18:-100 19:0 20:0 21:40 22:20 23:20 24:0 25:40 26:0 27:0 28:60 29:0 30:0 31:20 32:20 33:0 34:0 35:0 36:20 37:40 38:60 39:20 40:0 41:50 42:70 
1.268061886994102 1:0 2:0 3:0 4:0 5:0 6:0 7:0 8:0 9:100 10:0 11:0 12:0 13:0 14:0 15:0 16:0 17:0 18:-100 19:0 20:0 21:40 22:20 23:20 24:0 25:40 26:0 27:0 28:60 29:0 30:0 31:20 32:20 33:0 34:0 35:0 36:20 37:40 38:60 39:20 40:0 41:50 42:70 
1.745933141940513 1:0 2:0 3:0 4:0 5:0 6:0 7:0 8:0 9:100 10:0 11:0 12:0 13:0 14:0 15:0 16:0 17:0 18:0 19:-100 20:0 21:0 22:20 23:40 24:0 25:40 26:0 27:40 28:20 29:60 30:0 31:0 32:20 33:20 34:0 35:40 36:40 37:20 38:0 39:0 40:0 41:50 42:39 
0.8096870788484024 1:0 2:0 3:0 4:0 5:0 6:0 7:0 8:0 9:0 10:0 11:0 12:100 13:0 14:-100 15:0 16:0 17:0 18:0 19:0 20:0 21:0 22:40 23:40 24:0 25:40 26:0 27:0 28:20 29:20 30:0 31:20 32:40 33:40 34:20 35:0 36:0 37:20 38:60 39:0 40:0 41:60 42:37 
0.8399614857198813 1:0 2:0 3:0 4:0 5:0 6:0 7:0 8:0 9:0 10:0 11:0 12:0 13:0 14:-100 15:100 16:0 17:0 18:0 19:0 20:0 21:0 22:40 23:40 24:0 25:40 26:0 27:0 28:20 29:20 30:0 31:20 32:40 33:40 34:20 35:0 36:0 37:20 38:60 39:0 40:0 41:60 42:37 
2 1:0 2:0 3:0 4:0 5:0 6:0 7:0 8:0 9:0 10:0 11:0 12:0 13:0 14:-100 15:0 16:0 17:100 18:0 19:0 20:0 21:0 22:40 23:40 24:0 25:40 26:0 27:0 28:20 29:20 30:0 31:20 32:40 33:40 34:20 35:0 36:0 37:20 38:60 39:0 40:0 41:60 42:37 
0.3802293116908654 1:0 2:0 3:0 4:0 5:0 6:0 7:0 8:0 9:-100 10:0 11:100 12:0 13:0 14:0 15:0 16:0 17:0 18:0 19:0 20:0 21:20 22:20 23:20 24:20 25:0 26:0 27:60 28:60 29:20 30:0 31:0 32:20 33:0 34:0 35:40 36:40 37:0 38:0 39:0 40:40 41:50 42:51 
2 1:-100 2:0 3:0 4:100 5:0 6:0 7:0 8:0 9:0 10:0 11:0 12:0 13:0 14:0 15:0 16:0 17:0 18:0 19:0 20:0 21:0 22:40 23:0 24:0 25:0 26:40 27:0 28:20 29:20 30:20 31:0 32:20 33:20 34:20 35:40 36:40 37:0 38:20 39:20 40:40 41:32 42:64 
1.474615653982646 1:0 2:-100 3:0 4:0 5:0 6:0 7:0 8:0 9:0 10:0 11:0 12:0 13:0 14:0 15:0 16:0 17:0 18:100 19:0 20:0 21:40 22:0 23:0 24:0 25:0 26:0 27:0 28:20 29:40 30:20 31:0 32:0 33:0 34:0 35:0 36:20 37:20 38:0 39:20 40:0 41:50 42:70 
1.178855935502354 1:0 2:0 3:0 4:0 5:0 6:0 7:0 8:0 9:0 10:0 11:0 12:0 13:0 14:0 15:0 16:-100 17:0 18:100 19:0 20:0 21:20 22:20 23:0 24:0 25:0 26:40 27:20 28:0 29:60 30:20 31:20 32:20 33:0 34:0 35:20 36:0 37:20 38:20 39:60 40:20 41:20 42:50 
2 1:0 2:0 3:0 4:0 5:0 6:0 7:0 8:0 9:0 10:0 11:0 12:0 13:0 14:0 15:0 16:-100 17:0 18:100 19:0 20:0 21:20 22:20 23:0 24:0 25:0 26:40 27:20 28:0 29:60 30:20 31:20 32:20 33:0 34:0 35:20 36:0 37:20 38:20 39:60 40:20 41:37 42:66 
0.6735209378621543 1:100 2:-100 3:0 4:0 5:0 6:0 7:0 8:0 9:0 10:0 11:0 12:0 13:0 14:0 15:0 16:0 17:0 18:0 19:0 20:0 21:0 22:20 23:20 24:0 25:20 26:0 27:20 28:40 29:60 30:40 31:40 32:0 33:0 34:20 35:0 36:20 37:20 38:40 39:0 40:0 41:55 42:25 
2 1:0 2:0 3:0 4:0 5:0 6:0 7:0 8:0 9:0 10:0 11:-100 12:100 13:0 14:0 15:0 16:0 17:0 18:0 19:0 20:0 21:40 22:40 23:20 24:0 25:0 26:0 27:20 28:20 29:0 30:0 31:20 32:20 33:20 34:20 35:20 36:20 37:40 38:40 39:0 40:20 41:21 42:49 
1.137145400325407 1:0 2:0 3:0 4:0 5:0 6:0 7:0 8:0 9:100 10:0 11:0 12:0 13:0 14:0 15:0 16:0 17:0 18:-100 19:0 20:0 21:0 22:0 23:0 24:20 25:20 26:0 27:0 28:40 29:60 30:0 31:20 32:20 33:40 34:0 35:40 36:40 37:0 38:0 39:40 40:20 41:50 42:39 
1.412695359313554 1:0 2:100 3:-100 4:0 5:0 6:0 7:0 8:0 9:0 10:0 11:0 12:0 13:0 14:0 15:0 16:0 17:0 18:0 19:0 20:0 21:40 22:40 23:0 24:0 25:0 26:0 27:40 28:40 29:20 30:40 31:0 32:20 33:0 34:0 35:0 36:20 37:20 38:40 39:20 40:20 41:50 42:25 
2 1:0 2:100 3:0 4:0 5:0 6:0 7:0 8:0 9:0 10:0 11:-100 12:0 13:0 14:0 15:0 16:0 17:0 18:0 19:0 20:0 21:40 22:40 23:20 24:0 25:0 26:0 27:20 28:20 29:0 30:0 31:20 32:20 33:20 34:20 35:20 36:20 37:40 38:40 39:0 40:20 41:21 42:49 
2 1:-100 2:0 3:0 4:0 5:0 6:0 7:0 8:0 9:100 10:0 11:0 12:0 13:0 14:0 15:0 16:0 17:0 18:0 19:0 20:0 21:20 22:40 23:0 24:0 25:0 26:20 27:0 28:40 29:80 30:0 31:40 32:0 33:0 34:0 35:0 36:40 37:20 38:20 39:20 40:20 41:45 42:25 
2 1:0 2:0 3:-100 4:0 5:0 6:0 7:0 8:0 9:0 10:0 11:0 12:0 13:100 14:0 15:0 16:0 17:0 18:0 19:0 20:0 21:0 22:20 23:20 24:40 25:20 26:0 27:0 28:20 29:0 30:0 31:0 32:0 33:0 34:0 35:20 36:0 37:0 38:40 39:20 40:20 41:14 42:41 
2 1:0 2:0 3:-100 4:0 5:0 6:0 7:0 8:0 9:0 10:0 11:0 12:0 13:100 14:0 15:0 16:0 17:0 18:0 19:0 20:0 21:0 22:20 23:20 24:40 25:20 26:0 27:0 28:20 29:0 30:0 31:0 32:0 33:0 34:0 35:20 36:0 37:0 38:40 39:20 40:20 41:46 42:64 
0.9982273798601864 1:0 2:0 3:-100 4:0 5:0 6:0 7:0 8:0 9:0 10:0 11:0 12:0 13:0 14:0 15:0 16:0 17:0 18:100 19:0 20:0 21:0 22:20 23:20 24:40 25:20 26:0 27:0 28:20 29:0 30:0 31:0 32:0 33:0 34:0 35:20 36:0 37:0 38:40 39:20 40:20 41:46 42:64 
0.3029052701734673 1:0 2:0 3:-100 4:100 5:0 6:0 7:0 8:0 9:0 10:0 11:0 12:0 13:0 14:0 15:0 16:0 17:0 18:0 19:0 20:0 21:0 22:20 23:20 24:40 25:20 26:0 27:0 28:20 29:0 30:0 31:0 32:0 33:0 34:0 35:20 36:0 37:0 38:40 39:20 40:20 41:46 42:64 
2 1:0 2:0 3:0 4:0 5:0 6:0 7:0 8:0 9:-100 10:0 11:0 12:100 13:0 14:0 15:0 16:0 17:0 18:0 19:0 20:0 21:40 22:80 23:20 24:0 25:0 26:0 27:20 28:0 29:60 30:0 31:20 32:0 33:0 34:0 35:0 36:40 37:0 38:40 39:40 40:0 41:57 42:51 
0.9105630116146445 1:0 2:0 3:-100 4:0 5:0 6:0 7:0 8:0 9:0 10:0 11:100 12:0 13:0 14:0 15:0 16:0 17:0 18:0 19:0 20:0 21:0 22:20 23:20 24:40 25:20 26:0 27:0 28:20 29:0 30:0 31:0 32:0 33:0 34:0 35:20 36:0 37:0 38:40 39:20 40:20 41:46 42:64 
0.6554988929776399 1:0 2:0 3:-100 4:0 5:0 6:100 7:0 8:0 9:0 10:0 11:0 12:0 13:0 14:0 15:0 16:0 17:0 18:0 19:0 20:0 21:0 22:20 23:20 24:40 25:20 26:0 27:0 28:20 29:0 30:0 31:0 32:0 33:0 34:0 35:20 36:0 37:0 38:40 39:20 40:20 41:46 42:64 
1.548928951743241 1:100 2:0 3:-100 4:0 5:0 6:0 7:0 8:0 9:0 10:0 11:0 12:0 13:0 14:0 15:0 16:0 17:0 18:0 19:0 20:0 21:0 22:20 23:20 24:40 25:20 26:0 27:0 28:20 29:0 30:0 31:0 32:0 33:0 34:0 35:20 36:0 37:0 38:40 39:20 40:20 41:14 42:41 
0.3186506350997481 1:100 2:0 3:-100 4:0 5:0 6:0 7:0 8:0 9:0 10:0 11:0 12:0 13:0 14:0 15:0 16:0 17:0 18:0 19:0 20:0 21:0 22:20 23:20 24:40 25:20 26:0 27:0 28:20 29:0 30:0 31:0 32:0 33:0 34:0 35:20 36:0 37:0 38:40 39:20 40:20 41:46 42:64 
1.55099515113311 1:0 2:0 3:-100 4:0 5:0 6:0 7:100 8:0 9:0 10:0 11:0 12:0 13:0 14:0 15:0 16:0 17:0 18:0 19:0 20:0 21:0 22:20 23:20 24:40 25:20 26:0 27:0 28:20 29:0 30:0 31:0 32:0 33:0 34:0 35:20 36:0 37:0 38:40 39:20 40:20 41:46 42:64 
0.005901595147657102 1:0 2:0 3:0 4:0 5:0 6:0 7:0 8:0 9:100 10:-100 11:0 12:0 13:0 14:0 15:0 16:0 17:0 18:0 19:0 20:0 21:0 22:0 23:0 24:0 25:0 26:0 27:40 28:20 29:40 30:0 31:40 32:60 33:40 34:0 35:20 36:40 37:20 38:20 39:20 40:0 41:30 42:56 
0.4575109807797907 1:0 2:0 3:0 4:0 5:0 6:0 7:0 8:0 9:0 10:-100 11:100 12:0 13:0 14:0 15:0 16:0 17:0 18:0 19:0 20:0 21:0 22:0 23:0 24:0 25:0 26:0 27:40 28:20 29:40 30:0 31:40 32:60 33:40 34:0 35:20 36:40 37:20 38:20 39:20 40:0 41:30 42:56 
0.4002505041086028 1:0 2:0 3:0 4:-100 5:0 6:0 7:0 8:0 9:100 10:0 11:0 12:0 13:0 14:0 15:0 16:0 17:0 18:0 19:0 20:0 21:40 22:20 23:20 24:20 25:40 26:0 27:0 28:60 29:40 30:0 31:0 32:40 33:20 34:0 35:0 36:0 37:20 38:20 39:20 40:0 41:21 42:51 
2 1:100 2:0 3:-100 4:0 5:0 6:0 7:0 8:0 9:0 10:0 11:0 12:0 13:0 14:0 15:0 16:0 17:0 18:0 19:0 20:0 21:40 22:40 23:0 24:0 25:0 26:0 27:40 28:40 29:20 30:40 31:0 32:20 33:0 34:0 35:0 36:20 37:20 38:40 39:20 40:20 41:50 42:25 
0.593264024637508 1:100 2:0 3:-100 4:0 5:0 6:0 7:0 8:0 9:0 10:0 11:0 12:0 13:0 14:0 15:0 16:0 17:0 18:0 19:0 20:0 21:40 22:40 23:0 24:0 25:0 26:0 27:40 28:40 29:20 30:40 31:0 32:20 33:0 34:0 35:0 36:20 37:20 38:40 39:20 40:20 41:50 42:25 
2 1:0 2:0 3:0 4:-100 5:0 6:0 7:0 8:0 9:0 10:0 11:0 12:0 13:0 14:0 15:0 16:100 17:0 18:0 19:0 20:0 21:40 22:20 23:20 24:20 25:40 26:0 27:0 28:60 29:40 30:0 31:0 32:40 33:20 34:0 35:0 36:0 37:20 38:20 39:20 40:0 41:21 42:47 
1.407058740665982 1:0 2:0 3:0 4:0 5:100 6:0 7:-100 8:0 9:0 10:0 11:0 12:0 13:0 14:0 15:0 16:0 17:0 18:0 19:0 20:0 21:0 22:40 23:20 24:0 25:20 26:20 27:0 28:60 29:60 30:20 31:40 32:20 33:0 34:0 35:20 36:0 37:20 38:0 39:20 40:0 41:48 42:54 
0.3933020751051547 1:0 2:-100 3:100 4:0 5:0 6:0 7:0 8:0 9:0 10:0 11:0 12:0 13:0 14:0 15:0 16:0 17:0 18:0 19:0 20:0 21:0 22:20 23:20 24:20 25:20 26:0 27:0 28:20 29:100 30:0 31:0 32:0 33:0 34:0 35:20 36:40 37:20 38:20 39:20 40:40 41:78 42:76 
2 1:0 2:0 3:0 4:0 5:0 6:0 7:0 8:0 9:0 10:0 11:0 12:0 13:0 14:0 15:0 16:0 17:0 18:0 19:100 20:-100 21:40 22:60 23:20 24:0 25:0 26:0 27:20 28:0 29:40 30:20 31:20 32:0 33:20 34:0 35:40 36:40 37:0 38:0 39:20 40:20 41:47 42:62 
0.2933765720069129 1:-100 2:0 3:0 4:0 5:0 6:0 7:0 8:0 9:100 10:0 11:0 12:0 13:0 14:0 15:0 16:0 17:0 18:0 19:0 20:0 21:20 22:20 23:20 24:0 25:0 26:0 27:0 28:20 29:40 30:20 31:20 32:0 33:0 34:0 35:0 36:80 37:40 38:60 39:0 40:20 41:45 42:46 
1.383213281844242 1:-100 2:0 3:100 4:0 5:0 6:0 7:0 8:0 9:0 10:0 11:0 12:0 13:0 14:0 15:0 16:0 17:0 18:0 19:0 20:0 21:40 22:0 23:40 24:0 25:20 26:0 27:0 28:0 29:0 30:0 31:0 32:40 33:20 34:40 35:0 36:20 37:40 38:0 39:80 40:20 41:50 42:25 
0.05282531932399338 1:0 2:0 3:0 4:0 5:-100 6:0 7:0 8:0 9:100 10:0 11:0 12:0 13:0 14:0 15:0 16:0 17:0 18:0 19:0 20:0 21:40 22:20 23:20 24:0 25:0 26:0 27:0 28:0 29:60 30:0 31:0 32:20 33:0 34:0 35:20 36:40 37:20 38:40 39:20 40:60 41:21 42:51 
2 1:-100 2:0 3:0 4:0 5:0 6:0 7:0 8:0 9:100 10:0 11:0 12:0 13:0 14:0 15:0 16:0 17:0 18:0 19:0 20:0 21:40 22:0 23:20 24:0 25:0 26:20 27:0 28:20 29:80 30:20 31:0 32:0 33:20 34:0 35:60 36:20 37:20 38:0 39:0 40:40 41:19 42:64 
1.386291595722045 1:-100 2:0 3:0 4:0 5:0 6:0 7:0 8:0 9:100 10:0 11:0 12:0 13:0 14:0 15:0 16:0 17:0 18:0 19:0 20:0 21:40 22:0 23:20 24:0 25:0 26:20 27:0 28:20 29:80 30:20 31:0 32:0 33:20 34:0 35:60 36:20 37:20 38:0 39:0 40:40 41:19 42:49 
2 1:0 2:0 3:0 4:0 5:0 6:100 7:0 8:0 9:0 10:0 11:0 12:0 13:0 14:0 15:0 16:-100 17:0 18:0 19:0 20:0 21:0 22:20 23:20 24:40 25:20 26:0 27:40 28:20 29:20 30:40 31:20 32:40 33:0 34:0 35:0 36:40 37:0 38:20 39:20 40:0 41:32 42:25 
0.2395471990153301 1:0 2:0 3:0 4:0 5:0 6:0 7:0 8:0 9:0 10:0 11:0 12:0 13:0 14:0 15:-100 16:0 17:100 18:0 19:0 20:0 21:0 22:40 23:60 24:40 25:0 26:0 27:0 28:40 29:0 30:20 31:40 32:40 33:20 34:0 35:20 36:0 37:0 38:0 39:40 40:0 41:51 42:10 
0.2904005905416462 1:-100 2:0 3:0 4:0 5:0 6:0 7:0 8:0 9:0 10:0 11:0 12:0 13:0 14:0 15:0 16:100 17:0 18:0 19:0 20:0 21:0 22:20 23:0 24:0 25:20 26:0 27:0 28:40 29:40 30:0 31:20 32:40 33:0 34:20 35:20 36:0 37:0 38:60 39:20 40:60 41:50 42:67 
0.5331736884990215 1:0 2:0 3:0 4:0 5:0 6:0 7:0 8:0 9:0 10:0 11:0 12:0 13:0 14:0 15:-100 16:100 17:0 18:0 19:0 20:0 21:20 22:40 23:0 24:40 25:60 26:0 27:0 28:60 29:20 30:0 31:20 32:0 33:40 34:20 35:0 36:20 37:0 38:0 39:0 40:20 41:52 42:88 
0.8720818222665574 1:-100 2:0 3:0 4:0 5:0 6:0 7:0 8:0 9:0 10:0 11:0 12:0 13:0 14:0 15:0 16:0 17:0 18:100 19:0 20:0 21:0 22:20 23:0 24:0 25:20 26:0 27:0 28:40 29:40 30:0 31:20 32:40 33:0 34:20 35:20 36:0 37:0 38:60 39:20 40:60 41:50 42:67 
1.864098059759299 1:0 2:0 3:0 4:0 5:0 6:0 7:0 8:0 9:0 10:0 11:100 12:0 13:-100 14:0 15:0 16:0 17:0 18:0 19:0 20:0 21:20 22:40 23:20 24:20 25:40 26:0 27:0 28:20 29:80 30:20 31:0 32:20 33:0 34:0 35:20 36:0 37:20 38:40 39:0 40:0 41:64 42:50 
1.58737743583291 1:100 2:0 3:0 4:0 5:0 6:0 7:0 8:0 9:0 10:0 11:0 12:0 13:-100 14:0 15:0 16:0 17:0 18:0 19:0 20:0 21:20 22:40 23:20 24:20 25:40 26:0 27:0 28:20 29:80 30:20 31:0 32:20 33:0 34:0 35:20 36:0 37:20 38:40 39:0 40:0 41:64 42:50 
2 1:0 2:0 3:0 4:0 5:100 6:0 7:-100 8:0 9:0 10:0 11:0 12:0 13:0 14:0 15:0 16:0 17:0 18:0 19:0 20:0 21:40 22:0 23:20 24:0 25:40 26:20 27:0 28:80 29:0 30:0 31:20 32:0 33:0 34:0 35:0 36:40 37:0 38:60 39:40 40:0 41:50 42:70 
2 1:0 2:0 3:0 4:0 5:100 6:0 7:-100 8:0 9:0 10:0 11:0 12:0 13:0 14:0 15:0 16:0 17:0 18:0 19:0 20:0 21:40 22:0 23:20 24:0 25:40 26:20 27:0 28:80 29:0 30:0 31:20 32:0 33:0 34:0 35:0 36:40 37:0 38:60 39:40 40:0 41:50 42:70 
0.9974023762727081 1:-100 2:0 3:0 4:0 5:0 6:0 7:0 8:0 9:0 10:0 11:0 12:0 13:0 14:0 15:0 16:100 17:0 18:0 19:0 20:0 21:20 22:0 23:0 24:20 25:0 26:40 27:0 28:40 29:40 30:20 31:20 32:0 33:20 34:20 35:0 36:80 37:0 38:0 39:20 40:20 41:32 42:66 
2 1:0 2:0 3:0 4:0 5:0 6:0 7:0 8:0 9:0 10:0 11:0 12:0 13:0 14:0 15:100 16:-100 17:0 18:0 19:0 20:0 21:0 22:20 23:20 24:0 25:20 26:20 27:0 28:80 29:0 30:20 31:40 32:20 33:0 34:0 35:40 36:20 37:0 38:20 39:20 40:20 41:45 42:25 
0.4020787225846245 1:0 2:0 3:0 4:0 5:0 6:0 7:0 8:0 9:0 10:0 11:0 12:0 13:0 14:0 15:100 16:-100 17:0 18:0 19:0 20:0 21:0 22:20 23:20 24:0 25:20 26:20 27:0 28:80 29:0 30:20 31:40 32:20 33:0 34:0 35:40 36:20 37:0 38:20 39:20 40:20 41:45 42:25 
0.2439006197958438 1:0 2:0 3:0 4:0 5:0 6:0 7:0 8:0 9:0 10:0 11:0 12:0 13:0 14:0 15:0 16:100 17:0 18:-100 19:0 20:0 21:40 22:0 23:0 24:40 25:20 26:0 27:0 28:20 29:0 30:0 31:0 32:100 33:0 34:0 35:20 36:40 37:0 38:40 39:20 40:20 41:50 42:25 
2 1:0 2:0 3:0 4:0 5:100 6:0 7:-100 8:0 9:0 10:0 11:0 12:0 13:0 14:0 15:0 16:0 17:0 18:0 19:0 20:0 21:60 22:80 23:20 24:0 25:0 26:0 27:20 28:20 29:0 30:20 31:0 32:20 33:20 34:0 35:0 36:20 37:0 38:20 39:20 40:40 41:50 42:25 
0.5111799298630664 1:-100 2:0 3:0 4:0 5:0 6:0 7:0 8:0 9:0 10:0 11:0 12:0 13:0 14:0 15:0 16:0 17:0 18:0 19:0 20:100 21:0 22:20 23:0 24:0 25:20 26:0 27:0 28:0 29:20 30:0 31:0 32:20 33:20 34:0 35:40 36:20 37:0 38:40 39:0 40:0 41:19 42:64 
2 1:-100 2:100 3:0 4:0 5:0 6:0 7:0 8:0 9:0 10:0 11:0 12:0 13:0 14:0 15:0 16:0 17:0 18:0 19:0 20:0 21:0 22:20 23:0 24:0 25:20 26:0 27:0 28:0 29:20 30:0 31:0 32:20 33:20 34:0 35:40 36:20 37:0 38:40 39:0 40:0 41:19 42:64 
1.554073055907212 1:-100 2:0 3:0 4:100 5:0 6:0 7:0 8:0 9:0 10:0 11:0 12:0 13:0 14:0 15:0 16:0 17:0 18:0 19:0 20:0 21:0 22:20 23:0 24:0 25:20 26:0 27:0 28:0 29:20 30:0 31:0 32:20 33:20 34:0 35:40 36:20 37:0 38:40 39:0 40:0 41:19 42:64 
0.9256347113766207 1:0 2:0 3:0 4:0 5:0 6:0 7:0 8:0 9:100 10:0 11:0 12:0 13:0 14:0 15:-100 16:0 17:0 18:0 19:0 20:0 21:0 22:0 23:40 24:0 25:20 26:0 27:60 28:20 29:40 30:60 31:0 32:20 33:20 34:0 35:20 36:40 37:0 38:0 39:20 40:0 41:50 42:39 
0.3206400541658573 1:-100 2:0 3:0 4:0 5:0 6:0 7:0 8:0 9:0 10:0 11:0 12:0 13:0 14:0 15:100 16:0 17:0 18:0 19:0 20:0 21:0 22:20 23:0 24:0 25:20 26:0 27:0 28:0 29:20 30:0 31:0 32:20 33:20 34:0 35:40 36:20 37:0 38:40 39:0 40:0 41:19 42:64 
0.05011248616922939 1:0 2:-100 3:0 4:0 5:0 6:0 7:0 8:0 9:100 10:0 11:0 12:0 13:0 14:0 15:0 16:0 17:0 18:0 19:0 20:0 21:0 22:60 23:0 24:0 25:0 26:0 27:0 28:20 29:40 30:20 31:60 32:20 33:0 34:20 35:0 36:60 37:0 38:20 39:20 40:20 41:38 42:53 
0.7535836457410249 1:0 2:0 3:0 4:0 5:0 6:0 7:100 8:0 9:0 10:-100 11:0 12:0 13:0 14:0 15:0 16:0 17:0 18:0 19:0 20:0 21:0 22:40 23:20 24:20 25:20 26:0 27:40 28:60 29:20 30:20 31:0 32:40 33:0 34:0 35:0 36:60 37:0 38:0 39:20 40:0 41:32 42:25 
1.26446819952142 1:100 2:0 3:0 4:0 5:0 6:0 7:0 8:0 9:0 10:-100 11:0 12:0 13:0 14:0 15:0 16:0 17:0 18:0 19:0 20:0 21:0 22:40 23:20 24:20 25:20 26:0 27:40 28:60 29:20 30:20 31:0 32:40 33:0 34:0 35:0 36:60 37:0 38:0 39:20 40:0 41:32 42:25 
1.936549276245139 1:0 2:100 3:0 4:0 5:0 6:0 7:0 8:0 9:0 10:-100 11:0 12:0 13:0 14:0 15:0 16:0 17:0 18:0 19:0 20:0 21:0 22:40 23:20 24:20 25:20 26:0 27:40 28:60 29:20 30:20 31:0 32:40 33:0 34:0 35:0 36:60 37:0 38:0 39:20 40:0 41:32 42:25 
1.798363979813512 1:0 2:0 3:0 4:0 5:0 6:0 7:0 8:0 9:100 10:0 11:-100 12:0 13:0 14:0 15:0 16:0 17:0 18:0 19:0 20:0 21:20 22:20 23:20 24:0 25:0 26:20 27:60 28:60 29:0 30:60 31:60 32:0 33:0 34:0 35:0 36:0 37:0 38:20 39:0 40:20 41:50 42:50 
2 1:0 2:0 3:0 4:0 5:0 6:0 7:0 8:0 9:0 10:0 11:0 12:-100 13:0 14:0 15:0 16:0 17:0 18:0 19:0 20:100 21:40 22:20 23:20 24:40 25:40 26:0 27:0 28:60 29:20 30:0 31:20 32:20 33:0 34:0 35:0 36:0 37:20 38:20 39:40 40:0 41:14 42:39 
2 1:0 2:0 3:0 4:0 5:-100 6:0 7:100 8:0 9:0 10:0 11:0 12:0 13:0 14:0 15:0 16:0 17:0 18:0 19:0 20:0 21:0 22:20 23:20 24:20 25:0 26:0 27:20 28:60 29:20 30:20 31:0 32:20 33:0 34:0 35:20 36:100 37:0 38:20 39:0 40:20 41:42 42:25 
2 1:100 2:0 3:0 4:0 5:0 6:0 7:0 8:0 9:-100 10:0 11:0 12:0 13:0 14:0 15:0 16:0 17:0 18:0 19:0 20:0 21:20 22:40 23:20 24:40 25:20 26:0 27:0 28:100 29:20 30:0 31:20 32:0 33:0 34:0 35:0 36:0 37:20 38:0 39:60 40:0 41:57 42:51 
1.728388491669569 1:0 2:0 3:0 4:0 5:0 6:0 7:0 8:-100 9:0 10:0 11:0 12:0 13:0 14:0 15:100 16:0 17:0 18:0 19:0 20:0 21:40 22:40 23:20 24:0 25:20 26:0 27:20 28:0 29:20 30:60 31:20 32:40 33:0 34:0 35:0 36:20 37:0 38:20 39:20 40:20 41:52 42:88 
1.033581652496351 1:0 2:0 3:0 4:0 5:0 6:0 7:0 8:0 9:0 10:0 11:0 12:0 13:0 14:0 15:100 16:-100 17:0 18:0 19:0 20:0 21:20 22:20 23:40 24:20 25:20 26:0 27:40 28:20 29:20 30:0 31:20 32:40 33:0 34:20 35:0 36:0 37:20 38:20 39:20 40:20 41:37 42:5 
2 1:0 2:0 3:0 4:0 5:0 6:0 7:0 8:0 9:0 10:0 11:0 12:0 13:0 14:0 15:0 16:-100 17:0 18:100 19:0 20:0 21:20 22:20 23:40 24:20 25:20 26:0 27:40 28:20 29:20 30:0 31:20 32:40 33:0 34:20 35:0 36:0 37:20 38:20 39:20 40:20 41:37 42:5 
0.5777771419686925 1:0 2:0 3:0 4:0 5:0 6:0 7:0 8:0 9:100 10:0 11:0 12:0 13:0 14:0 15:0 16:-100 17:0 18:0 19:0 20:0 21:20 22:40 23:20 24:0 25:0 26:0 27:0 28:40 29:60 30:0 31:20 32:0 33:20 34:0 35:20 36:20 37:0 38:20 39:60 40:20 41:21 42:51 
0.7991025348368486 1:0 2:0 3:0 4:0 5:0 6:0 7:0 8:0 9:100 10:0 11:0 12:0 13:0 14:0 15:0 16:-100 17:0 18:0 19:0 20:0 21:20 22:40 23:20 24:0 25:0 26:0 27:0 28:40 29:60 30:0 31:20 32:0 33:20 34:0 35:20 36:20 37:0 38:20 39:60 40:20 41:47 42:62 
0.7326653075159809 1:0 2:0 3:0 4:0 5:0 6:0 7:0 8:0 9:0 10:0 11:100 12:0 13:0 14:0 15:-100 16:0 17:0 18:0 19:0 20:0 21:0 22:40 23:60 24:40 25:0 26:0 27:0 28:40 29:0 30:20 31:40 32:40 33:20 34:0 35:20 36:0 37:0 38:20 39:20 40:0 41:51 42:10 
2 1:100 2:0 3:0 4:0 5:0 6:0 7:0 8:0 9:-100 10:0 11:0 12:0 13:0 14:0 15:0 16:0 17:0 18:0 19:0 20:0 21:40 22:40 23:20 24:40 25:20 26:0 27:0 28:20 29:20 30:0 31:20 32:0 33:20 34:0 35:40 36:0 37:20 38:0 39:20 40:40 41:21 42:40 
2 1:0 2:0 3:0 4:0 5:0 6:0 7:0 8:0 9:0 10:0 11:0 12:0 13:0 14:100 15:0 16:0 17:0 18:0 19:-100 20:0 21:20 22:0 23:20 24:0 25:20 26:20 27:20 28:0 29:20 30:20 31:20 32:60 33:0 34:0 35:60 36:40 37:20 38:0 39:20 40:0 41:14 42:39 
2 1:0 2:0 3:0 4:0 5:0 6:0 7:0 8:0 9:0 10:0 11:0 12:0 13:0 14:0 15:0 16:0 17:0 18:0 19:-100 20:100 21:20 22:0 23:20 24:0 25:20 26:20 27:20 28:0 29:20 30:20 31:20 32:60 33:0 34:0 35:60 36:40 37:20 38:0 39:20 40:0 41:14 42:40 
0.9642669142415596 1:0 2:0 3:0 4:0 5:0 6:0 7:0 8:0 9:100 10:0 11:0 12:-100 13:0 14:0 15:0 16:0 17:0 18:0 19:0 20:0 21:40 22:80 23:20 24:0 25:0 26:0 27:0 28:40 29:40 30:0 31:20 32:20 33:0 34:20 35:0 36:40 37:0 38:20 39:0 40:20 41:68 42:82 
2 1:0 2:0 3:0 4:0 5:0 6:0 7:0 8:0 9:0 10:0 11:0 12:0 13:0 14:100 15:0 16:-100 17:0 18:0 19:0 20:0 21:40 22:60 23:20 24:20 25:40 26:0 27:20 28:40 29:0 30:0 31:60 32:20 33:0 34:20 35:0 36:0 37:20 38:0 39:0 40:0 41:50 42:25 
0.8051160562566788 1:0 2:0 3:0 4:0 5:0 6:0 7:0 8:0 9:0 10:0 11:0 12:0 13:0 14:100 15:0 16:-100 17:0 18:0 19:0 20:0 21:40 22:60 23:20 24:20 25:40 26:0 27:20 28:40 29:0 30:0 31:60 32:20 33:0 34:20 35:0 36:0 37:20 38:0 39:0 40:0 41:50 42:25 
1.927412172846593 1:0 2:0 3:0 4:0 5:0 6:0 7:0 8:0 9:0 10:0 11:0 12:0 13:0 14:0 15:0 16:0 17:0 18:0 19:100 20:-100 21:0 22:60 23:20 24:20 25:0 26:0 27:20 28:60 29:40 30:0 31:20 32:20 33:0 34:0 35:60 36:20 37:0 38:0 39:20 40:0 41:28 42:65 
2 1:0 2:0 3:0 4:0 5:0 6:0 7:0 8:0 9:0 10:0 11:0 12:0 13:0 14:100 15:0 16:0 17:0 18:0 19:0 20:-100 21:20 22:40 23:20 24:20 25:20 26:0 27:20 28:0 29:20 30:20 31:20 32:20 33:0 34:40 35:0 36:60 37:0 38:40 39:0 40:0 41:37 42:5 
0.5608912450247191 1:0 2:0 3:-100 4:0 5:100 6:0 7:0 8:0 9:0 10:0 11:0 12:0 13:0 14:0 15:0 16:0 17:0 18:0 19:0 20:0 21:40 22:40 23:0 24:0 25:0 26:0 27:40 28:40 29:20 30:40 31:0 32:20 33:0 34:0 35:0 36:20 37:20 38:40 39:20 40:20 41:50 42:25 
1.9765887304074 1:0 2:100 3:0 4:0 5:0 6:0 7:0 8:0 9:-100 10:0 11:0 12:0 13:0 14:0 15:0 16:0 17:0 18:0 19:0 20:0 21:0 22:40 23:0 24:20 25:40 26:0 27:0 28:60 29:60 30:0 31:0 32:0 33:0 34:0 35:20 36:20 37:20 38:20 39:20 40:40 41:55 42:4 
1.448954377735619 1:0 2:100 3:0 4:0 5:0 6:0 7:0 8:0 9:-100 10:0 11:0 12:0 13:0 14:0 15:0 16:0 17:0 18:0 19:0 20:0 21:0 22:40 23:0 24:20 25:40 26:0 27:0 28:60 29:60 30:0 31:0 32:0 33:0 34:0 35:20 36:20 37:20 38:20 39:20 40:40 41:55 42:4 
2 1:0 2:-100 3:0 4:100 5:0 6:0 7:0 8:0 9:0 10:0 11:0 12:0 13:0 14:0 15:0 16:0 17:0 18:0 19:0 20:0 21:0 22:20 23:20 24:20 25:20 26:0 27:0 28:20 29:100 30:0 31:0 32:0 33:0 34:0 35:20 36:40 37:20 38:20 39:20 40:40 41:78 42:76 
2 1:-100 2:0 3:0 4:0 5:0 6:0 7:100 8:0 9:0 10:0 11:0 12:0 13:0 14:0 15:0 16:0 17:0 18:0 19:0 20:0 21:0 22:0 23:20 24:0 25:0 26:40 27:0 28:20 29:40 30:20 31:0 32:0 33:20 34:0 35:100 36:0 37:40 38:0 39:40 40:20 41:19 42:64 
0.5680425076082563 1:0 2:0 3:0 4:-100 5:0 6:0 7:0 8:0 9:0 10:0 11:0 12:100 13:0 14:0 15:0 16:0 17:0 18:0 19:0 20:0 21:40 22:0 23:20 24:0 25:0 26:40 27:0 28:40 29:40 30:0 31:20 32:0 33:0 34:0 35:40 36:40 37:0 38:0 39:60 40:20 41:67 42:20 
2 1:-100 2:0 3:0 4:0 5:100 6:0 7:0 8:0 9:0 10:0 11:0 12:0 13:0 14:0 15:0 16:0 17:0 18:0 19:0 20:0 21:0 22:0 23:20 24:0 25:0 26:40 27:0 28:20 29:40 30:20 31:0 32:0 33:20 34:0 35:100 36:0 37:40 38:0 39:40 40:20 41:19 42:64 
2 1:0 2:0 3:0 4:0 5:0 6:0 7:0 8:0 9:0 10:0 11:0 12:0 13:0 14:0 15:0 16:100 17:0 18:0 19:-100 20:0 21:0 22:40 23:0 24:20 25:0 26:20 27:40 28:60 29:40 30:0 31:20 32:0 33:0 34:20 35:40 36:20 37:0 38:0 39:20 40:20 41:45 42:74 
2 1:0 2:0 3:0 4:0 5:0 6:0 7:0 8:0 9:0 10:0 11:0 12:0 13:0 14:0 15:100 16:0 17:0 18:-100 19:0 20:0 21:60 22:20 23:20 24:0 25:0 26:0 27:0 28:20 29:60 30:0 31:40 32:20 33:0 34:0 35:0 36:40 37:40 38:20 39:20 40:0 41:47 42:50 
0.8450729685323815 1:0 2:0 3:0 4:0 5:0 6:0 7:0 8:0 9:100 10:0 11:0 12:0 13:0 14:0 15:0 16:0 17:0 18:-100 19:0 20:0 21:40 22:20 23:20 24:0 25:20 26:20 27:40 28:20 29:0 30:40 31:100 32:0 33:0 34:0 35:0 36:0 37:0 38:0 39:0 40:40 41:50 42:48 
0.2249769459438389 1:0 2:0 3:0 4:0 5:0 6:0 7:0 8:0 9:0 10:0 11:0 12:0 13:0 14:0 15:0 16:-100 17:0 18:0 19:100 20:0 21:20 22:0 23:60 24:0 25:0 26:0 27:0 28:20 29:20 30:40 31:20 32:20 33:0 34:0 35:0 36:40 37:20 38:40 39:20 40:40 41:35 42:25 
2 1:0 2:0 3:0 4:0 5:0 6:0 7:0 8:0 9:0 10:0 11:0 12:0 13:0 14:0 15:0 16:-100 17:100 18:0 19:0 20:0 21:20 22:0 23:60 24:0 25:0 26:0 27:0 28:20 29:20 30:40 31:20 32:20 33:0 34:0 35:0 36:40 37:20 38:40 39:20 40:40 41:35 42:25 
0.01560061504680367 1:0 2:0 3:0 4:0 5:0 6:0 7:0 8:0 9:0 10:0 11:0 12:0 13:0 14:-100 15:0 16:0 17:0 18:0 19:100 20:0 21:0 22:60 23:40 24:0 25:0 26:0 27:40 28:60 29:0 30:20 31:40 32:40 33:0 34:0 35:0 36:20 37:0 38:20 39:20 40:0 41:39 42:66 
1.61394083426312 1:0 2:0 3:0 4:0 5:0 6:0 7:0 8:0 9:0 10:0 11:0 12:0 13:100 14:0 15:0 16:0 17:0 18:0 19:0 20:-100 21:60 22:80 23:0 24:0 25:0 26:0 27:40 28:20 29:0 30:20 31:20 32:0 33:20 34:0 35:0 36:0 37:20 38:40 39:40 40:0 41:50 42:25 
0.3349430019254207 1:0 2:0 3:0 4:0 5:0 6:0 7:0 8:0 9:0 10:0 11:0 12:0 13:100 14:0 15:0 16:0 17:0 18:0 19:0 20:-100 21:60 22:80 23:0 24:0 25:0 26:0 27:40 28:20 29:0 30:20 31:20 32:0 33:20 34:0 35:0 36:0 37:20 38:40 39:40 40:0 41:50 42:25 
2 1:0 2:0 3:0 4:0 5:0 6:0 7:0 8:-100 9:100 10:0 11:0 12:0 13:0 14:0 15:0 16:0 17:0 18:0 19:0 20:0 21:40 22:40 23:40 24:0 25:0 26:20 27:0 28:20 29:60 30:0 31:0 32:0 33:0 34:20 35:20 36:20 37:20 38:20 39:0 40:40 41:68 42:82 
1.505686958539152 1:0 2:0 3:0 4:0 5:0 6:0 7:0 8:0 9:100 10:-100 11:0 12:0 13:0 14:0 15:0 16:0 17:0 18:0 19:0 20:0 21:60 22:40 23:60 24:0 25:0 26:0 27:0 28:0 29:40 30:20 31:0 32:0 33:0 34:0 35:0 36:60 37:40 38:20 39:0 40:20 41:44 42:25 
1.43160326361741 1:0 2:0 3:0 4:0 5:0 6:0 7:0 8:-100 9:100 10:0 11:0 12:0 13:0 14:0 15:0 16:0 17:0 18:0 19:0 20:0 21:20 22:0 23:40 24:0 25:0 26:40 27:20 28:0 29:0 30:0 31:40 32:40 33:0 34:20 35:20 36:20 37:60 38:0 39:20 40:20 41:21 42:49 
0.5638952074013437 1:0 2:0 3:0 4:0 5:0 6:0 7:0 8:0 9:100 10:0 11:0 12:0 13:0 14:0 15:0 16:-100 17:0 18:0 19:0 20:0 21:20 22:80 23:20 24:0 25:0 26:0 27:0 28:40 29:60 30:0 31:0 32:20 33:0 34:40 35:0 36:40 37:0 38:40 39:0 40:0 41:28 42:25 
2 1:0 2:0 3:0 4:0 5:100 6:0 7:-100 8:0 9:0 10:0 11:0 12:0 13:0 14:0 15:0 16:0 17:0 18:0 19:0 20:0 21:60 22:0 23:0 24:0 25:0 26:0 27:0 28:40 29:0 30:0 31:0 32:0 33:40 34:0 35:60 36:0 37:60 38:0 39:20 40:20 41:19 42:64 
0.51856304042028 1:-100 2:0 3:0 4:0 5:0 6:0 7:0 8:0 9:100 10:0 11:0 12:0 13:0 14:0 15:0 16:0 17:0 18:0 19:0 20:0 21:60 22:40 23:0 24:0 25:0 26:40 27:0 28:20 29:60 30:0 31:0 32:0 33:0 34:20 35:0 36:20 37:20 38:60 39:0 40:20 41:68 42:82 
1.384255653111818 1:0 2:0 3:0 4:0 5:0 6:0 7:0 8:0 9:0 10:0 11:0 12:0 13:0 14:0 15:0 16:0 17:0 18:0 19:100 20:-100 21:20 22:0 23:20 24:0 25:0 26:20 27:20 28:40 29:40 30:20 31:20 32:20 33:20 34:0 35:20 36:20 37:20 38:0 39:60 40:0 41:15 42:65 
2 1:0 2:0 3:0 4:0 5:0 6:0 7:0 8:0 9:0 10:0 11:0 12:0 13:0 14:0 15:0 16:0 17:0 18:0 19:100 20:-100 21:20 22:0 23:20 24:0 25:0 26:20 27:20 28:40 29:40 30:20 31:20 32:20 33:20 34:0 35:20 36:20 37:20 38:0 39:60 40:0 41:28 42:65 
2 1:0 2:0 3:0 4:0 5:0 6:0 7:0 8:0 9:0 10:0 11:0 12:0 13:0 14:0 15:0 16:0 17:0 18:0 19:100 20:-100 21:20 22:0 23:20 24:0 25:0 26:20 27:20 28:40 29:40 30:20 31:20 32:20 33:20 34:0 35:20 36:20 37:20 38:0 39:60 40:0 41:16 42:65 
2 1:0 2:0 3:0 4:0 5:0 6:0 7:0 8:0 9:0 10:0 11:0 12:0 13:0 14:0 15:0 16:0 17:0 18:0 19:100 20:-100 21:20 22:0 23:20 24:0 25:0 26:20 27:20 28:40 29:40 30:20 31:20 32:20 33:20 34:0 35:20 36:20 37:20 38:0 39:60 40:0 41:32 42:65 
2 1:100 2:0 3:0 4:0 5:0 6:0 7:0 8:0 9:0 10:0 11:-100 12:0 13:0 14:0 15:0 16:0 17:0 18:0 19:0 20:0 21:40 22:40 23:40 24:0 25:0 26:0 27:0 28:0 29:60 30:0 31:60 32:20 33:20 34:0 35:0 36:40 37:0 38:0 39:20 40:20 41:45 42:74 
2 1:0 2:0 3:0 4:0 5:0 6:0 7:100 8:0 9:0 10:0 11:-100 12:0 13:0 14:0 15:0 16:0 17:0 18:0 19:0 20:0 21:40 22:40 23:40 24:0 25:0 26:0 27:0 28:0 29:60 30:0 31:60 32:20 33:20 34:0 35:0 36:40 37:0 38:0 39:20 40:20 41:45 42:74 
0.2156439234413242 1:0 2:0 3:0 4:0 5:-100 6:0 7:0 8:0 9:100 10:0 11:0 12:0 13:0 14:0 15:0 16:0 17:0 18:0 19:0 20:0 21:60 22:0 23:40 24:0 25:20 26:0 27:0 28:40 29:20 30:0 31:20 32:0 33:0 34:20 35:0 36:0 37:40 38:60 39:0 40:40 41:50 42:60 
2 1:0 2:0 3:0 4:0 5:0 6:0 7:0 8:0 9:0 10:0 11:-100 12:0 13:0 14:0 15:0 16:0 17:0 18:0 19:0 20:100 21:40 22:40 23:40 24:0 25:0 26:0 27:0 28:0 29:60 30:0 31:60 32:20 33:20 34:0 35:0 36:40 37:0 38:0 39:20 40:20 41:45 42:74 
2 1:0 2:0 3:0 4:0 5:0 6:0 7:0 8:0 9:100 10:0 11:-100 12:0 13:0 14:0 15:0 16:0 17:0 18:0 19:0 20:0 21:40 22:40 23:40 24:0 25:0 26:0 27:0 28:0 29:60 30:0 31:60 32:20 33:20 34:0 35:0 36:40 37:0 38:0 39:20 40:20 41:45 42:74 
0.625843762595749 1:0 2:0 3:0 4:0 5:0 6:-100 7:100 8:0 9:0 10:0 11:0 12:0 13:0 14:0 15:0 16:0 17:0 18:0 19:0 20:0 21:0 22:40 23:40 24:0 25:0 26:0 27:60 28:0 29:0 30:0 31:60 32:40 33:0 34:20 35:20 36:20 37:0 38:0 39:0 40:60 41:41 42:25 
0.1476986900386545 1:0 2:0 3:0 4:0 5:0 6:0 7:0 8:0 9:0 10:0 11:0 12:-100 13:0 14:0 15:0 16:0 17:0 18:0 19:0 20:100 21:0 22:40 23:20 24:0 25:0 26:20 27:40 28:20 29:40 30:20 31:20 32:0 33:0 34:20 35:0 36:40 37:20 38:20 39:20 40:20 41:45 42:25 
1.360324932171972 1:0 2:0 3:0 4:0 5:0 6:0 7:0 8:100 9:0 10:0 11:-100 12:0 13:0 14:0 15:0 16:0 17:0 18:0 19:0 20:0 21:20 22:40 23:20 24:0 25:0 26:20 27:20 28:20 29:60 30:20 31:0 32:20 33:0 34:0 35:0 36:40 37:20 38:20 39:20 40:20 41:45 42:25 
2 1:100 2:-100 3:0 4:0 5:0 6:0 7:0 8:0 9:0 10:0 11:0 12:0 13:0 14:0 15:0 16:0 17:0 18:0 19:0 20:0 21:40 22:60 23:20 24:0 25:0 26:0 27:0 28:40 29:40 30:0 31:0 32:40 33:0 34:20 35:0 36:80 37:0 38:0 39:0 40:20 41:78 42:76 
2 1:0 2:100 3:0 4:0 5:-100 6:0 7:0 8:0 9:0 10:0 11:0 12:0 13:0 14:0 15:0 16:0 17:0 18:0 19:0 20:0 21:0 22:40 23:20 24:0 25:20 26:0 27:0 28:40 29:40 30:40 31:0 32:20 33:20 34:0 35:40 36:0 37:20 38:0 39:20 40:40 41:51 42:51 
1.334427113086127 1:0 2:-100 3:0 4:0 5:0 6:0 7:0 8:0 9:100 10:0 11:0 12:0 13:0 14:0 15:0 16:0 17:0 18:0 19:0 20:0 21:40 22:60 23:20 24:0 25:0 26:0 27:0 28:40 29:40 30:0 31:0 32:40 33:0 34:20 35:0 36:80 37:0 38:0 39:0 40:20 41:78 42:76 
0.5035300895348882 1:0 2:0 3:0 4:0 5:0 6:0 7:0 8:0 9:0 10:0 11:0 12:0 13:0 14:0 15:0 16:100 17:0 18:-100 19:0 20:0 21:20 22:40 23:0 24:20 25:0 26:20 27:0 28:0 29:60 30:0 31:20 32:0 33:0 34:0 35:60 36:40 37:40 38:0 39:20 40:20 41:21 42:47 
0.05474952830662858 1:100 2:-100 3:0 4:0 5:0 6:0 7:0 8:0 9:0 10:0 11:0 12:0 13:0 14:0 15:0 16:0 17:0 18:0 19:0 20:0 21:40 22:20 23:20 24:0 25:0 26:0 27:40 28:20 29:40 30:60 31:0 32:20 33:0 34:0 35:0 36:20 37:20 38:40 39:0 40:20 41:50 42:25 
2 1:0 2:0 3:100 4:0 5:0 6:0 7:0 8:0 9:0 10:0 11:0 12:-100 13:0 14:0 15:0 16:0 17:0 18:0 19:0 20:0 21:40 22:0 23:0 24:0 25:20 26:0 27:40 28:40 29:0 30:40 31:40 32:20 33:0 34:0 35:0 36:40 37:40 38:0 39:0 40:40 41:52 42:88 
2 1:0 2:0 3:0 4:0 5:0 6:0 7:0 8:0 9:0 10:0 11:0 12:0 13:0 14:0 15:0 16:0 17:-100 18:100 19:0 20:0 21:40 22:20 23:20 24:40 25:40 26:0 27:0 28:60 29:40 30:0 31:0 32:20 33:20 34:0 35:20 36:0 37:0 38:20 39:20 40:0 41:15 42:42 
2 1:0 2:0 3:0 4:0 5:0 6:0 7:0 8:0 9:0 10:0 11:0 12:0 13:0 14:0 15:0 16:0 17:-100 18:100 19:0 20:0 21:40 22:20 23:20 24:40 25:40 26:0 27:0 28:60 29:40 30:0 31:0 32:20 33:20 34:0 35:20 36:0 37:0 38:20 39:20 40:0 41:41 42:66 
0.2305452520814966 1:0 2:0 3:0 4:0 5:0 6:0 7:0 8:0 9:0 10:0 11:0 12:-100 13:0 14:0 15:0 16:0 17:100 18:0 19:0 20:0 21:0 22:40 23:20 24:0 25:0 26:20 27:40 28:20 29:40 30:20 31:20 32:0 33:0 34:20 35:0 36:40 37:20 38:20 39:20 40:20 41:45 42:25 
0.8363491872460203 1:-100 2:0 3:0 4:0 5:0 6:0 7:0 8:0 9:0 10:0 11:0 12:0 13:100 14:0 15:0 16:0 17:0 18:0 19:0 20:0 21:0 22:0 23:20 24:0 25:20 26:20 27:0 28:20 29:20 30:20 31:0 32:100 33:0 34:0 35:60 36:20 37:20 38:0 39:40 40:0 41:38 42:59 
1.626644155550252 1:-100 2:0 3:100 4:0 5:0 6:0 7:0 8:0 9:0 10:0 11:0 12:0 13:0 14:0 15:0 16:0 17:0 18:0 19:0 20:0 21:0 22:0 23:20 24:0 25:20 26:20 27:0 28:20 29:20 30:20 31:0 32:100 33:0 34:0 35:60 36:20 37:20 38:0 39:40 40:0 41:38 42:59 
0.4587142878983886 1:0 2:0 3:0 4:0 5:0 6:0 7:0 8:0 9:100 10:0 11:0 12:0 13:0 14:0 15:0 16:0 17:-100 18:0 19:0 20:0 21:40 22:20 23:20 24:40 25:40 26:0 27:0 28:60 29:40 30:0 31:0 32:20 33:20 34:0 35:20 36:0 37:0 38:20 39:20 40:0 41:41 42:66 
0.6139927588406257 1:0 2:0 3:0 4:0 5:0 6:0 7:0 8:0 9:0 10:0 11:100 12:0 13:-100 14:0 15:0 16:0 17:0 18:0 19:0 20:0 21:0 22:0 23:20 24:60 25:0 26:0 27:40 28:40 29:0 30:20 31:40 32:0 33:20 34:20 35:40 36:0 37:0 38:0 39:60 40:0 41:51 42:10 
2 1:0 2:0 3:0 4:0 5:0 6:0 7:0 8:0 9:100 10:0 11:0 12:0 13:0 14:0 15:0 16:0 17:0 18:0 19:-100 20:0 21:40 22:20 23:0 24:0 25:20 26:0 27:0 28:20 29:60 30:0 31:0 32:20 33:0 34:0 35:20 36:40 37:20 38:40 39:0 40:60 41:17 42:47 
0.305399215248757 1:0 2:-100 3:100 4:0 5:0 6:0 7:0 8:0 9:0 10:0 11:0 12:0 13:0 14:0 15:0 16:0 17:0 18:0 19:0 20:0 21:60 22:60 23:0 24:0 25:0 26:0 27:40 28:20 29:0 30:20 31:0 32:0 33:20 34:0 35:0 36:20 37:20 38:40 39:40 40:20 41:50 42:25 
1.273433397633253 1:100 2:-100 3:0 4:0 5:0 6:0 7:0 8:0 9:0 10:0 11:0 12:0 13:0 14:0 15:0 16:0 17:0 18:0 19:0 20:0 21:60 22:60 23:0 24:0 25:0 26:0 27:40 28:20 29:0 30:20 31:0 32:0 33:20 34:0 35:0 36:20 37:20 38:40 39:40 40:20 41:50 42:25 
2 1:0 2:0 3:0 4:0 5:100 6:0 7:-100 8:0 9:0 10:0 11:0 12:0 13:0 14:0 15:0 16:0 17:0 18:0 19:0 20:0 21:0 22:20 23:0 24:20 25:0 26:20 27:20 28:20 29:60 30:0 31:20 32:40 33:20 34:0 35:20 36:20 37:0 38:20 39:60 40:0 41:19 42:64 
2 1:0 2:0 3:0 4:0 5:0 6:0 7:0 8:0 9:0 10:0 11:0 12:0 13:0 14:0 15:0 16:0 17:0 18:0 19:100 20:-100 21:40 22:0 23:0 24:0 25:0 26:20 27:20 28:40 29:20 30:0 31:0 32:0 33:40 34:0 35:80 36:0 37:60 38:0 39:40 40:0 41:28 42:65 
2 1:0 2:0 3:0 4:0 5:0 6:0 7:0 8:-100 9:100 10:0 11:0 12:0 13:0 14:0 15:0 16:0 17:0 18:0 19:0 20:0 21:0 22:20 23:0 24:20 25:0 26:40 27:40 28:0 29:40 30:0 31:20 32:40 33:20 34:0 35:20 36:20 37:0 38:20 39:60 40:0 41:19 42:64 
0.3315681556218939 1:0 2:0 3:0 4:0 5:100 6:-100 7:0 8:0 9:0 10:0 11:0 12:0 13:0 14:0 15:0 16:0 17:0 18:0 19:0 20:0 21:0 22:20 23:20 24:0 25:0 26:0 27:40 28:0 29:40 30:0 31:80 32:0 33:0 34:0 35:0 36:40 37:20 38:40 39:20 40:40 41:50 42:52 
0.298737782473672 1:100 2:0 3:0 4:0 5:0 6:0 7:0 8:0 9:0 10:0 11:0 12:0 13:-100 14:0 15:0 16:0 17:0 18:0 19:0 20:0 21:20 22:60 23:0 24:0 25:0 26:0 27:60 28:20 29:0 30:40 31:20 32:0 33:0 34:0 35:0 36:20 37:20 38:40 39:40 40:20 41:50 42:25 
1.529146227607092 1:0 2:0 3:0 4:0 5:0 6:0 7:0 8:0 9:0 10:0 11:0 12:100 13:-100 14:0 15:0 16:0 17:0 18:0 19:0 20:0 21:20 22:60 23:0 24:0 25:0 26:0 27:60 28:20 29:0 30:40 31:20 32:0 33:0 34:0 35:0 36:20 37:20 38:40 39:40 40:20 41:50 42:25 
0.9570737269477627 1:0 2:0 3:100 4:-100 5:0 6:0 7:0 8:0 9:0 10:0 11:0 12:0 13:0 14:0 15:0 16:0 17:0 18:0 19:0 20:0 21:40 22:0 23:0 24:0 25:40 26:0 27:0 28:20 29:40 30:0 31:60 32:0 33:20 34:20 35:20 36:0 37:0 38:60 39:40 40:0 41:22 42:53 
1.396894927090723 1:0 2:0 3:100 4:-100 5:0 6:0 7:0 8:0 9:0 10:0 11:0 12:0 13:0 14:0 15:0 16:0 17:0 18:0 19:0 20:0 21:40 22:0 23:0 24:0 25:40 26:0 27:0 28:20 29:40 30:0 31:60 32:0 33:20 34:20 35:20 36:0 37:0 38:60 39:40 40:0 41:50 42:82 
2 1:0 2:0 3:0 4:0 5:0 6:0 7:0 8:0 9:100 10:0 11:0 12:0 13:-100 14:0 15:0 16:0 17:0 18:0 19:0 20:0 21:20 22:60 23:0 24:0 25:0 26:0 27:60 28:20 29:0 30:40 31:20 32:0 33:0 34:0 35:0 36:20 37:20 38:40 39:40 40:20 41:50 42:25 
1.690499844216632 1:0 2:0 3:0 4:100 5:0 6:0 7:0 8:0 9:0 10:0 11:0 12:0 13:-100 14:0 15:0 16:0 17:0 18:0 19:0 20:0 21:20 22:60 23:0 24:0 25:0 26:0 27:60 28:20 29:0 30:40 31:20 32:0 33:0 34:0 35:0 36:20 37:20 38:40 39:40 40:20 41:50 42:25 
0.04709387118822197 1:0 2:0 3:0 4:0 5:0 6:100 7:-100 8:0 9:0 10:0 11:0 12:0 13:0 14:0 15:0 16:0 17:0 18:0 19:0 20:0 21:0 22:80 23:0 24:20 25:0 26:0 27:0 28:40 29:20 30:0 31:20 32:20 33:0 34:0 35:40 36:0 37:0 38:40 39:20 40:60 41:60 42:37 
1.875616722898289 1:0 2:100 3:0 4:0 5:0 6:0 7:-100 8:0 9:0 10:0 11:0 12:0 13:0 14:0 15:0 16:0 17:0 18:0 19:0 20:0 21:0 22:80 23:0 24:20 25:0 26:0 27:0 28:40 29:20 30:0 31:20 32:20 33:0 34:0 35:40 36:0 37:0 38:40 39:20 40:60 41:60 42:37 
0.7421065673902377 1:0 2:-100 3:0 4:100 5:0 6:0 7:0 8:0 9:0 10:0 11:0 12:0 13:0 14:0 15:0 16:0 17:0 18:0 19:0 20:0 21:20 22:20 23:0 24:20 25:20 26:20 27:0 28:40 29:20 30:0 31:20 32:40 33:0 34:0 35:40 36:20 37:40 38:0 39:20 40:20 41:38 42:65 
2 1:0 2:0 3:0 4:0 5:0 6:0 7:100 8:0 9:0 10:0 11:0 12:0 13:0 14:0 15:0 16:0 17:-100 18:0 19:0 20:0 21:40 22:20 23:0 24:40 25:20 26:0 27:0 28:100 29:40 30:0 31:40 32:0 33:0 34:0 35:0 36:20 37:0 38:0 39:20 40:20 41:57 42:51 
2 1:0 2:0 3:0 4:0 5:0 6:0 7:0 8:0 9:-100 10:0 11:100 12:0 13:0 14:0 15:0 16:0 17:0 18:0 19:0 20:0 21:0 22:80 23:20 24:0 25:0 26:0 27:0 28:0 29:40 30:20 31:60 32:20 33:0 34:0 35:0 36:60 37:0 38:20 39:20 40:20 41:21 42:51 
1.580528319640072 1:0 2:100 3:-100 4:0 5:0 6:0 7:0 8:0 9:0 10:0 11:0 12:0 13:0 14:0 15:0 16:0 17:0 18:0 19:0 20:0 21:20 22:0 23:40 24:0 25:0 26:0 27:0 28:20 29:0 30:40 31:20 32:20 33:0 34:0 35:0 36:60 37:20 38:20 39:20 40:80 41:21 42:50 
2 1:100 2:0 3:-100 4:0 5:0 6:0 7:0 8:0 9:0 10:0 11:0 12:0 13:0 14:0 15:0 16:0 17:0 18:0 19:0 20:0 21:0 22:0 23:0 24:0 25:20 26:0 27:20 28:0 29:0 30:0 31:0 32:60 33:0 34:20 35:20 36:20 37:20 38:0 39:0 40:20 41:45 42:25 
0.8460550104339131 1:0 2:0 3:0 4:0 5:0 6:0 7:0 8:0 9:-100 10:0 11:0 12:0 13:100 14:0 15:0 16:0 17:0 18:0 19:0 20:0 21:20 22:20 23:0 24:0 25:0 26:0 27:20 28:40 29:40 30:0 31:80 32:20 33:0 34:20 35:0 36:0 37:40 38:20 39:0 40:40 41:17 42:0 
1.720099475509314 1:0 2:0 3:0 4:0 5:0 6:0 7:0 8:0 9:0 10:0 11:0 12:0 13:0 14:-100 15:100 16:0 17:0 18:0 19:0 20:0 21:20 22:40 23:20 24:0 25:0 26:0 27:60 28:20 29:20 30:20 31:0 32:40 33:0 34:0 35:0 36:40 37:20 38:0 39:20 40:40 41:45 42:25 
0.7553426510282131 1:0 2:100 3:-100 4:0 5:0 6:0 7:0 8:0 9:0 10:0 11:0 12:0 13:0 14:0 15:0 16:0 17:0 18:0 19:0 20:0 21:0 22:20 23:0 24:0 25:20 26:40 27:20 28:40 29:0 30:0 31:80 32:0 33:20 34:0 35:0 36:20 37:20 38:0 39:60 40:20 41:32 42:66 
2 1:100 2:0 3:-100 4:0 5:0 6:0 7:0 8:0 9:0 10:0 11:0 12:0 13:0 14:0 15:0 16:0 17:0 18:0 19:0 20:0 21:40 22:60 23:0 24:20 25:20 26:0 27:0 28:40 29:20 30:20 31:20 32:0 33:0 34:0 35:40 36:20 37:20 38:0 39:0 40:20 41:50 42:25 
1.30640525736577 1:0 2:0 3:0 4:-100 5:0 6:0 7:0 8:100 9:0 10:0 11:0 12:0 13:0 14:0 15:0 16:0 17:0 18:0 19:0 20:0 21:80 22:40 23:0 24:20 25:0 26:0 27:20 28:20 29:0 30:40 31:0 32:40 33:20 34:0 35:20 36:0 37:0 38:20 39:0 40:40 41:22 42:53 
0.761572001041916 1:0 2:0 3:0 4:-100 5:0 6:0 7:0 8:100 9:0 10:0 11:0 12:0 13:0 14:0 15:0 16:0 17:0 18:0 19:0 20:0 21:80 22:40 23:0 24:20 25:0 26:0 27:20 28:20 29:0 30:40 31:0 32:40 33:20 34:0 35:20 36:0 37:0 38:20 39:0 40:40 41:67 42:53 
2 1:0 2:0 3:100 4:-100 5:0 6:0 7:0 8:0 9:0 10:0 11:0 12:0 13:0 14:0 15:0 16:0 17:0 18:0 19:0 20:0 21:80 22:40 23:0 24:20 25:0 26:0 27:20 28:20 29:0 30:40 31:0 32:40 33:20 34:0 35:20 36:0 37:0 38:20 39:0 40:40 41:22 42:53 
1.71981838487503 1:0 2:0 3:100 4:-100 5:0 6:0 7:0 8:0 9:0 10:0 11:0 12:0 13:0 14:0 15:0 16:0 17:0 18:0 19:0 20:0 21:80 22:40 23:0 24:20 25:0 26:0 27:20 28:20 29:0 30:40 31:0 32:40 33:20 34:0 35:20 36:0 37:0 38:20 39:0 40:40 41:50 42:53 
0.92516284683096 1:0 2:0 3:100 4:-100 5:0 6:0 7:0 8:0 9:0 10:0 11:0 12:0 13:0 14:0 15:0 16:0 17:0 18:0 19:0 20:0 21:80 22:40 23:0 24:20 25:0 26:0 27:20 28:20 29:0 30:40 31:0 32:40 33:20 34:0 35:20 36:0 37:0 38:20 39:0 40:40 41:67 42:53 
2 1:0 2:100 3:0 4:-100 5:0 6:0 7:0 8:0 9:0 10:0 11:0 12:0 13:0 14:0 15:0 16:0 17:0 18:0 19:0 20:0 21:80 22:40 23:0 24:20 25:0 26:0 27:20 28:20 29:0 30:40 31:0 32:40 33:20 34:0 35:20 36:0 37:0 38:20 39:0 40:40 41:22 42:53 
1.051502386642979 1:0 2:100 3:0 4:-100 5:0 6:0 7:0 8:0 9:0 10:0 11:0 12:0 13:0 14:0 15:0 16:0 17:0 18:0 19:0 20:0 21:80 22:40 23:0 24:20 25:0 26:0 27:20 28:20 29:0 30:40 31:0 32:40 33:20 34:0 35:20 36:0 37:0 38:20 39:0 40:40 41:67 42:53 
2 1:100 2:0 3:0 4:-100 5:0 6:0 7:0 8:0 9:0 10:0 11:0 12:0 13:0 14:0 15:0 16:0 17:0 18:0 19:0 20:0 21:80 22:40 23:0 24:20 25:0 26:0 27:20 28:20 29:0 30:40 31:0 32:40 33:20 34:0 35:20 36:0 37:0 38:20 39:0 40:40 41:22 42:53 
1.978126887295235 1:100 2:0 3:0 4:-100 5:0 6:0 7:0 8:0 9:0 10:0 11:0 12:0 13:0 14:0 15:0 16:0 17:0 18:0 19:0 20:0 21:80 22:40 23:0 24:20 25:0 26:0 27:20 28:20 29:0 30:40 31:0 32:40 33:20 34:0 35:20 36:0 37:0 38:20 39:0 40:40 41:50 42:53 
2 1:100 2:0 3:0 4:-100 5:0 6:0 7:0 8:0 9:0 10:0 11:0 12:0 13:0 14:0 15:0 16:0 17:0 18:0 19:0 20:0 21:80 22:40 23:0 24:20 25:0 26:0 27:20 28:20 29:0 30:40 31:0 32:40 33:20 34:0 35:20 36:0 37:0 38:20 39:0 40:40 41:67 42:53 
0.09134965944010121 1:-100 2:0 3:0 4:0 5:100 6:0 7:0 8:0 9:0 10:0 11:0 12:0 13:0 14:0 15:0 16:0 17:0 18:0 19:0 20:0 21:0 22:40 23:40 24:40 25:0 26:0 27:20 28:40 29:20 30:20 31:0 32:20 33:0 34:0 35:0 36:60 37:20 38:0 39:0 40:40 41:38 42:40 
0.4207296039749349 1:0 2:0 3:0 4:0 5:0 6:0 7:0 8:0 9:-100 10:0 11:100 12:0 13:0 14:0 15:0 16:0 17:0 18:0 19:0 20:0 21:60 22:0 23:20 24:0 25:0 26:0 27:0 28:20 29:60 30:20 31:0 32:0 33:20 34:0 35:40 36:20 37:20 38:0 39:20 40:60 41:19 42:64 
1.80312785389737 1:0 2:0 3:0 4:0 5:0 6:0 7:-100 8:0 9:0 10:0 11:0 12:0 13:100 14:0 15:0 16:0 17:0 18:0 19:0 20:0 21:40 22:40 23:0 24:0 25:0 26:0 27:40 28:80 29:20 30:0 31:60 32:40 33:0 34:0 35:40 36:0 37:0 38:0 39:0 40:0 41:55 42:25 
0.9298065377303362 1:0 2:0 3:0 4:0 5:0 6:0 7:0 8:-100 9:0 10:0 11:0 12:0 13:0 14:0 15:0 16:100 17:0 18:0 19:0 20:0 21:60 22:40 23:40 24:20 25:0 26:0 27:0 28:40 29:20 30:0 31:40 32:20 33:0 34:0 35:0 36:60 37:0 38:0 39:20 40:0 41:50 42:25 
2 1:0 2:0 3:0 4:0 5:0 6:0 7:0 8:0 9:100 10:0 11:0 12:0 13:0 14:0 15:0 16:0 17:0 18:0 19:0 20:-100 21:0 22:0 23:0 24:20 25:20 26:0 27:0 28:40 29:40 30:0 31:20 32:20 33:40 34:0 35:40 36:40 37:0 38:20 39:40 40:0 41:50 42:39 
2 1:0 2:0 3:0 4:0 5:0 6:0 7:0 8:-100 9:0 10:0 11:0 12:0 13:0 14:0 15:0 16:0 17:0 18:100 19:0 20:0 21:20 22:20 23:20 24:0 25:20 26:0 27:20 28:20 29:60 30:40 31:40 32:0 33:0 34:20 35:0 36:0 37:40 38:40 39:0 40:0 41:55 42:25 
2 1:0 2:0 3:0 4:0 5:0 6:0 7:0 8:-100 9:0 10:0 11:0 12:0 13:0 14:0 15:0 16:0 17:0 18:100 19:0 20:0 21:20 22:20 23:20 24:0 25:20 26:0 27:20 28:20 29:60 30:40 31:40 32:0 33:0 34:20 35:0 36:0 37:40 38:40 39:0 40:0 41:55 42:25 
2 1:0 2:0 3:0 4:0 5:0 6:0 7:0 8:100 9:0 10:0 11:0 12:-100 13:0 14:0 15:0 16:0 17:0 18:0 19:0 20:0 21:20 22:0 23:0 24:0 25:20 26:0 27:20 28:0 29:20 30:0 31:0 32:80 33:0 34:0 35:0 36:20 37:0 38:20 39:0 40:40 41:37 42:60 
1.284296813192071 1:0 2:0 3:0 4:0 5:-100 6:0 7:0 8:0 9:0 10:0 11:100 12:0 13:0 14:0 15:0 16:0 17:0 18:0 19:0 20:0 21:40 22:0 23:0 24:40 25:0 26:0 27:0 28:20 29:0 30:0 31:0 32:120 33:0 34:0 35:0 36:40 37:0 38:60 39:20 40:20 41:50 42:25 
1.726746219063941 1:0 2:0 3:0 4:0 5:-100 6:0 7:0 8:0 9:100 10:0 11:0 12:0 13:0 14:0 15:0 16:0 17:0 18:0 19:0 20:0 21:40 22:20 23:20 24:40 25:0 26:0 27:0 28:60 29:40 30:0 31:0 32:20 33:20 34:0 35:40 36:0 37:20 38:20 39:20 40:0 41:21 42:51 
2 1:0 2:0 3:0 4:0 5:0 6:0 7:0 8:0 9:0 10:0 11:0 12:0 13:0 14:0 15:0 16:0 17:-100 18:100 19:0 20:0 21:40 22:0 23:20 24:0 25:20 26:0 27:0 28:60 29:40 30:20 31:20 32:0 33:0 34:0 35:20 36:0 37:40 38:40 39:40 40:0 41:50 42:70 
2 1:0 2:0 3:0 4:0 5:0 6:0 7:0 8:0 9:0 10:0 11:0 12:0 13:0 14:0 15:0 16:0 17:-100 18:100 19:0 20:0 21:40 22:0 23:20 24:0 25:20 26:0 27:0 28:60 29:40 30:20 31:20 32:0 33:0 34:0 35:20 36:0 37:40 38:40 39:40 40:0 41:50 42:70 
1.643013542744817 1:0 2:0 3:0 4:0 5:0 6:0 7:0 8:0 9:100 10:0 11:0 12:0 13:0 14:0 15:0 16:0 17:0 18:0 19:-100 20:0 21:0 22:0 23:0 24:20 25:20 26:0 27:20 28:40 29:40 30:0 31:20 32:0 33:40 34:0 35:60 36:40 37:0 38:20 39:20 40:20 41:50 42:39 
0.06003400471254959 1:0 2:0 3:0 4:0 5:-100 6:0 7:100 8:0 9:0 10:0 11:0 12:0 13:0 14:0 15:0 16:0 17:0 18:0 19:0 20:0 21:0 22:20 23:20 24:20 25:0 26:0 27:20 28:60 29:20 30:20 31:0 32:20 33:0 34:0 35:20 36:100 37:0 38:20 39:0 40:20 41:42 42:25 
0.7444991621450947 1:0 2:100 3:0 4:0 5:0 6:-100 7:0 8:0 9:0 10:0 11:0 12:0 13:0 14:0 15:0 16:0 17:0 18:0 19:0 20:0 21:0 22:40 23:40 24:0 25:0 26:0 27:60 28:0 29:0 30:0 31:60 32:40 33:0 34:20 35:20 36:20 37:0 38:0 39:0 40:60 41:41 42:25 
0.8388455623435893 1:0 2:0 3:0 4:0 5:0 6:0 7:0 8:0 9:100 10:0 11:0 12:0 13:0 14:0 15:0 16:0 17:0 18:-100 19:0 20:0 21:80 22:40 23:0 24:0 25:0 26:20 27:0 28:40 29:60 30:0 31:0 32:0 33:0 34:40 35:0 36:20 37:20 38:0 39:0 40:40 41:28 42:25 
1.360111660062851 1:0 2:0 3:0 4:0 5:0 6:0 7:0 8:-100 9:100 10:0 11:0 12:0 13:0 14:0 15:0 16:0 17:0 18:0 19:0 20:0 21:0 22:20 23:40 24:0 25:0 26:0 27:20 28:20 29:20 30:0 31:20 32:80 33:0 34:0 35:20 36:0 37:40 38:0 39:40 40:40 41:19 42:65 
2 1:0 2:0 3:0 4:-100 5:100 6:0 7:0 8:0 9:0 10:0 11:0 12:0 13:0 14:0 15:0 16:0 17:0 18:0 19:0 20:0 21:40 22:60 23:20 24:0 25:40 26:0 27:0 28:40 29:20 30:20 31:20 32:0 33:0 34:0 35:40 36:20 37:20 38:0 39:0 40:20 41:50 42:25 
2 1:0 2:0 3:0 4:0 5:0 6:0 7:0 8:100 9:0 10:0 11:0 12:0 13:0 14:0 15:0 16:-100 17:0 18:0 19:0 20:0 21:20 22:60 23:0 24:20 25:0 26:20 27:0 28:0 29:40 30:0 31:20 32:20 33:0 34:0 35:40 36:0 37:40 38:20 39:40 40:20 41:46 42:64 
0.9805887246749749 1:0 2:0 3:0 4:0 5:0 6:0 7:0 8:0 9:0 10:0 11:0 12:0 13:0 14:0 15:0 16:-100 17:0 18:100 19:0 20:0 21:0 22:0 23:40 24:0 25:20 26:0 27:0 28:20 29:20 30:20 31:20 32:20 33:40 34:20 35:0 36:60 37:0 38:40 39:20 40:20 41:53 42:25 
2 1:0 2:0 3:0 4:0 5:0 6:0 7:0 8:0 9:-100 10:0 11:0 12:0 13:0 14:0 15:0 16:100 17:0 18:0 19:0 20:0 21:0 22:60 23:20 24:0 25:0 26:0 27:0 28:20 29:40 30:20 31:60 32:20 33:0 34:0 35:0 36:60 37:0 38:20 39:20 40:20 41:38 42:53 
2 1:0 2:0 3:0 4:0 5:0 6:0 7:0 8:0 9:0 10:0 11:0 12:0 13:100 14:0 15:0 16:0 17:0 18:-100 19:0 20:0 21:60 22:80 23:20 24:0 25:0 26:0 27:40 28:20 29:0 30:20 31:0 32:20 33:20 34:0 35:0 36:20 37:20 38:0 39:20 40:20 41:50 42:25 
0.00161477674108636 1:0 2:0 3:0 4:0 5:100 6:0 7:-100 8:0 9:0 10:0 11:0 12:0 13:0 14:0 15:0 16:0 17:0 18:0 19:0 20:0 21:20 22:20 23:20 24:0 25:40 26:20 27:20 28:40 29:0 30:40 31:100 32:0 33:0 34:0 35:0 36:0 37:0 38:20 39:0 40:20 41:50 42:50 
2 1:0 2:0 3:0 4:0 5:0 6:0 7:0 8:0 9:0 10:100 11:0 12:0 13:0 14:0 15:0 16:0 17:-100 18:0 19:0 20:0 21:20 22:40 23:20 24:0 25:0 26:60 27:0 28:20 29:40 30:0 31:0 32:0 33:0 34:20 35:20 36:40 37:40 38:20 39:0 40:20 41:21 42:49 
0.788020636939779 1:0 2:0 3:0 4:0 5:0 6:0 7:0 8:0 9:0 10:100 11:0 12:0 13:0 14:0 15:0 16:0 17:-100 18:0 19:0 20:0 21:20 22:40 23:20 24:0 25:0 26:60 27:0 28:20 29:40 30:0 31:0 32:0 33:0 34:20 35:20 36:40 37:40 38:20 39:0 40:20 41:39 42:52 
1.940751101094713 1:0 2:0 3:0 4:0 5:0 6:0 7:0 8:0 9:-100 10:0 11:100 12:0 13:0 14:0 15:0 16:0 17:0 18:0 19:0 20:0 21:20 22:60 23:0 24:20 25:20 26:0 27:0 28:20 29:0 30:0 31:0 32:20 33:20 34:0 35:60 36:40 37:0 38:40 39:0 40:20 41:19 42:64 
1.456423744772296 1:0 2:0 3:0 4:0 5:0 6:0 7:0 8:100 9:0 10:0 11:0 12:0 13:0 14:0 15:0 16:0 17:0 18:0 19:-100 20:0 21:20 22:20 23:40 24:0 25:0 26:0 27:0 28:40 29:40 30:0 31:0 32:20 33:20 34:0 35:20 36:40 37:0 38:40 39:20 40:40 41:14 42:41 
2 1:0 2:0 3:0 4:0 5:0 6:0 7:0 8:100 9:0 10:0 11:0 12:0 13:0 14:0 15:0 16:0 17:0 18:0 19:-100 20:0 21:20 22:20 23:40 24:0 25:0 26:0 27:0 28:40 29:40 30:0 31:0 32:20 33:20 34:0 35:20 36:40 37:0 38:40 39:20 40:40 41:46 42:64 
1.044454723709421 1:0 2:100 3:0 4:-100 5:0 6:0 7:0 8:0 9:0 10:0 11:0 12:0 13:0 14:0 15:0 16:0 17:0 18:0 19:0 20:0 21:60 22:20 23:20 24:20 25:20 26:0 27:0 28:40 29:40 30:0 31:0 32:20 33:20 34:0 35:40 36:0 37:20 38:20 39:20 40:0 41:21 42:51 
2 1:0 2:100 3:0 4:-100 5:0 6:0 7:0 8:0 9:0 10:0 11:0 12:0 13:0 14:0 15:0 16:0 17:0 18:0 19:0 20:0 21:60 22:20 23:20 24:20 25:20 26:0 27:0 28:40 29:40 30:0 31:0 32:20 33:20 34:0 35:40 36:0 37:20 38:20 39:20 40:0 41:40 42:64 
1.734025367755318 1:0 2:0 3:0 4:-100 5:0 6:0 7:0 8:0 9:0 10:0 11:0 12:0 13:0 14:0 15:0 16:100 17:0 18:0 19:0 20:0 21:60 22:20 23:20 24:20 25:20 26:0 27:0 28:40 29:40 30:0 31:0 32:20 33:20 34:0 35:40 36:0 37:20 38:20 39:20 40:0 41:37 42:65 
0.418974458083596 1:0 2:0 3:0 4:-100 5:0 6:0 7:0 8:0 9:0 10:0 11:0 12:0 13:0 14:0 15:0 16:100 17:0 18:0 19:0 20:0 21:60 22:20 23:20 24:20 25:20 26:0 27:0 28:40 29:40 30:0 31:0 32:20 33:20 34:0 35:40 36:0 37:20 38:20 39:20 40:0 41:74 42:47 
0.9772214997327379 1:0 2:0 3:0 4:0 5:0 6:0 7:0 8:0 9:-100 10:0 11:100 12:0 13:0 14:0 15:0 16:0 17:0 18:0 19:0 20:0 21:40 22:20 23:20 24:0 25:20 26:0 27:0 28:0 29:60 30:0 31:20 32:40 33:0 34:0 35:0 36:60 37:0 38:20 39:0 40:60 41:50 42:63 
1.003648242538836 1:0 2:0 3:100 4:0 5:0 6:0 7:0 8:0 9:0 10:0 11:0 12:-100 13:0 14:0 15:0 16:0 17:0 18:0 19:0 20:0 21:20 22:0 23:20 24:0 25:20 26:20 27:20 28:20 29:40 30:20 31:0 32:60 33:0 34:0 35:60 36:20 37:0 38:0 39:20 40:20 41:38 42:59 
1.895623622611115 1:0 2:0 3:0 4:0 5:0 6:0 7:0 8:0 9:0 10:0 11:0 12:-100 13:100 14:0 15:0 16:0 17:0 18:0 19:0 20:0 21:20 22:0 23:20 24:0 25:20 26:20 27:20 28:20 29:40 30:20 31:0 32:60 33:0 34:0 35:60 36:20 37:0 38:0 39:20 40:20 41:38 42:59 
1.696327488747194 1:0 2:0 3:0 4:0 5:0 6:0 7:0 8:0 9:0 10:0 11:100 12:-100 13:0 14:0 15:0 16:0 17:0 18:0 19:0 20:0 21:20 22:0 23:20 24:0 25:20 26:20 27:20 28:20 29:40 30:20 31:0 32:60 33:0 34:0 35:60 36:20 37:0 38:0 39:20 40:20 41:38 42:59 
2 1:0 2:0 3:0 4:0 5:0 6:0 7:0 8:0 9:100 10:0 11:0 12:0 13:0 14:0 15:0 16:-100 17:0 18:0 19:0 20:0 21:40 22:40 23:60 24:0 25:0 26:0 27:0 28:0 29:40 30:40 31:0 32:0 33:0 34:0 35:0 36:40 37:40 38:40 39:0 40:20 41:45 42:46 
1.879468306927298 1:0 2:0 3:0 4:0 5:0 6:0 7:0 8:0 9:100 10:0 11:0 12:0 13:0 14:0 15:0 16:0 17:0 18:0 19:0 20:-100 21:40 22:0 23:0 24:0 25:20 26:20 27:20 28:40 29:20 30:0 31:0 32:100 33:0 34:0 35:0 36:20 37:0 38:20 39:20 40:40 41:50 42:25 
1.092305208677501 1:0 2:0 3:0 4:0 5:0 6:0 7:0 8:0 9:100 10:0 11:0 12:0 13:0 14:0 15:0 16:-100 17:0 18:0 19:0 20:0 21:60 22:40 23:20 24:0 25:0 26:0 27:0 28:20 29:20 30:20 31:20 32:0 33:0 34:0 35:0 36:60 37:20 38:60 39:0 40:20 41:45 42:46 
2 1:0 2:0 3:0 4:0 5:0 6:0 7:0 8:0 9:0 10:0 11:-100 12:100 13:0 14:0 15:0 16:0 17:0 18:0 19:0 20:0 21:40 22:60 23:0 24:0 25:40 26:0 27:20 28:60 29:0 30:20 31:40 32:20 33:0 34:20 35:0 36:20 37:20 38:0 39:0 40:0 41:50 42:25 
2 1:0 2:0 3:0 4:0 5:0 6:0 7:0 8:0 9:0 10:0 11:-100 12:0 13:100 14:0 15:0 16:0 17:0 18:0 19:0 20:0 21:40 22:60 23:0 24:0 25:40 26:0 27:20 28:60 29:0 30:20 31:40 32:20 33:0 34:20 35:0 36:20 37:20 38:0 39:0 40:0 41:50 42:25 
0.01547681318469367 1:-100 2:0 3:0 4:0 5:0 6:0 7:0 8:0 9:0 10:0 11:0 12:0 13:0 14:0 15:0 16:0 17:0 18:0 19:100 20:0 21:0 22:20 23:0 24:0 25:0 26:0 27:0 28:40 29:60 30:20 31:40 32:20 33:60 34:20 35:0 36:20 37:0 38:0 39:40 40:20 41:19 42:64 
2 1:0 2:0 3:0 4:0 5:0 6:0 7:0 8:0 9:0 10:100 11:-100 12:0 13:0 14:0 15:0 16:0 17:0 18:0 19:0 20:0 21:0 22:40 23:20 24:0 25:0 26:0 27:0 28:20 29:60 30:20 31:40 32:0 33:0 34:0 35:20 36:60 37:0 38:20 39:40 40:20 41:21 42:51 
0.8000612898082597 1:-100 2:0 3:0 4:0 5:0 6:0 7:0 8:0 9:0 10:0 11:0 12:0 13:0 14:0 15:0 16:0 17:0 18:0 19:0 20:100 21:0 22:20 23:0 24:0 25:0 26:0 27:0 28:40 29:60 30:20 31:40 32:20 33:60 34:20 35:0 36:20 37:0 38:0 39:40 40:20 41:19 42:64 
2 1:0 2:0 3:0 4:0 5:0 6:0 7:0 8:100 9:0 10:0 11:-100 12:0 13:0 14:0 15:0 16:0 17:0 18:0 19:0 20:0 21:0 22:40 23:20 24:0 25:0 26:0 27:0 28:20 29:60 30:20 31:40 32:0 33:0 34:0 35:20 36:60 37:0 38:20 39:40 40:20 41:21 42:51 
2 1:0 2:0 3:0 4:0 5:0 6:0 7:0 8:0 9:0 10:0 11:-100 12:0 13:0 14:0 15:0 16:0 17:0 18:0 19:0 20:100 21:0 22:40 23:20 24:0 25:0 26:0 27:0 28:20 29:60 30:20 31:40 32:0 33:0 34:0 35:20 36:60 37:0 38:20 39:40 40:20 41:21 42:51 
2 1:0 2:0 3:0 4:0 5:0 6:0 7:0 8:0 9:0 10:0 11:-100 12:0 13:100 14:0 15:0 16:0 17:0 18:0 19:0 20:0 21:0 22:40 23:20 24:0 25:0 26:0 27:0 28:20 29:60 30:20 31:40 32:0 33:0 34:0 35:20 36:60 37:0 38:20 39:40 40:20 41:21 42:51 
0.9388212082033964 1:-100 2:0 3:0 4:0 5:0 6:0 7:100 8:0 9:0 10:0 11:0 12:0 13:0 14:0 15:0 16:0 17:0 18:0 19:0 20:0 21:0 22:20 23:0 24:0 25:0 26:0 27:0 28:40 29:60 30:20 31:40 32:20 33:60 34:20 35:0 36:20 37:0 38:0 39:40 40:20 41:19 42:64 
2 1:0 2:0 3:0 4:0 5:0 6:0 7:0 8:0 9:100 10:0 11:-100 12:0 13:0 14:0 15:0 16:0 17:0 18:0 19:0 20:0 21:0 22:40 23:20 24:0 25:0 26:0 27:0 28:20 29:60 30:20 31:40 32:0 33:0 34:0 35:20 36:60 37:0 38:20 39:40 40:20 41:17 42:47 
2 1:0 2:0 3:0 4:0 5:0 6:0 7:0 8:0 9:0 10:0 11:-100 12:0 13:0 14:0 15:0 16:0 17:0 18:0 19:100 20:0 21:0 22:40 23:20 24:0 25:0 26:0 27:0 28:20 29:60 30:20 31:40 32:0 33:0 34:0 35:20 36:60 37:0 38:20 39:40 40:20 41:21 42:51 
0.2072166582964255 1:0 2:-100 3:0 4:0 5:0 6:0 7:0 8:0 9:0 10:0 11:0 12:0 13:0 14:0 15:100 16:0 17:0 18:0 19:0 20:0 21:20 22:40 23:40 24:0 25:20 26:0 27:20 28:60 29:20 30:20 31:0 32:20 33:0 34:0 35:20 36:40 37:0 38:20 39:20 40:0 41:50 42:85 
2 1:0 2:0 3:0 4:0 5:0 6:0 7:0 8:0 9:0 10:0 11:0 12:0 13:0 14:0 15:0 16:0 17:100 18:-100 19:0 20:0 21:20 22:60 23:0 24:0 25:20 26:0 27:0 28:20 29:20 30:0 31:0 32:20 33:20 34:0 35:60 36:40 37:0 38:20 39:0 40:0 41:28 42:65 
1.899538002595969 1:0 2:0 3:0 4:0 5:0 6:0 7:0 8:0 9:0 10:0 11:0 12:0 13:0 14:0 15:0 16:0 17:100 18:-100 19:0 20:0 21:20 22:60 23:0 24:0 25:20 26:0 27:0 28:20 29:20 30:0 31:0 32:20 33:20 34:0 35:60 36:40 37:0 38:20 39:0 40:0 41:16 42:65 
2 1:0 2:0 3:0 4:0 5:0 6:0 7:0 8:0 9:0 10:0 11:0 12:0 13:0 14:0 15:0 16:0 17:100 18:-100 19:0 20:0 21:20 22:60 23:0 24:0 25:20 26:0 27:0 28:20 29:20 30:0 31:0 32:20 33:20 34:0 35:60 36:40 37:0 38:20 39:0 40:0 41:32 42:65 
2 1:0 2:0 3:0 4:0 5:0 6:0 7:0 8:0 9:100 10:0 11:0 12:0 13:0 14:0 15:0 16:0 17:0 18:0 19:0 20:-100 21:0 22:40 23:60 24:0 25:0 26:0 27:60 28:60 29:0 30:0 31:0 32:40 33:0 34:0 35:20 36:40 37:0 38:40 39:0 40:0 41:38 42:65 
1.469577989760012 1:0 2:0 3:0 4:-100 5:0 6:0 7:0 8:0 9:100 10:0 11:0 12:0 13:0 14:0 15:0 16:0 17:0 18:0 19:0 20:0 21:0 22:60 23:40 24:20 25:20 26:0 27:0 28:20 29:0 30:0 31:0 32:0 33:0 34:0 35:40 36:0 37:0 38:40 39:20 40:20 41:21 42:51 
1.973227361777324 1:0 2:0 3:0 4:0 5:0 6:0 7:0 8:0 9:0 10:0 11:100 12:0 13:0 14:0 15:0 16:0 17:0 18:0 19:-100 20:0 21:60 22:20 23:0 24:0 25:20 26:0 27:20 28:20 29:0 30:20 31:60 32:20 33:0 34:0 35:20 36:0 37:60 38:20 39:0 40:20 41:50 42:48 
1.180409948877423 1:-100 2:0 3:0 4:0 5:0 6:0 7:0 8:0 9:0 10:0 11:0 12:0 13:0 14:0 15:100 16:0 17:0 18:0 19:0 20:0 21:0 22:20 23:0 24:0 25:0 26:0 27:0 28:40 29:60 30:20 31:40 32:20 33:60 34:20 35:0 36:20 37:0 38:0 39:40 40:20 41:19 42:64 
0.6911359478105014 1:0 2:0 3:0 4:0 5:0 6:0 7:0 8:0 9:100 10:0 11:0 12:0 13:0 14:0 15:0 16:0 17:0 18:0 19:-100 20:0 21:60 22:20 23:0 24:0 25:20 26:0 27:20 28:20 29:0 30:20 31:60 32:20 33:0 34:0 35:20 36:0 37:60 38:20 39:0 40:20 41:50 42:48 
2 1:0 2:0 3:0 4:0 5:0 6:0 7:0 8:0 9:0 10:0 11:0 12:0 13:0 14:0 15:0 16:0 17:0 18:0 19:-100 20:100 21:60 22:20 23:0 24:0 25:20 26:0 27:20 28:20 29:0 30:20 31:60 32:20 33:0 34:0 35:20 36:0 37:60 38:20 39:0 40:20 41:50 42:48 
2 1:0 2:0 3:0 4:0 5:0 6:0 7:0 8:0 9:0 10:0 11:100 12:-100 13:0 14:0 15:0 16:0 17:0 18:0 19:0 20:0 21:0 22:0 23:0 24:0 25:40 26:0 27:0 28:20 29:60 30:0 31:20 32:40 33:0 34:0 35:20 36:20 37:20 38:20 39:80 40:20 41:45 42:74 
1.306462702664251 1:0 2:0 3:0 4:0 5:0 6:0 7:0 8:0 9:-100 10:0 11:0 12:100 13:0 14:0 15:0 16:0 17:0 18:0 19:0 20:0 21:20 22:40 23:20 24:20 25:0 26:0 27:0 28:0 29:0 30:20 31:0 32:0 33:0 34:0 35:40 36:0 37:0 38:0 39:0 40:20 41:50 42:25 
2 1:0 2:0 3:0 4:0 5:0 6:0 7:0 8:0 9:100 10:0 11:0 12:0 13:0 14:0 15:0 16:0 17:0 18:0 19:-100 20:0 21:40 22:20 23:20 24:40 25:20 26:0 27:0 28:40 29:40 30:0 31:0 32:20 33:20 34:0 35:40 36:0 37:20 38:20 39:0 40:20 41:38 42:59 
1.642896633382725 1:0 2:0 3:-100 4:0 5:0 6:0 7:0 8:0 9:100 10:0 11:0 12:0 13:0 14:0 15:0 16:0 17:0 18:0 19:0 20:0 21:0 22:60 23:0 24:0 25:20 26:0 27:40 28:20 29:60 30:0 31:0 32:0 33:0 34:0 35:20 36:80 37:0 38:40 39:0 40:20 41:68 42:82 
2 1:0 2:0 3:0 4:0 5:0 6:0 7:0 8:0 9:0 10:0 11:0 12:0 13:0 14:0 15:100 16:-100 17:0 18:0 19:0 20:0 21:20 22:0 23:40 24:20 25:40 26:0 27:20 28:0 29:0 30:20 31:0 32:0 33:0 34:0 35:20 36:100 37:0 38:40 39:40 40:0 41:46 42:25 
0.474600743752185 1:0 2:0 3:0 4:0 5:0 6:0 7:0 8:-100 9:0 10:0 11:0 12:0 13:0 14:0 15:0 16:0 17:0 18:0 19:0 20:100 21:20 22:20 23:20 24:0 25:20 26:20 27:20 28:0 29:20 30:0 31:0 32:80 33:0 34:0 35:40 36:40 37:0 38:0 39:20 40:20 41:46 42:64 
2 1:0 2:0 3:0 4:0 5:0 6:0 7:0 8:0 9:0 10:0 11:0 12:0 13:0 14:0 15:0 16:-100 17:0 18:100 19:0 20:0 21:20 22:0 23:20 24:0 25:20 26:20 27:20 28:20 29:20 30:20 31:0 32:80 33:0 34:0 35:60 36:0 37:20 38:0 39:40 40:0 41:37 42:25 
2 1:0 2:0 3:0 4:0 5:0 6:0 7:0 8:0 9:0 10:0 11:0 12:0 13:0 14:0 15:0 16:-100 17:0 18:100 19:0 20:0 21:20 22:0 23:20 24:0 25:20 26:20 27:20 28:20 29:20 30:20 31:0 32:80 33:0 34:0 35:60 36:0 37:20 38:0 39:40 40:0 41:37 42:66 
2 1:100 2:0 3:-100 4:0 5:0 6:0 7:0 8:0 9:0 10:0 11:0 12:0 13:0 14:0 15:0 16:0 17:0 18:0 19:0 20:0 21:0 22:60 23:0 24:0 25:20 26:0 27:40 28:20 29:60 30:0 31:0 32:0 33:0 34:0 35:20 36:80 37:0 38:40 39:0 40:20 41:78 42:76 
2 1:0 2:0 3:0 4:100 5:0 6:0 7:0 8:0 9:0 10:0 11:0 12:0 13:0 14:0 15:-100 16:0 17:0 18:0 19:0 20:0 21:20 22:40 23:0 24:20 25:20 26:20 27:0 28:40 29:20 30:0 31:20 32:20 33:0 34:0 35:20 36:20 37:40 38:20 39:20 40:20 41:14 42:40 
2 1:0 2:0 3:0 4:0 5:0 6:0 7:-100 8:0 9:0 10:0 11:0 12:0 13:0 14:100 15:0 16:0 17:0 18:0 19:0 20:0 21:0 22:60 23:20 24:0 25:0 26:0 27:0 28:20 29:40 30:0 31:0 32:0 33:0 34:0 35:40 36:80 37:0 38:60 39:20 40:20 41:57 42:51 
1.671824575631473 1:0 2:100 3:0 4:-100 5:0 6:0 7:0 8:0 9:0 10:0 11:0 12:0 13:0 14:0 15:0 16:0 17:0 18:0 19:0 20:0 21:0 22:40 23:0 24:0 25:20 26:0 27:20 28:40 29:60 30:0 31:0 32:0 33:20 34:20 35:60 36:20 37:0 38:20 39:20 40:20 41:19 42:66 
1.82788467189958 1:0 2:0 3:0 4:0 5:0 6:0 7:0 8:0 9:100 10:0 11:0 12:0 13:0 14:0 15:0 16:-100 17:0 18:0 19:0 20:0 21:20 22:0 23:0 24:0 25:20 26:20 27:20 28:20 29:20 30:0 31:0 32:100 33:0 34:0 35:0 36:0 37:0 38:40 39:0 40:40 41:50 42:25 
0.09158874728051988 1:0 2:0 3:0 4:0 5:0 6:0 7:0 8:0 9:0 10:0 11:0 12:-100 13:0 14:0 15:0 16:0 17:100 18:0 19:0 20:0 21:40 22:20 23:20 24:0 25:20 26:0 27:20 28:20 29:20 30:0 31:0 32:0 33:0 34:0 35:0 36:0 37:20 38:0 39:20 40:40 41:45 42:25 
2 1:0 2:0 3:0 4:0 5:0 6:0 7:0 8:0 9:100 10:0 11:-100 12:0 13:0 14:0 15:0 16:0 17:0 18:0 19:0 20:0 21:0 22:80 23:0 24:0 25:20 26:0 27:0 28:40 29:40 30:0 31:60 32:20 33:0 34:0 35:0 36:60 37:20 38:0 39:20 40:0 41:50 42:30 
2 1:0 2:0 3:0 4:0 5:0 6:0 7:0 8:0 9:100 10:0 11:-100 12:0 13:0 14:0 15:0 16:0 17:0 18:0 19:0 20:0 21:0 22:80 23:0 24:0 25:20 26:0 27:0 28:40 29:40 30:0 31:60 32:20 33:0 34:0 35:0 36:60 37:20 38:0 39:20 40:0 41:50 42:30 
0.8365223094170087 1:0 2:0 3:0 4:0 5:0 6:0 7:0 8:0 9:100 10:-100 11:0 12:0 13:0 14:0 15:0 16:0 17:0 18:0 19:0 20:0 21:40 22:40 23:0 24:0 25:0 26:20 27:0 28:20 29:0 30:0 31:20 32:20 33:0 34:0 35:0 36:40 37:0 38:80 39:20 40:0 41:44 42:25 
0.1670519861068152 1:-100 2:0 3:0 4:0 5:0 6:0 7:0 8:0 9:0 10:0 11:0 12:0 13:100 14:0 15:0 16:0 17:0 18:0 19:0 20:0 21:0 22:20 23:0 24:0 25:20 26:0 27:20 28:40 29:20 30:20 31:60 32:40 33:0 34:0 35:40 36:20 37:60 38:0 39:0 40:0 41:50 42:25 
2 1:100 2:0 3:0 4:0 5:0 6:0 7:0 8:0 9:-100 10:0 11:0 12:0 13:0 14:0 15:0 16:0 17:0 18:0 19:0 20:0 21:40 22:0 23:0 24:20 25:20 26:0 27:20 28:20 29:40 30:20 31:20 32:20 33:0 34:0 35:0 36:60 37:0 38:60 39:20 40:0 41:50 42:20 
0.7480847414300177 1:0 2:0 3:0 4:0 5:0 6:0 7:0 8:0 9:100 10:-100 11:0 12:0 13:0 14:0 15:0 16:0 17:0 18:0 19:0 20:0 21:60 22:0 23:40 24:0 25:20 26:0 27:20 28:20 29:40 30:20 31:20 32:0 33:20 34:40 35:0 36:0 37:0 38:20 39:20 40:20 41:30 42:56 
0.01081734675228573 1:0 2:0 3:0 4:0 5:0 6:0 7:0 8:0 9:100 10:0 11:0 12:0 13:0 14:0 15:0 16:0 17:0 18:0 19:0 20:-100 21:60 22:0 23:0 24:0 25:20 26:0 27:20 28:60 29:20 30:20 31:40 32:0 33:0 34:0 35:20 36:0 37:20 38:20 39:60 40:0 41:50 42:15 
0.6126574215472631 1:0 2:0 3:-100 4:0 5:0 6:0 7:0 8:0 9:100 10:0 11:0 12:0 13:0 14:0 15:0 16:0 17:0 18:0 19:0 20:0 21:60 22:0 23:0 24:0 25:0 26:40 27:0 28:20 29:40 30:20 31:0 32:0 33:0 34:0 35:100 36:20 37:20 38:0 39:20 40:20 41:19 42:64 
1.601217402364301 1:0 2:0 3:0 4:0 5:0 6:0 7:0 8:0 9:0 10:0 11:100 12:0 13:0 14:0 15:0 16:0 17:0 18:0 19:0 20:-100 21:60 22:0 23:0 24:0 25:20 26:0 27:20 28:60 29:20 30:20 31:40 32:0 33:0 34:0 35:20 36:0 37:20 38:20 39:60 40:0 41:50 42:15 
0.02383363436200033 1:0 2:0 3:0 4:0 5:0 6:0 7:0 8:0 9:0 10:0 11:100 12:0 13:0 14:0 15:0 16:0 17:0 18:0 19:0 20:-100 21:60 22:0 23:0 24:0 25:20 26:0 27:20 28:60 29:20 30:20 31:40 32:0 33:0 34:0 35:20 36:0 37:20 38:20 39:60 40:0 41:50 42:15 
2 1:0 2:0 3:0 4:0 5:0 6:0 7:0 8:-100 9:100 10:0 11:0 12:0 13:0 14:0 15:0 16:0 17:0 18:0 19:0 20:0 21:40 22:40 23:20 24:0 25:0 26:0 27:0 28:0 29:60 30:20 31:0 32:0 33:0 34:0 35:40 36:40 37:20 38:0 39:40 40:40 41:14 42:41 
2 1:0 2:0 3:0 4:0 5:0 6:0 7:0 8:-100 9:100 10:0 11:0 12:0 13:0 14:0 15:0 16:0 17:0 18:0 19:0 20:0 21:40 22:40 23:20 24:0 25:0 26:0 27:0 28:0 29:60 30:20 31:0 32:0 33:0 34:0 35:40 36:40 37:20 38:0 39:40 40:40 41:14 42:41 
1.899507848172452 1:100 2:0 3:-100 4:0 5:0 6:0 7:0 8:0 9:0 10:0 11:0 12:0 13:0 14:0 15:0 16:0 17:0 18:0 19:0 20:0 21:60 22:0 23:0 24:0 25:0 26:40 27:0 28:20 29:40 30:20 31:0 32:0 33:0 34:0 35:100 36:20 37:20 38:0 39:20 40:20 41:19 42:64 
1.711118184709954 1:0 2:100 3:0 4:-100 5:0 6:0 7:0 8:0 9:0 10:0 11:0 12:0 13:0 14:0 15:0 16:0 17:0 18:0 19:0 20:0 21:0 22:60 23:40 24:20 25:20 26:0 27:0 28:20 29:0 30:0 31:0 32:0 33:0 34:0 35:40 36:0 37:0 38:40 39:20 40:20 41:21 42:47 
2 1:0 2:0 3:0 4:0 5:0 6:0 7:0 8:0 9:0 10:0 11:0 12:0 13:0 14:0 15:0 16:0 17:100 18:0 19:0 20:-100 21:60 22:0 23:20 24:20 25:0 26:20 27:0 28:40 29:60 30:0 31:20 32:0 33:20 34:0 35:0 36:40 37:0 38:0 39:60 40:0 41:45 42:74 
2 1:100 2:0 3:0 4:0 5:0 6:0 7:0 8:0 9:0 10:0 11:0 12:-100 13:0 14:0 15:0 16:0 17:0 18:0 19:0 20:0 21:20 22:0 23:40 24:0 25:20 26:0 27:0 28:20 29:0 30:0 31:0 32:120 33:0 34:20 35:0 36:40 37:20 38:20 39:40 40:0 41:50 42:25 
1.647495905122301 1:0 2:0 3:0 4:0 5:100 6:0 7:-100 8:0 9:0 10:0 11:0 12:0 13:0 14:0 15:0 16:0 17:0 18:0 19:0 20:0 21:20 22:20 23:20 24:0 25:40 26:20 27:20 28:20 29:0 30:40 31:100 32:0 33:0 34:0 35:0 36:0 37:0 38:20 39:0 40:40 41:50 42:50 
0.7135227112276153 1:0 2:0 3:0 4:0 5:100 6:0 7:-100 8:0 9:0 10:0 11:0 12:0 13:0 14:0 15:0 16:0 17:0 18:0 19:0 20:0 21:20 22:0 23:0 24:0 25:0 26:0 27:20 28:20 29:20 30:0 31:100 32:40 33:60 34:0 35:0 36:0 37:20 38:0 39:20 40:40 41:50 42:50 
2 1:0 2:0 3:0 4:0 5:0 6:0 7:0 8:0 9:0 10:0 11:0 12:0 13:0 14:0 15:0 16:0 17:0 18:-100 19:100 20:0 21:20 22:60 23:0 24:0 25:0 26:0 27:40 28:40 29:0 30:20 31:20 32:0 33:20 34:0 35:20 36:20 37:40 38:0 39:40 40:20 41:50 42:25 
1.771683489009587 1:0 2:0 3:0 4:0 5:0 6:0 7:0 8:0 9:0 10:0 11:100 12:0 13:0 14:0 15:0 16:0 17:0 18:0 19:-100 20:0 21:20 22:0 23:0 24:0 25:40 26:0 27:60 28:20 29:0 30:20 31:80 32:0 33:0 34:20 35:0 36:20 37:0 38:20 39:40 40:20 41:50 42:50 
2 1:0 2:0 3:0 4:0 5:100 6:0 7:0 8:-100 9:0 10:0 11:0 12:0 13:0 14:0 15:0 16:0 17:0 18:0 19:0 20:0 21:0 22:60 23:40 24:0 25:0 26:0 27:40 28:40 29:0 30:20 31:40 32:60 33:0 34:20 35:0 36:20 37:0 38:20 39:0 40:0 41:38 42:66 
2 1:0 2:0 3:0 4:0 5:0 6:0 7:0 8:0 9:100 10:0 11:0 12:0 13:0 14:0 15:0 16:0 17:0 18:0 19:-100 20:0 21:20 22:0 23:0 24:0 25:40 26:0 27:60 28:20 29:0 30:20 31:80 32:0 33:0 34:20 35:0 36:20 37:0 38:20 39:40 40:20 41:50 42:50 
1.367680529339017 1:0 2:0 3:0 4:0 5:0 6:0 7:0 8:0 9:100 10:0 11:0 12:0 13:0 14:0 15:0 16:0 17:0 18:0 19:-100 20:0 21:20 22:0 23:0 24:0 25:40 26:0 27:60 28:20 29:0 30:20 31:80 32:0 33:0 34:20 35:0 36:20 37:0 38:20 39:40 40:20 41:50 42:50 
2 1:0 2:0 3:0 4:0 5:0 6:0 7:0 8:0 9:0 10:0 11:0 12:-100 13:0 14:0 15:100 16:0 17:0 18:0 19:0 20:0 21:20 22:40 23:20 24:0 25:20 26:0 27:60 28:20 29:20 30:20 31:0 32:0 33:0 34:20 35:0 36:20 37:20 38:0 39:20 40:60 41:45 42:25 
0.847860606916217 1:0 2:0 3:0 4:0 5:0 6:0 7:0 8:0 9:0 10:0 11:100 12:-100 13:0 14:0 15:0 16:0 17:0 18:0 19:0 20:0 21:20 22:40 23:20 24:0 25:20 26:0 27:60 28:20 29:20 30:20 31:0 32:0 33:0 34:20 35:0 36:20 37:20 38:0 39:20 40:60 41:45 42:25 
2 1:0 2:0 3:0 4:0 5:0 6:0 7:0 8:0 9:0 10:0 11:0 12:0 13:0 14:0 15:0 16:0 17:0 18:0 19:-100 20:100 21:20 22:0 23:0 24:0 25:40 26:0 27:60 28:20 29:0 30:20 31:80 32:0 33:0 34:20 35:0 36:20 37:0 38:20 39:40 40:20 41:50 42:50 
0.9094896594468908 1:0 2:0 3:0 4:0 5:0 6:0 7:0 8:0 9:-100 10:0 11:100 12:0 13:0 14:0 15:0 16:0 17:0 18:0 19:0 20:0 21:40 22:20 23:40 24:0 25:0 26:0 27:0 28:0 29:20 30:20 31:0 32:0 33:20 34:0 35:20 36:40 37:0 38:0 39:20 40:120 41:32 42:66 
1.037132456371153 1:0 2:0 3:0 4:0 5:0 6:0 7:0 8:100 9:0 10:0 11:0 12:0 13:0 14:0 15:0 16:-100 17:0 18:0 19:0 20:0 21:60 22:20 23:20 24:0 25:0 26:0 27:0 28:20 29:40 30:20 31:20 32:0 33:0 34:0 35:0 36:60 37:20 38:60 39:0 40:20 41:45 42:46 
0.7967792969243208 1:0 2:0 3:0 4:0 5:0 6:0 7:0 8:0 9:100 10:0 11:-100 12:0 13:0 14:0 15:0 16:0 17:0 18:0 19:0 20:0 21:0 22:40 23:40 24:0 25:0 26:20 27:40 28:0 29:0 30:0 31:40 32:40 33:0 34:0 35:40 36:20 37:0 38:0 39:20 40:60 41:31 42:25 
2 1:0 2:100 3:-100 4:0 5:0 6:0 7:0 8:0 9:0 10:0 11:0 12:0 13:0 14:0 15:0 16:0 17:0 18:0 19:0 20:0 21:0 22:0 23:20 24:0 25:20 26:20 27:40 28:40 29:20 30:0 31:40 32:20 33:20 34:0 35:40 36:0 37:20 38:0 39:20 40:40 41:19 42:64 
1.986741209569598 1:0 2:0 3:0 4:0 5:0 6:0 7:0 8:100 9:0 10:0 11:0 12:0 13:0 14:0 15:-100 16:0 17:0 18:0 19:0 20:0 21:0 22:40 23:20 24:20 25:40 26:0 27:0 28:40 29:40 30:40 31:0 32:20 33:0 34:0 35:0 36:20 37:20 38:0 39:20 40:40 41:52 42:51 
2 1:0 2:0 3:0 4:0 5:0 6:0 7:0 8:0 9:0 10:0 11:0 12:0 13:0 14:0 15:0 16:0 17:100 18:-100 19:0 20:0 21:20 22:20 23:40 24:0 25:0 26:0 27:0 28:20 29:0 30:40 31:20 32:0 33:0 34:0 35:20 36:60 37:60 38:0 39:20 40:40 41:21 42:65 
2 1:0 2:0 3:0 4:0 5:0 6:0 7:0 8:0 9:0 10:100 11:0 12:0 13:0 14:0 15:0 16:0 17:0 18:-100 19:0 20:0 21:20 22:20 23:40 24:0 25:0 26:0 27:0 28:20 29:0 30:40 31:20 32:0 33:0 34:0 35:20 36:60 37:60 38:0 39:20 40:40 41:21 42:65 
2 1:0 2:0 3:0 4:0 5:0 6:0 7:0 8:0 9:0 10:0 11:0 12:0 13:0 14:0 15:0 16:100 17:0 18:-100 19:0 20:0 21:20 22:20 23:40 24:0 25:0 26:0 27:0 28:20 29:0 30:40 31:20 32:0 33:0 34:0 35:20 36:60 37:60 38:0 39:20 40:40 41:21 42:65 
2 1:0 2:0 3:0 4:0 5:0 6:0 7:0 8:0 9:0 10:0 11:0 12:0 13:0 14:100 15:0 16:0 17:0 18:-100 19:0 20:0 21:20 22:20 23:40 24:0 25:0 26:0 27:0 28:20 29:0 30:40 31:20 32:0 33:0 34:0 35:20 36:60 37:60 38:0 39:20 40:40 41:21 42:65 
0.2367480939666045 1:0 2:0 3:0 4:0 5:0 6:0 7:0 8:100 9:0 10:0 11:0 12:0 13:0 14:0 15:0 16:0 17:-100 18:0 19:0 20:0 21:80 22:60 23:0 24:0 25:0 26:40 27:0 28:20 29:20 30:0 31:20 32:0 33:0 34:20 35:0 36:20 37:0 38:40 39:0 40:0 41:30 42:4 
1.836993228698558 1:100 2:0 3:-100 4:0 5:0 6:0 7:0 8:0 9:0 10:0 11:0 12:0 13:0 14:0 15:0 16:0 17:0 18:0 19:0 20:0 21:60 22:40 23:60 24:0 25:0 26:0 27:0 28:20 29:20 30:40 31:0 32:20 33:0 34:0 35:0 36:20 37:40 38:20 39:0 40:20 41:45 42:46 
1.558737303875303 1:0 2:0 3:0 4:0 5:0 6:0 7:0 8:0 9:0 10:0 11:0 12:0 13:0 14:0 15:0 16:0 17:100 18:-100 19:0 20:0 21:60 22:40 23:20 24:0 25:0 26:0 27:0 28:20 29:20 30:20 31:20 32:0 33:0 34:0 35:0 36:80 37:20 38:40 39:0 40:20 41:44 42:25 
0.8809566165500767 1:0 2:0 3:0 4:0 5:0 6:0 7:0 8:0 9:0 10:0 11:0 12:0 13:0 14:0 15:0 16:0 17:0 18:-100 19:0 20:100 21:60 22:40 23:20 24:0 25:0 26:0 27:0 28:20 29:20 30:20 31:20 32:0 33:0 34:0 35:0 36:80 37:20 38:40 39:0 40:20 41:44 42:25 
2 1:0 2:0 3:0 4:0 5:0 6:0 7:0 8:0 9:-100 10:100 11:0 12:0 13:0 14:0 15:0 16:0 17:0 18:0 19:0 20:0 21:20 22:20 23:20 24:0 25:0 26:20 27:20 28:40 29:40 30:0 31:40 32:20 33:0 34:0 35:0 36:40 37:20 38:20 39:40 40:0 41:45 42:25 
1.699909719068417 1:100 2:0 3:0 4:0 5:0 6:0 7:0 8:0 9:-100 10:0 11:0 12:0 13:0 14:0 15:0 16:0 17:0 18:0 19:0 20:0 21:20 22:20 23:20 24:0 25:0 26:20 27:20 28:40 29:40 30:0 31:40 32:20 33:0 34:0 35:0 36:40 37:20 38:20 39:40 40:0 41:45 42:25 
1.598998999441715 1:0 2:0 3:0 4:0 5:100 6:0 7:0 8:0 9:-100 10:0 11:0 12:0 13:0 14:0 15:0 16:0 17:0 18:0 19:0 20:0 21:20 22:20 23:20 24:0 25:0 26:20 27:20 28:40 29:40 30:0 31:40 32:20 33:0 34:0 35:0 36:40 37:20 38:20 39:40 40:0 41:45 42:25 
2 1:0 2:0 3:100 4:0 5:0 6:0 7:0 8:0 9:-100 10:0 11:0 12:0 13:0 14:0 15:0 16:0 17:0 18:0 19:0 20:0 21:20 22:20 23:20 24:0 25:0 26:20 27:20 28:40 29:40 30:0 31:40 32:20 33:0 34:0 35:0 36:40 37:20 38:20 39:40 40:0 41:45 42:25 
0.7773034080597178 1:0 2:100 3:0 4:0 5:0 6:0 7:0 8:0 9:-100 10:0 11:0 12:0 13:0 14:0 15:0 16:0 17:0 18:0 19:0 20:0 21:20 22:20 23:20 24:0 25:0 26:20 27:20 28:40 29:40 30:0 31:40 32:20 33:0 34:0 35:0 36:40 37:20 38:20 39:40 40:0 41:45 42:25 
2 1:0 2:0 3:0 4:0 5:100 6:0 7:0 8:0 9:0 10:0 11:0 12:0 13:0 14:0 15:0 16:0 17:0 18:0 19:0 20:-100 21:0 22:80 23:20 24:0 25:0 26:0 27:0 28:0 29:40 30:0 31:0 32:20 33:20 34:0 35:0 36:20 37:20 38:80 39:20 40:40 41:50 42:69 
2 1:0 2:0 3:100 4:0 5:0 6:0 7:0 8:0 9:0 10:0 11:0 12:0 13:0 14:0 15:0 16:0 17:0 18:0 19:0 20:-100 21:0 22:80 23:20 24:0 25:0 26:0 27:0 28:0 29:40 30:0 31:0 32:20 33:20 34:0 35:0 36:20 37:20 38:80 39:20 40:40 41:50 42:69 
2 1:0 2:100 3:0 4:0 5:0 6:0 7:0 8:0 9:0 10:0 11:0 12:0 13:0 14:0 15:0 16:0 17:0 18:0 19:0 20:-100 21:0 22:80 23:20 24:0 25:0 26:0 27:0 28:0 29:40 30:0 31:0 32:20 33:20 34:0 35:0 36:20 37:20 38:80 39:20 40:40 41:50 42:69 
2 1:0 2:0 3:0 4:0 5:0 6:0 7:0 8:0 9:0 10:100 11:0 12:0 13:0 14:0 15:0 16:0 17:0 18:0 19:0 20:-100 21:0 22:80 23:20 24:0 25:0 26:0 27:0 28:0 29:40 30:0 31:0 32:20 33:20 34:0 35:0 36:20 37:20 38:80 39:20 40:40 41:50 42:69 
2 1:100 2:0 3:0 4:0 5:0 6:0 7:0 8:0 9:0 10:0 11:0 12:0 13:0 14:0 15:0 16:0 17:0 18:0 19:0 20:-100 21:0 22:80 23:20 24:0 25:0 26:0 27:0 28:0 29:40 30:0 31:0 32:20 33:20 34:0 35:0 36:20 37:20 38:80 39:20 40:40 41:50 42:69 
2 1:0 2:0 3:0 4:0 5:0 6:100 7:0 8:0 9:0 10:0 11:0 12:0 13:0 14:0 15:0 16:0 17:0 18:0 19:0 20:-100 21:0 22:80 23:20 24:0 25:0 26:0 27:0 28:0 29:40 30:0 31:0 32:20 33:20 34:0 35:0 36:20 37:20 38:80 39:20 40:40 41:50 42:69 
2 1:0 2:0 3:0 4:0 5:0 6:0 7:0 8:0 9:0 10:0 11:0 12:100 13:0 14:0 15:0 16:0 17:0 18:0 19:0 20:-100 21:0 22:80 23:20 24:0 25:0 26:0 27:0 28:0 29:40 30:0 31:0 32:20 33:20 34:0 35:0 36:20 37:20 38:80 39:20 40:40 41:50 42:69 
0.8383991774767356 1:-100 2:0 3:0 4:100 5:0 6:0 7:0 8:0 9:0 10:0 11:0 12:0 13:0 14:0 15:0 16:0 17:0 18:0 19:0 20:0 21:40 22:20 23:20 24:40 25:20 26:0 27:0 28:40 29:40 30:0 31:0 32:20 33:20 34:0 35:40 36:0 37:20 38:20 39:20 40:0 41:38 42:65 
2 1:0 2:0 3:0 4:0 5:0 6:0 7:0 8:0 9:100 10:0 11:0 12:0 13:0 14:0 15:0 16:0 17:0 18:-100 19:0 20:0 21:0 22:20 23:20 24:20 25:0 26:20 27:20 28:20 29:40 30:0 31:20 32:20 33:0 34:0 35:0 36:80 37:0 38:20 39:20 40:40 41:37 42:5 
2 1:0 2:0 3:0 4:0 5:0 6:0 7:0 8:0 9:0 10:0 11:0 12:0 13:0 14:0 15:0 16:0 17:0 18:0 19:-100 20:100 21:20 22:60 23:0 24:0 25:0 26:0 27:0 28:0 29:80 30:0 31:20 32:0 33:0 34:0 35:40 36:40 37:20 38:20 39:0 40:60 41:53 42:25 
2 1:0 2:0 3:0 4:0 5:0 6:0 7:0 8:0 9:0 10:0 11:0 12:0 13:0 14:0 15:0 16:0 17:100 18:0 19:-100 20:0 21:20 22:20 23:20 24:0 25:0 26:20 27:40 28:20 29:40 30:0 31:20 32:20 33:0 34:0 35:0 36:40 37:0 38:40 39:20 40:40 41:32 42:26 
2 1:0 2:0 3:0 4:0 5:0 6:0 7:0 8:0 9:0 10:0 11:0 12:100 13:0 14:0 15:0 16:0 17:0 18:0 19:-100 20:0 21:20 22:20 23:20 24:0 25:0 26:20 27:40 28:20 29:40 30:0 31:20 32:20 33:0 34:0 35:0 36:40 37:0 38:40 39:20 40:40 41:35 42:26 
2 1:0 2:0 3:0 4:0 5:0 6:0 7:0 8:0 9:0 10:0 11:0 12:0 13:0 14:100 15:0 16:0 17:0 18:0 19:-100 20:0 21:20 22:20 23:20 24:0 25:0 26:20 27:40 28:20 29:40 30:0 31:20 32:20 33:0 34:0 35:0 36:40 37:0 38:40 39:20 40:40 41:32 42:26 
1.306975164401647 1:0 2:0 3:0 4:0 5:0 6:0 7:0 8:0 9:100 10:0 11:0 12:-100 13:0 14:0 15:0 16:0 17:0 18:0 19:0 20:0 21:0 22:40 23:40 24:0 25:20 26:0 27:0 28:20 29:40 30:0 31:20 32:20 33:60 34:40 35:0 36:0 37:20 38:40 39:0 40:0 41:60 42:37 
1.114152502871589 1:0 2:0 3:0 4:0 5:0 6:0 7:0 8:0 9:0 10:0 11:0 12:100 13:0 14:-100 15:0 16:0 17:0 18:0 19:0 20:0 21:20 22:0 23:0 24:0 25:20 26:0 27:60 28:40 29:0 30:20 31:40 32:20 33:0 34:0 35:0 36:20 37:0 38:40 39:60 40:20 41:42 42:25 
1.335611661438292 1:0 2:100 3:-100 4:0 5:0 6:0 7:0 8:0 9:0 10:0 11:0 12:0 13:0 14:0 15:0 16:0 17:0 18:0 19:0 20:0 21:20 22:40 23:20 24:0 25:20 26:0 27:0 28:40 29:40 30:20 31:20 32:0 33:0 34:40 35:20 36:20 37:20 38:0 39:0 40:40 41:78 42:76 
0.5618391121931039 1:0 2:0 3:-100 4:100 5:0 6:0 7:0 8:0 9:0 10:0 11:0 12:0 13:0 14:0 15:0 16:0 17:0 18:0 19:0 20:0 21:20 22:40 23:20 24:0 25:20 26:0 27:0 28:40 29:40 30:20 31:20 32:0 33:0 34:40 35:20 36:20 37:20 38:0 39:0 40:40 41:78 42:76 
1.443222539040395 1:100 2:0 3:0 4:0 5:-100 6:0 7:0 8:0 9:0 10:0 11:0 12:0 13:0 14:0 15:0 16:0 17:0 18:0 19:0 20:0 21:40 22:60 23:0 24:20 25:20 26:0 27:20 28:60 29:0 30:0 31:60 32:20 33:0 34:20 35:0 36:20 37:20 38:0 39:0 40:0 41:50 42:25 
0.2993048780605164 1:0 2:-100 3:0 4:0 5:0 6:0 7:0 8:0 9:100 10:0 11:0 12:0 13:0 14:0 15:0 16:0 17:0 18:0 19:0 20:0 21:0 22:0 23:20 24:0 25:0 26:0 27:40 28:40 29:40 30:0 31:0 32:0 33:0 34:0 35:0 36:60 37:20 38:20 39:0 40:20 41:68 42:82 
0.5737793428034583 1:0 2:100 3:0 4:0 5:-100 6:0 7:0 8:0 9:0 10:0 11:0 12:0 13:0 14:0 15:0 16:0 17:0 18:0 19:0 20:0 21:40 22:60 23:0 24:20 25:20 26:0 27:20 28:60 29:0 30:0 31:60 32:20 33:0 34:20 35:0 36:20 37:20 38:0 39:0 40:0 41:50 42:25 
0.01888377229504984 1:0 2:100 3:0 4:0 5:-100 6:0 7:0 8:0 9:0 10:0 11:0 12:0 13:0 14:0 15:0 16:0 17:0 18:0 19:0 20:0 21:40 22:60 23:0 24:20 25:20 26:0 27:20 28:60 29:0 30:0 31:60 32:20 33:0 34:20 35:0 36:20 37:20 38:0 39:0 40:0 41:50 42:25 
0.2132567442858933 1:-100 2:0 3:0 4:0 5:0 6:0 7:0 8:0 9:100 10:0 11:0 12:0 13:0 14:0 15:0 16:0 17:0 18:0 19:0 20:0 21:0 22:20 23:0 24:0 25:20 26:0 27:0 28:0 29:80 30:20 31:0 32:20 33:0 34:20 35:0 36:80 37:0 38:60 39:0 40:40 41:37 42:5 
1.093788796639293 1:0 2:0 3:0 4:0 5:0 6:0 7:0 8:0 9:-100 10:0 11:0 12:100 13:0 14:0 15:0 16:0 17:0 18:0 19:0 20:0 21:20 22:0 23:20 24:0 25:20 26:20 27:20 28:0 29:0 30:20 31:0 32:80 33:0 34:0 35:80 36:20 37:20 38:0 39:40 40:0 41:21 42:47 
2 1:0 2:0 3:0 4:0 5:0 6:0 7:0 8:0 9:-100 10:0 11:0 12:100 13:0 14:0 15:0 16:0 17:0 18:0 19:0 20:0 21:20 22:0 23:20 24:0 25:20 26:20 27:20 28:0 29:0 30:20 31:0 32:80 33:0 34:0 35:80 36:20 37:20 38:0 39:40 40:0 41:46 42:70 
1.187789621701805 1:0 2:0 3:0 4:0 5:0 6:0 7:0 8:0 9:100 10:0 11:0 12:0 13:-100 14:0 15:0 16:0 17:0 18:0 19:0 20:0 21:0 22:40 23:60 24:0 25:20 26:0 27:0 28:0 29:40 30:60 31:0 32:0 33:0 34:20 35:20 36:0 37:0 38:0 39:40 40:60 41:64 42:50 
0.7162244965129624 1:0 2:0 3:-100 4:0 5:0 6:0 7:0 8:0 9:0 10:100 11:0 12:0 13:0 14:0 15:0 16:0 17:0 18:0 19:0 20:0 21:0 22:20 23:20 24:40 25:20 26:0 27:0 28:20 29:0 30:0 31:0 32:0 33:0 34:0 35:20 36:0 37:0 38:40 39:20 40:20 41:21 42:53 
0.6468745617712366 1:0 2:0 3:0 4:0 5:0 6:0 7:-100 8:0 9:100 10:0 11:0 12:0 13:0 14:0 15:0 16:0 17:0 18:0 19:0 20:0 21:20 22:20 23:20 24:20 25:0 26:0 27:0 28:0 29:40 30:0 31:20 32:20 33:0 34:0 35:0 36:100 37:0 38:60 39:0 40:40 41:37 42:5 
0.6994743264032509 1:0 2:0 3:0 4:0 5:0 6:0 7:0 8:0 9:0 10:0 11:100 12:0 13:-100 14:0 15:0 16:0 17:0 18:0 19:0 20:0 21:0 22:40 23:60 24:0 25:20 26:0 27:0 28:0 29:40 30:60 31:0 32:0 33:0 34:20 35:20 36:0 37:0 38:0 39:40 40:60 41:64 42:50 
2 1:0 2:0 3:0 4:0 5:0 6:0 7:0 8:0 9:0 10:0 11:0 12:0 13:0 14:0 15:0 16:0 17:0 18:0 19:100 20:-100 21:80 22:0 23:20 24:0 25:0 26:20 27:0 28:20 29:80 30:20 31:0 32:0 33:20 34:0 35:60 36:20 37:20 38:0 39:0 40:0 41:28 42:65 
1.316489689124016 1:0 2:0 3:-100 4:0 5:0 6:0 7:0 8:0 9:0 10:0 11:0 12:100 13:0 14:0 15:0 16:0 17:0 18:0 19:0 20:0 21:0 22:20 23:20 24:40 25:20 26:0 27:0 28:20 29:0 30:0 31:0 32:0 33:0 34:0 35:20 36:0 37:0 38:40 39:20 40:20 41:21 42:53 
2 1:0 2:0 3:0 4:0 5:0 6:0 7:100 8:0 9:0 10:0 11:0 12:0 13:0 14:0 15:0 16:0 17:0 18:-100 19:0 20:0 21:20 22:80 23:20 24:0 25:20 26:0 27:0 28:40 29:60 30:40 31:20 32:0 33:0 34:0 35:0 36:0 37:0 38:0 39:0 40:60 41:50 42:25 
2 1:0 2:0 3:0 4:0 5:0 6:0 7:0 8:0 9:0 10:0 11:0 12:0 13:0 14:0 15:0 16:0 17:100 18:-100 19:0 20:0 21:20 22:80 23:20 24:0 25:20 26:0 27:0 28:40 29:60 30:40 31:20 32:0 33:0 34:0 35:0 36:0 37:0 38:0 39:0 40:60 41:50 42:25 
2 1:0 2:0 3:0 4:0 5:0 6:0 7:0 8:0 9:0 10:0 11:0 12:0 13:0 14:0 15:0 16:0 17:0 18:0 19:-100 20:100 21:40 22:40 23:0 24:0 25:0 26:20 27:0 28:60 29:80 30:20 31:40 32:0 33:0 34:0 35:0 36:40 37:0 38:0 39:0 40:20 41:45 42:25 
2 1:0 2:0 3:0 4:0 5:0 6:0 7:0 8:0 9:0 10:0 11:100 12:0 13:0 14:0 15:0 16:0 17:0 18:-100 19:0 20:0 21:20 22:80 23:20 24:0 25:20 26:0 27:0 28:40 29:60 30:40 31:20 32:0 33:0 34:0 35:0 36:0 37:0 38:0 39:0 40:60 41:50 42:25 
1.079535281893172 1:0 2:0 3:0 4:0 5:0 6:0 7:0 8:0 9:0 10:0 11:0 12:100 13:0 14:0 15:0 16:0 17:0 18:-100 19:0 20:0 21:20 22:80 23:20 24:0 25:20 26:0 27:0 28:40 29:60 30:40 31:20 32:0 33:0 34:0 35:0 36:0 37:0 38:0 39:0 40:60 41:50 42:25 
1.99931686472394 1:0 2:0 3:0 4:0 5:0 6:0 7:0 8:0 9:0 10:0 11:0 12:100 13:0 14:0 15:0 16:0 17:0 18:-100 19:0 20:0 21:20 22:80 23:20 24:0 25:20 26:0 27:0 28:40 29:60 30:40 31:20 32:0 33:0 34:0 35:0 36:0 37:0 38:0 39:0 40:60 41:64 42:25 
2 1:0 2:0 3:0 4:0 5:0 6:100 7:0 8:0 9:0 10:0 11:0 12:0 13:0 14:0 15:0 16:0 17:0 18:-100 19:0 20:0 21:20 22:80 23:20 24:0 25:20 26:0 27:0 28:40 29:60 30:40 31:20 32:0 33:0 34:0 35:0 36:0 37:0 38:0 39:0 40:60 41:50 42:25 
2 1:0 2:0 3:0 4:0 5:0 6:100 7:0 8:0 9:0 10:0 11:0 12:0 13:0 14:0 15:0 16:0 17:0 18:-100 19:0 20:0 21:20 22:80 23:20 24:0 25:20 26:0 27:0 28:40 29:60 30:40 31:20 32:0 33:0 34:0 35:0 36:0 37:0 38:0 39:0 40:60 41:64 42:25 
2 1:0 2:0 3:0 4:0 5:0 6:0 7:0 8:0 9:0 10:0 11:0 12:0 13:0 14:0 15:0 16:0 17:0 18:-100 19:100 20:0 21:20 22:80 23:20 24:0 25:20 26:0 27:0 28:40 29:60 30:40 31:20 32:0 33:0 34:0 35:0 36:0 37:0 38:0 39:0 40:60 41:50 42:25 
2 1:0 2:0 3:0 4:0 5:0 6:0 7:0 8:0 9:100 10:0 11:0 12:0 13:0 14:0 15:0 16:0 17:0 18:-100 19:0 20:0 21:20 22:80 23:20 24:0 25:20 26:0 27:0 28:40 29:60 30:40 31:20 32:0 33:0 34:0 35:0 36:0 37:0 38:0 39:0 40:60 41:50 42:25 
2 1:0 2:0 3:0 4:0 5:0 6:0 7:0 8:0 9:0 10:0 11:0 12:0 13:100 14:0 15:0 16:0 17:0 18:-100 19:0 20:0 21:20 22:80 23:20 24:0 25:20 26:0 27:0 28:40 29:60 30:40 31:20 32:0 33:0 34:0 35:0 36:0 37:0 38:0 39:0 40:60 41:64 42:25 
1.823227783233774 1:0 2:0 3:0 4:0 5:0 6:0 7:0 8:0 9:0 10:0 11:0 12:0 13:0 14:0 15:0 16:0 17:0 18:-100 19:0 20:100 21:20 22:80 23:20 24:0 25:20 26:0 27:0 28:40 29:60 30:40 31:20 32:0 33:0 34:0 35:0 36:0 37:0 38:0 39:0 40:60 41:50 42:25 
2 1:0 2:0 3:0 4:0 5:0 6:0 7:0 8:0 9:0 10:0 11:0 12:0 13:0 14:0 15:0 16:0 17:0 18:-100 19:0 20:100 21:20 22:80 23:20 24:0 25:20 26:0 27:0 28:40 29:60 30:40 31:20 32:0 33:0 34:0 35:0 36:0 37:0 38:0 39:0 40:60 41:64 42:25 
2 1:0 2:0 3:0 4:0 5:100 6:0 7:0 8:0 9:0 10:0 11:0 12:0 13:0 14:0 15:0 16:0 17:0 18:-100 19:0 20:0 21:20 22:80 23:20 24:0 25:20 26:0 27:0 28:40 29:60 30:40 31:20 32:0 33:0 34:0 35:0 36:0 37:0 38:0 39:0 40:60 41:50 42:25 
2 1:0 2:0 3:0 4:0 5:100 6:0 7:0 8:0 9:0 10:0 11:0 12:0 13:0 14:0 15:0 16:0 17:0 18:-100 19:0 20:0 21:20 22:80 23:20 24:0 25:20 26:0 27:0 28:40 29:60 30:40 31:20 32:0 33:0 34:0 35:0 36:0 37:0 38:0 39:0 40:60 41:64 42:25 
1.705972286986933 1:0 2:0 3:0 4:0 5:0 6:0 7:-100 8:0 9:100 10:0 11:0 12:0 13:0 14:0 15:0 16:0 17:0 18:0 19:0 20:0 21:0 22:0 23:20 24:0 25:0 26:0 27:20 28:20 29:40 30:20 31:40 32:40 33:20 34:20 35:0 36:60 37:20 38:0 39:40 40:0 41:35 42:63 
2 1:0 2:0 3:0 4:0 5:0 6:0 7:-100 8:100 9:0 10:0 11:0 12:0 13:0 14:0 15:0 16:0 17:0 18:0 19:0 20:0 21:0 22:0 23:20 24:0 25:0 26:0 27:20 28:20 29:40 30:20 31:40 32:40 33:20 34:20 35:0 36:60 37:20 38:0 39:40 40:0 41:35 42:63 
2 1:0 2:0 3:0 4:0 5:100 6:0 7:-100 8:0 9:0 10:0 11:0 12:0 13:0 14:0 15:0 16:0 17:0 18:0 19:0 20:0 21:0 22:0 23:20 24:0 25:0 26:0 27:20 28:20 29:40 30:20 31:40 32:40 33:20 34:20 35:0 36:60 37:20 38:0 39:40 40:0 41:35 42:63 
1.754934757676506 1:0 2:0 3:-100 4:0 5:0 6:0 7:0 8:0 9:0 10:0 11:0 12:100 13:0 14:0 15:0 16:0 17:0 18:0 19:0 20:0 21:20 22:20 23:20 24:0 25:20 26:0 27:0 28:40 29:40 30:0 31:0 32:20 33:20 34:0 35:20 36:40 37:0 38:40 39:40 40:20 41:38 42:59 
2 1:0 2:100 3:0 4:0 5:-100 6:0 7:0 8:0 9:0 10:0 11:0 12:0 13:0 14:0 15:0 16:0 17:0 18:0 19:0 20:0 21:20 22:40 23:0 24:0 25:0 26:0 27:40 28:40 29:0 30:20 31:0 32:20 33:0 34:40 35:0 36:40 37:0 38:80 39:0 40:20 41:50 42:66 
0.6024894125237346 1:0 2:0 3:0 4:0 5:-100 6:0 7:0 8:0 9:0 10:0 11:0 12:0 13:0 14:100 15:0 16:0 17:0 18:0 19:0 20:0 21:20 22:40 23:0 24:0 25:0 26:0 27:40 28:40 29:0 30:20 31:0 32:20 33:0 34:40 35:0 36:40 37:0 38:80 39:0 40:20 41:50 42:66 
2 1:0 2:0 3:0 4:0 5:0 6:0 7:0 8:0 9:100 10:0 11:0 12:0 13:0 14:0 15:0 16:-100 17:0 18:0 19:0 20:0 21:0 22:40 23:20 24:0 25:0 26:0 27:0 28:20 29:60 30:20 31:60 32:20 33:0 34:0 35:20 36:40 37:0 38:20 39:20 40:20 41:21 42:51 
2 1:0 2:0 3:0 4:0 5:0 6:0 7:0 8:0 9:100 10:0 11:0 12:0 13:0 14:0 15:0 16:-100 17:0 18:0 19:0 20:0 21:0 22:40 23:20 24:0 25:0 26:0 27:0 28:20 29:60 30:20 31:60 32:20 33:0 34:0 35:20 36:40 37:0 38:20 39:20 40:20 41:47 42:62 
0.5418280067937643 1:0 2:0 3:0 4:0 5:0 6:0 7:0 8:0 9:100 10:0 11:0 12:0 13:0 14:0 15:0 16:-100 17:0 18:0 19:0 20:0 21:0 22:40 23:20 24:0 25:0 26:0 27:0 28:20 29:60 30:20 31:60 32:20 33:0 34:0 35:20 36:40 37:0 38:20 39:20 40:20 41:38 42:53 
1.244879888280168 1:-100 2:0 3:100 4:0 5:0 6:0 7:0 8:0 9:0 10:0 11:0 12:0 13:0 14:0 15:0 16:0 17:0 18:0 19:0 20:0 21:20 22:0 23:60 24:20 25:0 26:0 27:0 28:80 29:60 30:20 31:0 32:0 33:20 34:0 35:0 36:0 37:0 38:40 39:0 40:40 41:51 42:20 
2 1:0 2:0 3:0 4:0 5:0 6:0 7:0 8:0 9:0 10:0 11:0 12:0 13:0 14:0 15:0 16:100 17:0 18:0 19:0 20:-100 21:0 22:40 23:20 24:0 25:20 26:0 27:20 28:40 29:20 30:40 31:40 32:40 33:0 34:0 35:0 36:0 37:20 38:0 39:20 40:40 41:50 42:47 
0.2919826644324249 1:0 2:0 3:0 4:0 5:0 6:0 7:0 8:0 9:0 10:0 11:0 12:100 13:0 14:0 15:0 16:0 17:0 18:-100 19:0 20:0 21:60 22:80 23:20 24:0 25:0 26:0 27:40 28:20 29:0 30:20 31:0 32:20 33:20 34:0 35:0 36:20 37:20 38:0 39:20 40:20 41:50 42:25 
1.574272679546217 1:0 2:0 3:0 4:0 5:0 6:0 7:0 8:100 9:0 10:0 11:0 12:0 13:0 14:-100 15:0 16:0 17:0 18:0 19:0 20:0 21:20 22:40 23:0 24:40 25:20 26:20 27:20 28:60 29:20 30:0 31:40 32:0 33:20 34:0 35:0 36:20 37:0 38:0 39:20 40:20 41:32 42:66 
2 1:0 2:0 3:0 4:0 5:0 6:0 7:0 8:0 9:100 10:0 11:0 12:0 13:0 14:0 15:0 16:0 17:0 18:0 19:-100 20:0 21:0 22:40 23:20 24:0 25:0 26:0 27:40 28:0 29:40 30:20 31:20 32:40 33:0 34:20 35:0 36:40 37:40 38:20 39:0 40:20 41:45 42:25 
0.106453391650046 1:-100 2:0 3:100 4:0 5:0 6:0 7:0 8:0 9:0 10:0 11:0 12:0 13:0 14:0 15:0 16:0 17:0 18:0 19:0 20:0 21:20 22:80 23:0 24:0 25:0 26:0 27:60 28:20 29:0 30:20 31:20 32:0 33:20 34:0 35:0 36:0 37:20 38:40 39:40 40:20 41:50 42:25 
0.06222401840973846 1:-100 2:0 3:100 4:0 5:0 6:0 7:0 8:0 9:0 10:0 11:0 12:0 13:0 14:0 15:0 16:0 17:0 18:0 19:0 20:0 21:20 22:80 23:0 24:0 25:0 26:0 27:60 28:20 29:0 30:20 31:20 32:0 33:20 34:0 35:0 36:0 37:20 38:40 39:40 40:20 41:50 42:25 
0.9631472662987969 1:0 2:-100 3:0 4:100 5:0 6:0 7:0 8:0 9:0 10:0 11:0 12:0 13:0 14:0 15:0 16:0 17:0 18:0 19:0 20:0 21:40 22:40 23:20 24:0 25:0 26:0 27:20 28:20 29:40 30:20 31:20 32:0 33:0 34:0 35:40 36:40 37:0 38:0 39:20 40:40 41:38 42:65 
1.026871730897394 1:0 2:0 3:0 4:0 5:0 6:0 7:0 8:0 9:0 10:0 11:100 12:0 13:0 14:0 15:0 16:0 17:0 18:0 19:0 20:-100 21:40 22:20 23:20 24:0 25:20 26:0 27:40 28:20 29:20 30:0 31:0 32:40 33:0 34:0 35:0 36:0 37:20 38:0 39:20 40:20 41:45 42:25 
1.194261822230702 1:0 2:0 3:0 4:0 5:0 6:0 7:0 8:100 9:0 10:0 11:0 12:0 13:0 14:0 15:0 16:0 17:0 18:0 19:0 20:-100 21:40 22:20 23:20 24:0 25:20 26:0 27:40 28:20 29:20 30:0 31:0 32:40 33:0 34:0 35:0 36:0 37:20 38:0 39:20 40:20 41:45 42:25 
2 1:0 2:0 3:0 4:0 5:100 6:-100 7:0 8:0 9:0 10:0 11:0 12:0 13:0 14:0 15:0 16:0 17:0 18:0 19:0 20:0 21:0 22:0 23:20 24:0 25:20 26:0 27:20 28:60 29:20 30:40 31:0 32:0 33:0 34:60 35:0 36:60 37:0 38:20 39:20 40:20 41:53 42:23 
0.2310371041800639 1:0 2:0 3:0 4:0 5:0 6:0 7:0 8:0 9:100 10:0 11:0 12:0 13:0 14:0 15:0 16:0 17:-100 18:0 19:0 20:0 21:20 22:20 23:0 24:0 25:40 26:0 27:40 28:60 29:60 30:0 31:0 32:20 33:40 34:0 35:20 36:20 37:0 38:0 39:20 40:0 41:50 42:39 
0.7548704633676243 1:0 2:-100 3:0 4:0 5:0 6:0 7:0 8:0 9:0 10:0 11:0 12:0 13:0 14:0 15:100 16:0 17:0 18:0 19:0 20:0 21:20 22:40 23:0 24:0 25:0 26:0 27:60 28:40 29:0 30:20 31:20 32:0 33:20 34:0 35:0 36:20 37:20 38:40 39:40 40:20 41:50 42:25 
1.275672505909975 1:0 2:0 3:0 4:0 5:0 6:0 7:0 8:0 9:0 10:0 11:0 12:0 13:0 14:-100 15:0 16:0 17:0 18:0 19:0 20:100 21:40 22:0 23:20 24:0 25:0 26:0 27:20 28:80 29:0 30:0 31:0 32:20 33:0 34:0 35:40 36:20 37:20 38:20 39:40 40:40 41:50 42:25 
0.6617373383678923 1:0 2:0 3:0 4:0 5:0 6:0 7:0 8:-100 9:100 10:0 11:0 12:0 13:0 14:0 15:0 16:0 17:0 18:0 19:0 20:0 21:40 22:0 23:20 24:0 25:0 26:60 27:0 28:20 29:40 30:0 31:0 32:20 33:20 34:0 35:60 36:20 37:20 38:0 39:20 40:20 41:19 42:65 
1.757535172037651 1:0 2:0 3:0 4:0 5:0 6:0 7:0 8:0 9:0 10:0 11:100 12:0 13:0 14:0 15:0 16:0 17:0 18:0 19:0 20:-100 21:40 22:40 23:20 24:0 25:20 26:0 27:40 28:20 29:20 30:20 31:0 32:40 33:0 34:20 35:0 36:20 37:20 38:0 39:20 40:20 41:45 42:25 
2 1:0 2:0 3:0 4:0 5:0 6:0 7:0 8:0 9:0 10:0 11:0 12:0 13:0 14:0 15:0 16:0 17:0 18:0 19:100 20:-100 21:20 22:40 23:20 24:20 25:20 26:0 27:0 28:60 29:0 30:40 31:20 32:20 33:20 34:0 35:0 36:20 37:20 38:20 39:20 40:0 41:21 42:50 
2 1:0 2:0 3:0 4:0 5:0 6:0 7:0 8:0 9:0 10:0 11:0 12:0 13:0 14:100 15:0 16:0 17:0 18:0 19:0 20:-100 21:0 22:40 23:20 24:0 25:40 26:0 27:0 28:40 29:20 30:40 31:0 32:20 33:20 34:0 35:40 36:0 37:20 38:20 39:20 40:20 41:51 42:51 
2 1:0 2:100 3:0 4:0 5:0 6:0 7:0 8:0 9:-100 10:0 11:0 12:0 13:0 14:0 15:0 16:0 17:0 18:0 19:0 20:0 21:0 22:40 23:20 24:20 25:0 26:40 27:20 28:20 29:20 30:0 31:40 32:20 33:20 34:0 35:20 36:20 37:0 38:20 39:40 40:0 41:19 42:64 
0.6554182860369369 1:0 2:0 3:0 4:0 5:0 6:0 7:0 8:-100 9:100 10:0 11:0 12:0 13:0 14:0 15:0 16:0 17:0 18:0 19:0 20:0 21:20 22:20 23:0 24:0 25:40 26:0 27:20 28:40 29:40 30:0 31:0 32:20 33:40 34:0 35:40 36:20 37:20 38:0 39:40 40:0 41:50 42:39 
0.5278140989430435 1:0 2:0 3:0 4:0 5:0 6:0 7:0 8:-100 9:0 10:0 11:100 12:0 13:0 14:0 15:0 16:0 17:0 18:0 19:0 20:0 21:20 22:20 23:0 24:0 25:40 26:0 27:20 28:40 29:40 30:0 31:0 32:20 33:40 34:0 35:40 36:20 37:20 38:0 39:40 40:0 41:32 42:72 
1.829842326049013 1:0 2:0 3:0 4:0 5:0 6:0 7:0 8:100 9:0 10:0 11:0 12:0 13:0 14:0 15:0 16:-100 17:0 18:0 19:0 20:0 21:20 22:0 23:40 24:20 25:40 26:0 27:20 28:0 29:0 30:20 31:0 32:0 33:0 34:0 35:20 36:100 37:0 38:40 39:40 40:0 41:46 42:25 
0.00310541143699598 1:0 2:0 3:100 4:0 5:-100 6:0 7:0 8:0 9:0 10:0 11:0 12:0 13:0 14:0 15:0 16:0 17:0 18:0 19:0 20:0 21:20 22:0 23:20 24:0 25:0 26:20 27:20 28:20 29:40 30:0 31:0 32:80 33:0 34:0 35:60 36:40 37:0 38:0 39:20 40:20 41:21 42:51 
1.495342874503716 1:0 2:0 3:100 4:0 5:-100 6:0 7:0 8:0 9:0 10:0 11:0 12:0 13:0 14:0 15:0 16:0 17:0 18:0 19:0 20:0 21:20 22:0 23:20 24:0 25:0 26:20 27:20 28:20 29:40 30:0 31:0 32:80 33:0 34:0 35:60 36:40 37:0 38:0 39:20 40:20 41:40 42:64 
2 1:0 2:0 3:0 4:100 5:-100 6:0 7:0 8:0 9:0 10:0 11:0 12:0 13:0 14:0 15:0 16:0 17:0 18:0 19:0 20:0 21:20 22:0 23:20 24:0 25:0 26:20 27:20 28:20 29:40 30:0 31:0 32:80 33:0 34:0 35:60 36:40 37:0 38:0 39:20 40:20 41:38 42:65 
0.08599350793275388 1:0 2:0 3:0 4:100 5:-100 6:0 7:0 8:0 9:0 10:0 11:0 12:0 13:0 14:0 15:0 16:0 17:0 18:0 19:0 20:0 21:20 22:0 23:20 24:0 25:0 26:20 27:20 28:20 29:40 30:0 31:0 32:80 33:0 34:0 35:60 36:40 37:0 38:0 39:20 40:20 41:40 42:64 
2 1:100 2:0 3:0 4:0 5:0 6:0 7:0 8:0 9:0 10:0 11:0 12:-100 13:0 14:0 15:0 16:0 17:0 18:0 19:0 20:0 21:0 22:0 23:40 24:0 25:20 26:0 27:40 28:0 29:0 30:0 31:0 32:60 33:0 34:20 35:20 36:40 37:20 38:0 39:0 40:20 41:45 42:25 
2 1:0 2:0 3:0 4:0 5:0 6:0 7:0 8:0 9:100 10:0 11:0 12:0 13:0 14:-100 15:0 16:0 17:0 18:0 19:0 20:0 21:20 22:60 23:0 24:0 25:0 26:0 27:0 28:20 29:60 30:20 31:40 32:20 33:40 34:0 35:0 36:20 37:20 38:0 39:20 40:20 41:19 42:64 
1.174355137977625 1:0 2:0 3:0 4:0 5:0 6:0 7:0 8:100 9:0 10:0 11:0 12:0 13:0 14:-100 15:0 16:0 17:0 18:0 19:0 20:0 21:20 22:60 23:0 24:0 25:0 26:0 27:0 28:20 29:60 30:20 31:40 32:20 33:40 34:0 35:0 36:20 37:20 38:0 39:20 40:20 41:19 42:64 
1.134626523172976 1:0 2:100 3:0 4:0 5:0 6:0 7:0 8:0 9:0 10:-100 11:0 12:0 13:0 14:0 15:0 16:0 17:0 18:0 19:0 20:0 21:0 22:40 23:20 24:20 25:20 26:0 27:40 28:60 29:20 30:20 31:0 32:40 33:0 34:0 35:0 36:60 37:0 38:0 39:20 40:0 41:32 42:25 
1.006648052760169 1:100 2:0 3:0 4:0 5:-100 6:0 7:0 8:0 9:0 10:0 11:0 12:0 13:0 14:0 15:0 16:0 17:0 18:0 19:0 20:0 21:20 22:0 23:20 24:0 25:0 26:20 27:20 28:20 29:40 30:0 31:0 32:80 33:0 34:0 35:60 36:40 37:0 38:0 39:20 40:20 41:40 42:64 
1.186430618713818 1:0 2:0 3:0 4:0 5:0 6:0 7:0 8:0 9:100 10:0 11:0 12:0 13:0 14:0 15:0 16:0 17:-100 18:0 19:0 20:0 21:60 22:20 23:60 24:0 25:0 26:0 27:0 28:0 29:40 30:20 31:0 32:0 33:0 34:0 35:0 36:60 37:20 38:60 39:0 40:20 41:44 42:25 
1.579673933241438 1:0 2:0 3:0 4:0 5:0 6:0 7:0 8:0 9:0 10:0 11:0 12:0 13:0 14:0 15:-100 16:100 17:0 18:0 19:0 20:0 21:0 22:60 23:40 24:20 25:0 26:0 27:20 28:40 29:0 30:0 31:0 32:20 33:0 34:0 35:20 36:40 37:0 38:60 39:0 40:40 41:38 42:65 
2 1:0 2:0 3:0 4:0 5:100 6:0 7:-100 8:0 9:0 10:0 11:0 12:0 13:0 14:0 15:0 16:0 17:0 18:0 19:0 20:0 21:20 22:20 23:20 24:20 25:20 26:0 27:20 28:20 29:40 30:20 31:20 32:20 33:0 34:20 35:0 36:20 37:20 38:40 39:0 40:20 41:37 42:5 
2 1:0 2:0 3:0 4:-100 5:0 6:0 7:0 8:0 9:100 10:0 11:0 12:0 13:0 14:0 15:0 16:0 17:0 18:0 19:0 20:0 21:20 22:40 23:0 24:0 25:20 26:20 27:0 28:20 29:40 30:0 31:20 32:20 33:0 34:0 35:40 36:20 37:40 38:20 39:20 40:20 41:21 42:51 
2 1:-100 2:0 3:0 4:0 5:0 6:0 7:0 8:0 9:100 10:0 11:0 12:0 13:0 14:0 15:0 16:0 17:0 18:0 19:0 20:0 21:40 22:0 23:0 24:0 25:0 26:20 27:20 28:40 29:0 30:0 31:0 32:0 33:40 34:0 35:80 36:0 37:60 38:0 39:40 40:20 41:19 42:64 
2 1:-100 2:0 3:0 4:0 5:0 6:0 7:0 8:0 9:100 10:0 11:0 12:0 13:0 14:0 15:0 16:0 17:0 18:0 19:0 20:0 21:40 22:0 23:0 24:0 25:0 26:20 27:20 28:40 29:0 30:0 31:0 32:0 33:40 34:0 35:80 36:0 37:60 38:0 39:40 40:20 41:19 42:49 
0.158315570071964 1:0 2:0 3:0 4:-100 5:0 6:0 7:0 8:0 9:0 10:0 11:0 12:0 13:0 14:0 15:0 16:100 17:0 18:0 19:0 20:0 21:20 22:40 23:0 24:0 25:20 26:20 27:0 28:20 29:40 30:0 31:20 32:20 33:0 34:0 35:40 36:20 37:40 38:20 39:20 40:20 41:21 42:47 
1.226265768595512 1:0 2:0 3:0 4:0 5:0 6:0 7:-100 8:0 9:0 10:0 11:0 12:0 13:0 14:0 15:0 16:0 17:0 18:0 19:100 20:0 21:20 22:20 23:20 24:20 25:20 26:0 27:20 28:20 29:40 30:20 31:20 32:20 33:0 34:20 35:0 36:20 37:20 38:40 39:0 40:20 41:37 42:5 
1.392095768940479 1:0 2:0 3:0 4:0 5:0 6:0 7:0 8:0 9:0 10:0 11:0 12:-100 13:100 14:0 15:0 16:0 17:0 18:0 19:0 20:0 21:40 22:40 23:20 24:0 25:0 26:0 27:40 28:20 29:40 30:40 31:0 32:0 33:0 34:0 35:0 36:20 37:20 38:40 39:20 40:20 41:50 42:25 
1.107449094399601 1:0 2:0 3:0 4:0 5:0 6:0 7:0 8:0 9:100 10:0 11:0 12:0 13:0 14:0 15:0 16:0 17:0 18:0 19:0 20:-100 21:0 22:40 23:0 24:0 25:40 26:0 27:0 28:0 29:20 30:20 31:20 32:40 33:0 34:40 35:20 36:60 37:0 38:60 39:0 40:0 41:28 42:25 
2 1:0 2:0 3:0 4:0 5:0 6:0 7:0 8:0 9:100 10:0 11:0 12:0 13:-100 14:0 15:0 16:0 17:0 18:0 19:0 20:0 21:20 22:60 23:0 24:0 25:0 26:0 27:0 28:40 29:60 30:20 31:40 32:20 33:20 34:20 35:0 36:20 37:20 38:0 39:20 40:0 41:21 42:57 
2 1:0 2:0 3:0 4:0 5:0 6:0 7:0 8:0 9:0 10:0 11:100 12:-100 13:0 14:0 15:0 16:0 17:0 18:0 19:0 20:0 21:60 22:20 23:80 24:20 25:0 26:0 27:20 28:20 29:20 30:20 31:0 32:20 33:0 34:0 35:20 36:0 37:20 38:20 39:0 40:20 41:44 42:25 
2 1:100 2:0 3:0 4:0 5:0 6:0 7:0 8:0 9:0 10:0 11:0 12:-100 13:0 14:0 15:0 16:0 17:0 18:0 19:0 20:0 21:60 22:20 23:80 24:20 25:0 26:0 27:20 28:20 29:20 30:20 31:0 32:20 33:0 34:0 35:20 36:0 37:20 38:20 39:0 40:20 41:44 42:25 
2 1:100 2:0 3:0 4:0 5:0 6:0 7:0 8:0 9:0 10:0 11:0 12:-100 13:0 14:0 15:0 16:0 17:0 18:0 19:0 20:0 21:20 22:40 23:0 24:0 25:0 26:20 27:0 28:20 29:0 30:20 31:20 32:0 33:0 34:0 35:0 36:40 37:0 38:40 39:20 40:0 41:45 42:25 
2 1:0 2:0 3:0 4:0 5:0 6:0 7:0 8:-100 9:100 10:0 11:0 12:0 13:0 14:0 15:0 16:0 17:0 18:0 19:0 20:0 21:0 22:0 23:0 24:20 25:0 26:0 27:0 28:20 29:40 30:0 31:20 32:20 33:40 34:0 35:20 36:0 37:0 38:20 39:0 40:20 41:50 42:39 
2 1:0 2:0 3:100 4:0 5:0 6:0 7:0 8:0 9:0 10:0 11:0 12:0 13:0 14:0 15:0 16:-100 17:0 18:0 19:0 20:0 21:0 22:20 23:20 24:40 25:20 26:0 27:40 28:20 29:20 30:40 31:20 32:40 33:0 34:0 35:0 36:40 37:0 38:20 39:20 40:0 41:32 42:25 
0.5933212815410227 1:0 2:0 3:0 4:0 5:0 6:0 7:0 8:0 9:0 10:0 11:0 12:0 13:0 14:100 15:-100 16:0 17:0 18:0 19:0 20:0 21:80 22:0 23:0 24:60 25:0 26:0 27:0 28:0 29:0 30:0 31:0 32:60 33:20 34:0 35:0 36:20 37:40 38:60 39:0 40:20 41:50 42:25 
0.9196321053321191 1:0 2:0 3:0 4:0 5:0 6:0 7:0 8:0 9:-100 10:0 11:0 12:0 13:0 14:0 15:0 16:0 17:0 18:0 19:100 20:0 21:20 22:60 23:20 24:40 25:0 26:0 27:0 28:0 29:60 30:0 31:0 32:20 33:0 34:0 35:20 36:20 37:0 38:60 39:40 40:0 41:22 42:53 
0.4906544788165557 1:0 2:0 3:0 4:0 5:0 6:0 7:0 8:0 9:-100 10:0 11:0 12:0 13:0 14:100 15:0 16:0 17:0 18:0 19:0 20:0 21:20 22:60 23:20 24:40 25:0 26:0 27:0 28:0 29:60 30:0 31:0 32:20 33:0 34:0 35:20 36:20 37:0 38:60 39:40 40:0 41:22 42:53 
2 1:0 2:0 3:0 4:0 5:0 6:0 7:0 8:0 9:-100 10:0 11:0 12:0 13:0 14:0 15:0 16:0 17:0 18:100 19:0 20:0 21:20 22:60 23:20 24:40 25:0 26:0 27:0 28:0 29:60 30:0 31:0 32:20 33:0 34:0 35:20 36:20 37:0 38:60 39:40 40:0 41:22 42:53 
2 1:0 2:0 3:0 4:0 5:0 6:0 7:0 8:0 9:0 10:0 11:0 12:0 13:0 14:0 15:0 16:0 17:0 18:0 19:-100 20:100 21:0 22:20 23:0 24:0 25:0 26:20 27:20 28:20 29:20 30:0 31:0 32:40 33:0 34:0 35:20 36:20 37:0 38:0 39:0 40:20 41:38 42:65 
