svm_type nu_svr
kernel_type rbf
gamma 3.05176e-05
nr_class 2
total_sv 1648
rho 1.03197
probA 0.682435
SV
-0.5664973683291208 1:0 2:0 3:-100 4:100 5:0 6:0 7:0 8:0 9:0 10:0 11:0 12:0 13:0 14:0 15:0 16:0 17:0 18:0 19:0 20:0 21:100 22:80 23:40 24:20 25:40 26:0 27:20 28:40 29:100 30:20 31:20 32:20 33:20 34:0 35:80 36:40 37:0 38:20 39:40 40:60 41:0 42:38 43:65 
-1.452795859113208 1:0 2:0 3:0 4:0 5:0 6:0 7:0 8:0 9:100 10:0 11:0 12:0 13:0 14:-100 15:0 16:0 17:0 18:0 19:0 20:0 21:60 22:20 23:60 24:20 25:20 26:0 27:0 28:40 29:60 30:20 31:20 32:0 33:0 34:60 35:20 36:0 37:20 38:20 39:20 40:20 41:49 42:68 43:82 
-0.8525421620211658 1:0 2:0 3:0 4:0 5:0 6:0 7:0 8:0 9:0 10:0 11:0 12:0 13:0 14:0 15:0 16:0 17:100 18:-100 19:0 20:0 21:60 22:60 23:60 24:0 25:0 26:20 27:0 28:20 29:20 30:0 31:20 32:0 33:0 34:0 35:0 36:60 37:20 38:40 39:20 40:20 41:50 42:44 43:25 
-8 1:0 2:0 3:0 4:0 5:0 6:0 7:0 8:-100 9:0 10:0 11:100 12:0 13:0 14:0 15:0 16:0 17:0 18:0 19:0 20:0 21:0 22:60 23:0 24:0 25:20 26:0 27:40 28:0 29:0 30:20 31:0 32:40 33:0 34:0 35:20 36:40 37:20 38:0 39:40 40:20 41:23 42:50 43:20 
-8 1:0 2:0 3:0 4:0 5:0 6:0 7:0 8:-100 9:0 10:0 11:100 12:0 13:0 14:0 15:0 16:0 17:0 18:0 19:0 20:0 21:0 22:60 23:0 24:0 25:20 26:0 27:40 28:0 29:0 30:20 31:0 32:40 33:0 34:0 35:20 36:40 37:20 38:0 39:40 40:20 41:23 42:37 43:40 
2.885453893848449 1:0 2:0 3:0 4:0 5:0 6:0 7:0 8:-100 9:0 10:0 11:100 12:0 13:0 14:0 15:0 16:0 17:0 18:0 19:0 20:0 21:0 22:60 23:0 24:0 25:20 26:0 27:40 28:0 29:0 30:20 31:0 32:40 33:0 34:0 35:20 36:40 37:20 38:0 39:40 40:20 41:23 42:50 43:51 
8 1:0 2:0 3:0 4:0 5:0 6:0 7:0 8:-100 9:0 10:0 11:100 12:0 13:0 14:0 15:0 16:0 17:0 18:0 19:0 20:0 21:0 22:60 23:0 24:0 25:20 26:0 27:40 28:0 29:0 30:20 31:0 32:40 33:0 34:0 35:20 36:40 37:20 38:0 39:40 40:20 41:23 42:35 43:47 
4.927845622952781 1:0 2:0 3:0 4:0 5:0 6:0 7:0 8:0 9:100 10:0 11:0 12:0 13:0 14:0 15:-100 16:0 17:0 18:0 19:0 20:0 21:40 22:0 23:40 24:20 25:0 26:20 27:20 28:80 29:20 30:20 31:20 32:0 33:0 34:0 35:60 36:20 37:20 38:0 39:0 40:40 41:63 42:19 43:64 
4.243683896173495 1:0 2:0 3:0 4:0 5:0 6:0 7:0 8:100 9:0 10:0 11:0 12:0 13:0 14:0 15:-100 16:0 17:0 18:0 19:0 20:0 21:40 22:0 23:40 24:20 25:0 26:20 27:20 28:80 29:20 30:20 31:20 32:0 33:0 34:0 35:60 36:20 37:20 38:0 39:0 40:40 41:63 42:19 43:64 
8 1:0 2:0 3:-100 4:0 5:0 6:0 7:0 8:0 9:100 10:0 11:0 12:0 13:0 14:0 15:0 16:0 17:0 18:0 19:0 20:0 21:100 22:80 23:40 24:20 25:40 26:0 27:20 28:40 29:100 30:20 31:20 32:20 33:20 34:0 35:80 36:40 37:0 38:20 39:40 40:60 41:0 42:21 43:51 
-5.410493637428049 1:0 2:0 3:0 4:0 5:0 6:0 7:0 8:0 9:0 10:0 11:0 12:0 13:0 14:100 15:0 16:-100 17:0 18:0 19:0 20:0 21:20 22:60 23:60 24:0 25:20 26:0 27:0 28:20 29:20 30:0 31:0 32:20 33:0 34:0 35:60 36:40 37:0 38:40 39:20 40:20 41:52 42:14 43:28 
8 1:0 2:0 3:0 4:0 5:0 6:0 7:0 8:0 9:0 10:0 11:0 12:0 13:0 14:100 15:0 16:-100 17:0 18:0 19:0 20:0 21:20 22:60 23:60 24:0 25:20 26:0 27:0 28:20 29:20 30:0 31:0 32:20 33:0 34:0 35:60 36:40 37:0 38:40 39:20 40:20 41:52 42:46 43:63 
-6.721882463381066 1:0 2:0 3:0 4:0 5:0 6:0 7:0 8:0 9:0 10:0 11:0 12:0 13:0 14:0 15:0 16:0 17:0 18:100 19:0 20:-100 21:0 22:20 23:20 24:0 25:40 26:0 27:20 28:80 29:100 30:20 31:40 32:20 33:40 34:40 35:40 36:0 37:0 38:60 39:40 40:40 41:34 42:39 43:53 
8 1:0 2:0 3:0 4:0 5:0 6:0 7:0 8:0 9:0 10:0 11:0 12:0 13:0 14:0 15:0 16:0 17:0 18:100 19:0 20:-100 21:0 22:20 23:20 24:0 25:40 26:0 27:20 28:80 29:100 30:20 31:40 32:20 33:40 34:40 35:40 36:0 37:0 38:60 39:40 40:40 41:34 42:21 43:50 
-4.109249036678081 1:0 2:0 3:0 4:0 5:0 6:0 7:-100 8:0 9:100 10:0 11:0 12:0 13:0 14:0 15:0 16:0 17:0 18:0 19:0 20:0 21:60 22:80 23:40 24:20 25:40 26:40 27:20 28:40 29:80 30:0 31:20 32:20 33:60 34:0 35:40 36:40 37:60 38:60 39:40 40:20 41:8 42:19 43:64 
-2.870508232928605 1:0 2:0 3:0 4:0 5:0 6:0 7:0 8:0 9:0 10:0 11:0 12:0 13:0 14:0 15:0 16:0 17:100 18:0 19:0 20:-100 21:20 22:20 23:20 24:20 25:0 26:60 27:40 28:40 29:40 30:0 31:20 32:0 33:40 34:0 35:20 36:40 37:0 38:0 39:20 40:0 41:65 42:45 43:74 
-4.287348449558756 1:0 2:0 3:0 4:0 5:0 6:0 7:0 8:0 9:0 10:0 11:0 12:0 13:0 14:0 15:0 16:0 17:0 18:-100 19:100 20:0 21:60 22:60 23:60 24:0 25:0 26:20 27:0 28:20 29:20 30:0 31:20 32:0 33:0 34:0 35:0 36:60 37:20 38:40 39:20 40:20 41:50 42:44 43:25 
1.227391426192751 1:-100 2:0 3:0 4:0 5:0 6:0 7:0 8:0 9:0 10:100 11:0 12:0 13:0 14:0 15:0 16:0 17:0 18:0 19:0 20:0 21:0 22:20 23:20 24:0 25:20 26:60 27:0 28:20 29:40 30:0 31:0 32:0 33:20 34:0 35:60 36:0 37:60 38:20 39:20 40:0 41:60 42:20 43:68 
-6.886587968907817 1:0 2:-100 3:0 4:0 5:0 6:0 7:0 8:0 9:100 10:0 11:0 12:0 13:0 14:0 15:0 16:0 17:0 18:0 19:0 20:0 21:120 22:120 23:40 24:40 25:20 26:20 27:20 28:60 29:100 30:40 31:40 32:60 33:0 34:0 35:40 36:60 37:20 38:60 39:40 40:60 41:0 42:50 43:20 
-1.078066707046546 1:0 2:0 3:0 4:0 5:0 6:0 7:0 8:0 9:0 10:0 11:0 12:0 13:0 14:0 15:0 16:0 17:0 18:-100 19:0 20:100 21:60 22:60 23:60 24:0 25:0 26:20 27:0 28:20 29:20 30:0 31:20 32:0 33:0 34:0 35:0 36:60 37:20 38:40 39:20 40:20 41:50 42:44 43:25 
8 1:0 2:-100 3:0 4:0 5:0 6:0 7:0 8:0 9:100 10:0 11:0 12:0 13:0 14:0 15:0 16:0 17:0 18:0 19:0 20:0 21:20 22:40 23:20 24:20 25:40 26:40 27:60 28:20 29:60 30:20 31:20 32:0 33:0 34:20 35:0 36:80 37:20 38:60 39:20 40:40 41:8 42:37 43:5 
-0.9393378417044582 1:0 2:0 3:0 4:0 5:0 6:0 7:0 8:0 9:-100 10:0 11:0 12:0 13:0 14:0 15:0 16:0 17:100 18:0 19:0 20:0 21:40 22:40 23:20 24:0 25:0 26:20 27:0 28:20 29:40 30:0 31:20 32:20 33:0 34:0 35:0 36:20 37:20 38:20 39:0 40:0 41:83 42:45 43:25 
-8 1:0 2:0 3:0 4:0 5:0 6:0 7:0 8:0 9:-100 10:100 11:0 12:0 13:0 14:0 15:0 16:0 17:0 18:0 19:0 20:0 21:40 22:40 23:20 24:0 25:0 26:20 27:0 28:20 29:40 30:0 31:20 32:20 33:0 34:0 35:0 36:20 37:20 38:20 39:0 40:0 41:83 42:45 43:25 
2.259103759101709 1:0 2:0 3:0 4:0 5:0 6:0 7:0 8:0 9:-100 10:0 11:100 12:0 13:0 14:0 15:0 16:0 17:0 18:0 19:0 20:0 21:40 22:40 23:20 24:0 25:0 26:20 27:0 28:20 29:40 30:0 31:20 32:20 33:0 34:0 35:0 36:20 37:20 38:20 39:0 40:0 41:83 42:45 43:25 
0.7944684129717822 1:0 2:0 3:0 4:0 5:0 6:0 7:0 8:0 9:-100 10:0 11:0 12:0 13:0 14:0 15:100 16:0 17:0 18:0 19:0 20:0 21:40 22:40 23:20 24:0 25:0 26:20 27:0 28:20 29:40 30:0 31:20 32:20 33:0 34:0 35:0 36:20 37:20 38:20 39:0 40:0 41:83 42:45 43:25 
-2.277546882607207 1:0 2:0 3:0 4:0 5:0 6:0 7:0 8:0 9:-100 10:0 11:0 12:100 13:0 14:0 15:0 16:0 17:0 18:0 19:0 20:0 21:40 22:40 23:20 24:0 25:0 26:20 27:0 28:20 29:40 30:0 31:20 32:20 33:0 34:0 35:0 36:20 37:20 38:20 39:0 40:0 41:83 42:45 43:25 
-1.197173267884057 1:0 2:0 3:0 4:0 5:0 6:100 7:0 8:0 9:-100 10:0 11:0 12:0 13:0 14:0 15:0 16:0 17:0 18:0 19:0 20:0 21:40 22:40 23:20 24:0 25:0 26:20 27:0 28:20 29:40 30:0 31:20 32:20 33:0 34:0 35:0 36:20 37:20 38:20 39:0 40:0 41:83 42:45 43:25 
-8 1:100 2:0 3:0 4:0 5:0 6:0 7:0 8:0 9:-100 10:0 11:0 12:0 13:0 14:0 15:0 16:0 17:0 18:0 19:0 20:0 21:40 22:40 23:20 24:0 25:0 26:20 27:0 28:20 29:40 30:0 31:20 32:20 33:0 34:0 35:0 36:20 37:20 38:20 39:0 40:0 41:83 42:45 43:25 
0.8237205767493666 1:0 2:0 3:0 4:0 5:0 6:0 7:100 8:0 9:-100 10:0 11:0 12:0 13:0 14:0 15:0 16:0 17:0 18:0 19:0 20:0 21:40 22:40 23:20 24:0 25:0 26:20 27:0 28:20 29:40 30:0 31:20 32:20 33:0 34:0 35:0 36:20 37:20 38:20 39:0 40:0 41:83 42:45 43:25 
4.584719420059388 1:-100 2:0 3:0 4:0 5:0 6:0 7:0 8:0 9:100 10:0 11:0 12:0 13:0 14:0 15:0 16:0 17:0 18:0 19:0 20:0 21:20 22:60 23:0 24:20 25:0 26:0 27:20 28:40 29:40 30:0 31:20 32:20 33:40 34:0 35:80 36:20 37:20 38:20 39:0 40:20 41:39 42:19 43:49 
8 1:0 2:0 3:0 4:0 5:-100 6:0 7:0 8:0 9:100 10:0 11:0 12:0 13:0 14:0 15:0 16:0 17:0 18:0 19:0 20:0 21:80 22:40 23:20 24:20 25:0 26:20 27:20 28:20 29:60 30:40 31:0 32:40 33:40 34:20 35:0 36:40 37:20 38:60 39:40 40:40 41:9 42:35 43:50 
-3.400006501447944 1:0 2:0 3:-100 4:0 5:0 6:0 7:100 8:0 9:0 10:0 11:0 12:0 13:0 14:0 15:0 16:0 17:0 18:0 19:0 20:0 21:60 22:80 23:40 24:20 25:20 26:60 27:40 28:20 29:160 30:0 31:100 32:80 33:80 34:0 35:40 36:20 37:20 38:20 39:100 40:60 41:1 42:19 43:64 
5.073439538579014 1:0 2:0 3:0 4:0 5:0 6:0 7:0 8:100 9:-100 10:0 11:0 12:0 13:0 14:0 15:0 16:0 17:0 18:0 19:0 20:0 21:120 22:60 23:60 24:0 25:20 26:20 27:0 28:20 29:40 30:20 31:20 32:0 33:0 34:0 35:20 36:80 37:20 38:80 39:20 40:40 41:0 42:44 43:25 
-2.473267926526373 1:0 2:0 3:0 4:0 5:0 6:0 7:0 8:0 9:-100 10:0 11:0 12:0 13:100 14:0 15:0 16:0 17:0 18:0 19:0 20:0 21:40 22:40 23:20 24:0 25:0 26:20 27:0 28:20 29:40 30:0 31:20 32:20 33:0 34:0 35:0 36:20 37:20 38:20 39:0 40:0 41:83 42:45 43:25 
-1.239853724578353 1:0 2:0 3:0 4:0 5:0 6:0 7:0 8:0 9:-100 10:0 11:0 12:0 13:0 14:0 15:0 16:0 17:0 18:100 19:0 20:0 21:40 22:40 23:20 24:0 25:0 26:20 27:0 28:20 29:40 30:0 31:20 32:20 33:0 34:0 35:0 36:20 37:20 38:20 39:0 40:0 41:83 42:45 43:25 
8 1:0 2:0 3:-100 4:0 5:0 6:0 7:0 8:0 9:100 10:0 11:0 12:0 13:0 14:0 15:0 16:0 17:0 18:0 19:0 20:0 21:20 22:100 23:100 24:0 25:60 26:20 27:100 28:60 29:40 30:20 31:40 32:100 33:0 34:0 35:60 36:40 37:20 38:20 39:60 40:100 41:0 42:45 43:25 
-8 1:0 2:0 3:-100 4:0 5:0 6:0 7:0 8:0 9:100 10:0 11:0 12:0 13:0 14:0 15:0 16:0 17:0 18:0 19:0 20:0 21:20 22:100 23:100 24:0 25:60 26:20 27:100 28:60 29:40 30:20 31:40 32:100 33:0 34:0 35:60 36:40 37:20 38:20 39:60 40:100 41:0 42:45 43:25 
-8 1:0 2:0 3:-100 4:0 5:0 6:0 7:0 8:0 9:100 10:0 11:0 12:0 13:0 14:0 15:0 16:0 17:0 18:0 19:0 20:0 21:20 22:100 23:100 24:0 25:60 26:20 27:100 28:60 29:40 30:20 31:40 32:100 33:0 34:0 35:60 36:40 37:20 38:20 39:60 40:100 41:0 42:45 43:25 
0.04376781170436828 1:0 2:0 3:0 4:0 5:100 6:0 7:0 8:0 9:-100 10:0 11:0 12:0 13:0 14:0 15:0 16:0 17:0 18:0 19:0 20:0 21:40 22:40 23:20 24:0 25:0 26:20 27:0 28:20 29:40 30:0 31:20 32:20 33:0 34:0 35:0 36:20 37:20 38:20 39:0 40:0 41:83 42:45 43:25 
1.748069474413421 1:0 2:100 3:-100 4:0 5:0 6:0 7:0 8:0 9:0 10:0 11:0 12:0 13:0 14:0 15:0 16:0 17:0 18:0 19:0 20:0 21:20 22:100 23:100 24:0 25:60 26:20 27:100 28:60 29:40 30:20 31:40 32:100 33:0 34:0 35:60 36:40 37:20 38:20 39:60 40:100 41:0 42:45 43:25 
-0.9870140422320167 1:0 2:0 3:0 4:0 5:0 6:0 7:0 8:0 9:-100 10:0 11:0 12:0 13:0 14:100 15:0 16:0 17:0 18:0 19:0 20:0 21:40 22:40 23:20 24:0 25:0 26:20 27:0 28:20 29:40 30:0 31:20 32:20 33:0 34:0 35:0 36:20 37:20 38:20 39:0 40:0 41:83 42:45 43:25 
4.700744859068772 1:0 2:0 3:0 4:0 5:0 6:0 7:0 8:0 9:-100 10:0 11:0 12:0 13:0 14:0 15:0 16:100 17:0 18:0 19:0 20:0 21:40 22:40 23:20 24:0 25:0 26:20 27:0 28:20 29:40 30:0 31:20 32:20 33:0 34:0 35:0 36:20 37:20 38:20 39:0 40:0 41:83 42:45 43:25 
1.248383514978634 1:0 2:0 3:0 4:100 5:0 6:0 7:0 8:0 9:-100 10:0 11:0 12:0 13:0 14:0 15:0 16:0 17:0 18:0 19:0 20:0 21:40 22:40 23:20 24:0 25:0 26:20 27:0 28:20 29:40 30:0 31:20 32:20 33:0 34:0 35:0 36:20 37:20 38:20 39:0 40:0 41:83 42:45 43:25 
3.999573139486497 1:0 2:100 3:0 4:0 5:0 6:0 7:0 8:0 9:-100 10:0 11:0 12:0 13:0 14:0 15:0 16:0 17:0 18:0 19:0 20:0 21:40 22:40 23:20 24:0 25:0 26:20 27:0 28:20 29:40 30:0 31:20 32:20 33:0 34:0 35:0 36:20 37:20 38:20 39:0 40:0 41:83 42:45 43:25 
0.5216321692826216 1:0 2:0 3:0 4:0 5:0 6:0 7:0 8:0 9:100 10:0 11:0 12:0 13:0 14:0 15:0 16:0 17:0 18:0 19:-100 20:0 21:40 22:0 23:80 24:0 25:40 26:0 27:40 28:20 29:20 30:0 31:60 32:80 33:0 34:0 35:40 36:40 37:0 38:0 39:60 40:60 41:48 42:45 43:25 
-0.3857954662576685 1:0 2:0 3:0 4:0 5:0 6:0 7:0 8:0 9:-100 10:0 11:0 12:0 13:0 14:0 15:0 16:0 17:0 18:0 19:100 20:0 21:40 22:40 23:20 24:0 25:0 26:20 27:0 28:20 29:40 30:0 31:20 32:20 33:0 34:0 35:0 36:20 37:20 38:20 39:0 40:0 41:83 42:45 43:25 
2.194335448760172 1:0 2:0 3:0 4:0 5:0 6:0 7:0 8:0 9:0 10:0 11:0 12:0 13:100 14:0 15:0 16:0 17:0 18:0 19:0 20:-100 21:0 22:60 23:0 24:0 25:0 26:0 27:0 28:0 29:40 30:0 31:0 32:0 33:0 34:0 35:0 36:20 37:20 38:60 39:20 40:40 41:87 42:50 43:69 
1.238169846757061 1:-100 2:0 3:0 4:0 5:0 6:0 7:0 8:0 9:0 10:0 11:0 12:100 13:0 14:0 15:0 16:0 17:0 18:0 19:0 20:0 21:0 22:100 23:20 24:0 25:0 26:60 27:20 28:20 29:20 30:20 31:80 32:40 33:80 34:20 35:40 36:40 37:0 38:40 39:40 40:0 41:0 42:32 43:64 
-3.933163059194677 1:0 2:0 3:0 4:0 5:0 6:0 7:0 8:0 9:100 10:0 11:0 12:0 13:0 14:0 15:0 16:0 17:0 18:0 19:0 20:-100 21:0 22:60 23:0 24:0 25:0 26:0 27:0 28:0 29:40 30:0 31:0 32:0 33:0 34:0 35:0 36:20 37:20 38:60 39:20 40:40 41:87 42:50 43:69 
-1.653172618351441 1:0 2:0 3:0 4:0 5:100 6:0 7:0 8:0 9:0 10:0 11:0 12:0 13:0 14:0 15:0 16:0 17:0 18:0 19:0 20:-100 21:0 22:60 23:0 24:0 25:0 26:0 27:0 28:0 29:40 30:0 31:0 32:0 33:0 34:0 35:0 36:20 37:20 38:60 39:20 40:40 41:87 42:50 43:69 
8 1:0 2:0 3:0 4:0 5:0 6:0 7:0 8:100 9:0 10:0 11:0 12:0 13:0 14:0 15:0 16:0 17:0 18:0 19:0 20:-100 21:0 22:60 23:0 24:0 25:0 26:0 27:0 28:0 29:40 30:0 31:0 32:0 33:0 34:0 35:0 36:20 37:20 38:60 39:20 40:40 41:87 42:50 43:69 
-5.629232631139907 1:0 2:0 3:0 4:0 5:0 6:0 7:-100 8:0 9:0 10:0 11:100 12:0 13:0 14:0 15:0 16:0 17:0 18:0 19:0 20:0 21:100 22:140 23:40 24:20 25:40 26:0 27:40 28:40 29:60 30:20 31:0 32:20 33:0 34:60 35:40 36:60 37:40 38:100 39:60 40:20 41:0 42:50 43:20 
1.442514281379217 1:0 2:0 3:0 4:0 5:0 6:0 7:0 8:0 9:0 10:0 11:0 12:0 13:0 14:0 15:0 16:100 17:0 18:0 19:0 20:-100 21:0 22:60 23:0 24:0 25:0 26:0 27:0 28:0 29:40 30:0 31:0 32:0 33:0 34:0 35:0 36:20 37:20 38:60 39:20 40:40 41:87 42:50 43:69 
1.000356788927479 1:0 2:0 3:0 4:0 5:0 6:0 7:0 8:0 9:0 10:0 11:0 12:0 13:0 14:100 15:0 16:0 17:0 18:0 19:0 20:-100 21:0 22:60 23:0 24:0 25:0 26:0 27:0 28:0 29:40 30:0 31:0 32:0 33:0 34:0 35:0 36:20 37:20 38:60 39:20 40:40 41:87 42:50 43:69 
-6.991250465985259 1:100 2:0 3:0 4:0 5:0 6:0 7:0 8:-100 9:0 10:0 11:0 12:0 13:0 14:0 15:0 16:0 17:0 18:0 19:0 20:0 21:40 22:160 23:60 24:40 25:20 26:0 27:0 28:60 29:40 30:20 31:20 32:60 33:0 34:0 35:20 36:20 37:40 38:0 39:0 40:40 41:9 42:51 43:51 
-2.478418221435735 1:0 2:100 3:0 4:0 5:0 6:0 7:0 8:0 9:0 10:0 11:0 12:0 13:0 14:0 15:0 16:0 17:0 18:0 19:0 20:-100 21:0 22:60 23:0 24:0 25:0 26:0 27:0 28:0 29:40 30:0 31:0 32:0 33:0 34:0 35:0 36:20 37:20 38:60 39:20 40:40 41:87 42:50 43:69 
-0.5101971916398402 1:0 2:0 3:0 4:100 5:0 6:0 7:0 8:0 9:0 10:0 11:0 12:0 13:0 14:0 15:0 16:0 17:0 18:0 19:0 20:-100 21:0 22:60 23:0 24:0 25:0 26:0 27:0 28:0 29:40 30:0 31:0 32:0 33:0 34:0 35:0 36:20 37:20 38:60 39:20 40:40 41:87 42:50 43:69 
0.1700328521331256 1:0 2:0 3:0 4:0 5:0 6:0 7:0 8:0 9:0 10:0 11:0 12:0 13:0 14:0 15:100 16:0 17:0 18:0 19:0 20:-100 21:0 22:60 23:0 24:0 25:0 26:0 27:0 28:0 29:40 30:0 31:0 32:0 33:0 34:0 35:0 36:20 37:20 38:60 39:20 40:40 41:87 42:50 43:69 
4.140561112710678 1:0 2:0 3:0 4:0 5:0 6:0 7:0 8:0 9:0 10:0 11:100 12:0 13:0 14:0 15:0 16:0 17:0 18:0 19:0 20:-100 21:0 22:60 23:0 24:0 25:0 26:0 27:0 28:0 29:40 30:0 31:0 32:0 33:0 34:0 35:0 36:20 37:20 38:60 39:20 40:40 41:87 42:50 43:69 
-5.56349715985598 1:0 2:0 3:0 4:0 5:0 6:0 7:0 8:0 9:0 10:100 11:0 12:0 13:0 14:0 15:0 16:0 17:0 18:0 19:0 20:-100 21:0 22:60 23:0 24:0 25:0 26:0 27:0 28:0 29:40 30:0 31:0 32:0 33:0 34:0 35:0 36:20 37:20 38:60 39:20 40:40 41:87 42:50 43:69 
5.080465918196948 1:0 2:0 3:0 4:0 5:0 6:0 7:0 8:0 9:0 10:0 11:0 12:0 13:0 14:0 15:0 16:0 17:100 18:0 19:0 20:-100 21:0 22:60 23:0 24:0 25:0 26:0 27:0 28:0 29:40 30:0 31:0 32:0 33:0 34:0 35:0 36:20 37:20 38:60 39:20 40:40 41:87 42:50 43:69 
-2.499734709663465 1:100 2:0 3:0 4:0 5:0 6:0 7:0 8:0 9:0 10:0 11:0 12:0 13:0 14:0 15:0 16:0 17:0 18:0 19:0 20:-100 21:0 22:60 23:0 24:0 25:0 26:0 27:0 28:0 29:40 30:0 31:0 32:0 33:0 34:0 35:0 36:20 37:20 38:60 39:20 40:40 41:87 42:50 43:69 
-3.120717540857102 1:0 2:0 3:0 4:0 5:0 6:100 7:0 8:0 9:0 10:0 11:0 12:0 13:0 14:0 15:0 16:0 17:0 18:0 19:0 20:-100 21:0 22:60 23:0 24:0 25:0 26:0 27:0 28:0 29:40 30:0 31:0 32:0 33:0 34:0 35:0 36:20 37:20 38:60 39:20 40:40 41:87 42:50 43:69 
-2.343626806125042 1:0 2:0 3:0 4:0 5:0 6:0 7:0 8:0 9:0 10:0 11:0 12:100 13:0 14:0 15:0 16:0 17:0 18:0 19:0 20:-100 21:0 22:60 23:0 24:0 25:0 26:0 27:0 28:0 29:40 30:0 31:0 32:0 33:0 34:0 35:0 36:20 37:20 38:60 39:20 40:40 41:87 42:50 43:69 
0.4972170920045886 1:-100 2:0 3:0 4:0 5:0 6:0 7:0 8:0 9:100 10:0 11:0 12:0 13:0 14:0 15:0 16:0 17:0 18:0 19:0 20:0 21:0 22:100 23:20 24:0 25:0 26:60 27:20 28:20 29:20 30:20 31:80 32:40 33:80 34:20 35:40 36:40 37:0 38:40 39:40 40:0 41:0 42:32 43:64 
4.020132519511945 1:0 2:0 3:0 4:0 5:-100 6:0 7:0 8:0 9:100 10:0 11:0 12:0 13:0 14:0 15:0 16:0 17:0 18:0 19:0 20:0 21:100 22:20 23:40 24:0 25:100 26:20 27:0 28:60 29:60 30:20 31:20 32:0 33:0 34:20 35:20 36:40 37:20 38:40 39:20 40:40 41:35 42:50 43:60 
0.1585295546338563 1:-100 2:0 3:0 4:100 5:0 6:0 7:0 8:0 9:0 10:0 11:0 12:0 13:0 14:0 15:0 16:0 17:0 18:0 19:0 20:0 21:80 22:100 23:60 24:40 25:60 26:20 27:20 28:80 29:80 30:0 31:0 32:20 33:20 34:0 35:80 36:20 37:20 38:40 39:40 40:40 41:4 42:38 43:65 
2.435826166110241 1:0 2:0 3:100 4:0 5:0 6:0 7:0 8:0 9:0 10:0 11:0 12:-100 13:0 14:0 15:0 16:0 17:0 18:0 19:0 20:0 21:40 22:60 23:20 24:0 25:20 26:20 27:20 28:20 29:140 30:20 31:20 32:20 33:0 34:0 35:60 36:0 37:40 38:40 39:20 40:20 41:42 42:54 43:25 
-3.914261209344129 1:0 2:100 3:0 4:0 5:0 6:0 7:0 8:0 9:-100 10:0 11:0 12:0 13:0 14:0 15:0 16:0 17:0 18:0 19:0 20:0 21:0 22:80 23:60 24:40 25:40 26:80 27:40 28:40 29:80 30:0 31:20 32:20 33:40 34:0 35:40 36:20 37:20 38:20 39:40 40:0 41:0 42:19 43:64 
-2.87277577183264 1:0 2:0 3:0 4:0 5:0 6:0 7:0 8:0 9:0 10:0 11:0 12:0 13:0 14:0 15:0 16:0 17:0 18:100 19:0 20:-100 21:20 22:20 23:20 24:20 25:0 26:60 27:40 28:40 29:40 30:0 31:20 32:0 33:40 34:0 35:20 36:40 37:0 38:0 39:20 40:0 41:65 42:45 43:74 
4.445807124373157 1:-100 2:0 3:100 4:0 5:0 6:0 7:0 8:0 9:0 10:0 11:0 12:0 13:0 14:0 15:0 16:0 17:0 18:0 19:0 20:0 21:0 22:100 23:20 24:0 25:0 26:60 27:20 28:20 29:20 30:20 31:80 32:40 33:80 34:20 35:40 36:40 37:0 38:40 39:40 40:0 41:0 42:32 43:64 
-0.02113579246199754 1:0 2:0 3:0 4:0 5:0 6:0 7:0 8:-100 9:0 10:0 11:0 12:0 13:0 14:0 15:0 16:0 17:100 18:0 19:0 20:0 21:20 22:40 23:20 24:20 25:40 26:20 27:20 28:20 29:40 30:0 31:20 32:20 33:20 34:0 35:40 36:40 37:20 38:40 39:40 40:0 41:49 42:19 43:64 
-0.01957453631055725 1:0 2:0 3:0 4:0 5:0 6:0 7:0 8:-100 9:0 10:0 11:0 12:0 13:0 14:0 15:0 16:0 17:100 18:0 19:0 20:0 21:20 22:40 23:20 24:20 25:40 26:20 27:20 28:20 29:40 30:0 31:20 32:20 33:20 34:0 35:40 36:40 37:20 38:40 39:40 40:0 41:49 42:19 43:64 
0.7579267966041937 1:0 2:-100 3:0 4:0 5:0 6:0 7:0 8:0 9:100 10:0 11:0 12:0 13:0 14:0 15:0 16:0 17:0 18:0 19:0 20:0 21:40 22:80 23:40 24:40 25:20 26:20 27:20 28:20 29:60 30:20 31:40 32:20 33:20 34:0 35:100 36:40 37:40 38:0 39:0 40:40 41:2 42:21 43:51 
5.375817426717802 1:0 2:0 3:0 4:0 5:0 6:0 7:0 8:0 9:0 10:0 11:0 12:0 13:0 14:0 15:0 16:0 17:0 18:-100 19:100 20:0 21:80 22:80 23:60 24:0 25:0 26:0 27:0 28:0 29:20 30:0 31:20 32:0 33:0 34:0 35:0 36:60 37:0 38:20 39:20 40:20 41:56 42:44 43:25 
-3.676749774752207 1:0 2:0 3:0 4:0 5:0 6:0 7:0 8:-100 9:100 10:0 11:0 12:0 13:0 14:0 15:0 16:0 17:0 18:0 19:0 20:0 21:20 22:40 23:20 24:20 25:40 26:20 27:20 28:20 29:40 30:0 31:20 32:20 33:20 34:0 35:40 36:40 37:20 38:40 39:40 40:0 41:49 42:19 43:64 
-8 1:0 2:0 3:0 4:0 5:0 6:0 7:0 8:0 9:100 10:0 11:0 12:0 13:0 14:0 15:0 16:0 17:0 18:-100 19:0 20:0 21:40 22:80 23:0 24:0 25:0 26:20 27:0 28:40 29:20 30:0 31:20 32:0 33:0 34:20 35:0 36:80 37:20 38:20 39:0 40:0 41:70 42:28 43:25 
6.331257015228751 1:0 2:0 3:0 4:0 5:0 6:0 7:0 8:0 9:100 10:0 11:0 12:0 13:0 14:0 15:0 16:0 17:0 18:-100 19:0 20:0 21:40 22:80 23:0 24:0 25:0 26:20 27:0 28:40 29:20 30:0 31:20 32:0 33:0 34:20 35:0 36:80 37:20 38:20 39:0 40:0 41:70 42:28 43:25 
-5.458327916940722 1:0 2:0 3:0 4:0 5:0 6:0 7:0 8:0 9:0 10:0 11:0 12:0 13:0 14:100 15:0 16:0 17:0 18:0 19:-100 20:0 21:20 22:20 23:40 24:0 25:0 26:20 27:40 28:0 29:40 30:20 31:0 32:60 33:0 34:0 35:40 36:20 37:40 38:0 39:20 40:20 41:66 42:14 43:39 
6.939914748580424 1:0 2:0 3:0 4:0 5:0 6:0 7:0 8:0 9:0 10:0 11:0 12:0 13:0 14:100 15:0 16:0 17:0 18:0 19:-100 20:0 21:20 22:20 23:40 24:0 25:0 26:20 27:40 28:0 29:40 30:20 31:0 32:60 33:0 34:0 35:40 36:20 37:40 38:0 39:20 40:20 41:66 42:47 43:62 
-0.3591503786138168 1:0 2:0 3:0 4:0 5:0 6:0 7:0 8:0 9:0 10:0 11:0 12:-100 13:100 14:0 15:0 16:0 17:0 18:0 19:0 20:0 21:80 22:80 23:60 24:20 25:20 26:0 27:60 28:20 29:20 30:20 31:20 32:0 33:0 34:20 35:20 36:20 37:0 38:20 39:0 40:0 41:39 42:50 43:25 
-6.635230237370486 1:0 2:0 3:0 4:0 5:100 6:0 7:-100 8:0 9:0 10:0 11:0 12:0 13:0 14:0 15:0 16:0 17:0 18:0 19:0 20:0 21:100 22:60 23:0 24:20 25:20 26:40 27:40 28:20 29:60 30:20 31:0 32:0 33:0 34:0 35:0 36:120 37:20 38:20 39:0 40:60 41:35 42:50 43:25 
8 1:0 2:0 3:0 4:0 5:100 6:0 7:-100 8:0 9:0 10:0 11:0 12:0 13:0 14:0 15:0 16:0 17:0 18:0 19:0 20:0 21:100 22:60 23:0 24:20 25:20 26:40 27:40 28:20 29:60 30:20 31:0 32:0 33:0 34:0 35:0 36:120 37:20 38:20 39:0 40:60 41:35 42:50 43:24 
0.1640979230489513 1:0 2:0 3:0 4:0 5:0 6:0 7:0 8:0 9:0 10:0 11:0 12:0 13:0 14:0 15:0 16:0 17:0 18:-100 19:0 20:100 21:80 22:80 23:60 24:0 25:0 26:0 27:0 28:0 29:20 30:0 31:20 32:0 33:0 34:0 35:0 36:60 37:0 38:20 39:20 40:20 41:56 42:44 43:25 
-0.3127480987344382 1:0 2:0 3:0 4:0 5:0 6:0 7:0 8:0 9:100 10:0 11:0 12:0 13:0 14:0 15:-100 16:0 17:0 18:0 19:0 20:0 21:20 22:0 23:40 24:0 25:60 26:0 27:80 28:40 29:60 30:20 31:20 32:40 33:60 34:0 35:60 36:40 37:20 38:0 39:40 40:20 41:15 42:50 43:39 
6.082592870209874 1:0 2:0 3:0 4:0 5:0 6:0 7:-100 8:100 9:0 10:0 11:0 12:0 13:0 14:0 15:0 16:0 17:0 18:0 19:0 20:0 21:60 22:80 23:40 24:20 25:40 26:40 27:20 28:40 29:80 30:0 31:20 32:20 33:60 34:0 35:40 36:40 37:60 38:60 39:40 40:20 41:8 42:19 43:64 
-6.13679874698587 1:0 2:0 3:0 4:0 5:0 6:0 7:0 8:0 9:100 10:-100 11:0 12:0 13:0 14:0 15:0 16:0 17:0 18:0 19:0 20:0 21:0 22:20 23:0 24:20 25:0 26:0 27:40 28:0 29:20 30:0 31:40 32:20 33:40 34:0 35:20 36:60 37:0 38:0 39:40 40:20 41:73 42:30 43:56 
-6.777087899516099 1:-100 2:0 3:0 4:0 5:0 6:0 7:0 8:0 9:0 10:0 11:100 12:0 13:0 14:0 15:0 16:0 17:0 18:0 19:0 20:0 21:0 22:20 23:40 24:0 25:20 26:0 27:20 28:20 29:20 30:0 31:20 32:20 33:0 34:0 35:40 36:20 37:20 38:40 39:20 40:20 41:65 42:19 43:64 
8 1:100 2:0 3:0 4:0 5:0 6:0 7:0 8:0 9:0 10:0 11:0 12:-100 13:0 14:0 15:0 16:0 17:0 18:0 19:0 20:0 21:80 22:80 23:60 24:20 25:20 26:0 27:60 28:20 29:20 30:20 31:20 32:0 33:0 34:20 35:20 36:20 37:0 38:20 39:0 40:0 41:39 42:50 43:25 
-4.426344221636836 1:0 2:0 3:0 4:0 5:0 6:0 7:0 8:0 9:0 10:0 11:0 12:0 13:0 14:0 15:0 16:0 17:0 18:0 19:-100 20:100 21:20 22:60 23:20 24:20 25:0 26:0 27:0 28:40 29:40 30:20 31:20 32:20 33:0 34:0 35:80 36:40 37:40 38:0 39:0 40:80 41:49 42:53 43:25 
3.295853406854016 1:0 2:-100 3:0 4:0 5:0 6:0 7:0 8:0 9:0 10:0 11:0 12:0 13:0 14:0 15:100 16:0 17:0 18:0 19:0 20:0 21:0 22:60 23:40 24:0 25:40 26:40 27:20 28:0 29:60 30:20 31:0 32:40 33:0 34:0 35:60 36:20 37:0 38:20 39:60 40:20 41:67 42:55 43:15 
2.359997914744307 1:-100 2:0 3:0 4:0 5:0 6:0 7:0 8:0 9:0 10:0 11:0 12:0 13:0 14:0 15:100 16:0 17:0 18:0 19:0 20:0 21:0 22:20 23:40 24:0 25:20 26:0 27:20 28:20 29:20 30:0 31:20 32:20 33:0 34:0 35:40 36:20 37:20 38:40 39:20 40:20 41:65 42:19 43:64 
1.383344724585998 1:-100 2:0 3:100 4:0 5:0 6:0 7:0 8:0 9:0 10:0 11:0 12:0 13:0 14:0 15:0 16:0 17:0 18:0 19:0 20:0 21:0 22:20 23:0 24:0 25:0 26:20 27:20 28:20 29:40 30:20 31:20 32:20 33:40 34:20 35:40 36:0 37:0 38:0 39:60 40:40 41:60 42:19 43:64 
4.818957243550318 1:0 2:0 3:0 4:0 5:0 6:0 7:0 8:0 9:0 10:0 11:0 12:0 13:0 14:0 15:0 16:0 17:100 18:-100 19:0 20:0 21:80 22:80 23:60 24:0 25:0 26:0 27:0 28:0 29:20 30:0 31:20 32:0 33:0 34:0 35:0 36:60 37:0 38:20 39:20 40:20 41:56 42:44 43:25 
-3.12886711921724 1:0 2:0 3:0 4:0 5:0 6:0 7:0 8:0 9:0 10:0 11:100 12:0 13:0 14:0 15:0 16:0 17:0 18:0 19:0 20:-100 21:0 22:20 23:20 24:0 25:40 26:0 27:20 28:80 29:100 30:20 31:40 32:20 33:40 34:40 35:40 36:0 37:0 38:60 39:40 40:40 41:34 42:21 43:50 
3.722166801088866 1:100 2:0 3:0 4:0 5:0 6:0 7:0 8:0 9:0 10:0 11:0 12:0 13:-100 14:0 15:0 16:0 17:0 18:0 19:0 20:0 21:100 22:80 23:60 24:0 25:0 26:0 27:60 28:20 29:40 30:20 31:20 32:20 33:0 34:0 35:0 36:60 37:60 38:40 39:0 40:20 41:0 42:50 43:25 
-7.228186862910556 1:0 2:0 3:0 4:0 5:0 6:0 7:0 8:0 9:0 10:0 11:0 12:100 13:-100 14:0 15:0 16:0 17:0 18:0 19:0 20:0 21:100 22:80 23:60 24:0 25:0 26:0 27:60 28:20 29:40 30:20 31:20 32:20 33:0 34:0 35:0 36:60 37:60 38:40 39:0 40:20 41:0 42:50 43:25 
0.1586228190858332 1:0 2:0 3:0 4:0 5:0 6:0 7:0 8:0 9:0 10:0 11:0 12:0 13:0 14:0 15:0 16:0 17:0 18:0 19:100 20:-100 21:60 22:0 23:40 24:0 25:0 26:40 27:40 28:20 29:60 30:20 31:0 32:0 33:20 34:0 35:80 36:20 37:20 38:0 39:0 40:0 41:34 42:15 43:65 
-8 1:0 2:0 3:0 4:0 5:0 6:0 7:0 8:0 9:0 10:0 11:0 12:0 13:0 14:0 15:0 16:0 17:0 18:0 19:100 20:-100 21:60 22:0 23:40 24:0 25:0 26:40 27:40 28:20 29:60 30:20 31:0 32:0 33:20 34:0 35:80 36:20 37:20 38:0 39:0 40:0 41:34 42:28 43:65 
8 1:0 2:0 3:0 4:0 5:0 6:0 7:0 8:0 9:0 10:0 11:0 12:0 13:0 14:0 15:0 16:0 17:0 18:0 19:100 20:-100 21:60 22:0 23:40 24:0 25:0 26:40 27:40 28:20 29:60 30:20 31:0 32:0 33:20 34:0 35:80 36:20 37:20 38:0 39:0 40:0 41:34 42:32 43:65 
-4.623343725698639 1:0 2:0 3:-100 4:0 5:0 6:0 7:0 8:0 9:100 10:0 11:0 12:0 13:0 14:0 15:0 16:0 17:0 18:0 19:0 20:0 21:20 22:60 23:20 24:0 25:0 26:20 27:40 28:80 29:100 30:40 31:40 32:20 33:0 34:0 35:20 36:40 37:20 38:40 39:20 40:60 41:10 42:45 43:25 
-3.19210415951765 1:0 2:0 3:0 4:0 5:0 6:0 7:-100 8:0 9:100 10:0 11:0 12:0 13:0 14:0 15:0 16:0 17:0 18:0 19:0 20:0 21:20 22:40 23:20 24:0 25:0 26:20 27:20 28:20 29:20 30:20 31:0 32:20 33:0 34:20 35:0 36:20 37:20 38:0 39:0 40:40 41:56 42:45 43:25 
-8 1:0 2:0 3:0 4:0 5:0 6:0 7:-100 8:0 9:100 10:0 11:0 12:0 13:0 14:0 15:0 16:0 17:0 18:0 19:0 20:0 21:20 22:40 23:20 24:0 25:0 26:20 27:20 28:20 29:20 30:20 31:0 32:20 33:0 34:20 35:0 36:20 37:20 38:0 39:0 40:40 41:56 42:45 43:25 
-2.617045045960825 1:0 2:0 3:0 4:0 5:0 6:0 7:0 8:0 9:0 10:-100 11:0 12:0 13:0 14:0 15:0 16:0 17:0 18:0 19:100 20:0 21:0 22:0 23:0 24:0 25:0 26:20 27:0 28:60 29:0 30:0 31:60 32:40 33:20 34:0 35:80 36:0 37:0 38:0 39:40 40:40 41:91 42:67 43:20 
-8 1:0 2:0 3:0 4:0 5:0 6:0 7:0 8:0 9:-100 10:100 11:0 12:0 13:0 14:0 15:0 16:0 17:0 18:0 19:0 20:0 21:60 22:100 23:60 24:40 25:40 26:0 27:20 28:40 29:20 30:0 31:0 32:0 33:20 34:0 35:60 36:0 37:40 38:20 39:60 40:40 41:7 42:25 43:57 
-8 1:0 2:0 3:0 4:0 5:0 6:0 7:0 8:0 9:-100 10:100 11:0 12:0 13:0 14:0 15:0 16:0 17:0 18:0 19:0 20:0 21:60 22:100 23:60 24:40 25:40 26:0 27:20 28:40 29:20 30:0 31:0 32:0 33:20 34:0 35:60 36:0 37:40 38:20 39:60 40:40 41:7 42:28 43:62 
5.717516132462645 1:0 2:0 3:0 4:0 5:0 6:0 7:0 8:0 9:-100 10:100 11:0 12:0 13:0 14:0 15:0 16:0 17:0 18:0 19:0 20:0 21:60 22:100 23:60 24:40 25:40 26:0 27:20 28:40 29:20 30:0 31:0 32:0 33:20 34:0 35:60 36:0 37:40 38:20 39:60 40:40 41:7 42:39 43:65 
8 1:0 2:0 3:0 4:0 5:100 6:0 7:-100 8:0 9:0 10:0 11:0 12:0 13:0 14:0 15:0 16:0 17:0 18:0 19:0 20:0 21:20 22:40 23:20 24:0 25:0 26:20 27:20 28:20 29:20 30:20 31:0 32:20 33:0 34:20 35:0 36:20 37:20 38:0 39:0 40:40 41:56 42:45 43:25 
-8 1:0 2:0 3:0 4:0 5:0 6:0 7:-100 8:100 9:0 10:0 11:0 12:0 13:0 14:0 15:0 16:0 17:0 18:0 19:0 20:0 21:20 22:40 23:20 24:0 25:0 26:20 27:20 28:20 29:20 30:20 31:0 32:20 33:0 34:20 35:0 36:20 37:20 38:0 39:0 40:40 41:56 42:45 43:25 
-5.702776461384186 1:-100 2:100 3:0 4:0 5:0 6:0 7:0 8:0 9:0 10:0 11:0 12:0 13:0 14:0 15:0 16:0 17:0 18:0 19:0 20:0 21:0 22:20 23:20 24:0 25:20 26:60 27:0 28:20 29:40 30:0 31:0 32:0 33:20 34:0 35:60 36:0 37:60 38:20 39:20 40:0 41:60 42:19 43:64 
0.6163519750267433 1:0 2:0 3:0 4:0 5:0 6:0 7:-100 8:0 9:0 10:0 11:0 12:0 13:0 14:0 15:100 16:0 17:0 18:0 19:0 20:0 21:20 22:20 23:0 24:0 25:0 26:0 27:0 28:40 29:0 30:20 31:60 32:40 33:0 34:0 35:40 36:20 37:0 38:40 39:20 40:0 41:38 42:50 43:25 
7.78073403362349 1:0 2:0 3:0 4:0 5:0 6:0 7:0 8:-100 9:0 10:0 11:0 12:0 13:0 14:0 15:0 16:0 17:0 18:0 19:0 20:100 21:40 22:40 23:20 24:0 25:20 26:40 27:0 28:0 29:60 30:0 31:0 32:80 33:0 34:0 35:80 36:0 37:0 38:0 39:0 40:40 41:22 42:14 43:41 
-8 1:0 2:0 3:0 4:0 5:0 6:0 7:0 8:-100 9:0 10:0 11:0 12:0 13:0 14:0 15:0 16:0 17:0 18:0 19:0 20:100 21:40 22:40 23:20 24:0 25:20 26:40 27:0 28:0 29:60 30:0 31:0 32:80 33:0 34:0 35:80 36:0 37:0 38:0 39:0 40:40 41:22 42:46 43:64 
5.002489386360437 1:0 2:0 3:0 4:0 5:0 6:0 7:0 8:0 9:100 10:0 11:0 12:0 13:0 14:0 15:0 16:0 17:0 18:0 19:-100 20:0 21:40 22:20 23:80 24:0 25:20 26:0 27:60 28:40 29:40 30:20 31:40 32:40 33:0 34:0 35:20 36:20 37:0 38:0 39:60 40:80 41:8 42:45 43:25 
8 1:0 2:0 3:0 4:0 5:0 6:0 7:0 8:0 9:100 10:0 11:0 12:0 13:-100 14:0 15:0 16:0 17:0 18:0 19:0 20:0 21:100 22:80 23:60 24:0 25:0 26:0 27:60 28:20 29:40 30:20 31:20 32:20 33:0 34:0 35:0 36:60 37:60 38:40 39:0 40:20 41:0 42:50 43:25 
-8 1:0 2:0 3:0 4:0 5:0 6:0 7:0 8:0 9:0 10:0 11:0 12:0 13:0 14:-100 15:0 16:0 17:100 18:0 19:0 20:0 21:0 22:80 23:60 24:20 25:60 26:0 27:20 28:0 29:20 30:20 31:40 32:20 33:0 34:0 35:20 36:60 37:0 38:80 39:0 40:0 41:23 42:55 43:4 
-1.799866893197739 1:0 2:0 3:0 4:0 5:0 6:0 7:0 8:0 9:0 10:0 11:0 12:0 13:0 14:-100 15:0 16:0 17:100 18:0 19:0 20:0 21:0 22:80 23:60 24:20 25:60 26:0 27:20 28:0 29:20 30:20 31:40 32:20 33:0 34:0 35:20 36:60 37:0 38:80 39:0 40:0 41:23 42:55 43:4 
8 1:0 2:0 3:0 4:0 5:0 6:0 7:0 8:0 9:0 10:0 11:0 12:0 13:0 14:-100 15:0 16:0 17:100 18:0 19:0 20:0 21:0 22:80 23:60 24:20 25:60 26:0 27:20 28:0 29:20 30:20 31:40 32:20 33:0 34:0 35:20 36:60 37:0 38:80 39:0 40:0 41:23 42:55 43:4 
3.785561708138749 1:0 2:-100 3:0 4:0 5:0 6:0 7:0 8:100 9:0 10:0 11:0 12:0 13:0 14:0 15:0 16:0 17:0 18:0 19:0 20:0 21:100 22:120 23:20 24:20 25:40 26:0 27:60 28:60 29:60 30:20 31:0 32:80 33:0 34:20 35:60 36:60 37:20 38:60 39:60 40:80 41:7 42:50 43:20 
-8 1:0 2:0 3:0 4:100 5:0 6:0 7:0 8:0 9:0 10:0 11:0 12:0 13:-100 14:0 15:0 16:0 17:0 18:0 19:0 20:0 21:100 22:80 23:60 24:0 25:0 26:0 27:60 28:20 29:40 30:20 31:20 32:20 33:0 34:0 35:0 36:60 37:60 38:40 39:0 40:20 41:0 42:50 43:25 
8 1:0 2:-100 3:0 4:0 5:0 6:0 7:0 8:0 9:100 10:0 11:0 12:0 13:0 14:0 15:0 16:0 17:0 18:0 19:0 20:0 21:100 22:120 23:20 24:20 25:40 26:0 27:60 28:60 29:60 30:20 31:0 32:80 33:0 34:20 35:60 36:60 37:20 38:60 39:60 40:80 41:7 42:50 43:20 
0.01940719828706351 1:100 2:0 3:-100 4:0 5:0 6:0 7:0 8:0 9:0 10:0 11:0 12:0 13:0 14:0 15:0 16:0 17:0 18:0 19:0 20:0 21:20 22:60 23:20 24:0 25:0 26:20 27:40 28:80 29:100 30:40 31:40 32:20 33:0 34:0 35:20 36:40 37:20 38:40 39:20 40:60 41:10 42:45 43:25 
-3.315793067557085 1:100 2:0 3:-100 4:0 5:0 6:0 7:0 8:0 9:0 10:0 11:0 12:0 13:0 14:0 15:0 16:0 17:0 18:0 19:0 20:0 21:0 22:40 23:20 24:0 25:20 26:20 27:40 28:40 29:20 30:0 31:60 32:40 33:0 34:0 35:60 36:20 37:0 38:20 39:20 40:20 41:51 42:45 43:25 
-0.05473032333652521 1:100 2:0 3:-100 4:0 5:0 6:0 7:0 8:0 9:0 10:0 11:0 12:0 13:0 14:0 15:0 16:0 17:0 18:0 19:0 20:0 21:0 22:40 23:20 24:0 25:20 26:20 27:40 28:40 29:20 30:0 31:60 32:40 33:0 34:0 35:60 36:20 37:0 38:20 39:20 40:20 41:51 42:45 43:25 
4.447091576470737 1:0 2:0 3:-100 4:0 5:0 6:0 7:0 8:0 9:0 10:0 11:0 12:100 13:0 14:0 15:0 16:0 17:0 18:0 19:0 20:0 21:0 22:40 23:20 24:0 25:20 26:20 27:40 28:40 29:20 30:0 31:60 32:40 33:0 34:0 35:60 36:20 37:0 38:20 39:20 40:20 41:51 42:45 43:25 
-2.68427756435859 1:0 2:0 3:0 4:0 5:0 6:0 7:0 8:0 9:100 10:0 11:0 12:-100 13:0 14:0 15:0 16:0 17:0 18:0 19:0 20:0 21:40 22:120 23:20 24:20 25:20 26:0 27:20 28:80 29:60 30:20 31:20 32:20 33:80 34:20 35:60 36:0 37:0 38:20 39:20 40:20 41:41 42:60 43:37 
-0.4444971773499163 1:0 2:0 3:0 4:0 5:0 6:0 7:0 8:0 9:100 10:0 11:0 12:0 13:0 14:0 15:0 16:-100 17:0 18:0 19:0 20:0 21:0 22:0 23:40 24:20 25:60 26:0 27:40 28:0 29:40 30:0 31:20 32:40 33:20 34:0 35:60 36:0 37:20 38:20 39:40 40:20 41:80 42:50 43:39 
5.403981158041064 1:0 2:0 3:0 4:0 5:0 6:0 7:-100 8:0 9:0 10:0 11:100 12:0 13:0 14:0 15:0 16:0 17:0 18:0 19:0 20:0 21:20 22:100 23:20 24:20 25:0 26:0 27:0 28:20 29:20 30:20 31:40 32:40 33:40 34:20 35:60 36:0 37:0 38:0 39:0 40:20 41:63 42:60 43:37 
-8 1:0 2:0 3:100 4:-100 5:0 6:0 7:0 8:0 9:0 10:0 11:0 12:0 13:0 14:0 15:0 16:0 17:0 18:0 19:0 20:0 21:120 22:80 23:0 24:0 25:60 26:0 27:20 28:60 29:40 30:20 31:60 32:60 33:40 34:20 35:60 36:20 37:0 38:40 39:40 40:40 41:0 42:22 43:53 
8 1:0 2:0 3:100 4:-100 5:0 6:0 7:0 8:0 9:0 10:0 11:0 12:0 13:0 14:0 15:0 16:0 17:0 18:0 19:0 20:0 21:120 22:80 23:0 24:0 25:60 26:0 27:20 28:60 29:40 30:20 31:60 32:60 33:40 34:20 35:60 36:20 37:0 38:40 39:40 40:40 41:0 42:50 43:82 
-4.514786284598758 1:0 2:0 3:100 4:-100 5:0 6:0 7:0 8:0 9:0 10:0 11:0 12:0 13:0 14:0 15:0 16:0 17:0 18:0 19:0 20:0 21:120 22:80 23:0 24:0 25:60 26:0 27:20 28:60 29:40 30:20 31:60 32:60 33:40 34:20 35:60 36:20 37:0 38:40 39:40 40:40 41:0 42:67 43:80 
1.563890402739698 1:0 2:0 3:0 4:0 5:0 6:100 7:-100 8:0 9:0 10:0 11:0 12:0 13:0 14:0 15:0 16:0 17:0 18:0 19:0 20:0 21:20 22:100 23:20 24:20 25:0 26:0 27:0 28:20 29:20 30:20 31:40 32:40 33:40 34:20 35:60 36:0 37:0 38:0 39:0 40:20 41:63 42:60 43:37 
8 1:0 2:0 3:0 4:0 5:0 6:0 7:0 8:0 9:100 10:-100 11:0 12:0 13:0 14:0 15:0 16:0 17:0 18:0 19:0 20:0 21:100 22:40 23:40 24:0 25:20 26:0 27:0 28:20 29:20 30:0 31:0 32:20 33:0 34:0 35:20 36:20 37:0 38:20 39:20 40:40 41:61 42:44 43:25 
8 1:0 2:0 3:0 4:0 5:0 6:0 7:0 8:0 9:100 10:0 11:0 12:0 13:0 14:-100 15:0 16:0 17:0 18:0 19:0 20:0 21:120 22:0 23:40 24:0 25:40 26:0 27:20 28:20 29:120 30:20 31:0 32:20 33:80 34:20 35:0 36:60 37:40 38:40 39:60 40:20 41:38 42:8 43:25 
-5.790613553306524 1:0 2:0 3:0 4:0 5:0 6:0 7:0 8:0 9:100 10:0 11:0 12:0 13:0 14:-100 15:0 16:0 17:0 18:0 19:0 20:0 21:120 22:0 23:40 24:0 25:40 26:0 27:20 28:20 29:120 30:20 31:0 32:20 33:80 34:20 35:0 36:60 37:40 38:40 39:60 40:20 41:38 42:42 43:25 
0.2216241115708686 1:0 2:0 3:0 4:0 5:0 6:0 7:0 8:100 9:0 10:0 11:-100 12:0 13:0 14:0 15:0 16:0 17:0 18:0 19:0 20:0 21:100 22:60 23:60 24:0 25:20 26:0 27:0 28:20 29:40 30:20 31:0 32:0 33:0 34:0 35:0 36:60 37:0 38:60 39:20 40:40 41:20 42:44 43:25 
8 1:0 2:0 3:0 4:0 5:0 6:0 7:0 8:100 9:0 10:0 11:-100 12:0 13:0 14:0 15:0 16:0 17:0 18:0 19:0 20:0 21:100 22:60 23:60 24:0 25:20 26:0 27:0 28:20 29:40 30:20 31:0 32:0 33:0 34:0 35:0 36:60 37:0 38:60 39:20 40:40 41:20 42:25 43:25 
-2.756431756295671 1:0 2:0 3:0 4:0 5:0 6:0 7:-100 8:0 9:0 10:0 11:0 12:0 13:0 14:0 15:0 16:0 17:0 18:0 19:0 20:100 21:60 22:160 23:20 24:0 25:60 26:0 27:0 28:80 29:40 30:0 31:0 32:40 33:0 34:0 35:0 36:100 37:0 38:120 39:20 40:40 41:26 42:54 43:25 
8 1:0 2:0 3:-100 4:0 5:0 6:0 7:0 8:0 9:100 10:0 11:0 12:0 13:0 14:0 15:0 16:0 17:0 18:0 19:0 20:0 21:0 22:40 23:20 24:0 25:20 26:20 27:40 28:40 29:20 30:0 31:60 32:40 33:0 34:0 35:60 36:20 37:0 38:20 39:20 40:20 41:51 42:45 43:25 
-2.138152066951059 1:-100 2:0 3:0 4:0 5:0 6:0 7:0 8:0 9:0 10:0 11:0 12:100 13:0 14:0 15:0 16:0 17:0 18:0 19:0 20:0 21:40 22:20 23:60 24:20 25:20 26:80 27:20 28:80 29:60 30:20 31:0 32:0 33:40 34:0 35:80 36:20 37:20 38:0 39:0 40:20 41:0 42:19 43:64 
-7.163702945268122 1:0 2:0 3:0 4:0 5:0 6:0 7:0 8:0 9:100 10:0 11:-100 12:0 13:0 14:0 15:0 16:0 17:0 18:0 19:0 20:0 21:100 22:60 23:60 24:0 25:20 26:0 27:0 28:20 29:40 30:20 31:0 32:0 33:0 34:0 35:0 36:60 37:0 38:60 39:20 40:40 41:20 42:44 43:25 
8 1:0 2:0 3:0 4:0 5:0 6:0 7:0 8:0 9:100 10:0 11:-100 12:0 13:0 14:0 15:0 16:0 17:0 18:0 19:0 20:0 21:100 22:60 23:60 24:0 25:20 26:0 27:0 28:20 29:40 30:20 31:0 32:0 33:0 34:0 35:0 36:60 37:0 38:60 39:20 40:40 41:20 42:21 43:25 
-6.504927126809363 1:0 2:0 3:0 4:0 5:0 6:0 7:0 8:0 9:100 10:0 11:-100 12:0 13:0 14:0 15:0 16:0 17:0 18:0 19:0 20:0 21:100 22:60 23:60 24:0 25:20 26:0 27:0 28:20 29:40 30:20 31:0 32:0 33:0 34:0 35:0 36:60 37:0 38:60 39:20 40:40 41:20 42:45 43:46 
2.540698936487319 1:0 2:0 3:0 4:0 5:0 6:0 7:0 8:0 9:0 10:0 11:100 12:-100 13:0 14:0 15:0 16:0 17:0 18:0 19:0 20:0 21:20 22:140 23:80 24:0 25:20 26:0 27:60 28:100 29:20 30:0 31:20 32:40 33:0 34:20 35:20 36:80 37:0 38:60 39:0 40:40 41:4 42:38 43:65 
0.4300742305325513 1:0 2:0 3:0 4:0 5:0 6:0 7:0 8:0 9:0 10:0 11:0 12:100 13:0 14:-100 15:0 16:0 17:0 18:0 19:0 20:0 21:60 22:20 23:20 24:0 25:40 26:20 27:120 28:40 29:0 30:80 31:40 32:20 33:0 34:40 35:20 36:20 37:0 38:40 39:80 40:0 41:36 42:42 43:25 
0.2276180190889508 1:100 2:0 3:0 4:0 5:0 6:0 7:0 8:0 9:0 10:0 11:0 12:0 13:0 14:0 15:0 16:-100 17:0 18:0 19:0 20:0 21:0 22:20 23:20 24:20 25:20 26:0 27:40 28:60 29:0 30:40 31:0 32:40 33:0 34:0 35:0 36:60 37:0 38:20 39:20 40:0 41:83 42:32 43:25 
3.211132664709712 1:0 2:0 3:-100 4:0 5:0 6:0 7:0 8:0 9:100 10:0 11:0 12:0 13:0 14:0 15:0 16:0 17:0 18:0 19:0 20:0 21:100 22:140 23:80 24:20 25:40 26:20 27:0 28:60 29:40 30:0 31:40 32:20 33:0 34:100 35:40 36:40 37:20 38:40 39:0 40:40 41:0 42:78 43:76 
-4.062188719929762 1:0 2:0 3:0 4:0 5:0 6:0 7:0 8:0 9:0 10:0 11:100 12:0 13:0 14:0 15:-100 16:0 17:0 18:0 19:0 20:0 21:0 22:40 23:40 24:0 25:20 26:40 27:40 28:40 29:0 30:20 31:80 32:20 33:0 34:0 35:20 36:40 37:0 38:0 39:20 40:20 41:15 42:45 43:25 
-1.329788046948072 1:0 2:100 3:-100 4:0 5:0 6:0 7:0 8:0 9:0 10:0 11:0 12:0 13:0 14:0 15:0 16:0 17:0 18:0 19:0 20:0 21:100 22:140 23:80 24:20 25:40 26:20 27:0 28:60 29:40 30:0 31:40 32:20 33:0 34:100 35:40 36:40 37:20 38:40 39:0 40:40 41:0 42:78 43:76 
-0.6736312413223809 1:0 2:0 3:-100 4:100 5:0 6:0 7:0 8:0 9:0 10:0 11:0 12:0 13:0 14:0 15:0 16:0 17:0 18:0 19:0 20:0 21:100 22:140 23:80 24:20 25:40 26:20 27:0 28:60 29:40 30:0 31:40 32:20 33:0 34:100 35:40 36:40 37:20 38:40 39:0 40:40 41:0 42:78 43:76 
-4.812179321793301 1:0 2:0 3:0 4:0 5:0 6:0 7:0 8:0 9:0 10:0 11:0 12:0 13:0 14:100 15:0 16:0 17:0 18:0 19:-100 20:0 21:20 22:40 23:60 24:20 25:0 26:20 27:80 28:40 29:40 30:60 31:40 32:40 33:0 34:40 35:0 36:60 37:20 38:0 39:20 40:20 41:11 42:32 43:26 
-8 1:100 2:0 3:0 4:0 5:-100 6:0 7:0 8:0 9:0 10:0 11:0 12:0 13:0 14:0 15:0 16:0 17:0 18:0 19:0 20:0 21:40 22:60 23:40 24:20 25:0 26:0 27:0 28:20 29:0 30:0 31:60 32:20 33:0 34:20 35:40 36:20 37:0 38:0 39:0 40:20 41:31 42:50 43:25 
8 1:0 2:0 3:0 4:0 5:0 6:0 7:0 8:0 9:100 10:0 11:0 12:0 13:0 14:0 15:0 16:0 17:0 18:0 19:-100 20:0 21:20 22:0 23:0 24:0 25:20 26:20 27:40 28:80 29:0 30:60 31:60 32:20 33:0 34:40 35:20 36:20 37:0 38:20 39:20 40:0 41:46 42:50 43:25 
-6.007469831144385 1:0 2:0 3:0 4:0 5:0 6:0 7:0 8:0 9:100 10:0 11:0 12:0 13:0 14:0 15:0 16:0 17:0 18:0 19:-100 20:0 21:20 22:0 23:0 24:0 25:20 26:20 27:40 28:80 29:0 30:60 31:60 32:20 33:0 34:40 35:20 36:20 37:0 38:20 39:20 40:0 41:46 42:50 43:50 
-2.859813719357037 1:0 2:-100 3:0 4:0 5:0 6:0 7:0 8:0 9:100 10:0 11:0 12:0 13:0 14:0 15:0 16:0 17:0 18:0 19:0 20:0 21:0 22:40 23:20 24:0 25:0 26:0 27:40 28:20 29:80 30:20 31:20 32:20 33:0 34:20 35:0 36:100 37:40 38:20 39:0 40:20 41:32 42:68 43:82 
-4.929602130721544 1:0 2:100 3:0 4:0 5:-100 6:0 7:0 8:0 9:0 10:0 11:0 12:0 13:0 14:0 15:0 16:0 17:0 18:0 19:0 20:0 21:40 22:60 23:40 24:20 25:0 26:0 27:0 28:20 29:0 30:0 31:60 32:20 33:0 34:20 35:40 36:20 37:0 38:0 39:0 40:20 41:31 42:50 43:25 
1.110404010679491 1:100 2:0 3:-100 4:0 5:0 6:0 7:0 8:0 9:0 10:0 11:0 12:0 13:0 14:0 15:0 16:0 17:0 18:0 19:0 20:0 21:100 22:140 23:80 24:20 25:40 26:20 27:0 28:60 29:40 30:0 31:40 32:20 33:0 34:100 35:40 36:40 37:20 38:40 39:0 40:40 41:0 42:78 43:76 
2.509905632502518 1:0 2:100 3:0 4:-100 5:0 6:0 7:0 8:0 9:0 10:0 11:0 12:0 13:0 14:0 15:0 16:0 17:0 18:0 19:0 20:0 21:60 22:140 23:80 24:40 25:60 26:20 27:40 28:60 29:120 30:0 31:40 32:40 33:20 34:0 35:80 36:0 37:20 38:40 39:40 40:20 41:0 42:21 43:51 
-1.386735716291283 1:0 2:100 3:0 4:-100 5:0 6:0 7:0 8:0 9:0 10:0 11:0 12:0 13:0 14:0 15:0 16:0 17:0 18:0 19:0 20:0 21:60 22:140 23:80 24:40 25:60 26:20 27:40 28:60 29:120 30:0 31:40 32:40 33:20 34:0 35:80 36:0 37:20 38:40 39:40 40:20 41:0 42:40 43:64 
-0.1456621747948787 1:0 2:0 3:0 4:0 5:0 6:0 7:0 8:0 9:-100 10:0 11:100 12:0 13:0 14:0 15:0 16:0 17:0 18:0 19:0 20:0 21:60 22:80 23:100 24:20 25:20 26:60 27:20 28:20 29:80 30:0 31:0 32:0 33:40 34:0 35:60 36:20 37:20 38:0 39:0 40:40 41:0 42:19 43:64 
-8 1:-100 2:0 3:0 4:0 5:0 6:0 7:0 8:100 9:0 10:0 11:0 12:0 13:0 14:0 15:0 16:0 17:0 18:0 19:0 20:0 21:0 22:20 23:40 24:0 25:20 26:0 27:20 28:20 29:20 30:0 31:20 32:20 33:0 34:0 35:40 36:20 37:20 38:40 39:20 40:20 41:69 42:19 43:64 
-3.06529658803905 1:0 2:0 3:-100 4:0 5:0 6:0 7:0 8:0 9:0 10:0 11:0 12:0 13:100 14:0 15:0 16:0 17:0 18:0 19:0 20:0 21:100 22:40 23:80 24:60 25:60 26:20 27:40 28:0 29:60 30:0 31:0 32:20 33:20 34:0 35:80 36:0 37:0 38:40 39:60 40:60 41:10 42:14 43:41 
8 1:0 2:0 3:-100 4:0 5:0 6:0 7:0 8:0 9:0 10:0 11:0 12:0 13:100 14:0 15:0 16:0 17:0 18:0 19:0 20:0 21:100 22:40 23:80 24:60 25:60 26:20 27:40 28:0 29:60 30:0 31:0 32:20 33:20 34:0 35:80 36:0 37:0 38:40 39:60 40:60 41:10 42:14 43:41 
-8 1:0 2:0 3:-100 4:0 5:0 6:0 7:0 8:0 9:0 10:0 11:0 12:0 13:100 14:0 15:0 16:0 17:0 18:0 19:0 20:0 21:100 22:40 23:80 24:60 25:60 26:20 27:40 28:0 29:60 30:0 31:0 32:20 33:20 34:0 35:80 36:0 37:0 38:40 39:60 40:60 41:10 42:46 43:64 
8 1:0 2:0 3:-100 4:0 5:0 6:0 7:0 8:0 9:0 10:0 11:0 12:0 13:100 14:0 15:0 16:0 17:0 18:0 19:0 20:0 21:100 22:40 23:80 24:60 25:60 26:20 27:40 28:0 29:60 30:0 31:0 32:20 33:20 34:0 35:80 36:0 37:0 38:40 39:60 40:60 41:10 42:46 43:64 
6.277364802922233 1:0 2:0 3:0 4:100 5:0 6:0 7:0 8:0 9:0 10:0 11:0 12:0 13:0 14:0 15:-100 16:0 17:0 18:0 19:0 20:0 21:0 22:40 23:40 24:0 25:20 26:40 27:40 28:40 29:0 30:20 31:80 32:20 33:0 34:0 35:20 36:40 37:0 38:0 39:20 40:20 41:15 42:45 43:25 
-8 1:0 2:0 3:0 4:100 5:0 6:0 7:0 8:0 9:0 10:0 11:0 12:0 13:0 14:0 15:-100 16:0 17:0 18:0 19:0 20:0 21:0 22:40 23:40 24:0 25:20 26:40 27:40 28:40 29:0 30:20 31:80 32:20 33:0 34:0 35:20 36:40 37:0 38:0 39:20 40:20 41:15 42:31 43:25 
-1.443469783866785 1:-100 2:0 3:0 4:0 5:0 6:0 7:0 8:0 9:100 10:0 11:0 12:0 13:0 14:0 15:0 16:0 17:0 18:0 19:0 20:0 21:20 22:60 23:60 24:20 25:40 26:0 27:80 28:20 29:40 30:20 31:0 32:20 33:0 34:20 35:0 36:140 37:0 38:120 39:0 40:20 41:5 42:37 43:5 
8 1:0 2:0 3:0 4:0 5:0 6:0 7:0 8:0 9:100 10:0 11:0 12:0 13:0 14:0 15:0 16:0 17:0 18:0 19:0 20:-100 21:140 22:0 23:40 24:0 25:40 26:0 27:20 28:20 29:60 30:20 31:20 32:40 33:60 34:60 35:0 36:40 37:40 38:0 39:60 40:20 41:8 42:8 43:25 
-7.042267984124907 1:0 2:0 3:0 4:0 5:0 6:0 7:0 8:0 9:100 10:0 11:0 12:0 13:0 14:0 15:0 16:0 17:0 18:0 19:0 20:-100 21:140 22:0 23:40 24:0 25:40 26:0 27:20 28:20 29:60 30:20 31:20 32:40 33:60 34:60 35:0 36:40 37:40 38:0 39:60 40:20 41:8 42:42 43:25 
0.007746850900202317 1:0 2:-100 3:0 4:0 5:0 6:0 7:0 8:0 9:100 10:0 11:0 12:0 13:0 14:0 15:0 16:0 17:0 18:0 19:0 20:0 21:80 22:100 23:20 24:40 25:40 26:20 27:20 28:20 29:60 30:20 31:40 32:60 33:0 34:0 35:100 36:20 37:40 38:20 39:40 40:60 41:0 42:21 43:51 
8 1:0 2:-100 3:0 4:0 5:0 6:0 7:0 8:0 9:100 10:0 11:0 12:0 13:0 14:0 15:0 16:0 17:0 18:0 19:0 20:0 21:80 22:100 23:20 24:40 25:40 26:20 27:20 28:20 29:60 30:20 31:40 32:60 33:0 34:0 35:100 36:20 37:40 38:20 39:40 40:60 41:0 42:38 43:65 
5.792465734927196 1:0 2:-100 3:0 4:0 5:0 6:0 7:0 8:0 9:100 10:0 11:0 12:0 13:0 14:0 15:0 16:0 17:0 18:0 19:0 20:0 21:80 22:100 23:20 24:40 25:40 26:20 27:20 28:20 29:60 30:20 31:40 32:60 33:0 34:0 35:100 36:20 37:40 38:20 39:40 40:60 41:0 42:21 43:51 
1.220779408452876 1:0 2:0 3:-100 4:100 5:0 6:0 7:0 8:0 9:0 10:0 11:0 12:0 13:0 14:0 15:0 16:0 17:0 18:0 19:0 20:0 21:60 22:80 23:40 24:20 25:20 26:60 27:40 28:20 29:160 30:0 31:100 32:80 33:80 34:0 35:40 36:20 37:20 38:20 39:100 40:60 41:1 42:19 43:64 
8 1:0 2:0 3:0 4:0 5:0 6:0 7:0 8:-100 9:100 10:0 11:0 12:0 13:0 14:0 15:0 16:0 17:0 18:0 19:0 20:0 21:80 22:60 23:60 24:20 25:0 26:0 27:20 28:20 29:20 30:0 31:40 32:20 33:0 34:0 35:0 36:40 37:0 38:0 39:20 40:0 41:23 42:50 43:25 
-8 1:0 2:0 3:0 4:0 5:0 6:0 7:-100 8:0 9:100 10:0 11:0 12:0 13:0 14:0 15:0 16:0 17:0 18:0 19:0 20:0 21:40 22:60 23:40 24:40 25:40 26:0 27:40 28:0 29:100 30:0 31:40 32:40 33:0 34:40 35:0 36:140 37:20 38:140 39:0 40:60 41:1 42:37 43:5 
0.09654386245494667 1:0 2:-100 3:0 4:100 5:0 6:0 7:0 8:0 9:0 10:0 11:0 12:0 13:0 14:0 15:0 16:0 17:0 18:0 19:0 20:0 21:80 22:100 23:20 24:40 25:40 26:20 27:20 28:20 29:60 30:20 31:40 32:60 33:0 34:0 35:100 36:20 37:40 38:20 39:40 40:60 41:0 42:38 43:65 
6.915901438630627 1:0 2:0 3:0 4:0 5:100 6:0 7:-100 8:0 9:0 10:0 11:0 12:0 13:0 14:0 15:0 16:0 17:0 18:0 19:0 20:0 21:40 22:60 23:40 24:40 25:40 26:0 27:40 28:0 29:100 30:0 31:40 32:40 33:0 34:40 35:0 36:140 37:20 38:140 39:0 40:60 41:1 42:37 43:5 
-8 1:0 2:0 3:0 4:0 5:0 6:0 7:0 8:0 9:0 10:0 11:0 12:-100 13:0 14:0 15:100 16:0 17:0 18:0 19:0 20:0 21:40 22:0 23:20 24:40 25:20 26:20 27:20 28:20 29:60 30:0 31:0 32:60 33:20 34:0 35:60 36:20 37:0 38:0 39:0 40:40 41:41 42:14 43:42 
-8 1:0 2:0 3:0 4:0 5:0 6:0 7:0 8:0 9:0 10:0 11:0 12:-100 13:0 14:0 15:100 16:0 17:0 18:0 19:0 20:0 21:40 22:0 23:20 24:40 25:20 26:20 27:20 28:20 29:60 30:0 31:0 32:60 33:20 34:0 35:60 36:20 37:0 38:0 39:0 40:40 41:41 42:14 43:38 
8 1:0 2:0 3:0 4:0 5:0 6:0 7:0 8:0 9:0 10:0 11:0 12:-100 13:0 14:0 15:100 16:0 17:0 18:0 19:0 20:0 21:40 22:0 23:20 24:40 25:20 26:20 27:20 28:20 29:60 30:0 31:0 32:60 33:20 34:0 35:60 36:20 37:0 38:0 39:0 40:40 41:41 42:17 43:46 
8 1:0 2:0 3:0 4:0 5:0 6:0 7:0 8:0 9:0 10:0 11:0 12:-100 13:0 14:0 15:100 16:0 17:0 18:0 19:0 20:0 21:40 22:0 23:20 24:40 25:20 26:20 27:20 28:20 29:60 30:0 31:0 32:60 33:20 34:0 35:60 36:20 37:0 38:0 39:0 40:40 41:41 42:21 43:53 
5.150595686504339 1:0 2:0 3:0 4:0 5:0 6:0 7:0 8:0 9:0 10:0 11:100 12:-100 13:0 14:0 15:0 16:0 17:0 18:0 19:0 20:0 21:40 22:0 23:20 24:40 25:20 26:20 27:20 28:20 29:60 30:0 31:0 32:60 33:20 34:0 35:60 36:20 37:0 38:0 39:0 40:40 41:41 42:14 43:42 
-5.23072169665946 1:0 2:-100 3:0 4:0 5:0 6:0 7:0 8:0 9:100 10:0 11:0 12:0 13:0 14:0 15:0 16:0 17:0 18:0 19:0 20:0 21:60 22:100 23:0 24:40 25:40 26:20 27:20 28:40 29:80 30:20 31:40 32:40 33:0 34:0 35:40 36:60 37:40 38:40 39:60 40:0 41:5 42:21 43:51 
-0.07577823274983753 1:0 2:-100 3:0 4:0 5:0 6:0 7:0 8:0 9:100 10:0 11:0 12:0 13:0 14:0 15:0 16:0 17:0 18:0 19:0 20:0 21:60 22:100 23:0 24:40 25:40 26:20 27:20 28:40 29:80 30:20 31:40 32:40 33:0 34:0 35:40 36:60 37:40 38:40 39:60 40:0 41:5 42:21 43:51 
-0.6368683849121447 1:0 2:-100 3:0 4:0 5:0 6:0 7:0 8:0 9:100 10:0 11:0 12:0 13:0 14:0 15:0 16:0 17:0 18:0 19:0 20:0 21:200 22:60 23:80 24:0 25:20 26:20 27:0 28:40 29:40 30:40 31:20 32:20 33:0 34:0 35:60 36:60 37:20 38:60 39:20 40:40 41:0 42:45 43:25 
0.2488238995580465 1:0 2:0 3:0 4:0 5:0 6:0 7:0 8:0 9:0 10:0 11:0 12:-100 13:0 14:100 15:0 16:0 17:0 18:0 19:0 20:0 21:40 22:0 23:20 24:40 25:20 26:20 27:20 28:20 29:60 30:0 31:0 32:60 33:20 34:0 35:60 36:20 37:0 38:0 39:0 40:40 41:41 42:14 43:42 
-8 1:0 2:0 3:100 4:0 5:0 6:0 7:0 8:0 9:0 10:0 11:0 12:-100 13:0 14:0 15:0 16:0 17:0 18:0 19:0 20:0 21:40 22:0 23:20 24:40 25:20 26:20 27:20 28:20 29:60 30:0 31:0 32:60 33:20 34:0 35:60 36:20 37:0 38:0 39:0 40:40 41:41 42:14 43:42 
-8 1:0 2:0 3:100 4:0 5:0 6:0 7:0 8:0 9:0 10:0 11:0 12:-100 13:0 14:0 15:0 16:0 17:0 18:0 19:0 20:0 21:40 22:0 23:20 24:40 25:20 26:20 27:20 28:20 29:60 30:0 31:0 32:60 33:20 34:0 35:60 36:20 37:0 38:0 39:0 40:40 41:41 42:28 43:62 
4.360347739930297 1:0 2:0 3:100 4:0 5:0 6:0 7:0 8:0 9:0 10:0 11:0 12:-100 13:0 14:0 15:0 16:0 17:0 18:0 19:0 20:0 21:40 22:0 23:20 24:40 25:20 26:20 27:20 28:20 29:60 30:0 31:0 32:60 33:20 34:0 35:60 36:20 37:0 38:0 39:0 40:40 41:41 42:42 43:64 
-0.3235833107850802 1:0 2:0 3:100 4:0 5:0 6:0 7:0 8:0 9:0 10:0 11:0 12:-100 13:0 14:0 15:0 16:0 17:0 18:0 19:0 20:0 21:40 22:0 23:20 24:40 25:20 26:20 27:20 28:20 29:60 30:0 31:0 32:60 33:20 34:0 35:60 36:20 37:0 38:0 39:0 40:40 41:41 42:14 43:38 
8 1:0 2:0 3:100 4:0 5:0 6:0 7:0 8:0 9:0 10:0 11:0 12:-100 13:0 14:0 15:0 16:0 17:0 18:0 19:0 20:0 21:40 22:0 23:20 24:40 25:20 26:20 27:20 28:20 29:60 30:0 31:0 32:60 33:20 34:0 35:60 36:20 37:0 38:0 39:0 40:40 41:41 42:21 43:53 
-0.3133164194537563 1:0 2:0 3:-100 4:100 5:0 6:0 7:0 8:0 9:0 10:0 11:0 12:0 13:0 14:0 15:0 16:0 17:0 18:0 19:0 20:0 21:100 22:160 23:60 24:20 25:60 26:20 27:20 28:60 29:20 30:0 31:40 32:0 33:0 34:80 35:60 36:0 37:20 38:40 39:20 40:20 41:2 42:78 43:76 
8 1:0 2:0 3:0 4:0 5:0 6:0 7:0 8:0 9:100 10:0 11:0 12:0 13:0 14:0 15:0 16:0 17:0 18:-100 19:0 20:0 21:0 22:100 23:80 24:0 25:0 26:0 27:20 28:40 29:60 30:0 31:60 32:40 33:20 34:20 35:20 36:60 37:0 38:0 39:20 40:20 41:30 42:21 43:51 
-2.489353398595585 1:0 2:0 3:0 4:0 5:0 6:0 7:0 8:0 9:100 10:0 11:0 12:0 13:0 14:0 15:0 16:0 17:0 18:-100 19:0 20:0 21:0 22:100 23:80 24:0 25:0 26:0 27:20 28:40 29:60 30:0 31:60 32:40 33:20 34:20 35:20 36:60 37:0 38:0 39:20 40:20 41:30 42:47 43:62 
0.2479336720512563 1:0 2:0 3:0 4:0 5:0 6:0 7:0 8:0 9:0 10:0 11:0 12:-100 13:0 14:0 15:0 16:0 17:0 18:0 19:0 20:100 21:40 22:0 23:20 24:40 25:20 26:20 27:20 28:20 29:60 30:0 31:0 32:60 33:20 34:0 35:60 36:20 37:0 38:0 39:0 40:40 41:41 42:14 43:42 
4.916163738969969 1:0 2:0 3:0 4:0 5:0 6:0 7:0 8:0 9:100 10:0 11:0 12:0 13:0 14:0 15:0 16:0 17:0 18:0 19:0 20:-100 21:0 22:0 23:0 24:20 25:20 26:0 27:40 28:0 29:60 30:0 31:0 32:80 33:0 34:0 35:0 36:20 37:0 38:0 39:0 40:40 41:79 42:50 43:25 
-8 1:0 2:0 3:0 4:0 5:100 6:0 7:0 8:0 9:0 10:0 11:0 12:-100 13:0 14:0 15:0 16:0 17:0 18:0 19:0 20:0 21:40 22:0 23:20 24:40 25:20 26:20 27:20 28:20 29:60 30:0 31:0 32:60 33:20 34:0 35:60 36:20 37:0 38:0 39:0 40:40 41:41 42:14 43:42 
4.663602228595339 1:0 2:0 3:0 4:0 5:0 6:0 7:0 8:0 9:0 10:0 11:0 12:0 13:0 14:0 15:0 16:0 17:0 18:0 19:-100 20:100 21:40 22:0 23:20 24:20 25:0 26:60 27:20 28:40 29:20 30:0 31:20 32:0 33:0 34:0 35:40 36:40 37:0 38:0 39:20 40:20 41:65 42:67 43:20 
2.694308927689684 1:0 2:-100 3:0 4:100 5:0 6:0 7:0 8:0 9:0 10:0 11:0 12:0 13:0 14:0 15:0 16:0 17:0 18:0 19:0 20:0 21:60 22:100 23:0 24:40 25:40 26:20 27:20 28:40 29:80 30:20 31:40 32:40 33:0 34:0 35:40 36:60 37:40 38:40 39:60 40:0 41:5 42:38 43:65 
-8 1:0 2:0 3:0 4:0 5:0 6:0 7:0 8:0 9:100 10:0 11:0 12:-100 13:0 14:0 15:0 16:0 17:0 18:0 19:0 20:0 21:40 22:0 23:20 24:40 25:20 26:20 27:20 28:20 29:60 30:0 31:0 32:60 33:20 34:0 35:60 36:20 37:0 38:0 39:0 40:40 41:41 42:14 43:42 
8 1:0 2:0 3:0 4:0 5:0 6:0 7:0 8:0 9:100 10:0 11:0 12:-100 13:0 14:0 15:0 16:0 17:0 18:0 19:0 20:0 21:40 22:0 23:20 24:40 25:20 26:20 27:20 28:20 29:60 30:0 31:0 32:60 33:20 34:0 35:60 36:20 37:0 38:0 39:0 40:40 41:41 42:21 43:53 
-0.03532955523325248 1:0 2:0 3:100 4:0 5:0 6:0 7:0 8:0 9:0 10:0 11:0 12:-100 13:0 14:0 15:0 16:0 17:0 18:0 19:0 20:0 21:60 22:160 23:40 24:0 25:40 26:60 27:40 28:60 29:60 30:20 31:60 32:20 33:40 34:40 35:0 36:20 37:20 38:20 39:20 40:0 41:0 42:14 43:20 
8 1:0 2:100 3:0 4:-100 5:0 6:0 7:0 8:0 9:0 10:0 11:0 12:0 13:0 14:0 15:0 16:0 17:0 18:0 19:0 20:0 21:40 22:40 23:20 24:0 25:40 26:0 27:20 28:0 29:0 30:20 31:40 32:40 33:80 34:40 35:0 36:100 37:0 38:0 39:80 40:80 41:0 42:17 43:25 
-8 1:0 2:100 3:0 4:-100 5:0 6:0 7:0 8:0 9:0 10:0 11:0 12:0 13:0 14:0 15:0 16:0 17:0 18:0 19:0 20:0 21:40 22:40 23:20 24:0 25:40 26:0 27:20 28:0 29:0 30:20 31:40 32:40 33:80 34:40 35:0 36:100 37:0 38:0 39:80 40:80 41:0 42:21 43:25 
-8 1:0 2:100 3:0 4:-100 5:0 6:0 7:0 8:0 9:0 10:0 11:0 12:0 13:0 14:0 15:0 16:0 17:0 18:0 19:0 20:0 21:40 22:40 23:20 24:0 25:40 26:0 27:20 28:0 29:0 30:20 31:40 32:40 33:80 34:40 35:0 36:100 37:0 38:0 39:80 40:80 41:0 42:25 43:25 
7.567602643939978 1:0 2:100 3:0 4:-100 5:0 6:0 7:0 8:0 9:0 10:0 11:0 12:0 13:0 14:0 15:0 16:0 17:0 18:0 19:0 20:0 21:40 22:40 23:20 24:0 25:40 26:0 27:20 28:0 29:0 30:20 31:40 32:40 33:80 34:40 35:0 36:100 37:0 38:0 39:80 40:80 41:0 42:28 43:25 
-8 1:0 2:100 3:0 4:-100 5:0 6:0 7:0 8:0 9:0 10:0 11:0 12:0 13:0 14:0 15:0 16:0 17:0 18:0 19:0 20:0 21:40 22:40 23:20 24:0 25:40 26:0 27:20 28:0 29:0 30:20 31:40 32:40 33:80 34:40 35:0 36:100 37:0 38:0 39:80 40:80 41:0 42:35 43:25 
-8 1:0 2:100 3:0 4:-100 5:0 6:0 7:0 8:0 9:0 10:0 11:0 12:0 13:0 14:0 15:0 16:0 17:0 18:0 19:0 20:0 21:40 22:40 23:20 24:0 25:40 26:0 27:20 28:0 29:0 30:20 31:40 32:40 33:80 34:40 35:0 36:100 37:0 38:0 39:80 40:80 41:0 42:42 43:25 
8 1:0 2:100 3:0 4:-100 5:0 6:0 7:0 8:0 9:0 10:0 11:0 12:0 13:0 14:0 15:0 16:0 17:0 18:0 19:0 20:0 21:40 22:40 23:20 24:0 25:40 26:0 27:20 28:0 29:0 30:20 31:40 32:40 33:80 34:40 35:0 36:100 37:0 38:0 39:80 40:80 41:0 42:50 43:25 
7.601522499476874 1:0 2:100 3:0 4:-100 5:0 6:0 7:0 8:0 9:0 10:0 11:0 12:0 13:0 14:0 15:0 16:0 17:0 18:0 19:0 20:0 21:40 22:40 23:20 24:0 25:40 26:0 27:20 28:0 29:0 30:20 31:40 32:40 33:80 34:40 35:0 36:100 37:0 38:0 39:80 40:80 41:0 42:57 43:25 
2.414370008324926 1:0 2:0 3:0 4:0 5:0 6:0 7:0 8:0 9:-100 10:0 11:0 12:0 13:0 14:0 15:0 16:0 17:0 18:0 19:0 20:100 21:0 22:60 23:20 24:0 25:0 26:0 27:20 28:0 29:40 30:20 31:60 32:20 33:0 34:0 35:0 36:60 37:0 38:20 39:20 40:20 41:35 42:38 43:65 
-5.417240389676036 1:0 2:-100 3:0 4:0 5:0 6:0 7:0 8:0 9:100 10:0 11:0 12:0 13:0 14:0 15:0 16:0 17:0 18:0 19:0 20:0 21:40 22:40 23:60 24:20 25:20 26:0 27:60 28:20 29:60 30:20 31:0 32:20 33:0 34:20 35:0 36:140 37:0 38:100 39:0 40:40 41:1 42:37 43:5 
-8 1:-100 2:0 3:0 4:0 5:0 6:0 7:0 8:0 9:0 10:0 11:0 12:100 13:0 14:0 15:0 16:0 17:0 18:0 19:0 20:0 21:0 22:40 23:20 24:20 25:40 26:0 27:0 28:40 29:0 30:0 31:60 32:0 33:0 34:0 35:0 36:20 37:20 38:0 39:0 40:20 41:68 42:50 43:25 
-4.566404919699481 1:0 2:100 3:0 4:0 5:-100 6:0 7:0 8:0 9:0 10:0 11:0 12:0 13:0 14:0 15:0 16:0 17:0 18:0 19:0 20:0 21:40 22:40 23:100 24:0 25:0 26:0 27:80 28:20 29:40 30:0 31:20 32:100 33:0 34:0 35:40 36:40 37:0 38:0 39:60 40:100 41:14 42:43 43:25 
-8 1:0 2:0 3:0 4:0 5:0 6:0 7:0 8:0 9:0 10:0 11:0 12:0 13:0 14:0 15:0 16:0 17:0 18:0 19:-100 20:100 21:40 22:40 23:20 24:0 25:20 26:20 27:20 28:60 29:80 30:20 31:40 32:20 33:0 34:0 35:20 36:40 37:20 38:0 39:0 40:20 41:18 42:45 43:25 
-1.68811534957831 1:0 2:0 3:0 4:0 5:0 6:0 7:0 8:0 9:0 10:0 11:0 12:0 13:0 14:0 15:0 16:0 17:100 18:-100 19:0 20:0 21:60 22:20 23:40 24:0 25:0 26:20 27:0 28:20 29:20 30:40 31:20 32:20 33:0 34:0 35:0 36:40 37:20 38:60 39:0 40:20 41:50 42:44 43:25 
4.389584260640339 1:0 2:0 3:0 4:0 5:0 6:0 7:0 8:0 9:0 10:0 11:0 12:0 13:0 14:0 15:0 16:100 17:0 18:-100 19:0 20:0 21:0 22:20 23:0 24:20 25:0 26:20 27:60 28:20 29:0 30:0 31:0 32:80 33:0 34:0 35:20 36:40 37:40 38:0 39:20 40:20 41:47 42:38 43:65 
-5.44383440333134 1:100 2:0 3:0 4:0 5:0 6:0 7:0 8:0 9:-100 10:0 11:0 12:0 13:0 14:0 15:0 16:0 17:0 18:0 19:0 20:0 21:0 22:60 23:20 24:0 25:0 26:0 27:20 28:0 29:40 30:20 31:60 32:20 33:0 34:0 35:0 36:60 37:0 38:20 39:20 40:20 41:35 42:38 43:66 
8 1:100 2:0 3:0 4:0 5:0 6:0 7:0 8:0 9:-100 10:0 11:0 12:0 13:0 14:0 15:0 16:0 17:0 18:0 19:0 20:0 21:0 22:60 23:20 24:0 25:0 26:0 27:20 28:0 29:40 30:20 31:60 32:20 33:0 34:0 35:0 36:60 37:0 38:20 39:20 40:20 41:35 42:14 43:41 
3.12028772762241 1:100 2:0 3:0 4:0 5:0 6:0 7:0 8:0 9:-100 10:0 11:0 12:0 13:0 14:0 15:0 16:0 17:0 18:0 19:0 20:0 21:0 22:60 23:20 24:0 25:0 26:0 27:20 28:0 29:40 30:20 31:60 32:20 33:0 34:0 35:0 36:60 37:0 38:20 39:20 40:20 41:35 42:20 43:51 
-8 1:0 2:0 3:0 4:0 5:0 6:0 7:0 8:0 9:0 10:0 11:0 12:0 13:0 14:0 15:0 16:-100 17:0 18:100 19:0 20:0 21:40 22:80 23:20 24:0 25:20 26:0 27:0 28:20 29:40 30:0 31:80 32:40 33:0 34:0 35:0 36:40 37:20 38:20 39:0 40:0 41:44 42:50 43:30 
6.881411882505902 1:0 2:0 3:0 4:0 5:0 6:0 7:0 8:0 9:0 10:0 11:0 12:0 13:0 14:0 15:0 16:-100 17:0 18:100 19:0 20:0 21:40 22:80 23:20 24:0 25:20 26:0 27:0 28:20 29:40 30:0 31:80 32:40 33:0 34:0 35:0 36:40 37:20 38:20 39:0 40:0 41:44 42:50 43:63 
8 1:0 2:0 3:0 4:0 5:0 6:0 7:0 8:0 9:0 10:0 11:0 12:0 13:0 14:0 15:0 16:-100 17:0 18:100 19:0 20:0 21:40 22:80 23:20 24:0 25:20 26:0 27:0 28:20 29:40 30:0 31:80 32:40 33:0 34:0 35:0 36:40 37:20 38:20 39:0 40:0 41:44 42:50 43:25 
-0.2276310557426588 1:0 2:0 3:0 4:0 5:0 6:0 7:0 8:0 9:-100 10:0 11:100 12:0 13:0 14:0 15:0 16:0 17:0 18:0 19:0 20:0 21:0 22:60 23:20 24:0 25:0 26:0 27:20 28:0 29:40 30:20 31:60 32:20 33:0 34:0 35:0 36:60 37:0 38:20 39:20 40:20 41:35 42:21 43:51 
-3.315822476819317 1:0 2:0 3:0 4:0 5:0 6:0 7:0 8:0 9:100 10:0 11:0 12:0 13:0 14:0 15:0 16:0 17:0 18:0 19:-100 20:0 21:20 22:0 23:40 24:0 25:80 26:0 27:80 28:60 29:40 30:40 31:20 32:40 33:100 34:0 35:60 36:40 37:20 38:20 39:20 40:20 41:14 42:50 43:39 
8 1:0 2:0 3:0 4:0 5:0 6:0 7:0 8:100 9:0 10:0 11:0 12:0 13:0 14:0 15:0 16:-100 17:0 18:0 19:0 20:0 21:40 22:80 23:20 24:0 25:20 26:0 27:0 28:20 29:40 30:0 31:80 32:40 33:0 34:0 35:0 36:40 37:20 38:20 39:0 40:0 41:44 42:50 43:25 
-1.738522314043264 1:-100 2:0 3:0 4:0 5:0 6:0 7:0 8:0 9:0 10:0 11:100 12:0 13:0 14:0 15:0 16:0 17:0 18:0 19:0 20:0 21:0 22:100 23:20 24:0 25:0 26:60 27:20 28:20 29:20 30:20 31:80 32:40 33:80 34:20 35:40 36:40 37:0 38:40 39:40 40:0 41:0 42:32 43:64 
-1.928331758369128 1:-100 2:0 3:0 4:0 5:0 6:0 7:0 8:0 9:0 10:0 11:0 12:0 13:100 14:0 15:0 16:0 17:0 18:0 19:0 20:0 21:0 22:40 23:20 24:20 25:40 26:0 27:0 28:40 29:0 30:0 31:60 32:0 33:0 34:0 35:0 36:20 37:20 38:0 39:0 40:20 41:68 42:50 43:25 
-8 1:-100 2:0 3:0 4:0 5:0 6:0 7:0 8:0 9:0 10:0 11:0 12:0 13:100 14:0 15:0 16:0 17:0 18:0 19:0 20:0 21:0 22:40 23:20 24:20 25:40 26:0 27:0 28:40 29:0 30:0 31:60 32:0 33:0 34:0 35:0 36:20 37:20 38:0 39:0 40:20 41:68 42:50 43:25 
0.6526387682297178 1:0 2:100 3:0 4:-100 5:0 6:0 7:0 8:0 9:0 10:0 11:0 12:0 13:0 14:0 15:0 16:0 17:0 18:0 19:0 20:0 21:40 22:80 23:0 24:0 25:40 26:20 27:0 28:0 29:40 30:0 31:40 32:20 33:0 34:0 35:60 36:40 37:40 38:20 39:40 40:20 41:16 42:21 43:47 
-3.014014992873061 1:100 2:0 3:-100 4:0 5:0 6:0 7:0 8:0 9:0 10:0 11:0 12:0 13:0 14:0 15:0 16:0 17:0 18:0 19:0 20:0 21:60 22:60 23:20 24:40 25:0 26:60 27:20 28:80 29:60 30:20 31:20 32:0 33:20 34:0 35:60 36:20 37:20 38:0 39:20 40:40 41:8 42:19 43:64 
8 1:100 2:0 3:-100 4:0 5:0 6:0 7:0 8:0 9:0 10:0 11:0 12:0 13:0 14:0 15:0 16:0 17:0 18:0 19:0 20:0 21:60 22:60 23:20 24:40 25:0 26:60 27:20 28:80 29:60 30:20 31:20 32:0 33:20 34:0 35:60 36:20 37:20 38:0 39:20 40:40 41:6 42:19 43:49 
2.763833605645235 1:0 2:0 3:0 4:0 5:0 6:0 7:0 8:0 9:0 10:0 11:-100 12:0 13:0 14:100 15:0 16:0 17:0 18:0 19:0 20:0 21:0 22:60 23:40 24:0 25:0 26:0 27:0 28:40 29:60 30:0 31:20 32:20 33:20 34:0 35:20 36:40 37:0 38:20 39:60 40:20 41:57 42:21 43:51 
-8 1:0 2:0 3:0 4:0 5:0 6:0 7:-100 8:100 9:0 10:0 11:0 12:0 13:0 14:0 15:0 16:0 17:0 18:0 19:0 20:0 21:20 22:20 23:0 24:40 25:20 26:0 27:40 28:20 29:20 30:40 31:100 32:120 33:80 34:0 35:40 36:100 37:20 38:20 39:100 40:20 41:2 42:35 43:63 
3.592642238011346 1:0 2:0 3:0 4:0 5:100 6:0 7:-100 8:0 9:0 10:0 11:0 12:0 13:0 14:0 15:0 16:0 17:0 18:0 19:0 20:0 21:20 22:20 23:0 24:40 25:20 26:0 27:40 28:20 29:20 30:40 31:100 32:120 33:80 34:0 35:40 36:100 37:20 38:20 39:100 40:20 41:2 42:35 43:63 
1.029391762576974 1:0 2:0 3:0 4:0 5:0 6:0 7:0 8:0 9:0 10:0 11:0 12:0 13:0 14:0 15:-100 16:0 17:100 18:0 19:0 20:0 21:20 22:80 23:20 24:0 25:0 26:0 27:0 28:40 29:0 30:40 31:0 32:0 33:0 34:0 35:40 36:20 37:60 38:0 39:0 40:20 41:51 42:35 43:25 
0.6406081060633146 1:0 2:0 3:0 4:0 5:0 6:0 7:0 8:0 9:0 10:0 11:0 12:0 13:0 14:0 15:0 16:-100 17:0 18:0 19:0 20:100 21:60 22:40 23:0 24:20 25:40 26:0 27:0 28:60 29:40 30:0 31:0 32:20 33:40 34:20 35:0 36:100 37:0 38:40 39:20 40:0 41:39 42:53 43:25 
-8 1:0 2:0 3:0 4:0 5:0 6:0 7:0 8:0 9:0 10:0 11:-100 12:0 13:0 14:0 15:0 16:0 17:0 18:0 19:0 20:100 21:0 22:40 23:20 24:0 25:0 26:0 27:40 28:20 29:40 30:20 31:40 32:20 33:0 34:0 35:0 36:60 37:0 38:20 39:20 40:0 41:44 42:14 43:40 
3.552611720499427 1:0 2:0 3:0 4:0 5:0 6:0 7:0 8:0 9:0 10:0 11:-100 12:0 13:0 14:0 15:0 16:0 17:0 18:0 19:0 20:100 21:0 22:40 23:20 24:0 25:0 26:0 27:40 28:20 29:40 30:20 31:40 32:20 33:0 34:0 35:0 36:60 37:0 38:20 39:20 40:0 41:44 42:49 43:66 
-5.270191505945492 1:0 2:0 3:0 4:0 5:0 6:0 7:0 8:0 9:0 10:0 11:-100 12:0 13:0 14:0 15:0 16:0 17:0 18:0 19:0 20:100 21:0 22:40 23:20 24:0 25:0 26:0 27:40 28:20 29:40 30:20 31:40 32:20 33:0 34:0 35:0 36:60 37:0 38:20 39:20 40:0 41:44 42:21 43:53 
8 1:0 2:0 3:0 4:0 5:0 6:0 7:0 8:0 9:0 10:0 11:-100 12:0 13:0 14:0 15:0 16:0 17:0 18:0 19:0 20:100 21:0 22:40 23:20 24:0 25:0 26:0 27:40 28:20 29:40 30:20 31:40 32:20 33:0 34:0 35:0 36:60 37:0 38:20 39:20 40:0 41:44 42:38 43:66 
1.009958883254019 1:100 2:-100 3:0 4:0 5:0 6:0 7:0 8:0 9:0 10:0 11:0 12:0 13:0 14:0 15:0 16:0 17:0 18:0 19:0 20:0 21:60 22:100 23:60 24:40 25:60 26:0 27:40 28:60 29:60 30:0 31:0 32:40 33:20 34:0 35:20 36:160 37:20 38:100 39:0 40:40 41:2 42:14 43:83 
8 1:0 2:100 3:0 4:0 5:0 6:0 7:0 8:0 9:0 10:0 11:0 12:0 13:0 14:0 15:0 16:0 17:0 18:-100 19:0 20:0 21:60 22:40 23:0 24:20 25:20 26:0 27:0 28:40 29:40 30:0 31:20 32:20 33:0 34:0 35:0 36:40 37:40 38:40 39:20 40:0 41:26 42:50 43:70 
-8 1:0 2:100 3:0 4:0 5:0 6:0 7:0 8:0 9:0 10:0 11:0 12:0 13:0 14:0 15:0 16:0 17:0 18:-100 19:0 20:0 21:60 22:40 23:0 24:20 25:20 26:0 27:0 28:40 29:40 30:0 31:20 32:20 33:0 34:0 35:0 36:40 37:40 38:40 39:20 40:0 41:26 42:50 43:70 
8 1:0 2:100 3:0 4:0 5:0 6:0 7:0 8:0 9:0 10:0 11:0 12:0 13:0 14:0 15:0 16:0 17:0 18:-100 19:0 20:0 21:60 22:40 23:0 24:20 25:20 26:0 27:0 28:40 29:40 30:0 31:20 32:20 33:0 34:0 35:0 36:40 37:40 38:40 39:20 40:0 41:26 42:50 43:70 
-8 1:0 2:100 3:0 4:0 5:0 6:0 7:0 8:0 9:0 10:0 11:0 12:0 13:0 14:0 15:0 16:0 17:0 18:-100 19:0 20:0 21:60 22:40 23:0 24:20 25:20 26:0 27:0 28:40 29:40 30:0 31:20 32:20 33:0 34:0 35:0 36:40 37:40 38:40 39:20 40:0 41:26 42:50 43:70 
-4.658480724539215 1:0 2:0 3:-100 4:0 5:0 6:0 7:0 8:0 9:0 10:0 11:0 12:100 13:0 14:0 15:0 16:0 17:0 18:0 19:0 20:0 21:20 22:100 23:80 24:0 25:20 26:0 27:20 28:80 29:40 30:0 31:0 32:40 33:20 34:20 35:40 36:80 37:0 38:60 39:40 40:40 41:2 42:38 43:59 
5.827168184851779 1:0 2:-100 3:0 4:0 5:0 6:0 7:0 8:0 9:100 10:0 11:0 12:0 13:0 14:0 15:0 16:0 17:0 18:0 19:0 20:0 21:0 22:0 23:0 24:20 25:40 26:0 27:40 28:40 29:60 30:0 31:0 32:20 33:80 34:0 35:20 36:20 37:20 38:0 39:40 40:0 41:60 42:50 43:39 
1.278229900379571 1:0 2:0 3:0 4:0 5:0 6:0 7:0 8:0 9:0 10:0 11:-100 12:0 13:0 14:0 15:0 16:0 17:0 18:0 19:100 20:0 21:0 22:40 23:20 24:0 25:0 26:0 27:40 28:20 29:40 30:20 31:40 32:20 33:0 34:0 35:0 36:60 37:0 38:20 39:20 40:0 41:44 42:47 43:62 
4.045340462585889 1:0 2:0 3:0 4:0 5:0 6:0 7:0 8:0 9:100 10:-100 11:0 12:0 13:0 14:0 15:0 16:0 17:0 18:0 19:0 20:0 21:0 22:20 23:0 24:0 25:60 26:0 27:60 28:20 29:40 30:20 31:0 32:20 33:20 34:0 35:20 36:20 37:0 38:20 39:60 40:20 41:76 42:50 43:39 
-3.127235404572167 1:0 2:0 3:0 4:0 5:0 6:0 7:0 8:0 9:-100 10:0 11:0 12:0 13:0 14:0 15:0 16:0 17:0 18:0 19:0 20:100 21:40 22:40 23:20 24:0 25:0 26:20 27:0 28:20 29:40 30:0 31:20 32:20 33:0 34:0 35:0 36:20 37:20 38:20 39:0 40:0 41:83 42:45 43:25 
-4.474871484612009 1:100 2:0 3:0 4:0 5:0 6:0 7:0 8:0 9:0 10:0 11:0 12:0 13:-100 14:0 15:0 16:0 17:0 18:0 19:0 20:0 21:20 22:80 23:80 24:0 25:0 26:0 27:0 28:40 29:40 30:0 31:20 32:20 33:0 34:0 35:20 36:60 37:0 38:40 39:40 40:20 41:2 42:46 43:70 
4.306941696748058 1:0 2:100 3:0 4:0 5:0 6:0 7:0 8:0 9:0 10:0 11:0 12:0 13:0 14:0 15:0 16:0 17:0 18:0 19:-100 20:0 21:20 22:40 23:60 24:20 25:0 26:20 27:80 28:40 29:40 30:60 31:40 32:40 33:0 34:40 35:0 36:60 37:20 38:0 39:20 40:20 41:11 42:32 43:26 
-3.764308725627211 1:0 2:0 3:-100 4:0 5:0 6:0 7:0 8:100 9:0 10:0 11:0 12:0 13:0 14:0 15:0 16:0 17:0 18:0 19:0 20:0 21:60 22:80 23:40 24:20 25:20 26:60 27:40 28:20 29:160 30:0 31:100 32:80 33:80 34:0 35:40 36:20 37:20 38:20 39:100 40:60 41:1 42:19 43:64 
-0.1446119721320827 1:0 2:0 3:-100 4:0 5:0 6:0 7:0 8:100 9:0 10:0 11:0 12:0 13:0 14:0 15:0 16:0 17:0 18:0 19:0 20:0 21:60 22:80 23:40 24:20 25:20 26:60 27:40 28:20 29:160 30:0 31:100 32:80 33:80 34:0 35:40 36:20 37:20 38:20 39:100 40:60 41:1 42:19 43:64 
1.811212764899019 1:0 2:0 3:0 4:0 5:100 6:0 7:-100 8:0 9:0 10:0 11:0 12:0 13:0 14:0 15:0 16:0 17:0 18:0 19:0 20:0 21:40 22:40 23:20 24:0 25:0 26:20 27:20 28:120 29:40 30:60 31:120 32:40 33:0 34:20 35:20 36:0 37:20 38:20 39:20 40:60 41:3 42:50 43:25 
-2.002063808806584 1:0 2:0 3:0 4:0 5:100 6:0 7:-100 8:0 9:0 10:0 11:0 12:0 13:0 14:0 15:0 16:0 17:0 18:0 19:0 20:0 21:40 22:40 23:20 24:0 25:0 26:20 27:20 28:120 29:40 30:60 31:120 32:40 33:0 34:20 35:20 36:0 37:20 38:20 39:20 40:60 41:3 42:50 43:50 
-1.382062987998662 1:0 2:0 3:-100 4:0 5:0 6:0 7:0 8:0 9:100 10:0 11:0 12:0 13:0 14:0 15:0 16:0 17:0 18:0 19:0 20:0 21:60 22:80 23:40 24:20 25:20 26:60 27:40 28:20 29:160 30:0 31:100 32:80 33:80 34:0 35:40 36:20 37:20 38:20 39:100 40:60 41:1 42:19 43:64 
-0.1639031426914185 1:0 2:0 3:-100 4:0 5:0 6:0 7:0 8:0 9:100 10:0 11:0 12:0 13:0 14:0 15:0 16:0 17:0 18:0 19:0 20:0 21:60 22:80 23:40 24:20 25:20 26:60 27:40 28:20 29:160 30:0 31:100 32:80 33:80 34:0 35:40 36:20 37:20 38:20 39:100 40:60 41:1 42:19 43:64 
8 1:0 2:0 3:-100 4:0 5:0 6:0 7:0 8:0 9:100 10:0 11:0 12:0 13:0 14:0 15:0 16:0 17:0 18:0 19:0 20:0 21:60 22:80 23:40 24:20 25:20 26:60 27:40 28:20 29:160 30:0 31:100 32:80 33:80 34:0 35:40 36:20 37:20 38:20 39:100 40:60 41:1 42:19 43:49 
-8 1:-100 2:0 3:0 4:0 5:0 6:0 7:0 8:0 9:0 10:0 11:0 12:0 13:0 14:0 15:0 16:0 17:0 18:100 19:0 20:0 21:20 22:80 23:0 24:0 25:40 26:0 27:0 28:40 29:40 30:20 31:0 32:20 33:0 34:40 35:20 36:0 37:20 38:60 39:20 40:20 41:50 42:50 43:66 
8 1:0 2:0 3:0 4:0 5:0 6:0 7:-100 8:0 9:0 10:0 11:0 12:0 13:0 14:0 15:0 16:0 17:0 18:0 19:0 20:100 21:20 22:20 23:20 24:0 25:0 26:0 27:0 28:20 29:60 30:0 31:20 32:40 33:0 34:0 35:0 36:40 37:40 38:0 39:20 40:20 41:76 42:50 43:45 
0.6702404918984947 1:0 2:100 3:-100 4:0 5:0 6:0 7:0 8:0 9:0 10:0 11:0 12:0 13:0 14:0 15:0 16:0 17:0 18:0 19:0 20:0 21:60 22:80 23:40 24:20 25:20 26:60 27:40 28:20 29:160 30:0 31:100 32:80 33:80 34:0 35:40 36:20 37:20 38:20 39:100 40:60 41:1 42:19 43:64 
-1.470364167245392 1:0 2:0 3:0 4:0 5:0 6:0 7:0 8:100 9:-100 10:0 11:0 12:0 13:0 14:0 15:0 16:0 17:0 18:0 19:0 20:0 21:40 22:100 23:120 24:0 25:60 26:0 27:40 28:20 29:40 30:40 31:20 32:0 33:0 34:0 35:0 36:60 37:0 38:60 39:60 40:20 41:48 42:54 43:25 
-3.019504337443732 1:0 2:100 3:0 4:0 5:-100 6:0 7:0 8:0 9:0 10:0 11:0 12:0 13:0 14:0 15:0 16:0 17:0 18:0 19:0 20:0 21:20 22:120 23:0 24:0 25:40 26:0 27:20 28:40 29:20 30:20 31:40 32:60 33:0 34:40 35:40 36:40 37:0 38:80 39:0 40:40 41:9 42:50 43:66 
1.361107492925358 1:0 2:0 3:-100 4:0 5:0 6:0 7:0 8:0 9:100 10:0 11:0 12:0 13:0 14:0 15:0 16:0 17:0 18:0 19:0 20:0 21:20 22:60 23:60 24:0 25:40 26:20 27:40 28:20 29:20 30:0 31:0 32:80 33:0 34:0 35:40 36:40 37:20 38:0 39:0 40:40 41:24 42:45 43:25 
3.101697039692324 1:0 2:0 3:-100 4:0 5:0 6:0 7:0 8:0 9:0 10:0 11:0 12:100 13:0 14:0 15:0 16:0 17:0 18:0 19:0 20:0 21:60 22:80 23:40 24:20 25:20 26:60 27:40 28:20 29:160 30:0 31:100 32:80 33:80 34:0 35:40 36:20 37:20 38:20 39:100 40:60 41:1 42:19 43:64 
-3.15358741344722 1:0 2:0 3:100 4:0 5:0 6:0 7:0 8:0 9:-100 10:0 11:0 12:0 13:0 14:0 15:0 16:0 17:0 18:0 19:0 20:0 21:40 22:40 23:20 24:0 25:0 26:20 27:0 28:20 29:40 30:0 31:20 32:20 33:0 34:0 35:0 36:20 37:20 38:20 39:0 40:0 41:83 42:45 43:25 
-3.379087435097575 1:100 2:0 3:-100 4:0 5:0 6:0 7:0 8:0 9:0 10:0 11:0 12:0 13:0 14:0 15:0 16:0 17:0 18:0 19:0 20:0 21:60 22:80 23:40 24:20 25:20 26:60 27:40 28:20 29:160 30:0 31:100 32:80 33:80 34:0 35:40 36:20 37:20 38:20 39:100 40:60 41:1 42:19 43:64 
8 1:100 2:0 3:-100 4:0 5:0 6:0 7:0 8:0 9:0 10:0 11:0 12:0 13:0 14:0 15:0 16:0 17:0 18:0 19:0 20:0 21:60 22:80 23:40 24:20 25:20 26:60 27:40 28:20 29:160 30:0 31:100 32:80 33:80 34:0 35:40 36:20 37:20 38:20 39:100 40:60 41:1 42:19 43:49 
-7.608212571043228 1:100 2:0 3:-100 4:0 5:0 6:0 7:0 8:0 9:0 10:0 11:0 12:0 13:0 14:0 15:0 16:0 17:0 18:0 19:0 20:0 21:60 22:80 23:40 24:20 25:20 26:60 27:40 28:20 29:160 30:0 31:100 32:80 33:80 34:0 35:40 36:20 37:20 38:20 39:100 40:60 41:1 42:19 43:64 
-2.484407783586585 1:0 2:0 3:0 4:0 5:100 6:0 7:-100 8:0 9:0 10:0 11:0 12:0 13:0 14:0 15:0 16:0 17:0 18:0 19:0 20:0 21:20 22:20 23:20 24:0 25:0 26:0 27:0 28:20 29:60 30:0 31:20 32:40 33:0 34:0 35:0 36:40 37:40 38:0 39:20 40:20 41:76 42:50 43:45 
-8 1:0 2:0 3:0 4:0 5:0 6:0 7:0 8:0 9:100 10:0 11:0 12:0 13:0 14:0 15:0 16:0 17:0 18:0 19:0 20:-100 21:0 22:40 23:80 24:0 25:20 26:40 27:60 28:40 29:40 30:0 31:60 32:40 33:0 34:0 35:60 36:20 37:20 38:40 39:20 40:20 41:19 42:45 43:25 
8 1:0 2:0 3:0 4:0 5:0 6:0 7:0 8:0 9:0 10:0 11:0 12:0 13:0 14:0 15:0 16:0 17:0 18:0 19:100 20:-100 21:0 22:40 23:80 24:0 25:20 26:40 27:60 28:40 29:40 30:0 31:60 32:40 33:0 34:0 35:60 36:20 37:20 38:40 39:20 40:20 41:19 42:45 43:25 
-8 1:0 2:0 3:0 4:0 5:0 6:0 7:0 8:0 9:0 10:0 11:0 12:0 13:0 14:0 15:0 16:0 17:0 18:0 19:100 20:-100 21:0 22:40 23:80 24:0 25:20 26:40 27:60 28:40 29:40 30:0 31:60 32:40 33:0 34:0 35:60 36:20 37:20 38:40 39:20 40:20 41:19 42:45 43:25 
8 1:0 2:0 3:0 4:0 5:0 6:0 7:0 8:0 9:0 10:0 11:0 12:0 13:0 14:0 15:0 16:0 17:0 18:0 19:100 20:-100 21:0 22:40 23:80 24:0 25:20 26:40 27:60 28:40 29:40 30:0 31:60 32:40 33:0 34:0 35:60 36:20 37:20 38:40 39:20 40:20 41:19 42:31 43:25 
-4.316687463442405 1:0 2:0 3:0 4:0 5:0 6:0 7:0 8:0 9:0 10:0 11:0 12:0 13:0 14:0 15:0 16:0 17:0 18:0 19:100 20:-100 21:0 22:40 23:80 24:0 25:20 26:40 27:60 28:40 29:40 30:0 31:60 32:40 33:0 34:0 35:60 36:20 37:20 38:40 39:20 40:20 41:19 42:31 43:25 
-2.300357353111877 1:100 2:0 3:-100 4:0 5:0 6:0 7:0 8:0 9:0 10:0 11:0 12:0 13:0 14:0 15:0 16:0 17:0 18:0 19:0 20:0 21:20 22:60 23:60 24:0 25:40 26:20 27:40 28:20 29:20 30:0 31:0 32:80 33:0 34:0 35:40 36:40 37:20 38:0 39:0 40:40 41:24 42:45 43:25 
3.197147305435107 1:0 2:0 3:0 4:100 5:0 6:0 7:0 8:0 9:0 10:0 11:0 12:0 13:0 14:0 15:0 16:0 17:0 18:0 19:-100 20:0 21:20 22:60 23:20 24:40 25:20 26:40 27:20 28:20 29:60 30:0 31:40 32:20 33:0 34:0 35:60 36:20 37:0 38:20 39:40 40:20 41:28 42:38 43:66 
2.529189143845672 1:0 2:0 3:0 4:0 5:-100 6:0 7:100 8:0 9:0 10:0 11:0 12:0 13:0 14:0 15:0 16:0 17:0 18:0 19:0 20:0 21:20 22:120 23:0 24:0 25:40 26:0 27:20 28:40 29:20 30:20 31:40 32:60 33:0 34:40 35:40 36:40 37:0 38:80 39:0 40:40 41:9 42:50 43:66 
-1.039153820235073 1:0 2:0 3:0 4:0 5:0 6:0 7:0 8:100 9:-100 10:0 11:0 12:0 13:0 14:0 15:0 16:0 17:0 18:0 19:0 20:0 21:100 22:80 23:20 24:0 25:20 26:20 27:0 28:40 29:20 30:60 31:20 32:0 33:0 34:0 35:40 36:40 37:0 38:20 39:20 40:40 41:40 42:45 43:25 
4.657845061631364 1:-100 2:0 3:0 4:0 5:0 6:0 7:0 8:0 9:100 10:0 11:0 12:0 13:0 14:0 15:0 16:0 17:0 18:0 19:0 20:0 21:20 22:0 23:80 24:40 25:0 26:0 27:0 28:20 29:60 30:40 31:0 32:0 33:20 34:0 35:0 36:40 37:0 38:20 39:0 40:40 41:33 42:51 43:20 
1.168739803781668 1:0 2:0 3:-100 4:0 5:0 6:0 7:0 8:0 9:0 10:0 11:0 12:0 13:0 14:0 15:0 16:0 17:0 18:0 19:100 20:0 21:40 22:60 23:0 24:0 25:40 26:20 27:40 28:40 29:20 30:0 31:0 32:140 33:0 34:0 35:0 36:60 37:0 38:60 39:20 40:20 41:24 42:37 43:25 
2.039855289894439 1:0 2:0 3:-100 4:0 5:0 6:0 7:0 8:0 9:0 10:0 11:0 12:0 13:0 14:0 15:0 16:0 17:0 18:0 19:100 20:0 21:40 22:60 23:0 24:0 25:40 26:20 27:40 28:40 29:20 30:0 31:0 32:140 33:0 34:0 35:0 36:60 37:0 38:60 39:20 40:20 41:24 42:37 43:63 
-2.118705232547791 1:0 2:0 3:0 4:0 5:0 6:0 7:0 8:0 9:0 10:0 11:0 12:0 13:0 14:0 15:100 16:0 17:-100 18:0 19:0 20:0 21:80 22:20 23:0 24:60 25:20 26:0 27:80 28:20 29:20 30:20 31:60 32:20 33:40 34:0 35:40 36:20 37:80 38:40 39:20 40:0 41:22 42:50 43:25 
-1.819729072930383 1:-100 2:0 3:100 4:0 5:0 6:0 7:0 8:0 9:0 10:0 11:0 12:0 13:0 14:0 15:0 16:0 17:0 18:0 19:0 20:0 21:20 22:0 23:80 24:40 25:0 26:0 27:0 28:20 29:60 30:40 31:0 32:0 33:20 34:0 35:0 36:40 37:0 38:20 39:0 40:40 41:33 42:51 43:20 
5.732299677122239 1:0 2:0 3:0 4:-100 5:0 6:0 7:0 8:0 9:0 10:0 11:0 12:0 13:100 14:0 15:0 16:0 17:0 18:0 19:0 20:0 21:20 22:60 23:20 24:0 25:40 26:0 27:0 28:40 29:0 30:0 31:60 32:0 33:0 34:20 35:40 36:20 37:20 38:0 39:0 40:20 41:44 42:50 43:25 
8 1:0 2:100 3:0 4:0 5:0 6:0 7:0 8:0 9:0 10:0 11:0 12:0 13:0 14:-100 15:0 16:0 17:0 18:0 19:0 20:0 21:40 22:20 23:20 24:40 25:140 26:0 27:40 28:20 29:20 30:60 31:40 32:20 33:40 34:20 35:0 36:0 37:60 38:60 39:0 40:20 41:31 42:50 43:30 
-6.23892608247862 1:0 2:100 3:0 4:0 5:0 6:0 7:0 8:0 9:0 10:0 11:0 12:0 13:0 14:-100 15:0 16:0 17:0 18:0 19:0 20:0 21:40 22:20 23:20 24:40 25:140 26:0 27:40 28:20 29:20 30:60 31:40 32:20 33:40 34:20 35:0 36:0 37:60 38:60 39:0 40:20 41:31 42:50 43:30 
5.857991168800162 1:-100 2:0 3:0 4:0 5:0 6:0 7:100 8:0 9:0 10:0 11:0 12:0 13:0 14:0 15:0 16:0 17:0 18:0 19:0 20:0 21:0 22:20 23:40 24:0 25:20 26:0 27:20 28:20 29:20 30:0 31:20 32:20 33:0 34:0 35:40 36:20 37:20 38:40 39:20 40:20 41:65 42:19 43:64 
8 1:0 2:0 3:0 4:0 5:0 6:0 7:0 8:0 9:0 10:0 11:100 12:0 13:0 14:-100 15:0 16:0 17:0 18:0 19:0 20:0 21:40 22:20 23:20 24:40 25:140 26:0 27:40 28:20 29:20 30:60 31:40 32:20 33:40 34:20 35:0 36:0 37:60 38:60 39:0 40:20 41:31 42:50 43:30 
-5.866748001767069 1:0 2:0 3:0 4:0 5:0 6:0 7:0 8:0 9:0 10:0 11:100 12:0 13:0 14:-100 15:0 16:0 17:0 18:0 19:0 20:0 21:40 22:20 23:20 24:40 25:140 26:0 27:40 28:20 29:20 30:60 31:40 32:20 33:40 34:20 35:0 36:0 37:60 38:60 39:0 40:20 41:31 42:50 43:30 
-5.001962374188285 1:0 2:0 3:0 4:0 5:-100 6:0 7:0 8:100 9:0 10:0 11:0 12:0 13:0 14:0 15:0 16:0 17:0 18:0 19:0 20:0 21:80 22:60 23:0 24:40 25:0 26:0 27:20 28:60 29:120 30:20 31:20 32:40 33:0 34:0 35:20 36:60 37:20 38:60 39:60 40:40 41:27 42:50 43:20 
-2.50838181889987 1:0 2:0 3:0 4:0 5:-100 6:0 7:0 8:0 9:100 10:0 11:0 12:0 13:0 14:0 15:0 16:0 17:0 18:0 19:0 20:0 21:80 22:60 23:0 24:40 25:0 26:0 27:20 28:60 29:120 30:20 31:20 32:40 33:0 34:0 35:20 36:60 37:20 38:60 39:60 40:40 41:27 42:50 43:20 
1.560450752777033 1:0 2:0 3:0 4:0 5:0 6:0 7:0 8:0 9:0 10:0 11:0 12:100 13:0 14:0 15:0 16:0 17:0 18:-100 19:0 20:0 21:40 22:20 23:0 24:0 25:0 26:0 27:20 28:20 29:0 30:20 31:0 32:0 33:0 34:0 35:0 36:0 37:0 38:0 39:20 40:20 41:93 42:50 43:25 
-1.167579111561954 1:0 2:100 3:0 4:0 5:0 6:0 7:0 8:0 9:-100 10:0 11:0 12:0 13:0 14:0 15:0 16:0 17:0 18:0 19:0 20:0 21:60 22:40 23:0 24:0 25:20 26:20 27:20 28:20 29:40 30:40 31:60 32:20 33:0 34:20 35:0 36:0 37:40 38:20 39:20 40:40 41:55 42:17 43:0 
7.682664730641692 1:0 2:0 3:0 4:0 5:0 6:0 7:100 8:0 9:0 10:0 11:0 12:0 13:0 14:-100 15:0 16:0 17:0 18:0 19:0 20:0 21:40 22:20 23:20 24:40 25:140 26:0 27:40 28:20 29:20 30:60 31:40 32:20 33:40 34:20 35:0 36:0 37:60 38:60 39:0 40:20 41:31 42:50 43:30 
8 1:0 2:0 3:0 4:0 5:0 6:0 7:100 8:0 9:0 10:0 11:0 12:0 13:0 14:-100 15:0 16:0 17:0 18:0 19:0 20:0 21:40 22:20 23:20 24:40 25:140 26:0 27:40 28:20 29:20 30:60 31:40 32:20 33:40 34:20 35:0 36:0 37:60 38:60 39:0 40:20 41:31 42:50 43:30 
-8 1:0 2:0 3:0 4:0 5:0 6:0 7:100 8:0 9:0 10:0 11:0 12:0 13:0 14:-100 15:0 16:0 17:0 18:0 19:0 20:0 21:40 22:20 23:20 24:40 25:140 26:0 27:40 28:20 29:20 30:60 31:40 32:20 33:40 34:20 35:0 36:0 37:60 38:60 39:0 40:20 41:31 42:50 43:30 
1.879354144373146 1:0 2:-100 3:0 4:0 5:0 6:0 7:0 8:0 9:100 10:0 11:0 12:0 13:0 14:0 15:0 16:0 17:0 18:0 19:0 20:0 21:80 22:100 23:40 24:40 25:60 26:0 27:20 28:80 29:80 30:20 31:20 32:40 33:0 34:0 35:80 36:40 37:20 38:20 39:20 40:20 41:0 42:21 43:51 
-0.8891376160544238 1:0 2:0 3:0 4:0 5:0 6:0 7:0 8:0 9:0 10:0 11:0 12:100 13:-100 14:0 15:0 16:0 17:0 18:0 19:0 20:0 21:20 22:80 23:80 24:0 25:0 26:0 27:0 28:40 29:40 30:0 31:20 32:20 33:0 34:0 35:20 36:60 37:0 38:40 39:40 40:20 41:2 42:46 43:70 
8 1:0 2:0 3:0 4:0 5:0 6:0 7:0 8:0 9:0 10:0 11:0 12:100 13:-100 14:0 15:0 16:0 17:0 18:0 19:0 20:0 21:20 22:80 23:80 24:0 25:0 26:0 27:0 28:40 29:40 30:0 31:20 32:20 33:0 34:0 35:20 36:60 37:0 38:40 39:40 40:20 41:2 42:42 43:65 
-8 1:0 2:100 3:0 4:0 5:0 6:0 7:0 8:0 9:0 10:0 11:0 12:0 13:0 14:-100 15:0 16:0 17:0 18:0 19:0 20:0 21:60 22:40 23:0 24:20 25:0 26:0 27:40 28:20 29:40 30:0 31:20 32:20 33:0 34:20 35:40 36:40 37:40 38:80 39:40 40:0 41:50 42:37 43:40 
0.3904486021909812 1:0 2:100 3:0 4:0 5:0 6:0 7:0 8:0 9:0 10:0 11:0 12:0 13:0 14:-100 15:0 16:0 17:0 18:0 19:0 20:0 21:60 22:40 23:0 24:20 25:0 26:0 27:40 28:20 29:40 30:0 31:20 32:20 33:0 34:20 35:40 36:40 37:40 38:80 39:40 40:0 41:50 42:50 43:51 
8 1:0 2:100 3:0 4:0 5:0 6:0 7:0 8:0 9:0 10:0 11:0 12:0 13:0 14:-100 15:0 16:0 17:0 18:0 19:0 20:0 21:60 22:40 23:0 24:20 25:0 26:0 27:40 28:20 29:40 30:0 31:20 32:20 33:0 34:20 35:40 36:40 37:40 38:80 39:40 40:0 41:50 42:35 43:47 
-1.828763772672599 1:0 2:0 3:0 4:0 5:0 6:0 7:0 8:100 9:0 10:0 11:0 12:0 13:0 14:-100 15:0 16:0 17:0 18:0 19:0 20:0 21:40 22:0 23:0 24:40 25:20 26:20 27:20 28:80 29:20 30:20 31:20 32:0 33:0 34:0 35:20 36:40 37:0 38:0 39:20 40:40 41:57 42:32 43:66 
-3.755952852651083 1:0 2:0 3:0 4:0 5:0 6:0 7:0 8:0 9:100 10:0 11:0 12:0 13:0 14:0 15:0 16:-100 17:0 18:0 19:0 20:0 21:20 22:0 23:20 24:0 25:0 26:0 27:20 28:60 29:20 30:20 31:0 32:20 33:40 34:0 35:20 36:0 37:0 38:0 39:0 40:0 41:90 42:50 43:39 
-2.609574507854392 1:-100 2:0 3:100 4:0 5:0 6:0 7:0 8:0 9:0 10:0 11:0 12:0 13:0 14:0 15:0 16:0 17:0 18:0 19:0 20:0 21:20 22:180 23:140 24:20 25:60 26:20 27:20 28:40 29:60 30:40 31:0 32:20 33:0 34:20 35:40 36:40 37:20 38:40 39:0 40:40 41:0 42:53 43:25 
8 1:0 2:0 3:0 4:0 5:0 6:0 7:0 8:0 9:0 10:0 11:0 12:0 13:0 14:0 15:0 16:0 17:100 18:-100 19:0 20:0 21:40 22:80 23:40 24:20 25:20 26:0 27:40 28:40 29:20 30:0 31:0 32:20 33:40 34:0 35:60 36:40 37:0 38:20 39:0 40:20 41:30 42:15 43:65 
-8 1:0 2:0 3:0 4:0 5:0 6:0 7:0 8:0 9:0 10:0 11:0 12:0 13:0 14:0 15:0 16:0 17:100 18:-100 19:0 20:0 21:40 22:80 23:40 24:20 25:20 26:0 27:40 28:40 29:20 30:0 31:0 32:20 33:40 34:0 35:60 36:40 37:0 38:20 39:0 40:20 41:30 42:28 43:65 
6.926900382451803 1:0 2:0 3:0 4:0 5:0 6:0 7:0 8:0 9:0 10:0 11:0 12:0 13:0 14:0 15:0 16:0 17:100 18:-100 19:0 20:0 21:40 22:80 23:40 24:20 25:20 26:0 27:40 28:40 29:20 30:0 31:0 32:20 33:40 34:0 35:60 36:40 37:0 38:20 39:0 40:20 41:30 42:16 43:65 
-8 1:0 2:0 3:0 4:0 5:0 6:0 7:0 8:0 9:0 10:0 11:0 12:0 13:0 14:0 15:0 16:0 17:100 18:-100 19:0 20:0 21:40 22:80 23:40 24:20 25:20 26:0 27:40 28:40 29:20 30:0 31:0 32:20 33:40 34:0 35:60 36:40 37:0 38:20 39:0 40:20 41:30 42:32 43:65 
0.4086454726668585 1:0 2:0 3:0 4:0 5:0 6:0 7:0 8:0 9:0 10:0 11:0 12:0 13:0 14:0 15:0 16:0 17:0 18:0 19:100 20:-100 21:20 22:60 23:100 24:0 25:40 26:20 27:80 28:60 29:20 30:20 31:40 32:80 33:0 34:0 35:60 36:40 37:0 38:20 39:80 40:40 41:0 42:45 43:25 
-8 1:0 2:0 3:0 4:0 5:0 6:0 7:0 8:0 9:0 10:0 11:0 12:0 13:0 14:0 15:0 16:0 17:0 18:0 19:100 20:-100 21:20 22:60 23:100 24:0 25:40 26:20 27:80 28:60 29:20 30:20 31:40 32:80 33:0 34:0 35:60 36:40 37:0 38:20 39:80 40:40 41:0 42:45 43:25 
0.6355995074253273 1:0 2:100 3:-100 4:0 5:0 6:0 7:0 8:0 9:0 10:0 11:0 12:0 13:0 14:0 15:0 16:0 17:0 18:0 19:0 20:0 21:20 22:80 23:60 24:20 25:100 26:40 27:40 28:20 29:100 30:0 31:40 32:20 33:40 34:0 35:0 36:80 37:40 38:60 39:60 40:120 41:0 42:32 43:66 
-4.437586272663681 1:0 2:0 3:0 4:0 5:100 6:-100 7:0 8:0 9:0 10:0 11:0 12:0 13:0 14:0 15:0 16:0 17:0 18:0 19:0 20:0 21:20 22:100 23:80 24:20 25:60 26:0 27:100 28:80 29:100 30:20 31:20 32:80 33:20 34:0 35:0 36:80 37:60 38:20 39:20 40:60 41:0 42:50 43:42 
8 1:0 2:0 3:0 4:0 5:100 6:-100 7:0 8:0 9:0 10:0 11:0 12:0 13:0 14:0 15:0 16:0 17:0 18:0 19:0 20:0 21:20 22:100 23:80 24:20 25:60 26:0 27:100 28:80 29:100 30:20 31:20 32:80 33:20 34:0 35:0 36:80 37:60 38:20 39:20 40:60 41:0 42:50 43:52 
-8 1:0 2:0 3:0 4:0 5:100 6:-100 7:0 8:0 9:0 10:0 11:0 12:0 13:0 14:0 15:0 16:0 17:0 18:0 19:0 20:0 21:20 22:100 23:80 24:20 25:60 26:0 27:100 28:80 29:100 30:20 31:20 32:80 33:20 34:0 35:0 36:80 37:60 38:20 39:20 40:60 41:0 42:50 43:43 
0.01280924040300644 1:0 2:0 3:0 4:0 5:0 6:0 7:0 8:-100 9:0 10:0 11:0 12:0 13:0 14:0 15:0 16:0 17:100 18:0 19:0 20:0 21:40 22:0 23:40 24:0 25:20 26:0 27:0 28:20 29:0 30:0 31:20 32:0 33:0 34:0 35:20 36:20 37:20 38:40 39:0 40:20 41:58 42:50 43:70 
0.9145057082954248 1:0 2:0 3:0 4:0 5:0 6:0 7:0 8:-100 9:0 10:0 11:0 12:0 13:0 14:0 15:0 16:0 17:100 18:0 19:0 20:0 21:40 22:0 23:40 24:0 25:20 26:0 27:0 28:20 29:0 30:0 31:20 32:0 33:0 34:0 35:20 36:20 37:20 38:40 39:0 40:20 41:58 42:50 43:70 
-2.445048809193215 1:0 2:0 3:0 4:0 5:0 6:0 7:0 8:0 9:0 10:0 11:0 12:0 13:0 14:100 15:0 16:0 17:0 18:0 19:0 20:-100 21:0 22:80 23:20 24:0 25:20 26:0 27:20 28:20 29:20 30:20 31:60 32:20 33:0 34:20 35:40 36:0 37:40 38:40 39:20 40:20 41:28 42:50 43:25 
0.2993818121250106 1:100 2:0 3:0 4:0 5:0 6:0 7:0 8:0 9:0 10:0 11:-100 12:0 13:0 14:0 15:0 16:0 17:0 18:0 19:0 20:0 21:60 22:100 23:20 24:40 25:40 26:40 27:0 28:20 29:80 30:0 31:20 32:20 33:0 34:0 35:40 36:40 37:40 38:20 39:40 40:0 41:0 42:38 43:66 
8 1:0 2:0 3:0 4:0 5:0 6:0 7:0 8:-100 9:100 10:0 11:0 12:0 13:0 14:0 15:0 16:0 17:0 18:0 19:0 20:0 21:20 22:80 23:60 24:40 25:40 26:0 27:40 28:80 29:180 30:0 31:60 32:60 33:20 34:0 35:40 36:20 37:0 38:80 39:20 40:40 41:0 42:21 43:50 
-6.273183455482475 1:0 2:0 3:0 4:0 5:0 6:0 7:0 8:-100 9:100 10:0 11:0 12:0 13:0 14:0 15:0 16:0 17:0 18:0 19:0 20:0 21:20 22:80 23:60 24:40 25:40 26:0 27:40 28:80 29:180 30:0 31:60 32:60 33:20 34:0 35:40 36:20 37:0 38:80 39:20 40:40 41:0 42:39 43:52 
-5.941176253160654 1:0 2:0 3:0 4:0 5:0 6:0 7:0 8:-100 9:100 10:0 11:0 12:0 13:0 14:0 15:0 16:0 17:0 18:0 19:0 20:0 21:20 22:80 23:60 24:40 25:40 26:0 27:40 28:80 29:180 30:0 31:60 32:60 33:20 34:0 35:40 36:20 37:0 38:80 39:20 40:40 41:0 42:39 43:52 
8 1:0 2:0 3:0 4:0 5:0 6:0 7:0 8:-100 9:100 10:0 11:0 12:0 13:0 14:0 15:0 16:0 17:0 18:0 19:0 20:0 21:20 22:80 23:60 24:40 25:40 26:0 27:40 28:80 29:180 30:0 31:60 32:60 33:20 34:0 35:40 36:20 37:0 38:80 39:20 40:40 41:0 42:21 43:50 
-3.068280258631842 1:0 2:0 3:0 4:0 5:0 6:0 7:0 8:-100 9:100 10:0 11:0 12:0 13:0 14:0 15:0 16:0 17:0 18:0 19:0 20:0 21:0 22:40 23:0 24:20 25:20 26:0 27:20 28:40 29:40 30:0 31:0 32:0 33:80 34:0 35:20 36:20 37:20 38:0 39:20 40:0 41:53 42:50 43:39 
8 1:0 2:0 3:0 4:0 5:0 6:0 7:0 8:0 9:0 10:0 11:0 12:-100 13:0 14:0 15:0 16:0 17:0 18:0 19:0 20:100 21:20 22:80 23:80 24:0 25:20 26:0 27:0 28:40 29:20 30:0 31:0 32:0 33:20 34:0 35:40 36:60 37:0 38:40 39:0 40:20 41:51 42:14 43:41 
-8 1:0 2:0 3:0 4:0 5:0 6:0 7:0 8:0 9:0 10:0 11:0 12:-100 13:0 14:0 15:0 16:0 17:0 18:0 19:0 20:100 21:20 22:80 23:80 24:0 25:20 26:0 27:0 28:40 29:20 30:0 31:0 32:0 33:20 34:0 35:40 36:60 37:0 38:40 39:0 40:20 41:51 42:46 43:63 
-1.179691715024575 1:0 2:0 3:0 4:0 5:100 6:0 7:-100 8:0 9:0 10:0 11:0 12:0 13:0 14:0 15:0 16:0 17:0 18:0 19:0 20:0 21:60 22:20 23:40 24:0 25:0 26:0 27:20 28:60 29:40 30:40 31:140 32:80 33:80 34:0 35:20 36:0 37:0 38:0 39:20 40:80 41:2 42:50 43:25 
8 1:0 2:100 3:0 4:0 5:0 6:0 7:0 8:0 9:0 10:-100 11:0 12:0 13:0 14:0 15:0 16:0 17:0 18:0 19:0 20:0 21:0 22:0 23:0 24:60 25:20 26:0 27:0 28:0 29:0 30:0 31:20 32:0 33:0 34:0 35:0 36:20 37:20 38:0 39:40 40:0 41:32 42:53 43:25 
2.871819219869769 1:0 2:100 3:0 4:0 5:0 6:0 7:0 8:0 9:0 10:-100 11:0 12:0 13:0 14:0 15:0 16:0 17:0 18:0 19:0 20:0 21:0 22:0 23:0 24:60 25:20 26:0 27:0 28:0 29:0 30:0 31:20 32:0 33:0 34:0 35:0 36:20 37:20 38:0 39:40 40:0 41:32 42:53 43:20 
0.6019798057894435 1:0 2:100 3:0 4:0 5:0 6:0 7:0 8:0 9:0 10:-100 11:0 12:0 13:0 14:0 15:0 16:0 17:0 18:0 19:0 20:0 21:0 22:0 23:0 24:60 25:20 26:0 27:0 28:0 29:0 30:0 31:20 32:0 33:0 34:0 35:0 36:20 37:20 38:0 39:40 40:0 41:32 42:53 43:53 
0.1801887420267707 1:100 2:0 3:-100 4:0 5:0 6:0 7:0 8:0 9:0 10:0 11:0 12:0 13:0 14:0 15:0 16:0 17:0 18:0 19:0 20:0 21:80 22:80 23:40 24:20 25:20 26:0 27:0 28:20 29:0 30:0 31:60 32:20 33:0 34:20 35:40 36:40 37:0 38:0 39:0 40:20 41:49 42:50 43:25 
-0.9267859494372523 1:0 2:0 3:0 4:0 5:0 6:0 7:0 8:-100 9:0 10:0 11:100 12:0 13:0 14:0 15:0 16:0 17:0 18:0 19:0 20:0 21:0 22:20 23:40 24:20 25:20 26:0 27:60 28:40 29:40 30:40 31:20 32:40 33:40 34:20 35:20 36:60 37:0 38:20 39:20 40:0 41:15 42:53 43:30 
-8 1:0 2:0 3:0 4:0 5:0 6:0 7:0 8:0 9:100 10:0 11:0 12:-100 13:0 14:0 15:0 16:0 17:0 18:0 19:0 20:0 21:20 22:80 23:80 24:0 25:20 26:0 27:0 28:40 29:20 30:0 31:0 32:0 33:20 34:0 35:40 36:60 37:0 38:40 39:0 40:20 41:51 42:14 43:41 
3.766962126187664 1:0 2:0 3:0 4:0 5:0 6:0 7:0 8:0 9:100 10:0 11:0 12:-100 13:0 14:0 15:0 16:0 17:0 18:0 19:0 20:0 21:20 22:80 23:80 24:0 25:20 26:0 27:0 28:40 29:20 30:0 31:0 32:0 33:20 34:0 35:40 36:60 37:0 38:40 39:0 40:20 41:51 42:46 43:63 
-7.813062254000364 1:0 2:0 3:0 4:-100 5:0 6:0 7:0 8:0 9:0 10:0 11:0 12:0 13:0 14:0 15:0 16:0 17:0 18:0 19:0 20:100 21:40 22:0 23:0 24:20 25:0 26:0 27:20 28:0 29:0 30:20 31:20 32:0 33:40 34:0 35:20 36:0 37:0 38:20 39:20 40:20 41:105 42:22 43:53 
8 1:0 2:0 3:0 4:-100 5:0 6:0 7:0 8:0 9:0 10:0 11:0 12:0 13:0 14:0 15:0 16:0 17:0 18:0 19:0 20:100 21:40 22:0 23:0 24:20 25:0 26:0 27:20 28:0 29:0 30:20 31:20 32:0 33:40 34:0 35:20 36:0 37:0 38:20 39:20 40:20 41:105 42:50 43:53 
4.739587270454309 1:0 2:0 3:0 4:-100 5:0 6:0 7:0 8:0 9:0 10:0 11:0 12:0 13:0 14:0 15:0 16:0 17:0 18:0 19:0 20:100 21:40 22:0 23:0 24:20 25:0 26:0 27:20 28:0 29:0 30:20 31:20 32:0 33:40 34:0 35:20 36:0 37:0 38:20 39:20 40:20 41:105 42:67 43:53 
-3.650419079820571 1:0 2:0 3:0 4:0 5:0 6:0 7:100 8:0 9:0 10:0 11:0 12:0 13:0 14:-100 15:0 16:0 17:0 18:0 19:0 20:0 21:20 22:0 23:0 24:0 25:0 26:0 27:0 28:40 29:0 30:40 31:0 32:40 33:0 34:0 35:0 36:80 37:0 38:40 39:0 40:40 41:21 42:38 43:40 
8 1:0 2:0 3:0 4:-100 5:0 6:0 7:0 8:0 9:0 10:0 11:0 12:0 13:0 14:0 15:0 16:100 17:0 18:0 19:0 20:0 21:40 22:0 23:0 24:20 25:0 26:0 27:20 28:0 29:0 30:20 31:20 32:0 33:40 34:0 35:20 36:0 37:0 38:20 39:20 40:20 41:105 42:22 43:53 
-5.910910050755096 1:0 2:0 3:0 4:-100 5:0 6:0 7:0 8:0 9:0 10:0 11:0 12:0 13:0 14:0 15:0 16:100 17:0 18:0 19:0 20:0 21:40 22:0 23:0 24:20 25:0 26:0 27:20 28:0 29:0 30:20 31:20 32:0 33:40 34:0 35:20 36:0 37:0 38:20 39:20 40:20 41:105 42:67 43:53 
-0.781186909580375 1:0 2:0 3:0 4:0 5:0 6:0 7:0 8:0 9:0 10:0 11:0 12:0 13:100 14:0 15:-100 16:0 17:0 18:0 19:0 20:0 21:60 22:80 23:60 24:20 25:20 26:0 27:40 28:0 29:0 30:20 31:40 32:40 33:0 34:20 35:20 36:40 37:20 38:20 39:0 40:40 41:22 42:50 43:25 
-0.7068382320247483 1:0 2:0 3:0 4:0 5:100 6:-100 7:0 8:0 9:0 10:0 11:0 12:0 13:0 14:0 15:0 16:0 17:0 18:0 19:0 20:0 21:0 22:80 23:40 24:20 25:20 26:20 27:0 28:0 29:60 30:20 31:20 32:0 33:0 34:40 35:40 36:60 37:20 38:100 39:0 40:60 41:32 42:53 43:25 
-6.950713233901747 1:0 2:0 3:0 4:0 5:0 6:100 7:-100 8:0 9:0 10:0 11:0 12:0 13:0 14:0 15:0 16:0 17:0 18:0 19:0 20:0 21:20 22:20 23:20 24:0 25:0 26:0 27:0 28:20 29:60 30:0 31:20 32:40 33:0 34:0 35:0 36:40 37:40 38:0 39:20 40:20 41:76 42:50 43:45 
-0.8876696008233848 1:0 2:100 3:0 4:-100 5:0 6:0 7:0 8:0 9:0 10:0 11:0 12:0 13:0 14:0 15:0 16:0 17:0 18:0 19:0 20:0 21:40 22:0 23:0 24:20 25:0 26:0 27:20 28:0 29:0 30:20 31:20 32:0 33:40 34:0 35:20 36:0 37:0 38:20 39:20 40:20 41:105 42:22 43:53 
8 1:0 2:100 3:0 4:-100 5:0 6:0 7:0 8:0 9:0 10:0 11:0 12:0 13:0 14:0 15:0 16:0 17:0 18:0 19:0 20:0 21:40 22:0 23:0 24:20 25:0 26:0 27:20 28:0 29:0 30:20 31:20 32:0 33:40 34:0 35:20 36:0 37:0 38:20 39:20 40:20 41:105 42:50 43:53 
-8 1:0 2:100 3:0 4:-100 5:0 6:0 7:0 8:0 9:0 10:0 11:0 12:0 13:0 14:0 15:0 16:0 17:0 18:0 19:0 20:0 21:40 22:0 23:0 24:20 25:0 26:0 27:20 28:0 29:0 30:20 31:20 32:0 33:40 34:0 35:20 36:0 37:0 38:20 39:20 40:20 41:105 42:67 43:53 
1.495882486187467 1:0 2:0 3:0 4:0 5:0 6:0 7:0 8:0 9:100 10:0 11:0 12:0 13:0 14:0 15:0 16:0 17:0 18:-100 19:0 20:0 21:40 22:80 23:40 24:40 25:20 26:40 27:60 28:80 29:100 30:0 31:60 32:80 33:20 34:0 35:40 36:0 37:40 38:0 39:60 40:60 41:10 42:21 43:50 
2.482843966864063 1:0 2:0 3:0 4:0 5:0 6:0 7:0 8:0 9:-100 10:0 11:100 12:0 13:0 14:0 15:0 16:0 17:0 18:0 19:0 20:0 21:60 22:60 23:40 24:0 25:60 26:0 27:0 28:40 29:20 30:0 31:0 32:0 33:0 34:20 35:40 36:0 37:20 38:20 39:40 40:40 41:46 42:21 43:51 
-8 1:100 2:0 3:0 4:0 5:0 6:0 7:0 8:0 9:0 10:0 11:0 12:-100 13:0 14:0 15:0 16:0 17:0 18:0 19:0 20:0 21:20 22:80 23:80 24:0 25:20 26:0 27:0 28:40 29:20 30:0 31:0 32:0 33:20 34:0 35:40 36:60 37:0 38:40 39:0 40:20 41:51 42:14 43:41 
4.335857889183055 1:100 2:0 3:0 4:0 5:0 6:0 7:0 8:0 9:0 10:0 11:0 12:-100 13:0 14:0 15:0 16:0 17:0 18:0 19:0 20:0 21:20 22:80 23:80 24:0 25:20 26:0 27:0 28:40 29:20 30:0 31:0 32:0 33:20 34:0 35:40 36:60 37:0 38:40 39:0 40:20 41:51 42:46 43:63 
-1.798781458370547 1:0 2:0 3:0 4:0 5:0 6:0 7:0 8:0 9:0 10:0 11:0 12:0 13:0 14:0 15:0 16:0 17:0 18:-100 19:100 20:0 21:20 22:60 23:40 24:0 25:20 26:0 27:40 28:0 29:40 30:20 31:40 32:60 33:20 34:0 35:40 36:20 37:80 38:0 39:20 40:20 41:16 42:50 43:25 
1.071105733124941 1:100 2:0 3:0 4:-100 5:0 6:0 7:0 8:0 9:0 10:0 11:0 12:0 13:0 14:0 15:0 16:0 17:0 18:0 19:0 20:0 21:40 22:0 23:0 24:20 25:0 26:0 27:20 28:0 29:0 30:20 31:20 32:0 33:40 34:0 35:20 36:0 37:0 38:20 39:20 40:20 41:105 42:50 43:53 
-5.978276744030774 1:100 2:0 3:0 4:-100 5:0 6:0 7:0 8:0 9:0 10:0 11:0 12:0 13:0 14:0 15:0 16:0 17:0 18:0 19:0 20:0 21:40 22:0 23:0 24:20 25:0 26:0 27:20 28:0 29:0 30:20 31:20 32:0 33:40 34:0 35:20 36:0 37:0 38:20 39:20 40:20 41:105 42:67 43:53 
-0.9242131685238713 1:0 2:0 3:0 4:0 5:0 6:0 7:0 8:100 9:0 10:-100 11:0 12:0 13:0 14:0 15:0 16:0 17:0 18:0 19:0 20:0 21:20 22:0 23:0 24:0 25:0 26:0 27:40 28:60 29:40 30:0 31:40 32:40 33:20 34:0 35:40 36:20 37:0 38:0 39:80 40:40 41:54 42:20 43:68 
-4.513471545772142 1:0 2:0 3:-100 4:0 5:0 6:0 7:0 8:0 9:0 10:0 11:0 12:0 13:100 14:0 15:0 16:0 17:0 18:0 19:0 20:0 21:80 22:80 23:40 24:20 25:20 26:0 27:0 28:20 29:0 30:0 31:60 32:20 33:0 34:20 35:40 36:40 37:0 38:0 39:0 40:20 41:49 42:50 43:25 
1.533761691936317 1:0 2:0 3:0 4:0 5:0 6:0 7:0 8:-100 9:0 10:0 11:0 12:0 13:0 14:100 15:0 16:0 17:0 18:0 19:0 20:0 21:40 22:40 23:20 24:0 25:0 26:20 27:0 28:20 29:100 30:0 31:40 32:0 33:0 34:0 35:0 36:40 37:20 38:20 39:20 40:20 41:48 42:45 43:25 
4.819436347298685 1:0 2:0 3:0 4:0 5:0 6:0 7:0 8:-100 9:0 10:0 11:0 12:0 13:0 14:100 15:0 16:0 17:0 18:0 19:0 20:0 21:40 22:40 23:20 24:0 25:0 26:20 27:0 28:20 29:100 30:0 31:40 32:0 33:0 34:0 35:0 36:40 37:20 38:20 39:20 40:20 41:48 42:31 43:25 
-8 1:0 2:0 3:0 4:0 5:0 6:0 7:0 8:-100 9:0 10:0 11:0 12:0 13:0 14:100 15:0 16:0 17:0 18:0 19:0 20:0 21:40 22:40 23:20 24:0 25:0 26:20 27:0 28:20 29:100 30:0 31:40 32:0 33:0 34:0 35:0 36:40 37:20 38:20 39:20 40:20 41:48 42:63 43:25 
6.87581213665432 1:0 2:0 3:-100 4:0 5:0 6:0 7:0 8:0 9:100 10:0 11:0 12:0 13:0 14:0 15:0 16:0 17:0 18:0 19:0 20:0 21:60 22:40 23:20 24:40 25:20 26:60 27:20 28:40 29:100 30:20 31:20 32:0 33:40 34:0 35:100 36:20 37:40 38:20 39:40 40:20 41:2 42:19 43:64 
2.315255356621959 1:0 2:0 3:0 4:0 5:0 6:0 7:-100 8:0 9:0 10:0 11:0 12:0 13:0 14:0 15:0 16:0 17:100 18:0 19:0 20:0 21:20 22:20 23:20 24:0 25:0 26:0 27:0 28:20 29:60 30:0 31:20 32:40 33:0 34:0 35:0 36:40 37:40 38:0 39:20 40:20 41:76 42:50 43:45 
0.8337379793005147 1:0 2:0 3:0 4:0 5:0 6:0 7:0 8:0 9:-100 10:0 11:100 12:0 13:0 14:0 15:0 16:0 17:0 18:0 19:0 20:0 21:40 22:60 23:20 24:20 25:40 26:40 27:20 28:0 29:60 30:0 31:40 32:60 33:0 34:0 35:40 36:60 37:0 38:20 39:40 40:20 41:6 42:21 43:51 
-4.025041793712444 1:0 2:0 3:0 4:0 5:0 6:0 7:0 8:0 9:-100 10:0 11:100 12:0 13:0 14:0 15:0 16:0 17:0 18:0 19:0 20:0 21:20 22:60 23:20 24:0 25:0 26:0 27:20 28:20 29:20 30:20 31:0 32:0 33:0 34:0 35:40 36:40 37:20 38:20 39:20 40:20 41:81 42:21 43:51 
3.818192881076177 1:0 2:0 3:0 4:0 5:0 6:0 7:0 8:-100 9:100 10:0 11:0 12:0 13:0 14:0 15:0 16:0 17:0 18:0 19:0 20:0 21:0 22:20 23:0 24:20 25:60 26:0 27:20 28:40 29:60 30:20 31:0 32:20 33:80 34:0 35:40 36:0 37:0 38:20 39:40 40:20 41:23 42:50 43:39 
-8 1:0 2:0 3:0 4:0 5:0 6:0 7:0 8:0 9:0 10:0 11:0 12:0 13:0 14:0 15:0 16:0 17:0 18:100 19:0 20:-100 21:40 22:60 23:40 24:40 25:40 26:0 27:20 28:100 29:140 30:0 31:80 32:40 33:40 34:20 35:60 36:20 37:20 38:80 39:60 40:40 41:12 42:64 43:47 
8 1:0 2:0 3:0 4:0 5:0 6:0 7:0 8:0 9:0 10:0 11:0 12:0 13:0 14:0 15:0 16:0 17:0 18:100 19:0 20:-100 21:40 22:60 23:40 24:40 25:40 26:0 27:20 28:100 29:140 30:0 31:80 32:40 33:40 34:20 35:60 36:20 37:20 38:80 39:60 40:40 41:12 42:21 43:50 
8 1:0 2:0 3:0 4:0 5:0 6:0 7:0 8:0 9:100 10:0 11:0 12:0 13:0 14:0 15:0 16:-100 17:0 18:0 19:0 20:0 21:20 22:100 23:40 24:0 25:20 26:0 27:20 28:20 29:80 30:0 31:20 32:0 33:0 34:20 35:20 36:60 37:0 38:60 39:20 40:20 41:63 42:30 43:4 
-1.323670180583821 1:0 2:0 3:0 4:0 5:0 6:0 7:0 8:0 9:100 10:0 11:0 12:0 13:0 14:0 15:0 16:-100 17:0 18:0 19:0 20:0 21:20 22:100 23:40 24:0 25:20 26:0 27:20 28:20 29:80 30:0 31:20 32:0 33:0 34:20 35:20 36:60 37:0 38:60 39:20 40:20 41:63 42:30 43:4 
-8 1:0 2:0 3:-100 4:0 5:0 6:0 7:0 8:0 9:0 10:0 11:0 12:100 13:0 14:0 15:0 16:0 17:0 18:0 19:0 20:0 21:80 22:80 23:40 24:20 25:20 26:0 27:0 28:20 29:0 30:0 31:60 32:20 33:0 34:20 35:40 36:40 37:0 38:0 39:0 40:20 41:49 42:50 43:25 
-0.3090162945669668 1:0 2:0 3:0 4:0 5:0 6:0 7:0 8:0 9:0 10:0 11:0 12:0 13:0 14:0 15:0 16:0 17:0 18:0 19:100 20:-100 21:0 22:60 23:0 24:0 25:0 26:0 27:0 28:0 29:40 30:0 31:0 32:0 33:0 34:0 35:0 36:20 37:20 38:60 39:20 40:40 41:87 42:50 43:69 
-4.365249889780447 1:0 2:0 3:0 4:0 5:0 6:0 7:0 8:0 9:100 10:0 11:0 12:0 13:-100 14:0 15:0 16:0 17:0 18:0 19:0 20:0 21:40 22:80 23:80 24:0 25:0 26:80 27:40 28:0 29:60 30:20 31:60 32:20 33:60 34:20 35:0 36:40 37:20 38:0 39:100 40:20 41:2 42:67 43:20 
-6.492565053714977 1:0 2:0 3:0 4:0 5:0 6:0 7:0 8:0 9:0 10:100 11:0 12:0 13:0 14:0 15:0 16:0 17:0 18:-100 19:0 20:0 21:20 22:60 23:60 24:0 25:0 26:0 27:0 28:20 29:0 30:20 31:20 32:80 33:0 34:0 35:0 36:80 37:40 38:0 39:0 40:20 41:41 42:21 43:65 
-2.609515207004462 1:0 2:0 3:0 4:0 5:0 6:0 7:0 8:0 9:100 10:0 11:0 12:0 13:0 14:0 15:0 16:0 17:-100 18:0 19:0 20:0 21:20 22:20 23:20 24:20 25:60 26:0 27:40 28:20 29:60 30:20 31:20 32:20 33:40 34:0 35:20 36:40 37:0 38:0 39:60 40:0 41:36 42:50 43:39 
0.3409364931556045 1:0 2:0 3:0 4:0 5:0 6:0 7:0 8:0 9:100 10:-100 11:0 12:0 13:0 14:0 15:0 16:0 17:0 18:0 19:0 20:0 21:20 22:20 23:0 24:0 25:80 26:0 27:80 28:40 29:40 30:20 31:0 32:40 33:20 34:0 35:60 36:20 37:20 38:20 39:60 40:0 41:34 42:50 43:39 
-7.178820265179679 1:0 2:0 3:0 4:0 5:0 6:0 7:0 8:100 9:0 10:0 11:0 12:-100 13:0 14:0 15:0 16:0 17:0 18:0 19:0 20:0 21:20 22:80 23:80 24:0 25:20 26:0 27:0 28:40 29:20 30:0 31:0 32:0 33:20 34:0 35:40 36:60 37:0 38:40 39:0 40:20 41:51 42:14 43:41 
6.018669747426701 1:0 2:0 3:0 4:0 5:0 6:0 7:0 8:100 9:0 10:0 11:0 12:-100 13:0 14:0 15:0 16:0 17:0 18:0 19:0 20:0 21:20 22:80 23:80 24:0 25:20 26:0 27:0 28:40 29:20 30:0 31:0 32:0 33:20 34:0 35:40 36:60 37:0 38:40 39:0 40:20 41:51 42:46 43:63 
2.415091335448257 1:-100 2:0 3:100 4:0 5:0 6:0 7:0 8:0 9:0 10:0 11:0 12:0 13:0 14:0 15:0 16:0 17:0 18:0 19:0 20:0 21:20 22:60 23:40 24:20 25:40 26:40 27:20 28:0 29:180 30:40 31:20 32:20 33:20 34:20 35:0 36:80 37:40 38:60 39:0 40:20 41:4 42:35 43:50 
0.971260110460757 1:0 2:0 3:0 4:0 5:0 6:0 7:0 8:0 9:0 10:-100 11:0 12:0 13:0 14:0 15:100 16:0 17:0 18:0 19:0 20:0 21:20 22:0 23:40 24:20 25:0 26:0 27:40 28:20 29:20 30:20 31:0 32:40 33:0 34:0 35:0 36:100 37:0 38:0 39:40 40:20 41:70 42:32 43:25 
1.737686177827758 1:-100 2:100 3:0 4:0 5:0 6:0 7:0 8:0 9:0 10:0 11:0 12:0 13:0 14:0 15:0 16:0 17:0 18:0 19:0 20:0 21:0 22:20 23:0 24:0 25:0 26:20 27:20 28:20 29:40 30:20 31:20 32:20 33:40 34:20 35:40 36:0 37:0 38:0 39:60 40:40 41:60 42:19 43:64 
8 1:0 2:0 3:0 4:0 5:0 6:0 7:0 8:0 9:0 10:0 11:100 12:0 13:-100 14:0 15:0 16:0 17:0 18:0 19:0 20:0 21:20 22:60 23:40 24:20 25:40 26:0 27:20 28:40 29:20 30:20 31:0 32:40 33:0 34:40 35:20 36:60 37:0 38:40 39:20 40:0 41:0 42:42 43:46 
4.703021847853218 1:0 2:0 3:0 4:0 5:0 6:0 7:0 8:0 9:100 10:0 11:0 12:-100 13:0 14:0 15:0 16:0 17:0 18:0 19:0 20:0 21:20 22:20 23:40 24:0 25:60 26:0 27:60 28:0 29:20 30:20 31:20 32:20 33:40 34:0 35:20 36:20 37:20 38:0 39:40 40:0 41:56 42:50 43:39 
1.117998872670084 1:0 2:0 3:0 4:0 5:0 6:0 7:0 8:0 9:100 10:0 11:0 12:0 13:0 14:0 15:0 16:0 17:0 18:-100 19:0 20:0 21:80 22:40 23:20 24:0 25:20 26:0 27:0 28:40 29:0 30:0 31:20 32:0 33:0 34:0 35:20 36:60 37:40 38:80 39:0 40:0 41:32 42:50 43:70 
5.25385987681289 1:-100 2:0 3:0 4:0 5:0 6:0 7:0 8:100 9:0 10:0 11:0 12:0 13:0 14:0 15:0 16:0 17:0 18:0 19:0 20:0 21:0 22:20 23:0 24:0 25:0 26:20 27:20 28:20 29:40 30:20 31:20 32:20 33:40 34:20 35:40 36:0 37:0 38:0 39:60 40:40 41:60 42:19 43:64 
6.289227502842095 1:0 2:0 3:0 4:0 5:100 6:0 7:0 8:0 9:0 10:0 11:0 12:0 13:0 14:0 15:0 16:0 17:0 18:-100 19:0 20:0 21:20 22:60 23:40 24:0 25:20 26:0 27:40 28:0 29:40 30:20 31:40 32:60 33:20 34:0 35:40 36:20 37:80 38:0 39:20 40:20 41:16 42:50 43:25 
3.062010632708043 1:-100 2:0 3:0 4:0 5:100 6:0 7:0 8:0 9:0 10:0 11:0 12:0 13:0 14:0 15:0 16:0 17:0 18:0 19:0 20:0 21:60 22:100 23:80 24:60 25:40 26:0 27:60 28:60 29:80 30:20 31:20 32:80 33:0 34:0 35:40 36:80 37:0 38:40 39:20 40:40 41:0 42:38 43:40 
-0.3093305033913905 1:0 2:0 3:0 4:0 5:0 6:0 7:0 8:0 9:-100 10:0 11:100 12:0 13:0 14:0 15:0 16:0 17:0 18:0 19:0 20:0 21:60 22:0 23:20 24:0 25:20 26:0 27:0 28:0 29:40 30:0 31:20 32:40 33:0 34:0 35:0 36:40 37:0 38:20 39:0 40:60 41:0 42:50 43:63 
-8 1:0 2:0 3:0 4:0 5:0 6:0 7:0 8:0 9:100 10:0 11:0 12:0 13:0 14:0 15:0 16:0 17:0 18:0 19:-100 20:0 21:40 22:40 23:80 24:0 25:0 26:0 27:60 28:80 29:40 30:40 31:20 32:60 33:0 34:0 35:0 36:40 37:0 38:20 39:40 40:40 41:9 42:45 43:25 
-8 1:0 2:0 3:-100 4:0 5:0 6:0 7:0 8:0 9:0 10:0 11:0 12:100 13:0 14:0 15:0 16:0 17:0 18:0 19:0 20:0 21:60 22:100 23:40 24:20 25:60 26:40 27:20 28:40 29:180 30:0 31:80 32:60 33:40 34:0 35:20 36:40 37:40 38:40 39:60 40:40 41:0 42:45 43:74 
-2.743875077850037 1:0 2:0 3:-100 4:0 5:0 6:0 7:0 8:0 9:0 10:0 11:100 12:0 13:0 14:0 15:0 16:0 17:0 18:0 19:0 20:0 21:60 22:80 23:40 24:20 25:20 26:60 27:40 28:20 29:160 30:0 31:100 32:80 33:80 34:0 35:40 36:20 37:20 38:20 39:100 40:60 41:1 42:19 43:64 
-8 1:0 2:0 3:0 4:-100 5:0 6:0 7:0 8:0 9:0 10:0 11:0 12:0 13:0 14:0 15:0 16:0 17:0 18:100 19:0 20:0 21:40 22:0 23:0 24:20 25:0 26:0 27:20 28:0 29:0 30:20 31:20 32:0 33:40 34:0 35:20 36:0 37:0 38:20 39:20 40:20 41:105 42:22 43:53 
8 1:0 2:0 3:0 4:-100 5:0 6:0 7:0 8:0 9:0 10:0 11:0 12:0 13:0 14:0 15:0 16:0 17:0 18:100 19:0 20:0 21:40 22:0 23:0 24:20 25:0 26:0 27:20 28:0 29:0 30:20 31:20 32:0 33:40 34:0 35:20 36:0 37:0 38:20 39:20 40:20 41:105 42:50 43:53 
0.883332164913561 1:0 2:0 3:0 4:-100 5:0 6:0 7:0 8:0 9:0 10:0 11:0 12:0 13:0 14:0 15:0 16:0 17:0 18:100 19:0 20:0 21:40 22:0 23:0 24:20 25:0 26:0 27:20 28:0 29:0 30:20 31:20 32:0 33:40 34:0 35:20 36:0 37:0 38:20 39:20 40:20 41:105 42:67 43:53 
-1.713291738191664 1:0 2:0 3:100 4:-100 5:0 6:0 7:0 8:0 9:0 10:0 11:0 12:0 13:0 14:0 15:0 16:0 17:0 18:0 19:0 20:0 21:0 22:0 23:20 24:0 25:0 26:0 27:0 28:40 29:20 30:40 31:0 32:20 33:0 34:0 35:60 36:20 37:20 38:60 39:20 40:0 41:30 42:50 43:63 
8 1:0 2:0 3:0 4:0 5:0 6:0 7:0 8:0 9:0 10:0 11:0 12:0 13:0 14:0 15:0 16:0 17:0 18:0 19:100 20:-100 21:0 22:0 23:0 24:0 25:0 26:0 27:40 28:40 29:40 30:20 31:40 32:40 33:0 34:0 35:40 36:20 37:0 38:0 39:60 40:20 41:50 42:15 43:65 
-8 1:0 2:0 3:0 4:0 5:0 6:0 7:0 8:0 9:0 10:0 11:0 12:0 13:0 14:0 15:0 16:0 17:0 18:0 19:100 20:-100 21:0 22:0 23:0 24:0 25:0 26:0 27:40 28:40 29:40 30:20 31:40 32:40 33:0 34:0 35:40 36:20 37:0 38:0 39:60 40:20 41:50 42:28 43:65 
1.187786584671745 1:0 2:0 3:0 4:0 5:0 6:0 7:0 8:0 9:0 10:0 11:0 12:0 13:0 14:0 15:100 16:0 17:-100 18:0 19:0 20:0 21:20 22:40 23:0 24:0 25:20 26:0 27:0 28:40 29:120 30:0 31:0 32:0 33:0 34:0 35:20 36:40 37:0 38:40 39:0 40:0 41:57 42:35 43:50 
0.6223351987384829 1:0 2:0 3:0 4:0 5:0 6:0 7:0 8:0 9:0 10:0 11:0 12:0 13:0 14:0 15:0 16:-100 17:100 18:0 19:0 20:0 21:40 22:120 23:80 24:0 25:20 26:0 27:0 28:20 29:0 30:0 31:20 32:100 33:0 34:20 35:20 36:20 37:0 38:20 39:0 40:0 41:49 42:35 43:25 
1.102489061740051 1:0 2:0 3:0 4:0 5:0 6:0 7:0 8:0 9:100 10:0 11:0 12:0 13:0 14:0 15:0 16:0 17:0 18:0 19:-100 20:0 21:60 22:20 23:0 24:0 25:40 26:0 27:80 28:40 29:20 30:40 31:60 32:0 33:0 34:20 35:0 36:0 37:60 38:60 39:40 40:0 41:3 42:50 43:25 
-8 1:0 2:0 3:0 4:0 5:0 6:0 7:0 8:0 9:100 10:0 11:0 12:0 13:0 14:0 15:0 16:0 17:0 18:0 19:-100 20:0 21:60 22:20 23:0 24:0 25:40 26:0 27:80 28:40 29:20 30:40 31:60 32:0 33:0 34:20 35:0 36:0 37:60 38:60 39:40 40:0 41:3 42:50 43:50 
-0.4100347683653389 1:0 2:0 3:0 4:0 5:0 6:0 7:0 8:0 9:100 10:0 11:0 12:0 13:0 14:0 15:0 16:0 17:0 18:0 19:-100 20:0 21:0 22:40 23:0 24:0 25:80 26:0 27:40 28:40 29:40 30:40 31:0 32:20 33:80 34:0 35:20 36:20 37:20 38:20 39:20 40:0 41:23 42:50 43:39 
-4.998867982845479 1:0 2:0 3:0 4:0 5:-100 6:0 7:0 8:0 9:100 10:0 11:0 12:0 13:0 14:0 15:0 16:0 17:0 18:0 19:0 20:0 21:20 22:80 23:20 24:20 25:20 26:0 27:60 28:60 29:40 30:40 31:0 32:60 33:0 34:40 35:60 36:80 37:20 38:60 39:40 40:40 41:8 42:50 43:20 
6.209922738836942 1:0 2:0 3:0 4:0 5:0 6:0 7:0 8:0 9:0 10:0 11:100 12:0 13:0 14:0 15:0 16:0 17:0 18:0 19:-100 20:0 21:0 22:20 23:20 24:0 25:60 26:20 27:20 28:40 29:0 30:0 31:0 32:20 33:0 34:0 35:0 36:60 37:0 38:60 39:20 40:0 41:50 42:50 43:70 
-6.85540931469733 1:0 2:0 3:0 4:0 5:0 6:0 7:0 8:0 9:0 10:0 11:100 12:0 13:0 14:0 15:0 16:0 17:0 18:0 19:-100 20:0 21:0 22:20 23:20 24:0 25:60 26:20 27:20 28:40 29:0 30:0 31:0 32:20 33:0 34:0 35:0 36:60 37:0 38:60 39:20 40:0 41:50 42:50 43:70 
-0.4427303936608789 1:0 2:0 3:0 4:0 5:0 6:0 7:0 8:0 9:0 10:0 11:0 12:0 13:0 14:0 15:0 16:0 17:0 18:-100 19:0 20:100 21:40 22:80 23:40 24:40 25:20 26:40 27:60 28:80 29:100 30:0 31:60 32:80 33:20 34:0 35:40 36:0 37:40 38:0 39:60 40:60 41:10 42:64 43:47 
3.47197114467306 1:0 2:0 3:0 4:0 5:0 6:0 7:0 8:0 9:0 10:0 11:0 12:0 13:0 14:0 15:0 16:0 17:0 18:-100 19:0 20:100 21:40 22:80 23:40 24:40 25:20 26:40 27:60 28:80 29:100 30:0 31:60 32:80 33:20 34:0 35:40 36:0 37:40 38:0 39:60 40:60 41:10 42:21 43:50 
7.629330790376776 1:0 2:-100 3:100 4:0 5:0 6:0 7:0 8:0 9:0 10:0 11:0 12:0 13:0 14:0 15:0 16:0 17:0 18:0 19:0 20:0 21:120 22:140 23:80 24:60 25:60 26:40 27:40 28:60 29:80 30:20 31:40 32:20 33:20 34:0 35:60 36:40 37:40 38:20 39:40 40:40 41:0 42:21 43:51 
-8 1:0 2:-100 3:100 4:0 5:0 6:0 7:0 8:0 9:0 10:0 11:0 12:0 13:0 14:0 15:0 16:0 17:0 18:0 19:0 20:0 21:120 22:140 23:80 24:60 25:60 26:40 27:40 28:60 29:80 30:20 31:40 32:20 33:20 34:0 35:60 36:40 37:40 38:20 39:40 40:40 41:0 42:40 43:64 
1.18516199406245 1:0 2:0 3:0 4:0 5:100 6:0 7:-100 8:0 9:0 10:0 11:0 12:0 13:0 14:0 15:0 16:0 17:0 18:0 19:0 20:0 21:40 22:20 23:20 24:0 25:0 26:20 27:0 28:20 29:60 30:20 31:40 32:40 33:80 34:20 35:40 36:0 37:40 38:0 39:80 40:80 41:52 42:19 43:64 
-5.134316794958284 1:0 2:0 3:0 4:0 5:0 6:0 7:0 8:0 9:-100 10:0 11:0 12:100 13:0 14:0 15:0 16:0 17:0 18:0 19:0 20:0 21:40 22:20 23:40 24:40 25:20 26:20 27:20 28:20 29:20 30:0 31:0 32:80 33:0 34:0 35:60 36:40 37:0 38:0 39:40 40:40 41:14 42:42 43:65 
