svm_type nu_svr
kernel_type rbf
gamma 3.05176e-05
nr_class 2
total_sv 1643
rho 0.970918
probA 0.681919
SV
-7.334423539620397 1:0 2:0 3:0 4:-100 5:0 6:0 7:0 8:0 9:100 10:0 11:0 12:0 13:0 14:0 15:0 16:0 17:0 18:0 19:0 20:0 21:60 22:100 23:20 24:20 25:40 26:20 27:20 28:80 29:80 30:0 31:20 32:40 33:0 34:0 35:40 36:20 37:40 38:60 39:20 40:20 41:28 42:21 43:51 
-1.519444117592865 1:0 2:0 3:-100 4:100 5:0 6:0 7:0 8:0 9:0 10:0 11:0 12:0 13:0 14:0 15:0 16:0 17:0 18:0 19:0 20:0 21:100 22:80 23:40 24:20 25:40 26:0 27:20 28:40 29:100 30:20 31:20 32:20 33:20 34:0 35:80 36:40 37:0 38:20 39:40 40:60 41:0 42:38 43:65 
-1.154382851154146 1:0 2:0 3:0 4:0 5:0 6:0 7:0 8:0 9:100 10:0 11:0 12:0 13:0 14:-100 15:0 16:0 17:0 18:0 19:0 20:0 21:60 22:20 23:60 24:20 25:20 26:0 27:0 28:40 29:60 30:20 31:20 32:0 33:0 34:60 35:20 36:0 37:20 38:20 39:20 40:20 41:49 42:68 43:82 
-1.724327126097391 1:0 2:0 3:0 4:0 5:0 6:0 7:0 8:0 9:0 10:0 11:0 12:0 13:0 14:0 15:0 16:0 17:100 18:-100 19:0 20:0 21:60 22:60 23:60 24:0 25:0 26:20 27:0 28:20 29:20 30:0 31:20 32:0 33:0 34:0 35:0 36:60 37:20 38:40 39:20 40:20 41:50 42:44 43:25 
-8 1:0 2:0 3:0 4:0 5:0 6:0 7:0 8:-100 9:0 10:0 11:100 12:0 13:0 14:0 15:0 16:0 17:0 18:0 19:0 20:0 21:0 22:60 23:0 24:0 25:20 26:0 27:40 28:0 29:0 30:20 31:0 32:40 33:0 34:0 35:20 36:40 37:20 38:0 39:40 40:20 41:23 42:50 43:20 
-8 1:0 2:0 3:0 4:0 5:0 6:0 7:0 8:-100 9:0 10:0 11:100 12:0 13:0 14:0 15:0 16:0 17:0 18:0 19:0 20:0 21:0 22:60 23:0 24:0 25:20 26:0 27:40 28:0 29:0 30:20 31:0 32:40 33:0 34:0 35:20 36:40 37:20 38:0 39:40 40:20 41:23 42:37 43:40 
3.692818519237502 1:0 2:0 3:0 4:0 5:0 6:0 7:0 8:-100 9:0 10:0 11:100 12:0 13:0 14:0 15:0 16:0 17:0 18:0 19:0 20:0 21:0 22:60 23:0 24:0 25:20 26:0 27:40 28:0 29:0 30:20 31:0 32:40 33:0 34:0 35:20 36:40 37:20 38:0 39:40 40:20 41:23 42:50 43:51 
8 1:0 2:0 3:0 4:0 5:0 6:0 7:0 8:-100 9:0 10:0 11:100 12:0 13:0 14:0 15:0 16:0 17:0 18:0 19:0 20:0 21:0 22:60 23:0 24:0 25:20 26:0 27:40 28:0 29:0 30:20 31:0 32:40 33:0 34:0 35:20 36:40 37:20 38:0 39:40 40:20 41:23 42:35 43:47 
4.976756253724502 1:0 2:0 3:0 4:0 5:0 6:0 7:0 8:0 9:100 10:0 11:0 12:0 13:0 14:0 15:-100 16:0 17:0 18:0 19:0 20:0 21:40 22:0 23:40 24:20 25:0 26:20 27:20 28:80 29:20 30:20 31:20 32:0 33:0 34:0 35:60 36:20 37:20 38:0 39:0 40:40 41:63 42:19 43:64 
3.999681278158508 1:0 2:0 3:0 4:0 5:0 6:0 7:0 8:100 9:0 10:0 11:0 12:0 13:0 14:0 15:-100 16:0 17:0 18:0 19:0 20:0 21:40 22:0 23:40 24:20 25:0 26:20 27:20 28:80 29:20 30:20 31:20 32:0 33:0 34:0 35:60 36:20 37:20 38:0 39:0 40:40 41:63 42:19 43:64 
0.2918816039754739 1:0 2:-100 3:0 4:0 5:0 6:0 7:0 8:0 9:100 10:0 11:0 12:0 13:0 14:0 15:0 16:0 17:0 18:0 19:0 20:0 21:80 22:120 23:120 24:20 25:40 26:0 27:20 28:20 29:20 30:0 31:20 32:100 33:0 34:20 35:20 36:100 37:80 38:40 39:0 40:20 41:0 42:26 43:50 
8 1:0 2:0 3:-100 4:0 5:0 6:0 7:0 8:0 9:100 10:0 11:0 12:0 13:0 14:0 15:0 16:0 17:0 18:0 19:0 20:0 21:100 22:80 23:40 24:20 25:40 26:0 27:20 28:40 29:100 30:20 31:20 32:20 33:20 34:0 35:80 36:40 37:0 38:20 39:40 40:60 41:0 42:21 43:51 
-5.488230314688288 1:0 2:0 3:0 4:0 5:0 6:0 7:0 8:0 9:0 10:0 11:0 12:0 13:0 14:100 15:0 16:-100 17:0 18:0 19:0 20:0 21:20 22:60 23:60 24:0 25:20 26:0 27:0 28:20 29:20 30:0 31:0 32:20 33:0 34:0 35:60 36:40 37:0 38:40 39:20 40:20 41:52 42:14 43:28 
8 1:0 2:0 3:0 4:0 5:0 6:0 7:0 8:0 9:0 10:0 11:0 12:0 13:0 14:100 15:0 16:-100 17:0 18:0 19:0 20:0 21:20 22:60 23:60 24:0 25:20 26:0 27:0 28:20 29:20 30:0 31:0 32:20 33:0 34:0 35:60 36:40 37:0 38:40 39:20 40:20 41:52 42:46 43:63 
2.112453516257992 1:0 2:0 3:0 4:0 5:0 6:0 7:0 8:0 9:0 10:0 11:0 12:0 13:0 14:0 15:0 16:0 17:0 18:100 19:0 20:-100 21:40 22:40 23:0 24:0 25:0 26:20 27:20 28:80 29:60 30:20 31:20 32:20 33:0 34:0 35:0 36:40 37:0 38:0 39:20 40:0 41:77 42:45 43:25 
-7.183832886545139 1:0 2:0 3:0 4:0 5:0 6:0 7:0 8:0 9:0 10:0 11:0 12:0 13:0 14:0 15:0 16:0 17:0 18:100 19:0 20:-100 21:0 22:20 23:20 24:0 25:40 26:0 27:20 28:80 29:100 30:20 31:40 32:20 33:40 34:40 35:40 36:0 37:0 38:60 39:40 40:40 41:34 42:39 43:53 
8 1:0 2:0 3:0 4:0 5:0 6:0 7:0 8:0 9:0 10:0 11:0 12:0 13:0 14:0 15:0 16:0 17:0 18:100 19:0 20:-100 21:0 22:20 23:20 24:0 25:40 26:0 27:20 28:80 29:100 30:20 31:40 32:20 33:40 34:40 35:40 36:0 37:0 38:60 39:40 40:40 41:34 42:21 43:50 
-3.114776814228901 1:0 2:0 3:0 4:0 5:0 6:0 7:-100 8:0 9:100 10:0 11:0 12:0 13:0 14:0 15:0 16:0 17:0 18:0 19:0 20:0 21:60 22:80 23:40 24:20 25:40 26:40 27:20 28:40 29:80 30:0 31:20 32:20 33:60 34:0 35:40 36:40 37:60 38:60 39:40 40:20 41:8 42:19 43:64 
-2.857052787274046 1:0 2:0 3:0 4:0 5:0 6:0 7:0 8:0 9:0 10:0 11:0 12:0 13:0 14:0 15:0 16:0 17:100 18:0 19:0 20:-100 21:20 22:20 23:20 24:20 25:0 26:60 27:40 28:40 29:40 30:0 31:20 32:0 33:40 34:0 35:20 36:40 37:0 38:0 39:20 40:0 41:65 42:45 43:74 
-3.708445408038663 1:0 2:0 3:0 4:0 5:0 6:0 7:0 8:0 9:0 10:0 11:0 12:0 13:0 14:0 15:0 16:0 17:0 18:-100 19:100 20:0 21:60 22:60 23:60 24:0 25:0 26:20 27:0 28:20 29:20 30:0 31:20 32:0 33:0 34:0 35:0 36:60 37:20 38:40 39:20 40:20 41:50 42:44 43:25 
3.486495557690703 1:-100 2:0 3:0 4:0 5:0 6:0 7:0 8:0 9:0 10:100 11:0 12:0 13:0 14:0 15:0 16:0 17:0 18:0 19:0 20:0 21:0 22:20 23:20 24:0 25:20 26:60 27:0 28:20 29:40 30:0 31:0 32:0 33:20 34:0 35:60 36:0 37:60 38:20 39:20 40:0 41:60 42:20 43:68 
-7.269651724983595 1:0 2:-100 3:0 4:0 5:0 6:0 7:0 8:0 9:100 10:0 11:0 12:0 13:0 14:0 15:0 16:0 17:0 18:0 19:0 20:0 21:120 22:120 23:40 24:40 25:20 26:20 27:20 28:60 29:100 30:40 31:40 32:60 33:0 34:0 35:40 36:60 37:20 38:60 39:40 40:60 41:0 42:50 43:20 
-0.4430721803724997 1:0 2:0 3:0 4:0 5:0 6:0 7:0 8:0 9:0 10:0 11:0 12:0 13:0 14:0 15:0 16:0 17:0 18:-100 19:0 20:100 21:60 22:60 23:60 24:0 25:0 26:20 27:0 28:20 29:20 30:0 31:20 32:0 33:0 34:0 35:0 36:60 37:20 38:40 39:20 40:20 41:50 42:44 43:25 
8 1:0 2:-100 3:0 4:0 5:0 6:0 7:0 8:0 9:100 10:0 11:0 12:0 13:0 14:0 15:0 16:0 17:0 18:0 19:0 20:0 21:20 22:40 23:20 24:20 25:40 26:40 27:60 28:20 29:60 30:20 31:20 32:0 33:0 34:20 35:0 36:80 37:20 38:60 39:20 40:40 41:8 42:37 43:5 
-8 1:0 2:0 3:0 4:0 5:0 6:0 7:0 8:0 9:-100 10:100 11:0 12:0 13:0 14:0 15:0 16:0 17:0 18:0 19:0 20:0 21:40 22:40 23:20 24:0 25:0 26:20 27:0 28:20 29:40 30:0 31:20 32:20 33:0 34:0 35:0 36:20 37:20 38:20 39:0 40:0 41:83 42:45 43:25 
1.867230520342784 1:0 2:0 3:0 4:0 5:0 6:0 7:0 8:0 9:-100 10:0 11:100 12:0 13:0 14:0 15:0 16:0 17:0 18:0 19:0 20:0 21:40 22:40 23:20 24:0 25:0 26:20 27:0 28:20 29:40 30:0 31:20 32:20 33:0 34:0 35:0 36:20 37:20 38:20 39:0 40:0 41:83 42:45 43:25 
0.5662818844803741 1:0 2:0 3:0 4:0 5:0 6:0 7:0 8:0 9:-100 10:0 11:0 12:0 13:0 14:0 15:100 16:0 17:0 18:0 19:0 20:0 21:40 22:40 23:20 24:0 25:0 26:20 27:0 28:20 29:40 30:0 31:20 32:20 33:0 34:0 35:0 36:20 37:20 38:20 39:0 40:0 41:83 42:45 43:25 
-2.785014489859738 1:0 2:0 3:0 4:0 5:0 6:0 7:0 8:0 9:-100 10:0 11:0 12:100 13:0 14:0 15:0 16:0 17:0 18:0 19:0 20:0 21:40 22:40 23:20 24:0 25:0 26:20 27:0 28:20 29:40 30:0 31:20 32:20 33:0 34:0 35:0 36:20 37:20 38:20 39:0 40:0 41:83 42:45 43:25 
-1.18893256925118 1:0 2:0 3:0 4:0 5:0 6:100 7:0 8:0 9:-100 10:0 11:0 12:0 13:0 14:0 15:0 16:0 17:0 18:0 19:0 20:0 21:40 22:40 23:20 24:0 25:0 26:20 27:0 28:20 29:40 30:0 31:20 32:20 33:0 34:0 35:0 36:20 37:20 38:20 39:0 40:0 41:83 42:45 43:25 
-6.122852998559623 1:100 2:0 3:0 4:0 5:0 6:0 7:0 8:0 9:-100 10:0 11:0 12:0 13:0 14:0 15:0 16:0 17:0 18:0 19:0 20:0 21:40 22:40 23:20 24:0 25:0 26:20 27:0 28:20 29:40 30:0 31:20 32:20 33:0 34:0 35:0 36:20 37:20 38:20 39:0 40:0 41:83 42:45 43:25 
0.162868008058844 1:0 2:0 3:0 4:0 5:0 6:0 7:100 8:0 9:-100 10:0 11:0 12:0 13:0 14:0 15:0 16:0 17:0 18:0 19:0 20:0 21:40 22:40 23:20 24:0 25:0 26:20 27:0 28:20 29:40 30:0 31:20 32:20 33:0 34:0 35:0 36:20 37:20 38:20 39:0 40:0 41:83 42:45 43:25 
3.663831939200212 1:-100 2:0 3:0 4:0 5:0 6:0 7:0 8:0 9:100 10:0 11:0 12:0 13:0 14:0 15:0 16:0 17:0 18:0 19:0 20:0 21:20 22:60 23:0 24:20 25:0 26:0 27:20 28:40 29:40 30:0 31:20 32:20 33:40 34:0 35:80 36:20 37:20 38:20 39:0 40:20 41:39 42:19 43:49 
8 1:0 2:0 3:0 4:0 5:-100 6:0 7:0 8:0 9:100 10:0 11:0 12:0 13:0 14:0 15:0 16:0 17:0 18:0 19:0 20:0 21:80 22:40 23:20 24:20 25:0 26:20 27:20 28:20 29:60 30:40 31:0 32:40 33:40 34:20 35:0 36:40 37:20 38:60 39:40 40:40 41:9 42:35 43:50 
5.161406863401527 1:0 2:0 3:0 4:0 5:0 6:0 7:0 8:100 9:-100 10:0 11:0 12:0 13:0 14:0 15:0 16:0 17:0 18:0 19:0 20:0 21:120 22:60 23:60 24:0 25:20 26:20 27:0 28:20 29:40 30:20 31:20 32:0 33:0 34:0 35:20 36:80 37:20 38:80 39:20 40:40 41:0 42:44 43:25 
-3.12043605343062 1:0 2:0 3:0 4:0 5:0 6:0 7:0 8:0 9:-100 10:0 11:0 12:0 13:100 14:0 15:0 16:0 17:0 18:0 19:0 20:0 21:40 22:40 23:20 24:0 25:0 26:20 27:0 28:20 29:40 30:0 31:20 32:20 33:0 34:0 35:0 36:20 37:20 38:20 39:0 40:0 41:83 42:45 43:25 
-1.210513536218762 1:0 2:0 3:0 4:0 5:0 6:0 7:0 8:0 9:-100 10:0 11:0 12:0 13:0 14:0 15:0 16:0 17:0 18:100 19:0 20:0 21:40 22:40 23:20 24:0 25:0 26:20 27:0 28:20 29:40 30:0 31:20 32:20 33:0 34:0 35:0 36:20 37:20 38:20 39:0 40:0 41:83 42:45 43:25 
8 1:0 2:0 3:-100 4:0 5:0 6:0 7:0 8:0 9:100 10:0 11:0 12:0 13:0 14:0 15:0 16:0 17:0 18:0 19:0 20:0 21:20 22:100 23:100 24:0 25:60 26:20 27:100 28:60 29:40 30:20 31:40 32:100 33:0 34:0 35:60 36:40 37:20 38:20 39:60 40:100 41:0 42:45 43:25 
-8 1:0 2:0 3:-100 4:0 5:0 6:0 7:0 8:0 9:100 10:0 11:0 12:0 13:0 14:0 15:0 16:0 17:0 18:0 19:0 20:0 21:20 22:100 23:100 24:0 25:60 26:20 27:100 28:60 29:40 30:20 31:40 32:100 33:0 34:0 35:60 36:40 37:20 38:20 39:60 40:100 41:0 42:45 43:25 
-8 1:0 2:0 3:-100 4:0 5:0 6:0 7:0 8:0 9:100 10:0 11:0 12:0 13:0 14:0 15:0 16:0 17:0 18:0 19:0 20:0 21:20 22:100 23:100 24:0 25:60 26:20 27:100 28:60 29:40 30:20 31:40 32:100 33:0 34:0 35:60 36:40 37:20 38:20 39:60 40:100 41:0 42:45 43:25 
-0.2561712529107343 1:0 2:0 3:-100 4:0 5:0 6:0 7:0 8:0 9:100 10:0 11:0 12:0 13:0 14:0 15:0 16:0 17:0 18:0 19:0 20:0 21:20 22:100 23:100 24:0 25:60 26:20 27:100 28:60 29:40 30:20 31:40 32:100 33:0 34:0 35:60 36:40 37:20 38:20 39:60 40:100 41:0 42:45 43:48 
-0.04114720306652352 1:0 2:0 3:0 4:0 5:100 6:0 7:0 8:0 9:-100 10:0 11:0 12:0 13:0 14:0 15:0 16:0 17:0 18:0 19:0 20:0 21:40 22:40 23:20 24:0 25:0 26:20 27:0 28:20 29:40 30:0 31:20 32:20 33:0 34:0 35:0 36:20 37:20 38:20 39:0 40:0 41:83 42:45 43:25 
2.186751898651536 1:0 2:100 3:-100 4:0 5:0 6:0 7:0 8:0 9:0 10:0 11:0 12:0 13:0 14:0 15:0 16:0 17:0 18:0 19:0 20:0 21:20 22:100 23:100 24:0 25:60 26:20 27:100 28:60 29:40 30:20 31:40 32:100 33:0 34:0 35:60 36:40 37:20 38:20 39:60 40:100 41:0 42:45 43:25 
4.462096531145638 1:0 2:0 3:0 4:0 5:0 6:0 7:0 8:0 9:-100 10:0 11:0 12:0 13:0 14:0 15:0 16:100 17:0 18:0 19:0 20:0 21:40 22:40 23:20 24:0 25:0 26:20 27:0 28:20 29:40 30:0 31:20 32:20 33:0 34:0 35:0 36:20 37:20 38:20 39:0 40:0 41:83 42:45 43:25 
1.884414633283229 1:0 2:0 3:0 4:100 5:0 6:0 7:0 8:0 9:-100 10:0 11:0 12:0 13:0 14:0 15:0 16:0 17:0 18:0 19:0 20:0 21:40 22:40 23:20 24:0 25:0 26:20 27:0 28:20 29:40 30:0 31:20 32:20 33:0 34:0 35:0 36:20 37:20 38:20 39:0 40:0 41:83 42:45 43:25 
3.874325454974069 1:0 2:100 3:0 4:0 5:0 6:0 7:0 8:0 9:-100 10:0 11:0 12:0 13:0 14:0 15:0 16:0 17:0 18:0 19:0 20:0 21:40 22:40 23:20 24:0 25:0 26:20 27:0 28:20 29:40 30:0 31:20 32:20 33:0 34:0 35:0 36:20 37:20 38:20 39:0 40:0 41:83 42:45 43:25 
0.01329026636017099 1:0 2:0 3:0 4:0 5:0 6:0 7:0 8:0 9:100 10:0 11:0 12:0 13:0 14:0 15:0 16:0 17:0 18:0 19:-100 20:0 21:40 22:0 23:80 24:0 25:40 26:0 27:40 28:20 29:20 30:0 31:60 32:80 33:0 34:0 35:40 36:40 37:0 38:0 39:60 40:60 41:48 42:45 43:25 
-3.347877732754465 1:0 2:0 3:0 4:0 5:0 6:0 7:0 8:0 9:-100 10:0 11:0 12:0 13:0 14:0 15:0 16:0 17:0 18:0 19:100 20:0 21:40 22:40 23:20 24:0 25:0 26:20 27:0 28:20 29:40 30:0 31:20 32:20 33:0 34:0 35:0 36:20 37:20 38:20 39:0 40:0 41:83 42:45 43:25 
2.286280640981361 1:0 2:0 3:0 4:0 5:0 6:0 7:0 8:0 9:0 10:0 11:0 12:0 13:100 14:0 15:0 16:0 17:0 18:0 19:0 20:-100 21:0 22:60 23:0 24:0 25:0 26:0 27:0 28:0 29:40 30:0 31:0 32:0 33:0 34:0 35:0 36:20 37:20 38:60 39:20 40:40 41:87 42:50 43:69 
0.5397974756490801 1:-100 2:0 3:0 4:0 5:0 6:0 7:0 8:0 9:0 10:0 11:0 12:100 13:0 14:0 15:0 16:0 17:0 18:0 19:0 20:0 21:0 22:100 23:20 24:0 25:0 26:60 27:20 28:20 29:20 30:20 31:80 32:40 33:80 34:20 35:40 36:40 37:0 38:40 39:40 40:0 41:0 42:32 43:64 
-3.36402618367568 1:0 2:0 3:0 4:0 5:0 6:0 7:0 8:0 9:100 10:0 11:0 12:0 13:0 14:0 15:0 16:0 17:0 18:0 19:0 20:-100 21:0 22:60 23:0 24:0 25:0 26:0 27:0 28:0 29:40 30:0 31:0 32:0 33:0 34:0 35:0 36:20 37:20 38:60 39:20 40:40 41:87 42:50 43:69 
-2.475227990144682 1:0 2:0 3:0 4:0 5:100 6:0 7:0 8:0 9:0 10:0 11:0 12:0 13:0 14:0 15:0 16:0 17:0 18:0 19:0 20:-100 21:0 22:60 23:0 24:0 25:0 26:0 27:0 28:0 29:40 30:0 31:0 32:0 33:0 34:0 35:0 36:20 37:20 38:60 39:20 40:40 41:87 42:50 43:69 
8 1:0 2:0 3:0 4:0 5:0 6:0 7:0 8:100 9:0 10:0 11:0 12:0 13:0 14:0 15:0 16:0 17:0 18:0 19:0 20:-100 21:0 22:60 23:0 24:0 25:0 26:0 27:0 28:0 29:40 30:0 31:0 32:0 33:0 34:0 35:0 36:20 37:20 38:60 39:20 40:40 41:87 42:50 43:69 
3.486819925476213 1:0 2:0 3:0 4:0 5:0 6:0 7:0 8:0 9:0 10:0 11:0 12:0 13:0 14:0 15:0 16:100 17:0 18:0 19:0 20:-100 21:0 22:60 23:0 24:0 25:0 26:0 27:0 28:0 29:40 30:0 31:0 32:0 33:0 34:0 35:0 36:20 37:20 38:60 39:20 40:40 41:87 42:50 43:69 
0.1090567441344235 1:0 2:0 3:0 4:0 5:0 6:0 7:0 8:0 9:0 10:0 11:0 12:0 13:0 14:100 15:0 16:0 17:0 18:0 19:0 20:-100 21:0 22:60 23:0 24:0 25:0 26:0 27:0 28:0 29:40 30:0 31:0 32:0 33:0 34:0 35:0 36:20 37:20 38:60 39:20 40:40 41:87 42:50 43:69 
-4.840909423154567 1:0 2:0 3:100 4:0 5:0 6:0 7:0 8:0 9:0 10:0 11:0 12:0 13:0 14:0 15:0 16:0 17:0 18:0 19:0 20:-100 21:0 22:60 23:0 24:0 25:0 26:0 27:0 28:0 29:40 30:0 31:0 32:0 33:0 34:0 35:0 36:20 37:20 38:60 39:20 40:40 41:87 42:50 43:69 
-7.288452296220106 1:100 2:0 3:0 4:0 5:0 6:0 7:0 8:-100 9:0 10:0 11:0 12:0 13:0 14:0 15:0 16:0 17:0 18:0 19:0 20:0 21:40 22:160 23:60 24:40 25:20 26:0 27:0 28:60 29:40 30:20 31:20 32:60 33:0 34:0 35:20 36:20 37:40 38:0 39:0 40:40 41:9 42:51 43:51 
-2.167809134219255 1:0 2:100 3:0 4:0 5:0 6:0 7:0 8:0 9:0 10:0 11:0 12:0 13:0 14:0 15:0 16:0 17:0 18:0 19:0 20:-100 21:0 22:60 23:0 24:0 25:0 26:0 27:0 28:0 29:40 30:0 31:0 32:0 33:0 34:0 35:0 36:20 37:20 38:60 39:20 40:40 41:87 42:50 43:69 
-0.3265370774306587 1:0 2:0 3:0 4:100 5:0 6:0 7:0 8:0 9:0 10:0 11:0 12:0 13:0 14:0 15:0 16:0 17:0 18:0 19:0 20:-100 21:0 22:60 23:0 24:0 25:0 26:0 27:0 28:0 29:40 30:0 31:0 32:0 33:0 34:0 35:0 36:20 37:20 38:60 39:20 40:40 41:87 42:50 43:69 
0.567242361412547 1:0 2:0 3:0 4:0 5:0 6:0 7:0 8:0 9:0 10:0 11:0 12:0 13:0 14:0 15:100 16:0 17:0 18:0 19:0 20:-100 21:0 22:60 23:0 24:0 25:0 26:0 27:0 28:0 29:40 30:0 31:0 32:0 33:0 34:0 35:0 36:20 37:20 38:60 39:20 40:40 41:87 42:50 43:69 
3.618817352052483 1:0 2:0 3:0 4:0 5:0 6:0 7:0 8:0 9:0 10:0 11:100 12:0 13:0 14:0 15:0 16:0 17:0 18:0 19:0 20:-100 21:0 22:60 23:0 24:0 25:0 26:0 27:0 28:0 29:40 30:0 31:0 32:0 33:0 34:0 35:0 36:20 37:20 38:60 39:20 40:40 41:87 42:50 43:69 
-4.953702209545078 1:0 2:0 3:0 4:0 5:0 6:0 7:0 8:0 9:0 10:100 11:0 12:0 13:0 14:0 15:0 16:0 17:0 18:0 19:0 20:-100 21:0 22:60 23:0 24:0 25:0 26:0 27:0 28:0 29:40 30:0 31:0 32:0 33:0 34:0 35:0 36:20 37:20 38:60 39:20 40:40 41:87 42:50 43:69 
5.449978159527243 1:0 2:0 3:0 4:0 5:0 6:0 7:0 8:0 9:0 10:0 11:0 12:0 13:0 14:0 15:0 16:0 17:100 18:0 19:0 20:-100 21:0 22:60 23:0 24:0 25:0 26:0 27:0 28:0 29:40 30:0 31:0 32:0 33:0 34:0 35:0 36:20 37:20 38:60 39:20 40:40 41:87 42:50 43:69 
-1.854958798725398 1:100 2:0 3:0 4:0 5:0 6:0 7:0 8:0 9:0 10:0 11:0 12:0 13:0 14:0 15:0 16:0 17:0 18:0 19:0 20:-100 21:0 22:60 23:0 24:0 25:0 26:0 27:0 28:0 29:40 30:0 31:0 32:0 33:0 34:0 35:0 36:20 37:20 38:60 39:20 40:40 41:87 42:50 43:69 
-2.584622613861912 1:0 2:0 3:0 4:0 5:0 6:100 7:0 8:0 9:0 10:0 11:0 12:0 13:0 14:0 15:0 16:0 17:0 18:0 19:0 20:-100 21:0 22:60 23:0 24:0 25:0 26:0 27:0 28:0 29:40 30:0 31:0 32:0 33:0 34:0 35:0 36:20 37:20 38:60 39:20 40:40 41:87 42:50 43:69 
-2.60927907544459 1:0 2:0 3:0 4:0 5:0 6:0 7:0 8:0 9:0 10:0 11:0 12:100 13:0 14:0 15:0 16:0 17:0 18:0 19:0 20:-100 21:0 22:60 23:0 24:0 25:0 26:0 27:0 28:0 29:40 30:0 31:0 32:0 33:0 34:0 35:0 36:20 37:20 38:60 39:20 40:40 41:87 42:50 43:69 
1.450017060860477 1:0 2:0 3:0 4:0 5:-100 6:0 7:0 8:0 9:100 10:0 11:0 12:0 13:0 14:0 15:0 16:0 17:0 18:0 19:0 20:0 21:100 22:20 23:40 24:0 25:100 26:20 27:0 28:60 29:60 30:20 31:20 32:0 33:0 34:20 35:20 36:40 37:20 38:40 39:20 40:40 41:35 42:50 43:60 
0.9248242428709352 1:-100 2:0 3:0 4:100 5:0 6:0 7:0 8:0 9:0 10:0 11:0 12:0 13:0 14:0 15:0 16:0 17:0 18:0 19:0 20:0 21:80 22:100 23:60 24:40 25:60 26:20 27:20 28:80 29:80 30:0 31:0 32:20 33:20 34:0 35:80 36:20 37:20 38:40 39:40 40:40 41:4 42:38 43:65 
2.542785040690102 1:0 2:0 3:100 4:0 5:0 6:0 7:0 8:0 9:0 10:0 11:0 12:-100 13:0 14:0 15:0 16:0 17:0 18:0 19:0 20:0 21:40 22:60 23:20 24:0 25:20 26:20 27:20 28:20 29:140 30:20 31:20 32:20 33:0 34:0 35:60 36:0 37:40 38:40 39:20 40:20 41:42 42:54 43:25 
-5.301764549305177 1:0 2:100 3:0 4:0 5:0 6:0 7:0 8:0 9:-100 10:0 11:0 12:0 13:0 14:0 15:0 16:0 17:0 18:0 19:0 20:0 21:0 22:80 23:60 24:40 25:40 26:80 27:40 28:40 29:80 30:0 31:20 32:20 33:40 34:0 35:40 36:20 37:20 38:20 39:40 40:0 41:0 42:19 43:64 
-4.026004060896379 1:0 2:0 3:0 4:0 5:0 6:0 7:0 8:0 9:0 10:0 11:0 12:0 13:0 14:0 15:0 16:0 17:0 18:100 19:0 20:-100 21:20 22:20 23:20 24:20 25:0 26:60 27:40 28:40 29:40 30:0 31:20 32:0 33:40 34:0 35:20 36:40 37:0 38:0 39:20 40:0 41:65 42:45 43:74 
4.349737827906345 1:-100 2:0 3:100 4:0 5:0 6:0 7:0 8:0 9:0 10:0 11:0 12:0 13:0 14:0 15:0 16:0 17:0 18:0 19:0 20:0 21:0 22:100 23:20 24:0 25:0 26:60 27:20 28:20 29:20 30:20 31:80 32:40 33:80 34:20 35:40 36:40 37:0 38:40 39:40 40:0 41:0 42:32 43:64 
0.02751941011423109 1:0 2:0 3:0 4:0 5:0 6:0 7:0 8:-100 9:0 10:0 11:0 12:0 13:0 14:0 15:0 16:0 17:100 18:0 19:0 20:0 21:20 22:40 23:20 24:20 25:40 26:20 27:20 28:20 29:40 30:0 31:20 32:20 33:20 34:0 35:40 36:40 37:20 38:40 39:40 40:0 41:49 42:19 43:64 
0.0347438851617948 1:0 2:0 3:0 4:0 5:0 6:0 7:0 8:-100 9:0 10:0 11:0 12:0 13:0 14:0 15:0 16:0 17:100 18:0 19:0 20:0 21:20 22:40 23:20 24:20 25:40 26:20 27:20 28:20 29:40 30:0 31:20 32:20 33:20 34:0 35:40 36:40 37:20 38:40 39:40 40:0 41:49 42:19 43:64 
0.1341119523901908 1:0 2:-100 3:0 4:0 5:0 6:0 7:0 8:0 9:100 10:0 11:0 12:0 13:0 14:0 15:0 16:0 17:0 18:0 19:0 20:0 21:40 22:80 23:40 24:40 25:20 26:20 27:20 28:20 29:60 30:20 31:40 32:20 33:20 34:0 35:100 36:40 37:40 38:0 39:0 40:40 41:2 42:21 43:51 
5.208839150341626 1:0 2:0 3:0 4:0 5:0 6:0 7:0 8:0 9:0 10:0 11:0 12:0 13:0 14:0 15:0 16:0 17:0 18:-100 19:100 20:0 21:80 22:80 23:60 24:0 25:0 26:0 27:0 28:0 29:20 30:0 31:20 32:0 33:0 34:0 35:0 36:60 37:0 38:20 39:20 40:20 41:56 42:44 43:25 
-0.1469715241123134 1:0 2:0 3:0 4:0 5:0 6:0 7:0 8:-100 9:100 10:0 11:0 12:0 13:0 14:0 15:0 16:0 17:0 18:0 19:0 20:0 21:20 22:40 23:20 24:20 25:40 26:20 27:20 28:20 29:40 30:0 31:20 32:20 33:20 34:0 35:40 36:40 37:20 38:40 39:40 40:0 41:49 42:19 43:64 
-8 1:0 2:0 3:0 4:0 5:0 6:0 7:0 8:0 9:100 10:0 11:0 12:0 13:0 14:0 15:0 16:0 17:0 18:-100 19:0 20:0 21:40 22:80 23:0 24:0 25:0 26:20 27:0 28:40 29:20 30:0 31:20 32:0 33:0 34:20 35:0 36:80 37:20 38:20 39:0 40:0 41:70 42:28 43:25 
6.331252515650267 1:0 2:0 3:0 4:0 5:0 6:0 7:0 8:0 9:100 10:0 11:0 12:0 13:0 14:0 15:0 16:0 17:0 18:-100 19:0 20:0 21:40 22:80 23:0 24:0 25:0 26:20 27:0 28:40 29:20 30:0 31:20 32:0 33:0 34:20 35:0 36:80 37:20 38:20 39:0 40:0 41:70 42:28 43:25 
-4.359924685849349 1:0 2:0 3:0 4:0 5:0 6:0 7:0 8:0 9:0 10:0 11:0 12:0 13:0 14:100 15:0 16:0 17:0 18:0 19:-100 20:0 21:20 22:20 23:40 24:0 25:0 26:20 27:40 28:0 29:40 30:20 31:0 32:60 33:0 34:0 35:40 36:20 37:40 38:0 39:20 40:20 41:66 42:14 43:39 
5.519471620184075 1:0 2:0 3:0 4:0 5:0 6:0 7:0 8:0 9:0 10:0 11:0 12:0 13:0 14:100 15:0 16:0 17:0 18:0 19:-100 20:0 21:20 22:20 23:40 24:0 25:0 26:20 27:40 28:0 29:40 30:20 31:0 32:60 33:0 34:0 35:40 36:20 37:40 38:0 39:20 40:20 41:66 42:47 43:62 
0.0433787881783149 1:0 2:0 3:0 4:0 5:0 6:0 7:0 8:0 9:0 10:0 11:0 12:-100 13:100 14:0 15:0 16:0 17:0 18:0 19:0 20:0 21:80 22:80 23:60 24:20 25:20 26:0 27:60 28:20 29:20 30:20 31:20 32:0 33:0 34:20 35:20 36:20 37:0 38:20 39:0 40:0 41:39 42:50 43:25 
-6.51683939274495 1:0 2:0 3:0 4:0 5:100 6:0 7:-100 8:0 9:0 10:0 11:0 12:0 13:0 14:0 15:0 16:0 17:0 18:0 19:0 20:0 21:100 22:60 23:0 24:20 25:20 26:40 27:40 28:20 29:60 30:20 31:0 32:0 33:0 34:0 35:0 36:120 37:20 38:20 39:0 40:60 41:35 42:50 43:25 
8 1:0 2:0 3:0 4:0 5:100 6:0 7:-100 8:0 9:0 10:0 11:0 12:0 13:0 14:0 15:0 16:0 17:0 18:0 19:0 20:0 21:100 22:60 23:0 24:20 25:20 26:40 27:40 28:20 29:60 30:20 31:0 32:0 33:0 34:0 35:0 36:120 37:20 38:20 39:0 40:60 41:35 42:50 43:24 
-0.5531591288583486 1:0 2:0 3:0 4:0 5:0 6:0 7:0 8:0 9:100 10:0 11:0 12:0 13:0 14:0 15:-100 16:0 17:0 18:0 19:0 20:0 21:20 22:0 23:40 24:0 25:60 26:0 27:80 28:40 29:60 30:20 31:20 32:40 33:60 34:0 35:60 36:40 37:20 38:0 39:40 40:20 41:15 42:50 43:39 
4.91504021510043 1:0 2:0 3:0 4:0 5:0 6:0 7:-100 8:100 9:0 10:0 11:0 12:0 13:0 14:0 15:0 16:0 17:0 18:0 19:0 20:0 21:60 22:80 23:40 24:20 25:40 26:40 27:20 28:40 29:80 30:0 31:20 32:20 33:60 34:0 35:40 36:40 37:60 38:60 39:40 40:20 41:8 42:19 43:64 
-6.132544341686619 1:0 2:0 3:0 4:0 5:0 6:0 7:0 8:0 9:100 10:-100 11:0 12:0 13:0 14:0 15:0 16:0 17:0 18:0 19:0 20:0 21:0 22:20 23:0 24:20 25:0 26:0 27:40 28:0 29:20 30:0 31:40 32:20 33:40 34:0 35:20 36:60 37:0 38:0 39:40 40:20 41:73 42:30 43:56 
-7.051409561436232 1:-100 2:0 3:0 4:0 5:0 6:0 7:0 8:0 9:0 10:0 11:100 12:0 13:0 14:0 15:0 16:0 17:0 18:0 19:0 20:0 21:0 22:20 23:40 24:0 25:20 26:0 27:20 28:20 29:20 30:0 31:20 32:20 33:0 34:0 35:40 36:20 37:20 38:40 39:20 40:20 41:65 42:19 43:64 
8 1:100 2:0 3:0 4:0 5:0 6:0 7:0 8:0 9:0 10:0 11:0 12:-100 13:0 14:0 15:0 16:0 17:0 18:0 19:0 20:0 21:80 22:80 23:60 24:20 25:20 26:0 27:60 28:20 29:20 30:20 31:20 32:0 33:0 34:20 35:20 36:20 37:0 38:20 39:0 40:0 41:39 42:50 43:25 
-5.205358206832904 1:0 2:0 3:0 4:0 5:0 6:0 7:0 8:0 9:0 10:0 11:0 12:0 13:0 14:0 15:0 16:0 17:0 18:0 19:-100 20:100 21:20 22:60 23:20 24:20 25:0 26:0 27:0 28:40 29:40 30:20 31:20 32:20 33:0 34:0 35:80 36:40 37:40 38:0 39:0 40:80 41:49 42:53 43:25 
2.713607124053475 1:0 2:-100 3:0 4:0 5:0 6:0 7:0 8:0 9:0 10:0 11:0 12:0 13:0 14:0 15:100 16:0 17:0 18:0 19:0 20:0 21:0 22:60 23:40 24:0 25:40 26:40 27:20 28:0 29:60 30:20 31:0 32:40 33:0 34:0 35:60 36:20 37:0 38:20 39:60 40:20 41:67 42:55 43:15 
1.756609569350012 1:-100 2:0 3:0 4:0 5:0 6:0 7:0 8:0 9:0 10:0 11:0 12:0 13:0 14:0 15:100 16:0 17:0 18:0 19:0 20:0 21:0 22:20 23:40 24:0 25:20 26:0 27:20 28:20 29:20 30:0 31:20 32:20 33:0 34:0 35:40 36:20 37:20 38:40 39:20 40:20 41:65 42:19 43:64 
1.228883343500268 1:-100 2:0 3:100 4:0 5:0 6:0 7:0 8:0 9:0 10:0 11:0 12:0 13:0 14:0 15:0 16:0 17:0 18:0 19:0 20:0 21:0 22:20 23:0 24:0 25:0 26:20 27:20 28:20 29:40 30:20 31:20 32:20 33:40 34:20 35:40 36:0 37:0 38:0 39:60 40:40 41:60 42:19 43:64 
5.087504336977873 1:0 2:0 3:0 4:0 5:0 6:0 7:0 8:0 9:0 10:0 11:0 12:0 13:0 14:0 15:0 16:0 17:100 18:-100 19:0 20:0 21:80 22:80 23:60 24:0 25:0 26:0 27:0 28:0 29:20 30:0 31:20 32:0 33:0 34:0 35:0 36:60 37:0 38:20 39:20 40:20 41:56 42:44 43:25 
0.5980645620281322 1:0 2:0 3:0 4:0 5:0 6:0 7:0 8:0 9:0 10:0 11:100 12:0 13:0 14:0 15:0 16:0 17:0 18:0 19:0 20:-100 21:0 22:20 23:20 24:0 25:40 26:0 27:20 28:80 29:100 30:20 31:40 32:20 33:40 34:40 35:40 36:0 37:0 38:60 39:40 40:40 41:34 42:39 43:53 
-3.44425230939864 1:0 2:0 3:0 4:0 5:0 6:0 7:0 8:0 9:0 10:0 11:100 12:0 13:0 14:0 15:0 16:0 17:0 18:0 19:0 20:-100 21:0 22:20 23:20 24:0 25:40 26:0 27:20 28:80 29:100 30:20 31:40 32:20 33:40 34:40 35:40 36:0 37:0 38:60 39:40 40:40 41:34 42:21 43:50 
6.20224422105642 1:100 2:0 3:0 4:0 5:0 6:0 7:0 8:0 9:0 10:0 11:0 12:0 13:-100 14:0 15:0 16:0 17:0 18:0 19:0 20:0 21:100 22:80 23:60 24:0 25:0 26:0 27:60 28:20 29:40 30:20 31:20 32:20 33:0 34:0 35:0 36:60 37:60 38:40 39:0 40:20 41:0 42:50 43:25 
-6.105354538336108 1:0 2:0 3:0 4:0 5:0 6:0 7:0 8:0 9:0 10:0 11:0 12:100 13:-100 14:0 15:0 16:0 17:0 18:0 19:0 20:0 21:100 22:80 23:60 24:0 25:0 26:0 27:60 28:20 29:40 30:20 31:20 32:20 33:0 34:0 35:0 36:60 37:60 38:40 39:0 40:20 41:0 42:50 43:25 
-0.5994938857072283 1:0 2:0 3:0 4:0 5:0 6:0 7:0 8:0 9:0 10:0 11:100 12:0 13:-100 14:0 15:0 16:0 17:0 18:0 19:0 20:0 21:100 22:80 23:60 24:0 25:0 26:0 27:60 28:20 29:40 30:20 31:20 32:20 33:0 34:0 35:0 36:60 37:60 38:40 39:0 40:20 41:0 42:50 43:25 
-8 1:0 2:0 3:0 4:0 5:0 6:0 7:0 8:0 9:0 10:0 11:100 12:0 13:-100 14:0 15:0 16:0 17:0 18:0 19:0 20:0 21:100 22:80 23:60 24:0 25:0 26:0 27:60 28:20 29:40 30:20 31:20 32:20 33:0 34:0 35:0 36:60 37:60 38:40 39:0 40:20 41:0 42:50 43:25 
-8 1:0 2:0 3:0 4:0 5:0 6:0 7:0 8:0 9:0 10:0 11:0 12:0 13:0 14:0 15:0 16:0 17:0 18:0 19:100 20:-100 21:60 22:0 23:40 24:0 25:0 26:40 27:40 28:20 29:60 30:20 31:0 32:0 33:20 34:0 35:80 36:20 37:20 38:0 39:0 40:0 41:34 42:28 43:65 
8 1:0 2:0 3:0 4:0 5:0 6:0 7:0 8:0 9:0 10:0 11:0 12:0 13:0 14:0 15:0 16:0 17:0 18:0 19:100 20:-100 21:60 22:0 23:40 24:0 25:0 26:40 27:40 28:20 29:60 30:20 31:0 32:0 33:20 34:0 35:80 36:20 37:20 38:0 39:0 40:0 41:34 42:32 43:65 
-4.618155893043532 1:0 2:0 3:-100 4:0 5:0 6:0 7:0 8:0 9:100 10:0 11:0 12:0 13:0 14:0 15:0 16:0 17:0 18:0 19:0 20:0 21:20 22:60 23:20 24:0 25:0 26:20 27:40 28:80 29:100 30:40 31:40 32:20 33:0 34:0 35:20 36:40 37:20 38:40 39:20 40:60 41:10 42:45 43:25 
1.199149416844644 1:0 2:0 3:0 4:0 5:0 6:0 7:-100 8:0 9:100 10:0 11:0 12:0 13:0 14:0 15:0 16:0 17:0 18:0 19:0 20:0 21:20 22:40 23:20 24:0 25:0 26:20 27:20 28:20 29:20 30:20 31:0 32:20 33:0 34:20 35:0 36:20 37:20 38:0 39:0 40:40 41:56 42:45 43:25 
-8 1:0 2:0 3:0 4:0 5:0 6:0 7:-100 8:0 9:100 10:0 11:0 12:0 13:0 14:0 15:0 16:0 17:0 18:0 19:0 20:0 21:20 22:40 23:20 24:0 25:0 26:20 27:20 28:20 29:20 30:20 31:0 32:20 33:0 34:20 35:0 36:20 37:20 38:0 39:0 40:40 41:56 42:45 43:25 
-3.311124809457547 1:0 2:0 3:0 4:0 5:0 6:0 7:0 8:0 9:0 10:-100 11:0 12:0 13:0 14:0 15:0 16:0 17:0 18:0 19:100 20:0 21:0 22:0 23:0 24:0 25:0 26:20 27:0 28:60 29:0 30:0 31:60 32:40 33:20 34:0 35:80 36:0 37:0 38:0 39:40 40:40 41:91 42:67 43:20 
-8 1:0 2:0 3:0 4:0 5:0 6:0 7:0 8:0 9:-100 10:100 11:0 12:0 13:0 14:0 15:0 16:0 17:0 18:0 19:0 20:0 21:60 22:100 23:60 24:40 25:40 26:0 27:20 28:40 29:20 30:0 31:0 32:0 33:20 34:0 35:60 36:0 37:40 38:20 39:60 40:40 41:7 42:25 43:57 
-8 1:0 2:0 3:0 4:0 5:0 6:0 7:0 8:0 9:-100 10:100 11:0 12:0 13:0 14:0 15:0 16:0 17:0 18:0 19:0 20:0 21:60 22:100 23:60 24:40 25:40 26:0 27:20 28:40 29:20 30:0 31:0 32:0 33:20 34:0 35:60 36:0 37:40 38:20 39:60 40:40 41:7 42:28 43:62 
5.379774147198142 1:0 2:0 3:0 4:0 5:0 6:0 7:0 8:0 9:-100 10:100 11:0 12:0 13:0 14:0 15:0 16:0 17:0 18:0 19:0 20:0 21:60 22:100 23:60 24:40 25:40 26:0 27:20 28:40 29:20 30:0 31:0 32:0 33:20 34:0 35:60 36:0 37:40 38:20 39:60 40:40 41:7 42:39 43:65 
7.309889798229077 1:0 2:0 3:0 4:0 5:100 6:0 7:-100 8:0 9:0 10:0 11:0 12:0 13:0 14:0 15:0 16:0 17:0 18:0 19:0 20:0 21:20 22:40 23:20 24:0 25:0 26:20 27:20 28:20 29:20 30:20 31:0 32:20 33:0 34:20 35:0 36:20 37:20 38:0 39:0 40:40 41:56 42:45 43:25 
-8 1:0 2:0 3:0 4:0 5:0 6:0 7:-100 8:100 9:0 10:0 11:0 12:0 13:0 14:0 15:0 16:0 17:0 18:0 19:0 20:0 21:20 22:40 23:20 24:0 25:0 26:20 27:20 28:20 29:20 30:20 31:0 32:20 33:0 34:20 35:0 36:20 37:20 38:0 39:0 40:40 41:56 42:45 43:25 
-6.051764566542601 1:-100 2:100 3:0 4:0 5:0 6:0 7:0 8:0 9:0 10:0 11:0 12:0 13:0 14:0 15:0 16:0 17:0 18:0 19:0 20:0 21:0 22:20 23:20 24:0 25:20 26:60 27:0 28:20 29:40 30:0 31:0 32:0 33:20 34:0 35:60 36:0 37:60 38:20 39:20 40:0 41:60 42:19 43:64 
0.1565093956322556 1:0 2:0 3:0 4:0 5:0 6:0 7:-100 8:0 9:0 10:0 11:0 12:0 13:0 14:0 15:100 16:0 17:0 18:0 19:0 20:0 21:20 22:20 23:0 24:0 25:0 26:0 27:0 28:40 29:0 30:20 31:60 32:40 33:0 34:0 35:40 36:20 37:0 38:40 39:20 40:0 41:38 42:50 43:25 
7.659171357344482 1:0 2:0 3:0 4:0 5:0 6:0 7:0 8:-100 9:0 10:0 11:0 12:0 13:0 14:0 15:0 16:0 17:0 18:0 19:0 20:100 21:40 22:40 23:20 24:0 25:20 26:40 27:0 28:0 29:60 30:0 31:0 32:80 33:0 34:0 35:80 36:0 37:0 38:0 39:0 40:40 41:22 42:14 43:41 
-8 1:0 2:0 3:0 4:0 5:0 6:0 7:0 8:-100 9:0 10:0 11:0 12:0 13:0 14:0 15:0 16:0 17:0 18:0 19:0 20:100 21:40 22:40 23:20 24:0 25:20 26:40 27:0 28:0 29:60 30:0 31:0 32:80 33:0 34:0 35:80 36:0 37:0 38:0 39:0 40:40 41:22 42:46 43:64 
5.209466168998525 1:0 2:0 3:0 4:0 5:0 6:0 7:0 8:0 9:100 10:0 11:0 12:0 13:0 14:0 15:0 16:0 17:0 18:0 19:-100 20:0 21:40 22:20 23:80 24:0 25:20 26:0 27:60 28:40 29:40 30:20 31:40 32:40 33:0 34:0 35:20 36:20 37:0 38:0 39:60 40:80 41:8 42:45 43:25 
8 1:0 2:0 3:0 4:0 5:0 6:0 7:0 8:0 9:100 10:0 11:0 12:0 13:-100 14:0 15:0 16:0 17:0 18:0 19:0 20:0 21:100 22:80 23:60 24:0 25:0 26:0 27:60 28:20 29:40 30:20 31:20 32:20 33:0 34:0 35:0 36:60 37:60 38:40 39:0 40:20 41:0 42:50 43:25 
-8 1:0 2:0 3:0 4:0 5:0 6:0 7:0 8:0 9:0 10:0 11:0 12:0 13:0 14:-100 15:0 16:0 17:100 18:0 19:0 20:0 21:0 22:80 23:60 24:20 25:60 26:0 27:20 28:0 29:20 30:20 31:40 32:20 33:0 34:0 35:20 36:60 37:0 38:80 39:0 40:0 41:23 42:55 43:4 
-1.162380288562227 1:0 2:0 3:0 4:0 5:0 6:0 7:0 8:0 9:0 10:0 11:0 12:0 13:0 14:-100 15:0 16:0 17:100 18:0 19:0 20:0 21:0 22:80 23:60 24:20 25:60 26:0 27:20 28:0 29:20 30:20 31:40 32:20 33:0 34:0 35:20 36:60 37:0 38:80 39:0 40:0 41:23 42:55 43:4 
8 1:0 2:0 3:0 4:0 5:0 6:0 7:0 8:0 9:0 10:0 11:0 12:0 13:0 14:-100 15:0 16:0 17:100 18:0 19:0 20:0 21:0 22:80 23:60 24:20 25:60 26:0 27:20 28:0 29:20 30:20 31:40 32:20 33:0 34:0 35:20 36:60 37:0 38:80 39:0 40:0 41:23 42:55 43:4 
2.936857792244671 1:0 2:-100 3:0 4:0 5:0 6:0 7:0 8:100 9:0 10:0 11:0 12:0 13:0 14:0 15:0 16:0 17:0 18:0 19:0 20:0 21:100 22:120 23:20 24:20 25:40 26:0 27:60 28:60 29:60 30:20 31:0 32:80 33:0 34:20 35:60 36:60 37:20 38:60 39:60 40:80 41:7 42:50 43:20 
-7.436207126991137 1:0 2:0 3:0 4:100 5:0 6:0 7:0 8:0 9:0 10:0 11:0 12:0 13:-100 14:0 15:0 16:0 17:0 18:0 19:0 20:0 21:100 22:80 23:60 24:0 25:0 26:0 27:60 28:20 29:40 30:20 31:20 32:20 33:0 34:0 35:0 36:60 37:60 38:40 39:0 40:20 41:0 42:50 43:25 
8 1:0 2:-100 3:0 4:0 5:0 6:0 7:0 8:0 9:100 10:0 11:0 12:0 13:0 14:0 15:0 16:0 17:0 18:0 19:0 20:0 21:100 22:120 23:20 24:20 25:40 26:0 27:60 28:60 29:60 30:20 31:0 32:80 33:0 34:20 35:60 36:60 37:20 38:60 39:60 40:80 41:7 42:50 43:20 
0.5104336349183713 1:100 2:0 3:-100 4:0 5:0 6:0 7:0 8:0 9:0 10:0 11:0 12:0 13:0 14:0 15:0 16:0 17:0 18:0 19:0 20:0 21:20 22:60 23:20 24:0 25:0 26:20 27:40 28:80 29:100 30:40 31:40 32:20 33:0 34:0 35:20 36:40 37:20 38:40 39:20 40:60 41:10 42:45 43:25 
-3.062094738475253 1:100 2:0 3:-100 4:0 5:0 6:0 7:0 8:0 9:0 10:0 11:0 12:0 13:0 14:0 15:0 16:0 17:0 18:0 19:0 20:0 21:0 22:40 23:20 24:0 25:20 26:20 27:40 28:40 29:20 30:0 31:60 32:40 33:0 34:0 35:60 36:20 37:0 38:20 39:20 40:20 41:51 42:45 43:25 
-0.006300508835501898 1:100 2:0 3:-100 4:0 5:0 6:0 7:0 8:0 9:0 10:0 11:0 12:0 13:0 14:0 15:0 16:0 17:0 18:0 19:0 20:0 21:0 22:40 23:20 24:0 25:20 26:20 27:40 28:40 29:20 30:0 31:60 32:40 33:0 34:0 35:60 36:20 37:0 38:20 39:20 40:20 41:51 42:45 43:25 
3.676211561412052 1:0 2:0 3:-100 4:0 5:0 6:0 7:0 8:0 9:0 10:0 11:0 12:100 13:0 14:0 15:0 16:0 17:0 18:0 19:0 20:0 21:0 22:40 23:20 24:0 25:20 26:20 27:40 28:40 29:20 30:0 31:60 32:40 33:0 34:0 35:60 36:20 37:0 38:20 39:20 40:20 41:51 42:45 43:25 
-2.075608056410596 1:0 2:0 3:0 4:0 5:0 6:0 7:0 8:0 9:100 10:0 11:0 12:-100 13:0 14:0 15:0 16:0 17:0 18:0 19:0 20:0 21:40 22:120 23:20 24:20 25:20 26:0 27:20 28:80 29:60 30:20 31:20 32:20 33:80 34:20 35:60 36:0 37:0 38:20 39:20 40:20 41:41 42:60 43:37 
0.8955236879030384 1:0 2:0 3:0 4:0 5:0 6:0 7:0 8:0 9:100 10:0 11:0 12:0 13:0 14:0 15:0 16:-100 17:0 18:0 19:0 20:0 21:0 22:0 23:40 24:20 25:60 26:0 27:40 28:0 29:40 30:0 31:20 32:40 33:20 34:0 35:60 36:0 37:20 38:20 39:40 40:20 41:80 42:50 43:39 
4.080057898609851 1:0 2:0 3:0 4:0 5:0 6:0 7:-100 8:0 9:0 10:0 11:100 12:0 13:0 14:0 15:0 16:0 17:0 18:0 19:0 20:0 21:20 22:100 23:20 24:20 25:0 26:0 27:0 28:20 29:20 30:20 31:40 32:40 33:40 34:20 35:60 36:0 37:0 38:0 39:0 40:20 41:63 42:60 43:37 
-8 1:0 2:0 3:100 4:-100 5:0 6:0 7:0 8:0 9:0 10:0 11:0 12:0 13:0 14:0 15:0 16:0 17:0 18:0 19:0 20:0 21:120 22:80 23:0 24:0 25:60 26:0 27:20 28:60 29:40 30:20 31:60 32:60 33:40 34:20 35:60 36:20 37:0 38:40 39:40 40:40 41:0 42:22 43:53 
8 1:0 2:0 3:100 4:-100 5:0 6:0 7:0 8:0 9:0 10:0 11:0 12:0 13:0 14:0 15:0 16:0 17:0 18:0 19:0 20:0 21:120 22:80 23:0 24:0 25:60 26:0 27:20 28:60 29:40 30:20 31:60 32:60 33:40 34:20 35:60 36:20 37:0 38:40 39:40 40:40 41:0 42:50 43:82 
-5.748796988375844 1:0 2:0 3:100 4:-100 5:0 6:0 7:0 8:0 9:0 10:0 11:0 12:0 13:0 14:0 15:0 16:0 17:0 18:0 19:0 20:0 21:120 22:80 23:0 24:0 25:60 26:0 27:20 28:60 29:40 30:20 31:60 32:60 33:40 34:20 35:60 36:20 37:0 38:40 39:40 40:40 41:0 42:67 43:80 
1.650835017461428 1:0 2:0 3:0 4:0 5:0 6:100 7:-100 8:0 9:0 10:0 11:0 12:0 13:0 14:0 15:0 16:0 17:0 18:0 19:0 20:0 21:20 22:100 23:20 24:20 25:0 26:0 27:0 28:20 29:20 30:20 31:40 32:40 33:40 34:20 35:60 36:0 37:0 38:0 39:0 40:20 41:63 42:60 43:37 
8 1:0 2:0 3:0 4:0 5:0 6:0 7:0 8:0 9:100 10:-100 11:0 12:0 13:0 14:0 15:0 16:0 17:0 18:0 19:0 20:0 21:100 22:40 23:40 24:0 25:20 26:0 27:0 28:20 29:20 30:0 31:0 32:20 33:0 34:0 35:20 36:20 37:0 38:20 39:20 40:40 41:61 42:44 43:25 
8 1:0 2:0 3:0 4:0 5:0 6:0 7:0 8:0 9:100 10:0 11:0 12:0 13:0 14:-100 15:0 16:0 17:0 18:0 19:0 20:0 21:120 22:0 23:40 24:0 25:40 26:0 27:20 28:20 29:120 30:20 31:0 32:20 33:80 34:20 35:0 36:60 37:40 38:40 39:60 40:20 41:38 42:8 43:25 
-5.439441157444043 1:0 2:0 3:0 4:0 5:0 6:0 7:0 8:0 9:100 10:0 11:0 12:0 13:0 14:-100 15:0 16:0 17:0 18:0 19:0 20:0 21:120 22:0 23:40 24:0 25:40 26:0 27:20 28:20 29:120 30:20 31:0 32:20 33:80 34:20 35:0 36:60 37:40 38:40 39:60 40:20 41:38 42:42 43:25 
8 1:0 2:0 3:0 4:0 5:0 6:0 7:0 8:100 9:0 10:0 11:-100 12:0 13:0 14:0 15:0 16:0 17:0 18:0 19:0 20:0 21:100 22:60 23:60 24:0 25:20 26:0 27:0 28:20 29:40 30:20 31:0 32:0 33:0 34:0 35:0 36:60 37:0 38:60 39:20 40:40 41:20 42:25 43:25 
-3.521259608056813 1:0 2:0 3:0 4:0 5:0 6:0 7:-100 8:0 9:0 10:0 11:0 12:0 13:0 14:0 15:0 16:0 17:0 18:0 19:0 20:100 21:60 22:160 23:20 24:0 25:60 26:0 27:0 28:80 29:40 30:0 31:0 32:40 33:0 34:0 35:0 36:100 37:0 38:120 39:20 40:40 41:26 42:54 43:25 
8 1:0 2:0 3:-100 4:0 5:0 6:0 7:0 8:0 9:100 10:0 11:0 12:0 13:0 14:0 15:0 16:0 17:0 18:0 19:0 20:0 21:0 22:40 23:20 24:0 25:20 26:20 27:40 28:40 29:20 30:0 31:60 32:40 33:0 34:0 35:60 36:20 37:0 38:20 39:20 40:20 41:51 42:45 43:25 
-1.478033724039899 1:-100 2:0 3:0 4:0 5:0 6:0 7:0 8:0 9:0 10:0 11:0 12:100 13:0 14:0 15:0 16:0 17:0 18:0 19:0 20:0 21:40 22:20 23:60 24:20 25:20 26:80 27:20 28:80 29:60 30:20 31:0 32:0 33:40 34:0 35:80 36:20 37:20 38:0 39:0 40:20 41:0 42:19 43:64 
-6.376398280389258 1:0 2:0 3:0 4:0 5:0 6:0 7:0 8:0 9:100 10:0 11:-100 12:0 13:0 14:0 15:0 16:0 17:0 18:0 19:0 20:0 21:100 22:60 23:60 24:0 25:20 26:0 27:0 28:20 29:40 30:20 31:0 32:0 33:0 34:0 35:0 36:60 37:0 38:60 39:20 40:40 41:20 42:44 43:25 
8 1:0 2:0 3:0 4:0 5:0 6:0 7:0 8:0 9:100 10:0 11:-100 12:0 13:0 14:0 15:0 16:0 17:0 18:0 19:0 20:0 21:100 22:60 23:60 24:0 25:20 26:0 27:0 28:20 29:40 30:20 31:0 32:0 33:0 34:0 35:0 36:60 37:0 38:60 39:20 40:40 41:20 42:21 43:25 
-8 1:0 2:0 3:0 4:0 5:0 6:0 7:0 8:0 9:100 10:0 11:-100 12:0 13:0 14:0 15:0 16:0 17:0 18:0 19:0 20:0 21:100 22:60 23:60 24:0 25:20 26:0 27:0 28:20 29:40 30:20 31:0 32:0 33:0 34:0 35:0 36:60 37:0 38:60 39:20 40:40 41:20 42:45 43:46 
2.275670722348945 1:0 2:0 3:0 4:0 5:0 6:0 7:0 8:0 9:0 10:0 11:100 12:-100 13:0 14:0 15:0 16:0 17:0 18:0 19:0 20:0 21:20 22:140 23:80 24:0 25:20 26:0 27:60 28:100 29:20 30:0 31:20 32:40 33:0 34:20 35:20 36:80 37:0 38:60 39:0 40:40 41:4 42:38 43:65 
0.2383857672396975 1:0 2:0 3:0 4:0 5:0 6:0 7:0 8:0 9:0 10:0 11:0 12:100 13:0 14:-100 15:0 16:0 17:0 18:0 19:0 20:0 21:60 22:20 23:20 24:0 25:40 26:20 27:120 28:40 29:0 30:80 31:40 32:20 33:0 34:40 35:20 36:20 37:0 38:40 39:80 40:0 41:36 42:42 43:25 
2.853205346706409 1:0 2:0 3:-100 4:0 5:0 6:0 7:0 8:0 9:100 10:0 11:0 12:0 13:0 14:0 15:0 16:0 17:0 18:0 19:0 20:0 21:100 22:140 23:80 24:20 25:40 26:20 27:0 28:60 29:40 30:0 31:40 32:20 33:0 34:100 35:40 36:40 37:20 38:40 39:0 40:40 41:0 42:78 43:76 
-4.118204373558293 1:0 2:0 3:0 4:0 5:0 6:0 7:0 8:0 9:0 10:0 11:100 12:0 13:0 14:0 15:-100 16:0 17:0 18:0 19:0 20:0 21:0 22:40 23:40 24:0 25:20 26:40 27:40 28:40 29:0 30:20 31:80 32:20 33:0 34:0 35:20 36:40 37:0 38:0 39:20 40:20 41:15 42:45 43:25 
-1.141134448024188 1:0 2:100 3:-100 4:0 5:0 6:0 7:0 8:0 9:0 10:0 11:0 12:0 13:0 14:0 15:0 16:0 17:0 18:0 19:0 20:0 21:100 22:140 23:80 24:20 25:40 26:20 27:0 28:60 29:40 30:0 31:40 32:20 33:0 34:100 35:40 36:40 37:20 38:40 39:0 40:40 41:0 42:78 43:76 
-0.8112574952904007 1:0 2:0 3:-100 4:100 5:0 6:0 7:0 8:0 9:0 10:0 11:0 12:0 13:0 14:0 15:0 16:0 17:0 18:0 19:0 20:0 21:100 22:140 23:80 24:20 25:40 26:20 27:0 28:60 29:40 30:0 31:40 32:20 33:0 34:100 35:40 36:40 37:20 38:40 39:0 40:40 41:0 42:78 43:76 
-4.716626259481467 1:0 2:0 3:0 4:0 5:0 6:0 7:0 8:0 9:0 10:0 11:0 12:0 13:0 14:100 15:0 16:0 17:0 18:0 19:-100 20:0 21:20 22:40 23:60 24:20 25:0 26:20 27:80 28:40 29:40 30:60 31:40 32:40 33:0 34:40 35:0 36:60 37:20 38:0 39:20 40:20 41:11 42:32 43:26 
-8 1:100 2:0 3:0 4:0 5:-100 6:0 7:0 8:0 9:0 10:0 11:0 12:0 13:0 14:0 15:0 16:0 17:0 18:0 19:0 20:0 21:40 22:60 23:40 24:20 25:0 26:0 27:0 28:20 29:0 30:0 31:60 32:20 33:0 34:20 35:40 36:20 37:0 38:0 39:0 40:20 41:31 42:50 43:25 
-3.977786834643432 1:0 2:-100 3:0 4:0 5:0 6:0 7:0 8:0 9:100 10:0 11:0 12:0 13:0 14:0 15:0 16:0 17:0 18:0 19:0 20:0 21:0 22:40 23:20 24:0 25:0 26:0 27:40 28:20 29:80 30:20 31:20 32:20 33:0 34:20 35:0 36:100 37:40 38:20 39:0 40:20 41:32 42:68 43:82 
-4.875034291441917 1:0 2:100 3:0 4:0 5:-100 6:0 7:0 8:0 9:0 10:0 11:0 12:0 13:0 14:0 15:0 16:0 17:0 18:0 19:0 20:0 21:40 22:60 23:40 24:20 25:0 26:0 27:0 28:20 29:0 30:0 31:60 32:20 33:0 34:20 35:40 36:20 37:0 38:0 39:0 40:20 41:31 42:50 43:25 
0.9518966107998164 1:100 2:0 3:-100 4:0 5:0 6:0 7:0 8:0 9:0 10:0 11:0 12:0 13:0 14:0 15:0 16:0 17:0 18:0 19:0 20:0 21:100 22:140 23:80 24:20 25:40 26:20 27:0 28:60 29:40 30:0 31:40 32:20 33:0 34:100 35:40 36:40 37:20 38:40 39:0 40:40 41:0 42:78 43:76 
5.246002365189127 1:0 2:100 3:0 4:-100 5:0 6:0 7:0 8:0 9:0 10:0 11:0 12:0 13:0 14:0 15:0 16:0 17:0 18:0 19:0 20:0 21:60 22:140 23:80 24:40 25:60 26:20 27:40 28:60 29:120 30:0 31:40 32:40 33:20 34:0 35:80 36:0 37:20 38:40 39:40 40:20 41:0 42:21 43:51 
-1.933290677879514 1:0 2:100 3:0 4:-100 5:0 6:0 7:0 8:0 9:0 10:0 11:0 12:0 13:0 14:0 15:0 16:0 17:0 18:0 19:0 20:0 21:60 22:140 23:80 24:40 25:60 26:20 27:40 28:60 29:120 30:0 31:40 32:40 33:20 34:0 35:80 36:0 37:20 38:40 39:40 40:20 41:0 42:40 43:64 
-0.4898113099143416 1:0 2:0 3:0 4:0 5:0 6:0 7:0 8:0 9:-100 10:0 11:100 12:0 13:0 14:0 15:0 16:0 17:0 18:0 19:0 20:0 21:60 22:80 23:100 24:20 25:20 26:60 27:20 28:20 29:80 30:0 31:0 32:0 33:40 34:0 35:60 36:20 37:20 38:0 39:0 40:40 41:0 42:19 43:64 
-8 1:-100 2:0 3:0 4:0 5:0 6:0 7:0 8:100 9:0 10:0 11:0 12:0 13:0 14:0 15:0 16:0 17:0 18:0 19:0 20:0 21:0 22:20 23:40 24:0 25:20 26:0 27:20 28:20 29:20 30:0 31:20 32:20 33:0 34:0 35:40 36:20 37:20 38:40 39:20 40:20 41:69 42:19 43:64 
-4.369845828978791 1:0 2:0 3:-100 4:0 5:0 6:0 7:0 8:0 9:0 10:0 11:0 12:0 13:100 14:0 15:0 16:0 17:0 18:0 19:0 20:0 21:100 22:40 23:80 24:60 25:60 26:20 27:40 28:0 29:60 30:0 31:0 32:20 33:20 34:0 35:80 36:0 37:0 38:40 39:60 40:60 41:10 42:14 43:41 
8 1:0 2:0 3:-100 4:0 5:0 6:0 7:0 8:0 9:0 10:0 11:0 12:0 13:100 14:0 15:0 16:0 17:0 18:0 19:0 20:0 21:100 22:40 23:80 24:60 25:60 26:20 27:40 28:0 29:60 30:0 31:0 32:20 33:20 34:0 35:80 36:0 37:0 38:40 39:60 40:60 41:10 42:14 43:41 
-8 1:0 2:0 3:-100 4:0 5:0 6:0 7:0 8:0 9:0 10:0 11:0 12:0 13:100 14:0 15:0 16:0 17:0 18:0 19:0 20:0 21:100 22:40 23:80 24:60 25:60 26:20 27:40 28:0 29:60 30:0 31:0 32:20 33:20 34:0 35:80 36:0 37:0 38:40 39:60 40:60 41:10 42:46 43:64 
8 1:0 2:0 3:-100 4:0 5:0 6:0 7:0 8:0 9:0 10:0 11:0 12:0 13:100 14:0 15:0 16:0 17:0 18:0 19:0 20:0 21:100 22:40 23:80 24:60 25:60 26:20 27:40 28:0 29:60 30:0 31:0 32:20 33:20 34:0 35:80 36:0 37:0 38:40 39:60 40:60 41:10 42:46 43:64 
5.872012462538002 1:0 2:0 3:0 4:100 5:0 6:0 7:0 8:0 9:0 10:0 11:0 12:0 13:0 14:0 15:-100 16:0 17:0 18:0 19:0 20:0 21:0 22:40 23:40 24:0 25:20 26:40 27:40 28:40 29:0 30:20 31:80 32:20 33:0 34:0 35:20 36:40 37:0 38:0 39:20 40:20 41:15 42:45 43:25 
-8 1:0 2:0 3:0 4:100 5:0 6:0 7:0 8:0 9:0 10:0 11:0 12:0 13:0 14:0 15:-100 16:0 17:0 18:0 19:0 20:0 21:0 22:40 23:40 24:0 25:20 26:40 27:40 28:40 29:0 30:20 31:80 32:20 33:0 34:0 35:20 36:40 37:0 38:0 39:20 40:20 41:15 42:31 43:25 
-1.78097077759987 1:-100 2:0 3:0 4:0 5:0 6:0 7:0 8:0 9:100 10:0 11:0 12:0 13:0 14:0 15:0 16:0 17:0 18:0 19:0 20:0 21:20 22:60 23:60 24:20 25:40 26:0 27:80 28:20 29:40 30:20 31:0 32:20 33:0 34:20 35:0 36:140 37:0 38:120 39:0 40:20 41:5 42:37 43:5 
8 1:0 2:0 3:0 4:0 5:0 6:0 7:0 8:0 9:100 10:0 11:0 12:0 13:0 14:0 15:0 16:0 17:0 18:0 19:0 20:-100 21:140 22:0 23:40 24:0 25:40 26:0 27:20 28:20 29:60 30:20 31:20 32:40 33:60 34:60 35:0 36:40 37:40 38:0 39:60 40:20 41:8 42:8 43:25 
-6.844127601629618 1:0 2:0 3:0 4:0 5:0 6:0 7:0 8:0 9:100 10:0 11:0 12:0 13:0 14:0 15:0 16:0 17:0 18:0 19:0 20:-100 21:140 22:0 23:40 24:0 25:40 26:0 27:20 28:20 29:60 30:20 31:20 32:40 33:60 34:60 35:0 36:40 37:40 38:0 39:60 40:20 41:8 42:42 43:25 
0.1670472648944597 1:0 2:0 3:0 4:0 5:0 6:0 7:0 8:0 9:0 10:0 11:0 12:0 13:0 14:0 15:-100 16:100 17:0 18:0 19:0 20:0 21:0 22:40 23:40 24:0 25:20 26:40 27:40 28:40 29:0 30:20 31:80 32:20 33:0 34:0 35:20 36:40 37:0 38:0 39:20 40:20 41:15 42:45 43:25 
8 1:0 2:-100 3:0 4:0 5:0 6:0 7:0 8:0 9:100 10:0 11:0 12:0 13:0 14:0 15:0 16:0 17:0 18:0 19:0 20:0 21:80 22:100 23:20 24:40 25:40 26:20 27:20 28:20 29:60 30:20 31:40 32:60 33:0 34:0 35:100 36:20 37:40 38:20 39:40 40:60 41:0 42:38 43:65 
6.938325000657999 1:0 2:-100 3:0 4:0 5:0 6:0 7:0 8:0 9:100 10:0 11:0 12:0 13:0 14:0 15:0 16:0 17:0 18:0 19:0 20:0 21:80 22:100 23:20 24:40 25:40 26:20 27:20 28:20 29:60 30:20 31:40 32:60 33:0 34:0 35:100 36:20 37:40 38:20 39:40 40:60 41:0 42:21 43:51 
0.4394851662051102 1:0 2:0 3:-100 4:100 5:0 6:0 7:0 8:0 9:0 10:0 11:0 12:0 13:0 14:0 15:0 16:0 17:0 18:0 19:0 20:0 21:60 22:80 23:40 24:20 25:20 26:60 27:40 28:20 29:160 30:0 31:100 32:80 33:80 34:0 35:40 36:20 37:20 38:20 39:100 40:60 41:1 42:19 43:64 
-8 1:0 2:0 3:0 4:0 5:0 6:0 7:-100 8:0 9:100 10:0 11:0 12:0 13:0 14:0 15:0 16:0 17:0 18:0 19:0 20:0 21:40 22:60 23:40 24:40 25:40 26:0 27:40 28:0 29:100 30:0 31:40 32:40 33:0 34:40 35:0 36:140 37:20 38:140 39:0 40:60 41:1 42:37 43:5 
-1.336523296891318 1:0 2:-100 3:0 4:100 5:0 6:0 7:0 8:0 9:0 10:0 11:0 12:0 13:0 14:0 15:0 16:0 17:0 18:0 19:0 20:0 21:80 22:100 23:20 24:40 25:40 26:20 27:20 28:20 29:60 30:20 31:40 32:60 33:0 34:0 35:100 36:20 37:40 38:20 39:40 40:60 41:0 42:38 43:65 
6.792394194594004 1:0 2:0 3:0 4:0 5:100 6:0 7:-100 8:0 9:0 10:0 11:0 12:0 13:0 14:0 15:0 16:0 17:0 18:0 19:0 20:0 21:40 22:60 23:40 24:40 25:40 26:0 27:40 28:0 29:100 30:0 31:40 32:40 33:0 34:40 35:0 36:140 37:20 38:140 39:0 40:60 41:1 42:37 43:5 
-8 1:0 2:0 3:0 4:0 5:0 6:0 7:0 8:0 9:0 10:0 11:0 12:-100 13:0 14:0 15:100 16:0 17:0 18:0 19:0 20:0 21:40 22:0 23:20 24:40 25:20 26:20 27:20 28:20 29:60 30:0 31:0 32:60 33:20 34:0 35:60 36:20 37:0 38:0 39:0 40:40 41:41 42:14 43:42 
-7.807983846024137 1:0 2:0 3:0 4:0 5:0 6:0 7:0 8:0 9:0 10:0 11:0 12:-100 13:0 14:0 15:100 16:0 17:0 18:0 19:0 20:0 21:40 22:0 23:20 24:40 25:20 26:20 27:20 28:20 29:60 30:0 31:0 32:60 33:20 34:0 35:60 36:20 37:0 38:0 39:0 40:40 41:41 42:14 43:38 
8 1:0 2:0 3:0 4:0 5:0 6:0 7:0 8:0 9:0 10:0 11:0 12:-100 13:0 14:0 15:100 16:0 17:0 18:0 19:0 20:0 21:40 22:0 23:20 24:40 25:20 26:20 27:20 28:20 29:60 30:0 31:0 32:60 33:20 34:0 35:60 36:20 37:0 38:0 39:0 40:40 41:41 42:17 43:46 
8 1:0 2:0 3:0 4:0 5:0 6:0 7:0 8:0 9:0 10:0 11:0 12:-100 13:0 14:0 15:100 16:0 17:0 18:0 19:0 20:0 21:40 22:0 23:20 24:40 25:20 26:20 27:20 28:20 29:60 30:0 31:0 32:60 33:20 34:0 35:60 36:20 37:0 38:0 39:0 40:40 41:41 42:21 43:53 
4.814722545237589 1:0 2:0 3:0 4:0 5:0 6:0 7:0 8:0 9:0 10:0 11:100 12:-100 13:0 14:0 15:0 16:0 17:0 18:0 19:0 20:0 21:40 22:0 23:20 24:40 25:20 26:20 27:20 28:20 29:60 30:0 31:0 32:60 33:20 34:0 35:60 36:20 37:0 38:0 39:0 40:40 41:41 42:14 43:42 
-3.370660996742771 1:0 2:-100 3:0 4:0 5:0 6:0 7:0 8:0 9:100 10:0 11:0 12:0 13:0 14:0 15:0 16:0 17:0 18:0 19:0 20:0 21:60 22:100 23:0 24:40 25:40 26:20 27:20 28:40 29:80 30:20 31:40 32:40 33:0 34:0 35:40 36:60 37:40 38:40 39:60 40:0 41:5 42:21 43:51 
-0.9402583336162582 1:0 2:-100 3:0 4:0 5:0 6:0 7:0 8:0 9:100 10:0 11:0 12:0 13:0 14:0 15:0 16:0 17:0 18:0 19:0 20:0 21:200 22:60 23:80 24:0 25:20 26:20 27:0 28:40 29:40 30:40 31:20 32:20 33:0 34:0 35:60 36:60 37:20 38:60 39:20 40:40 41:0 42:45 43:25 
8 1:0 2:-100 3:0 4:100 5:0 6:0 7:0 8:0 9:0 10:0 11:0 12:0 13:0 14:0 15:0 16:0 17:0 18:0 19:0 20:0 21:60 22:60 23:20 24:60 25:40 26:40 27:20 28:40 29:100 30:0 31:40 32:60 33:0 34:0 35:100 36:40 37:0 38:20 39:60 40:20 41:0 42:38 43:65 
-0.1860361083071354 1:0 2:0 3:0 4:0 5:0 6:0 7:0 8:0 9:0 10:0 11:0 12:-100 13:0 14:100 15:0 16:0 17:0 18:0 19:0 20:0 21:40 22:0 23:20 24:40 25:20 26:20 27:20 28:20 29:60 30:0 31:0 32:60 33:20 34:0 35:60 36:20 37:0 38:0 39:0 40:40 41:41 42:14 43:42 
-8 1:0 2:0 3:100 4:0 5:0 6:0 7:0 8:0 9:0 10:0 11:0 12:-100 13:0 14:0 15:0 16:0 17:0 18:0 19:0 20:0 21:40 22:0 23:20 24:40 25:20 26:20 27:20 28:20 29:60 30:0 31:0 32:60 33:20 34:0 35:60 36:20 37:0 38:0 39:0 40:40 41:41 42:14 43:42 
-8 1:0 2:0 3:100 4:0 5:0 6:0 7:0 8:0 9:0 10:0 11:0 12:-100 13:0 14:0 15:0 16:0 17:0 18:0 19:0 20:0 21:40 22:0 23:20 24:40 25:20 26:20 27:20 28:20 29:60 30:0 31:0 32:60 33:20 34:0 35:60 36:20 37:0 38:0 39:0 40:40 41:41 42:28 43:62 
4.249043581968973 1:0 2:0 3:100 4:0 5:0 6:0 7:0 8:0 9:0 10:0 11:0 12:-100 13:0 14:0 15:0 16:0 17:0 18:0 19:0 20:0 21:40 22:0 23:20 24:40 25:20 26:20 27:20 28:20 29:60 30:0 31:0 32:60 33:20 34:0 35:60 36:20 37:0 38:0 39:0 40:40 41:41 42:42 43:64 
-1.634970277505051 1:0 2:0 3:100 4:0 5:0 6:0 7:0 8:0 9:0 10:0 11:0 12:-100 13:0 14:0 15:0 16:0 17:0 18:0 19:0 20:0 21:40 22:0 23:20 24:40 25:20 26:20 27:20 28:20 29:60 30:0 31:0 32:60 33:20 34:0 35:60 36:20 37:0 38:0 39:0 40:40 41:41 42:14 43:38 
8 1:0 2:0 3:100 4:0 5:0 6:0 7:0 8:0 9:0 10:0 11:0 12:-100 13:0 14:0 15:0 16:0 17:0 18:0 19:0 20:0 21:40 22:0 23:20 24:40 25:20 26:20 27:20 28:20 29:60 30:0 31:0 32:60 33:20 34:0 35:60 36:20 37:0 38:0 39:0 40:40 41:41 42:21 43:53 
8 1:0 2:0 3:0 4:0 5:0 6:0 7:0 8:0 9:100 10:0 11:0 12:0 13:0 14:0 15:0 16:0 17:0 18:-100 19:0 20:0 21:0 22:100 23:80 24:0 25:0 26:0 27:20 28:40 29:60 30:0 31:60 32:40 33:20 34:20 35:20 36:60 37:0 38:0 39:20 40:20 41:30 42:21 43:51 
-3.681388055894548 1:0 2:0 3:0 4:0 5:0 6:0 7:0 8:0 9:100 10:0 11:0 12:0 13:0 14:0 15:0 16:0 17:0 18:-100 19:0 20:0 21:0 22:100 23:80 24:0 25:0 26:0 27:20 28:40 29:60 30:0 31:60 32:40 33:20 34:20 35:20 36:60 37:0 38:0 39:20 40:20 41:30 42:47 43:62 
0.9179026826133664 1:0 2:0 3:0 4:0 5:0 6:0 7:0 8:0 9:0 10:0 11:0 12:-100 13:0 14:0 15:0 16:0 17:0 18:0 19:0 20:100 21:40 22:0 23:20 24:40 25:20 26:20 27:20 28:20 29:60 30:0 31:0 32:60 33:20 34:0 35:60 36:20 37:0 38:0 39:0 40:40 41:41 42:14 43:42 
5.043750306571019 1:0 2:0 3:0 4:0 5:0 6:0 7:0 8:0 9:100 10:0 11:0 12:0 13:0 14:0 15:0 16:0 17:0 18:0 19:0 20:-100 21:0 22:0 23:0 24:20 25:20 26:0 27:40 28:0 29:60 30:0 31:0 32:80 33:0 34:0 35:0 36:20 37:0 38:0 39:0 40:40 41:79 42:50 43:25 
-8 1:0 2:0 3:0 4:0 5:100 6:0 7:0 8:0 9:0 10:0 11:0 12:-100 13:0 14:0 15:0 16:0 17:0 18:0 19:0 20:0 21:40 22:0 23:20 24:40 25:20 26:20 27:20 28:20 29:60 30:0 31:0 32:60 33:20 34:0 35:60 36:20 37:0 38:0 39:0 40:40 41:41 42:14 43:42 
1.814831731600373 1:0 2:0 3:0 4:0 5:0 6:0 7:0 8:0 9:0 10:0 11:0 12:0 13:0 14:0 15:0 16:0 17:0 18:0 19:-100 20:100 21:40 22:0 23:20 24:20 25:0 26:60 27:20 28:40 29:20 30:0 31:20 32:0 33:0 34:0 35:40 36:40 37:0 38:0 39:20 40:20 41:65 42:67 43:20 
0.01747603758621177 1:0 2:-100 3:0 4:100 5:0 6:0 7:0 8:0 9:0 10:0 11:0 12:0 13:0 14:0 15:0 16:0 17:0 18:0 19:0 20:0 21:60 22:100 23:0 24:40 25:40 26:20 27:20 28:40 29:80 30:20 31:40 32:40 33:0 34:0 35:40 36:60 37:40 38:40 39:60 40:0 41:5 42:38 43:65 
-8 1:0 2:0 3:0 4:0 5:0 6:0 7:0 8:0 9:100 10:0 11:0 12:-100 13:0 14:0 15:0 16:0 17:0 18:0 19:0 20:0 21:40 22:0 23:20 24:40 25:20 26:20 27:20 28:20 29:60 30:0 31:0 32:60 33:20 34:0 35:60 36:20 37:0 38:0 39:0 40:40 41:41 42:14 43:42 
-0.3563165159167546 1:0 2:0 3:0 4:0 5:0 6:0 7:0 8:0 9:100 10:0 11:0 12:-100 13:0 14:0 15:0 16:0 17:0 18:0 19:0 20:0 21:40 22:0 23:20 24:40 25:20 26:20 27:20 28:20 29:60 30:0 31:0 32:60 33:20 34:0 35:60 36:20 37:0 38:0 39:0 40:40 41:41 42:14 43:38 
8 1:0 2:0 3:0 4:0 5:0 6:0 7:0 8:0 9:100 10:0 11:0 12:-100 13:0 14:0 15:0 16:0 17:0 18:0 19:0 20:0 21:40 22:0 23:20 24:40 25:20 26:20 27:20 28:20 29:60 30:0 31:0 32:60 33:20 34:0 35:60 36:20 37:0 38:0 39:0 40:40 41:41 42:21 43:53 
-0.1748880125415948 1:0 2:0 3:100 4:0 5:0 6:0 7:0 8:0 9:0 10:0 11:0 12:-100 13:0 14:0 15:0 16:0 17:0 18:0 19:0 20:0 21:60 22:160 23:40 24:0 25:40 26:60 27:40 28:60 29:60 30:20 31:60 32:20 33:40 34:40 35:0 36:20 37:20 38:20 39:20 40:0 41:0 42:14 43:20 
8 1:0 2:100 3:0 4:-100 5:0 6:0 7:0 8:0 9:0 10:0 11:0 12:0 13:0 14:0 15:0 16:0 17:0 18:0 19:0 20:0 21:40 22:40 23:20 24:0 25:40 26:0 27:20 28:0 29:0 30:20 31:40 32:40 33:80 34:40 35:0 36:100 37:0 38:0 39:80 40:80 41:0 42:17 43:25 
-8 1:0 2:100 3:0 4:-100 5:0 6:0 7:0 8:0 9:0 10:0 11:0 12:0 13:0 14:0 15:0 16:0 17:0 18:0 19:0 20:0 21:40 22:40 23:20 24:0 25:40 26:0 27:20 28:0 29:0 30:20 31:40 32:40 33:80 34:40 35:0 36:100 37:0 38:0 39:80 40:80 41:0 42:21 43:25 
-8 1:0 2:100 3:0 4:-100 5:0 6:0 7:0 8:0 9:0 10:0 11:0 12:0 13:0 14:0 15:0 16:0 17:0 18:0 19:0 20:0 21:40 22:40 23:20 24:0 25:40 26:0 27:20 28:0 29:0 30:20 31:40 32:40 33:80 34:40 35:0 36:100 37:0 38:0 39:80 40:80 41:0 42:25 43:25 
8 1:0 2:100 3:0 4:-100 5:0 6:0 7:0 8:0 9:0 10:0 11:0 12:0 13:0 14:0 15:0 16:0 17:0 18:0 19:0 20:0 21:40 22:40 23:20 24:0 25:40 26:0 27:20 28:0 29:0 30:20 31:40 32:40 33:80 34:40 35:0 36:100 37:0 38:0 39:80 40:80 41:0 42:28 43:25 
-8 1:0 2:100 3:0 4:-100 5:0 6:0 7:0 8:0 9:0 10:0 11:0 12:0 13:0 14:0 15:0 16:0 17:0 18:0 19:0 20:0 21:40 22:40 23:20 24:0 25:40 26:0 27:20 28:0 29:0 30:20 31:40 32:40 33:80 34:40 35:0 36:100 37:0 38:0 39:80 40:80 41:0 42:35 43:25 
-8 1:0 2:100 3:0 4:-100 5:0 6:0 7:0 8:0 9:0 10:0 11:0 12:0 13:0 14:0 15:0 16:0 17:0 18:0 19:0 20:0 21:40 22:40 23:20 24:0 25:40 26:0 27:20 28:0 29:0 30:20 31:40 32:40 33:80 34:40 35:0 36:100 37:0 38:0 39:80 40:80 41:0 42:42 43:25 
8 1:0 2:100 3:0 4:-100 5:0 6:0 7:0 8:0 9:0 10:0 11:0 12:0 13:0 14:0 15:0 16:0 17:0 18:0 19:0 20:0 21:40 22:40 23:20 24:0 25:40 26:0 27:20 28:0 29:0 30:20 31:40 32:40 33:80 34:40 35:0 36:100 37:0 38:0 39:80 40:80 41:0 42:50 43:25 
6.991559241687165 1:0 2:100 3:0 4:-100 5:0 6:0 7:0 8:0 9:0 10:0 11:0 12:0 13:0 14:0 15:0 16:0 17:0 18:0 19:0 20:0 21:40 22:40 23:20 24:0 25:40 26:0 27:20 28:0 29:0 30:20 31:40 32:40 33:80 34:40 35:0 36:100 37:0 38:0 39:80 40:80 41:0 42:57 43:25 
2.11296680296353 1:0 2:0 3:0 4:0 5:0 6:0 7:0 8:0 9:-100 10:0 11:0 12:0 13:0 14:0 15:0 16:0 17:0 18:0 19:0 20:100 21:0 22:60 23:20 24:0 25:0 26:0 27:20 28:0 29:40 30:20 31:60 32:20 33:0 34:0 35:0 36:60 37:0 38:20 39:20 40:20 41:35 42:38 43:65 
-5.4518176467815 1:0 2:-100 3:0 4:0 5:0 6:0 7:0 8:0 9:100 10:0 11:0 12:0 13:0 14:0 15:0 16:0 17:0 18:0 19:0 20:0 21:40 22:40 23:60 24:20 25:20 26:0 27:60 28:20 29:60 30:20 31:0 32:20 33:0 34:20 35:0 36:140 37:0 38:100 39:0 40:40 41:1 42:37 43:5 
-8 1:-100 2:0 3:0 4:0 5:0 6:0 7:0 8:0 9:0 10:0 11:0 12:100 13:0 14:0 15:0 16:0 17:0 18:0 19:0 20:0 21:0 22:40 23:20 24:20 25:40 26:0 27:0 28:40 29:0 30:0 31:60 32:0 33:0 34:0 35:0 36:20 37:20 38:0 39:0 40:20 41:68 42:50 43:25 
-4.351451690833254 1:0 2:100 3:0 4:0 5:-100 6:0 7:0 8:0 9:0 10:0 11:0 12:0 13:0 14:0 15:0 16:0 17:0 18:0 19:0 20:0 21:40 22:40 23:100 24:0 25:0 26:0 27:80 28:20 29:40 30:0 31:20 32:100 33:0 34:0 35:40 36:40 37:0 38:0 39:60 40:100 41:14 42:43 43:25 
-3.681796499979975 1:0 2:0 3:0 4:0 5:0 6:0 7:0 8:0 9:0 10:0 11:0 12:0 13:0 14:0 15:0 16:0 17:100 18:-100 19:0 20:0 21:60 22:20 23:40 24:0 25:0 26:20 27:0 28:20 29:20 30:40 31:20 32:20 33:0 34:0 35:0 36:40 37:20 38:60 39:0 40:20 41:50 42:44 43:25 
-6.799721554530705 1:-100 2:0 3:0 4:0 5:0 6:0 7:0 8:0 9:0 10:100 11:0 12:0 13:0 14:0 15:0 16:0 17:0 18:0 19:0 20:0 21:0 22:40 23:20 24:20 25:40 26:0 27:0 28:40 29:0 30:0 31:60 32:0 33:0 34:0 35:0 36:20 37:20 38:0 39:0 40:20 41:68 42:50 43:25 
4.214558797460227 1:0 2:0 3:0 4:0 5:0 6:0 7:0 8:0 9:0 10:0 11:0 12:0 13:0 14:0 15:0 16:100 17:0 18:-100 19:0 20:0 21:0 22:20 23:0 24:20 25:0 26:20 27:60 28:20 29:0 30:0 31:0 32:80 33:0 34:0 35:20 36:40 37:40 38:0 39:20 40:20 41:47 42:38 43:65 
-6.380281950125016 1:100 2:0 3:0 4:0 5:0 6:0 7:0 8:0 9:-100 10:0 11:0 12:0 13:0 14:0 15:0 16:0 17:0 18:0 19:0 20:0 21:0 22:60 23:20 24:0 25:0 26:0 27:20 28:0 29:40 30:20 31:60 32:20 33:0 34:0 35:0 36:60 37:0 38:20 39:20 40:20 41:35 42:38 43:66 
8 1:100 2:0 3:0 4:0 5:0 6:0 7:0 8:0 9:-100 10:0 11:0 12:0 13:0 14:0 15:0 16:0 17:0 18:0 19:0 20:0 21:0 22:60 23:20 24:0 25:0 26:0 27:20 28:0 29:40 30:20 31:60 32:20 33:0 34:0 35:0 36:60 37:0 38:20 39:20 40:20 41:35 42:14 43:41 
5.245802245831308 1:100 2:0 3:0 4:0 5:0 6:0 7:0 8:0 9:-100 10:0 11:0 12:0 13:0 14:0 15:0 16:0 17:0 18:0 19:0 20:0 21:0 22:60 23:20 24:0 25:0 26:0 27:20 28:0 29:40 30:20 31:60 32:20 33:0 34:0 35:0 36:60 37:0 38:20 39:20 40:20 41:35 42:20 43:51 
0.3371634121239251 1:0 2:0 3:0 4:0 5:0 6:0 7:0 8:0 9:100 10:0 11:0 12:0 13:0 14:0 15:0 16:0 17:0 18:0 19:-100 20:0 21:40 22:60 23:0 24:20 25:20 26:0 27:0 28:20 29:60 30:0 31:20 32:20 33:0 34:0 35:40 36:20 37:40 38:20 39:20 40:0 41:52 42:21 43:51 
-1.341940492897425 1:0 2:0 3:0 4:0 5:0 6:0 7:0 8:0 9:-100 10:0 11:100 12:0 13:0 14:0 15:0 16:0 17:0 18:0 19:0 20:0 21:0 22:60 23:20 24:0 25:0 26:0 27:20 28:0 29:40 30:20 31:60 32:20 33:0 34:0 35:0 36:60 37:0 38:20 39:20 40:20 41:35 42:21 43:51 
-3.016377126773741 1:0 2:0 3:0 4:0 5:0 6:0 7:0 8:0 9:100 10:0 11:0 12:0 13:0 14:0 15:0 16:0 17:0 18:0 19:-100 20:0 21:20 22:0 23:40 24:0 25:80 26:0 27:80 28:60 29:40 30:40 31:20 32:40 33:100 34:0 35:60 36:40 37:20 38:20 39:20 40:20 41:14 42:50 43:39 
0.2913629804872766 1:0 2:0 3:0 4:0 5:0 6:0 7:0 8:0 9:100 10:0 11:0 12:0 13:0 14:0 15:0 16:0 17:0 18:-100 19:0 20:0 21:60 22:20 23:40 24:0 25:0 26:20 27:0 28:20 29:20 30:40 31:20 32:20 33:0 34:0 35:0 36:40 37:20 38:60 39:0 40:20 41:50 42:44 43:25 
8 1:0 2:0 3:0 4:0 5:0 6:0 7:0 8:100 9:0 10:0 11:0 12:0 13:0 14:0 15:0 16:-100 17:0 18:0 19:0 20:0 21:40 22:80 23:20 24:0 25:20 26:0 27:0 28:20 29:40 30:0 31:80 32:40 33:0 34:0 35:0 36:40 37:20 38:20 39:0 40:0 41:44 42:50 43:25 
1.279802921855519 1:-100 2:0 3:0 4:0 5:0 6:0 7:0 8:0 9:0 10:0 11:0 12:0 13:100 14:0 15:0 16:0 17:0 18:0 19:0 20:0 21:0 22:40 23:20 24:20 25:40 26:0 27:0 28:40 29:0 30:0 31:60 32:0 33:0 34:0 35:0 36:20 37:20 38:0 39:0 40:20 41:68 42:50 43:25 
-8 1:-100 2:0 3:0 4:0 5:0 6:0 7:0 8:0 9:0 10:0 11:0 12:0 13:100 14:0 15:0 16:0 17:0 18:0 19:0 20:0 21:0 22:40 23:20 24:20 25:40 26:0 27:0 28:40 29:0 30:0 31:60 32:0 33:0 34:0 35:0 36:20 37:20 38:0 39:0 40:20 41:68 42:50 43:25 
0.828856411141117 1:0 2:100 3:0 4:-100 5:0 6:0 7:0 8:0 9:0 10:0 11:0 12:0 13:0 14:0 15:0 16:0 17:0 18:0 19:0 20:0 21:40 22:80 23:0 24:0 25:40 26:20 27:0 28:0 29:40 30:0 31:40 32:20 33:0 34:0 35:60 36:40 37:40 38:20 39:40 40:20 41:16 42:21 43:47 
-7.487550907206326 1:0 2:0 3:-100 4:0 5:0 6:0 7:0 8:0 9:100 10:0 11:0 12:0 13:0 14:0 15:0 16:0 17:0 18:0 19:0 20:0 21:120 22:100 23:40 24:60 25:80 26:20 27:20 28:40 29:80 30:0 31:0 32:20 33:20 34:0 35:80 36:0 37:20 38:40 39:40 40:80 41:4 42:21 43:51 
-3.052281134173663 1:100 2:0 3:-100 4:0 5:0 6:0 7:0 8:0 9:0 10:0 11:0 12:0 13:0 14:0 15:0 16:0 17:0 18:0 19:0 20:0 21:60 22:60 23:20 24:40 25:0 26:60 27:20 28:80 29:60 30:20 31:20 32:0 33:20 34:0 35:60 36:20 37:20 38:0 39:20 40:40 41:8 42:19 43:64 
8 1:100 2:0 3:-100 4:0 5:0 6:0 7:0 8:0 9:0 10:0 11:0 12:0 13:0 14:0 15:0 16:0 17:0 18:0 19:0 20:0 21:60 22:60 23:20 24:40 25:0 26:60 27:20 28:80 29:60 30:20 31:20 32:0 33:20 34:0 35:60 36:20 37:20 38:0 39:20 40:40 41:6 42:19 43:49 
0.7662790642077544 1:0 2:0 3:0 4:0 5:100 6:0 7:0 8:0 9:0 10:0 11:0 12:0 13:0 14:0 15:0 16:0 17:0 18:0 19:-100 20:0 21:20 22:60 23:20 24:40 25:20 26:40 27:20 28:20 29:60 30:0 31:40 32:20 33:0 34:0 35:60 36:20 37:0 38:20 39:40 40:20 41:28 42:38 43:66 
2.171590357305054 1:0 2:0 3:0 4:0 5:0 6:0 7:0 8:0 9:0 10:0 11:-100 12:0 13:0 14:100 15:0 16:0 17:0 18:0 19:0 20:0 21:0 22:60 23:40 24:0 25:0 26:0 27:0 28:40 29:60 30:0 31:20 32:20 33:20 34:0 35:20 36:40 37:0 38:20 39:60 40:20 41:57 42:21 43:51 
-0.136152691236146 1:0 2:0 3:0 4:0 5:100 6:0 7:-100 8:0 9:0 10:0 11:0 12:0 13:0 14:0 15:0 16:0 17:0 18:0 19:0 20:0 21:20 22:20 23:0 24:40 25:20 26:0 27:40 28:20 29:20 30:40 31:100 32:120 33:80 34:0 35:40 36:100 37:20 38:20 39:100 40:20 41:2 42:35 43:63 
1.515126134270185 1:0 2:0 3:0 4:0 5:0 6:0 7:0 8:0 9:0 10:0 11:0 12:0 13:0 14:0 15:-100 16:0 17:100 18:0 19:0 20:0 21:20 22:80 23:20 24:0 25:0 26:0 27:0 28:40 29:0 30:40 31:0 32:0 33:0 34:0 35:40 36:20 37:60 38:0 39:0 40:20 41:51 42:35 43:25 
0.460813810394277 1:0 2:0 3:0 4:0 5:0 6:0 7:0 8:0 9:0 10:0 11:0 12:0 13:0 14:0 15:0 16:-100 17:0 18:0 19:0 20:100 21:60 22:40 23:0 24:20 25:40 26:0 27:0 28:60 29:40 30:0 31:0 32:20 33:40 34:20 35:0 36:100 37:0 38:40 39:20 40:0 41:39 42:53 43:25 
-8 1:0 2:0 3:0 4:0 5:0 6:0 7:0 8:0 9:0 10:0 11:-100 12:0 13:0 14:0 15:0 16:0 17:0 18:0 19:0 20:100 21:0 22:40 23:20 24:0 25:0 26:0 27:40 28:20 29:40 30:20 31:40 32:20 33:0 34:0 35:0 36:60 37:0 38:20 39:20 40:0 41:44 42:14 43:40 
1.746526603504308 1:0 2:0 3:0 4:0 5:0 6:0 7:0 8:0 9:0 10:0 11:-100 12:0 13:0 14:0 15:0 16:0 17:0 18:0 19:0 20:100 21:0 22:40 23:20 24:0 25:0 26:0 27:40 28:20 29:40 30:20 31:40 32:20 33:0 34:0 35:0 36:60 37:0 38:20 39:20 40:0 41:44 42:49 43:66 
-5.003268156511774 1:0 2:0 3:0 4:0 5:0 6:0 7:0 8:0 9:0 10:0 11:-100 12:0 13:0 14:0 15:0 16:0 17:0 18:0 19:0 20:100 21:0 22:40 23:20 24:0 25:0 26:0 27:40 28:20 29:40 30:20 31:40 32:20 33:0 34:0 35:0 36:60 37:0 38:20 39:20 40:0 41:44 42:21 43:53 
8 1:0 2:0 3:0 4:0 5:0 6:0 7:0 8:0 9:0 10:0 11:-100 12:0 13:0 14:0 15:0 16:0 17:0 18:0 19:0 20:100 21:0 22:40 23:20 24:0 25:0 26:0 27:40 28:20 29:40 30:20 31:40 32:20 33:0 34:0 35:0 36:60 37:0 38:20 39:20 40:0 41:44 42:38 43:66 
1.339598159170575 1:100 2:-100 3:0 4:0 5:0 6:0 7:0 8:0 9:0 10:0 11:0 12:0 13:0 14:0 15:0 16:0 17:0 18:0 19:0 20:0 21:60 22:100 23:60 24:40 25:60 26:0 27:40 28:60 29:60 30:0 31:0 32:40 33:20 34:0 35:20 36:160 37:20 38:100 39:0 40:40 41:2 42:14 43:83 
7.899091332289893 1:0 2:100 3:0 4:0 5:0 6:0 7:0 8:0 9:0 10:0 11:0 12:0 13:0 14:0 15:0 16:0 17:0 18:-100 19:0 20:0 21:60 22:40 23:0 24:20 25:20 26:0 27:0 28:40 29:40 30:0 31:20 32:20 33:0 34:0 35:0 36:40 37:40 38:40 39:20 40:0 41:26 42:50 43:70 
-8 1:0 2:100 3:0 4:0 5:0 6:0 7:0 8:0 9:0 10:0 11:0 12:0 13:0 14:0 15:0 16:0 17:0 18:-100 19:0 20:0 21:60 22:40 23:0 24:20 25:20 26:0 27:0 28:40 29:40 30:0 31:20 32:20 33:0 34:0 35:0 36:40 37:40 38:40 39:20 40:0 41:26 42:50 43:70 
8 1:0 2:100 3:0 4:0 5:0 6:0 7:0 8:0 9:0 10:0 11:0 12:0 13:0 14:0 15:0 16:0 17:0 18:-100 19:0 20:0 21:60 22:40 23:0 24:20 25:20 26:0 27:0 28:40 29:40 30:0 31:20 32:20 33:0 34:0 35:0 36:40 37:40 38:40 39:20 40:0 41:26 42:50 43:70 
-8 1:0 2:100 3:0 4:0 5:0 6:0 7:0 8:0 9:0 10:0 11:0 12:0 13:0 14:0 15:0 16:0 17:0 18:-100 19:0 20:0 21:60 22:40 23:0 24:20 25:20 26:0 27:0 28:40 29:40 30:0 31:20 32:20 33:0 34:0 35:0 36:40 37:40 38:40 39:20 40:0 41:26 42:50 43:70 
-5.726521948123378 1:0 2:0 3:-100 4:0 5:0 6:0 7:0 8:0 9:0 10:0 11:0 12:100 13:0 14:0 15:0 16:0 17:0 18:0 19:0 20:0 21:20 22:100 23:80 24:0 25:20 26:0 27:20 28:80 29:40 30:0 31:0 32:40 33:20 34:20 35:40 36:80 37:0 38:60 39:40 40:40 41:2 42:38 43:59 
5.396678646670013 1:0 2:-100 3:0 4:0 5:0 6:0 7:0 8:0 9:100 10:0 11:0 12:0 13:0 14:0 15:0 16:0 17:0 18:0 19:0 20:0 21:0 22:0 23:0 24:20 25:40 26:0 27:40 28:40 29:60 30:0 31:0 32:20 33:80 34:0 35:20 36:20 37:20 38:0 39:40 40:0 41:60 42:50 43:39 
2.021144649747618 1:0 2:0 3:0 4:0 5:0 6:0 7:0 8:0 9:0 10:0 11:-100 12:0 13:0 14:0 15:0 16:0 17:0 18:0 19:100 20:0 21:0 22:40 23:20 24:0 25:0 26:0 27:40 28:20 29:40 30:20 31:40 32:20 33:0 34:0 35:0 36:60 37:0 38:20 39:20 40:0 41:44 42:47 43:62 
3.848741271827091 1:0 2:0 3:0 4:0 5:0 6:0 7:0 8:0 9:100 10:-100 11:0 12:0 13:0 14:0 15:0 16:0 17:0 18:0 19:0 20:0 21:0 22:20 23:0 24:0 25:60 26:0 27:60 28:20 29:40 30:20 31:0 32:20 33:20 34:0 35:20 36:20 37:0 38:20 39:60 40:20 41:76 42:50 43:39 
-3.195752747264528 1:0 2:0 3:0 4:0 5:0 6:0 7:0 8:0 9:-100 10:0 11:0 12:0 13:0 14:0 15:0 16:0 17:0 18:0 19:0 20:100 21:40 22:40 23:20 24:0 25:0 26:20 27:0 28:20 29:40 30:0 31:20 32:20 33:0 34:0 35:0 36:20 37:20 38:20 39:0 40:0 41:83 42:45 43:25 
-4.96247640484428 1:100 2:0 3:0 4:0 5:0 6:0 7:0 8:0 9:0 10:0 11:0 12:0 13:-100 14:0 15:0 16:0 17:0 18:0 19:0 20:0 21:20 22:80 23:80 24:0 25:0 26:0 27:0 28:40 29:40 30:0 31:20 32:20 33:0 34:0 35:20 36:60 37:0 38:40 39:40 40:20 41:2 42:46 43:70 
3.820842495590757 1:0 2:100 3:0 4:0 5:0 6:0 7:0 8:0 9:0 10:0 11:0 12:0 13:0 14:0 15:0 16:0 17:0 18:0 19:-100 20:0 21:20 22:40 23:60 24:20 25:0 26:20 27:80 28:40 29:40 30:60 31:40 32:40 33:0 34:40 35:0 36:60 37:20 38:0 39:20 40:20 41:11 42:32 43:26 
-4.557980946166989 1:0 2:0 3:-100 4:0 5:0 6:0 7:0 8:100 9:0 10:0 11:0 12:0 13:0 14:0 15:0 16:0 17:0 18:0 19:0 20:0 21:60 22:80 23:40 24:20 25:20 26:60 27:40 28:20 29:160 30:0 31:100 32:80 33:80 34:0 35:40 36:20 37:20 38:20 39:100 40:60 41:1 42:19 43:64 
-1.583199101653409 1:0 2:0 3:-100 4:0 5:0 6:0 7:0 8:0 9:100 10:0 11:0 12:0 13:0 14:0 15:0 16:0 17:0 18:0 19:0 20:0 21:60 22:80 23:40 24:20 25:20 26:60 27:40 28:20 29:160 30:0 31:100 32:80 33:80 34:0 35:40 36:20 37:20 38:20 39:100 40:60 41:1 42:19 43:64 
8 1:0 2:0 3:-100 4:0 5:0 6:0 7:0 8:0 9:100 10:0 11:0 12:0 13:0 14:0 15:0 16:0 17:0 18:0 19:0 20:0 21:60 22:80 23:40 24:20 25:20 26:60 27:40 28:20 29:160 30:0 31:100 32:80 33:80 34:0 35:40 36:20 37:20 38:20 39:100 40:60 41:1 42:19 43:49 
-8 1:-100 2:0 3:0 4:0 5:0 6:0 7:0 8:0 9:0 10:0 11:0 12:0 13:0 14:0 15:0 16:0 17:0 18:100 19:0 20:0 21:20 22:80 23:0 24:0 25:40 26:0 27:0 28:40 29:40 30:20 31:0 32:20 33:0 34:40 35:20 36:0 37:20 38:60 39:20 40:20 41:50 42:50 43:66 
3.309887869471521 1:-100 2:0 3:0 4:0 5:0 6:0 7:0 8:0 9:0 10:0 11:0 12:0 13:0 14:0 15:0 16:0 17:0 18:100 19:0 20:0 21:20 22:80 23:0 24:0 25:40 26:0 27:0 28:40 29:40 30:20 31:0 32:20 33:0 34:40 35:20 36:0 37:20 38:60 39:20 40:20 41:50 42:50 43:77 
8 1:0 2:0 3:0 4:0 5:0 6:0 7:-100 8:0 9:0 10:0 11:0 12:0 13:0 14:0 15:0 16:0 17:0 18:0 19:0 20:100 21:20 22:20 23:20 24:0 25:0 26:0 27:0 28:20 29:60 30:0 31:20 32:40 33:0 34:0 35:0 36:40 37:40 38:0 39:20 40:20 41:76 42:50 43:45 
-0.7287249667557296 1:0 2:0 3:0 4:0 5:0 6:0 7:0 8:100 9:-100 10:0 11:0 12:0 13:0 14:0 15:0 16:0 17:0 18:0 19:0 20:0 21:40 22:100 23:120 24:0 25:60 26:0 27:40 28:20 29:40 30:40 31:20 32:0 33:0 34:0 35:0 36:60 37:0 38:60 39:60 40:20 41:48 42:54 43:25 
-2.425351506189406 1:0 2:100 3:0 4:0 5:-100 6:0 7:0 8:0 9:0 10:0 11:0 12:0 13:0 14:0 15:0 16:0 17:0 18:0 19:0 20:0 21:20 22:120 23:0 24:0 25:40 26:0 27:20 28:40 29:20 30:20 31:40 32:60 33:0 34:40 35:40 36:40 37:0 38:80 39:0 40:40 41:9 42:50 43:66 
0.3462654699278239 1:0 2:0 3:-100 4:0 5:0 6:0 7:0 8:0 9:100 10:0 11:0 12:0 13:0 14:0 15:0 16:0 17:0 18:0 19:0 20:0 21:20 22:60 23:60 24:0 25:40 26:20 27:40 28:20 29:20 30:0 31:0 32:80 33:0 34:0 35:40 36:40 37:20 38:0 39:0 40:40 41:24 42:45 43:25 
-1.886445451944581 1:0 2:0 3:0 4:0 5:-100 6:0 7:0 8:0 9:0 10:0 11:0 12:0 13:0 14:100 15:0 16:0 17:0 18:0 19:0 20:0 21:20 22:120 23:0 24:0 25:40 26:0 27:20 28:40 29:20 30:20 31:40 32:60 33:0 34:40 35:40 36:40 37:0 38:80 39:0 40:40 41:9 42:50 43:66 
3.185915345818317 1:0 2:0 3:-100 4:0 5:0 6:0 7:0 8:0 9:0 10:0 11:0 12:100 13:0 14:0 15:0 16:0 17:0 18:0 19:0 20:0 21:60 22:80 23:40 24:20 25:20 26:60 27:40 28:20 29:160 30:0 31:100 32:80 33:80 34:0 35:40 36:20 37:20 38:20 39:100 40:60 41:1 42:19 43:64 
-1.879378053747495 1:0 2:0 3:100 4:0 5:0 6:0 7:0 8:0 9:-100 10:0 11:0 12:0 13:0 14:0 15:0 16:0 17:0 18:0 19:0 20:0 21:40 22:40 23:20 24:0 25:0 26:20 27:0 28:20 29:40 30:0 31:20 32:20 33:0 34:0 35:0 36:20 37:20 38:20 39:0 40:0 41:83 42:45 43:25 
-6.925339825934347 1:100 2:0 3:-100 4:0 5:0 6:0 7:0 8:0 9:0 10:0 11:0 12:0 13:0 14:0 15:0 16:0 17:0 18:0 19:0 20:0 21:60 22:80 23:40 24:20 25:20 26:60 27:40 28:20 29:160 30:0 31:100 32:80 33:80 34:0 35:40 36:20 37:20 38:20 39:100 40:60 41:1 42:19 43:64 
8 1:100 2:0 3:-100 4:0 5:0 6:0 7:0 8:0 9:0 10:0 11:0 12:0 13:0 14:0 15:0 16:0 17:0 18:0 19:0 20:0 21:60 22:80 23:40 24:20 25:20 26:60 27:40 28:20 29:160 30:0 31:100 32:80 33:80 34:0 35:40 36:20 37:20 38:20 39:100 40:60 41:1 42:19 43:49 
-4.423248437359639 1:100 2:0 3:-100 4:0 5:0 6:0 7:0 8:0 9:0 10:0 11:0 12:0 13:0 14:0 15:0 16:0 17:0 18:0 19:0 20:0 21:60 22:80 23:40 24:20 25:20 26:60 27:40 28:20 29:160 30:0 31:100 32:80 33:80 34:0 35:40 36:20 37:20 38:20 39:100 40:60 41:1 42:19 43:64 
-1.755135687835319 1:0 2:0 3:0 4:0 5:100 6:0 7:-100 8:0 9:0 10:0 11:0 12:0 13:0 14:0 15:0 16:0 17:0 18:0 19:0 20:0 21:20 22:20 23:20 24:0 25:0 26:0 27:0 28:20 29:60 30:0 31:20 32:40 33:0 34:0 35:0 36:40 37:40 38:0 39:20 40:20 41:76 42:50 43:45 
0.04069184891611573 1:0 2:0 3:0 4:0 5:0 6:0 7:0 8:0 9:100 10:0 11:0 12:0 13:0 14:0 15:0 16:0 17:0 18:0 19:0 20:-100 21:0 22:40 23:80 24:0 25:20 26:40 27:60 28:40 29:40 30:0 31:60 32:40 33:0 34:0 35:60 36:20 37:20 38:40 39:20 40:20 41:19 42:45 43:25 
-8 1:0 2:0 3:0 4:0 5:0 6:0 7:0 8:0 9:100 10:0 11:0 12:0 13:0 14:0 15:0 16:0 17:0 18:0 19:0 20:-100 21:0 22:40 23:80 24:0 25:20 26:40 27:60 28:40 29:40 30:0 31:60 32:40 33:0 34:0 35:60 36:20 37:20 38:40 39:20 40:20 41:19 42:45 43:25 
8 1:0 2:0 3:0 4:0 5:0 6:0 7:0 8:0 9:0 10:0 11:0 12:0 13:0 14:0 15:0 16:0 17:0 18:0 19:100 20:-100 21:0 22:40 23:80 24:0 25:20 26:40 27:60 28:40 29:40 30:0 31:60 32:40 33:0 34:0 35:60 36:20 37:20 38:40 39:20 40:20 41:19 42:45 43:25 
0.3421558836686293 1:0 2:0 3:0 4:0 5:0 6:0 7:0 8:0 9:0 10:0 11:0 12:0 13:0 14:0 15:0 16:0 17:0 18:0 19:100 20:-100 21:0 22:40 23:80 24:0 25:20 26:40 27:60 28:40 29:40 30:0 31:60 32:40 33:0 34:0 35:60 36:20 37:20 38:40 39:20 40:20 41:19 42:63 43:25 
-8 1:0 2:0 3:0 4:0 5:0 6:0 7:0 8:0 9:0 10:0 11:0 12:0 13:0 14:0 15:0 16:0 17:0 18:0 19:100 20:-100 21:0 22:40 23:80 24:0 25:20 26:40 27:60 28:40 29:40 30:0 31:60 32:40 33:0 34:0 35:60 36:20 37:20 38:40 39:20 40:20 41:19 42:45 43:25 
8 1:0 2:0 3:0 4:0 5:0 6:0 7:0 8:0 9:0 10:0 11:0 12:0 13:0 14:0 15:0 16:0 17:0 18:0 19:100 20:-100 21:0 22:40 23:80 24:0 25:20 26:40 27:60 28:40 29:40 30:0 31:60 32:40 33:0 34:0 35:60 36:20 37:20 38:40 39:20 40:20 41:19 42:31 43:25 
-4.253056148815366 1:0 2:0 3:0 4:0 5:0 6:0 7:0 8:0 9:0 10:0 11:0 12:0 13:0 14:0 15:0 16:0 17:0 18:0 19:100 20:-100 21:0 22:40 23:80 24:0 25:20 26:40 27:60 28:40 29:40 30:0 31:60 32:40 33:0 34:0 35:60 36:20 37:20 38:40 39:20 40:20 41:19 42:31 43:25 
-2.063958542773752 1:100 2:0 3:-100 4:0 5:0 6:0 7:0 8:0 9:0 10:0 11:0 12:0 13:0 14:0 15:0 16:0 17:0 18:0 19:0 20:0 21:20 22:60 23:60 24:0 25:40 26:20 27:40 28:20 29:20 30:0 31:0 32:80 33:0 34:0 35:40 36:40 37:20 38:0 39:0 40:40 41:24 42:45 43:25 
2.300236047865556 1:0 2:0 3:0 4:100 5:0 6:0 7:0 8:0 9:0 10:0 11:0 12:0 13:0 14:0 15:0 16:0 17:0 18:0 19:-100 20:0 21:20 22:60 23:20 24:40 25:20 26:40 27:20 28:20 29:60 30:0 31:40 32:20 33:0 34:0 35:60 36:20 37:0 38:20 39:40 40:20 41:28 42:38 43:66 
3.795175511103805 1:0 2:0 3:0 4:0 5:-100 6:0 7:100 8:0 9:0 10:0 11:0 12:0 13:0 14:0 15:0 16:0 17:0 18:0 19:0 20:0 21:20 22:120 23:0 24:0 25:40 26:0 27:20 28:40 29:20 30:20 31:40 32:60 33:0 34:40 35:40 36:40 37:0 38:80 39:0 40:40 41:9 42:50 43:66 
-0.3805828556658764 1:0 2:0 3:0 4:0 5:0 6:0 7:0 8:100 9:-100 10:0 11:0 12:0 13:0 14:0 15:0 16:0 17:0 18:0 19:0 20:0 21:100 22:80 23:20 24:0 25:20 26:20 27:0 28:40 29:20 30:60 31:20 32:0 33:0 34:0 35:40 36:40 37:0 38:20 39:20 40:40 41:40 42:45 43:25 
4.022370621444782 1:-100 2:0 3:0 4:0 5:0 6:0 7:0 8:0 9:100 10:0 11:0 12:0 13:0 14:0 15:0 16:0 17:0 18:0 19:0 20:0 21:20 22:0 23:80 24:40 25:0 26:0 27:0 28:20 29:60 30:40 31:0 32:0 33:20 34:0 35:0 36:40 37:0 38:20 39:0 40:40 41:33 42:51 43:20 
1.382849432413868 1:0 2:0 3:-100 4:0 5:0 6:0 7:0 8:0 9:0 10:0 11:0 12:0 13:0 14:0 15:0 16:0 17:0 18:0 19:100 20:0 21:40 22:60 23:0 24:0 25:40 26:20 27:40 28:40 29:20 30:0 31:0 32:140 33:0 34:0 35:0 36:60 37:0 38:60 39:20 40:20 41:24 42:37 43:25 
1.887289877733555 1:0 2:0 3:-100 4:0 5:0 6:0 7:0 8:0 9:0 10:0 11:0 12:0 13:0 14:0 15:0 16:0 17:0 18:0 19:100 20:0 21:40 22:60 23:0 24:0 25:40 26:20 27:40 28:40 29:20 30:0 31:0 32:140 33:0 34:0 35:0 36:60 37:0 38:60 39:20 40:20 41:24 42:37 43:63 
-2.343969650061677 1:0 2:0 3:0 4:0 5:0 6:0 7:0 8:0 9:0 10:0 11:0 12:0 13:0 14:0 15:100 16:0 17:-100 18:0 19:0 20:0 21:80 22:20 23:0 24:60 25:20 26:0 27:80 28:20 29:20 30:20 31:60 32:20 33:40 34:0 35:40 36:20 37:80 38:40 39:20 40:0 41:22 42:50 43:25 
-1.326531970213777 1:-100 2:0 3:100 4:0 5:0 6:0 7:0 8:0 9:0 10:0 11:0 12:0 13:0 14:0 15:0 16:0 17:0 18:0 19:0 20:0 21:20 22:0 23:80 24:40 25:0 26:0 27:0 28:20 29:60 30:40 31:0 32:0 33:20 34:0 35:0 36:40 37:0 38:20 39:0 40:40 41:33 42:51 43:20 
5.413101109341184 1:0 2:0 3:0 4:-100 5:0 6:0 7:0 8:0 9:0 10:0 11:0 12:0 13:100 14:0 15:0 16:0 17:0 18:0 19:0 20:0 21:20 22:60 23:20 24:0 25:40 26:0 27:0 28:40 29:0 30:0 31:60 32:0 33:0 34:20 35:40 36:20 37:20 38:0 39:0 40:20 41:44 42:50 43:25 
-3.180538114505982 1:0 2:0 3:0 4:0 5:0 6:0 7:0 8:0 9:0 10:0 11:0 12:0 13:0 14:0 15:0 16:100 17:0 18:0 19:0 20:-100 21:0 22:40 23:20 24:0 25:20 26:0 27:20 28:40 29:20 30:20 31:20 32:20 33:0 34:0 35:0 36:0 37:0 38:0 39:20 40:40 41:87 42:50 43:47 
8 1:0 2:100 3:0 4:0 5:0 6:0 7:0 8:0 9:0 10:0 11:0 12:0 13:0 14:-100 15:0 16:0 17:0 18:0 19:0 20:0 21:40 22:20 23:20 24:40 25:140 26:0 27:40 28:20 29:20 30:60 31:40 32:20 33:40 34:20 35:0 36:0 37:60 38:60 39:0 40:20 41:31 42:50 43:30 
-5.878751165829574 1:0 2:100 3:0 4:0 5:0 6:0 7:0 8:0 9:0 10:0 11:0 12:0 13:0 14:-100 15:0 16:0 17:0 18:0 19:0 20:0 21:40 22:20 23:20 24:40 25:140 26:0 27:40 28:20 29:20 30:60 31:40 32:20 33:40 34:20 35:0 36:0 37:60 38:60 39:0 40:20 41:31 42:50 43:30 
5.621353301019347 1:-100 2:0 3:0 4:0 5:0 6:0 7:100 8:0 9:0 10:0 11:0 12:0 13:0 14:0 15:0 16:0 17:0 18:0 19:0 20:0 21:0 22:20 23:40 24:0 25:20 26:0 27:20 28:20 29:20 30:0 31:20 32:20 33:0 34:0 35:40 36:20 37:20 38:40 39:20 40:20 41:65 42:19 43:64 
8 1:0 2:0 3:0 4:0 5:0 6:0 7:0 8:0 9:0 10:0 11:100 12:0 13:0 14:-100 15:0 16:0 17:0 18:0 19:0 20:0 21:40 22:20 23:20 24:40 25:140 26:0 27:40 28:20 29:20 30:60 31:40 32:20 33:40 34:20 35:0 36:0 37:60 38:60 39:0 40:20 41:31 42:50 43:30 
-6.449920336931199 1:0 2:0 3:0 4:0 5:0 6:0 7:0 8:0 9:0 10:0 11:100 12:0 13:0 14:-100 15:0 16:0 17:0 18:0 19:0 20:0 21:40 22:20 23:20 24:40 25:140 26:0 27:40 28:20 29:20 30:60 31:40 32:20 33:40 34:20 35:0 36:0 37:60 38:60 39:0 40:20 41:31 42:50 43:30 
-5.512174152778551 1:0 2:0 3:0 4:0 5:-100 6:0 7:0 8:100 9:0 10:0 11:0 12:0 13:0 14:0 15:0 16:0 17:0 18:0 19:0 20:0 21:80 22:60 23:0 24:40 25:0 26:0 27:20 28:60 29:120 30:20 31:20 32:40 33:0 34:0 35:20 36:60 37:20 38:60 39:60 40:40 41:27 42:50 43:20 
-2.313016554788301 1:0 2:0 3:0 4:0 5:-100 6:0 7:0 8:0 9:100 10:0 11:0 12:0 13:0 14:0 15:0 16:0 17:0 18:0 19:0 20:0 21:80 22:60 23:0 24:40 25:0 26:0 27:20 28:60 29:120 30:20 31:20 32:40 33:0 34:0 35:20 36:60 37:20 38:60 39:60 40:40 41:27 42:50 43:20 
1.384536375632131 1:0 2:0 3:0 4:0 5:0 6:0 7:0 8:0 9:0 10:0 11:0 12:100 13:0 14:0 15:0 16:0 17:0 18:-100 19:0 20:0 21:40 22:20 23:0 24:0 25:0 26:0 27:20 28:20 29:0 30:20 31:0 32:0 33:0 34:0 35:0 36:0 37:0 38:0 39:20 40:20 41:93 42:50 43:25 
-1.303742657420327 1:0 2:100 3:0 4:0 5:0 6:0 7:0 8:0 9:-100 10:0 11:0 12:0 13:0 14:0 15:0 16:0 17:0 18:0 19:0 20:0 21:60 22:40 23:0 24:0 25:20 26:20 27:20 28:20 29:40 30:40 31:60 32:20 33:0 34:20 35:0 36:0 37:40 38:20 39:20 40:40 41:55 42:17 43:0 
7.672035882878466 1:0 2:0 3:0 4:0 5:0 6:0 7:100 8:0 9:0 10:0 11:0 12:0 13:0 14:-100 15:0 16:0 17:0 18:0 19:0 20:0 21:40 22:20 23:20 24:40 25:140 26:0 27:40 28:20 29:20 30:60 31:40 32:20 33:40 34:20 35:0 36:0 37:60 38:60 39:0 40:20 41:31 42:50 43:30 
8 1:0 2:0 3:0 4:0 5:0 6:0 7:100 8:0 9:0 10:0 11:0 12:0 13:0 14:-100 15:0 16:0 17:0 18:0 19:0 20:0 21:40 22:20 23:20 24:40 25:140 26:0 27:40 28:20 29:20 30:60 31:40 32:20 33:40 34:20 35:0 36:0 37:60 38:60 39:0 40:20 41:31 42:50 43:30 
-8 1:0 2:0 3:0 4:0 5:0 6:0 7:100 8:0 9:0 10:0 11:0 12:0 13:0 14:-100 15:0 16:0 17:0 18:0 19:0 20:0 21:40 22:20 23:20 24:40 25:140 26:0 27:40 28:20 29:20 30:60 31:40 32:20 33:40 34:20 35:0 36:0 37:60 38:60 39:0 40:20 41:31 42:50 43:30 
3.987625568794161 1:0 2:-100 3:0 4:0 5:0 6:0 7:0 8:0 9:100 10:0 11:0 12:0 13:0 14:0 15:0 16:0 17:0 18:0 19:0 20:0 21:80 22:100 23:40 24:40 25:60 26:0 27:20 28:80 29:80 30:20 31:20 32:40 33:0 34:0 35:80 36:40 37:20 38:20 39:20 40:20 41:0 42:21 43:51 
-1.291183916825108 1:0 2:0 3:0 4:0 5:0 6:0 7:0 8:0 9:0 10:0 11:0 12:100 13:-100 14:0 15:0 16:0 17:0 18:0 19:0 20:0 21:20 22:80 23:80 24:0 25:0 26:0 27:0 28:40 29:40 30:0 31:20 32:20 33:0 34:0 35:20 36:60 37:0 38:40 39:40 40:20 41:2 42:46 43:70 
8 1:0 2:0 3:0 4:0 5:0 6:0 7:0 8:0 9:0 10:0 11:0 12:100 13:-100 14:0 15:0 16:0 17:0 18:0 19:0 20:0 21:20 22:80 23:80 24:0 25:0 26:0 27:0 28:40 29:40 30:0 31:20 32:20 33:0 34:0 35:20 36:60 37:0 38:40 39:40 40:20 41:2 42:42 43:65 
-8 1:0 2:100 3:0 4:0 5:0 6:0 7:0 8:0 9:0 10:0 11:0 12:0 13:0 14:-100 15:0 16:0 17:0 18:0 19:0 20:0 21:60 22:40 23:0 24:20 25:0 26:0 27:40 28:20 29:40 30:0 31:20 32:20 33:0 34:20 35:40 36:40 37:40 38:80 39:40 40:0 41:50 42:37 43:40 
0.185951356861715 1:0 2:100 3:0 4:0 5:0 6:0 7:0 8:0 9:0 10:0 11:0 12:0 13:0 14:-100 15:0 16:0 17:0 18:0 19:0 20:0 21:60 22:40 23:0 24:20 25:0 26:0 27:40 28:20 29:40 30:0 31:20 32:20 33:0 34:20 35:40 36:40 37:40 38:80 39:40 40:0 41:50 42:50 43:51 
8 1:0 2:100 3:0 4:0 5:0 6:0 7:0 8:0 9:0 10:0 11:0 12:0 13:0 14:-100 15:0 16:0 17:0 18:0 19:0 20:0 21:60 22:40 23:0 24:20 25:0 26:0 27:40 28:20 29:40 30:0 31:20 32:20 33:0 34:20 35:40 36:40 37:40 38:80 39:40 40:0 41:50 42:35 43:47 
0.01673533710983308 1:0 2:0 3:0 4:0 5:100 6:0 7:-100 8:0 9:0 10:0 11:0 12:0 13:0 14:0 15:0 16:0 17:0 18:0 19:0 20:0 21:40 22:40 23:60 24:0 25:20 26:20 27:40 28:20 29:20 30:20 31:0 32:40 33:0 34:20 35:20 36:20 37:20 38:0 39:40 40:60 41:18 42:45 43:25 
1.946923402960097 1:0 2:0 3:0 4:0 5:0 6:0 7:-100 8:0 9:100 10:0 11:0 12:0 13:0 14:0 15:0 16:0 17:0 18:0 19:0 20:0 21:40 22:40 23:60 24:0 25:20 26:20 27:40 28:20 29:20 30:20 31:0 32:40 33:0 34:20 35:20 36:20 37:20 38:0 39:40 40:60 41:18 42:45 43:25 
-8 1:0 2:0 3:0 4:0 5:0 6:0 7:-100 8:0 9:100 10:0 11:0 12:0 13:0 14:0 15:0 16:0 17:0 18:0 19:0 20:0 21:40 22:40 23:60 24:0 25:20 26:20 27:40 28:20 29:20 30:20 31:0 32:40 33:0 34:20 35:20 36:20 37:20 38:0 39:40 40:60 41:18 42:45 43:25 
-1.826035941364155 1:0 2:0 3:0 4:0 5:0 6:0 7:0 8:100 9:0 10:0 11:0 12:0 13:0 14:-100 15:0 16:0 17:0 18:0 19:0 20:0 21:40 22:0 23:0 24:40 25:20 26:20 27:20 28:80 29:20 30:20 31:20 32:0 33:0 34:0 35:20 36:40 37:0 38:0 39:20 40:40 41:57 42:32 43:66 
-2.076070808567727 1:0 2:0 3:0 4:0 5:0 6:0 7:0 8:0 9:100 10:0 11:0 12:0 13:0 14:0 15:0 16:-100 17:0 18:0 19:0 20:0 21:20 22:0 23:20 24:0 25:0 26:0 27:20 28:60 29:20 30:20 31:0 32:20 33:40 34:0 35:20 36:0 37:0 38:0 39:0 40:0 41:90 42:50 43:39 
-2.189630617472674 1:-100 2:0 3:100 4:0 5:0 6:0 7:0 8:0 9:0 10:0 11:0 12:0 13:0 14:0 15:0 16:0 17:0 18:0 19:0 20:0 21:20 22:180 23:140 24:20 25:60 26:20 27:20 28:40 29:60 30:40 31:0 32:20 33:0 34:20 35:40 36:40 37:20 38:40 39:0 40:40 41:0 42:53 43:25 
8 1:0 2:0 3:0 4:0 5:0 6:0 7:0 8:0 9:0 10:0 11:0 12:0 13:0 14:0 15:0 16:0 17:100 18:-100 19:0 20:0 21:40 22:80 23:40 24:20 25:20 26:0 27:40 28:40 29:20 30:0 31:0 32:20 33:40 34:0 35:60 36:40 37:0 38:20 39:0 40:20 41:30 42:15 43:65 
-8 1:0 2:0 3:0 4:0 5:0 6:0 7:0 8:0 9:0 10:0 11:0 12:0 13:0 14:0 15:0 16:0 17:100 18:-100 19:0 20:0 21:40 22:80 23:40 24:20 25:20 26:0 27:40 28:40 29:20 30:0 31:0 32:20 33:40 34:0 35:60 36:40 37:0 38:20 39:0 40:20 41:30 42:28 43:65 
5.948932905690622 1:0 2:0 3:0 4:0 5:0 6:0 7:0 8:0 9:0 10:0 11:0 12:0 13:0 14:0 15:0 16:0 17:100 18:-100 19:0 20:0 21:40 22:80 23:40 24:20 25:20 26:0 27:40 28:40 29:20 30:0 31:0 32:20 33:40 34:0 35:60 36:40 37:0 38:20 39:0 40:20 41:30 42:16 43:65 
-8 1:0 2:0 3:0 4:0 5:0 6:0 7:0 8:0 9:0 10:0 11:0 12:0 13:0 14:0 15:0 16:0 17:100 18:-100 19:0 20:0 21:40 22:80 23:40 24:20 25:20 26:0 27:40 28:40 29:20 30:0 31:0 32:20 33:40 34:0 35:60 36:40 37:0 38:20 39:0 40:20 41:30 42:32 43:65 
0.1627086100466702 1:0 2:0 3:0 4:0 5:0 6:0 7:0 8:0 9:0 10:0 11:0 12:0 13:0 14:0 15:0 16:0 17:0 18:0 19:100 20:-100 21:20 22:60 23:100 24:0 25:40 26:20 27:80 28:60 29:20 30:20 31:40 32:80 33:0 34:0 35:60 36:40 37:0 38:20 39:80 40:40 41:0 42:45 43:25 
-8 1:0 2:0 3:0 4:0 5:0 6:0 7:0 8:0 9:0 10:0 11:0 12:0 13:0 14:0 15:0 16:0 17:0 18:0 19:100 20:-100 21:20 22:60 23:100 24:0 25:40 26:20 27:80 28:60 29:20 30:20 31:40 32:80 33:0 34:0 35:60 36:40 37:0 38:20 39:80 40:40 41:0 42:45 43:25 
0.7592998469273086 1:0 2:100 3:-100 4:0 5:0 6:0 7:0 8:0 9:0 10:0 11:0 12:0 13:0 14:0 15:0 16:0 17:0 18:0 19:0 20:0 21:20 22:80 23:60 24:20 25:100 26:40 27:40 28:20 29:100 30:0 31:40 32:20 33:40 34:0 35:0 36:80 37:40 38:60 39:60 40:120 41:0 42:32 43:66 
-4.804144914601205 1:0 2:0 3:0 4:0 5:100 6:-100 7:0 8:0 9:0 10:0 11:0 12:0 13:0 14:0 15:0 16:0 17:0 18:0 19:0 20:0 21:20 22:100 23:80 24:20 25:60 26:0 27:100 28:80 29:100 30:20 31:20 32:80 33:20 34:0 35:0 36:80 37:60 38:20 39:20 40:60 41:0 42:50 43:42 
8 1:0 2:0 3:0 4:0 5:100 6:-100 7:0 8:0 9:0 10:0 11:0 12:0 13:0 14:0 15:0 16:0 17:0 18:0 19:0 20:0 21:20 22:100 23:80 24:20 25:60 26:0 27:100 28:80 29:100 30:20 31:20 32:80 33:20 34:0 35:0 36:80 37:60 38:20 39:20 40:60 41:0 42:50 43:52 
-8 1:0 2:0 3:0 4:0 5:100 6:-100 7:0 8:0 9:0 10:0 11:0 12:0 13:0 14:0 15:0 16:0 17:0 18:0 19:0 20:0 21:20 22:100 23:80 24:20 25:60 26:0 27:100 28:80 29:100 30:20 31:20 32:80 33:20 34:0 35:0 36:80 37:60 38:20 39:20 40:60 41:0 42:50 43:43 
-1.606615018119477 1:0 2:0 3:0 4:0 5:0 6:0 7:0 8:0 9:0 10:0 11:0 12:0 13:0 14:100 15:0 16:0 17:0 18:0 19:0 20:-100 21:0 22:80 23:20 24:0 25:20 26:0 27:20 28:20 29:20 30:20 31:60 32:20 33:0 34:20 35:40 36:0 37:40 38:40 39:20 40:20 41:28 42:50 43:25 
8 1:0 2:0 3:0 4:0 5:0 6:0 7:0 8:-100 9:100 10:0 11:0 12:0 13:0 14:0 15:0 16:0 17:0 18:0 19:0 20:0 21:20 22:80 23:60 24:40 25:40 26:0 27:40 28:80 29:180 30:0 31:60 32:60 33:20 34:0 35:40 36:20 37:0 38:80 39:20 40:40 41:0 42:21 43:50 
-7.611746583282777 1:0 2:0 3:0 4:0 5:0 6:0 7:0 8:-100 9:100 10:0 11:0 12:0 13:0 14:0 15:0 16:0 17:0 18:0 19:0 20:0 21:20 22:80 23:60 24:40 25:40 26:0 27:40 28:80 29:180 30:0 31:60 32:60 33:20 34:0 35:40 36:20 37:0 38:80 39:20 40:40 41:0 42:39 43:52 
-5.114057638963263 1:0 2:0 3:0 4:0 5:0 6:0 7:0 8:-100 9:100 10:0 11:0 12:0 13:0 14:0 15:0 16:0 17:0 18:0 19:0 20:0 21:20 22:80 23:60 24:40 25:40 26:0 27:40 28:80 29:180 30:0 31:60 32:60 33:20 34:0 35:40 36:20 37:0 38:80 39:20 40:40 41:0 42:39 43:52 
8 1:0 2:0 3:0 4:0 5:0 6:0 7:0 8:-100 9:100 10:0 11:0 12:0 13:0 14:0 15:0 16:0 17:0 18:0 19:0 20:0 21:20 22:80 23:60 24:40 25:40 26:0 27:40 28:80 29:180 30:0 31:60 32:60 33:20 34:0 35:40 36:20 37:0 38:80 39:20 40:40 41:0 42:21 43:50 
-1.315820282012299 1:0 2:0 3:0 4:0 5:0 6:0 7:0 8:-100 9:100 10:0 11:0 12:0 13:0 14:0 15:0 16:0 17:0 18:0 19:0 20:0 21:0 22:40 23:0 24:20 25:20 26:0 27:20 28:40 29:40 30:0 31:0 32:0 33:80 34:0 35:20 36:20 37:20 38:0 39:20 40:0 41:53 42:50 43:39 
8 1:0 2:0 3:0 4:0 5:0 6:0 7:0 8:0 9:0 10:0 11:0 12:-100 13:0 14:0 15:0 16:0 17:0 18:0 19:0 20:100 21:20 22:80 23:80 24:0 25:20 26:0 27:0 28:40 29:20 30:0 31:0 32:0 33:20 34:0 35:40 36:60 37:0 38:40 39:0 40:20 41:51 42:14 43:41 
-8 1:0 2:0 3:0 4:0 5:0 6:0 7:0 8:0 9:0 10:0 11:0 12:-100 13:0 14:0 15:0 16:0 17:0 18:0 19:0 20:100 21:20 22:80 23:80 24:0 25:20 26:0 27:0 28:40 29:20 30:0 31:0 32:0 33:20 34:0 35:40 36:60 37:0 38:40 39:0 40:20 41:51 42:46 43:63 
-0.8135036038681072 1:0 2:0 3:0 4:0 5:100 6:0 7:-100 8:0 9:0 10:0 11:0 12:0 13:0 14:0 15:0 16:0 17:0 18:0 19:0 20:0 21:60 22:20 23:40 24:0 25:0 26:0 27:20 28:60 29:40 30:40 31:140 32:80 33:80 34:0 35:20 36:0 37:0 38:0 39:20 40:80 41:2 42:50 43:25 
-0.03470731363644344 1:0 2:0 3:0 4:0 5:100 6:0 7:-100 8:0 9:0 10:0 11:0 12:0 13:0 14:0 15:0 16:0 17:0 18:0 19:0 20:0 21:60 22:20 23:40 24:0 25:0 26:0 27:20 28:60 29:40 30:40 31:140 32:80 33:80 34:0 35:20 36:0 37:0 38:0 39:20 40:80 41:2 42:50 43:50 
8 1:0 2:100 3:0 4:0 5:0 6:0 7:0 8:0 9:0 10:-100 11:0 12:0 13:0 14:0 15:0 16:0 17:0 18:0 19:0 20:0 21:0 22:0 23:0 24:60 25:20 26:0 27:0 28:0 29:0 30:0 31:20 32:0 33:0 34:0 35:0 36:20 37:20 38:0 39:40 40:0 41:32 42:53 43:25 
3.386036643154496 1:0 2:100 3:0 4:0 5:0 6:0 7:0 8:0 9:0 10:-100 11:0 12:0 13:0 14:0 15:0 16:0 17:0 18:0 19:0 20:0 21:0 22:0 23:0 24:60 25:20 26:0 27:0 28:0 29:0 30:0 31:20 32:0 33:0 34:0 35:0 36:20 37:20 38:0 39:40 40:0 41:32 42:53 43:20 
-8 1:0 2:0 3:0 4:0 5:0 6:0 7:0 8:0 9:100 10:0 11:0 12:-100 13:0 14:0 15:0 16:0 17:0 18:0 19:0 20:0 21:20 22:80 23:80 24:0 25:20 26:0 27:0 28:40 29:20 30:0 31:0 32:0 33:20 34:0 35:40 36:60 37:0 38:40 39:0 40:20 41:51 42:14 43:41 
1.594612742914869 1:0 2:0 3:0 4:0 5:0 6:0 7:0 8:0 9:100 10:0 11:0 12:-100 13:0 14:0 15:0 16:0 17:0 18:0 19:0 20:0 21:20 22:80 23:80 24:0 25:20 26:0 27:0 28:40 29:20 30:0 31:0 32:0 33:20 34:0 35:40 36:60 37:0 38:40 39:0 40:20 41:51 42:46 43:63 
-5.347453464146587 1:0 2:0 3:0 4:-100 5:0 6:0 7:0 8:0 9:0 10:0 11:0 12:0 13:0 14:0 15:0 16:0 17:0 18:0 19:0 20:100 21:40 22:0 23:0 24:20 25:0 26:0 27:20 28:0 29:0 30:20 31:20 32:0 33:40 34:0 35:20 36:0 37:0 38:20 39:20 40:20 41:105 42:22 43:53 
8 1:0 2:0 3:0 4:-100 5:0 6:0 7:0 8:0 9:0 10:0 11:0 12:0 13:0 14:0 15:0 16:0 17:0 18:0 19:0 20:100 21:40 22:0 23:0 24:20 25:0 26:0 27:20 28:0 29:0 30:20 31:20 32:0 33:40 34:0 35:20 36:0 37:0 38:20 39:20 40:20 41:105 42:50 43:53 
2.229554538352263 1:0 2:0 3:0 4:-100 5:0 6:0 7:0 8:0 9:0 10:0 11:0 12:0 13:0 14:0 15:0 16:0 17:0 18:0 19:0 20:100 21:40 22:0 23:0 24:20 25:0 26:0 27:20 28:0 29:0 30:20 31:20 32:0 33:40 34:0 35:20 36:0 37:0 38:20 39:20 40:20 41:105 42:67 43:53 
-0.5139816400342768 1:100 2:0 3:-100 4:0 5:0 6:0 7:0 8:0 9:0 10:0 11:0 12:0 13:0 14:0 15:0 16:0 17:0 18:0 19:0 20:0 21:60 22:120 23:20 24:0 25:20 26:0 27:60 28:20 29:60 30:40 31:20 32:20 33:20 34:0 35:0 36:60 37:60 38:40 39:0 40:0 41:0 42:50 43:25 
-3.656956435458873 1:0 2:0 3:0 4:0 5:0 6:0 7:100 8:0 9:0 10:0 11:0 12:0 13:0 14:-100 15:0 16:0 17:0 18:0 19:0 20:0 21:20 22:0 23:0 24:0 25:0 26:0 27:0 28:40 29:0 30:40 31:0 32:40 33:0 34:0 35:0 36:80 37:0 38:40 39:0 40:40 41:21 42:38 43:40 
8 1:0 2:0 3:0 4:-100 5:0 6:0 7:0 8:0 9:0 10:0 11:0 12:0 13:0 14:0 15:0 16:100 17:0 18:0 19:0 20:0 21:40 22:0 23:0 24:20 25:0 26:0 27:20 28:0 29:0 30:20 31:20 32:0 33:40 34:0 35:20 36:0 37:0 38:20 39:20 40:20 41:105 42:22 43:53 
-5.939758135825382 1:0 2:0 3:0 4:-100 5:0 6:0 7:0 8:0 9:0 10:0 11:0 12:0 13:0 14:0 15:0 16:100 17:0 18:0 19:0 20:0 21:40 22:0 23:0 24:20 25:0 26:0 27:20 28:0 29:0 30:20 31:20 32:0 33:40 34:0 35:20 36:0 37:0 38:20 39:20 40:20 41:105 42:67 43:53 
-0.6362566983658082 1:0 2:0 3:0 4:0 5:100 6:-100 7:0 8:0 9:0 10:0 11:0 12:0 13:0 14:0 15:0 16:0 17:0 18:0 19:0 20:0 21:0 22:80 23:40 24:20 25:20 26:20 27:0 28:0 29:60 30:20 31:20 32:0 33:0 34:40 35:40 36:60 37:20 38:100 39:0 40:60 41:32 42:53 43:25 
-6.358886734954812 1:0 2:0 3:0 4:0 5:0 6:100 7:-100 8:0 9:0 10:0 11:0 12:0 13:0 14:0 15:0 16:0 17:0 18:0 19:0 20:0 21:20 22:20 23:20 24:0 25:0 26:0 27:0 28:20 29:60 30:0 31:20 32:40 33:0 34:0 35:0 36:40 37:40 38:0 39:20 40:20 41:76 42:50 43:45 
7.655723872039935 1:0 2:100 3:0 4:-100 5:0 6:0 7:0 8:0 9:0 10:0 11:0 12:0 13:0 14:0 15:0 16:0 17:0 18:0 19:0 20:0 21:40 22:0 23:0 24:20 25:0 26:0 27:20 28:0 29:0 30:20 31:20 32:0 33:40 34:0 35:20 36:0 37:0 38:20 39:20 40:20 41:105 42:50 43:53 
-8 1:0 2:100 3:0 4:-100 5:0 6:0 7:0 8:0 9:0 10:0 11:0 12:0 13:0 14:0 15:0 16:0 17:0 18:0 19:0 20:0 21:40 22:0 23:0 24:20 25:0 26:0 27:20 28:0 29:0 30:20 31:20 32:0 33:40 34:0 35:20 36:0 37:0 38:20 39:20 40:20 41:105 42:67 43:53 
-0.01274885583060585 1:0 2:0 3:0 4:0 5:0 6:0 7:0 8:0 9:100 10:0 11:0 12:0 13:0 14:0 15:0 16:0 17:0 18:-100 19:0 20:0 21:40 22:80 23:40 24:40 25:20 26:40 27:60 28:80 29:100 30:0 31:60 32:80 33:20 34:0 35:40 36:0 37:40 38:0 39:60 40:60 41:10 42:64 43:47 
2.780167058595129 1:0 2:0 3:0 4:0 5:0 6:0 7:0 8:0 9:100 10:0 11:0 12:0 13:0 14:0 15:0 16:0 17:0 18:-100 19:0 20:0 21:40 22:80 23:40 24:40 25:20 26:40 27:60 28:80 29:100 30:0 31:60 32:80 33:20 34:0 35:40 36:0 37:40 38:0 39:60 40:60 41:10 42:21 43:50 
2.766550551429063 1:0 2:0 3:0 4:0 5:0 6:0 7:0 8:0 9:-100 10:0 11:100 12:0 13:0 14:0 15:0 16:0 17:0 18:0 19:0 20:0 21:60 22:60 23:40 24:0 25:60 26:0 27:0 28:40 29:20 30:0 31:0 32:0 33:0 34:20 35:40 36:0 37:20 38:20 39:40 40:40 41:46 42:21 43:51 
-8 1:100 2:0 3:0 4:0 5:0 6:0 7:0 8:0 9:0 10:0 11:0 12:-100 13:0 14:0 15:0 16:0 17:0 18:0 19:0 20:0 21:20 22:80 23:80 24:0 25:20 26:0 27:0 28:40 29:20 30:0 31:0 32:0 33:20 34:0 35:40 36:60 37:0 38:40 39:0 40:20 41:51 42:14 43:41 
3.307471064337867 1:100 2:0 3:0 4:0 5:0 6:0 7:0 8:0 9:0 10:0 11:0 12:-100 13:0 14:0 15:0 16:0 17:0 18:0 19:0 20:0 21:20 22:80 23:80 24:0 25:20 26:0 27:0 28:40 29:20 30:0 31:0 32:0 33:20 34:0 35:40 36:60 37:0 38:40 39:0 40:20 41:51 42:46 43:63 
-2.858181088147331 1:0 2:0 3:0 4:0 5:0 6:0 7:0 8:0 9:0 10:0 11:0 12:0 13:0 14:0 15:0 16:0 17:0 18:-100 19:100 20:0 21:20 22:60 23:40 24:0 25:20 26:0 27:40 28:0 29:40 30:20 31:40 32:60 33:20 34:0 35:40 36:20 37:80 38:0 39:20 40:20 41:16 42:50 43:25 
3.029131461079448 1:100 2:0 3:0 4:-100 5:0 6:0 7:0 8:0 9:0 10:0 11:0 12:0 13:0 14:0 15:0 16:0 17:0 18:0 19:0 20:0 21:40 22:0 23:0 24:20 25:0 26:0 27:20 28:0 29:0 30:20 31:20 32:0 33:40 34:0 35:20 36:0 37:0 38:20 39:20 40:20 41:105 42:50 43:53 
-8 1:100 2:0 3:0 4:-100 5:0 6:0 7:0 8:0 9:0 10:0 11:0 12:0 13:0 14:0 15:0 16:0 17:0 18:0 19:0 20:0 21:40 22:0 23:0 24:20 25:0 26:0 27:20 28:0 29:0 30:20 31:20 32:0 33:40 34:0 35:20 36:0 37:0 38:20 39:20 40:20 41:105 42:67 43:53 
-0.7745187455167961 1:0 2:0 3:0 4:0 5:0 6:0 7:0 8:100 9:0 10:-100 11:0 12:0 13:0 14:0 15:0 16:0 17:0 18:0 19:0 20:0 21:20 22:0 23:0 24:0 25:0 26:0 27:40 28:60 29:40 30:0 31:40 32:40 33:20 34:0 35:40 36:20 37:0 38:0 39:80 40:40 41:54 42:20 43:68 
-4.918439450863964 1:0 2:0 3:-100 4:0 5:0 6:0 7:0 8:0 9:0 10:0 11:0 12:0 13:100 14:0 15:0 16:0 17:0 18:0 19:0 20:0 21:80 22:80 23:40 24:20 25:20 26:0 27:0 28:20 29:0 30:0 31:60 32:20 33:0 34:20 35:40 36:40 37:0 38:0 39:0 40:20 41:49 42:50 43:25 
0.4495656520128444 1:0 2:0 3:0 4:0 5:0 6:0 7:0 8:-100 9:0 10:0 11:0 12:0 13:0 14:100 15:0 16:0 17:0 18:0 19:0 20:0 21:40 22:40 23:20 24:0 25:0 26:20 27:0 28:20 29:100 30:0 31:40 32:0 33:0 34:0 35:0 36:40 37:20 38:20 39:20 40:20 41:48 42:45 43:25 
6.031217896499356 1:0 2:0 3:0 4:0 5:0 6:0 7:0 8:-100 9:0 10:0 11:0 12:0 13:0 14:100 15:0 16:0 17:0 18:0 19:0 20:0 21:40 22:40 23:20 24:0 25:0 26:20 27:0 28:20 29:100 30:0 31:40 32:0 33:0 34:0 35:0 36:40 37:20 38:20 39:20 40:20 41:48 42:31 43:25 
-8 1:0 2:0 3:0 4:0 5:0 6:0 7:0 8:-100 9:0 10:0 11:0 12:0 13:0 14:100 15:0 16:0 17:0 18:0 19:0 20:0 21:40 22:40 23:20 24:0 25:0 26:20 27:0 28:20 29:100 30:0 31:40 32:0 33:0 34:0 35:0 36:40 37:20 38:20 39:20 40:20 41:48 42:63 43:25 
7.44153902741416 1:0 2:0 3:-100 4:0 5:0 6:0 7:0 8:0 9:100 10:0 11:0 12:0 13:0 14:0 15:0 16:0 17:0 18:0 19:0 20:0 21:60 22:40 23:20 24:40 25:20 26:60 27:20 28:40 29:100 30:20 31:20 32:0 33:40 34:0 35:100 36:20 37:40 38:20 39:40 40:20 41:2 42:19 43:64 
2.081880222439524 1:0 2:0 3:0 4:0 5:0 6:0 7:-100 8:0 9:0 10:0 11:0 12:0 13:0 14:0 15:0 16:0 17:100 18:0 19:0 20:0 21:20 22:20 23:20 24:0 25:0 26:0 27:0 28:20 29:60 30:0 31:20 32:40 33:0 34:0 35:0 36:40 37:40 38:0 39:20 40:20 41:76 42:50 43:45 
5.919624266326335 1:0 2:0 3:100 4:0 5:0 6:0 7:0 8:0 9:0 10:0 11:0 12:-100 13:0 14:0 15:0 16:0 17:0 18:0 19:0 20:0 21:40 22:40 23:20 24:0 25:40 26:20 27:20 28:60 29:0 30:0 31:0 32:80 33:0 34:0 35:0 36:60 37:0 38:80 39:20 40:40 41:32 42:37 43:25 
8 1:0 2:0 3:100 4:0 5:0 6:0 7:0 8:0 9:0 10:0 11:0 12:-100 13:0 14:0 15:0 16:0 17:0 18:0 19:0 20:0 21:40 22:40 23:20 24:0 25:40 26:20 27:20 28:60 29:0 30:0 31:0 32:80 33:0 34:0 35:0 36:60 37:0 38:80 39:20 40:40 41:32 42:37 43:63 
-3.294895444094063 1:0 2:0 3:0 4:0 5:0 6:0 7:0 8:0 9:-100 10:0 11:100 12:0 13:0 14:0 15:0 16:0 17:0 18:0 19:0 20:0 21:20 22:60 23:20 24:0 25:0 26:0 27:20 28:20 29:20 30:20 31:0 32:0 33:0 34:0 35:40 36:40 37:20 38:20 39:20 40:20 41:81 42:21 43:51 
2.197983506217948 1:0 2:0 3:0 4:0 5:0 6:0 7:0 8:-100 9:100 10:0 11:0 12:0 13:0 14:0 15:0 16:0 17:0 18:0 19:0 20:0 21:0 22:20 23:0 24:20 25:60 26:0 27:20 28:40 29:60 30:20 31:0 32:20 33:80 34:0 35:40 36:0 37:0 38:20 39:40 40:20 41:23 42:50 43:39 
-8 1:0 2:0 3:0 4:0 5:0 6:0 7:0 8:0 9:0 10:0 11:0 12:0 13:0 14:0 15:0 16:0 17:0 18:100 19:0 20:-100 21:40 22:60 23:40 24:40 25:40 26:0 27:20 28:100 29:140 30:0 31:80 32:40 33:40 34:20 35:60 36:20 37:20 38:80 39:60 40:40 41:12 42:64 43:47 
8 1:0 2:0 3:0 4:0 5:0 6:0 7:0 8:0 9:0 10:0 11:0 12:0 13:0 14:0 15:0 16:0 17:0 18:100 19:0 20:-100 21:40 22:60 23:40 24:40 25:40 26:0 27:20 28:100 29:140 30:0 31:80 32:40 33:40 34:20 35:60 36:20 37:20 38:80 39:60 40:40 41:12 42:21 43:50 
-3.270977676873913 1:0 2:0 3:0 4:0 5:0 6:0 7:0 8:0 9:100 10:0 11:0 12:0 13:0 14:0 15:0 16:-100 17:0 18:0 19:0 20:0 21:20 22:60 23:80 24:0 25:0 26:0 27:40 28:40 29:60 30:20 31:60 32:40 33:20 34:0 35:20 36:40 37:0 38:20 39:60 40:20 41:23 42:38 43:53 
8 1:0 2:0 3:0 4:0 5:0 6:0 7:0 8:0 9:100 10:0 11:0 12:0 13:0 14:0 15:0 16:-100 17:0 18:0 19:0 20:0 21:20 22:100 23:40 24:0 25:20 26:0 27:20 28:20 29:80 30:0 31:20 32:0 33:0 34:20 35:20 36:60 37:0 38:60 39:20 40:20 41:63 42:30 43:4 
-1.129824988998414 1:0 2:0 3:0 4:0 5:0 6:0 7:0 8:0 9:100 10:0 11:0 12:0 13:0 14:0 15:0 16:-100 17:0 18:0 19:0 20:0 21:20 22:100 23:40 24:0 25:20 26:0 27:20 28:20 29:80 30:0 31:20 32:0 33:0 34:20 35:20 36:60 37:0 38:60 39:20 40:20 41:63 42:30 43:4 
-8 1:0 2:0 3:-100 4:0 5:0 6:0 7:0 8:0 9:0 10:0 11:0 12:100 13:0 14:0 15:0 16:0 17:0 18:0 19:0 20:0 21:80 22:80 23:40 24:20 25:20 26:0 27:0 28:20 29:0 30:0 31:60 32:20 33:0 34:20 35:40 36:40 37:0 38:0 39:0 40:20 41:49 42:50 43:25 
-4.442518333322147 1:0 2:0 3:0 4:0 5:0 6:0 7:0 8:0 9:100 10:0 11:0 12:0 13:-100 14:0 15:0 16:0 17:0 18:0 19:0 20:0 21:40 22:80 23:80 24:0 25:0 26:80 27:40 28:0 29:60 30:20 31:60 32:20 33:60 34:20 35:0 36:40 37:20 38:0 39:100 40:20 41:2 42:67 43:20 
-6.997578476608798 1:0 2:0 3:0 4:0 5:0 6:0 7:0 8:0 9:0 10:100 11:0 12:0 13:0 14:0 15:0 16:0 17:0 18:-100 19:0 20:0 21:20 22:60 23:60 24:0 25:0 26:0 27:0 28:20 29:0 30:20 31:20 32:80 33:0 34:0 35:0 36:80 37:40 38:0 39:0 40:20 41:41 42:21 43:65 
-2.37443785660245 1:0 2:0 3:0 4:0 5:0 6:0 7:0 8:0 9:100 10:0 11:0 12:0 13:0 14:0 15:0 16:0 17:-100 18:0 19:0 20:0 21:20 22:20 23:20 24:20 25:60 26:0 27:40 28:20 29:60 30:20 31:20 32:20 33:40 34:0 35:20 36:40 37:0 38:0 39:60 40:0 41:36 42:50 43:39 
1.08551219047502 1:0 2:0 3:0 4:0 5:0 6:0 7:0 8:0 9:100 10:-100 11:0 12:0 13:0 14:0 15:0 16:0 17:0 18:0 19:0 20:0 21:20 22:20 23:0 24:0 25:80 26:0 27:80 28:40 29:40 30:20 31:0 32:40 33:20 34:0 35:60 36:20 37:20 38:20 39:60 40:0 41:34 42:50 43:39 
-6.202496306846957 1:0 2:0 3:0 4:0 5:0 6:0 7:0 8:100 9:0 10:0 11:0 12:-100 13:0 14:0 15:0 16:0 17:0 18:0 19:0 20:0 21:20 22:80 23:80 24:0 25:20 26:0 27:0 28:40 29:20 30:0 31:0 32:0 33:20 34:0 35:40 36:60 37:0 38:40 39:0 40:20 41:51 42:14 43:41 
6.696348421030385 1:0 2:0 3:0 4:0 5:0 6:0 7:0 8:100 9:0 10:0 11:0 12:-100 13:0 14:0 15:0 16:0 17:0 18:0 19:0 20:0 21:20 22:80 23:80 24:0 25:20 26:0 27:0 28:40 29:20 30:0 31:0 32:0 33:20 34:0 35:40 36:60 37:0 38:40 39:0 40:20 41:51 42:46 43:63 
2.238119481809073 1:-100 2:0 3:100 4:0 5:0 6:0 7:0 8:0 9:0 10:0 11:0 12:0 13:0 14:0 15:0 16:0 17:0 18:0 19:0 20:0 21:20 22:60 23:40 24:20 25:40 26:40 27:20 28:0 29:180 30:40 31:20 32:20 33:20 34:20 35:0 36:80 37:40 38:60 39:0 40:20 41:4 42:35 43:50 
1.195919784253635 1:0 2:0 3:0 4:0 5:0 6:0 7:0 8:0 9:0 10:-100 11:0 12:0 13:0 14:0 15:100 16:0 17:0 18:0 19:0 20:0 21:20 22:0 23:40 24:20 25:0 26:0 27:40 28:20 29:20 30:20 31:0 32:40 33:0 34:0 35:0 36:100 37:0 38:0 39:40 40:20 41:70 42:32 43:25 
1.198691645863597 1:-100 2:100 3:0 4:0 5:0 6:0 7:0 8:0 9:0 10:0 11:0 12:0 13:0 14:0 15:0 16:0 17:0 18:0 19:0 20:0 21:0 22:20 23:0 24:0 25:0 26:20 27:20 28:20 29:40 30:20 31:20 32:20 33:40 34:20 35:40 36:0 37:0 38:0 39:60 40:40 41:60 42:19 43:64 
8 1:0 2:0 3:0 4:0 5:0 6:0 7:0 8:0 9:0 10:0 11:100 12:0 13:-100 14:0 15:0 16:0 17:0 18:0 19:0 20:0 21:20 22:60 23:40 24:20 25:40 26:0 27:20 28:40 29:20 30:20 31:0 32:40 33:0 34:40 35:20 36:60 37:0 38:40 39:20 40:0 41:0 42:42 43:46 
5.091293109792677 1:0 2:0 3:0 4:0 5:0 6:0 7:0 8:0 9:100 10:0 11:0 12:-100 13:0 14:0 15:0 16:0 17:0 18:0 19:0 20:0 21:20 22:20 23:40 24:0 25:60 26:0 27:60 28:0 29:20 30:20 31:20 32:20 33:40 34:0 35:20 36:20 37:20 38:0 39:40 40:0 41:56 42:50 43:39 
-4.835978651419661 1:0 2:0 3:0 4:-100 5:0 6:0 7:0 8:100 9:0 10:0 11:0 12:0 13:0 14:0 15:0 16:0 17:0 18:0 19:0 20:0 21:40 22:0 23:0 24:20 25:0 26:0 27:20 28:0 29:0 30:20 31:20 32:0 33:40 34:0 35:20 36:0 37:0 38:20 39:20 40:20 41:105 42:22 43:53 
8 1:0 2:0 3:0 4:-100 5:0 6:0 7:0 8:100 9:0 10:0 11:0 12:0 13:0 14:0 15:0 16:0 17:0 18:0 19:0 20:0 21:40 22:0 23:0 24:20 25:0 26:0 27:20 28:0 29:0 30:20 31:20 32:0 33:40 34:0 35:20 36:0 37:0 38:20 39:20 40:20 41:105 42:50 43:53 
1.506672509275377 1:0 2:0 3:0 4:0 5:0 6:0 7:0 8:0 9:100 10:0 11:0 12:0 13:0 14:0 15:0 16:0 17:0 18:-100 19:0 20:0 21:80 22:40 23:20 24:0 25:20 26:0 27:0 28:40 29:0 30:0 31:20 32:0 33:0 34:0 35:20 36:60 37:40 38:80 39:0 40:0 41:32 42:50 43:70 
3.263635313950593 1:-100 2:0 3:0 4:0 5:0 6:0 7:0 8:100 9:0 10:0 11:0 12:0 13:0 14:0 15:0 16:0 17:0 18:0 19:0 20:0 21:0 22:20 23:0 24:0 25:0 26:20 27:20 28:20 29:40 30:20 31:20 32:20 33:40 34:20 35:40 36:0 37:0 38:0 39:60 40:40 41:60 42:19 43:64 
6.48211818481863 1:0 2:0 3:0 4:0 5:100 6:0 7:0 8:0 9:0 10:0 11:0 12:0 13:0 14:0 15:0 16:0 17:0 18:-100 19:0 20:0 21:20 22:60 23:40 24:0 25:20 26:0 27:40 28:0 29:40 30:20 31:40 32:60 33:20 34:0 35:40 36:20 37:80 38:0 39:20 40:20 41:16 42:50 43:25 
2.222076783824212 1:-100 2:0 3:0 4:0 5:100 6:0 7:0 8:0 9:0 10:0 11:0 12:0 13:0 14:0 15:0 16:0 17:0 18:0 19:0 20:0 21:60 22:100 23:80 24:60 25:40 26:0 27:60 28:60 29:80 30:20 31:20 32:80 33:0 34:0 35:40 36:80 37:0 38:40 39:20 40:40 41:0 42:38 43:40 
0.1013907649536852 1:0 2:0 3:0 4:0 5:0 6:0 7:0 8:0 9:-100 10:0 11:100 12:0 13:0 14:0 15:0 16:0 17:0 18:0 19:0 20:0 21:60 22:0 23:20 24:0 25:20 26:0 27:0 28:0 29:40 30:0 31:20 32:40 33:0 34:0 35:0 36:40 37:0 38:20 39:0 40:60 41:0 42:50 43:63 
-8 1:0 2:0 3:0 4:0 5:0 6:0 7:0 8:0 9:100 10:0 11:0 12:0 13:0 14:0 15:0 16:0 17:0 18:0 19:-100 20:0 21:40 22:40 23:80 24:0 25:0 26:0 27:60 28:80 29:40 30:40 31:20 32:60 33:0 34:0 35:0 36:40 37:0 38:20 39:40 40:40 41:9 42:45 43:25 
-8 1:0 2:0 3:-100 4:0 5:0 6:0 7:0 8:0 9:0 10:0 11:0 12:100 13:0 14:0 15:0 16:0 17:0 18:0 19:0 20:0 21:60 22:100 23:40 24:20 25:60 26:40 27:20 28:40 29:180 30:0 31:80 32:60 33:40 34:0 35:20 36:40 37:40 38:40 39:60 40:40 41:0 42:45 43:74 
-3.563175134904683 1:0 2:0 3:-100 4:0 5:0 6:0 7:0 8:0 9:0 10:0 11:100 12:0 13:0 14:0 15:0 16:0 17:0 18:0 19:0 20:0 21:60 22:80 23:40 24:20 25:20 26:60 27:40 28:20 29:160 30:0 31:100 32:80 33:80 34:0 35:40 36:20 37:20 38:20 39:100 40:60 41:1 42:19 43:64 
-8 1:0 2:0 3:0 4:-100 5:0 6:0 7:0 8:0 9:0 10:0 11:0 12:0 13:0 14:0 15:0 16:0 17:0 18:100 19:0 20:0 21:40 22:0 23:0 24:20 25:0 26:0 27:20 28:0 29:0 30:20 31:20 32:0 33:40 34:0 35:20 36:0 37:0 38:20 39:20 40:20 41:105 42:22 43:53 
8 1:0 2:0 3:0 4:-100 5:0 6:0 7:0 8:0 9:0 10:0 11:0 12:0 13:0 14:0 15:0 16:0 17:0 18:100 19:0 20:0 21:40 22:0 23:0 24:20 25:0 26:0 27:20 28:0 29:0 30:20 31:20 32:0 33:40 34:0 35:20 36:0 37:0 38:20 39:20 40:20 41:105 42:50 43:53 
1.324417072332663 1:0 2:0 3:0 4:-100 5:0 6:0 7:0 8:0 9:0 10:0 11:0 12:0 13:0 14:0 15:0 16:0 17:0 18:100 19:0 20:0 21:40 22:0 23:0 24:20 25:0 26:0 27:20 28:0 29:0 30:20 31:20 32:0 33:40 34:0 35:20 36:0 37:0 38:20 39:20 40:20 41:105 42:67 43:53 
-2.070174560068271 1:0 2:0 3:100 4:-100 5:0 6:0 7:0 8:0 9:0 10:0 11:0 12:0 13:0 14:0 15:0 16:0 17:0 18:0 19:0 20:0 21:0 22:0 23:20 24:0 25:0 26:0 27:0 28:40 29:20 30:40 31:0 32:20 33:0 34:0 35:60 36:20 37:20 38:60 39:20 40:0 41:30 42:50 43:63 
8 1:0 2:0 3:0 4:0 5:0 6:0 7:0 8:0 9:0 10:0 11:0 12:0 13:0 14:0 15:0 16:0 17:0 18:0 19:100 20:-100 21:0 22:0 23:0 24:0 25:0 26:0 27:40 28:40 29:40 30:20 31:40 32:40 33:0 34:0 35:40 36:20 37:0 38:0 39:60 40:20 41:50 42:15 43:65 
-8 1:0 2:0 3:0 4:0 5:0 6:0 7:0 8:0 9:0 10:0 11:0 12:0 13:0 14:0 15:0 16:0 17:0 18:0 19:100 20:-100 21:0 22:0 23:0 24:0 25:0 26:0 27:40 28:40 29:40 30:20 31:40 32:40 33:0 34:0 35:40 36:20 37:0 38:0 39:60 40:20 41:50 42:28 43:65 
0.755807263757445 1:0 2:0 3:0 4:0 5:0 6:0 7:0 8:0 9:0 10:0 11:0 12:0 13:0 14:0 15:100 16:0 17:-100 18:0 19:0 20:0 21:20 22:40 23:0 24:0 25:20 26:0 27:0 28:40 29:120 30:0 31:0 32:0 33:0 34:0 35:20 36:40 37:0 38:40 39:0 40:0 41:57 42:35 43:50 
1.198292906810986 1:0 2:0 3:0 4:0 5:0 6:0 7:0 8:0 9:100 10:0 11:0 12:0 13:0 14:0 15:0 16:0 17:0 18:0 19:-100 20:0 21:60 22:20 23:0 24:0 25:40 26:0 27:80 28:40 29:20 30:40 31:60 32:0 33:0 34:20 35:0 36:0 37:60 38:60 39:40 40:0 41:3 42:50 43:25 
-8 1:0 2:0 3:0 4:0 5:0 6:0 7:0 8:0 9:100 10:0 11:0 12:0 13:0 14:0 15:0 16:0 17:0 18:0 19:-100 20:0 21:60 22:20 23:0 24:0 25:40 26:0 27:80 28:40 29:20 30:40 31:60 32:0 33:0 34:20 35:0 36:0 37:60 38:60 39:40 40:0 41:3 42:50 43:50 
-5.670555563687509 1:0 2:0 3:0 4:0 5:-100 6:0 7:0 8:0 9:100 10:0 11:0 12:0 13:0 14:0 15:0 16:0 17:0 18:0 19:0 20:0 21:20 22:80 23:20 24:20 25:20 26:0 27:60 28:60 29:40 30:40 31:0 32:60 33:0 34:40 35:60 36:80 37:20 38:60 39:40 40:40 41:8 42:50 43:20 
7.238750462898307 1:0 2:-100 3:100 4:0 5:0 6:0 7:0 8:0 9:0 10:0 11:0 12:0 13:0 14:0 15:0 16:0 17:0 18:0 19:0 20:0 21:120 22:140 23:80 24:60 25:60 26:40 27:40 28:60 29:80 30:20 31:40 32:20 33:20 34:0 35:60 36:40 37:40 38:20 39:40 40:40 41:0 42:21 43:51 
-8 1:0 2:-100 3:100 4:0 5:0 6:0 7:0 8:0 9:0 10:0 11:0 12:0 13:0 14:0 15:0 16:0 17:0 18:0 19:0 20:0 21:120 22:140 23:80 24:60 25:60 26:40 27:40 28:60 29:80 30:20 31:40 32:20 33:20 34:0 35:60 36:40 37:40 38:20 39:40 40:40 41:0 42:40 43:64 
-4.995036227364767 1:0 2:0 3:0 4:0 5:0 6:0 7:0 8:0 9:-100 10:0 11:0 12:100 13:0 14:0 15:0 16:0 17:0 18:0 19:0 20:0 21:40 22:20 23:40 24:40 25:20 26:20 27:20 28:20 29:20 30:0 31:0 32:80 33:0 34:0 35:60 36:40 37:0 38:0 39:40 40:40 41:14 42:42 43:65 
7.177626556581205 1:0 2:0 3:-100 4:100 5:0 6:0 7:0 8:0 9:0 10:0 11:0 12:0 13:0 14:0 15:0 16:0 17:0 18:0 19:0 20:0 21:100 22:40 23:80 24:60 25:60 26:20 27:40 28:0 29:60 30:0 31:0 32:20 33:20 34:0 35:80 36:0 37:0 38:40 39:60 40:60 41:10 42:14 43:41 
-8 1:0 2:0 3:-100 4:100 5:0 6:0 7:0 8:0 9:0 10:0 11:0 12:0 13:0 14:0 15:0 16:0 17:0 18:0 19:0 20:0 21:100 22:40 23:80 24:60 25:60 26:20 27:40 28:0 29:60 30:0 31:0 32:20 33:20 34:0 35:80 36:0 37:0 38:40 39:60 40:60 41:10 42:46 43:64 
8 1:0 2:-100 3:0 4:100 5:0 6:0 7:0 8:0 9:0 10:0 11:0 12:0 13:0 14:0 15:0 16:0 17:0 18:0 19:0 20:0 21:120 22:140 23:80 24:60 25:60 26:40 27:40 28:60 29:80 30:20 31:40 32:20 33:20 34:0 35:60 36:40 37:40 38:20 39:40 40:40 41:0 42:38 43:65 
-1.355383882101697 1:0 2:-100 3:0 4:100 5:0 6:0 7:0 8:0 9:0 10:0 11:0 12:0 13:0 14:0 15:0 16:0 17:0 18:0 19:0 20:0 21:120 22:140 23:80 24:60 25:60 26:40 27:40 28:60 29:80 30:20 31:40 32:20 33:20 34:0 35:60 36:40 37:40 38:20 39:40 40:40 41:0 42:40 43:64 
-0.8565342545368311 1:0 2:0 3:0 4:0 5:0 6:0 7:0 8:0 9:0 10:0 11:0 12:0 13:0 14:-100 15:0 16:0 17:100 18:0 19:0 20:0 21:60 22:140 23:80 24:20 25:80 26:0 27:20 28:80 29:40 30:20 31:40 32:40 33:60 34:0 35:80 36:0 37:20 38:20 39:20 40:60 41:3 42:60 43:37 
-8 1:-100 2:0 3:0 4:0 5:0 6:0 7:0 8:0 9:0 10:0 11:0 12:100 13:0 14:0 15:0 16:0 17:0 18:0 19:0 20:0 21:80 22:100 23:80 24:20 25:0 26:0 27:60 28:20 29:0 30:20 31:0 32:20 33:20 34:0 35:0 36:60 37:20 38:40 39:20 40:20 41:5 42:50 43:25 
-8 1:0 2:-100 3:0 4:0 5:0 6:0 7:0 8:0 9:100 10:0 11:0 12:0 13:0 14:0 15:0 16:0 17:0 18:0 19:0 20:0 21:120 22:140 23:80 24:60 25:60 26:40 27:40 28:60 29:80 30:20 31:40 32:20 33:20 34:0 35:60 36:40 37:40 38:20 39:40 40:40 41:0 42:21 43:51 
-8 1:0 2:-100 3:0 4:0 5:0 6:0 7:0 8:0 9:100 10:0 11:0 12:0 13:0 14:0 15:0 16:0 17:0 18:0 19:0 20:0 21:120 22:140 23:80 24:60 25:60 26:40 27:40 28:60 29:80 30:20 31:40 32:20 33:20 34:0 35:60 36:40 37:40 38:20 39:40 40:40 41:0 42:21 43:51 
-5.38492835851559 1:0 2:-100 3:0 4:0 5:0 6:0 7:0 8:0 9:100 10:0 11:0 12:0 13:0 14:0 15:0 16:0 17:0 18:0 19:0 20:0 21:120 22:140 23:80 24:60 25:60 26:40 27:40 28:60 29:80 30:20 31:40 32:20 33:20 34:0 35:60 36:40 37:40 38:20 39:40 40:40 41:0 42:40 43:64 
8 1:0 2:-100 3:0 4:0 5:0 6:0 7:0 8:0 9:100 10:0 11:0 12:0 13:0 14:0 15:0 16:0 17:0 18:0 19:0 20:0 21:120 22:140 23:80 24:60 25:60 26:40 27:40 28:60 29:80 30:20 31:40 32:20 33:20 34:0 35:60 36:40 37:40 38:20 39:40 40:40 41:0 42:21 43:51 
8 1:0 2:-100 3:0 4:0 5:0 6:0 7:0 8:0 9:100 10:0 11:0 12:0 13:0 14:0 15:0 16:0 17:0 18:0 19:0 20:0 21:120 22:140 23:80 24:60 25:60 26:40 27:40 28:60 29:80 30:20 31:40 32:20 33:20 34:0 35:60 36:40 37:40 38:20 39:40 40:40 41:0 42:38 43:65 
