svm_type nu_svr
kernel_type rbf
gamma 3.05176e-05
nr_class 2
total_sv 1641
rho 1.105
probA 0.726846
SV
-6.184777274436126 1:0 2:0 3:0 4:-100 5:0 6:0 7:0 8:0 9:100 10:0 11:0 12:0 13:0 14:0 15:0 16:0 17:0 18:0 19:0 20:0 21:60 22:100 23:20 24:20 25:40 26:20 27:20 28:80 29:80 30:0 31:20 32:40 33:0 34:0 35:40 36:20 37:40 38:60 39:20 40:20 41:28 42:21 43:51 
-2.530896017684187 1:0 2:0 3:-100 4:100 5:0 6:0 7:0 8:0 9:0 10:0 11:0 12:0 13:0 14:0 15:0 16:0 17:0 18:0 19:0 20:0 21:100 22:80 23:40 24:20 25:40 26:0 27:20 28:40 29:100 30:20 31:20 32:20 33:20 34:0 35:80 36:40 37:0 38:20 39:40 40:60 41:0 42:38 43:65 
-1.59658881790552 1:0 2:0 3:0 4:0 5:0 6:0 7:0 8:0 9:100 10:0 11:0 12:0 13:0 14:-100 15:0 16:0 17:0 18:0 19:0 20:0 21:60 22:20 23:60 24:20 25:20 26:0 27:0 28:40 29:60 30:20 31:20 32:0 33:0 34:60 35:20 36:0 37:20 38:20 39:20 40:20 41:49 42:68 43:82 
-8 1:0 2:0 3:0 4:0 5:0 6:0 7:0 8:-100 9:0 10:0 11:100 12:0 13:0 14:0 15:0 16:0 17:0 18:0 19:0 20:0 21:0 22:60 23:0 24:0 25:20 26:0 27:40 28:0 29:0 30:20 31:0 32:40 33:0 34:0 35:20 36:40 37:20 38:0 39:40 40:20 41:23 42:50 43:20 
-8 1:0 2:0 3:0 4:0 5:0 6:0 7:0 8:-100 9:0 10:0 11:100 12:0 13:0 14:0 15:0 16:0 17:0 18:0 19:0 20:0 21:0 22:60 23:0 24:0 25:20 26:0 27:40 28:0 29:0 30:20 31:0 32:40 33:0 34:0 35:20 36:40 37:20 38:0 39:40 40:20 41:23 42:37 43:40 
3.624751386501201 1:0 2:0 3:0 4:0 5:0 6:0 7:0 8:-100 9:0 10:0 11:100 12:0 13:0 14:0 15:0 16:0 17:0 18:0 19:0 20:0 21:0 22:60 23:0 24:0 25:20 26:0 27:40 28:0 29:0 30:20 31:0 32:40 33:0 34:0 35:20 36:40 37:20 38:0 39:40 40:20 41:23 42:50 43:51 
8 1:0 2:0 3:0 4:0 5:0 6:0 7:0 8:-100 9:0 10:0 11:100 12:0 13:0 14:0 15:0 16:0 17:0 18:0 19:0 20:0 21:0 22:60 23:0 24:0 25:20 26:0 27:40 28:0 29:0 30:20 31:0 32:40 33:0 34:0 35:20 36:40 37:20 38:0 39:40 40:20 41:23 42:35 43:47 
5.722491067826873 1:0 2:0 3:0 4:0 5:0 6:0 7:0 8:0 9:100 10:0 11:0 12:0 13:0 14:0 15:-100 16:0 17:0 18:0 19:0 20:0 21:40 22:0 23:40 24:20 25:0 26:20 27:20 28:80 29:20 30:20 31:20 32:0 33:0 34:0 35:60 36:20 37:20 38:0 39:0 40:40 41:63 42:19 43:64 
2.972946559483344 1:0 2:0 3:0 4:0 5:0 6:0 7:0 8:100 9:0 10:0 11:0 12:0 13:0 14:0 15:-100 16:0 17:0 18:0 19:0 20:0 21:40 22:0 23:40 24:20 25:0 26:20 27:20 28:80 29:20 30:20 31:20 32:0 33:0 34:0 35:60 36:20 37:20 38:0 39:0 40:40 41:63 42:19 43:64 
-0.6793739024365615 1:0 2:-100 3:0 4:0 5:0 6:0 7:0 8:0 9:100 10:0 11:0 12:0 13:0 14:0 15:0 16:0 17:0 18:0 19:0 20:0 21:80 22:120 23:120 24:20 25:40 26:0 27:20 28:20 29:20 30:0 31:20 32:100 33:0 34:20 35:20 36:100 37:80 38:40 39:0 40:20 41:0 42:26 43:50 
8 1:0 2:0 3:-100 4:0 5:0 6:0 7:0 8:0 9:100 10:0 11:0 12:0 13:0 14:0 15:0 16:0 17:0 18:0 19:0 20:0 21:100 22:80 23:40 24:20 25:40 26:0 27:20 28:40 29:100 30:20 31:20 32:20 33:20 34:0 35:80 36:40 37:0 38:20 39:40 40:60 41:0 42:21 43:51 
-4.750904373177639 1:0 2:0 3:0 4:0 5:0 6:0 7:0 8:0 9:0 10:0 11:0 12:0 13:0 14:100 15:0 16:-100 17:0 18:0 19:0 20:0 21:20 22:60 23:60 24:0 25:20 26:0 27:0 28:20 29:20 30:0 31:0 32:20 33:0 34:0 35:60 36:40 37:0 38:40 39:20 40:20 41:52 42:14 43:28 
8 1:0 2:0 3:0 4:0 5:0 6:0 7:0 8:0 9:0 10:0 11:0 12:0 13:0 14:100 15:0 16:-100 17:0 18:0 19:0 20:0 21:20 22:60 23:60 24:0 25:20 26:0 27:0 28:20 29:20 30:0 31:0 32:20 33:0 34:0 35:60 36:40 37:0 38:40 39:20 40:20 41:52 42:46 43:63 
1.462747151740034 1:0 2:0 3:0 4:0 5:0 6:0 7:0 8:0 9:0 10:0 11:0 12:0 13:0 14:0 15:0 16:0 17:0 18:100 19:0 20:-100 21:40 22:40 23:0 24:0 25:0 26:20 27:20 28:80 29:60 30:20 31:20 32:20 33:0 34:0 35:0 36:40 37:0 38:0 39:20 40:0 41:77 42:45 43:25 
-7.150127027681141 1:0 2:0 3:0 4:0 5:0 6:0 7:0 8:0 9:0 10:0 11:0 12:0 13:0 14:0 15:0 16:0 17:0 18:100 19:0 20:-100 21:0 22:20 23:20 24:0 25:40 26:0 27:20 28:80 29:100 30:20 31:40 32:20 33:40 34:40 35:40 36:0 37:0 38:60 39:40 40:40 41:34 42:39 43:53 
8 1:0 2:0 3:0 4:0 5:0 6:0 7:0 8:0 9:0 10:0 11:0 12:0 13:0 14:0 15:0 16:0 17:0 18:100 19:0 20:-100 21:0 22:20 23:20 24:0 25:40 26:0 27:20 28:80 29:100 30:20 31:40 32:20 33:40 34:40 35:40 36:0 37:0 38:60 39:40 40:40 41:34 42:21 43:50 
-2.700706851612544 1:0 2:0 3:0 4:0 5:0 6:0 7:-100 8:0 9:100 10:0 11:0 12:0 13:0 14:0 15:0 16:0 17:0 18:0 19:0 20:0 21:60 22:80 23:40 24:20 25:40 26:40 27:20 28:40 29:80 30:0 31:20 32:20 33:60 34:0 35:40 36:40 37:60 38:60 39:40 40:20 41:8 42:19 43:64 
-3.310130046752293 1:0 2:0 3:0 4:0 5:0 6:0 7:0 8:0 9:0 10:0 11:0 12:0 13:0 14:0 15:0 16:0 17:100 18:0 19:0 20:-100 21:20 22:20 23:20 24:20 25:0 26:60 27:40 28:40 29:40 30:0 31:20 32:0 33:40 34:0 35:20 36:40 37:0 38:0 39:20 40:0 41:65 42:45 43:74 
-4.814073336461547 1:0 2:0 3:0 4:0 5:0 6:0 7:0 8:0 9:0 10:0 11:0 12:0 13:0 14:0 15:0 16:0 17:0 18:-100 19:100 20:0 21:60 22:60 23:60 24:0 25:0 26:20 27:0 28:20 29:20 30:0 31:20 32:0 33:0 34:0 35:0 36:60 37:20 38:40 39:20 40:20 41:50 42:44 43:25 
4.302670724741834 1:-100 2:0 3:0 4:0 5:0 6:0 7:0 8:0 9:0 10:100 11:0 12:0 13:0 14:0 15:0 16:0 17:0 18:0 19:0 20:0 21:0 22:20 23:20 24:0 25:20 26:60 27:0 28:20 29:40 30:0 31:0 32:0 33:20 34:0 35:60 36:0 37:60 38:20 39:20 40:0 41:60 42:20 43:68 
-6.854358292669068 1:0 2:-100 3:0 4:0 5:0 6:0 7:0 8:0 9:100 10:0 11:0 12:0 13:0 14:0 15:0 16:0 17:0 18:0 19:0 20:0 21:120 22:120 23:40 24:40 25:20 26:20 27:20 28:60 29:100 30:40 31:40 32:60 33:0 34:0 35:40 36:60 37:20 38:60 39:40 40:60 41:0 42:50 43:20 
-1.005338598767771 1:0 2:0 3:0 4:0 5:0 6:0 7:0 8:0 9:0 10:0 11:0 12:0 13:0 14:0 15:0 16:0 17:0 18:-100 19:0 20:100 21:60 22:60 23:60 24:0 25:0 26:20 27:0 28:20 29:20 30:0 31:20 32:0 33:0 34:0 35:0 36:60 37:20 38:40 39:20 40:20 41:50 42:44 43:25 
8 1:0 2:-100 3:0 4:0 5:0 6:0 7:0 8:0 9:100 10:0 11:0 12:0 13:0 14:0 15:0 16:0 17:0 18:0 19:0 20:0 21:20 22:40 23:20 24:20 25:40 26:40 27:60 28:20 29:60 30:20 31:20 32:0 33:0 34:20 35:0 36:80 37:20 38:60 39:20 40:40 41:8 42:37 43:5 
-1.133263077718916 1:0 2:0 3:0 4:0 5:0 6:0 7:0 8:0 9:-100 10:0 11:0 12:0 13:0 14:0 15:0 16:0 17:100 18:0 19:0 20:0 21:40 22:40 23:20 24:0 25:0 26:20 27:0 28:20 29:40 30:0 31:20 32:20 33:0 34:0 35:0 36:20 37:20 38:20 39:0 40:0 41:83 42:45 43:25 
-8 1:0 2:0 3:0 4:0 5:0 6:0 7:0 8:0 9:-100 10:100 11:0 12:0 13:0 14:0 15:0 16:0 17:0 18:0 19:0 20:0 21:40 22:40 23:20 24:0 25:0 26:20 27:0 28:20 29:40 30:0 31:20 32:20 33:0 34:0 35:0 36:20 37:20 38:20 39:0 40:0 41:83 42:45 43:25 
0.8486473949337769 1:0 2:0 3:0 4:0 5:0 6:0 7:0 8:0 9:-100 10:0 11:100 12:0 13:0 14:0 15:0 16:0 17:0 18:0 19:0 20:0 21:40 22:40 23:20 24:0 25:0 26:20 27:0 28:20 29:40 30:0 31:20 32:20 33:0 34:0 35:0 36:20 37:20 38:20 39:0 40:0 41:83 42:45 43:25 
0.6661810306138801 1:0 2:0 3:0 4:0 5:0 6:0 7:0 8:0 9:-100 10:0 11:0 12:0 13:0 14:0 15:100 16:0 17:0 18:0 19:0 20:0 21:40 22:40 23:20 24:0 25:0 26:20 27:0 28:20 29:40 30:0 31:20 32:20 33:0 34:0 35:0 36:20 37:20 38:20 39:0 40:0 41:83 42:45 43:25 
-0.860610721733757 1:0 2:0 3:0 4:0 5:0 6:0 7:0 8:0 9:-100 10:0 11:0 12:100 13:0 14:0 15:0 16:0 17:0 18:0 19:0 20:0 21:40 22:40 23:20 24:0 25:0 26:20 27:0 28:20 29:40 30:0 31:20 32:20 33:0 34:0 35:0 36:20 37:20 38:20 39:0 40:0 41:83 42:45 43:25 
-1.77360195740475 1:0 2:0 3:0 4:0 5:0 6:100 7:0 8:0 9:-100 10:0 11:0 12:0 13:0 14:0 15:0 16:0 17:0 18:0 19:0 20:0 21:40 22:40 23:20 24:0 25:0 26:20 27:0 28:20 29:40 30:0 31:20 32:20 33:0 34:0 35:0 36:20 37:20 38:20 39:0 40:0 41:83 42:45 43:25 
4.647986941765173 1:-100 2:0 3:0 4:0 5:0 6:0 7:0 8:0 9:100 10:0 11:0 12:0 13:0 14:0 15:0 16:0 17:0 18:0 19:0 20:0 21:20 22:60 23:0 24:20 25:0 26:0 27:20 28:40 29:40 30:0 31:20 32:20 33:40 34:0 35:80 36:20 37:20 38:20 39:0 40:20 41:39 42:19 43:49 
8 1:0 2:0 3:0 4:0 5:-100 6:0 7:0 8:0 9:100 10:0 11:0 12:0 13:0 14:0 15:0 16:0 17:0 18:0 19:0 20:0 21:80 22:40 23:20 24:20 25:0 26:20 27:20 28:20 29:60 30:40 31:0 32:40 33:40 34:20 35:0 36:40 37:20 38:60 39:40 40:40 41:9 42:35 43:50 
-3.39972464011659 1:0 2:0 3:-100 4:0 5:0 6:0 7:100 8:0 9:0 10:0 11:0 12:0 13:0 14:0 15:0 16:0 17:0 18:0 19:0 20:0 21:60 22:80 23:40 24:20 25:20 26:60 27:40 28:20 29:160 30:0 31:100 32:80 33:80 34:0 35:40 36:20 37:20 38:20 39:100 40:60 41:1 42:19 43:64 
5.454209523112226 1:0 2:0 3:0 4:0 5:0 6:0 7:0 8:100 9:-100 10:0 11:0 12:0 13:0 14:0 15:0 16:0 17:0 18:0 19:0 20:0 21:120 22:60 23:60 24:0 25:20 26:20 27:0 28:20 29:40 30:20 31:20 32:0 33:0 34:0 35:20 36:80 37:20 38:80 39:20 40:40 41:0 42:44 43:25 
-2.335119928679611 1:0 2:0 3:0 4:0 5:0 6:0 7:0 8:0 9:-100 10:0 11:0 12:0 13:100 14:0 15:0 16:0 17:0 18:0 19:0 20:0 21:40 22:40 23:20 24:0 25:0 26:20 27:0 28:20 29:40 30:0 31:20 32:20 33:0 34:0 35:0 36:20 37:20 38:20 39:0 40:0 41:83 42:45 43:25 
-1.666943167520375 1:0 2:0 3:0 4:0 5:0 6:0 7:0 8:0 9:-100 10:0 11:0 12:0 13:0 14:0 15:0 16:0 17:0 18:100 19:0 20:0 21:40 22:40 23:20 24:0 25:0 26:20 27:0 28:20 29:40 30:0 31:20 32:20 33:0 34:0 35:0 36:20 37:20 38:20 39:0 40:0 41:83 42:45 43:25 
8 1:0 2:0 3:-100 4:0 5:0 6:0 7:0 8:0 9:100 10:0 11:0 12:0 13:0 14:0 15:0 16:0 17:0 18:0 19:0 20:0 21:20 22:100 23:100 24:0 25:60 26:20 27:100 28:60 29:40 30:20 31:40 32:100 33:0 34:0 35:60 36:40 37:20 38:20 39:60 40:100 41:0 42:45 43:25 
-8 1:0 2:0 3:-100 4:0 5:0 6:0 7:0 8:0 9:100 10:0 11:0 12:0 13:0 14:0 15:0 16:0 17:0 18:0 19:0 20:0 21:20 22:100 23:100 24:0 25:60 26:20 27:100 28:60 29:40 30:20 31:40 32:100 33:0 34:0 35:60 36:40 37:20 38:20 39:60 40:100 41:0 42:45 43:25 
-8 1:0 2:0 3:-100 4:0 5:0 6:0 7:0 8:0 9:100 10:0 11:0 12:0 13:0 14:0 15:0 16:0 17:0 18:0 19:0 20:0 21:20 22:100 23:100 24:0 25:60 26:20 27:100 28:60 29:40 30:20 31:40 32:100 33:0 34:0 35:60 36:40 37:20 38:20 39:60 40:100 41:0 42:45 43:25 
-0.8332752500708798 1:0 2:0 3:-100 4:0 5:0 6:0 7:0 8:0 9:100 10:0 11:0 12:0 13:0 14:0 15:0 16:0 17:0 18:0 19:0 20:0 21:20 22:100 23:100 24:0 25:60 26:20 27:100 28:60 29:40 30:20 31:40 32:100 33:0 34:0 35:60 36:40 37:20 38:20 39:60 40:100 41:0 42:45 43:48 
2.392298651187642 1:0 2:100 3:-100 4:0 5:0 6:0 7:0 8:0 9:0 10:0 11:0 12:0 13:0 14:0 15:0 16:0 17:0 18:0 19:0 20:0 21:20 22:100 23:100 24:0 25:60 26:20 27:100 28:60 29:40 30:20 31:40 32:100 33:0 34:0 35:60 36:40 37:20 38:20 39:60 40:100 41:0 42:45 43:25 
-1.414708080562369 1:0 2:0 3:0 4:0 5:0 6:0 7:0 8:0 9:-100 10:0 11:0 12:0 13:0 14:100 15:0 16:0 17:0 18:0 19:0 20:0 21:40 22:40 23:20 24:0 25:0 26:20 27:0 28:20 29:40 30:0 31:20 32:20 33:0 34:0 35:0 36:20 37:20 38:20 39:0 40:0 41:83 42:45 43:25 
2.973777764582413 1:0 2:0 3:0 4:0 5:0 6:0 7:0 8:0 9:-100 10:0 11:0 12:0 13:0 14:0 15:0 16:100 17:0 18:0 19:0 20:0 21:40 22:40 23:20 24:0 25:0 26:20 27:0 28:20 29:40 30:0 31:20 32:20 33:0 34:0 35:0 36:20 37:20 38:20 39:0 40:0 41:83 42:45 43:25 
1.115088788671757 1:0 2:0 3:0 4:100 5:0 6:0 7:0 8:0 9:-100 10:0 11:0 12:0 13:0 14:0 15:0 16:0 17:0 18:0 19:0 20:0 21:40 22:40 23:20 24:0 25:0 26:20 27:0 28:20 29:40 30:0 31:20 32:20 33:0 34:0 35:0 36:20 37:20 38:20 39:0 40:0 41:83 42:45 43:25 
3.881425929766315 1:0 2:100 3:0 4:0 5:0 6:0 7:0 8:0 9:-100 10:0 11:0 12:0 13:0 14:0 15:0 16:0 17:0 18:0 19:0 20:0 21:40 22:40 23:20 24:0 25:0 26:20 27:0 28:20 29:40 30:0 31:20 32:20 33:0 34:0 35:0 36:20 37:20 38:20 39:0 40:0 41:83 42:45 43:25 
-0.459926851749332 1:0 2:0 3:0 4:0 5:0 6:0 7:0 8:0 9:100 10:0 11:0 12:0 13:0 14:0 15:0 16:0 17:0 18:0 19:-100 20:0 21:40 22:0 23:80 24:0 25:40 26:0 27:40 28:20 29:20 30:0 31:60 32:80 33:0 34:0 35:40 36:40 37:0 38:0 39:60 40:60 41:48 42:45 43:25 
-3.51981852089239 1:0 2:0 3:0 4:0 5:0 6:0 7:0 8:0 9:-100 10:0 11:0 12:0 13:0 14:0 15:0 16:0 17:0 18:0 19:100 20:0 21:40 22:40 23:20 24:0 25:0 26:20 27:0 28:20 29:40 30:0 31:20 32:20 33:0 34:0 35:0 36:20 37:20 38:20 39:0 40:0 41:83 42:45 43:25 
3.147119550914244 1:0 2:0 3:0 4:0 5:0 6:0 7:0 8:0 9:0 10:0 11:0 12:0 13:100 14:0 15:0 16:0 17:0 18:0 19:0 20:-100 21:0 22:60 23:0 24:0 25:0 26:0 27:0 28:0 29:40 30:0 31:0 32:0 33:0 34:0 35:0 36:20 37:20 38:60 39:20 40:40 41:87 42:50 43:69 
0.8059803960660982 1:-100 2:0 3:0 4:0 5:0 6:0 7:0 8:0 9:0 10:0 11:0 12:100 13:0 14:0 15:0 16:0 17:0 18:0 19:0 20:0 21:0 22:100 23:20 24:0 25:0 26:60 27:20 28:20 29:20 30:20 31:80 32:40 33:80 34:20 35:40 36:40 37:0 38:40 39:40 40:0 41:0 42:32 43:64 
-2.726753810603906 1:0 2:0 3:0 4:0 5:0 6:0 7:0 8:0 9:100 10:0 11:0 12:0 13:0 14:0 15:0 16:0 17:0 18:0 19:0 20:-100 21:0 22:60 23:0 24:0 25:0 26:0 27:0 28:0 29:40 30:0 31:0 32:0 33:0 34:0 35:0 36:20 37:20 38:60 39:20 40:40 41:87 42:50 43:69 
-2.018852119708759 1:0 2:0 3:0 4:0 5:100 6:0 7:0 8:0 9:0 10:0 11:0 12:0 13:0 14:0 15:0 16:0 17:0 18:0 19:0 20:-100 21:0 22:60 23:0 24:0 25:0 26:0 27:0 28:0 29:40 30:0 31:0 32:0 33:0 34:0 35:0 36:20 37:20 38:60 39:20 40:40 41:87 42:50 43:69 
-4.748834854670473 1:0 2:0 3:0 4:0 5:0 6:0 7:-100 8:0 9:0 10:0 11:100 12:0 13:0 14:0 15:0 16:0 17:0 18:0 19:0 20:0 21:100 22:140 23:40 24:20 25:40 26:0 27:40 28:40 29:60 30:20 31:0 32:20 33:0 34:60 35:40 36:60 37:40 38:100 39:60 40:20 41:0 42:50 43:20 
4.526181728141993 1:0 2:0 3:0 4:0 5:0 6:0 7:0 8:0 9:0 10:0 11:0 12:0 13:0 14:0 15:0 16:100 17:0 18:0 19:0 20:-100 21:0 22:60 23:0 24:0 25:0 26:0 27:0 28:0 29:40 30:0 31:0 32:0 33:0 34:0 35:0 36:20 37:20 38:60 39:20 40:40 41:87 42:50 43:69 
1.117024924955541 1:0 2:0 3:0 4:0 5:0 6:0 7:0 8:0 9:0 10:0 11:0 12:0 13:0 14:100 15:0 16:0 17:0 18:0 19:0 20:-100 21:0 22:60 23:0 24:0 25:0 26:0 27:0 28:0 29:40 30:0 31:0 32:0 33:0 34:0 35:0 36:20 37:20 38:60 39:20 40:40 41:87 42:50 43:69 
-5.087863303502402 1:0 2:0 3:100 4:0 5:0 6:0 7:0 8:0 9:0 10:0 11:0 12:0 13:0 14:0 15:0 16:0 17:0 18:0 19:0 20:-100 21:0 22:60 23:0 24:0 25:0 26:0 27:0 28:0 29:40 30:0 31:0 32:0 33:0 34:0 35:0 36:20 37:20 38:60 39:20 40:40 41:87 42:50 43:69 
-7.478620527710939 1:100 2:0 3:0 4:0 5:0 6:0 7:0 8:-100 9:0 10:0 11:0 12:0 13:0 14:0 15:0 16:0 17:0 18:0 19:0 20:0 21:40 22:160 23:60 24:40 25:20 26:0 27:0 28:60 29:40 30:20 31:20 32:60 33:0 34:0 35:20 36:20 37:40 38:0 39:0 40:40 41:9 42:51 43:51 
-2.233319503821806 1:0 2:100 3:0 4:0 5:0 6:0 7:0 8:0 9:0 10:0 11:0 12:0 13:0 14:0 15:0 16:0 17:0 18:0 19:0 20:-100 21:0 22:60 23:0 24:0 25:0 26:0 27:0 28:0 29:40 30:0 31:0 32:0 33:0 34:0 35:0 36:20 37:20 38:60 39:20 40:40 41:87 42:50 43:69 
-0.01317039807822204 1:0 2:0 3:0 4:100 5:0 6:0 7:0 8:0 9:0 10:0 11:0 12:0 13:0 14:0 15:0 16:0 17:0 18:0 19:0 20:-100 21:0 22:60 23:0 24:0 25:0 26:0 27:0 28:0 29:40 30:0 31:0 32:0 33:0 34:0 35:0 36:20 37:20 38:60 39:20 40:40 41:87 42:50 43:69 
0.9748691102473742 1:0 2:0 3:0 4:0 5:0 6:0 7:0 8:0 9:0 10:0 11:0 12:0 13:0 14:0 15:100 16:0 17:0 18:0 19:0 20:-100 21:0 22:60 23:0 24:0 25:0 26:0 27:0 28:0 29:40 30:0 31:0 32:0 33:0 34:0 35:0 36:20 37:20 38:60 39:20 40:40 41:87 42:50 43:69 
4.365027322159385 1:0 2:0 3:0 4:0 5:0 6:0 7:0 8:0 9:0 10:0 11:100 12:0 13:0 14:0 15:0 16:0 17:0 18:0 19:0 20:-100 21:0 22:60 23:0 24:0 25:0 26:0 27:0 28:0 29:40 30:0 31:0 32:0 33:0 34:0 35:0 36:20 37:20 38:60 39:20 40:40 41:87 42:50 43:69 
-4.511390954779197 1:0 2:0 3:0 4:0 5:0 6:0 7:0 8:0 9:0 10:100 11:0 12:0 13:0 14:0 15:0 16:0 17:0 18:0 19:0 20:-100 21:0 22:60 23:0 24:0 25:0 26:0 27:0 28:0 29:40 30:0 31:0 32:0 33:0 34:0 35:0 36:20 37:20 38:60 39:20 40:40 41:87 42:50 43:69 
5.850809355630401 1:0 2:0 3:0 4:0 5:0 6:0 7:0 8:0 9:0 10:0 11:0 12:0 13:0 14:0 15:0 16:0 17:100 18:0 19:0 20:-100 21:0 22:60 23:0 24:0 25:0 26:0 27:0 28:0 29:40 30:0 31:0 32:0 33:0 34:0 35:0 36:20 37:20 38:60 39:20 40:40 41:87 42:50 43:69 
-2.904691823790285 1:0 2:0 3:0 4:0 5:0 6:100 7:0 8:0 9:0 10:0 11:0 12:0 13:0 14:0 15:0 16:0 17:0 18:0 19:0 20:-100 21:0 22:60 23:0 24:0 25:0 26:0 27:0 28:0 29:40 30:0 31:0 32:0 33:0 34:0 35:0 36:20 37:20 38:60 39:20 40:40 41:87 42:50 43:69 
-2.454511347180504 1:0 2:0 3:0 4:0 5:0 6:0 7:0 8:0 9:0 10:0 11:0 12:100 13:0 14:0 15:0 16:0 17:0 18:0 19:0 20:-100 21:0 22:60 23:0 24:0 25:0 26:0 27:0 28:0 29:40 30:0 31:0 32:0 33:0 34:0 35:0 36:20 37:20 38:60 39:20 40:40 41:87 42:50 43:69 
0.2599230441721153 1:-100 2:0 3:0 4:0 5:0 6:0 7:0 8:0 9:100 10:0 11:0 12:0 13:0 14:0 15:0 16:0 17:0 18:0 19:0 20:0 21:0 22:100 23:20 24:0 25:0 26:60 27:20 28:20 29:20 30:20 31:80 32:40 33:80 34:20 35:40 36:40 37:0 38:40 39:40 40:0 41:0 42:32 43:64 
5.305343157248918 1:0 2:0 3:0 4:0 5:-100 6:0 7:0 8:0 9:100 10:0 11:0 12:0 13:0 14:0 15:0 16:0 17:0 18:0 19:0 20:0 21:100 22:20 23:40 24:0 25:100 26:20 27:0 28:60 29:60 30:20 31:20 32:0 33:0 34:20 35:20 36:40 37:20 38:40 39:20 40:40 41:35 42:50 43:60 
0.2375470916718521 1:-100 2:0 3:0 4:100 5:0 6:0 7:0 8:0 9:0 10:0 11:0 12:0 13:0 14:0 15:0 16:0 17:0 18:0 19:0 20:0 21:80 22:100 23:60 24:40 25:60 26:20 27:20 28:80 29:80 30:0 31:0 32:20 33:20 34:0 35:80 36:20 37:20 38:40 39:40 40:40 41:4 42:38 43:65 
2.629318075377121 1:0 2:0 3:100 4:0 5:0 6:0 7:0 8:0 9:0 10:0 11:0 12:-100 13:0 14:0 15:0 16:0 17:0 18:0 19:0 20:0 21:40 22:60 23:20 24:0 25:20 26:20 27:20 28:20 29:140 30:20 31:20 32:20 33:0 34:0 35:60 36:0 37:40 38:40 39:20 40:20 41:42 42:54 43:25 
-5.166422532126351 1:0 2:100 3:0 4:0 5:0 6:0 7:0 8:0 9:-100 10:0 11:0 12:0 13:0 14:0 15:0 16:0 17:0 18:0 19:0 20:0 21:0 22:80 23:60 24:40 25:40 26:80 27:40 28:40 29:80 30:0 31:20 32:20 33:40 34:0 35:40 36:20 37:20 38:20 39:40 40:0 41:0 42:19 43:64 
-3.545851357388971 1:0 2:0 3:0 4:0 5:0 6:0 7:0 8:0 9:0 10:0 11:0 12:0 13:0 14:0 15:0 16:0 17:0 18:100 19:0 20:-100 21:20 22:20 23:20 24:20 25:0 26:60 27:40 28:40 29:40 30:0 31:20 32:0 33:40 34:0 35:20 36:40 37:0 38:0 39:20 40:0 41:65 42:45 43:74 
4.692652102762949 1:-100 2:0 3:100 4:0 5:0 6:0 7:0 8:0 9:0 10:0 11:0 12:0 13:0 14:0 15:0 16:0 17:0 18:0 19:0 20:0 21:0 22:100 23:20 24:0 25:0 26:60 27:20 28:20 29:20 30:20 31:80 32:40 33:80 34:20 35:40 36:40 37:0 38:40 39:40 40:0 41:0 42:32 43:64 
-0.06063209390288613 1:0 2:0 3:0 4:0 5:0 6:0 7:0 8:-100 9:0 10:0 11:0 12:0 13:0 14:0 15:0 16:0 17:100 18:0 19:0 20:0 21:20 22:40 23:20 24:20 25:40 26:20 27:20 28:20 29:40 30:0 31:20 32:20 33:20 34:0 35:40 36:40 37:20 38:40 39:40 40:0 41:49 42:19 43:64 
-0.05920144295758666 1:0 2:0 3:0 4:0 5:0 6:0 7:0 8:-100 9:0 10:0 11:0 12:0 13:0 14:0 15:0 16:0 17:100 18:0 19:0 20:0 21:20 22:40 23:20 24:20 25:40 26:20 27:20 28:20 29:40 30:0 31:20 32:20 33:20 34:0 35:40 36:40 37:20 38:40 39:40 40:0 41:49 42:19 43:64 
0.1462716055697134 1:0 2:-100 3:0 4:0 5:0 6:0 7:0 8:0 9:100 10:0 11:0 12:0 13:0 14:0 15:0 16:0 17:0 18:0 19:0 20:0 21:40 22:80 23:40 24:40 25:20 26:20 27:20 28:20 29:60 30:20 31:40 32:20 33:20 34:0 35:100 36:40 37:40 38:0 39:0 40:40 41:2 42:21 43:51 
5.538994977510541 1:0 2:0 3:0 4:0 5:0 6:0 7:0 8:0 9:0 10:0 11:0 12:0 13:0 14:0 15:0 16:0 17:0 18:-100 19:100 20:0 21:80 22:80 23:60 24:0 25:0 26:0 27:0 28:0 29:20 30:0 31:20 32:0 33:0 34:0 35:0 36:60 37:0 38:20 39:20 40:20 41:56 42:44 43:25 
-1.111789477042059 1:0 2:0 3:0 4:0 5:0 6:0 7:0 8:-100 9:100 10:0 11:0 12:0 13:0 14:0 15:0 16:0 17:0 18:0 19:0 20:0 21:20 22:40 23:20 24:20 25:40 26:20 27:20 28:20 29:40 30:0 31:20 32:20 33:20 34:0 35:40 36:40 37:20 38:40 39:40 40:0 41:49 42:19 43:64 
-8 1:0 2:0 3:0 4:0 5:0 6:0 7:0 8:0 9:100 10:0 11:0 12:0 13:0 14:0 15:0 16:0 17:0 18:-100 19:0 20:0 21:40 22:80 23:0 24:0 25:0 26:20 27:0 28:40 29:20 30:0 31:20 32:0 33:0 34:20 35:0 36:80 37:20 38:20 39:0 40:0 41:70 42:28 43:25 
5.778271397291535 1:0 2:0 3:0 4:0 5:0 6:0 7:0 8:0 9:100 10:0 11:0 12:0 13:0 14:0 15:0 16:0 17:0 18:-100 19:0 20:0 21:40 22:80 23:0 24:0 25:0 26:20 27:0 28:40 29:20 30:0 31:20 32:0 33:0 34:20 35:0 36:80 37:20 38:20 39:0 40:0 41:70 42:28 43:25 
-6.190353484302423 1:0 2:0 3:0 4:0 5:0 6:0 7:0 8:0 9:0 10:0 11:0 12:0 13:0 14:100 15:0 16:0 17:0 18:0 19:-100 20:0 21:20 22:20 23:40 24:0 25:0 26:20 27:40 28:0 29:40 30:20 31:0 32:60 33:0 34:0 35:40 36:20 37:40 38:0 39:20 40:20 41:66 42:14 43:39 
7.465026729171542 1:0 2:0 3:0 4:0 5:0 6:0 7:0 8:0 9:0 10:0 11:0 12:0 13:0 14:100 15:0 16:0 17:0 18:0 19:-100 20:0 21:20 22:20 23:40 24:0 25:0 26:20 27:40 28:0 29:40 30:20 31:0 32:60 33:0 34:0 35:40 36:20 37:40 38:0 39:20 40:20 41:66 42:47 43:62 
-8 1:0 2:0 3:0 4:0 5:100 6:0 7:-100 8:0 9:0 10:0 11:0 12:0 13:0 14:0 15:0 16:0 17:0 18:0 19:0 20:0 21:100 22:60 23:0 24:20 25:20 26:40 27:40 28:20 29:60 30:20 31:0 32:0 33:0 34:0 35:0 36:120 37:20 38:20 39:0 40:60 41:35 42:50 43:25 
8 1:0 2:0 3:0 4:0 5:100 6:0 7:-100 8:0 9:0 10:0 11:0 12:0 13:0 14:0 15:0 16:0 17:0 18:0 19:0 20:0 21:100 22:60 23:0 24:20 25:20 26:40 27:40 28:20 29:60 30:20 31:0 32:0 33:0 34:0 35:0 36:120 37:20 38:20 39:0 40:60 41:35 42:50 43:24 
0.1365130015279689 1:0 2:0 3:0 4:0 5:0 6:0 7:0 8:0 9:0 10:0 11:0 12:0 13:0 14:0 15:0 16:0 17:0 18:-100 19:0 20:100 21:80 22:80 23:60 24:0 25:0 26:0 27:0 28:0 29:20 30:0 31:20 32:0 33:0 34:0 35:0 36:60 37:0 38:20 39:20 40:20 41:56 42:44 43:25 
-0.4330574398288359 1:0 2:0 3:0 4:0 5:0 6:0 7:0 8:0 9:100 10:0 11:0 12:0 13:0 14:0 15:-100 16:0 17:0 18:0 19:0 20:0 21:20 22:0 23:40 24:0 25:60 26:0 27:80 28:40 29:60 30:20 31:20 32:40 33:60 34:0 35:60 36:40 37:20 38:0 39:40 40:20 41:15 42:50 43:39 
6.732016061792696 1:0 2:0 3:0 4:0 5:0 6:0 7:-100 8:100 9:0 10:0 11:0 12:0 13:0 14:0 15:0 16:0 17:0 18:0 19:0 20:0 21:60 22:80 23:40 24:20 25:40 26:40 27:20 28:40 29:80 30:0 31:20 32:20 33:60 34:0 35:40 36:40 37:60 38:60 39:40 40:20 41:8 42:19 43:64 
-7.141895489715595 1:0 2:0 3:0 4:0 5:0 6:0 7:0 8:0 9:100 10:-100 11:0 12:0 13:0 14:0 15:0 16:0 17:0 18:0 19:0 20:0 21:0 22:20 23:0 24:20 25:0 26:0 27:40 28:0 29:20 30:0 31:40 32:20 33:40 34:0 35:20 36:60 37:0 38:0 39:40 40:20 41:73 42:30 43:56 
-8 1:-100 2:0 3:0 4:0 5:0 6:0 7:0 8:0 9:0 10:0 11:100 12:0 13:0 14:0 15:0 16:0 17:0 18:0 19:0 20:0 21:0 22:20 23:40 24:0 25:20 26:0 27:20 28:20 29:20 30:0 31:20 32:20 33:0 34:0 35:40 36:20 37:20 38:40 39:20 40:20 41:65 42:19 43:64 
8 1:100 2:0 3:0 4:0 5:0 6:0 7:0 8:0 9:0 10:0 11:0 12:-100 13:0 14:0 15:0 16:0 17:0 18:0 19:0 20:0 21:80 22:80 23:60 24:20 25:20 26:0 27:60 28:20 29:20 30:20 31:20 32:0 33:0 34:20 35:20 36:20 37:0 38:20 39:0 40:0 41:39 42:50 43:25 
-4.746199798805347 1:0 2:0 3:0 4:0 5:0 6:0 7:0 8:0 9:0 10:0 11:0 12:0 13:0 14:0 15:0 16:0 17:0 18:0 19:-100 20:100 21:20 22:60 23:20 24:20 25:0 26:0 27:0 28:40 29:40 30:20 31:20 32:20 33:0 34:0 35:80 36:40 37:40 38:0 39:0 40:80 41:49 42:53 43:25 
2.973763750220356 1:0 2:-100 3:0 4:0 5:0 6:0 7:0 8:0 9:0 10:0 11:0 12:0 13:0 14:0 15:100 16:0 17:0 18:0 19:0 20:0 21:0 22:60 23:40 24:0 25:40 26:40 27:20 28:0 29:60 30:20 31:0 32:40 33:0 34:0 35:60 36:20 37:0 38:20 39:60 40:20 41:67 42:55 43:15 
0.3479734843438939 1:-100 2:0 3:0 4:0 5:0 6:0 7:0 8:0 9:0 10:0 11:0 12:0 13:0 14:0 15:100 16:0 17:0 18:0 19:0 20:0 21:0 22:20 23:40 24:0 25:20 26:0 27:20 28:20 29:20 30:0 31:20 32:20 33:0 34:0 35:40 36:20 37:20 38:40 39:20 40:20 41:65 42:19 43:64 
1.094515021321462 1:-100 2:0 3:100 4:0 5:0 6:0 7:0 8:0 9:0 10:0 11:0 12:0 13:0 14:0 15:0 16:0 17:0 18:0 19:0 20:0 21:0 22:20 23:0 24:0 25:0 26:20 27:20 28:20 29:40 30:20 31:20 32:20 33:40 34:20 35:40 36:0 37:0 38:0 39:60 40:40 41:60 42:19 43:64 
4.369688455149508 1:0 2:0 3:0 4:0 5:0 6:0 7:0 8:0 9:0 10:0 11:0 12:0 13:0 14:0 15:0 16:0 17:100 18:-100 19:0 20:0 21:80 22:80 23:60 24:0 25:0 26:0 27:0 28:0 29:20 30:0 31:20 32:0 33:0 34:0 35:0 36:60 37:0 38:20 39:20 40:20 41:56 42:44 43:25 
-3.127650252609108 1:0 2:0 3:0 4:0 5:0 6:0 7:0 8:0 9:0 10:0 11:100 12:0 13:0 14:0 15:0 16:0 17:0 18:0 19:0 20:-100 21:0 22:20 23:20 24:0 25:40 26:0 27:20 28:80 29:100 30:20 31:40 32:20 33:40 34:40 35:40 36:0 37:0 38:60 39:40 40:40 41:34 42:21 43:50 
4.779013969463831 1:100 2:0 3:0 4:0 5:0 6:0 7:0 8:0 9:0 10:0 11:0 12:0 13:-100 14:0 15:0 16:0 17:0 18:0 19:0 20:0 21:100 22:80 23:60 24:0 25:0 26:0 27:60 28:20 29:40 30:20 31:20 32:20 33:0 34:0 35:0 36:60 37:60 38:40 39:0 40:20 41:0 42:50 43:25 
-6.640937607253227 1:0 2:0 3:0 4:0 5:0 6:0 7:0 8:0 9:0 10:0 11:0 12:100 13:-100 14:0 15:0 16:0 17:0 18:0 19:0 20:0 21:100 22:80 23:60 24:0 25:0 26:0 27:60 28:20 29:40 30:20 31:20 32:20 33:0 34:0 35:0 36:60 37:60 38:40 39:0 40:20 41:0 42:50 43:25 
-3.909053169507733 1:0 2:0 3:0 4:0 5:0 6:0 7:0 8:0 9:0 10:0 11:100 12:0 13:-100 14:0 15:0 16:0 17:0 18:0 19:0 20:0 21:100 22:80 23:60 24:0 25:0 26:0 27:60 28:20 29:40 30:20 31:20 32:20 33:0 34:0 35:0 36:60 37:60 38:40 39:0 40:20 41:0 42:50 43:25 
0.1274040881877603 1:0 2:0 3:0 4:0 5:0 6:0 7:0 8:0 9:0 10:0 11:0 12:0 13:0 14:0 15:0 16:0 17:0 18:0 19:100 20:-100 21:60 22:0 23:40 24:0 25:0 26:40 27:40 28:20 29:60 30:20 31:0 32:0 33:20 34:0 35:80 36:20 37:20 38:0 39:0 40:0 41:34 42:15 43:65 
-8 1:0 2:0 3:0 4:0 5:0 6:0 7:0 8:0 9:0 10:0 11:0 12:0 13:0 14:0 15:0 16:0 17:0 18:0 19:100 20:-100 21:60 22:0 23:40 24:0 25:0 26:40 27:40 28:20 29:60 30:20 31:0 32:0 33:20 34:0 35:80 36:20 37:20 38:0 39:0 40:0 41:34 42:28 43:65 
8 1:0 2:0 3:0 4:0 5:0 6:0 7:0 8:0 9:0 10:0 11:0 12:0 13:0 14:0 15:0 16:0 17:0 18:0 19:100 20:-100 21:60 22:0 23:40 24:0 25:0 26:40 27:40 28:20 29:60 30:20 31:0 32:0 33:20 34:0 35:80 36:20 37:20 38:0 39:0 40:0 41:34 42:32 43:65 
-3.680940744039264 1:0 2:0 3:-100 4:0 5:0 6:0 7:0 8:0 9:100 10:0 11:0 12:0 13:0 14:0 15:0 16:0 17:0 18:0 19:0 20:0 21:20 22:60 23:20 24:0 25:0 26:20 27:40 28:80 29:100 30:40 31:40 32:20 33:0 34:0 35:20 36:40 37:20 38:40 39:20 40:60 41:10 42:45 43:25 
1.363380856622215 1:0 2:0 3:0 4:0 5:0 6:0 7:-100 8:0 9:100 10:0 11:0 12:0 13:0 14:0 15:0 16:0 17:0 18:0 19:0 20:0 21:20 22:40 23:20 24:0 25:0 26:20 27:20 28:20 29:20 30:20 31:0 32:20 33:0 34:20 35:0 36:20 37:20 38:0 39:0 40:40 41:56 42:45 43:25 
-8 1:0 2:0 3:0 4:0 5:0 6:0 7:-100 8:0 9:100 10:0 11:0 12:0 13:0 14:0 15:0 16:0 17:0 18:0 19:0 20:0 21:20 22:40 23:20 24:0 25:0 26:20 27:20 28:20 29:20 30:20 31:0 32:20 33:0 34:20 35:0 36:20 37:20 38:0 39:0 40:40 41:56 42:45 43:25 
-3.42366318447141 1:0 2:0 3:0 4:0 5:0 6:0 7:0 8:0 9:0 10:-100 11:0 12:0 13:0 14:0 15:0 16:0 17:0 18:0 19:100 20:0 21:0 22:0 23:0 24:0 25:0 26:20 27:0 28:60 29:0 30:0 31:60 32:40 33:20 34:0 35:80 36:0 37:0 38:0 39:40 40:40 41:91 42:67 43:20 
-8 1:0 2:0 3:0 4:0 5:0 6:0 7:0 8:0 9:-100 10:100 11:0 12:0 13:0 14:0 15:0 16:0 17:0 18:0 19:0 20:0 21:60 22:100 23:60 24:40 25:40 26:0 27:20 28:40 29:20 30:0 31:0 32:0 33:20 34:0 35:60 36:0 37:40 38:20 39:60 40:40 41:7 42:25 43:57 
-8 1:0 2:0 3:0 4:0 5:0 6:0 7:0 8:0 9:-100 10:100 11:0 12:0 13:0 14:0 15:0 16:0 17:0 18:0 19:0 20:0 21:60 22:100 23:60 24:40 25:40 26:0 27:20 28:40 29:20 30:0 31:0 32:0 33:20 34:0 35:60 36:0 37:40 38:20 39:60 40:40 41:7 42:28 43:62 
5.984180534281376 1:0 2:0 3:0 4:0 5:0 6:0 7:0 8:0 9:-100 10:100 11:0 12:0 13:0 14:0 15:0 16:0 17:0 18:0 19:0 20:0 21:60 22:100 23:60 24:40 25:40 26:0 27:20 28:40 29:20 30:0 31:0 32:0 33:20 34:0 35:60 36:0 37:40 38:20 39:60 40:40 41:7 42:39 43:65 
8 1:0 2:0 3:0 4:0 5:100 6:0 7:-100 8:0 9:0 10:0 11:0 12:0 13:0 14:0 15:0 16:0 17:0 18:0 19:0 20:0 21:20 22:40 23:20 24:0 25:0 26:20 27:20 28:20 29:20 30:20 31:0 32:20 33:0 34:20 35:0 36:20 37:20 38:0 39:0 40:40 41:56 42:45 43:25 
-8 1:0 2:0 3:0 4:0 5:0 6:0 7:-100 8:100 9:0 10:0 11:0 12:0 13:0 14:0 15:0 16:0 17:0 18:0 19:0 20:0 21:20 22:40 23:20 24:0 25:0 26:20 27:20 28:20 29:20 30:20 31:0 32:20 33:0 34:20 35:0 36:20 37:20 38:0 39:0 40:40 41:56 42:45 43:25 
-5.573412829851016 1:-100 2:100 3:0 4:0 5:0 6:0 7:0 8:0 9:0 10:0 11:0 12:0 13:0 14:0 15:0 16:0 17:0 18:0 19:0 20:0 21:0 22:20 23:20 24:0 25:20 26:60 27:0 28:20 29:40 30:0 31:0 32:0 33:20 34:0 35:60 36:0 37:60 38:20 39:20 40:0 41:60 42:19 43:64 
0.3384532659110793 1:0 2:0 3:0 4:0 5:0 6:0 7:-100 8:0 9:0 10:0 11:0 12:0 13:0 14:0 15:100 16:0 17:0 18:0 19:0 20:0 21:20 22:20 23:0 24:0 25:0 26:0 27:0 28:40 29:0 30:20 31:60 32:40 33:0 34:0 35:40 36:20 37:0 38:40 39:20 40:0 41:38 42:50 43:25 
4.713094645734642 1:0 2:0 3:0 4:0 5:0 6:0 7:0 8:0 9:100 10:0 11:0 12:0 13:0 14:0 15:0 16:0 17:0 18:0 19:-100 20:0 21:40 22:20 23:80 24:0 25:20 26:0 27:60 28:40 29:40 30:20 31:40 32:40 33:0 34:0 35:20 36:20 37:0 38:0 39:60 40:80 41:8 42:45 43:25 
8 1:0 2:0 3:0 4:0 5:0 6:0 7:0 8:0 9:100 10:0 11:0 12:0 13:-100 14:0 15:0 16:0 17:0 18:0 19:0 20:0 21:100 22:80 23:60 24:0 25:0 26:0 27:60 28:20 29:40 30:20 31:20 32:20 33:0 34:0 35:0 36:60 37:60 38:40 39:0 40:20 41:0 42:50 43:25 
-8 1:0 2:0 3:0 4:0 5:0 6:0 7:0 8:0 9:0 10:0 11:0 12:0 13:0 14:-100 15:0 16:0 17:100 18:0 19:0 20:0 21:0 22:80 23:60 24:20 25:60 26:0 27:20 28:0 29:20 30:20 31:40 32:20 33:0 34:0 35:20 36:60 37:0 38:80 39:0 40:0 41:23 42:55 43:4 
-1.474805702726113 1:0 2:0 3:0 4:0 5:0 6:0 7:0 8:0 9:0 10:0 11:0 12:0 13:0 14:-100 15:0 16:0 17:100 18:0 19:0 20:0 21:0 22:80 23:60 24:20 25:60 26:0 27:20 28:0 29:20 30:20 31:40 32:20 33:0 34:0 35:20 36:60 37:0 38:80 39:0 40:0 41:23 42:55 43:4 
8 1:0 2:0 3:0 4:0 5:0 6:0 7:0 8:0 9:0 10:0 11:0 12:0 13:0 14:-100 15:0 16:0 17:100 18:0 19:0 20:0 21:0 22:80 23:60 24:20 25:60 26:0 27:20 28:0 29:20 30:20 31:40 32:20 33:0 34:0 35:20 36:60 37:0 38:80 39:0 40:0 41:23 42:55 43:4 
2.654016363711114 1:0 2:-100 3:0 4:0 5:0 6:0 7:0 8:100 9:0 10:0 11:0 12:0 13:0 14:0 15:0 16:0 17:0 18:0 19:0 20:0 21:100 22:120 23:20 24:20 25:40 26:0 27:60 28:60 29:60 30:20 31:0 32:80 33:0 34:20 35:60 36:60 37:20 38:60 39:60 40:80 41:7 42:50 43:20 
-7.420411776309606 1:0 2:0 3:0 4:100 5:0 6:0 7:0 8:0 9:0 10:0 11:0 12:0 13:-100 14:0 15:0 16:0 17:0 18:0 19:0 20:0 21:100 22:80 23:60 24:0 25:0 26:0 27:60 28:20 29:40 30:20 31:20 32:20 33:0 34:0 35:0 36:60 37:60 38:40 39:0 40:20 41:0 42:50 43:25 
8 1:0 2:-100 3:0 4:0 5:0 6:0 7:0 8:0 9:100 10:0 11:0 12:0 13:0 14:0 15:0 16:0 17:0 18:0 19:0 20:0 21:100 22:120 23:20 24:20 25:40 26:0 27:60 28:60 29:60 30:20 31:0 32:80 33:0 34:20 35:60 36:60 37:20 38:60 39:60 40:80 41:7 42:50 43:20 
0.4761409746302412 1:100 2:0 3:-100 4:0 5:0 6:0 7:0 8:0 9:0 10:0 11:0 12:0 13:0 14:0 15:0 16:0 17:0 18:0 19:0 20:0 21:20 22:60 23:20 24:0 25:0 26:20 27:40 28:80 29:100 30:40 31:40 32:20 33:0 34:0 35:20 36:40 37:20 38:40 39:20 40:60 41:10 42:45 43:25 
-0.02934480941237525 1:100 2:0 3:-100 4:0 5:0 6:0 7:0 8:0 9:0 10:0 11:0 12:0 13:0 14:0 15:0 16:0 17:0 18:0 19:0 20:0 21:0 22:40 23:20 24:0 25:20 26:20 27:40 28:40 29:20 30:0 31:60 32:40 33:0 34:0 35:60 36:20 37:0 38:20 39:20 40:20 41:51 42:45 43:25 
-2.860742332337634 1:100 2:0 3:-100 4:0 5:0 6:0 7:0 8:0 9:0 10:0 11:0 12:0 13:0 14:0 15:0 16:0 17:0 18:0 19:0 20:0 21:0 22:40 23:20 24:0 25:20 26:20 27:40 28:40 29:20 30:0 31:60 32:40 33:0 34:0 35:60 36:20 37:0 38:20 39:20 40:20 41:51 42:45 43:25 
4.526099690738746 1:0 2:0 3:-100 4:0 5:0 6:0 7:0 8:0 9:0 10:0 11:0 12:100 13:0 14:0 15:0 16:0 17:0 18:0 19:0 20:0 21:0 22:40 23:20 24:0 25:20 26:20 27:40 28:40 29:20 30:0 31:60 32:40 33:0 34:0 35:60 36:20 37:0 38:20 39:20 40:20 41:51 42:45 43:25 
-0.3916598927996743 1:0 2:0 3:0 4:0 5:0 6:0 7:0 8:0 9:100 10:0 11:0 12:0 13:0 14:0 15:0 16:-100 17:0 18:0 19:0 20:0 21:0 22:0 23:40 24:20 25:60 26:0 27:40 28:0 29:40 30:0 31:20 32:40 33:20 34:0 35:60 36:0 37:20 38:20 39:40 40:20 41:80 42:50 43:39 
4.103028944617989 1:0 2:0 3:0 4:0 5:0 6:0 7:-100 8:0 9:0 10:0 11:100 12:0 13:0 14:0 15:0 16:0 17:0 18:0 19:0 20:0 21:20 22:100 23:20 24:20 25:0 26:0 27:0 28:20 29:20 30:20 31:40 32:40 33:40 34:20 35:60 36:0 37:0 38:0 39:0 40:20 41:63 42:60 43:37 
-8 1:0 2:0 3:100 4:-100 5:0 6:0 7:0 8:0 9:0 10:0 11:0 12:0 13:0 14:0 15:0 16:0 17:0 18:0 19:0 20:0 21:120 22:80 23:0 24:0 25:60 26:0 27:20 28:60 29:40 30:20 31:60 32:60 33:40 34:20 35:60 36:20 37:0 38:40 39:40 40:40 41:0 42:22 43:53 
8 1:0 2:0 3:100 4:-100 5:0 6:0 7:0 8:0 9:0 10:0 11:0 12:0 13:0 14:0 15:0 16:0 17:0 18:0 19:0 20:0 21:120 22:80 23:0 24:0 25:60 26:0 27:20 28:60 29:40 30:20 31:60 32:60 33:40 34:20 35:60 36:20 37:0 38:40 39:40 40:40 41:0 42:50 43:82 
-5.497134028417188 1:0 2:0 3:100 4:-100 5:0 6:0 7:0 8:0 9:0 10:0 11:0 12:0 13:0 14:0 15:0 16:0 17:0 18:0 19:0 20:0 21:120 22:80 23:0 24:0 25:60 26:0 27:20 28:60 29:40 30:20 31:60 32:60 33:40 34:20 35:60 36:20 37:0 38:40 39:40 40:40 41:0 42:67 43:80 
1.398962405492877 1:0 2:0 3:0 4:0 5:0 6:100 7:-100 8:0 9:0 10:0 11:0 12:0 13:0 14:0 15:0 16:0 17:0 18:0 19:0 20:0 21:20 22:100 23:20 24:20 25:0 26:0 27:0 28:20 29:20 30:20 31:40 32:40 33:40 34:20 35:60 36:0 37:0 38:0 39:0 40:20 41:63 42:60 43:37 
8 1:0 2:0 3:0 4:0 5:0 6:0 7:0 8:0 9:100 10:-100 11:0 12:0 13:0 14:0 15:0 16:0 17:0 18:0 19:0 20:0 21:100 22:40 23:40 24:0 25:20 26:0 27:0 28:20 29:20 30:0 31:0 32:20 33:0 34:0 35:20 36:20 37:0 38:20 39:20 40:40 41:61 42:44 43:25 
8 1:0 2:0 3:0 4:0 5:0 6:0 7:0 8:0 9:100 10:0 11:0 12:0 13:0 14:-100 15:0 16:0 17:0 18:0 19:0 20:0 21:120 22:0 23:40 24:0 25:40 26:0 27:20 28:20 29:120 30:20 31:0 32:20 33:80 34:20 35:0 36:60 37:40 38:40 39:60 40:20 41:38 42:8 43:25 
-5.758126712007279 1:0 2:0 3:0 4:0 5:0 6:0 7:0 8:0 9:100 10:0 11:0 12:0 13:0 14:-100 15:0 16:0 17:0 18:0 19:0 20:0 21:120 22:0 23:40 24:0 25:40 26:0 27:20 28:20 29:120 30:20 31:0 32:20 33:80 34:20 35:0 36:60 37:40 38:40 39:60 40:20 41:38 42:42 43:25 
0.2345097792426454 1:0 2:0 3:0 4:0 5:0 6:0 7:0 8:100 9:0 10:0 11:-100 12:0 13:0 14:0 15:0 16:0 17:0 18:0 19:0 20:0 21:100 22:60 23:60 24:0 25:20 26:0 27:0 28:20 29:40 30:20 31:0 32:0 33:0 34:0 35:0 36:60 37:0 38:60 39:20 40:40 41:20 42:44 43:25 
8 1:0 2:0 3:0 4:0 5:0 6:0 7:0 8:100 9:0 10:0 11:-100 12:0 13:0 14:0 15:0 16:0 17:0 18:0 19:0 20:0 21:100 22:60 23:60 24:0 25:20 26:0 27:0 28:20 29:40 30:20 31:0 32:0 33:0 34:0 35:0 36:60 37:0 38:60 39:20 40:40 41:20 42:25 43:25 
0.01818663736412119 1:0 2:100 3:0 4:0 5:0 6:0 7:-100 8:0 9:0 10:0 11:0 12:0 13:0 14:0 15:0 16:0 17:0 18:0 19:0 20:0 21:20 22:100 23:20 24:20 25:0 26:0 27:0 28:20 29:20 30:20 31:40 32:40 33:40 34:20 35:60 36:0 37:0 38:0 39:0 40:20 41:63 42:60 43:37 
-2.860936074435026 1:0 2:0 3:0 4:0 5:0 6:0 7:-100 8:0 9:0 10:0 11:0 12:0 13:0 14:0 15:0 16:0 17:0 18:0 19:0 20:100 21:60 22:160 23:20 24:0 25:60 26:0 27:0 28:80 29:40 30:0 31:0 32:40 33:0 34:0 35:0 36:100 37:0 38:120 39:20 40:40 41:26 42:54 43:25 
7.64136323387098 1:0 2:0 3:-100 4:0 5:0 6:0 7:0 8:0 9:100 10:0 11:0 12:0 13:0 14:0 15:0 16:0 17:0 18:0 19:0 20:0 21:0 22:40 23:20 24:0 25:20 26:20 27:40 28:40 29:20 30:0 31:60 32:40 33:0 34:0 35:60 36:20 37:0 38:20 39:20 40:20 41:51 42:45 43:25 
-0.3030914100869549 1:0 2:0 3:0 4:0 5:0 6:0 7:0 8:0 9:0 10:0 11:0 12:0 13:0 14:0 15:0 16:0 17:0 18:0 19:100 20:-100 21:20 22:20 23:0 24:0 25:20 26:0 27:20 28:20 29:40 30:20 31:40 32:0 33:0 34:0 35:0 36:20 37:20 38:80 39:40 40:20 41:47 42:50 43:25 
-2.162721679859648 1:-100 2:0 3:0 4:0 5:0 6:0 7:0 8:0 9:0 10:0 11:0 12:100 13:0 14:0 15:0 16:0 17:0 18:0 19:0 20:0 21:40 22:20 23:60 24:20 25:20 26:80 27:20 28:80 29:60 30:20 31:0 32:0 33:40 34:0 35:80 36:20 37:20 38:0 39:0 40:20 41:0 42:19 43:64 
-8 1:0 2:0 3:0 4:0 5:0 6:0 7:0 8:0 9:100 10:0 11:-100 12:0 13:0 14:0 15:0 16:0 17:0 18:0 19:0 20:0 21:100 22:60 23:60 24:0 25:20 26:0 27:0 28:20 29:40 30:20 31:0 32:0 33:0 34:0 35:0 36:60 37:0 38:60 39:20 40:40 41:20 42:44 43:25 
8 1:0 2:0 3:0 4:0 5:0 6:0 7:0 8:0 9:100 10:0 11:-100 12:0 13:0 14:0 15:0 16:0 17:0 18:0 19:0 20:0 21:100 22:60 23:60 24:0 25:20 26:0 27:0 28:20 29:40 30:20 31:0 32:0 33:0 34:0 35:0 36:60 37:0 38:60 39:20 40:40 41:20 42:21 43:25 
-8 1:0 2:0 3:0 4:0 5:0 6:0 7:0 8:0 9:100 10:0 11:-100 12:0 13:0 14:0 15:0 16:0 17:0 18:0 19:0 20:0 21:100 22:60 23:60 24:0 25:20 26:0 27:0 28:20 29:40 30:20 31:0 32:0 33:0 34:0 35:0 36:60 37:0 38:60 39:20 40:40 41:20 42:45 43:46 
-0.1018571086264832 1:100 2:0 3:0 4:0 5:0 6:0 7:0 8:0 9:0 10:0 11:0 12:0 13:0 14:0 15:0 16:-100 17:0 18:0 19:0 20:0 21:0 22:20 23:20 24:20 25:20 26:0 27:40 28:60 29:0 30:40 31:0 32:40 33:0 34:0 35:0 36:60 37:0 38:20 39:20 40:0 41:83 42:32 43:25 
3.04195180193747 1:0 2:0 3:-100 4:0 5:0 6:0 7:0 8:0 9:100 10:0 11:0 12:0 13:0 14:0 15:0 16:0 17:0 18:0 19:0 20:0 21:100 22:140 23:80 24:20 25:40 26:20 27:0 28:60 29:40 30:0 31:40 32:20 33:0 34:100 35:40 36:40 37:20 38:40 39:0 40:40 41:0 42:78 43:76 
-3.556121663564873 1:0 2:0 3:0 4:0 5:0 6:0 7:0 8:0 9:0 10:0 11:100 12:0 13:0 14:0 15:-100 16:0 17:0 18:0 19:0 20:0 21:0 22:40 23:40 24:0 25:20 26:40 27:40 28:40 29:0 30:20 31:80 32:20 33:0 34:0 35:20 36:40 37:0 38:0 39:20 40:20 41:15 42:45 43:25 
-1.432603262682972 1:0 2:100 3:-100 4:0 5:0 6:0 7:0 8:0 9:0 10:0 11:0 12:0 13:0 14:0 15:0 16:0 17:0 18:0 19:0 20:0 21:100 22:140 23:80 24:20 25:40 26:20 27:0 28:60 29:40 30:0 31:40 32:20 33:0 34:100 35:40 36:40 37:20 38:40 39:0 40:40 41:0 42:78 43:76 
-0.1017704132840023 1:0 2:0 3:-100 4:100 5:0 6:0 7:0 8:0 9:0 10:0 11:0 12:0 13:0 14:0 15:0 16:0 17:0 18:0 19:0 20:0 21:100 22:140 23:80 24:20 25:40 26:20 27:0 28:60 29:40 30:0 31:40 32:20 33:0 34:100 35:40 36:40 37:20 38:40 39:0 40:40 41:0 42:78 43:76 
-4.757447267573125 1:0 2:0 3:0 4:0 5:0 6:0 7:0 8:0 9:0 10:0 11:0 12:0 13:0 14:100 15:0 16:0 17:0 18:0 19:-100 20:0 21:20 22:40 23:60 24:20 25:0 26:20 27:80 28:40 29:40 30:60 31:40 32:40 33:0 34:40 35:0 36:60 37:20 38:0 39:20 40:20 41:11 42:32 43:26 
-8 1:100 2:0 3:0 4:0 5:-100 6:0 7:0 8:0 9:0 10:0 11:0 12:0 13:0 14:0 15:0 16:0 17:0 18:0 19:0 20:0 21:40 22:60 23:40 24:20 25:0 26:0 27:0 28:20 29:0 30:0 31:60 32:20 33:0 34:20 35:40 36:20 37:0 38:0 39:0 40:20 41:31 42:50 43:25 
8 1:0 2:0 3:0 4:0 5:0 6:0 7:0 8:0 9:100 10:0 11:0 12:0 13:0 14:0 15:0 16:0 17:0 18:0 19:-100 20:0 21:20 22:0 23:0 24:0 25:20 26:20 27:40 28:80 29:0 30:60 31:60 32:20 33:0 34:40 35:20 36:20 37:0 38:20 39:20 40:0 41:46 42:50 43:25 
-4.842118129902173 1:0 2:0 3:0 4:0 5:0 6:0 7:0 8:0 9:100 10:0 11:0 12:0 13:0 14:0 15:0 16:0 17:0 18:0 19:-100 20:0 21:20 22:0 23:0 24:0 25:20 26:20 27:40 28:80 29:0 30:60 31:60 32:20 33:0 34:40 35:20 36:20 37:0 38:20 39:20 40:0 41:46 42:50 43:50 
-5.038153333159536 1:0 2:100 3:0 4:0 5:-100 6:0 7:0 8:0 9:0 10:0 11:0 12:0 13:0 14:0 15:0 16:0 17:0 18:0 19:0 20:0 21:40 22:60 23:40 24:20 25:0 26:0 27:0 28:20 29:0 30:0 31:60 32:20 33:0 34:20 35:40 36:20 37:0 38:0 39:0 40:20 41:31 42:50 43:25 
1.071341274160356 1:100 2:0 3:-100 4:0 5:0 6:0 7:0 8:0 9:0 10:0 11:0 12:0 13:0 14:0 15:0 16:0 17:0 18:0 19:0 20:0 21:100 22:140 23:80 24:20 25:40 26:20 27:0 28:60 29:40 30:0 31:40 32:20 33:0 34:100 35:40 36:40 37:20 38:40 39:0 40:40 41:0 42:78 43:76 
6.484987575086496 1:0 2:100 3:0 4:-100 5:0 6:0 7:0 8:0 9:0 10:0 11:0 12:0 13:0 14:0 15:0 16:0 17:0 18:0 19:0 20:0 21:60 22:140 23:80 24:40 25:60 26:20 27:40 28:60 29:120 30:0 31:40 32:40 33:20 34:0 35:80 36:0 37:20 38:40 39:40 40:20 41:0 42:21 43:51 
-2.214494511034386 1:0 2:100 3:0 4:-100 5:0 6:0 7:0 8:0 9:0 10:0 11:0 12:0 13:0 14:0 15:0 16:0 17:0 18:0 19:0 20:0 21:60 22:140 23:80 24:40 25:60 26:20 27:40 28:60 29:120 30:0 31:40 32:40 33:20 34:0 35:80 36:0 37:20 38:40 39:40 40:20 41:0 42:40 43:64 
-1.01053303991479 1:0 2:0 3:0 4:0 5:0 6:0 7:0 8:0 9:-100 10:0 11:100 12:0 13:0 14:0 15:0 16:0 17:0 18:0 19:0 20:0 21:60 22:80 23:100 24:20 25:20 26:60 27:20 28:20 29:80 30:0 31:0 32:0 33:40 34:0 35:60 36:20 37:20 38:0 39:0 40:40 41:0 42:19 43:64 
-3.027429511757708 1:0 2:0 3:-100 4:0 5:0 6:0 7:0 8:0 9:0 10:0 11:0 12:0 13:100 14:0 15:0 16:0 17:0 18:0 19:0 20:0 21:100 22:40 23:80 24:60 25:60 26:20 27:40 28:0 29:60 30:0 31:0 32:20 33:20 34:0 35:80 36:0 37:0 38:40 39:60 40:60 41:10 42:14 43:41 
8 1:0 2:0 3:-100 4:0 5:0 6:0 7:0 8:0 9:0 10:0 11:0 12:0 13:100 14:0 15:0 16:0 17:0 18:0 19:0 20:0 21:100 22:40 23:80 24:60 25:60 26:20 27:40 28:0 29:60 30:0 31:0 32:20 33:20 34:0 35:80 36:0 37:0 38:40 39:60 40:60 41:10 42:14 43:41 
-8 1:0 2:0 3:-100 4:0 5:0 6:0 7:0 8:0 9:0 10:0 11:0 12:0 13:100 14:0 15:0 16:0 17:0 18:0 19:0 20:0 21:100 22:40 23:80 24:60 25:60 26:20 27:40 28:0 29:60 30:0 31:0 32:20 33:20 34:0 35:80 36:0 37:0 38:40 39:60 40:60 41:10 42:46 43:64 
8 1:0 2:0 3:-100 4:0 5:0 6:0 7:0 8:0 9:0 10:0 11:0 12:0 13:100 14:0 15:0 16:0 17:0 18:0 19:0 20:0 21:100 22:40 23:80 24:60 25:60 26:20 27:40 28:0 29:60 30:0 31:0 32:20 33:20 34:0 35:80 36:0 37:0 38:40 39:60 40:60 41:10 42:46 43:64 
6.338358788768691 1:0 2:0 3:0 4:100 5:0 6:0 7:0 8:0 9:0 10:0 11:0 12:0 13:0 14:0 15:-100 16:0 17:0 18:0 19:0 20:0 21:0 22:40 23:40 24:0 25:20 26:40 27:40 28:40 29:0 30:20 31:80 32:20 33:0 34:0 35:20 36:40 37:0 38:0 39:20 40:20 41:15 42:45 43:25 
-8 1:0 2:0 3:0 4:100 5:0 6:0 7:0 8:0 9:0 10:0 11:0 12:0 13:0 14:0 15:-100 16:0 17:0 18:0 19:0 20:0 21:0 22:40 23:40 24:0 25:20 26:40 27:40 28:40 29:0 30:20 31:80 32:20 33:0 34:0 35:20 36:40 37:0 38:0 39:20 40:20 41:15 42:31 43:25 
-1.574137999255192 1:-100 2:0 3:0 4:0 5:0 6:0 7:0 8:0 9:100 10:0 11:0 12:0 13:0 14:0 15:0 16:0 17:0 18:0 19:0 20:0 21:20 22:60 23:60 24:20 25:40 26:0 27:80 28:20 29:40 30:20 31:0 32:20 33:0 34:20 35:0 36:140 37:0 38:120 39:0 40:20 41:5 42:37 43:5 
8 1:0 2:0 3:0 4:0 5:0 6:0 7:0 8:0 9:100 10:0 11:0 12:0 13:0 14:0 15:0 16:0 17:0 18:0 19:0 20:-100 21:140 22:0 23:40 24:0 25:40 26:0 27:20 28:20 29:60 30:20 31:20 32:40 33:60 34:60 35:0 36:40 37:40 38:0 39:60 40:20 41:8 42:8 43:25 
-6.657763019464417 1:0 2:0 3:0 4:0 5:0 6:0 7:0 8:0 9:100 10:0 11:0 12:0 13:0 14:0 15:0 16:0 17:0 18:0 19:0 20:-100 21:140 22:0 23:40 24:0 25:40 26:0 27:20 28:20 29:60 30:20 31:20 32:40 33:60 34:60 35:0 36:40 37:40 38:0 39:60 40:20 41:8 42:42 43:25 
0.009190697384332187 1:0 2:-100 3:0 4:0 5:0 6:0 7:0 8:0 9:100 10:0 11:0 12:0 13:0 14:0 15:0 16:0 17:0 18:0 19:0 20:0 21:80 22:100 23:20 24:40 25:40 26:20 27:20 28:20 29:60 30:20 31:40 32:60 33:0 34:0 35:100 36:20 37:40 38:20 39:40 40:60 41:0 42:21 43:51 
8 1:0 2:-100 3:0 4:0 5:0 6:0 7:0 8:0 9:100 10:0 11:0 12:0 13:0 14:0 15:0 16:0 17:0 18:0 19:0 20:0 21:80 22:100 23:20 24:40 25:40 26:20 27:20 28:20 29:60 30:20 31:40 32:60 33:0 34:0 35:100 36:20 37:40 38:20 39:40 40:60 41:0 42:38 43:65 
7.013921075204955 1:0 2:-100 3:0 4:0 5:0 6:0 7:0 8:0 9:100 10:0 11:0 12:0 13:0 14:0 15:0 16:0 17:0 18:0 19:0 20:0 21:80 22:100 23:20 24:40 25:40 26:20 27:20 28:20 29:60 30:20 31:40 32:60 33:0 34:0 35:100 36:20 37:40 38:20 39:40 40:60 41:0 42:21 43:51 
0.6205648930987374 1:0 2:0 3:-100 4:100 5:0 6:0 7:0 8:0 9:0 10:0 11:0 12:0 13:0 14:0 15:0 16:0 17:0 18:0 19:0 20:0 21:60 22:80 23:40 24:20 25:20 26:60 27:40 28:20 29:160 30:0 31:100 32:80 33:80 34:0 35:40 36:20 37:20 38:20 39:100 40:60 41:1 42:19 43:64 
8 1:0 2:0 3:0 4:0 5:0 6:0 7:0 8:-100 9:100 10:0 11:0 12:0 13:0 14:0 15:0 16:0 17:0 18:0 19:0 20:0 21:80 22:60 23:60 24:20 25:0 26:0 27:20 28:20 29:20 30:0 31:40 32:20 33:0 34:0 35:0 36:40 37:0 38:0 39:20 40:0 41:23 42:50 43:25 
-7.632622457400201 1:0 2:0 3:0 4:0 5:0 6:0 7:-100 8:0 9:100 10:0 11:0 12:0 13:0 14:0 15:0 16:0 17:0 18:0 19:0 20:0 21:40 22:60 23:40 24:40 25:40 26:0 27:40 28:0 29:100 30:0 31:40 32:40 33:0 34:40 35:0 36:140 37:20 38:140 39:0 40:60 41:1 42:37 43:5 
-1.332501132395469 1:0 2:-100 3:0 4:100 5:0 6:0 7:0 8:0 9:0 10:0 11:0 12:0 13:0 14:0 15:0 16:0 17:0 18:0 19:0 20:0 21:80 22:100 23:20 24:40 25:40 26:20 27:20 28:20 29:60 30:20 31:40 32:60 33:0 34:0 35:100 36:20 37:40 38:20 39:40 40:60 41:0 42:38 43:65 
4.171509188387465 1:0 2:0 3:0 4:0 5:100 6:0 7:-100 8:0 9:0 10:0 11:0 12:0 13:0 14:0 15:0 16:0 17:0 18:0 19:0 20:0 21:40 22:60 23:40 24:40 25:40 26:0 27:40 28:0 29:100 30:0 31:40 32:40 33:0 34:40 35:0 36:140 37:20 38:140 39:0 40:60 41:1 42:37 43:5 
-8 1:0 2:0 3:0 4:0 5:0 6:0 7:0 8:0 9:0 10:0 11:0 12:-100 13:0 14:0 15:100 16:0 17:0 18:0 19:0 20:0 21:40 22:0 23:20 24:40 25:20 26:20 27:20 28:20 29:60 30:0 31:0 32:60 33:20 34:0 35:60 36:20 37:0 38:0 39:0 40:40 41:41 42:14 43:42 
-8 1:0 2:0 3:0 4:0 5:0 6:0 7:0 8:0 9:0 10:0 11:0 12:-100 13:0 14:0 15:100 16:0 17:0 18:0 19:0 20:0 21:40 22:0 23:20 24:40 25:20 26:20 27:20 28:20 29:60 30:0 31:0 32:60 33:20 34:0 35:60 36:20 37:0 38:0 39:0 40:40 41:41 42:14 43:38 
8 1:0 2:0 3:0 4:0 5:0 6:0 7:0 8:0 9:0 10:0 11:0 12:-100 13:0 14:0 15:100 16:0 17:0 18:0 19:0 20:0 21:40 22:0 23:20 24:40 25:20 26:20 27:20 28:20 29:60 30:0 31:0 32:60 33:20 34:0 35:60 36:20 37:0 38:0 39:0 40:40 41:41 42:17 43:46 
8 1:0 2:0 3:0 4:0 5:0 6:0 7:0 8:0 9:0 10:0 11:0 12:-100 13:0 14:0 15:100 16:0 17:0 18:0 19:0 20:0 21:40 22:0 23:20 24:40 25:20 26:20 27:20 28:20 29:60 30:0 31:0 32:60 33:20 34:0 35:60 36:20 37:0 38:0 39:0 40:40 41:41 42:21 43:53 
2.41068803597581 1:0 2:0 3:0 4:0 5:0 6:0 7:0 8:0 9:0 10:0 11:100 12:-100 13:0 14:0 15:0 16:0 17:0 18:0 19:0 20:0 21:40 22:0 23:20 24:40 25:20 26:20 27:20 28:20 29:60 30:0 31:0 32:60 33:20 34:0 35:60 36:20 37:0 38:0 39:0 40:40 41:41 42:14 43:42 
-3.366077837236644 1:0 2:-100 3:0 4:0 5:0 6:0 7:0 8:0 9:100 10:0 11:0 12:0 13:0 14:0 15:0 16:0 17:0 18:0 19:0 20:0 21:60 22:100 23:0 24:40 25:40 26:20 27:20 28:40 29:80 30:20 31:40 32:40 33:0 34:0 35:40 36:60 37:40 38:40 39:60 40:0 41:5 42:21 43:51 
-0.9464369981462936 1:0 2:-100 3:0 4:0 5:0 6:0 7:0 8:0 9:100 10:0 11:0 12:0 13:0 14:0 15:0 16:0 17:0 18:0 19:0 20:0 21:200 22:60 23:80 24:0 25:20 26:20 27:0 28:40 29:40 30:40 31:20 32:20 33:0 34:0 35:60 36:60 37:20 38:60 39:20 40:40 41:0 42:45 43:25 
6.672736878171067 1:0 2:-100 3:0 4:100 5:0 6:0 7:0 8:0 9:0 10:0 11:0 12:0 13:0 14:0 15:0 16:0 17:0 18:0 19:0 20:0 21:60 22:60 23:20 24:60 25:40 26:40 27:20 28:40 29:100 30:0 31:40 32:60 33:0 34:0 35:100 36:40 37:0 38:20 39:60 40:20 41:0 42:38 43:65 
0.4667905397531883 1:0 2:0 3:0 4:0 5:0 6:0 7:0 8:0 9:0 10:0 11:0 12:-100 13:0 14:100 15:0 16:0 17:0 18:0 19:0 20:0 21:40 22:0 23:20 24:40 25:20 26:20 27:20 28:20 29:60 30:0 31:0 32:60 33:20 34:0 35:60 36:20 37:0 38:0 39:0 40:40 41:41 42:14 43:42 
-8 1:0 2:0 3:100 4:0 5:0 6:0 7:0 8:0 9:0 10:0 11:0 12:-100 13:0 14:0 15:0 16:0 17:0 18:0 19:0 20:0 21:40 22:0 23:20 24:40 25:20 26:20 27:20 28:20 29:60 30:0 31:0 32:60 33:20 34:0 35:60 36:20 37:0 38:0 39:0 40:40 41:41 42:14 43:42 
-8 1:0 2:0 3:100 4:0 5:0 6:0 7:0 8:0 9:0 10:0 11:0 12:-100 13:0 14:0 15:0 16:0 17:0 18:0 19:0 20:0 21:40 22:0 23:20 24:40 25:20 26:20 27:20 28:20 29:60 30:0 31:0 32:60 33:20 34:0 35:60 36:20 37:0 38:0 39:0 40:40 41:41 42:28 43:62 
5.234984675759505 1:0 2:0 3:100 4:0 5:0 6:0 7:0 8:0 9:0 10:0 11:0 12:-100 13:0 14:0 15:0 16:0 17:0 18:0 19:0 20:0 21:40 22:0 23:20 24:40 25:20 26:20 27:20 28:20 29:60 30:0 31:0 32:60 33:20 34:0 35:60 36:20 37:0 38:0 39:0 40:40 41:41 42:42 43:64 
-2.143921317591759 1:0 2:0 3:100 4:0 5:0 6:0 7:0 8:0 9:0 10:0 11:0 12:-100 13:0 14:0 15:0 16:0 17:0 18:0 19:0 20:0 21:40 22:0 23:20 24:40 25:20 26:20 27:20 28:20 29:60 30:0 31:0 32:60 33:20 34:0 35:60 36:20 37:0 38:0 39:0 40:40 41:41 42:14 43:38 
8 1:0 2:0 3:100 4:0 5:0 6:0 7:0 8:0 9:0 10:0 11:0 12:-100 13:0 14:0 15:0 16:0 17:0 18:0 19:0 20:0 21:40 22:0 23:20 24:40 25:20 26:20 27:20 28:20 29:60 30:0 31:0 32:60 33:20 34:0 35:60 36:20 37:0 38:0 39:0 40:40 41:41 42:21 43:53 
-0.183271630592991 1:0 2:0 3:-100 4:100 5:0 6:0 7:0 8:0 9:0 10:0 11:0 12:0 13:0 14:0 15:0 16:0 17:0 18:0 19:0 20:0 21:100 22:160 23:60 24:20 25:60 26:20 27:20 28:60 29:20 30:0 31:40 32:0 33:0 34:80 35:60 36:0 37:20 38:40 39:20 40:20 41:2 42:78 43:76 
8 1:0 2:0 3:0 4:0 5:0 6:0 7:0 8:0 9:100 10:0 11:0 12:0 13:0 14:0 15:0 16:0 17:0 18:-100 19:0 20:0 21:0 22:100 23:80 24:0 25:0 26:0 27:20 28:40 29:60 30:0 31:60 32:40 33:20 34:20 35:20 36:60 37:0 38:0 39:20 40:20 41:30 42:21 43:51 
-3.444688660703664 1:0 2:0 3:0 4:0 5:0 6:0 7:0 8:0 9:100 10:0 11:0 12:0 13:0 14:0 15:0 16:0 17:0 18:-100 19:0 20:0 21:0 22:100 23:80 24:0 25:0 26:0 27:20 28:40 29:60 30:0 31:60 32:40 33:20 34:20 35:20 36:60 37:0 38:0 39:20 40:20 41:30 42:47 43:62 
1.534317156534761 1:0 2:0 3:0 4:0 5:0 6:0 7:0 8:0 9:0 10:0 11:0 12:-100 13:0 14:0 15:0 16:0 17:0 18:0 19:0 20:100 21:40 22:0 23:20 24:40 25:20 26:20 27:20 28:20 29:60 30:0 31:0 32:60 33:20 34:0 35:60 36:20 37:0 38:0 39:0 40:40 41:41 42:14 43:42 
5.395535799038434 1:0 2:0 3:0 4:0 5:0 6:0 7:0 8:0 9:100 10:0 11:0 12:0 13:0 14:0 15:0 16:0 17:0 18:0 19:0 20:-100 21:0 22:0 23:0 24:20 25:20 26:0 27:40 28:0 29:60 30:0 31:0 32:80 33:0 34:0 35:0 36:20 37:0 38:0 39:0 40:40 41:79 42:50 43:25 
-8 1:0 2:0 3:0 4:0 5:100 6:0 7:0 8:0 9:0 10:0 11:0 12:-100 13:0 14:0 15:0 16:0 17:0 18:0 19:0 20:0 21:40 22:0 23:20 24:40 25:20 26:20 27:20 28:20 29:60 30:0 31:0 32:60 33:20 34:0 35:60 36:20 37:0 38:0 39:0 40:40 41:41 42:14 43:42 
5.164583249893718 1:0 2:0 3:0 4:0 5:0 6:0 7:0 8:0 9:0 10:0 11:0 12:0 13:0 14:0 15:0 16:0 17:0 18:0 19:-100 20:100 21:40 22:0 23:20 24:20 25:0 26:60 27:20 28:40 29:20 30:0 31:20 32:0 33:0 34:0 35:40 36:40 37:0 38:0 39:20 40:20 41:65 42:67 43:20 
-0.02685613324073526 1:0 2:-100 3:0 4:100 5:0 6:0 7:0 8:0 9:0 10:0 11:0 12:0 13:0 14:0 15:0 16:0 17:0 18:0 19:0 20:0 21:60 22:100 23:0 24:40 25:40 26:20 27:20 28:40 29:80 30:20 31:40 32:40 33:0 34:0 35:40 36:60 37:40 38:40 39:60 40:0 41:5 42:38 43:65 
0.3436456298358751 1:100 2:0 3:0 4:-100 5:0 6:0 7:0 8:0 9:0 10:0 11:0 12:0 13:0 14:0 15:0 16:0 17:0 18:0 19:0 20:0 21:40 22:40 23:20 24:40 25:20 26:0 27:80 28:80 29:20 30:20 31:20 32:20 33:40 34:0 35:20 36:0 37:40 38:0 39:0 40:20 41:44 42:50 43:25 
-0.6195596162632848 1:0 2:100 3:0 4:-100 5:0 6:0 7:0 8:0 9:0 10:0 11:0 12:0 13:0 14:0 15:0 16:0 17:0 18:0 19:0 20:0 21:40 22:40 23:20 24:0 25:40 26:0 27:20 28:0 29:0 30:20 31:40 32:40 33:80 34:40 35:0 36:100 37:0 38:0 39:80 40:80 41:0 42:14 43:25 
8 1:0 2:100 3:0 4:-100 5:0 6:0 7:0 8:0 9:0 10:0 11:0 12:0 13:0 14:0 15:0 16:0 17:0 18:0 19:0 20:0 21:40 22:40 23:20 24:0 25:40 26:0 27:20 28:0 29:0 30:20 31:40 32:40 33:80 34:40 35:0 36:100 37:0 38:0 39:80 40:80 41:0 42:17 43:25 
-8 1:0 2:100 3:0 4:-100 5:0 6:0 7:0 8:0 9:0 10:0 11:0 12:0 13:0 14:0 15:0 16:0 17:0 18:0 19:0 20:0 21:40 22:40 23:20 24:0 25:40 26:0 27:20 28:0 29:0 30:20 31:40 32:40 33:80 34:40 35:0 36:100 37:0 38:0 39:80 40:80 41:0 42:21 43:25 
-8 1:0 2:100 3:0 4:-100 5:0 6:0 7:0 8:0 9:0 10:0 11:0 12:0 13:0 14:0 15:0 16:0 17:0 18:0 19:0 20:0 21:40 22:40 23:20 24:0 25:40 26:0 27:20 28:0 29:0 30:20 31:40 32:40 33:80 34:40 35:0 36:100 37:0 38:0 39:80 40:80 41:0 42:25 43:25 
8 1:0 2:100 3:0 4:-100 5:0 6:0 7:0 8:0 9:0 10:0 11:0 12:0 13:0 14:0 15:0 16:0 17:0 18:0 19:0 20:0 21:40 22:40 23:20 24:0 25:40 26:0 27:20 28:0 29:0 30:20 31:40 32:40 33:80 34:40 35:0 36:100 37:0 38:0 39:80 40:80 41:0 42:28 43:25 
-8 1:0 2:100 3:0 4:-100 5:0 6:0 7:0 8:0 9:0 10:0 11:0 12:0 13:0 14:0 15:0 16:0 17:0 18:0 19:0 20:0 21:40 22:40 23:20 24:0 25:40 26:0 27:20 28:0 29:0 30:20 31:40 32:40 33:80 34:40 35:0 36:100 37:0 38:0 39:80 40:80 41:0 42:35 43:25 
-8 1:0 2:100 3:0 4:-100 5:0 6:0 7:0 8:0 9:0 10:0 11:0 12:0 13:0 14:0 15:0 16:0 17:0 18:0 19:0 20:0 21:40 22:40 23:20 24:0 25:40 26:0 27:20 28:0 29:0 30:20 31:40 32:40 33:80 34:40 35:0 36:100 37:0 38:0 39:80 40:80 41:0 42:42 43:25 
8 1:0 2:100 3:0 4:-100 5:0 6:0 7:0 8:0 9:0 10:0 11:0 12:0 13:0 14:0 15:0 16:0 17:0 18:0 19:0 20:0 21:40 22:40 23:20 24:0 25:40 26:0 27:20 28:0 29:0 30:20 31:40 32:40 33:80 34:40 35:0 36:100 37:0 38:0 39:80 40:80 41:0 42:50 43:25 
8 1:0 2:100 3:0 4:-100 5:0 6:0 7:0 8:0 9:0 10:0 11:0 12:0 13:0 14:0 15:0 16:0 17:0 18:0 19:0 20:0 21:40 22:40 23:20 24:0 25:40 26:0 27:20 28:0 29:0 30:20 31:40 32:40 33:80 34:40 35:0 36:100 37:0 38:0 39:80 40:80 41:0 42:57 43:25 
2.159642201833274 1:0 2:0 3:0 4:0 5:0 6:0 7:0 8:0 9:-100 10:0 11:0 12:0 13:0 14:0 15:0 16:0 17:0 18:0 19:0 20:100 21:0 22:60 23:20 24:0 25:0 26:0 27:20 28:0 29:40 30:20 31:60 32:20 33:0 34:0 35:0 36:60 37:0 38:20 39:20 40:20 41:35 42:38 43:65 
-5.45994596682354 1:0 2:-100 3:0 4:0 5:0 6:0 7:0 8:0 9:100 10:0 11:0 12:0 13:0 14:0 15:0 16:0 17:0 18:0 19:0 20:0 21:40 22:40 23:60 24:20 25:20 26:0 27:60 28:20 29:60 30:20 31:0 32:20 33:0 34:20 35:0 36:140 37:0 38:100 39:0 40:40 41:1 42:37 43:5 
-8 1:-100 2:0 3:0 4:0 5:0 6:0 7:0 8:0 9:0 10:0 11:0 12:100 13:0 14:0 15:0 16:0 17:0 18:0 19:0 20:0 21:0 22:40 23:20 24:20 25:40 26:0 27:0 28:40 29:0 30:0 31:60 32:0 33:0 34:0 35:0 36:20 37:20 38:0 39:0 40:20 41:68 42:50 43:25 
-4.453108018589282 1:0 2:100 3:0 4:0 5:-100 6:0 7:0 8:0 9:0 10:0 11:0 12:0 13:0 14:0 15:0 16:0 17:0 18:0 19:0 20:0 21:40 22:40 23:100 24:0 25:0 26:0 27:80 28:20 29:40 30:0 31:20 32:100 33:0 34:0 35:40 36:40 37:0 38:0 39:60 40:100 41:14 42:43 43:25 
-8 1:0 2:0 3:0 4:0 5:0 6:0 7:0 8:0 9:0 10:0 11:0 12:0 13:0 14:0 15:0 16:0 17:0 18:0 19:-100 20:100 21:40 22:40 23:20 24:0 25:20 26:20 27:20 28:60 29:80 30:20 31:40 32:20 33:0 34:0 35:20 36:40 37:20 38:0 39:0 40:20 41:18 42:45 43:25 
-2.486289863847803 1:0 2:0 3:0 4:0 5:0 6:0 7:0 8:0 9:0 10:0 11:0 12:0 13:0 14:0 15:0 16:0 17:100 18:-100 19:0 20:0 21:60 22:20 23:40 24:0 25:0 26:20 27:0 28:20 29:20 30:40 31:20 32:20 33:0 34:0 35:0 36:40 37:20 38:60 39:0 40:20 41:50 42:44 43:25 
-6.604913076855747 1:-100 2:0 3:0 4:0 5:0 6:0 7:0 8:0 9:0 10:100 11:0 12:0 13:0 14:0 15:0 16:0 17:0 18:0 19:0 20:0 21:0 22:40 23:20 24:20 25:40 26:0 27:0 28:40 29:0 30:0 31:60 32:0 33:0 34:0 35:0 36:20 37:20 38:0 39:0 40:20 41:68 42:50 43:25 
1.309691618013203 1:0 2:0 3:0 4:0 5:0 6:0 7:0 8:0 9:0 10:0 11:0 12:0 13:0 14:0 15:0 16:100 17:0 18:-100 19:0 20:0 21:0 22:20 23:0 24:20 25:0 26:20 27:60 28:20 29:0 30:0 31:0 32:80 33:0 34:0 35:20 36:40 37:40 38:0 39:20 40:20 41:47 42:38 43:65 
-8 1:100 2:0 3:0 4:0 5:0 6:0 7:0 8:0 9:-100 10:0 11:0 12:0 13:0 14:0 15:0 16:0 17:0 18:0 19:0 20:0 21:0 22:60 23:20 24:0 25:0 26:0 27:20 28:0 29:40 30:20 31:60 32:20 33:0 34:0 35:0 36:60 37:0 38:20 39:20 40:20 41:35 42:38 43:66 
8 1:100 2:0 3:0 4:0 5:0 6:0 7:0 8:0 9:-100 10:0 11:0 12:0 13:0 14:0 15:0 16:0 17:0 18:0 19:0 20:0 21:0 22:60 23:20 24:0 25:0 26:0 27:20 28:0 29:40 30:20 31:60 32:20 33:0 34:0 35:0 36:60 37:0 38:20 39:20 40:20 41:35 42:14 43:41 
3.804103581792567 1:100 2:0 3:0 4:0 5:0 6:0 7:0 8:0 9:-100 10:0 11:0 12:0 13:0 14:0 15:0 16:0 17:0 18:0 19:0 20:0 21:0 22:60 23:20 24:0 25:0 26:0 27:20 28:0 29:40 30:20 31:60 32:20 33:0 34:0 35:0 36:60 37:0 38:20 39:20 40:20 41:35 42:20 43:51 
-8 1:0 2:0 3:0 4:0 5:0 6:0 7:0 8:0 9:0 10:0 11:0 12:0 13:0 14:0 15:0 16:-100 17:0 18:100 19:0 20:0 21:40 22:80 23:20 24:0 25:20 26:0 27:0 28:20 29:40 30:0 31:80 32:40 33:0 34:0 35:0 36:40 37:20 38:20 39:0 40:0 41:44 42:50 43:30 
6.700018357991484 1:0 2:0 3:0 4:0 5:0 6:0 7:0 8:0 9:0 10:0 11:0 12:0 13:0 14:0 15:0 16:-100 17:0 18:100 19:0 20:0 21:40 22:80 23:20 24:0 25:20 26:0 27:0 28:20 29:40 30:0 31:80 32:40 33:0 34:0 35:0 36:40 37:20 38:20 39:0 40:0 41:44 42:50 43:63 
7.691644429264595 1:0 2:0 3:0 4:0 5:0 6:0 7:0 8:0 9:0 10:0 11:0 12:0 13:0 14:0 15:0 16:-100 17:0 18:100 19:0 20:0 21:40 22:80 23:20 24:0 25:20 26:0 27:0 28:20 29:40 30:0 31:80 32:40 33:0 34:0 35:0 36:40 37:20 38:20 39:0 40:0 41:44 42:50 43:25 
0.5339979764195276 1:0 2:0 3:0 4:0 5:0 6:0 7:0 8:0 9:100 10:0 11:0 12:0 13:0 14:0 15:0 16:0 17:0 18:0 19:-100 20:0 21:40 22:60 23:0 24:20 25:20 26:0 27:0 28:20 29:60 30:0 31:20 32:20 33:0 34:0 35:40 36:20 37:40 38:20 39:20 40:0 41:52 42:21 43:51 
-0.4599686189670909 1:0 2:0 3:0 4:0 5:0 6:0 7:0 8:0 9:-100 10:0 11:100 12:0 13:0 14:0 15:0 16:0 17:0 18:0 19:0 20:0 21:0 22:60 23:20 24:0 25:0 26:0 27:20 28:0 29:40 30:20 31:60 32:20 33:0 34:0 35:0 36:60 37:0 38:20 39:20 40:20 41:35 42:21 43:51 
-2.833533869756385 1:0 2:0 3:0 4:0 5:0 6:0 7:0 8:0 9:100 10:0 11:0 12:0 13:0 14:0 15:0 16:0 17:0 18:0 19:-100 20:0 21:20 22:0 23:40 24:0 25:80 26:0 27:80 28:60 29:40 30:40 31:20 32:40 33:100 34:0 35:60 36:40 37:20 38:20 39:20 40:20 41:14 42:50 43:39 
-0.1064145714777418 1:0 2:0 3:0 4:0 5:0 6:0 7:0 8:0 9:100 10:0 11:0 12:0 13:0 14:0 15:0 16:0 17:0 18:-100 19:0 20:0 21:60 22:20 23:40 24:0 25:0 26:20 27:0 28:20 29:20 30:40 31:20 32:20 33:0 34:0 35:0 36:40 37:20 38:60 39:0 40:20 41:50 42:44 43:25 
5.485182158671513 1:0 2:0 3:0 4:0 5:0 6:0 7:0 8:100 9:0 10:0 11:0 12:0 13:0 14:0 15:0 16:-100 17:0 18:0 19:0 20:0 21:40 22:80 23:20 24:0 25:20 26:0 27:0 28:20 29:40 30:0 31:80 32:40 33:0 34:0 35:0 36:40 37:20 38:20 39:0 40:0 41:44 42:50 43:25 
-1.721454499949403 1:-100 2:0 3:0 4:0 5:0 6:0 7:0 8:0 9:0 10:0 11:100 12:0 13:0 14:0 15:0 16:0 17:0 18:0 19:0 20:0 21:0 22:100 23:20 24:0 25:0 26:60 27:20 28:20 29:20 30:20 31:80 32:40 33:80 34:20 35:40 36:40 37:0 38:40 39:40 40:0 41:0 42:32 43:64 
1.507150051841559 1:-100 2:0 3:0 4:0 5:0 6:0 7:0 8:0 9:0 10:0 11:0 12:0 13:100 14:0 15:0 16:0 17:0 18:0 19:0 20:0 21:0 22:40 23:20 24:20 25:40 26:0 27:0 28:40 29:0 30:0 31:60 32:0 33:0 34:0 35:0 36:20 37:20 38:0 39:0 40:20 41:68 42:50 43:25 
-8 1:-100 2:0 3:0 4:0 5:0 6:0 7:0 8:0 9:0 10:0 11:0 12:0 13:100 14:0 15:0 16:0 17:0 18:0 19:0 20:0 21:0 22:40 23:20 24:20 25:40 26:0 27:0 28:40 29:0 30:0 31:60 32:0 33:0 34:0 35:0 36:20 37:20 38:0 39:0 40:20 41:68 42:50 43:25 
1.315836268713876 1:0 2:100 3:0 4:-100 5:0 6:0 7:0 8:0 9:0 10:0 11:0 12:0 13:0 14:0 15:0 16:0 17:0 18:0 19:0 20:0 21:40 22:80 23:0 24:0 25:40 26:20 27:0 28:0 29:40 30:0 31:40 32:20 33:0 34:0 35:60 36:40 37:40 38:20 39:40 40:20 41:16 42:21 43:47 
-6.719227675921324 1:0 2:0 3:-100 4:0 5:0 6:0 7:0 8:0 9:100 10:0 11:0 12:0 13:0 14:0 15:0 16:0 17:0 18:0 19:0 20:0 21:120 22:100 23:40 24:60 25:80 26:20 27:20 28:40 29:80 30:0 31:0 32:20 33:20 34:0 35:80 36:0 37:20 38:40 39:40 40:80 41:4 42:21 43:51 
-2.869641538384991 1:100 2:0 3:-100 4:0 5:0 6:0 7:0 8:0 9:0 10:0 11:0 12:0 13:0 14:0 15:0 16:0 17:0 18:0 19:0 20:0 21:60 22:60 23:20 24:40 25:0 26:60 27:20 28:80 29:60 30:20 31:20 32:0 33:20 34:0 35:60 36:20 37:20 38:0 39:20 40:40 41:8 42:19 43:64 
8 1:100 2:0 3:-100 4:0 5:0 6:0 7:0 8:0 9:0 10:0 11:0 12:0 13:0 14:0 15:0 16:0 17:0 18:0 19:0 20:0 21:60 22:60 23:20 24:40 25:0 26:60 27:20 28:80 29:60 30:20 31:20 32:0 33:20 34:0 35:60 36:20 37:20 38:0 39:20 40:40 41:6 42:19 43:49 
0.9666278107124439 1:0 2:0 3:0 4:0 5:100 6:0 7:0 8:0 9:0 10:0 11:0 12:0 13:0 14:0 15:0 16:0 17:0 18:0 19:-100 20:0 21:20 22:60 23:20 24:40 25:20 26:40 27:20 28:20 29:60 30:0 31:40 32:20 33:0 34:0 35:60 36:20 37:0 38:20 39:40 40:20 41:28 42:38 43:66 
2.579053998864408 1:0 2:0 3:0 4:0 5:0 6:0 7:0 8:0 9:0 10:0 11:-100 12:0 13:0 14:100 15:0 16:0 17:0 18:0 19:0 20:0 21:0 22:60 23:40 24:0 25:0 26:0 27:0 28:40 29:60 30:0 31:20 32:20 33:20 34:0 35:20 36:40 37:0 38:20 39:60 40:20 41:57 42:21 43:51 
1.008009510532064 1:0 2:0 3:-100 4:0 5:0 6:0 7:0 8:0 9:100 10:0 11:0 12:0 13:0 14:0 15:0 16:0 17:0 18:0 19:0 20:0 21:20 22:100 23:80 24:20 25:60 26:0 27:20 28:60 29:20 30:0 31:0 32:40 33:0 34:20 35:60 36:60 37:20 38:80 39:20 40:60 41:2 42:21 43:51 
-8 1:0 2:0 3:0 4:0 5:0 6:0 7:-100 8:100 9:0 10:0 11:0 12:0 13:0 14:0 15:0 16:0 17:0 18:0 19:0 20:0 21:20 22:20 23:0 24:40 25:20 26:0 27:40 28:20 29:20 30:40 31:100 32:120 33:80 34:0 35:40 36:100 37:20 38:20 39:100 40:20 41:2 42:35 43:63 
3.530184369610399 1:0 2:0 3:0 4:0 5:100 6:0 7:-100 8:0 9:0 10:0 11:0 12:0 13:0 14:0 15:0 16:0 17:0 18:0 19:0 20:0 21:20 22:20 23:0 24:40 25:20 26:0 27:40 28:20 29:20 30:40 31:100 32:120 33:80 34:0 35:40 36:100 37:20 38:20 39:100 40:20 41:2 42:35 43:63 
1.642801549561225 1:0 2:0 3:0 4:0 5:0 6:0 7:0 8:0 9:0 10:0 11:0 12:0 13:0 14:0 15:-100 16:0 17:100 18:0 19:0 20:0 21:20 22:80 23:20 24:0 25:0 26:0 27:0 28:40 29:0 30:40 31:0 32:0 33:0 34:0 35:40 36:20 37:60 38:0 39:0 40:20 41:51 42:35 43:25 
0.490106371047595 1:0 2:0 3:0 4:0 5:0 6:0 7:0 8:0 9:0 10:0 11:0 12:0 13:0 14:0 15:0 16:-100 17:0 18:0 19:0 20:100 21:60 22:40 23:0 24:20 25:40 26:0 27:0 28:60 29:40 30:0 31:0 32:20 33:40 34:20 35:0 36:100 37:0 38:40 39:20 40:0 41:39 42:53 43:25 
-8 1:0 2:0 3:0 4:0 5:0 6:0 7:0 8:0 9:0 10:0 11:-100 12:0 13:0 14:0 15:0 16:0 17:0 18:0 19:0 20:100 21:0 22:40 23:20 24:0 25:0 26:0 27:40 28:20 29:40 30:20 31:40 32:20 33:0 34:0 35:0 36:60 37:0 38:20 39:20 40:0 41:44 42:14 43:40 
0.995550289028046 1:0 2:0 3:0 4:0 5:0 6:0 7:0 8:0 9:0 10:0 11:-100 12:0 13:0 14:0 15:0 16:0 17:0 18:0 19:0 20:100 21:0 22:40 23:20 24:0 25:0 26:0 27:40 28:20 29:40 30:20 31:40 32:20 33:0 34:0 35:0 36:60 37:0 38:20 39:20 40:0 41:44 42:49 43:66 
-2.798489553201477 1:0 2:0 3:0 4:0 5:0 6:0 7:0 8:0 9:0 10:0 11:-100 12:0 13:0 14:0 15:0 16:0 17:0 18:0 19:0 20:100 21:0 22:40 23:20 24:0 25:0 26:0 27:40 28:20 29:40 30:20 31:40 32:20 33:0 34:0 35:0 36:60 37:0 38:20 39:20 40:0 41:44 42:21 43:53 
8 1:0 2:0 3:0 4:0 5:0 6:0 7:0 8:0 9:0 10:0 11:-100 12:0 13:0 14:0 15:0 16:0 17:0 18:0 19:0 20:100 21:0 22:40 23:20 24:0 25:0 26:0 27:40 28:20 29:40 30:20 31:40 32:20 33:0 34:0 35:0 36:60 37:0 38:20 39:20 40:0 41:44 42:38 43:66 
1.067215729985376 1:100 2:-100 3:0 4:0 5:0 6:0 7:0 8:0 9:0 10:0 11:0 12:0 13:0 14:0 15:0 16:0 17:0 18:0 19:0 20:0 21:60 22:100 23:60 24:40 25:60 26:0 27:40 28:60 29:60 30:0 31:0 32:40 33:20 34:0 35:20 36:160 37:20 38:100 39:0 40:40 41:2 42:14 43:83 
8 1:0 2:100 3:0 4:0 5:0 6:0 7:0 8:0 9:0 10:0 11:0 12:0 13:0 14:0 15:0 16:0 17:0 18:-100 19:0 20:0 21:60 22:40 23:0 24:20 25:20 26:0 27:0 28:40 29:40 30:0 31:20 32:20 33:0 34:0 35:0 36:40 37:40 38:40 39:20 40:0 41:26 42:50 43:70 
-8 1:0 2:100 3:0 4:0 5:0 6:0 7:0 8:0 9:0 10:0 11:0 12:0 13:0 14:0 15:0 16:0 17:0 18:-100 19:0 20:0 21:60 22:40 23:0 24:20 25:20 26:0 27:0 28:40 29:40 30:0 31:20 32:20 33:0 34:0 35:0 36:40 37:40 38:40 39:20 40:0 41:26 42:50 43:70 
8 1:0 2:100 3:0 4:0 5:0 6:0 7:0 8:0 9:0 10:0 11:0 12:0 13:0 14:0 15:0 16:0 17:0 18:-100 19:0 20:0 21:60 22:40 23:0 24:20 25:20 26:0 27:0 28:40 29:40 30:0 31:20 32:20 33:0 34:0 35:0 36:40 37:40 38:40 39:20 40:0 41:26 42:50 43:70 
-8 1:0 2:100 3:0 4:0 5:0 6:0 7:0 8:0 9:0 10:0 11:0 12:0 13:0 14:0 15:0 16:0 17:0 18:-100 19:0 20:0 21:60 22:40 23:0 24:20 25:20 26:0 27:0 28:40 29:40 30:0 31:20 32:20 33:0 34:0 35:0 36:40 37:40 38:40 39:20 40:0 41:26 42:50 43:70 
-5.00708746099676 1:0 2:0 3:-100 4:0 5:0 6:0 7:0 8:0 9:0 10:0 11:0 12:100 13:0 14:0 15:0 16:0 17:0 18:0 19:0 20:0 21:20 22:100 23:80 24:0 25:20 26:0 27:20 28:80 29:40 30:0 31:0 32:40 33:20 34:20 35:40 36:80 37:0 38:60 39:40 40:40 41:2 42:38 43:59 
5.760889627507189 1:0 2:-100 3:0 4:0 5:0 6:0 7:0 8:0 9:100 10:0 11:0 12:0 13:0 14:0 15:0 16:0 17:0 18:0 19:0 20:0 21:0 22:0 23:0 24:20 25:40 26:0 27:40 28:40 29:60 30:0 31:0 32:20 33:80 34:0 35:20 36:20 37:20 38:0 39:40 40:0 41:60 42:50 43:39 
2.084207274723 1:0 2:0 3:0 4:0 5:0 6:0 7:0 8:0 9:0 10:0 11:-100 12:0 13:0 14:0 15:0 16:0 17:0 18:0 19:100 20:0 21:0 22:40 23:20 24:0 25:0 26:0 27:40 28:20 29:40 30:20 31:40 32:20 33:0 34:0 35:0 36:60 37:0 38:20 39:20 40:0 41:44 42:47 43:62 
3.81407970926222 1:0 2:0 3:0 4:0 5:0 6:0 7:0 8:0 9:100 10:-100 11:0 12:0 13:0 14:0 15:0 16:0 17:0 18:0 19:0 20:0 21:0 22:20 23:0 24:0 25:60 26:0 27:60 28:20 29:40 30:20 31:0 32:20 33:20 34:0 35:20 36:20 37:0 38:20 39:60 40:20 41:76 42:50 43:39 
0.4726690591875373 1:0 2:0 3:0 4:0 5:0 6:0 7:100 8:0 9:0 10:0 11:0 12:0 13:0 14:0 15:0 16:0 17:0 18:-100 19:0 20:0 21:20 22:40 23:20 24:20 25:20 26:0 27:0 28:40 29:120 30:0 31:20 32:0 33:0 34:0 35:20 36:40 37:60 38:20 39:20 40:0 41:55 42:35 43:50 
-3.027820343305942 1:0 2:0 3:0 4:0 5:0 6:0 7:0 8:0 9:-100 10:0 11:0 12:0 13:0 14:0 15:0 16:0 17:0 18:0 19:0 20:100 21:40 22:40 23:20 24:0 25:0 26:20 27:0 28:20 29:40 30:0 31:20 32:20 33:0 34:0 35:0 36:20 37:20 38:20 39:0 40:0 41:83 42:45 43:25 
-3.932053272858193 1:100 2:0 3:0 4:0 5:0 6:0 7:0 8:0 9:0 10:0 11:0 12:0 13:-100 14:0 15:0 16:0 17:0 18:0 19:0 20:0 21:20 22:80 23:80 24:0 25:0 26:0 27:0 28:40 29:40 30:0 31:20 32:20 33:0 34:0 35:20 36:60 37:0 38:40 39:40 40:20 41:2 42:46 43:70 
4.008203423919192 1:0 2:100 3:0 4:0 5:0 6:0 7:0 8:0 9:0 10:0 11:0 12:0 13:0 14:0 15:0 16:0 17:0 18:0 19:-100 20:0 21:20 22:40 23:60 24:20 25:0 26:20 27:80 28:40 29:40 30:60 31:40 32:40 33:0 34:40 35:0 36:60 37:20 38:0 39:20 40:20 41:11 42:32 43:26 
-1.659938523510485 1:0 2:0 3:-100 4:0 5:0 6:0 7:0 8:100 9:0 10:0 11:0 12:0 13:0 14:0 15:0 16:0 17:0 18:0 19:0 20:0 21:60 22:80 23:40 24:20 25:20 26:60 27:40 28:20 29:160 30:0 31:100 32:80 33:80 34:0 35:40 36:20 37:20 38:20 39:100 40:60 41:1 42:19 43:64 
-0.01218540358360974 1:0 2:0 3:-100 4:0 5:0 6:0 7:0 8:100 9:0 10:0 11:0 12:0 13:0 14:0 15:0 16:0 17:0 18:0 19:0 20:0 21:60 22:80 23:40 24:20 25:20 26:60 27:40 28:20 29:160 30:0 31:100 32:80 33:80 34:0 35:40 36:20 37:20 38:20 39:100 40:60 41:1 42:19 43:64 
1.155614874691217 1:0 2:0 3:0 4:0 5:100 6:0 7:-100 8:0 9:0 10:0 11:0 12:0 13:0 14:0 15:0 16:0 17:0 18:0 19:0 20:0 21:40 22:40 23:20 24:0 25:0 26:20 27:20 28:120 29:40 30:60 31:120 32:40 33:0 34:20 35:20 36:0 37:20 38:20 39:20 40:60 41:3 42:50 43:25 
-1.614692795760731 1:0 2:0 3:0 4:0 5:100 6:0 7:-100 8:0 9:0 10:0 11:0 12:0 13:0 14:0 15:0 16:0 17:0 18:0 19:0 20:0 21:40 22:40 23:20 24:0 25:0 26:20 27:20 28:120 29:40 30:60 31:120 32:40 33:0 34:20 35:20 36:0 37:20 38:20 39:20 40:60 41:3 42:50 43:50 
-1.597849824817975 1:0 2:0 3:-100 4:0 5:0 6:0 7:0 8:0 9:100 10:0 11:0 12:0 13:0 14:0 15:0 16:0 17:0 18:0 19:0 20:0 21:60 22:80 23:40 24:20 25:20 26:60 27:40 28:20 29:160 30:0 31:100 32:80 33:80 34:0 35:40 36:20 37:20 38:20 39:100 40:60 41:1 42:19 43:64 
-0.0617935735135425 1:0 2:0 3:-100 4:0 5:0 6:0 7:0 8:0 9:100 10:0 11:0 12:0 13:0 14:0 15:0 16:0 17:0 18:0 19:0 20:0 21:60 22:80 23:40 24:20 25:20 26:60 27:40 28:20 29:160 30:0 31:100 32:80 33:80 34:0 35:40 36:20 37:20 38:20 39:100 40:60 41:1 42:19 43:64 
8 1:0 2:0 3:-100 4:0 5:0 6:0 7:0 8:0 9:100 10:0 11:0 12:0 13:0 14:0 15:0 16:0 17:0 18:0 19:0 20:0 21:60 22:80 23:40 24:20 25:20 26:60 27:40 28:20 29:160 30:0 31:100 32:80 33:80 34:0 35:40 36:20 37:20 38:20 39:100 40:60 41:1 42:19 43:49 
-8 1:-100 2:0 3:0 4:0 5:0 6:0 7:0 8:0 9:0 10:0 11:0 12:0 13:0 14:0 15:0 16:0 17:0 18:100 19:0 20:0 21:20 22:80 23:0 24:0 25:40 26:0 27:0 28:40 29:40 30:20 31:0 32:20 33:0 34:40 35:20 36:0 37:20 38:60 39:20 40:20 41:50 42:50 43:66 
1.805787693185055 1:-100 2:0 3:0 4:0 5:0 6:0 7:0 8:0 9:0 10:0 11:0 12:0 13:0 14:0 15:0 16:0 17:0 18:100 19:0 20:0 21:20 22:80 23:0 24:0 25:40 26:0 27:0 28:40 29:40 30:20 31:0 32:20 33:0 34:40 35:20 36:0 37:20 38:60 39:20 40:20 41:50 42:50 43:77 
8 1:0 2:0 3:0 4:0 5:0 6:0 7:-100 8:0 9:0 10:0 11:0 12:0 13:0 14:0 15:0 16:0 17:0 18:0 19:0 20:100 21:20 22:20 23:20 24:0 25:0 26:0 27:0 28:20 29:60 30:0 31:20 32:40 33:0 34:0 35:0 36:40 37:40 38:0 39:20 40:20 41:76 42:50 43:45 
0.3853415416103028 1:0 2:100 3:-100 4:0 5:0 6:0 7:0 8:0 9:0 10:0 11:0 12:0 13:0 14:0 15:0 16:0 17:0 18:0 19:0 20:0 21:60 22:80 23:40 24:20 25:20 26:60 27:40 28:20 29:160 30:0 31:100 32:80 33:80 34:0 35:40 36:20 37:20 38:20 39:100 40:60 41:1 42:19 43:64 
-0.9713190861032566 1:0 2:0 3:0 4:0 5:0 6:0 7:0 8:100 9:-100 10:0 11:0 12:0 13:0 14:0 15:0 16:0 17:0 18:0 19:0 20:0 21:40 22:100 23:120 24:0 25:60 26:0 27:40 28:20 29:40 30:40 31:20 32:0 33:0 34:0 35:0 36:60 37:0 38:60 39:60 40:20 41:48 42:54 43:25 
-2.368480007158228 1:0 2:100 3:0 4:0 5:-100 6:0 7:0 8:0 9:0 10:0 11:0 12:0 13:0 14:0 15:0 16:0 17:0 18:0 19:0 20:0 21:20 22:120 23:0 24:0 25:40 26:0 27:20 28:40 29:20 30:20 31:40 32:60 33:0 34:40 35:40 36:40 37:0 38:80 39:0 40:40 41:9 42:50 43:66 
1.353597057103819 1:0 2:0 3:-100 4:0 5:0 6:0 7:0 8:0 9:100 10:0 11:0 12:0 13:0 14:0 15:0 16:0 17:0 18:0 19:0 20:0 21:20 22:60 23:60 24:0 25:40 26:20 27:40 28:20 29:20 30:0 31:0 32:80 33:0 34:0 35:40 36:40 37:20 38:0 39:0 40:40 41:24 42:45 43:25 
-2.015670923888638 1:0 2:0 3:0 4:0 5:-100 6:0 7:0 8:0 9:0 10:0 11:0 12:0 13:0 14:100 15:0 16:0 17:0 18:0 19:0 20:0 21:20 22:120 23:0 24:0 25:40 26:0 27:20 28:40 29:20 30:20 31:40 32:60 33:0 34:40 35:40 36:40 37:0 38:80 39:0 40:40 41:9 42:50 43:66 
2.930649874997571 1:0 2:0 3:-100 4:0 5:0 6:0 7:0 8:0 9:0 10:0 11:0 12:100 13:0 14:0 15:0 16:0 17:0 18:0 19:0 20:0 21:60 22:80 23:40 24:20 25:20 26:60 27:40 28:20 29:160 30:0 31:100 32:80 33:80 34:0 35:40 36:20 37:20 38:20 39:100 40:60 41:1 42:19 43:64 
-2.385756656395373 1:0 2:0 3:100 4:0 5:0 6:0 7:0 8:0 9:-100 10:0 11:0 12:0 13:0 14:0 15:0 16:0 17:0 18:0 19:0 20:0 21:40 22:40 23:20 24:0 25:0 26:20 27:0 28:20 29:40 30:0 31:20 32:20 33:0 34:0 35:0 36:20 37:20 38:20 39:0 40:0 41:83 42:45 43:25 
-3.483494067772776 1:100 2:0 3:-100 4:0 5:0 6:0 7:0 8:0 9:0 10:0 11:0 12:0 13:0 14:0 15:0 16:0 17:0 18:0 19:0 20:0 21:60 22:80 23:40 24:20 25:20 26:60 27:40 28:20 29:160 30:0 31:100 32:80 33:80 34:0 35:40 36:20 37:20 38:20 39:100 40:60 41:1 42:19 43:64 
8 1:100 2:0 3:-100 4:0 5:0 6:0 7:0 8:0 9:0 10:0 11:0 12:0 13:0 14:0 15:0 16:0 17:0 18:0 19:0 20:0 21:60 22:80 23:40 24:20 25:20 26:60 27:40 28:20 29:160 30:0 31:100 32:80 33:80 34:0 35:40 36:20 37:20 38:20 39:100 40:60 41:1 42:19 43:49 
-7.551626703113047 1:100 2:0 3:-100 4:0 5:0 6:0 7:0 8:0 9:0 10:0 11:0 12:0 13:0 14:0 15:0 16:0 17:0 18:0 19:0 20:0 21:60 22:80 23:40 24:20 25:20 26:60 27:40 28:20 29:160 30:0 31:100 32:80 33:80 34:0 35:40 36:20 37:20 38:20 39:100 40:60 41:1 42:19 43:64 
-2.586321939374574 1:0 2:0 3:0 4:0 5:100 6:0 7:-100 8:0 9:0 10:0 11:0 12:0 13:0 14:0 15:0 16:0 17:0 18:0 19:0 20:0 21:20 22:20 23:20 24:0 25:0 26:0 27:0 28:20 29:60 30:0 31:20 32:40 33:0 34:0 35:0 36:40 37:40 38:0 39:20 40:20 41:76 42:50 43:45 
-0.7308606821807861 1:0 2:0 3:0 4:0 5:0 6:0 7:0 8:0 9:100 10:0 11:0 12:0 13:0 14:0 15:0 16:0 17:0 18:0 19:0 20:-100 21:0 22:40 23:80 24:0 25:20 26:40 27:60 28:40 29:40 30:0 31:60 32:40 33:0 34:0 35:60 36:20 37:20 38:40 39:20 40:20 41:19 42:45 43:25 
-8 1:0 2:0 3:0 4:0 5:0 6:0 7:0 8:0 9:100 10:0 11:0 12:0 13:0 14:0 15:0 16:0 17:0 18:0 19:0 20:-100 21:0 22:40 23:80 24:0 25:20 26:40 27:60 28:40 29:40 30:0 31:60 32:40 33:0 34:0 35:60 36:20 37:20 38:40 39:20 40:20 41:19 42:45 43:25 
8 1:0 2:0 3:0 4:0 5:0 6:0 7:0 8:0 9:0 10:0 11:0 12:0 13:0 14:0 15:0 16:0 17:0 18:0 19:100 20:-100 21:0 22:40 23:80 24:0 25:20 26:40 27:60 28:40 29:40 30:0 31:60 32:40 33:0 34:0 35:60 36:20 37:20 38:40 39:20 40:20 41:19 42:45 43:25 
2.017014593035916 1:0 2:0 3:0 4:0 5:0 6:0 7:0 8:0 9:0 10:0 11:0 12:0 13:0 14:0 15:0 16:0 17:0 18:0 19:100 20:-100 21:0 22:40 23:80 24:0 25:20 26:40 27:60 28:40 29:40 30:0 31:60 32:40 33:0 34:0 35:60 36:20 37:20 38:40 39:20 40:20 41:19 42:63 43:25 
-8 1:0 2:0 3:0 4:0 5:0 6:0 7:0 8:0 9:0 10:0 11:0 12:0 13:0 14:0 15:0 16:0 17:0 18:0 19:100 20:-100 21:0 22:40 23:80 24:0 25:20 26:40 27:60 28:40 29:40 30:0 31:60 32:40 33:0 34:0 35:60 36:20 37:20 38:40 39:20 40:20 41:19 42:45 43:25 
8 1:0 2:0 3:0 4:0 5:0 6:0 7:0 8:0 9:0 10:0 11:0 12:0 13:0 14:0 15:0 16:0 17:0 18:0 19:100 20:-100 21:0 22:40 23:80 24:0 25:20 26:40 27:60 28:40 29:40 30:0 31:60 32:40 33:0 34:0 35:60 36:20 37:20 38:40 39:20 40:20 41:19 42:31 43:25 
-3.930481097369394 1:0 2:0 3:0 4:0 5:0 6:0 7:0 8:0 9:0 10:0 11:0 12:0 13:0 14:0 15:0 16:0 17:0 18:0 19:100 20:-100 21:0 22:40 23:80 24:0 25:20 26:40 27:60 28:40 29:40 30:0 31:60 32:40 33:0 34:0 35:60 36:20 37:20 38:40 39:20 40:20 41:19 42:31 43:25 
-1.715041687770352 1:100 2:0 3:-100 4:0 5:0 6:0 7:0 8:0 9:0 10:0 11:0 12:0 13:0 14:0 15:0 16:0 17:0 18:0 19:0 20:0 21:20 22:60 23:60 24:0 25:40 26:20 27:40 28:20 29:20 30:0 31:0 32:80 33:0 34:0 35:40 36:40 37:20 38:0 39:0 40:40 41:24 42:45 43:25 
2.565094968070469 1:0 2:0 3:0 4:100 5:0 6:0 7:0 8:0 9:0 10:0 11:0 12:0 13:0 14:0 15:0 16:0 17:0 18:0 19:-100 20:0 21:20 22:60 23:20 24:40 25:20 26:40 27:20 28:20 29:60 30:0 31:40 32:20 33:0 34:0 35:60 36:20 37:0 38:20 39:40 40:20 41:28 42:38 43:66 
3.768693483071563 1:0 2:0 3:0 4:0 5:-100 6:0 7:100 8:0 9:0 10:0 11:0 12:0 13:0 14:0 15:0 16:0 17:0 18:0 19:0 20:0 21:20 22:120 23:0 24:0 25:40 26:0 27:20 28:40 29:20 30:20 31:40 32:60 33:0 34:40 35:40 36:40 37:0 38:80 39:0 40:40 41:9 42:50 43:66 
-0.1530769924610732 1:0 2:0 3:0 4:0 5:0 6:0 7:0 8:100 9:-100 10:0 11:0 12:0 13:0 14:0 15:0 16:0 17:0 18:0 19:0 20:0 21:100 22:80 23:20 24:0 25:20 26:20 27:0 28:40 29:20 30:60 31:20 32:0 33:0 34:0 35:40 36:40 37:0 38:20 39:20 40:40 41:40 42:45 43:25 
4.341538279082867 1:-100 2:0 3:0 4:0 5:0 6:0 7:0 8:0 9:100 10:0 11:0 12:0 13:0 14:0 15:0 16:0 17:0 18:0 19:0 20:0 21:20 22:0 23:80 24:40 25:0 26:0 27:0 28:20 29:60 30:40 31:0 32:0 33:20 34:0 35:0 36:40 37:0 38:20 39:0 40:40 41:33 42:51 43:20 
1.158650324017313 1:0 2:0 3:-100 4:0 5:0 6:0 7:0 8:0 9:0 10:0 11:0 12:0 13:0 14:0 15:0 16:0 17:0 18:0 19:100 20:0 21:40 22:60 23:0 24:0 25:40 26:20 27:40 28:40 29:20 30:0 31:0 32:140 33:0 34:0 35:0 36:60 37:0 38:60 39:20 40:20 41:24 42:37 43:25 
2.972102395183065 1:0 2:0 3:-100 4:0 5:0 6:0 7:0 8:0 9:0 10:0 11:0 12:0 13:0 14:0 15:0 16:0 17:0 18:0 19:100 20:0 21:40 22:60 23:0 24:0 25:40 26:20 27:40 28:40 29:20 30:0 31:0 32:140 33:0 34:0 35:0 36:60 37:0 38:60 39:20 40:20 41:24 42:37 43:63 
-2.115839119170603 1:0 2:0 3:0 4:0 5:0 6:0 7:0 8:0 9:0 10:0 11:0 12:0 13:0 14:0 15:100 16:0 17:-100 18:0 19:0 20:0 21:80 22:20 23:0 24:60 25:20 26:0 27:80 28:20 29:20 30:20 31:60 32:20 33:40 34:0 35:40 36:20 37:80 38:40 39:20 40:0 41:22 42:50 43:25 
-1.076768303757044 1:-100 2:0 3:100 4:0 5:0 6:0 7:0 8:0 9:0 10:0 11:0 12:0 13:0 14:0 15:0 16:0 17:0 18:0 19:0 20:0 21:20 22:0 23:80 24:40 25:0 26:0 27:0 28:20 29:60 30:40 31:0 32:0 33:20 34:0 35:0 36:40 37:0 38:20 39:0 40:40 41:33 42:51 43:20 
5.475663603298056 1:0 2:0 3:0 4:-100 5:0 6:0 7:0 8:0 9:0 10:0 11:0 12:0 13:100 14:0 15:0 16:0 17:0 18:0 19:0 20:0 21:20 22:60 23:20 24:0 25:40 26:0 27:0 28:40 29:0 30:0 31:60 32:0 33:0 34:20 35:40 36:20 37:20 38:0 39:0 40:20 41:44 42:50 43:25 
-3.677878534062892 1:0 2:0 3:0 4:0 5:0 6:0 7:0 8:0 9:0 10:0 11:0 12:0 13:0 14:0 15:0 16:100 17:0 18:0 19:0 20:-100 21:0 22:40 23:20 24:0 25:20 26:0 27:20 28:40 29:20 30:20 31:20 32:20 33:0 34:0 35:0 36:0 37:0 38:0 39:20 40:40 41:87 42:50 43:47 
8 1:0 2:100 3:0 4:0 5:0 6:0 7:0 8:0 9:0 10:0 11:0 12:0 13:0 14:-100 15:0 16:0 17:0 18:0 19:0 20:0 21:40 22:20 23:20 24:40 25:140 26:0 27:40 28:20 29:20 30:60 31:40 32:20 33:40 34:20 35:0 36:0 37:60 38:60 39:0 40:20 41:31 42:50 43:30 
-5.7235507936386 1:0 2:100 3:0 4:0 5:0 6:0 7:0 8:0 9:0 10:0 11:0 12:0 13:0 14:-100 15:0 16:0 17:0 18:0 19:0 20:0 21:40 22:20 23:20 24:40 25:140 26:0 27:40 28:20 29:20 30:60 31:40 32:20 33:40 34:20 35:0 36:0 37:60 38:60 39:0 40:20 41:31 42:50 43:30 
5.198218998539849 1:-100 2:0 3:0 4:0 5:0 6:0 7:100 8:0 9:0 10:0 11:0 12:0 13:0 14:0 15:0 16:0 17:0 18:0 19:0 20:0 21:0 22:20 23:40 24:0 25:20 26:0 27:20 28:20 29:20 30:0 31:20 32:20 33:0 34:0 35:40 36:20 37:20 38:40 39:20 40:20 41:65 42:19 43:64 
8 1:0 2:0 3:0 4:0 5:0 6:0 7:0 8:0 9:0 10:0 11:100 12:0 13:0 14:-100 15:0 16:0 17:0 18:0 19:0 20:0 21:40 22:20 23:20 24:40 25:140 26:0 27:40 28:20 29:20 30:60 31:40 32:20 33:40 34:20 35:0 36:0 37:60 38:60 39:0 40:20 41:31 42:50 43:30 
-5.876791977348287 1:0 2:0 3:0 4:0 5:0 6:0 7:0 8:0 9:0 10:0 11:100 12:0 13:0 14:-100 15:0 16:0 17:0 18:0 19:0 20:0 21:40 22:20 23:20 24:40 25:140 26:0 27:40 28:20 29:20 30:60 31:40 32:20 33:40 34:20 35:0 36:0 37:60 38:60 39:0 40:20 41:31 42:50 43:30 
-4.703410476681974 1:0 2:0 3:0 4:0 5:-100 6:0 7:0 8:100 9:0 10:0 11:0 12:0 13:0 14:0 15:0 16:0 17:0 18:0 19:0 20:0 21:80 22:60 23:0 24:40 25:0 26:0 27:20 28:60 29:120 30:20 31:20 32:40 33:0 34:0 35:20 36:60 37:20 38:60 39:60 40:40 41:27 42:50 43:20 
-1.890015715570911 1:0 2:0 3:0 4:0 5:-100 6:0 7:0 8:0 9:100 10:0 11:0 12:0 13:0 14:0 15:0 16:0 17:0 18:0 19:0 20:0 21:80 22:60 23:0 24:40 25:0 26:0 27:20 28:60 29:120 30:20 31:20 32:40 33:0 34:0 35:20 36:60 37:20 38:60 39:60 40:40 41:27 42:50 43:20 
1.672839195555809 1:0 2:0 3:0 4:0 5:0 6:0 7:0 8:0 9:0 10:0 11:0 12:100 13:0 14:0 15:0 16:0 17:0 18:-100 19:0 20:0 21:40 22:20 23:0 24:0 25:0 26:0 27:20 28:20 29:0 30:20 31:0 32:0 33:0 34:0 35:0 36:0 37:0 38:0 39:20 40:20 41:93 42:50 43:25 
-1.469572943042066 1:0 2:100 3:0 4:0 5:0 6:0 7:0 8:0 9:-100 10:0 11:0 12:0 13:0 14:0 15:0 16:0 17:0 18:0 19:0 20:0 21:60 22:40 23:0 24:0 25:20 26:20 27:20 28:20 29:40 30:40 31:60 32:20 33:0 34:20 35:0 36:0 37:40 38:20 39:20 40:40 41:55 42:17 43:0 
7.347728835812984 1:0 2:0 3:0 4:0 5:0 6:0 7:100 8:0 9:0 10:0 11:0 12:0 13:0 14:-100 15:0 16:0 17:0 18:0 19:0 20:0 21:40 22:20 23:20 24:40 25:140 26:0 27:40 28:20 29:20 30:60 31:40 32:20 33:40 34:20 35:0 36:0 37:60 38:60 39:0 40:20 41:31 42:50 43:30 
8 1:0 2:0 3:0 4:0 5:0 6:0 7:100 8:0 9:0 10:0 11:0 12:0 13:0 14:-100 15:0 16:0 17:0 18:0 19:0 20:0 21:40 22:20 23:20 24:40 25:140 26:0 27:40 28:20 29:20 30:60 31:40 32:20 33:40 34:20 35:0 36:0 37:60 38:60 39:0 40:20 41:31 42:50 43:30 
-8 1:0 2:0 3:0 4:0 5:0 6:0 7:100 8:0 9:0 10:0 11:0 12:0 13:0 14:-100 15:0 16:0 17:0 18:0 19:0 20:0 21:40 22:20 23:20 24:40 25:140 26:0 27:40 28:20 29:20 30:60 31:40 32:20 33:40 34:20 35:0 36:0 37:60 38:60 39:0 40:20 41:31 42:50 43:30 
0.09309986475468297 1:0 2:-100 3:0 4:0 5:0 6:0 7:0 8:0 9:100 10:0 11:0 12:0 13:0 14:0 15:0 16:0 17:0 18:0 19:0 20:0 21:80 22:100 23:40 24:40 25:60 26:0 27:20 28:80 29:80 30:20 31:20 32:40 33:0 34:0 35:80 36:40 37:20 38:20 39:20 40:20 41:0 42:21 43:51 
-0.3204380806253319 1:0 2:0 3:0 4:0 5:0 6:0 7:0 8:0 9:0 10:0 11:0 12:100 13:-100 14:0 15:0 16:0 17:0 18:0 19:0 20:0 21:20 22:80 23:80 24:0 25:0 26:0 27:0 28:40 29:40 30:0 31:20 32:20 33:0 34:0 35:20 36:60 37:0 38:40 39:40 40:20 41:2 42:46 43:70 
8 1:0 2:0 3:0 4:0 5:0 6:0 7:0 8:0 9:0 10:0 11:0 12:100 13:-100 14:0 15:0 16:0 17:0 18:0 19:0 20:0 21:20 22:80 23:80 24:0 25:0 26:0 27:0 28:40 29:40 30:0 31:20 32:20 33:0 34:0 35:20 36:60 37:0 38:40 39:40 40:20 41:2 42:42 43:65 
-8 1:0 2:100 3:0 4:0 5:0 6:0 7:0 8:0 9:0 10:0 11:0 12:0 13:0 14:-100 15:0 16:0 17:0 18:0 19:0 20:0 21:60 22:40 23:0 24:20 25:0 26:0 27:40 28:20 29:40 30:0 31:20 32:20 33:0 34:20 35:40 36:40 37:40 38:80 39:40 40:0 41:50 42:37 43:40 
8 1:0 2:100 3:0 4:0 5:0 6:0 7:0 8:0 9:0 10:0 11:0 12:0 13:0 14:-100 15:0 16:0 17:0 18:0 19:0 20:0 21:60 22:40 23:0 24:20 25:0 26:0 27:40 28:20 29:40 30:0 31:20 32:20 33:0 34:20 35:40 36:40 37:40 38:80 39:40 40:0 41:50 42:35 43:47 
2.104325001153184 1:0 2:0 3:0 4:0 5:0 6:0 7:-100 8:0 9:100 10:0 11:0 12:0 13:0 14:0 15:0 16:0 17:0 18:0 19:0 20:0 21:40 22:40 23:60 24:0 25:20 26:20 27:40 28:20 29:20 30:20 31:0 32:40 33:0 34:20 35:20 36:20 37:20 38:0 39:40 40:60 41:18 42:45 43:25 
-8 1:0 2:0 3:0 4:0 5:0 6:0 7:-100 8:0 9:100 10:0 11:0 12:0 13:0 14:0 15:0 16:0 17:0 18:0 19:0 20:0 21:40 22:40 23:60 24:0 25:20 26:20 27:40 28:20 29:20 30:20 31:0 32:40 33:0 34:20 35:20 36:20 37:20 38:0 39:40 40:60 41:18 42:45 43:25 
-2.563607382897851 1:0 2:0 3:0 4:0 5:0 6:0 7:0 8:100 9:0 10:0 11:0 12:0 13:0 14:-100 15:0 16:0 17:0 18:0 19:0 20:0 21:40 22:0 23:0 24:40 25:20 26:20 27:20 28:80 29:20 30:20 31:20 32:0 33:0 34:0 35:20 36:40 37:0 38:0 39:20 40:40 41:57 42:32 43:66 
-4.368528689344919 1:0 2:0 3:0 4:0 5:0 6:0 7:0 8:0 9:100 10:0 11:0 12:0 13:0 14:0 15:0 16:-100 17:0 18:0 19:0 20:0 21:20 22:0 23:20 24:0 25:0 26:0 27:20 28:60 29:20 30:20 31:0 32:20 33:40 34:0 35:20 36:0 37:0 38:0 39:0 40:0 41:90 42:50 43:39 
-2.122762942920884 1:-100 2:0 3:100 4:0 5:0 6:0 7:0 8:0 9:0 10:0 11:0 12:0 13:0 14:0 15:0 16:0 17:0 18:0 19:0 20:0 21:20 22:180 23:140 24:20 25:60 26:20 27:20 28:40 29:60 30:40 31:0 32:20 33:0 34:20 35:40 36:40 37:20 38:40 39:0 40:40 41:0 42:53 43:25 
8 1:0 2:0 3:0 4:0 5:0 6:0 7:0 8:0 9:0 10:0 11:0 12:0 13:0 14:0 15:0 16:0 17:100 18:-100 19:0 20:0 21:40 22:80 23:40 24:20 25:20 26:0 27:40 28:40 29:20 30:0 31:0 32:20 33:40 34:0 35:60 36:40 37:0 38:20 39:0 40:20 41:30 42:15 43:65 
-8 1:0 2:0 3:0 4:0 5:0 6:0 7:0 8:0 9:0 10:0 11:0 12:0 13:0 14:0 15:0 16:0 17:100 18:-100 19:0 20:0 21:40 22:80 23:40 24:20 25:20 26:0 27:40 28:40 29:20 30:0 31:0 32:20 33:40 34:0 35:60 36:40 37:0 38:20 39:0 40:20 41:30 42:28 43:65 
7.13141532374787 1:0 2:0 3:0 4:0 5:0 6:0 7:0 8:0 9:0 10:0 11:0 12:0 13:0 14:0 15:0 16:0 17:100 18:-100 19:0 20:0 21:40 22:80 23:40 24:20 25:20 26:0 27:40 28:40 29:20 30:0 31:0 32:20 33:40 34:0 35:60 36:40 37:0 38:20 39:0 40:20 41:30 42:16 43:65 
-8 1:0 2:0 3:0 4:0 5:0 6:0 7:0 8:0 9:0 10:0 11:0 12:0 13:0 14:0 15:0 16:0 17:100 18:-100 19:0 20:0 21:40 22:80 23:40 24:20 25:20 26:0 27:40 28:40 29:20 30:0 31:0 32:20 33:40 34:0 35:60 36:40 37:0 38:20 39:0 40:20 41:30 42:32 43:65 
1.400222552720739 1:0 2:0 3:0 4:0 5:0 6:0 7:0 8:0 9:0 10:0 11:0 12:0 13:0 14:0 15:0 16:0 17:0 18:0 19:100 20:-100 21:20 22:60 23:100 24:0 25:40 26:20 27:80 28:60 29:20 30:20 31:40 32:80 33:0 34:0 35:60 36:40 37:0 38:20 39:80 40:40 41:0 42:45 43:25 
-8 1:0 2:0 3:0 4:0 5:0 6:0 7:0 8:0 9:0 10:0 11:0 12:0 13:0 14:0 15:0 16:0 17:0 18:0 19:100 20:-100 21:20 22:60 23:100 24:0 25:40 26:20 27:80 28:60 29:20 30:20 31:40 32:80 33:0 34:0 35:60 36:40 37:0 38:20 39:80 40:40 41:0 42:45 43:25 
0.2888769944643488 1:0 2:100 3:-100 4:0 5:0 6:0 7:0 8:0 9:0 10:0 11:0 12:0 13:0 14:0 15:0 16:0 17:0 18:0 19:0 20:0 21:20 22:80 23:60 24:20 25:100 26:40 27:40 28:20 29:100 30:0 31:40 32:20 33:40 34:0 35:0 36:80 37:40 38:60 39:60 40:120 41:0 42:32 43:66 
-4.275581465632816 1:0 2:0 3:0 4:0 5:100 6:-100 7:0 8:0 9:0 10:0 11:0 12:0 13:0 14:0 15:0 16:0 17:0 18:0 19:0 20:0 21:20 22:100 23:80 24:20 25:60 26:0 27:100 28:80 29:100 30:20 31:20 32:80 33:20 34:0 35:0 36:80 37:60 38:20 39:20 40:60 41:0 42:50 43:42 
8 1:0 2:0 3:0 4:0 5:100 6:-100 7:0 8:0 9:0 10:0 11:0 12:0 13:0 14:0 15:0 16:0 17:0 18:0 19:0 20:0 21:20 22:100 23:80 24:20 25:60 26:0 27:100 28:80 29:100 30:20 31:20 32:80 33:20 34:0 35:0 36:80 37:60 38:20 39:20 40:60 41:0 42:50 43:52 
-8 1:0 2:0 3:0 4:0 5:100 6:-100 7:0 8:0 9:0 10:0 11:0 12:0 13:0 14:0 15:0 16:0 17:0 18:0 19:0 20:0 21:20 22:100 23:80 24:20 25:60 26:0 27:100 28:80 29:100 30:20 31:20 32:80 33:20 34:0 35:0 36:80 37:60 38:20 39:20 40:60 41:0 42:50 43:43 
0.04063190002306592 1:0 2:0 3:0 4:0 5:0 6:0 7:0 8:-100 9:0 10:0 11:0 12:0 13:0 14:0 15:0 16:0 17:100 18:0 19:0 20:0 21:40 22:0 23:40 24:0 25:20 26:0 27:0 28:20 29:0 30:0 31:20 32:0 33:0 34:0 35:20 36:20 37:20 38:40 39:0 40:20 41:58 42:50 43:70 
0.9278478183468469 1:0 2:0 3:0 4:0 5:0 6:0 7:0 8:-100 9:0 10:0 11:0 12:0 13:0 14:0 15:0 16:0 17:100 18:0 19:0 20:0 21:40 22:0 23:40 24:0 25:20 26:0 27:0 28:20 29:0 30:0 31:20 32:0 33:0 34:0 35:20 36:20 37:20 38:40 39:0 40:20 41:58 42:50 43:70 
-1.839829895691294 1:0 2:0 3:0 4:0 5:0 6:0 7:0 8:0 9:0 10:0 11:0 12:0 13:0 14:100 15:0 16:0 17:0 18:0 19:0 20:-100 21:0 22:80 23:20 24:0 25:20 26:0 27:20 28:20 29:20 30:20 31:60 32:20 33:0 34:20 35:40 36:0 37:40 38:40 39:20 40:20 41:28 42:50 43:25 
1.571086771159818 1:100 2:0 3:0 4:0 5:0 6:0 7:0 8:0 9:0 10:0 11:-100 12:0 13:0 14:0 15:0 16:0 17:0 18:0 19:0 20:0 21:60 22:100 23:20 24:40 25:40 26:40 27:0 28:20 29:80 30:0 31:20 32:20 33:0 34:0 35:40 36:40 37:40 38:20 39:40 40:0 41:0 42:38 43:66 
-0.8462802326102995 1:0 2:0 3:0 4:0 5:100 6:0 7:-100 8:0 9:0 10:0 11:0 12:0 13:0 14:0 15:0 16:0 17:0 18:0 19:0 20:0 21:60 22:20 23:40 24:0 25:0 26:0 27:20 28:60 29:40 30:40 31:140 32:80 33:80 34:0 35:20 36:0 37:0 38:0 39:20 40:80 41:2 42:50 43:25 
8 1:0 2:100 3:0 4:0 5:0 6:0 7:0 8:0 9:0 10:-100 11:0 12:0 13:0 14:0 15:0 16:0 17:0 18:0 19:0 20:0 21:0 22:0 23:0 24:60 25:20 26:0 27:0 28:0 29:0 30:0 31:20 32:0 33:0 34:0 35:0 36:20 37:20 38:0 39:40 40:0 41:32 42:53 43:25 
2.370140614492926 1:0 2:100 3:0 4:0 5:0 6:0 7:0 8:0 9:0 10:-100 11:0 12:0 13:0 14:0 15:0 16:0 17:0 18:0 19:0 20:0 21:0 22:0 23:0 24:60 25:20 26:0 27:0 28:0 29:0 30:0 31:20 32:0 33:0 34:0 35:0 36:20 37:20 38:0 39:40 40:0 41:32 42:53 43:20 
0.906921305180753 1:0 2:100 3:0 4:0 5:0 6:0 7:0 8:0 9:0 10:-100 11:0 12:0 13:0 14:0 15:0 16:0 17:0 18:0 19:0 20:0 21:0 22:0 23:0 24:60 25:20 26:0 27:0 28:0 29:0 30:0 31:20 32:0 33:0 34:0 35:0 36:20 37:20 38:0 39:40 40:0 41:32 42:53 43:53 
-0.6107972522613582 1:100 2:0 3:-100 4:0 5:0 6:0 7:0 8:0 9:0 10:0 11:0 12:0 13:0 14:0 15:0 16:0 17:0 18:0 19:0 20:0 21:80 22:80 23:40 24:20 25:20 26:0 27:0 28:20 29:0 30:0 31:60 32:20 33:0 34:20 35:40 36:40 37:0 38:0 39:0 40:20 41:49 42:50 43:25 
-1.131647338047388 1:0 2:0 3:0 4:0 5:0 6:0 7:0 8:-100 9:0 10:0 11:100 12:0 13:0 14:0 15:0 16:0 17:0 18:0 19:0 20:0 21:0 22:20 23:40 24:20 25:20 26:0 27:60 28:40 29:40 30:40 31:20 32:40 33:40 34:20 35:20 36:60 37:0 38:20 39:20 40:0 41:15 42:53 43:30 
-8 1:0 2:0 3:0 4:0 5:0 6:0 7:0 8:0 9:100 10:0 11:0 12:-100 13:0 14:0 15:0 16:0 17:0 18:0 19:0 20:0 21:20 22:80 23:80 24:0 25:20 26:0 27:0 28:40 29:20 30:0 31:0 32:0 33:20 34:0 35:40 36:60 37:0 38:40 39:0 40:20 41:51 42:14 43:41 
2.821848722063198 1:0 2:0 3:0 4:0 5:0 6:0 7:0 8:0 9:100 10:0 11:0 12:-100 13:0 14:0 15:0 16:0 17:0 18:0 19:0 20:0 21:20 22:80 23:80 24:0 25:20 26:0 27:0 28:40 29:20 30:0 31:0 32:0 33:20 34:0 35:40 36:60 37:0 38:40 39:0 40:20 41:51 42:46 43:63 
-7.800717597087099 1:0 2:0 3:0 4:-100 5:0 6:0 7:0 8:0 9:0 10:0 11:0 12:0 13:0 14:0 15:0 16:0 17:0 18:0 19:0 20:100 21:40 22:0 23:0 24:20 25:0 26:0 27:20 28:0 29:0 30:20 31:20 32:0 33:40 34:0 35:20 36:0 37:0 38:20 39:20 40:20 41:105 42:22 43:53 
8 1:0 2:0 3:0 4:-100 5:0 6:0 7:0 8:0 9:0 10:0 11:0 12:0 13:0 14:0 15:0 16:0 17:0 18:0 19:0 20:100 21:40 22:0 23:0 24:20 25:0 26:0 27:20 28:0 29:0 30:20 31:20 32:0 33:40 34:0 35:20 36:0 37:0 38:20 39:20 40:20 41:105 42:50 43:53 
4.400289229287695 1:0 2:0 3:0 4:-100 5:0 6:0 7:0 8:0 9:0 10:0 11:0 12:0 13:0 14:0 15:0 16:0 17:0 18:0 19:0 20:100 21:40 22:0 23:0 24:20 25:0 26:0 27:20 28:0 29:0 30:20 31:20 32:0 33:40 34:0 35:20 36:0 37:0 38:20 39:20 40:20 41:105 42:67 43:53 
-0.03545470440125745 1:100 2:0 3:-100 4:0 5:0 6:0 7:0 8:0 9:0 10:0 11:0 12:0 13:0 14:0 15:0 16:0 17:0 18:0 19:0 20:0 21:60 22:120 23:20 24:0 25:20 26:0 27:60 28:20 29:60 30:40 31:20 32:20 33:20 34:0 35:0 36:60 37:60 38:40 39:0 40:0 41:0 42:50 43:25 
8 1:0 2:0 3:0 4:-100 5:0 6:0 7:0 8:0 9:0 10:0 11:0 12:0 13:0 14:0 15:0 16:100 17:0 18:0 19:0 20:0 21:40 22:0 23:0 24:20 25:0 26:0 27:20 28:0 29:0 30:20 31:20 32:0 33:40 34:0 35:20 36:0 37:0 38:20 39:20 40:20 41:105 42:22 43:53 
-5.277659785471618 1:0 2:0 3:0 4:-100 5:0 6:0 7:0 8:0 9:0 10:0 11:0 12:0 13:0 14:0 15:0 16:100 17:0 18:0 19:0 20:0 21:40 22:0 23:0 24:20 25:0 26:0 27:20 28:0 29:0 30:20 31:20 32:0 33:40 34:0 35:20 36:0 37:0 38:20 39:20 40:20 41:105 42:67 43:53 
-0.473427299295974 1:0 2:0 3:0 4:0 5:0 6:0 7:0 8:0 9:0 10:0 11:0 12:0 13:100 14:0 15:-100 16:0 17:0 18:0 19:0 20:0 21:60 22:80 23:60 24:20 25:20 26:0 27:40 28:0 29:0 30:20 31:40 32:40 33:0 34:20 35:20 36:40 37:20 38:20 39:0 40:40 41:22 42:50 43:25 
-0.4540953545889433 1:0 2:0 3:0 4:0 5:100 6:-100 7:0 8:0 9:0 10:0 11:0 12:0 13:0 14:0 15:0 16:0 17:0 18:0 19:0 20:0 21:0 22:80 23:40 24:20 25:20 26:20 27:0 28:0 29:60 30:20 31:20 32:0 33:0 34:40 35:40 36:60 37:20 38:100 39:0 40:60 41:32 42:53 43:25 
-6.37709079898509 1:0 2:0 3:0 4:0 5:0 6:100 7:-100 8:0 9:0 10:0 11:0 12:0 13:0 14:0 15:0 16:0 17:0 18:0 19:0 20:0 21:20 22:20 23:20 24:0 25:0 26:0 27:0 28:20 29:60 30:0 31:20 32:40 33:0 34:0 35:0 36:40 37:40 38:0 39:20 40:20 41:76 42:50 43:45 
-1.307872745883689 1:0 2:100 3:0 4:-100 5:0 6:0 7:0 8:0 9:0 10:0 11:0 12:0 13:0 14:0 15:0 16:0 17:0 18:0 19:0 20:0 21:40 22:0 23:0 24:20 25:0 26:0 27:20 28:0 29:0 30:20 31:20 32:0 33:40 34:0 35:20 36:0 37:0 38:20 39:20 40:20 41:105 42:22 43:53 
8 1:0 2:100 3:0 4:-100 5:0 6:0 7:0 8:0 9:0 10:0 11:0 12:0 13:0 14:0 15:0 16:0 17:0 18:0 19:0 20:0 21:40 22:0 23:0 24:20 25:0 26:0 27:20 28:0 29:0 30:20 31:20 32:0 33:40 34:0 35:20 36:0 37:0 38:20 39:20 40:20 41:105 42:50 43:53 
-7.836150908147645 1:0 2:100 3:0 4:-100 5:0 6:0 7:0 8:0 9:0 10:0 11:0 12:0 13:0 14:0 15:0 16:0 17:0 18:0 19:0 20:0 21:40 22:0 23:0 24:20 25:0 26:0 27:20 28:0 29:0 30:20 31:20 32:0 33:40 34:0 35:20 36:0 37:0 38:20 39:20 40:20 41:105 42:67 43:53 
2.569830053710098 1:0 2:0 3:0 4:0 5:0 6:0 7:0 8:0 9:100 10:0 11:0 12:0 13:0 14:0 15:0 16:0 17:0 18:-100 19:0 20:0 21:40 22:80 23:40 24:40 25:20 26:40 27:60 28:80 29:100 30:0 31:60 32:80 33:20 34:0 35:40 36:0 37:40 38:0 39:60 40:60 41:10 42:21 43:50 
2.488114109823238 1:0 2:0 3:0 4:0 5:0 6:0 7:0 8:0 9:-100 10:0 11:100 12:0 13:0 14:0 15:0 16:0 17:0 18:0 19:0 20:0 21:60 22:60 23:40 24:0 25:60 26:0 27:0 28:40 29:20 30:0 31:0 32:0 33:0 34:20 35:40 36:0 37:20 38:20 39:40 40:40 41:46 42:21 43:51 
-8 1:100 2:0 3:0 4:0 5:0 6:0 7:0 8:0 9:0 10:0 11:0 12:-100 13:0 14:0 15:0 16:0 17:0 18:0 19:0 20:0 21:20 22:80 23:80 24:0 25:20 26:0 27:0 28:40 29:20 30:0 31:0 32:0 33:20 34:0 35:40 36:60 37:0 38:40 39:0 40:20 41:51 42:14 43:41 
2.200651945890889 1:100 2:0 3:0 4:0 5:0 6:0 7:0 8:0 9:0 10:0 11:0 12:-100 13:0 14:0 15:0 16:0 17:0 18:0 19:0 20:0 21:20 22:80 23:80 24:0 25:20 26:0 27:0 28:40 29:20 30:0 31:0 32:0 33:20 34:0 35:40 36:60 37:0 38:40 39:0 40:20 41:51 42:46 43:63 
-1.533068580843373 1:0 2:0 3:0 4:0 5:0 6:0 7:0 8:0 9:0 10:0 11:0 12:0 13:0 14:0 15:0 16:0 17:0 18:-100 19:100 20:0 21:20 22:60 23:40 24:0 25:20 26:0 27:40 28:0 29:40 30:20 31:40 32:60 33:20 34:0 35:40 36:20 37:80 38:0 39:20 40:20 41:16 42:50 43:25 
0.9927207070009672 1:100 2:0 3:0 4:-100 5:0 6:0 7:0 8:0 9:0 10:0 11:0 12:0 13:0 14:0 15:0 16:0 17:0 18:0 19:0 20:0 21:40 22:0 23:0 24:20 25:0 26:0 27:20 28:0 29:0 30:20 31:20 32:0 33:40 34:0 35:20 36:0 37:0 38:20 39:20 40:20 41:105 42:50 43:53 
-7.349236984265194 1:100 2:0 3:0 4:-100 5:0 6:0 7:0 8:0 9:0 10:0 11:0 12:0 13:0 14:0 15:0 16:0 17:0 18:0 19:0 20:0 21:40 22:0 23:0 24:20 25:0 26:0 27:20 28:0 29:0 30:20 31:20 32:0 33:40 34:0 35:20 36:0 37:0 38:20 39:20 40:20 41:105 42:67 43:53 
-0.2192934684941241 1:0 2:0 3:0 4:0 5:0 6:0 7:0 8:100 9:0 10:-100 11:0 12:0 13:0 14:0 15:0 16:0 17:0 18:0 19:0 20:0 21:20 22:0 23:0 24:0 25:0 26:0 27:40 28:60 29:40 30:0 31:40 32:40 33:20 34:0 35:40 36:20 37:0 38:0 39:80 40:40 41:54 42:20 43:68 
-3.753796606434206 1:0 2:0 3:-100 4:0 5:0 6:0 7:0 8:0 9:0 10:0 11:0 12:0 13:100 14:0 15:0 16:0 17:0 18:0 19:0 20:0 21:80 22:80 23:40 24:20 25:20 26:0 27:0 28:20 29:0 30:0 31:60 32:20 33:0 34:20 35:40 36:40 37:0 38:0 39:0 40:20 41:49 42:50 43:25 
6.499212858392586 1:0 2:0 3:0 4:0 5:0 6:0 7:0 8:-100 9:0 10:0 11:0 12:0 13:0 14:100 15:0 16:0 17:0 18:0 19:0 20:0 21:40 22:40 23:20 24:0 25:0 26:20 27:0 28:20 29:100 30:0 31:40 32:0 33:0 34:0 35:0 36:40 37:20 38:20 39:20 40:20 41:48 42:31 43:25 
-8 1:0 2:0 3:0 4:0 5:0 6:0 7:0 8:-100 9:0 10:0 11:0 12:0 13:0 14:100 15:0 16:0 17:0 18:0 19:0 20:0 21:40 22:40 23:20 24:0 25:0 26:20 27:0 28:20 29:100 30:0 31:40 32:0 33:0 34:0 35:0 36:40 37:20 38:20 39:20 40:20 41:48 42:63 43:25 
8 1:0 2:0 3:-100 4:0 5:0 6:0 7:0 8:0 9:100 10:0 11:0 12:0 13:0 14:0 15:0 16:0 17:0 18:0 19:0 20:0 21:60 22:40 23:20 24:40 25:20 26:60 27:20 28:40 29:100 30:20 31:20 32:0 33:40 34:0 35:100 36:20 37:40 38:20 39:40 40:20 41:2 42:19 43:64 
3.269103857688381 1:0 2:0 3:0 4:0 5:0 6:0 7:-100 8:0 9:0 10:0 11:0 12:0 13:0 14:0 15:0 16:0 17:100 18:0 19:0 20:0 21:20 22:20 23:20 24:0 25:0 26:0 27:0 28:20 29:60 30:0 31:20 32:40 33:0 34:0 35:0 36:40 37:40 38:0 39:20 40:20 41:76 42:50 43:45 
6.066102225388495 1:0 2:0 3:100 4:0 5:0 6:0 7:0 8:0 9:0 10:0 11:0 12:-100 13:0 14:0 15:0 16:0 17:0 18:0 19:0 20:0 21:40 22:40 23:20 24:0 25:40 26:20 27:20 28:60 29:0 30:0 31:0 32:80 33:0 34:0 35:0 36:60 37:0 38:80 39:20 40:40 41:32 42:37 43:25 
8 1:0 2:0 3:100 4:0 5:0 6:0 7:0 8:0 9:0 10:0 11:0 12:-100 13:0 14:0 15:0 16:0 17:0 18:0 19:0 20:0 21:40 22:40 23:20 24:0 25:40 26:20 27:20 28:60 29:0 30:0 31:0 32:80 33:0 34:0 35:0 36:60 37:0 38:80 39:20 40:40 41:32 42:37 43:63 
-4.796489152144041 1:0 2:0 3:0 4:0 5:0 6:0 7:0 8:0 9:-100 10:0 11:100 12:0 13:0 14:0 15:0 16:0 17:0 18:0 19:0 20:0 21:20 22:60 23:20 24:0 25:0 26:0 27:20 28:20 29:20 30:20 31:0 32:0 33:0 34:0 35:40 36:40 37:20 38:20 39:20 40:20 41:81 42:21 43:51 
3.929604379738876 1:0 2:0 3:0 4:0 5:0 6:0 7:0 8:-100 9:100 10:0 11:0 12:0 13:0 14:0 15:0 16:0 17:0 18:0 19:0 20:0 21:0 22:20 23:0 24:20 25:60 26:0 27:20 28:40 29:60 30:20 31:0 32:20 33:80 34:0 35:40 36:0 37:0 38:20 39:40 40:20 41:23 42:50 43:39 
-8 1:0 2:0 3:0 4:0 5:0 6:0 7:0 8:0 9:0 10:0 11:0 12:0 13:0 14:0 15:0 16:0 17:0 18:100 19:0 20:-100 21:40 22:60 23:40 24:40 25:40 26:0 27:20 28:100 29:140 30:0 31:80 32:40 33:40 34:20 35:60 36:20 37:20 38:80 39:60 40:40 41:12 42:64 43:47 
8 1:0 2:0 3:0 4:0 5:0 6:0 7:0 8:0 9:0 10:0 11:0 12:0 13:0 14:0 15:0 16:0 17:0 18:100 19:0 20:-100 21:40 22:60 23:40 24:40 25:40 26:0 27:20 28:100 29:140 30:0 31:80 32:40 33:40 34:20 35:60 36:20 37:20 38:80 39:60 40:40 41:12 42:21 43:50 
-1.102860129096469 1:0 2:0 3:0 4:0 5:0 6:0 7:0 8:0 9:100 10:0 11:0 12:0 13:0 14:0 15:0 16:-100 17:0 18:0 19:0 20:0 21:20 22:60 23:80 24:0 25:0 26:0 27:40 28:40 29:60 30:20 31:60 32:40 33:20 34:0 35:20 36:40 37:0 38:20 39:60 40:20 41:23 42:38 43:53 
8 1:0 2:0 3:0 4:0 5:0 6:0 7:0 8:0 9:100 10:0 11:0 12:0 13:0 14:0 15:0 16:-100 17:0 18:0 19:0 20:0 21:20 22:100 23:40 24:0 25:20 26:0 27:20 28:20 29:80 30:0 31:20 32:0 33:0 34:20 35:20 36:60 37:0 38:60 39:20 40:20 41:63 42:30 43:4 
-3.090084064675894 1:0 2:0 3:0 4:0 5:0 6:0 7:0 8:0 9:100 10:0 11:0 12:0 13:0 14:0 15:0 16:-100 17:0 18:0 19:0 20:0 21:20 22:100 23:40 24:0 25:20 26:0 27:20 28:20 29:80 30:0 31:20 32:0 33:0 34:20 35:20 36:60 37:0 38:60 39:20 40:20 41:63 42:30 43:4 
-8 1:0 2:0 3:-100 4:0 5:0 6:0 7:0 8:0 9:0 10:0 11:0 12:100 13:0 14:0 15:0 16:0 17:0 18:0 19:0 20:0 21:80 22:80 23:40 24:20 25:20 26:0 27:0 28:20 29:0 30:0 31:60 32:20 33:0 34:20 35:40 36:40 37:0 38:0 39:0 40:20 41:49 42:50 43:25 
1.262750415015442 1:0 2:0 3:0 4:0 5:0 6:0 7:0 8:0 9:0 10:0 11:0 12:0 13:0 14:0 15:0 16:0 17:0 18:0 19:100 20:-100 21:0 22:60 23:0 24:0 25:0 26:0 27:0 28:0 29:40 30:0 31:0 32:0 33:0 34:0 35:0 36:20 37:20 38:60 39:20 40:40 41:87 42:50 43:69 
-4.656155994966861 1:0 2:0 3:0 4:0 5:0 6:0 7:0 8:0 9:100 10:0 11:0 12:0 13:-100 14:0 15:0 16:0 17:0 18:0 19:0 20:0 21:40 22:80 23:80 24:0 25:0 26:80 27:40 28:0 29:60 30:20 31:60 32:20 33:60 34:20 35:0 36:40 37:20 38:0 39:100 40:20 41:2 42:67 43:20 
-6.58667370787342 1:0 2:0 3:0 4:0 5:0 6:0 7:0 8:0 9:0 10:100 11:0 12:0 13:0 14:0 15:0 16:0 17:0 18:-100 19:0 20:0 21:20 22:60 23:60 24:0 25:0 26:0 27:0 28:20 29:0 30:20 31:20 32:80 33:0 34:0 35:0 36:80 37:40 38:0 39:0 40:20 41:41 42:21 43:65 
-3.043745018016555 1:0 2:0 3:0 4:0 5:0 6:0 7:0 8:0 9:100 10:0 11:0 12:0 13:0 14:0 15:0 16:0 17:-100 18:0 19:0 20:0 21:20 22:20 23:20 24:20 25:60 26:0 27:40 28:20 29:60 30:20 31:20 32:20 33:40 34:0 35:20 36:40 37:0 38:0 39:60 40:0 41:36 42:50 43:39 
0.3460649921144492 1:0 2:0 3:0 4:0 5:0 6:0 7:0 8:0 9:100 10:-100 11:0 12:0 13:0 14:0 15:0 16:0 17:0 18:0 19:0 20:0 21:20 22:20 23:0 24:0 25:80 26:0 27:80 28:40 29:40 30:20 31:0 32:40 33:20 34:0 35:60 36:20 37:20 38:20 39:60 40:0 41:34 42:50 43:39 
-5.824708002633923 1:0 2:0 3:0 4:0 5:0 6:0 7:0 8:100 9:0 10:0 11:0 12:-100 13:0 14:0 15:0 16:0 17:0 18:0 19:0 20:0 21:20 22:80 23:80 24:0 25:20 26:0 27:0 28:40 29:20 30:0 31:0 32:0 33:20 34:0 35:40 36:60 37:0 38:40 39:0 40:20 41:51 42:14 43:41 
4.544730505798552 1:0 2:0 3:0 4:0 5:0 6:0 7:0 8:100 9:0 10:0 11:0 12:-100 13:0 14:0 15:0 16:0 17:0 18:0 19:0 20:0 21:20 22:80 23:80 24:0 25:20 26:0 27:0 28:40 29:20 30:0 31:0 32:0 33:20 34:0 35:40 36:60 37:0 38:40 39:0 40:20 41:51 42:46 43:63 
1.941439351427311 1:-100 2:0 3:100 4:0 5:0 6:0 7:0 8:0 9:0 10:0 11:0 12:0 13:0 14:0 15:0 16:0 17:0 18:0 19:0 20:0 21:20 22:60 23:40 24:20 25:40 26:40 27:20 28:0 29:180 30:40 31:20 32:20 33:20 34:20 35:0 36:80 37:40 38:60 39:0 40:20 41:4 42:35 43:50 
1.117671398440317 1:0 2:0 3:0 4:0 5:0 6:0 7:0 8:0 9:0 10:-100 11:0 12:0 13:0 14:0 15:100 16:0 17:0 18:0 19:0 20:0 21:20 22:0 23:40 24:20 25:0 26:0 27:40 28:20 29:20 30:20 31:0 32:40 33:0 34:0 35:0 36:100 37:0 38:0 39:40 40:20 41:70 42:32 43:25 
1.676645014339607 1:-100 2:100 3:0 4:0 5:0 6:0 7:0 8:0 9:0 10:0 11:0 12:0 13:0 14:0 15:0 16:0 17:0 18:0 19:0 20:0 21:0 22:20 23:0 24:0 25:0 26:20 27:20 28:20 29:40 30:20 31:20 32:20 33:40 34:20 35:40 36:0 37:0 38:0 39:60 40:40 41:60 42:19 43:64 
3.547438783067639 1:0 2:0 3:0 4:0 5:0 6:0 7:0 8:0 9:100 10:0 11:0 12:-100 13:0 14:0 15:0 16:0 17:0 18:0 19:0 20:0 21:20 22:20 23:40 24:0 25:60 26:0 27:60 28:0 29:20 30:20 31:20 32:20 33:40 34:0 35:20 36:20 37:20 38:0 39:40 40:0 41:56 42:50 43:39 
-6.121790355780678 1:0 2:0 3:0 4:-100 5:0 6:0 7:0 8:100 9:0 10:0 11:0 12:0 13:0 14:0 15:0 16:0 17:0 18:0 19:0 20:0 21:40 22:0 23:0 24:20 25:0 26:0 27:20 28:0 29:0 30:20 31:20 32:0 33:40 34:0 35:20 36:0 37:0 38:20 39:20 40:20 41:105 42:22 43:53 
8 1:0 2:0 3:0 4:-100 5:0 6:0 7:0 8:100 9:0 10:0 11:0 12:0 13:0 14:0 15:0 16:0 17:0 18:0 19:0 20:0 21:40 22:0 23:0 24:20 25:0 26:0 27:20 28:0 29:0 30:20 31:20 32:0 33:40 34:0 35:20 36:0 37:0 38:20 39:20 40:20 41:105 42:50 43:53 
0.662413901317076 1:0 2:0 3:0 4:-100 5:0 6:0 7:0 8:100 9:0 10:0 11:0 12:0 13:0 14:0 15:0 16:0 17:0 18:0 19:0 20:0 21:40 22:0 23:0 24:20 25:0 26:0 27:20 28:0 29:0 30:20 31:20 32:0 33:40 34:0 35:20 36:0 37:0 38:20 39:20 40:20 41:105 42:67 43:53 
1.875159912231479 1:0 2:0 3:0 4:0 5:0 6:0 7:0 8:0 9:100 10:0 11:0 12:0 13:0 14:0 15:0 16:0 17:0 18:-100 19:0 20:0 21:80 22:40 23:20 24:0 25:20 26:0 27:0 28:40 29:0 30:0 31:20 32:0 33:0 34:0 35:20 36:60 37:40 38:80 39:0 40:0 41:32 42:50 43:70 
4.044335674883442 1:-100 2:0 3:0 4:0 5:0 6:0 7:0 8:100 9:0 10:0 11:0 12:0 13:0 14:0 15:0 16:0 17:0 18:0 19:0 20:0 21:0 22:20 23:0 24:0 25:0 26:20 27:20 28:20 29:40 30:20 31:20 32:20 33:40 34:20 35:40 36:0 37:0 38:0 39:60 40:40 41:60 42:19 43:64 
6.298489530956989 1:0 2:0 3:0 4:0 5:100 6:0 7:0 8:0 9:0 10:0 11:0 12:0 13:0 14:0 15:0 16:0 17:0 18:-100 19:0 20:0 21:20 22:60 23:40 24:0 25:20 26:0 27:40 28:0 29:40 30:20 31:40 32:60 33:20 34:0 35:40 36:20 37:80 38:0 39:20 40:20 41:16 42:50 43:25 
2.249895054537719 1:-100 2:0 3:0 4:0 5:100 6:0 7:0 8:0 9:0 10:0 11:0 12:0 13:0 14:0 15:0 16:0 17:0 18:0 19:0 20:0 21:60 22:100 23:80 24:60 25:40 26:0 27:60 28:60 29:80 30:20 31:20 32:80 33:0 34:0 35:40 36:80 37:0 38:40 39:20 40:40 41:0 42:38 43:40 
-0.1026085835809548 1:0 2:0 3:0 4:0 5:0 6:0 7:0 8:0 9:-100 10:0 11:100 12:0 13:0 14:0 15:0 16:0 17:0 18:0 19:0 20:0 21:60 22:0 23:20 24:0 25:20 26:0 27:0 28:0 29:40 30:0 31:20 32:40 33:0 34:0 35:0 36:40 37:0 38:20 39:0 40:60 41:0 42:50 43:63 
-8 1:0 2:0 3:0 4:0 5:0 6:0 7:0 8:0 9:100 10:0 11:0 12:0 13:0 14:0 15:0 16:0 17:0 18:0 19:-100 20:0 21:40 22:40 23:80 24:0 25:0 26:0 27:60 28:80 29:40 30:40 31:20 32:60 33:0 34:0 35:0 36:40 37:0 38:20 39:40 40:40 41:9 42:45 43:25 
-8 1:0 2:0 3:-100 4:0 5:0 6:0 7:0 8:0 9:0 10:0 11:0 12:100 13:0 14:0 15:0 16:0 17:0 18:0 19:0 20:0 21:60 22:100 23:40 24:20 25:60 26:40 27:20 28:40 29:180 30:0 31:80 32:60 33:40 34:0 35:20 36:40 37:40 38:40 39:60 40:40 41:0 42:45 43:74 
-3.253177892785449 1:0 2:0 3:-100 4:0 5:0 6:0 7:0 8:0 9:0 10:0 11:100 12:0 13:0 14:0 15:0 16:0 17:0 18:0 19:0 20:0 21:60 22:80 23:40 24:20 25:20 26:60 27:40 28:20 29:160 30:0 31:100 32:80 33:80 34:0 35:40 36:20 37:20 38:20 39:100 40:60 41:1 42:19 43:64 
-1.62741435610556 1:0 2:0 3:100 4:-100 5:0 6:0 7:0 8:0 9:0 10:0 11:0 12:0 13:0 14:0 15:0 16:0 17:0 18:0 19:0 20:0 21:0 22:0 23:20 24:0 25:0 26:0 27:0 28:40 29:20 30:40 31:0 32:20 33:0 34:0 35:60 36:20 37:20 38:60 39:20 40:0 41:30 42:50 43:63 
8 1:0 2:0 3:0 4:0 5:0 6:0 7:0 8:0 9:0 10:0 11:0 12:0 13:0 14:0 15:0 16:0 17:0 18:0 19:100 20:-100 21:0 22:0 23:0 24:0 25:0 26:0 27:40 28:40 29:40 30:20 31:40 32:40 33:0 34:0 35:40 36:20 37:0 38:0 39:60 40:20 41:50 42:15 43:65 
-8 1:0 2:0 3:0 4:0 5:0 6:0 7:0 8:0 9:0 10:0 11:0 12:0 13:0 14:0 15:0 16:0 17:0 18:0 19:100 20:-100 21:0 22:0 23:0 24:0 25:0 26:0 27:40 28:40 29:40 30:20 31:40 32:40 33:0 34:0 35:40 36:20 37:0 38:0 39:60 40:20 41:50 42:28 43:65 
0.9786034110638326 1:0 2:0 3:0 4:0 5:0 6:0 7:0 8:0 9:0 10:0 11:0 12:0 13:0 14:0 15:100 16:0 17:-100 18:0 19:0 20:0 21:20 22:40 23:0 24:0 25:20 26:0 27:0 28:40 29:120 30:0 31:0 32:0 33:0 34:0 35:20 36:40 37:0 38:40 39:0 40:0 41:57 42:35 43:50 
1.058348471250772 1:0 2:0 3:0 4:0 5:0 6:0 7:0 8:0 9:0 10:0 11:0 12:0 13:0 14:0 15:0 16:-100 17:100 18:0 19:0 20:0 21:40 22:120 23:80 24:0 25:20 26:0 27:0 28:20 29:0 30:0 31:20 32:100 33:0 34:20 35:20 36:20 37:0 38:20 39:0 40:0 41:49 42:35 43:25 
1.334355865321081 1:0 2:0 3:0 4:0 5:0 6:0 7:0 8:0 9:100 10:0 11:0 12:0 13:0 14:0 15:0 16:0 17:0 18:0 19:-100 20:0 21:60 22:20 23:0 24:0 25:40 26:0 27:80 28:40 29:20 30:40 31:60 32:0 33:0 34:20 35:0 36:0 37:60 38:60 39:40 40:0 41:3 42:50 43:25 
-8 1:0 2:0 3:0 4:0 5:0 6:0 7:0 8:0 9:100 10:0 11:0 12:0 13:0 14:0 15:0 16:0 17:0 18:0 19:-100 20:0 21:60 22:20 23:0 24:0 25:40 26:0 27:80 28:40 29:20 30:40 31:60 32:0 33:0 34:20 35:0 36:0 37:60 38:60 39:40 40:0 41:3 42:50 43:50 
0.2255414300411749 1:0 2:0 3:0 4:0 5:-100 6:0 7:0 8:100 9:0 10:0 11:0 12:0 13:0 14:0 15:0 16:0 17:0 18:0 19:0 20:0 21:20 22:80 23:20 24:20 25:20 26:0 27:60 28:60 29:40 30:40 31:0 32:60 33:0 34:40 35:60 36:80 37:20 38:60 39:40 40:40 41:8 42:50 43:20 
-5.498394465568159 1:0 2:0 3:0 4:0 5:-100 6:0 7:0 8:0 9:100 10:0 11:0 12:0 13:0 14:0 15:0 16:0 17:0 18:0 19:0 20:0 21:20 22:80 23:20 24:20 25:20 26:0 27:60 28:60 29:40 30:40 31:0 32:60 33:0 34:40 35:60 36:80 37:20 38:60 39:40 40:40 41:8 42:50 43:20 
0.5210847041264326 1:0 2:0 3:0 4:0 5:0 6:0 7:0 8:0 9:0 10:0 11:100 12:0 13:0 14:0 15:0 16:0 17:0 18:0 19:-100 20:0 21:0 22:20 23:20 24:0 25:60 26:20 27:20 28:40 29:0 30:0 31:0 32:20 33:0 34:0 35:0 36:60 37:0 38:60 39:20 40:0 41:50 42:50 43:70 
-7.993122013428847 1:0 2:0 3:0 4:0 5:0 6:0 7:0 8:0 9:0 10:0 11:100 12:0 13:0 14:0 15:0 16:0 17:0 18:0 19:-100 20:0 21:0 22:20 23:20 24:0 25:60 26:20 27:20 28:40 29:0 30:0 31:0 32:20 33:0 34:0 35:0 36:60 37:0 38:60 39:20 40:0 41:50 42:50 43:70 
8 1:0 2:0 3:0 4:0 5:0 6:0 7:0 8:0 9:0 10:0 11:100 12:0 13:0 14:0 15:0 16:0 17:0 18:0 19:-100 20:0 21:0 22:20 23:20 24:0 25:60 26:20 27:20 28:40 29:0 30:0 31:0 32:20 33:0 34:0 35:0 36:60 37:0 38:60 39:20 40:0 41:50 42:50 43:70 
-0.8027045213126531 1:0 2:0 3:0 4:0 5:0 6:0 7:0 8:0 9:0 10:0 11:100 12:0 13:0 14:0 15:0 16:0 17:0 18:0 19:-100 20:0 21:0 22:20 23:20 24:0 25:60 26:20 27:20 28:40 29:0 30:0 31:0 32:20 33:0 34:0 35:0 36:60 37:0 38:60 39:20 40:0 41:50 42:50 43:70 
-2.119328757531385 1:0 2:0 3:0 4:0 5:0 6:0 7:0 8:0 9:0 10:0 11:0 12:0 13:0 14:0 15:0 16:0 17:0 18:-100 19:0 20:100 21:40 22:80 23:40 24:40 25:20 26:40 27:60 28:80 29:100 30:0 31:60 32:80 33:20 34:0 35:40 36:0 37:40 38:0 39:60 40:60 41:10 42:64 43:47 
5.239883286120052 1:0 2:0 3:0 4:0 5:0 6:0 7:0 8:0 9:0 10:0 11:0 12:0 13:0 14:0 15:0 16:0 17:0 18:-100 19:0 20:100 21:40 22:80 23:40 24:40 25:20 26:40 27:60 28:80 29:100 30:0 31:60 32:80 33:20 34:0 35:40 36:0 37:40 38:0 39:60 40:60 41:10 42:21 43:50 
7.871458958738249 1:0 2:-100 3:100 4:0 5:0 6:0 7:0 8:0 9:0 10:0 11:0 12:0 13:0 14:0 15:0 16:0 17:0 18:0 19:0 20:0 21:120 22:140 23:80 24:60 25:60 26:40 27:40 28:60 29:80 30:20 31:40 32:20 33:20 34:0 35:60 36:40 37:40 38:20 39:40 40:40 41:0 42:21 43:51 
-8 1:0 2:-100 3:100 4:0 5:0 6:0 7:0 8:0 9:0 10:0 11:0 12:0 13:0 14:0 15:0 16:0 17:0 18:0 19:0 20:0 21:120 22:140 23:80 24:60 25:60 26:40 27:40 28:60 29:80 30:20 31:40 32:20 33:20 34:0 35:60 36:40 37:40 38:20 39:40 40:40 41:0 42:40 43:64 
