svm_type nu_svr
kernel_type rbf
gamma 3.05176e-05
nr_class 2
total_sv 1649
rho 1.09405
probA 0.682263
SV
-6.8430289810315 1:0 2:0 3:0 4:-100 5:0 6:0 7:0 8:0 9:100 10:0 11:0 12:0 13:0 14:0 15:0 16:0 17:0 18:0 19:0 20:0 21:60 22:100 23:20 24:20 25:40 26:20 27:20 28:80 29:80 30:0 31:20 32:40 33:0 34:0 35:40 36:20 37:40 38:60 39:20 40:20 41:28 42:21 43:51 
-2.741243198874421 1:0 2:0 3:-100 4:100 5:0 6:0 7:0 8:0 9:0 10:0 11:0 12:0 13:0 14:0 15:0 16:0 17:0 18:0 19:0 20:0 21:100 22:80 23:40 24:20 25:40 26:0 27:20 28:40 29:100 30:20 31:20 32:20 33:20 34:0 35:80 36:40 37:0 38:20 39:40 40:60 41:0 42:38 43:65 
-2.007594606210392 1:0 2:0 3:0 4:0 5:0 6:0 7:0 8:0 9:100 10:0 11:0 12:0 13:0 14:-100 15:0 16:0 17:0 18:0 19:0 20:0 21:60 22:20 23:60 24:20 25:20 26:0 27:0 28:40 29:60 30:20 31:20 32:0 33:0 34:60 35:20 36:0 37:20 38:20 39:20 40:20 41:49 42:68 43:82 
-8 1:0 2:0 3:0 4:0 5:0 6:0 7:0 8:-100 9:0 10:0 11:100 12:0 13:0 14:0 15:0 16:0 17:0 18:0 19:0 20:0 21:0 22:60 23:0 24:0 25:20 26:0 27:40 28:0 29:0 30:20 31:0 32:40 33:0 34:0 35:20 36:40 37:20 38:0 39:40 40:20 41:23 42:50 43:20 
-8 1:0 2:0 3:0 4:0 5:0 6:0 7:0 8:-100 9:0 10:0 11:100 12:0 13:0 14:0 15:0 16:0 17:0 18:0 19:0 20:0 21:0 22:60 23:0 24:0 25:20 26:0 27:40 28:0 29:0 30:20 31:0 32:40 33:0 34:0 35:20 36:40 37:20 38:0 39:40 40:20 41:23 42:37 43:40 
3.625927036119475 1:0 2:0 3:0 4:0 5:0 6:0 7:0 8:-100 9:0 10:0 11:100 12:0 13:0 14:0 15:0 16:0 17:0 18:0 19:0 20:0 21:0 22:60 23:0 24:0 25:20 26:0 27:40 28:0 29:0 30:20 31:0 32:40 33:0 34:0 35:20 36:40 37:20 38:0 39:40 40:20 41:23 42:50 43:51 
8 1:0 2:0 3:0 4:0 5:0 6:0 7:0 8:-100 9:0 10:0 11:100 12:0 13:0 14:0 15:0 16:0 17:0 18:0 19:0 20:0 21:0 22:60 23:0 24:0 25:20 26:0 27:40 28:0 29:0 30:20 31:0 32:40 33:0 34:0 35:20 36:40 37:20 38:0 39:40 40:20 41:23 42:35 43:47 
4.321248662749111 1:0 2:0 3:0 4:0 5:0 6:0 7:0 8:0 9:100 10:0 11:0 12:0 13:0 14:0 15:-100 16:0 17:0 18:0 19:0 20:0 21:40 22:0 23:40 24:20 25:0 26:20 27:20 28:80 29:20 30:20 31:20 32:0 33:0 34:0 35:60 36:20 37:20 38:0 39:0 40:40 41:63 42:19 43:64 
4.764121251063361 1:0 2:0 3:0 4:0 5:0 6:0 7:0 8:100 9:0 10:0 11:0 12:0 13:0 14:0 15:-100 16:0 17:0 18:0 19:0 20:0 21:40 22:0 23:40 24:20 25:0 26:20 27:20 28:80 29:20 30:20 31:20 32:0 33:0 34:0 35:60 36:20 37:20 38:0 39:0 40:40 41:63 42:19 43:64 
0.3936442833760154 1:0 2:-100 3:0 4:0 5:0 6:0 7:0 8:0 9:100 10:0 11:0 12:0 13:0 14:0 15:0 16:0 17:0 18:0 19:0 20:0 21:80 22:120 23:120 24:20 25:40 26:0 27:20 28:20 29:20 30:0 31:20 32:100 33:0 34:20 35:20 36:100 37:80 38:40 39:0 40:20 41:0 42:26 43:50 
8 1:0 2:0 3:-100 4:0 5:0 6:0 7:0 8:0 9:100 10:0 11:0 12:0 13:0 14:0 15:0 16:0 17:0 18:0 19:0 20:0 21:100 22:80 23:40 24:20 25:40 26:0 27:20 28:40 29:100 30:20 31:20 32:20 33:20 34:0 35:80 36:40 37:0 38:20 39:40 40:60 41:0 42:21 43:51 
-5.295445015784203 1:0 2:0 3:0 4:0 5:0 6:0 7:0 8:0 9:0 10:0 11:0 12:0 13:0 14:100 15:0 16:-100 17:0 18:0 19:0 20:0 21:20 22:60 23:60 24:0 25:20 26:0 27:0 28:20 29:20 30:0 31:0 32:20 33:0 34:0 35:60 36:40 37:0 38:40 39:20 40:20 41:52 42:14 43:28 
8 1:0 2:0 3:0 4:0 5:0 6:0 7:0 8:0 9:0 10:0 11:0 12:0 13:0 14:100 15:0 16:-100 17:0 18:0 19:0 20:0 21:20 22:60 23:60 24:0 25:20 26:0 27:0 28:20 29:20 30:0 31:0 32:20 33:0 34:0 35:60 36:40 37:0 38:40 39:20 40:20 41:52 42:46 43:63 
1.576932838313994 1:0 2:0 3:0 4:0 5:0 6:0 7:0 8:0 9:0 10:0 11:0 12:0 13:0 14:0 15:0 16:0 17:0 18:100 19:0 20:-100 21:40 22:40 23:0 24:0 25:0 26:20 27:20 28:80 29:60 30:20 31:20 32:20 33:0 34:0 35:0 36:40 37:0 38:0 39:20 40:0 41:77 42:45 43:25 
-7.688016159690953 1:0 2:0 3:0 4:0 5:0 6:0 7:0 8:0 9:0 10:0 11:0 12:0 13:0 14:0 15:0 16:0 17:0 18:100 19:0 20:-100 21:0 22:20 23:20 24:0 25:40 26:0 27:20 28:80 29:100 30:20 31:40 32:20 33:40 34:40 35:40 36:0 37:0 38:60 39:40 40:40 41:34 42:39 43:53 
8 1:0 2:0 3:0 4:0 5:0 6:0 7:0 8:0 9:0 10:0 11:0 12:0 13:0 14:0 15:0 16:0 17:0 18:100 19:0 20:-100 21:0 22:20 23:20 24:0 25:40 26:0 27:20 28:80 29:100 30:20 31:40 32:20 33:40 34:40 35:40 36:0 37:0 38:60 39:40 40:40 41:34 42:21 43:50 
-2.504422815325726 1:0 2:0 3:0 4:0 5:0 6:0 7:-100 8:0 9:100 10:0 11:0 12:0 13:0 14:0 15:0 16:0 17:0 18:0 19:0 20:0 21:60 22:80 23:40 24:20 25:40 26:40 27:20 28:40 29:80 30:0 31:20 32:20 33:60 34:0 35:40 36:40 37:60 38:60 39:40 40:20 41:8 42:19 43:64 
-2.984562939067873 1:0 2:0 3:0 4:0 5:0 6:0 7:0 8:0 9:0 10:0 11:0 12:0 13:0 14:0 15:0 16:0 17:100 18:0 19:0 20:-100 21:20 22:20 23:20 24:20 25:0 26:60 27:40 28:40 29:40 30:0 31:20 32:0 33:40 34:0 35:20 36:40 37:0 38:0 39:20 40:0 41:65 42:45 43:74 
-4.990997588109388 1:0 2:0 3:0 4:0 5:0 6:0 7:0 8:0 9:0 10:0 11:0 12:0 13:0 14:0 15:0 16:0 17:0 18:-100 19:100 20:0 21:60 22:60 23:60 24:0 25:0 26:20 27:0 28:20 29:20 30:0 31:20 32:0 33:0 34:0 35:0 36:60 37:20 38:40 39:20 40:20 41:50 42:44 43:25 
3.588985826456488 1:-100 2:0 3:0 4:0 5:0 6:0 7:0 8:0 9:0 10:100 11:0 12:0 13:0 14:0 15:0 16:0 17:0 18:0 19:0 20:0 21:0 22:20 23:20 24:0 25:20 26:60 27:0 28:20 29:40 30:0 31:0 32:0 33:20 34:0 35:60 36:0 37:60 38:20 39:20 40:0 41:60 42:20 43:68 
-5.591697747561247 1:0 2:-100 3:0 4:0 5:0 6:0 7:0 8:0 9:100 10:0 11:0 12:0 13:0 14:0 15:0 16:0 17:0 18:0 19:0 20:0 21:120 22:120 23:40 24:40 25:20 26:20 27:20 28:60 29:100 30:40 31:40 32:60 33:0 34:0 35:40 36:60 37:20 38:60 39:40 40:60 41:0 42:50 43:20 
-0.6925132804153175 1:0 2:0 3:0 4:0 5:0 6:0 7:0 8:0 9:0 10:0 11:0 12:0 13:0 14:0 15:0 16:0 17:0 18:-100 19:0 20:100 21:60 22:60 23:60 24:0 25:0 26:20 27:0 28:20 29:20 30:0 31:20 32:0 33:0 34:0 35:0 36:60 37:20 38:40 39:20 40:20 41:50 42:44 43:25 
8 1:0 2:-100 3:0 4:0 5:0 6:0 7:0 8:0 9:100 10:0 11:0 12:0 13:0 14:0 15:0 16:0 17:0 18:0 19:0 20:0 21:20 22:40 23:20 24:20 25:40 26:40 27:60 28:20 29:60 30:20 31:20 32:0 33:0 34:20 35:0 36:80 37:20 38:60 39:20 40:40 41:8 42:37 43:5 
-0.7771492933402956 1:0 2:0 3:0 4:0 5:0 6:0 7:0 8:0 9:-100 10:0 11:0 12:0 13:0 14:0 15:0 16:0 17:100 18:0 19:0 20:0 21:40 22:40 23:20 24:0 25:0 26:20 27:0 28:20 29:40 30:0 31:20 32:20 33:0 34:0 35:0 36:20 37:20 38:20 39:0 40:0 41:83 42:45 43:25 
-8 1:0 2:0 3:0 4:0 5:0 6:0 7:0 8:0 9:-100 10:100 11:0 12:0 13:0 14:0 15:0 16:0 17:0 18:0 19:0 20:0 21:40 22:40 23:20 24:0 25:0 26:20 27:0 28:20 29:40 30:0 31:20 32:20 33:0 34:0 35:0 36:20 37:20 38:20 39:0 40:0 41:83 42:45 43:25 
3.714274920126038 1:0 2:0 3:0 4:0 5:0 6:0 7:0 8:0 9:-100 10:0 11:100 12:0 13:0 14:0 15:0 16:0 17:0 18:0 19:0 20:0 21:40 22:40 23:20 24:0 25:0 26:20 27:0 28:20 29:40 30:0 31:20 32:20 33:0 34:0 35:0 36:20 37:20 38:20 39:0 40:0 41:83 42:45 43:25 
1.100101513276555 1:0 2:0 3:0 4:0 5:0 6:0 7:0 8:0 9:-100 10:0 11:0 12:0 13:0 14:0 15:100 16:0 17:0 18:0 19:0 20:0 21:40 22:40 23:20 24:0 25:0 26:20 27:0 28:20 29:40 30:0 31:20 32:20 33:0 34:0 35:0 36:20 37:20 38:20 39:0 40:0 41:83 42:45 43:25 
-1.762521730160551 1:0 2:0 3:0 4:0 5:0 6:0 7:0 8:0 9:-100 10:0 11:0 12:100 13:0 14:0 15:0 16:0 17:0 18:0 19:0 20:0 21:40 22:40 23:20 24:0 25:0 26:20 27:0 28:20 29:40 30:0 31:20 32:20 33:0 34:0 35:0 36:20 37:20 38:20 39:0 40:0 41:83 42:45 43:25 
-1.5016773399551 1:0 2:0 3:0 4:0 5:0 6:100 7:0 8:0 9:-100 10:0 11:0 12:0 13:0 14:0 15:0 16:0 17:0 18:0 19:0 20:0 21:40 22:40 23:20 24:0 25:0 26:20 27:0 28:20 29:40 30:0 31:20 32:20 33:0 34:0 35:0 36:20 37:20 38:20 39:0 40:0 41:83 42:45 43:25 
-6.457702794870096 1:100 2:0 3:0 4:0 5:0 6:0 7:0 8:0 9:-100 10:0 11:0 12:0 13:0 14:0 15:0 16:0 17:0 18:0 19:0 20:0 21:40 22:40 23:20 24:0 25:0 26:20 27:0 28:20 29:40 30:0 31:20 32:20 33:0 34:0 35:0 36:20 37:20 38:20 39:0 40:0 41:83 42:45 43:25 
0.5602331816563867 1:0 2:0 3:0 4:0 5:0 6:0 7:100 8:0 9:-100 10:0 11:0 12:0 13:0 14:0 15:0 16:0 17:0 18:0 19:0 20:0 21:40 22:40 23:20 24:0 25:0 26:20 27:0 28:20 29:40 30:0 31:20 32:20 33:0 34:0 35:0 36:20 37:20 38:20 39:0 40:0 41:83 42:45 43:25 
4.363605619148155 1:-100 2:0 3:0 4:0 5:0 6:0 7:0 8:0 9:100 10:0 11:0 12:0 13:0 14:0 15:0 16:0 17:0 18:0 19:0 20:0 21:20 22:60 23:0 24:20 25:0 26:0 27:20 28:40 29:40 30:0 31:20 32:20 33:40 34:0 35:80 36:20 37:20 38:20 39:0 40:20 41:39 42:19 43:49 
8 1:0 2:0 3:0 4:0 5:-100 6:0 7:0 8:0 9:100 10:0 11:0 12:0 13:0 14:0 15:0 16:0 17:0 18:0 19:0 20:0 21:80 22:40 23:20 24:20 25:0 26:20 27:20 28:20 29:60 30:40 31:0 32:40 33:40 34:20 35:0 36:40 37:20 38:60 39:40 40:40 41:9 42:35 43:50 
-3.471774811758817 1:0 2:0 3:-100 4:0 5:0 6:0 7:100 8:0 9:0 10:0 11:0 12:0 13:0 14:0 15:0 16:0 17:0 18:0 19:0 20:0 21:60 22:80 23:40 24:20 25:20 26:60 27:40 28:20 29:160 30:0 31:100 32:80 33:80 34:0 35:40 36:20 37:20 38:20 39:100 40:60 41:1 42:19 43:64 
4.087227301055685 1:0 2:0 3:0 4:0 5:0 6:0 7:0 8:100 9:-100 10:0 11:0 12:0 13:0 14:0 15:0 16:0 17:0 18:0 19:0 20:0 21:120 22:60 23:60 24:0 25:20 26:20 27:0 28:20 29:40 30:20 31:20 32:0 33:0 34:0 35:20 36:80 37:20 38:80 39:20 40:40 41:0 42:44 43:25 
-3.272947650801638 1:0 2:0 3:0 4:0 5:0 6:0 7:0 8:0 9:-100 10:0 11:0 12:0 13:100 14:0 15:0 16:0 17:0 18:0 19:0 20:0 21:40 22:40 23:20 24:0 25:0 26:20 27:0 28:20 29:40 30:0 31:20 32:20 33:0 34:0 35:0 36:20 37:20 38:20 39:0 40:0 41:83 42:45 43:25 
-1.75326774739518 1:0 2:0 3:0 4:0 5:0 6:0 7:0 8:0 9:-100 10:0 11:0 12:0 13:0 14:0 15:0 16:0 17:0 18:100 19:0 20:0 21:40 22:40 23:20 24:0 25:0 26:20 27:0 28:20 29:40 30:0 31:20 32:20 33:0 34:0 35:0 36:20 37:20 38:20 39:0 40:0 41:83 42:45 43:25 
8 1:0 2:0 3:-100 4:0 5:0 6:0 7:0 8:0 9:100 10:0 11:0 12:0 13:0 14:0 15:0 16:0 17:0 18:0 19:0 20:0 21:20 22:100 23:100 24:0 25:60 26:20 27:100 28:60 29:40 30:20 31:40 32:100 33:0 34:0 35:60 36:40 37:20 38:20 39:60 40:100 41:0 42:45 43:25 
-8 1:0 2:0 3:-100 4:0 5:0 6:0 7:0 8:0 9:100 10:0 11:0 12:0 13:0 14:0 15:0 16:0 17:0 18:0 19:0 20:0 21:20 22:100 23:100 24:0 25:60 26:20 27:100 28:60 29:40 30:20 31:40 32:100 33:0 34:0 35:60 36:40 37:20 38:20 39:60 40:100 41:0 42:45 43:25 
-8 1:0 2:0 3:-100 4:0 5:0 6:0 7:0 8:0 9:100 10:0 11:0 12:0 13:0 14:0 15:0 16:0 17:0 18:0 19:0 20:0 21:20 22:100 23:100 24:0 25:60 26:20 27:100 28:60 29:40 30:20 31:40 32:100 33:0 34:0 35:60 36:40 37:20 38:20 39:60 40:100 41:0 42:45 43:25 
2.74330395906862 1:0 2:0 3:-100 4:0 5:0 6:0 7:0 8:0 9:100 10:0 11:0 12:0 13:0 14:0 15:0 16:0 17:0 18:0 19:0 20:0 21:20 22:100 23:100 24:0 25:60 26:20 27:100 28:60 29:40 30:20 31:40 32:100 33:0 34:0 35:60 36:40 37:20 38:20 39:60 40:100 41:0 42:45 43:48 
0.1474507170287219 1:0 2:0 3:0 4:0 5:0 6:0 7:0 8:100 9:-100 10:0 11:0 12:0 13:0 14:0 15:0 16:0 17:0 18:0 19:0 20:0 21:40 22:40 23:20 24:0 25:0 26:20 27:0 28:20 29:40 30:0 31:20 32:20 33:0 34:0 35:0 36:20 37:20 38:20 39:0 40:0 41:83 42:45 43:25 
2.078617328967112 1:0 2:100 3:-100 4:0 5:0 6:0 7:0 8:0 9:0 10:0 11:0 12:0 13:0 14:0 15:0 16:0 17:0 18:0 19:0 20:0 21:20 22:100 23:100 24:0 25:60 26:20 27:100 28:60 29:40 30:20 31:40 32:100 33:0 34:0 35:60 36:40 37:20 38:20 39:60 40:100 41:0 42:45 43:25 
-0.862697888862241 1:0 2:0 3:0 4:0 5:0 6:0 7:0 8:0 9:-100 10:0 11:0 12:0 13:0 14:100 15:0 16:0 17:0 18:0 19:0 20:0 21:40 22:40 23:20 24:0 25:0 26:20 27:0 28:20 29:40 30:0 31:20 32:20 33:0 34:0 35:0 36:20 37:20 38:20 39:0 40:0 41:83 42:45 43:25 
5.505858357214369 1:0 2:0 3:0 4:0 5:0 6:0 7:0 8:0 9:-100 10:0 11:0 12:0 13:0 14:0 15:0 16:100 17:0 18:0 19:0 20:0 21:40 22:40 23:20 24:0 25:0 26:20 27:0 28:20 29:40 30:0 31:20 32:20 33:0 34:0 35:0 36:20 37:20 38:20 39:0 40:0 41:83 42:45 43:25 
1.632500124762266 1:0 2:0 3:0 4:100 5:0 6:0 7:0 8:0 9:-100 10:0 11:0 12:0 13:0 14:0 15:0 16:0 17:0 18:0 19:0 20:0 21:40 22:40 23:20 24:0 25:0 26:20 27:0 28:20 29:40 30:0 31:20 32:20 33:0 34:0 35:0 36:20 37:20 38:20 39:0 40:0 41:83 42:45 43:25 
3.102739556163367 1:0 2:100 3:0 4:0 5:0 6:0 7:0 8:0 9:-100 10:0 11:0 12:0 13:0 14:0 15:0 16:0 17:0 18:0 19:0 20:0 21:40 22:40 23:20 24:0 25:0 26:20 27:0 28:20 29:40 30:0 31:20 32:20 33:0 34:0 35:0 36:20 37:20 38:20 39:0 40:0 41:83 42:45 43:25 
-3.253726356211496 1:0 2:0 3:0 4:0 5:0 6:0 7:0 8:0 9:-100 10:0 11:0 12:0 13:0 14:0 15:0 16:0 17:0 18:0 19:100 20:0 21:40 22:40 23:20 24:0 25:0 26:20 27:0 28:20 29:40 30:0 31:20 32:20 33:0 34:0 35:0 36:20 37:20 38:20 39:0 40:0 41:83 42:45 43:25 
2.172792091921591 1:0 2:0 3:0 4:0 5:0 6:0 7:0 8:0 9:0 10:0 11:0 12:0 13:100 14:0 15:0 16:0 17:0 18:0 19:0 20:-100 21:0 22:60 23:0 24:0 25:0 26:0 27:0 28:0 29:40 30:0 31:0 32:0 33:0 34:0 35:0 36:20 37:20 38:60 39:20 40:40 41:87 42:50 43:69 
2.054030233841799 1:-100 2:0 3:0 4:0 5:0 6:0 7:0 8:0 9:0 10:0 11:0 12:100 13:0 14:0 15:0 16:0 17:0 18:0 19:0 20:0 21:0 22:100 23:20 24:0 25:0 26:60 27:20 28:20 29:20 30:20 31:80 32:40 33:80 34:20 35:40 36:40 37:0 38:40 39:40 40:0 41:0 42:32 43:64 
-3.550346429591689 1:0 2:0 3:0 4:0 5:0 6:0 7:0 8:0 9:100 10:0 11:0 12:0 13:0 14:0 15:0 16:0 17:0 18:0 19:0 20:-100 21:0 22:60 23:0 24:0 25:0 26:0 27:0 28:0 29:40 30:0 31:0 32:0 33:0 34:0 35:0 36:20 37:20 38:60 39:20 40:40 41:87 42:50 43:69 
-2.176593055419575 1:0 2:0 3:0 4:0 5:100 6:0 7:0 8:0 9:0 10:0 11:0 12:0 13:0 14:0 15:0 16:0 17:0 18:0 19:0 20:-100 21:0 22:60 23:0 24:0 25:0 26:0 27:0 28:0 29:40 30:0 31:0 32:0 33:0 34:0 35:0 36:20 37:20 38:60 39:20 40:40 41:87 42:50 43:69 
8 1:0 2:0 3:0 4:0 5:0 6:0 7:0 8:100 9:0 10:0 11:0 12:0 13:0 14:0 15:0 16:0 17:0 18:0 19:0 20:-100 21:0 22:60 23:0 24:0 25:0 26:0 27:0 28:0 29:40 30:0 31:0 32:0 33:0 34:0 35:0 36:20 37:20 38:60 39:20 40:40 41:87 42:50 43:69 
-5.115457989517079 1:0 2:0 3:0 4:0 5:0 6:0 7:-100 8:0 9:0 10:0 11:100 12:0 13:0 14:0 15:0 16:0 17:0 18:0 19:0 20:0 21:100 22:140 23:40 24:20 25:40 26:0 27:40 28:40 29:60 30:20 31:0 32:20 33:0 34:60 35:40 36:60 37:40 38:100 39:60 40:20 41:0 42:50 43:20 
3.859529869196552 1:0 2:0 3:0 4:0 5:0 6:0 7:0 8:0 9:0 10:0 11:0 12:0 13:0 14:0 15:0 16:100 17:0 18:0 19:0 20:-100 21:0 22:60 23:0 24:0 25:0 26:0 27:0 28:0 29:40 30:0 31:0 32:0 33:0 34:0 35:0 36:20 37:20 38:60 39:20 40:40 41:87 42:50 43:69 
1.011249712717629 1:0 2:0 3:0 4:0 5:0 6:0 7:0 8:0 9:0 10:0 11:0 12:0 13:0 14:100 15:0 16:0 17:0 18:0 19:0 20:-100 21:0 22:60 23:0 24:0 25:0 26:0 27:0 28:0 29:40 30:0 31:0 32:0 33:0 34:0 35:0 36:20 37:20 38:60 39:20 40:40 41:87 42:50 43:69 
-5.333978089529369 1:0 2:0 3:100 4:0 5:0 6:0 7:0 8:0 9:0 10:0 11:0 12:0 13:0 14:0 15:0 16:0 17:0 18:0 19:0 20:-100 21:0 22:60 23:0 24:0 25:0 26:0 27:0 28:0 29:40 30:0 31:0 32:0 33:0 34:0 35:0 36:20 37:20 38:60 39:20 40:40 41:87 42:50 43:69 
-7.472946313894798 1:100 2:0 3:0 4:0 5:0 6:0 7:0 8:-100 9:0 10:0 11:0 12:0 13:0 14:0 15:0 16:0 17:0 18:0 19:0 20:0 21:40 22:160 23:60 24:40 25:20 26:0 27:0 28:60 29:40 30:20 31:20 32:60 33:0 34:0 35:20 36:20 37:40 38:0 39:0 40:40 41:9 42:51 43:51 
-2.5952119264311 1:0 2:100 3:0 4:0 5:0 6:0 7:0 8:0 9:0 10:0 11:0 12:0 13:0 14:0 15:0 16:0 17:0 18:0 19:0 20:-100 21:0 22:60 23:0 24:0 25:0 26:0 27:0 28:0 29:40 30:0 31:0 32:0 33:0 34:0 35:0 36:20 37:20 38:60 39:20 40:40 41:87 42:50 43:69 
-0.0829297687952979 1:0 2:0 3:0 4:100 5:0 6:0 7:0 8:0 9:0 10:0 11:0 12:0 13:0 14:0 15:0 16:0 17:0 18:0 19:0 20:-100 21:0 22:60 23:0 24:0 25:0 26:0 27:0 28:0 29:40 30:0 31:0 32:0 33:0 34:0 35:0 36:20 37:20 38:60 39:20 40:40 41:87 42:50 43:69 
1.103939888269902 1:0 2:0 3:0 4:0 5:0 6:0 7:0 8:0 9:0 10:0 11:0 12:0 13:0 14:0 15:100 16:0 17:0 18:0 19:0 20:-100 21:0 22:60 23:0 24:0 25:0 26:0 27:0 28:0 29:40 30:0 31:0 32:0 33:0 34:0 35:0 36:20 37:20 38:60 39:20 40:40 41:87 42:50 43:69 
4.048308510165805 1:0 2:0 3:0 4:0 5:0 6:0 7:0 8:0 9:0 10:0 11:100 12:0 13:0 14:0 15:0 16:0 17:0 18:0 19:0 20:-100 21:0 22:60 23:0 24:0 25:0 26:0 27:0 28:0 29:40 30:0 31:0 32:0 33:0 34:0 35:0 36:20 37:20 38:60 39:20 40:40 41:87 42:50 43:69 
-4.937387599392983 1:0 2:0 3:0 4:0 5:0 6:0 7:0 8:0 9:0 10:100 11:0 12:0 13:0 14:0 15:0 16:0 17:0 18:0 19:0 20:-100 21:0 22:60 23:0 24:0 25:0 26:0 27:0 28:0 29:40 30:0 31:0 32:0 33:0 34:0 35:0 36:20 37:20 38:60 39:20 40:40 41:87 42:50 43:69 
5.413627081695317 1:0 2:0 3:0 4:0 5:0 6:0 7:0 8:0 9:0 10:0 11:0 12:0 13:0 14:0 15:0 16:0 17:100 18:0 19:0 20:-100 21:0 22:60 23:0 24:0 25:0 26:0 27:0 28:0 29:40 30:0 31:0 32:0 33:0 34:0 35:0 36:20 37:20 38:60 39:20 40:40 41:87 42:50 43:69 
-2.037449277115853 1:100 2:0 3:0 4:0 5:0 6:0 7:0 8:0 9:0 10:0 11:0 12:0 13:0 14:0 15:0 16:0 17:0 18:0 19:0 20:-100 21:0 22:60 23:0 24:0 25:0 26:0 27:0 28:0 29:40 30:0 31:0 32:0 33:0 34:0 35:0 36:20 37:20 38:60 39:20 40:40 41:87 42:50 43:69 
-2.814117678285603 1:0 2:0 3:0 4:0 5:0 6:100 7:0 8:0 9:0 10:0 11:0 12:0 13:0 14:0 15:0 16:0 17:0 18:0 19:0 20:-100 21:0 22:60 23:0 24:0 25:0 26:0 27:0 28:0 29:40 30:0 31:0 32:0 33:0 34:0 35:0 36:20 37:20 38:60 39:20 40:40 41:87 42:50 43:69 
-2.051496280129453 1:0 2:0 3:0 4:0 5:0 6:0 7:0 8:0 9:0 10:0 11:0 12:100 13:0 14:0 15:0 16:0 17:0 18:0 19:0 20:-100 21:0 22:60 23:0 24:0 25:0 26:0 27:0 28:0 29:40 30:0 31:0 32:0 33:0 34:0 35:0 36:20 37:20 38:60 39:20 40:40 41:87 42:50 43:69 
1.077918589388266 1:-100 2:0 3:0 4:0 5:0 6:0 7:0 8:0 9:100 10:0 11:0 12:0 13:0 14:0 15:0 16:0 17:0 18:0 19:0 20:0 21:0 22:100 23:20 24:0 25:0 26:60 27:20 28:20 29:20 30:20 31:80 32:40 33:80 34:20 35:40 36:40 37:0 38:40 39:40 40:0 41:0 42:32 43:64 
4.867153243855583 1:0 2:0 3:0 4:0 5:-100 6:0 7:0 8:0 9:100 10:0 11:0 12:0 13:0 14:0 15:0 16:0 17:0 18:0 19:0 20:0 21:100 22:20 23:40 24:0 25:100 26:20 27:0 28:60 29:60 30:20 31:20 32:0 33:0 34:20 35:20 36:40 37:20 38:40 39:20 40:40 41:35 42:50 43:60 
0.7780781582328294 1:-100 2:0 3:0 4:100 5:0 6:0 7:0 8:0 9:0 10:0 11:0 12:0 13:0 14:0 15:0 16:0 17:0 18:0 19:0 20:0 21:80 22:100 23:60 24:40 25:60 26:20 27:20 28:80 29:80 30:0 31:0 32:20 33:20 34:0 35:80 36:20 37:20 38:40 39:40 40:40 41:4 42:38 43:65 
2.63512082690773 1:0 2:0 3:100 4:0 5:0 6:0 7:0 8:0 9:0 10:0 11:0 12:-100 13:0 14:0 15:0 16:0 17:0 18:0 19:0 20:0 21:40 22:60 23:20 24:0 25:20 26:20 27:20 28:20 29:140 30:20 31:20 32:20 33:0 34:0 35:60 36:0 37:40 38:40 39:20 40:20 41:42 42:54 43:25 
-5.00008042044191 1:0 2:100 3:0 4:0 5:0 6:0 7:0 8:0 9:-100 10:0 11:0 12:0 13:0 14:0 15:0 16:0 17:0 18:0 19:0 20:0 21:0 22:80 23:60 24:40 25:40 26:80 27:40 28:40 29:80 30:0 31:20 32:20 33:40 34:0 35:40 36:20 37:20 38:20 39:40 40:0 41:0 42:19 43:64 
-4.370820515877399 1:0 2:0 3:0 4:0 5:0 6:0 7:0 8:0 9:0 10:0 11:0 12:0 13:0 14:0 15:0 16:0 17:0 18:100 19:0 20:-100 21:20 22:20 23:20 24:20 25:0 26:60 27:40 28:40 29:40 30:0 31:20 32:0 33:40 34:0 35:20 36:40 37:0 38:0 39:20 40:0 41:65 42:45 43:74 
4.4818826784057 1:-100 2:0 3:100 4:0 5:0 6:0 7:0 8:0 9:0 10:0 11:0 12:0 13:0 14:0 15:0 16:0 17:0 18:0 19:0 20:0 21:0 22:100 23:20 24:0 25:0 26:60 27:20 28:20 29:20 30:20 31:80 32:40 33:80 34:20 35:40 36:40 37:0 38:40 39:40 40:0 41:0 42:32 43:64 
-0.1276795830284762 1:0 2:0 3:0 4:0 5:0 6:0 7:0 8:-100 9:0 10:0 11:0 12:0 13:0 14:0 15:0 16:0 17:100 18:0 19:0 20:0 21:20 22:40 23:20 24:20 25:40 26:20 27:20 28:20 29:40 30:0 31:20 32:20 33:20 34:0 35:40 36:40 37:20 38:40 39:40 40:0 41:49 42:19 43:64 
-0.5295170022002829 1:0 2:-100 3:0 4:0 5:0 6:0 7:0 8:0 9:100 10:0 11:0 12:0 13:0 14:0 15:0 16:0 17:0 18:0 19:0 20:0 21:40 22:80 23:40 24:40 25:20 26:20 27:20 28:20 29:60 30:20 31:40 32:20 33:20 34:0 35:100 36:40 37:40 38:0 39:0 40:40 41:2 42:21 43:51 
5.935890492718365 1:0 2:0 3:0 4:0 5:0 6:0 7:0 8:0 9:0 10:0 11:0 12:0 13:0 14:0 15:0 16:0 17:0 18:-100 19:100 20:0 21:80 22:80 23:60 24:0 25:0 26:0 27:0 28:0 29:20 30:0 31:20 32:0 33:0 34:0 35:0 36:60 37:0 38:20 39:20 40:20 41:56 42:44 43:25 
-0.7527192877171858 1:0 2:0 3:0 4:0 5:0 6:0 7:0 8:-100 9:100 10:0 11:0 12:0 13:0 14:0 15:0 16:0 17:0 18:0 19:0 20:0 21:20 22:40 23:20 24:20 25:40 26:20 27:20 28:20 29:40 30:0 31:20 32:20 33:20 34:0 35:40 36:40 37:20 38:40 39:40 40:0 41:49 42:19 43:64 
-8 1:0 2:0 3:0 4:0 5:0 6:0 7:0 8:0 9:100 10:0 11:0 12:0 13:0 14:0 15:0 16:0 17:0 18:-100 19:0 20:0 21:40 22:80 23:0 24:0 25:0 26:20 27:0 28:40 29:20 30:0 31:20 32:0 33:0 34:20 35:0 36:80 37:20 38:20 39:0 40:0 41:70 42:28 43:25 
6.267585891860249 1:0 2:0 3:0 4:0 5:0 6:0 7:0 8:0 9:100 10:0 11:0 12:0 13:0 14:0 15:0 16:0 17:0 18:-100 19:0 20:0 21:40 22:80 23:0 24:0 25:0 26:20 27:0 28:40 29:20 30:0 31:20 32:0 33:0 34:20 35:0 36:80 37:20 38:20 39:0 40:0 41:70 42:28 43:25 
-4.852436964350157 1:0 2:0 3:0 4:0 5:0 6:0 7:0 8:0 9:0 10:0 11:0 12:0 13:0 14:100 15:0 16:0 17:0 18:0 19:-100 20:0 21:20 22:20 23:40 24:0 25:0 26:20 27:40 28:0 29:40 30:20 31:0 32:60 33:0 34:0 35:40 36:20 37:40 38:0 39:20 40:20 41:66 42:14 43:39 
5.844236968105742 1:0 2:0 3:0 4:0 5:0 6:0 7:0 8:0 9:0 10:0 11:0 12:0 13:0 14:100 15:0 16:0 17:0 18:0 19:-100 20:0 21:20 22:20 23:40 24:0 25:0 26:20 27:40 28:0 29:40 30:20 31:0 32:60 33:0 34:0 35:40 36:20 37:40 38:0 39:20 40:20 41:66 42:47 43:62 
-0.3150235949677831 1:0 2:0 3:0 4:0 5:0 6:0 7:0 8:0 9:0 10:0 11:0 12:-100 13:100 14:0 15:0 16:0 17:0 18:0 19:0 20:0 21:80 22:80 23:60 24:20 25:20 26:0 27:60 28:20 29:20 30:20 31:20 32:0 33:0 34:20 35:20 36:20 37:0 38:20 39:0 40:0 41:39 42:50 43:25 
-6.420042577014409 1:0 2:0 3:0 4:0 5:100 6:0 7:-100 8:0 9:0 10:0 11:0 12:0 13:0 14:0 15:0 16:0 17:0 18:0 19:0 20:0 21:100 22:60 23:0 24:20 25:20 26:40 27:40 28:20 29:60 30:20 31:0 32:0 33:0 34:0 35:0 36:120 37:20 38:20 39:0 40:60 41:35 42:50 43:25 
8 1:0 2:0 3:0 4:0 5:100 6:0 7:-100 8:0 9:0 10:0 11:0 12:0 13:0 14:0 15:0 16:0 17:0 18:0 19:0 20:0 21:100 22:60 23:0 24:20 25:20 26:40 27:40 28:20 29:60 30:20 31:0 32:0 33:0 34:0 35:0 36:120 37:20 38:20 39:0 40:60 41:35 42:50 43:24 
-0.2699705702952598 1:0 2:0 3:0 4:0 5:0 6:0 7:0 8:0 9:100 10:0 11:0 12:0 13:0 14:0 15:-100 16:0 17:0 18:0 19:0 20:0 21:20 22:0 23:40 24:0 25:60 26:0 27:80 28:40 29:60 30:20 31:20 32:40 33:60 34:0 35:60 36:40 37:20 38:0 39:40 40:20 41:15 42:50 43:39 
5.584784201140184 1:0 2:0 3:0 4:0 5:0 6:0 7:-100 8:100 9:0 10:0 11:0 12:0 13:0 14:0 15:0 16:0 17:0 18:0 19:0 20:0 21:60 22:80 23:40 24:20 25:40 26:40 27:20 28:40 29:80 30:0 31:20 32:20 33:60 34:0 35:40 36:40 37:60 38:60 39:40 40:20 41:8 42:19 43:64 
8 1:100 2:0 3:0 4:0 5:0 6:0 7:0 8:0 9:0 10:0 11:0 12:-100 13:0 14:0 15:0 16:0 17:0 18:0 19:0 20:0 21:80 22:80 23:60 24:20 25:20 26:0 27:60 28:20 29:20 30:20 31:20 32:0 33:0 34:20 35:20 36:20 37:0 38:20 39:0 40:0 41:39 42:50 43:25 
-3.851149077722682 1:0 2:0 3:0 4:0 5:0 6:0 7:0 8:0 9:0 10:0 11:0 12:0 13:0 14:0 15:0 16:0 17:0 18:0 19:-100 20:100 21:20 22:60 23:20 24:20 25:0 26:0 27:0 28:40 29:40 30:20 31:20 32:20 33:0 34:0 35:80 36:40 37:40 38:0 39:0 40:80 41:49 42:53 43:25 
3.000558437723819 1:0 2:-100 3:0 4:0 5:0 6:0 7:0 8:0 9:0 10:0 11:0 12:0 13:0 14:0 15:100 16:0 17:0 18:0 19:0 20:0 21:0 22:60 23:40 24:0 25:40 26:40 27:20 28:0 29:60 30:20 31:0 32:40 33:0 34:0 35:60 36:20 37:0 38:20 39:60 40:20 41:67 42:55 43:15 
1.108538123752945 1:-100 2:0 3:100 4:0 5:0 6:0 7:0 8:0 9:0 10:0 11:0 12:0 13:0 14:0 15:0 16:0 17:0 18:0 19:0 20:0 21:0 22:20 23:0 24:0 25:0 26:20 27:20 28:20 29:40 30:20 31:20 32:20 33:40 34:20 35:40 36:0 37:0 38:0 39:60 40:40 41:60 42:19 43:64 
4.726220496495327 1:0 2:0 3:0 4:0 5:0 6:0 7:0 8:0 9:0 10:0 11:0 12:0 13:0 14:0 15:0 16:0 17:100 18:-100 19:0 20:0 21:80 22:80 23:60 24:0 25:0 26:0 27:0 28:0 29:20 30:0 31:20 32:0 33:0 34:0 35:0 36:60 37:0 38:20 39:20 40:20 41:56 42:44 43:25 
-3.118588955079435 1:0 2:0 3:0 4:0 5:0 6:0 7:0 8:0 9:0 10:0 11:100 12:0 13:0 14:0 15:0 16:0 17:0 18:0 19:0 20:-100 21:0 22:20 23:20 24:0 25:40 26:0 27:20 28:80 29:100 30:20 31:40 32:20 33:40 34:40 35:40 36:0 37:0 38:60 39:40 40:40 41:34 42:21 43:50 
-5.826771178229198 1:0 2:0 3:0 4:0 5:0 6:0 7:0 8:0 9:0 10:0 11:0 12:100 13:-100 14:0 15:0 16:0 17:0 18:0 19:0 20:0 21:100 22:80 23:60 24:0 25:0 26:0 27:60 28:20 29:40 30:20 31:20 32:20 33:0 34:0 35:0 36:60 37:60 38:40 39:0 40:20 41:0 42:50 43:25 
-7.799286973933535 1:0 2:0 3:0 4:0 5:0 6:0 7:0 8:0 9:0 10:0 11:100 12:0 13:-100 14:0 15:0 16:0 17:0 18:0 19:0 20:0 21:100 22:80 23:60 24:0 25:0 26:0 27:60 28:20 29:40 30:20 31:20 32:20 33:0 34:0 35:0 36:60 37:60 38:40 39:0 40:20 41:0 42:50 43:25 
-8 1:0 2:0 3:0 4:0 5:0 6:0 7:0 8:0 9:0 10:0 11:0 12:0 13:0 14:0 15:0 16:0 17:0 18:0 19:100 20:-100 21:60 22:0 23:40 24:0 25:0 26:40 27:40 28:20 29:60 30:20 31:0 32:0 33:20 34:0 35:80 36:20 37:20 38:0 39:0 40:0 41:34 42:28 43:65 
7.887457819641418 1:0 2:0 3:0 4:0 5:0 6:0 7:0 8:0 9:0 10:0 11:0 12:0 13:0 14:0 15:0 16:0 17:0 18:0 19:100 20:-100 21:60 22:0 23:40 24:0 25:0 26:40 27:40 28:20 29:60 30:20 31:0 32:0 33:20 34:0 35:80 36:20 37:20 38:0 39:0 40:0 41:34 42:32 43:65 
-6.90515734908926 1:0 2:0 3:-100 4:0 5:0 6:0 7:0 8:0 9:100 10:0 11:0 12:0 13:0 14:0 15:0 16:0 17:0 18:0 19:0 20:0 21:20 22:60 23:20 24:0 25:0 26:20 27:40 28:80 29:100 30:40 31:40 32:20 33:0 34:0 35:20 36:40 37:20 38:40 39:20 40:60 41:10 42:45 43:25 
-8 1:0 2:0 3:0 4:0 5:0 6:0 7:-100 8:0 9:100 10:0 11:0 12:0 13:0 14:0 15:0 16:0 17:0 18:0 19:0 20:0 21:20 22:40 23:20 24:0 25:0 26:20 27:20 28:20 29:20 30:20 31:0 32:20 33:0 34:20 35:0 36:20 37:20 38:0 39:0 40:40 41:56 42:45 43:25 
-3.226507794078998 1:0 2:0 3:0 4:0 5:0 6:0 7:0 8:0 9:0 10:-100 11:0 12:0 13:0 14:0 15:0 16:0 17:0 18:0 19:100 20:0 21:0 22:0 23:0 24:0 25:0 26:20 27:0 28:60 29:0 30:0 31:60 32:40 33:20 34:0 35:80 36:0 37:0 38:0 39:40 40:40 41:91 42:67 43:20 
-8 1:0 2:0 3:0 4:0 5:0 6:0 7:0 8:0 9:-100 10:100 11:0 12:0 13:0 14:0 15:0 16:0 17:0 18:0 19:0 20:0 21:60 22:100 23:60 24:40 25:40 26:0 27:20 28:40 29:20 30:0 31:0 32:0 33:20 34:0 35:60 36:0 37:40 38:20 39:60 40:40 41:7 42:25 43:57 
-8 1:0 2:0 3:0 4:0 5:0 6:0 7:0 8:0 9:-100 10:100 11:0 12:0 13:0 14:0 15:0 16:0 17:0 18:0 19:0 20:0 21:60 22:100 23:60 24:40 25:40 26:0 27:20 28:40 29:20 30:0 31:0 32:0 33:20 34:0 35:60 36:0 37:40 38:20 39:60 40:40 41:7 42:28 43:62 
5.123022437730465 1:0 2:0 3:0 4:0 5:0 6:0 7:0 8:0 9:-100 10:100 11:0 12:0 13:0 14:0 15:0 16:0 17:0 18:0 19:0 20:0 21:60 22:100 23:60 24:40 25:40 26:0 27:20 28:40 29:20 30:0 31:0 32:0 33:20 34:0 35:60 36:0 37:40 38:20 39:60 40:40 41:7 42:39 43:65 
8 1:0 2:0 3:0 4:0 5:100 6:0 7:-100 8:0 9:0 10:0 11:0 12:0 13:0 14:0 15:0 16:0 17:0 18:0 19:0 20:0 21:20 22:40 23:20 24:0 25:0 26:20 27:20 28:20 29:20 30:20 31:0 32:20 33:0 34:20 35:0 36:20 37:20 38:0 39:0 40:40 41:56 42:45 43:25 
-8 1:0 2:0 3:0 4:0 5:0 6:0 7:-100 8:100 9:0 10:0 11:0 12:0 13:0 14:0 15:0 16:0 17:0 18:0 19:0 20:0 21:20 22:40 23:20 24:0 25:0 26:20 27:20 28:20 29:20 30:20 31:0 32:20 33:0 34:20 35:0 36:20 37:20 38:0 39:0 40:40 41:56 42:45 43:25 
-5.817835828985563 1:-100 2:100 3:0 4:0 5:0 6:0 7:0 8:0 9:0 10:0 11:0 12:0 13:0 14:0 15:0 16:0 17:0 18:0 19:0 20:0 21:0 22:20 23:20 24:0 25:20 26:60 27:0 28:20 29:40 30:0 31:0 32:0 33:20 34:0 35:60 36:0 37:60 38:20 39:20 40:0 41:60 42:19 43:64 
8 1:0 2:0 3:0 4:0 5:0 6:0 7:0 8:-100 9:0 10:0 11:0 12:0 13:0 14:0 15:0 16:0 17:0 18:0 19:0 20:100 21:40 22:40 23:20 24:0 25:20 26:40 27:0 28:0 29:60 30:0 31:0 32:80 33:0 34:0 35:80 36:0 37:0 38:0 39:0 40:40 41:22 42:14 43:41 
-8 1:0 2:0 3:0 4:0 5:0 6:0 7:0 8:-100 9:0 10:0 11:0 12:0 13:0 14:0 15:0 16:0 17:0 18:0 19:0 20:100 21:40 22:40 23:20 24:0 25:20 26:40 27:0 28:0 29:60 30:0 31:0 32:80 33:0 34:0 35:80 36:0 37:0 38:0 39:0 40:40 41:22 42:46 43:64 
7.221966219651128 1:0 2:0 3:0 4:0 5:0 6:0 7:0 8:0 9:100 10:0 11:0 12:0 13:0 14:0 15:0 16:0 17:0 18:0 19:-100 20:0 21:40 22:20 23:80 24:0 25:20 26:0 27:60 28:40 29:40 30:20 31:40 32:40 33:0 34:0 35:20 36:20 37:0 38:0 39:60 40:80 41:8 42:45 43:25 
8 1:0 2:0 3:0 4:0 5:0 6:0 7:0 8:0 9:100 10:0 11:0 12:0 13:-100 14:0 15:0 16:0 17:0 18:0 19:0 20:0 21:100 22:80 23:60 24:0 25:0 26:0 27:60 28:20 29:40 30:20 31:20 32:20 33:0 34:0 35:0 36:60 37:60 38:40 39:0 40:20 41:0 42:50 43:25 
5.767163685968476 1:0 2:-100 3:0 4:0 5:0 6:0 7:0 8:100 9:0 10:0 11:0 12:0 13:0 14:0 15:0 16:0 17:0 18:0 19:0 20:0 21:100 22:120 23:20 24:20 25:40 26:0 27:60 28:60 29:60 30:20 31:0 32:80 33:0 34:20 35:60 36:60 37:20 38:60 39:60 40:80 41:7 42:50 43:20 
-6.431594305090081 1:0 2:0 3:0 4:100 5:0 6:0 7:0 8:0 9:0 10:0 11:0 12:0 13:-100 14:0 15:0 16:0 17:0 18:0 19:0 20:0 21:100 22:80 23:60 24:0 25:0 26:0 27:60 28:20 29:40 30:20 31:20 32:20 33:0 34:0 35:0 36:60 37:60 38:40 39:0 40:20 41:0 42:50 43:25 
1.506039954274589 1:100 2:0 3:-100 4:0 5:0 6:0 7:0 8:0 9:0 10:0 11:0 12:0 13:0 14:0 15:0 16:0 17:0 18:0 19:0 20:0 21:20 22:60 23:20 24:0 25:0 26:20 27:40 28:80 29:100 30:40 31:40 32:20 33:0 34:0 35:20 36:40 37:20 38:40 39:20 40:60 41:10 42:45 43:25 
-1.965201896182055 1:100 2:0 3:-100 4:0 5:0 6:0 7:0 8:0 9:0 10:0 11:0 12:0 13:0 14:0 15:0 16:0 17:0 18:0 19:0 20:0 21:0 22:40 23:20 24:0 25:20 26:20 27:40 28:40 29:20 30:0 31:60 32:40 33:0 34:0 35:60 36:20 37:0 38:20 39:20 40:20 41:51 42:45 43:25 
3.830729163923019 1:0 2:0 3:-100 4:0 5:0 6:0 7:0 8:0 9:0 10:0 11:0 12:100 13:0 14:0 15:0 16:0 17:0 18:0 19:0 20:0 21:0 22:40 23:20 24:0 25:20 26:20 27:40 28:40 29:20 30:0 31:60 32:40 33:0 34:0 35:60 36:20 37:0 38:20 39:20 40:20 41:51 42:45 43:25 
-2.138552194575186 1:0 2:0 3:0 4:0 5:0 6:0 7:0 8:0 9:100 10:0 11:0 12:-100 13:0 14:0 15:0 16:0 17:0 18:0 19:0 20:0 21:40 22:120 23:20 24:20 25:20 26:0 27:20 28:80 29:60 30:20 31:20 32:20 33:80 34:20 35:60 36:0 37:0 38:20 39:20 40:20 41:41 42:60 43:37 
-1.684574876490061 1:0 2:0 3:0 4:0 5:0 6:0 7:0 8:0 9:100 10:0 11:0 12:0 13:0 14:0 15:0 16:-100 17:0 18:0 19:0 20:0 21:0 22:0 23:40 24:20 25:60 26:0 27:40 28:0 29:40 30:0 31:20 32:40 33:20 34:0 35:60 36:0 37:20 38:20 39:40 40:20 41:80 42:50 43:39 
4.991786230722138 1:0 2:0 3:0 4:0 5:0 6:0 7:-100 8:0 9:0 10:0 11:100 12:0 13:0 14:0 15:0 16:0 17:0 18:0 19:0 20:0 21:20 22:100 23:20 24:20 25:0 26:0 27:0 28:20 29:20 30:20 31:40 32:40 33:40 34:20 35:60 36:0 37:0 38:0 39:0 40:20 41:63 42:60 43:37 
-8 1:0 2:0 3:100 4:-100 5:0 6:0 7:0 8:0 9:0 10:0 11:0 12:0 13:0 14:0 15:0 16:0 17:0 18:0 19:0 20:0 21:120 22:80 23:0 24:0 25:60 26:0 27:20 28:60 29:40 30:20 31:60 32:60 33:40 34:20 35:60 36:20 37:0 38:40 39:40 40:40 41:0 42:22 43:53 
8 1:0 2:0 3:100 4:-100 5:0 6:0 7:0 8:0 9:0 10:0 11:0 12:0 13:0 14:0 15:0 16:0 17:0 18:0 19:0 20:0 21:120 22:80 23:0 24:0 25:60 26:0 27:20 28:60 29:40 30:20 31:60 32:60 33:40 34:20 35:60 36:20 37:0 38:40 39:40 40:40 41:0 42:50 43:82 
-5.420742991069614 1:0 2:0 3:100 4:-100 5:0 6:0 7:0 8:0 9:0 10:0 11:0 12:0 13:0 14:0 15:0 16:0 17:0 18:0 19:0 20:0 21:120 22:80 23:0 24:0 25:60 26:0 27:20 28:60 29:40 30:20 31:60 32:60 33:40 34:20 35:60 36:20 37:0 38:40 39:40 40:40 41:0 42:67 43:80 
2.015553423043632 1:0 2:0 3:0 4:0 5:0 6:100 7:-100 8:0 9:0 10:0 11:0 12:0 13:0 14:0 15:0 16:0 17:0 18:0 19:0 20:0 21:20 22:100 23:20 24:20 25:0 26:0 27:0 28:20 29:20 30:20 31:40 32:40 33:40 34:20 35:60 36:0 37:0 38:0 39:0 40:20 41:63 42:60 43:37 
8 1:0 2:0 3:0 4:0 5:0 6:0 7:0 8:0 9:100 10:-100 11:0 12:0 13:0 14:0 15:0 16:0 17:0 18:0 19:0 20:0 21:100 22:40 23:40 24:0 25:20 26:0 27:0 28:20 29:20 30:0 31:0 32:20 33:0 34:0 35:20 36:20 37:0 38:20 39:20 40:40 41:61 42:44 43:25 
8 1:0 2:0 3:0 4:0 5:0 6:0 7:0 8:0 9:100 10:0 11:0 12:0 13:0 14:-100 15:0 16:0 17:0 18:0 19:0 20:0 21:120 22:0 23:40 24:0 25:40 26:0 27:20 28:20 29:120 30:20 31:0 32:20 33:80 34:20 35:0 36:60 37:40 38:40 39:60 40:20 41:38 42:8 43:25 
-5.603755316757411 1:0 2:0 3:0 4:0 5:0 6:0 7:0 8:0 9:100 10:0 11:0 12:0 13:0 14:-100 15:0 16:0 17:0 18:0 19:0 20:0 21:120 22:0 23:40 24:0 25:40 26:0 27:20 28:20 29:120 30:20 31:0 32:20 33:80 34:20 35:0 36:60 37:40 38:40 39:60 40:20 41:38 42:42 43:25 
-0.3924018659981644 1:0 2:0 3:0 4:0 5:0 6:0 7:0 8:100 9:0 10:0 11:-100 12:0 13:0 14:0 15:0 16:0 17:0 18:0 19:0 20:0 21:100 22:60 23:60 24:0 25:20 26:0 27:0 28:20 29:40 30:20 31:0 32:0 33:0 34:0 35:0 36:60 37:0 38:60 39:20 40:40 41:20 42:44 43:25 
8 1:0 2:0 3:0 4:0 5:0 6:0 7:0 8:100 9:0 10:0 11:-100 12:0 13:0 14:0 15:0 16:0 17:0 18:0 19:0 20:0 21:100 22:60 23:60 24:0 25:20 26:0 27:0 28:20 29:40 30:20 31:0 32:0 33:0 34:0 35:0 36:60 37:0 38:60 39:20 40:40 41:20 42:25 43:25 
0.0007827984350018346 1:0 2:100 3:0 4:0 5:0 6:0 7:-100 8:0 9:0 10:0 11:0 12:0 13:0 14:0 15:0 16:0 17:0 18:0 19:0 20:0 21:20 22:100 23:20 24:20 25:0 26:0 27:0 28:20 29:20 30:20 31:40 32:40 33:40 34:20 35:60 36:0 37:0 38:0 39:0 40:20 41:63 42:60 43:37 
-2.898865976496288 1:0 2:0 3:0 4:0 5:0 6:0 7:-100 8:0 9:0 10:0 11:0 12:0 13:0 14:0 15:0 16:0 17:0 18:0 19:0 20:100 21:60 22:160 23:20 24:0 25:60 26:0 27:0 28:80 29:40 30:0 31:0 32:40 33:0 34:0 35:0 36:100 37:0 38:120 39:20 40:40 41:26 42:54 43:25 
8 1:0 2:0 3:-100 4:0 5:0 6:0 7:0 8:0 9:100 10:0 11:0 12:0 13:0 14:0 15:0 16:0 17:0 18:0 19:0 20:0 21:0 22:40 23:20 24:0 25:20 26:20 27:40 28:40 29:20 30:0 31:60 32:40 33:0 34:0 35:60 36:20 37:0 38:20 39:20 40:20 41:51 42:45 43:25 
-2.12479501400363 1:-100 2:0 3:0 4:0 5:0 6:0 7:0 8:0 9:0 10:0 11:0 12:100 13:0 14:0 15:0 16:0 17:0 18:0 19:0 20:0 21:40 22:20 23:60 24:20 25:20 26:80 27:20 28:80 29:60 30:20 31:0 32:0 33:40 34:0 35:80 36:20 37:20 38:0 39:0 40:20 41:0 42:19 43:64 
-7.073080067170765 1:0 2:0 3:0 4:0 5:0 6:0 7:0 8:0 9:100 10:0 11:-100 12:0 13:0 14:0 15:0 16:0 17:0 18:0 19:0 20:0 21:100 22:60 23:60 24:0 25:20 26:0 27:0 28:20 29:40 30:20 31:0 32:0 33:0 34:0 35:0 36:60 37:0 38:60 39:20 40:40 41:20 42:44 43:25 
8 1:0 2:0 3:0 4:0 5:0 6:0 7:0 8:0 9:100 10:0 11:-100 12:0 13:0 14:0 15:0 16:0 17:0 18:0 19:0 20:0 21:100 22:60 23:60 24:0 25:20 26:0 27:0 28:20 29:40 30:20 31:0 32:0 33:0 34:0 35:0 36:60 37:0 38:60 39:20 40:40 41:20 42:21 43:25 
-6.479937873717103 1:0 2:0 3:0 4:0 5:0 6:0 7:0 8:0 9:100 10:0 11:-100 12:0 13:0 14:0 15:0 16:0 17:0 18:0 19:0 20:0 21:100 22:60 23:60 24:0 25:20 26:0 27:0 28:20 29:40 30:20 31:0 32:0 33:0 34:0 35:0 36:60 37:0 38:60 39:20 40:40 41:20 42:45 43:46 
2.729461526992142 1:0 2:0 3:0 4:0 5:0 6:0 7:0 8:0 9:0 10:0 11:100 12:-100 13:0 14:0 15:0 16:0 17:0 18:0 19:0 20:0 21:20 22:140 23:80 24:0 25:20 26:0 27:60 28:100 29:20 30:0 31:20 32:40 33:0 34:20 35:20 36:80 37:0 38:60 39:0 40:40 41:4 42:38 43:65 
0.2931110974438627 1:100 2:0 3:0 4:0 5:0 6:0 7:0 8:0 9:0 10:0 11:0 12:0 13:0 14:0 15:0 16:-100 17:0 18:0 19:0 20:0 21:0 22:20 23:20 24:20 25:20 26:0 27:40 28:60 29:0 30:40 31:0 32:40 33:0 34:0 35:0 36:60 37:0 38:20 39:20 40:0 41:83 42:32 43:25 
2.975070398603732 1:0 2:0 3:-100 4:0 5:0 6:0 7:0 8:0 9:100 10:0 11:0 12:0 13:0 14:0 15:0 16:0 17:0 18:0 19:0 20:0 21:100 22:140 23:80 24:20 25:40 26:20 27:0 28:60 29:40 30:0 31:40 32:20 33:0 34:100 35:40 36:40 37:20 38:40 39:0 40:40 41:0 42:78 43:76 
-4.317051741888823 1:0 2:0 3:0 4:0 5:0 6:0 7:0 8:0 9:0 10:0 11:100 12:0 13:0 14:0 15:-100 16:0 17:0 18:0 19:0 20:0 21:0 22:40 23:40 24:0 25:20 26:40 27:40 28:40 29:0 30:20 31:80 32:20 33:0 34:0 35:20 36:40 37:0 38:0 39:20 40:20 41:15 42:45 43:25 
-1.029492832104621 1:0 2:100 3:-100 4:0 5:0 6:0 7:0 8:0 9:0 10:0 11:0 12:0 13:0 14:0 15:0 16:0 17:0 18:0 19:0 20:0 21:100 22:140 23:80 24:20 25:40 26:20 27:0 28:60 29:40 30:0 31:40 32:20 33:0 34:100 35:40 36:40 37:20 38:40 39:0 40:40 41:0 42:78 43:76 
-0.5349934594525013 1:0 2:0 3:-100 4:100 5:0 6:0 7:0 8:0 9:0 10:0 11:0 12:0 13:0 14:0 15:0 16:0 17:0 18:0 19:0 20:0 21:100 22:140 23:80 24:20 25:40 26:20 27:0 28:60 29:40 30:0 31:40 32:20 33:0 34:100 35:40 36:40 37:20 38:40 39:0 40:40 41:0 42:78 43:76 
-4.174475825205656 1:0 2:0 3:0 4:0 5:0 6:0 7:0 8:0 9:0 10:0 11:0 12:0 13:0 14:100 15:0 16:0 17:0 18:0 19:-100 20:0 21:20 22:40 23:60 24:20 25:0 26:20 27:80 28:40 29:40 30:60 31:40 32:40 33:0 34:40 35:0 36:60 37:20 38:0 39:20 40:20 41:11 42:32 43:26 
-8 1:100 2:0 3:0 4:0 5:-100 6:0 7:0 8:0 9:0 10:0 11:0 12:0 13:0 14:0 15:0 16:0 17:0 18:0 19:0 20:0 21:40 22:60 23:40 24:20 25:0 26:0 27:0 28:20 29:0 30:0 31:60 32:20 33:0 34:20 35:40 36:20 37:0 38:0 39:0 40:20 41:31 42:50 43:25 
8 1:0 2:0 3:0 4:0 5:0 6:0 7:0 8:0 9:100 10:0 11:0 12:0 13:0 14:0 15:0 16:0 17:0 18:0 19:-100 20:0 21:20 22:0 23:0 24:0 25:20 26:20 27:40 28:80 29:0 30:60 31:60 32:20 33:0 34:40 35:20 36:20 37:0 38:20 39:20 40:0 41:46 42:50 43:25 
-3.85416024386336 1:0 2:0 3:0 4:0 5:0 6:0 7:0 8:0 9:100 10:0 11:0 12:0 13:0 14:0 15:0 16:0 17:0 18:0 19:-100 20:0 21:20 22:0 23:0 24:0 25:20 26:20 27:40 28:80 29:0 30:60 31:60 32:20 33:0 34:40 35:20 36:20 37:0 38:20 39:20 40:0 41:46 42:50 43:50 
-3.459389489436285 1:0 2:-100 3:0 4:0 5:0 6:0 7:0 8:0 9:100 10:0 11:0 12:0 13:0 14:0 15:0 16:0 17:0 18:0 19:0 20:0 21:0 22:40 23:20 24:0 25:0 26:0 27:40 28:20 29:80 30:20 31:20 32:20 33:0 34:20 35:0 36:100 37:40 38:20 39:0 40:20 41:32 42:68 43:82 
-4.37379119855637 1:0 2:100 3:0 4:0 5:-100 6:0 7:0 8:0 9:0 10:0 11:0 12:0 13:0 14:0 15:0 16:0 17:0 18:0 19:0 20:0 21:40 22:60 23:40 24:20 25:0 26:0 27:0 28:20 29:0 30:0 31:60 32:20 33:0 34:20 35:40 36:20 37:0 38:0 39:0 40:20 41:31 42:50 43:25 
5.262013134572746 1:0 2:100 3:0 4:-100 5:0 6:0 7:0 8:0 9:0 10:0 11:0 12:0 13:0 14:0 15:0 16:0 17:0 18:0 19:0 20:0 21:60 22:140 23:80 24:40 25:60 26:20 27:40 28:60 29:120 30:0 31:40 32:40 33:20 34:0 35:80 36:0 37:20 38:40 39:40 40:20 41:0 42:21 43:51 
-2.038098489475047 1:0 2:100 3:0 4:-100 5:0 6:0 7:0 8:0 9:0 10:0 11:0 12:0 13:0 14:0 15:0 16:0 17:0 18:0 19:0 20:0 21:60 22:140 23:80 24:40 25:60 26:20 27:40 28:60 29:120 30:0 31:40 32:40 33:20 34:0 35:80 36:0 37:20 38:40 39:40 40:20 41:0 42:40 43:64 
-0.7801329476519859 1:0 2:0 3:0 4:0 5:0 6:0 7:0 8:0 9:-100 10:0 11:100 12:0 13:0 14:0 15:0 16:0 17:0 18:0 19:0 20:0 21:60 22:80 23:100 24:20 25:20 26:60 27:20 28:20 29:80 30:0 31:0 32:0 33:40 34:0 35:60 36:20 37:20 38:0 39:0 40:40 41:0 42:19 43:64 
-8 1:-100 2:0 3:0 4:0 5:0 6:0 7:0 8:100 9:0 10:0 11:0 12:0 13:0 14:0 15:0 16:0 17:0 18:0 19:0 20:0 21:0 22:20 23:40 24:0 25:20 26:0 27:20 28:20 29:20 30:0 31:20 32:20 33:0 34:0 35:40 36:20 37:20 38:40 39:20 40:20 41:69 42:19 43:64 
-3.32220332131374 1:0 2:0 3:-100 4:0 5:0 6:0 7:0 8:0 9:0 10:0 11:0 12:0 13:100 14:0 15:0 16:0 17:0 18:0 19:0 20:0 21:100 22:40 23:80 24:60 25:60 26:20 27:40 28:0 29:60 30:0 31:0 32:20 33:20 34:0 35:80 36:0 37:0 38:40 39:60 40:60 41:10 42:14 43:41 
8 1:0 2:0 3:-100 4:0 5:0 6:0 7:0 8:0 9:0 10:0 11:0 12:0 13:100 14:0 15:0 16:0 17:0 18:0 19:0 20:0 21:100 22:40 23:80 24:60 25:60 26:20 27:40 28:0 29:60 30:0 31:0 32:20 33:20 34:0 35:80 36:0 37:0 38:40 39:60 40:60 41:10 42:14 43:41 
-8 1:0 2:0 3:-100 4:0 5:0 6:0 7:0 8:0 9:0 10:0 11:0 12:0 13:100 14:0 15:0 16:0 17:0 18:0 19:0 20:0 21:100 22:40 23:80 24:60 25:60 26:20 27:40 28:0 29:60 30:0 31:0 32:20 33:20 34:0 35:80 36:0 37:0 38:40 39:60 40:60 41:10 42:46 43:64 
8 1:0 2:0 3:-100 4:0 5:0 6:0 7:0 8:0 9:0 10:0 11:0 12:0 13:100 14:0 15:0 16:0 17:0 18:0 19:0 20:0 21:100 22:40 23:80 24:60 25:60 26:20 27:40 28:0 29:60 30:0 31:0 32:20 33:20 34:0 35:80 36:0 37:0 38:40 39:60 40:60 41:10 42:46 43:64 
6.207652819227415 1:0 2:0 3:0 4:100 5:0 6:0 7:0 8:0 9:0 10:0 11:0 12:0 13:0 14:0 15:-100 16:0 17:0 18:0 19:0 20:0 21:0 22:40 23:40 24:0 25:20 26:40 27:40 28:40 29:0 30:20 31:80 32:20 33:0 34:0 35:20 36:40 37:0 38:0 39:20 40:20 41:15 42:45 43:25 
-8 1:0 2:0 3:0 4:100 5:0 6:0 7:0 8:0 9:0 10:0 11:0 12:0 13:0 14:0 15:-100 16:0 17:0 18:0 19:0 20:0 21:0 22:40 23:40 24:0 25:20 26:40 27:40 28:40 29:0 30:20 31:80 32:20 33:0 34:0 35:20 36:40 37:0 38:0 39:20 40:20 41:15 42:31 43:25 
-1.630378109917164 1:-100 2:0 3:0 4:0 5:0 6:0 7:0 8:0 9:100 10:0 11:0 12:0 13:0 14:0 15:0 16:0 17:0 18:0 19:0 20:0 21:20 22:60 23:60 24:20 25:40 26:0 27:80 28:20 29:40 30:20 31:0 32:20 33:0 34:20 35:0 36:140 37:0 38:120 39:0 40:20 41:5 42:37 43:5 
8 1:0 2:0 3:0 4:0 5:0 6:0 7:0 8:0 9:100 10:0 11:0 12:0 13:0 14:0 15:0 16:0 17:0 18:0 19:0 20:-100 21:140 22:0 23:40 24:0 25:40 26:0 27:20 28:20 29:60 30:20 31:20 32:40 33:60 34:60 35:0 36:40 37:40 38:0 39:60 40:20 41:8 42:8 43:25 
-6.722536491746072 1:0 2:0 3:0 4:0 5:0 6:0 7:0 8:0 9:100 10:0 11:0 12:0 13:0 14:0 15:0 16:0 17:0 18:0 19:0 20:-100 21:140 22:0 23:40 24:0 25:40 26:0 27:20 28:20 29:60 30:20 31:20 32:40 33:60 34:60 35:0 36:40 37:40 38:0 39:60 40:20 41:8 42:42 43:25 
0.6551738144045661 1:0 2:0 3:0 4:0 5:0 6:0 7:0 8:0 9:0 10:0 11:0 12:0 13:0 14:0 15:-100 16:100 17:0 18:0 19:0 20:0 21:0 22:40 23:40 24:0 25:20 26:40 27:40 28:40 29:0 30:20 31:80 32:20 33:0 34:0 35:20 36:40 37:0 38:0 39:20 40:20 41:15 42:45 43:25 
0.6124220756014918 1:0 2:-100 3:0 4:0 5:0 6:0 7:0 8:0 9:100 10:0 11:0 12:0 13:0 14:0 15:0 16:0 17:0 18:0 19:0 20:0 21:80 22:100 23:20 24:40 25:40 26:20 27:20 28:20 29:60 30:20 31:40 32:60 33:0 34:0 35:100 36:20 37:40 38:20 39:40 40:60 41:0 42:21 43:51 
8 1:0 2:-100 3:0 4:0 5:0 6:0 7:0 8:0 9:100 10:0 11:0 12:0 13:0 14:0 15:0 16:0 17:0 18:0 19:0 20:0 21:80 22:100 23:20 24:40 25:40 26:20 27:20 28:20 29:60 30:20 31:40 32:60 33:0 34:0 35:100 36:20 37:40 38:20 39:40 40:60 41:0 42:38 43:65 
8 1:0 2:-100 3:0 4:0 5:0 6:0 7:0 8:0 9:100 10:0 11:0 12:0 13:0 14:0 15:0 16:0 17:0 18:0 19:0 20:0 21:80 22:100 23:20 24:40 25:40 26:20 27:20 28:20 29:60 30:20 31:40 32:60 33:0 34:0 35:100 36:20 37:40 38:20 39:40 40:60 41:0 42:21 43:51 
0.3159636136384624 1:0 2:0 3:-100 4:100 5:0 6:0 7:0 8:0 9:0 10:0 11:0 12:0 13:0 14:0 15:0 16:0 17:0 18:0 19:0 20:0 21:60 22:80 23:40 24:20 25:20 26:60 27:40 28:20 29:160 30:0 31:100 32:80 33:80 34:0 35:40 36:20 37:20 38:20 39:100 40:60 41:1 42:19 43:64 
8 1:0 2:0 3:0 4:0 5:0 6:0 7:0 8:-100 9:100 10:0 11:0 12:0 13:0 14:0 15:0 16:0 17:0 18:0 19:0 20:0 21:80 22:60 23:60 24:20 25:0 26:0 27:20 28:20 29:20 30:0 31:40 32:20 33:0 34:0 35:0 36:40 37:0 38:0 39:20 40:0 41:23 42:50 43:25 
-7.83672094385109 1:0 2:0 3:0 4:0 5:0 6:0 7:-100 8:0 9:100 10:0 11:0 12:0 13:0 14:0 15:0 16:0 17:0 18:0 19:0 20:0 21:40 22:60 23:40 24:40 25:40 26:0 27:40 28:0 29:100 30:0 31:40 32:40 33:0 34:40 35:0 36:140 37:20 38:140 39:0 40:60 41:1 42:37 43:5 
-0.9271587996668561 1:0 2:-100 3:0 4:100 5:0 6:0 7:0 8:0 9:0 10:0 11:0 12:0 13:0 14:0 15:0 16:0 17:0 18:0 19:0 20:0 21:80 22:100 23:20 24:40 25:40 26:20 27:20 28:20 29:60 30:20 31:40 32:60 33:0 34:0 35:100 36:20 37:40 38:20 39:40 40:60 41:0 42:38 43:65 
6.597871606100799 1:0 2:0 3:0 4:0 5:100 6:0 7:-100 8:0 9:0 10:0 11:0 12:0 13:0 14:0 15:0 16:0 17:0 18:0 19:0 20:0 21:40 22:60 23:40 24:40 25:40 26:0 27:40 28:0 29:100 30:0 31:40 32:40 33:0 34:40 35:0 36:140 37:20 38:140 39:0 40:60 41:1 42:37 43:5 
-8 1:0 2:0 3:0 4:0 5:0 6:0 7:0 8:0 9:0 10:0 11:0 12:-100 13:0 14:0 15:100 16:0 17:0 18:0 19:0 20:0 21:40 22:0 23:20 24:40 25:20 26:20 27:20 28:20 29:60 30:0 31:0 32:60 33:20 34:0 35:60 36:20 37:0 38:0 39:0 40:40 41:41 42:14 43:42 
-8 1:0 2:0 3:0 4:0 5:0 6:0 7:0 8:0 9:0 10:0 11:0 12:-100 13:0 14:0 15:100 16:0 17:0 18:0 19:0 20:0 21:40 22:0 23:20 24:40 25:20 26:20 27:20 28:20 29:60 30:0 31:0 32:60 33:20 34:0 35:60 36:20 37:0 38:0 39:0 40:40 41:41 42:14 43:38 
8 1:0 2:0 3:0 4:0 5:0 6:0 7:0 8:0 9:0 10:0 11:0 12:-100 13:0 14:0 15:100 16:0 17:0 18:0 19:0 20:0 21:40 22:0 23:20 24:40 25:20 26:20 27:20 28:20 29:60 30:0 31:0 32:60 33:20 34:0 35:60 36:20 37:0 38:0 39:0 40:40 41:41 42:17 43:46 
8 1:0 2:0 3:0 4:0 5:0 6:0 7:0 8:0 9:0 10:0 11:0 12:-100 13:0 14:0 15:100 16:0 17:0 18:0 19:0 20:0 21:40 22:0 23:20 24:40 25:20 26:20 27:20 28:20 29:60 30:0 31:0 32:60 33:20 34:0 35:60 36:20 37:0 38:0 39:0 40:40 41:41 42:21 43:53 
4.868692092047619 1:0 2:0 3:0 4:0 5:0 6:0 7:0 8:0 9:0 10:0 11:100 12:-100 13:0 14:0 15:0 16:0 17:0 18:0 19:0 20:0 21:40 22:0 23:20 24:40 25:20 26:20 27:20 28:20 29:60 30:0 31:0 32:60 33:20 34:0 35:60 36:20 37:0 38:0 39:0 40:40 41:41 42:14 43:42 
-2.436683315476707 1:0 2:-100 3:0 4:0 5:0 6:0 7:0 8:0 9:100 10:0 11:0 12:0 13:0 14:0 15:0 16:0 17:0 18:0 19:0 20:0 21:60 22:100 23:0 24:40 25:40 26:20 27:20 28:40 29:80 30:20 31:40 32:40 33:0 34:0 35:40 36:60 37:40 38:40 39:60 40:0 41:5 42:21 43:51 
-0.001388937556680747 1:0 2:-100 3:0 4:0 5:0 6:0 7:0 8:0 9:100 10:0 11:0 12:0 13:0 14:0 15:0 16:0 17:0 18:0 19:0 20:0 21:60 22:100 23:0 24:40 25:40 26:20 27:20 28:40 29:80 30:20 31:40 32:40 33:0 34:0 35:40 36:60 37:40 38:40 39:60 40:0 41:5 42:21 43:51 
-0.574170899773791 1:0 2:-100 3:0 4:0 5:0 6:0 7:0 8:0 9:100 10:0 11:0 12:0 13:0 14:0 15:0 16:0 17:0 18:0 19:0 20:0 21:200 22:60 23:80 24:0 25:20 26:20 27:0 28:40 29:40 30:40 31:20 32:20 33:0 34:0 35:60 36:60 37:20 38:60 39:20 40:40 41:0 42:45 43:25 
-0.3891711404049164 1:0 2:-100 3:0 4:0 5:0 6:0 7:0 8:0 9:100 10:0 11:0 12:0 13:0 14:0 15:0 16:0 17:0 18:0 19:0 20:0 21:200 22:60 23:80 24:0 25:20 26:20 27:0 28:40 29:40 30:40 31:20 32:20 33:0 34:0 35:60 36:60 37:20 38:60 39:20 40:40 41:0 42:25 43:25 
8 1:0 2:-100 3:0 4:100 5:0 6:0 7:0 8:0 9:0 10:0 11:0 12:0 13:0 14:0 15:0 16:0 17:0 18:0 19:0 20:0 21:60 22:60 23:20 24:60 25:40 26:40 27:20 28:40 29:100 30:0 31:40 32:60 33:0 34:0 35:100 36:40 37:0 38:20 39:60 40:20 41:0 42:38 43:65 
-8 1:0 2:0 3:100 4:0 5:0 6:0 7:0 8:0 9:0 10:0 11:0 12:-100 13:0 14:0 15:0 16:0 17:0 18:0 19:0 20:0 21:40 22:0 23:20 24:40 25:20 26:20 27:20 28:20 29:60 30:0 31:0 32:60 33:20 34:0 35:60 36:20 37:0 38:0 39:0 40:40 41:41 42:14 43:42 
-8 1:0 2:0 3:100 4:0 5:0 6:0 7:0 8:0 9:0 10:0 11:0 12:-100 13:0 14:0 15:0 16:0 17:0 18:0 19:0 20:0 21:40 22:0 23:20 24:40 25:20 26:20 27:20 28:20 29:60 30:0 31:0 32:60 33:20 34:0 35:60 36:20 37:0 38:0 39:0 40:40 41:41 42:28 43:62 
5.867678062079129 1:0 2:0 3:100 4:0 5:0 6:0 7:0 8:0 9:0 10:0 11:0 12:-100 13:0 14:0 15:0 16:0 17:0 18:0 19:0 20:0 21:40 22:0 23:20 24:40 25:20 26:20 27:20 28:20 29:60 30:0 31:0 32:60 33:20 34:0 35:60 36:20 37:0 38:0 39:0 40:40 41:41 42:42 43:64 
-2.671129819215734 1:0 2:0 3:100 4:0 5:0 6:0 7:0 8:0 9:0 10:0 11:0 12:-100 13:0 14:0 15:0 16:0 17:0 18:0 19:0 20:0 21:40 22:0 23:20 24:40 25:20 26:20 27:20 28:20 29:60 30:0 31:0 32:60 33:20 34:0 35:60 36:20 37:0 38:0 39:0 40:40 41:41 42:14 43:38 
8 1:0 2:0 3:100 4:0 5:0 6:0 7:0 8:0 9:0 10:0 11:0 12:-100 13:0 14:0 15:0 16:0 17:0 18:0 19:0 20:0 21:40 22:0 23:20 24:40 25:20 26:20 27:20 28:20 29:60 30:0 31:0 32:60 33:20 34:0 35:60 36:20 37:0 38:0 39:0 40:40 41:41 42:21 43:53 
0.04877139747588884 1:0 2:0 3:0 4:0 5:0 6:0 7:0 8:0 9:0 10:0 11:0 12:-100 13:0 14:0 15:0 16:0 17:0 18:0 19:0 20:100 21:40 22:0 23:20 24:40 25:20 26:20 27:20 28:20 29:60 30:0 31:0 32:60 33:20 34:0 35:60 36:20 37:0 38:0 39:0 40:40 41:41 42:14 43:42 
4.470466039107258 1:0 2:0 3:0 4:0 5:0 6:0 7:0 8:0 9:100 10:0 11:0 12:0 13:0 14:0 15:0 16:0 17:0 18:0 19:0 20:-100 21:0 22:0 23:0 24:20 25:20 26:0 27:40 28:0 29:60 30:0 31:0 32:80 33:0 34:0 35:0 36:20 37:0 38:0 39:0 40:40 41:79 42:50 43:25 
-8 1:0 2:0 3:0 4:0 5:100 6:0 7:0 8:0 9:0 10:0 11:0 12:-100 13:0 14:0 15:0 16:0 17:0 18:0 19:0 20:0 21:40 22:0 23:20 24:40 25:20 26:20 27:20 28:20 29:60 30:0 31:0 32:60 33:20 34:0 35:60 36:20 37:0 38:0 39:0 40:40 41:41 42:14 43:42 
5.053693058432923 1:0 2:0 3:0 4:0 5:0 6:0 7:0 8:0 9:0 10:0 11:0 12:0 13:0 14:0 15:0 16:0 17:0 18:0 19:-100 20:100 21:40 22:0 23:20 24:20 25:0 26:60 27:20 28:40 29:20 30:0 31:20 32:0 33:0 34:0 35:40 36:40 37:0 38:0 39:20 40:20 41:65 42:67 43:20 
-8 1:0 2:0 3:0 4:0 5:0 6:0 7:0 8:0 9:100 10:0 11:0 12:-100 13:0 14:0 15:0 16:0 17:0 18:0 19:0 20:0 21:40 22:0 23:20 24:40 25:20 26:20 27:20 28:20 29:60 30:0 31:0 32:60 33:20 34:0 35:60 36:20 37:0 38:0 39:0 40:40 41:41 42:14 43:42 
0.3494128761522083 1:0 2:0 3:0 4:0 5:0 6:0 7:0 8:0 9:100 10:0 11:0 12:-100 13:0 14:0 15:0 16:0 17:0 18:0 19:0 20:0 21:40 22:0 23:20 24:40 25:20 26:20 27:20 28:20 29:60 30:0 31:0 32:60 33:20 34:0 35:60 36:20 37:0 38:0 39:0 40:40 41:41 42:17 43:46 
8 1:0 2:0 3:0 4:0 5:0 6:0 7:0 8:0 9:100 10:0 11:0 12:-100 13:0 14:0 15:0 16:0 17:0 18:0 19:0 20:0 21:40 22:0 23:20 24:40 25:20 26:20 27:20 28:20 29:60 30:0 31:0 32:60 33:20 34:0 35:60 36:20 37:0 38:0 39:0 40:40 41:41 42:21 43:53 
-0.3500177281279098 1:0 2:0 3:100 4:0 5:0 6:0 7:0 8:0 9:0 10:0 11:0 12:-100 13:0 14:0 15:0 16:0 17:0 18:0 19:0 20:0 21:60 22:160 23:40 24:0 25:40 26:60 27:40 28:60 29:60 30:20 31:60 32:20 33:40 34:40 35:0 36:20 37:20 38:20 39:20 40:0 41:0 42:14 43:20 
8 1:0 2:100 3:0 4:-100 5:0 6:0 7:0 8:0 9:0 10:0 11:0 12:0 13:0 14:0 15:0 16:0 17:0 18:0 19:0 20:0 21:40 22:40 23:20 24:0 25:40 26:0 27:20 28:0 29:0 30:20 31:40 32:40 33:80 34:40 35:0 36:100 37:0 38:0 39:80 40:80 41:0 42:17 43:25 
-8 1:0 2:100 3:0 4:-100 5:0 6:0 7:0 8:0 9:0 10:0 11:0 12:0 13:0 14:0 15:0 16:0 17:0 18:0 19:0 20:0 21:40 22:40 23:20 24:0 25:40 26:0 27:20 28:0 29:0 30:20 31:40 32:40 33:80 34:40 35:0 36:100 37:0 38:0 39:80 40:80 41:0 42:21 43:25 
-8 1:0 2:100 3:0 4:-100 5:0 6:0 7:0 8:0 9:0 10:0 11:0 12:0 13:0 14:0 15:0 16:0 17:0 18:0 19:0 20:0 21:40 22:40 23:20 24:0 25:40 26:0 27:20 28:0 29:0 30:20 31:40 32:40 33:80 34:40 35:0 36:100 37:0 38:0 39:80 40:80 41:0 42:25 43:25 
8 1:0 2:100 3:0 4:-100 5:0 6:0 7:0 8:0 9:0 10:0 11:0 12:0 13:0 14:0 15:0 16:0 17:0 18:0 19:0 20:0 21:40 22:40 23:20 24:0 25:40 26:0 27:20 28:0 29:0 30:20 31:40 32:40 33:80 34:40 35:0 36:100 37:0 38:0 39:80 40:80 41:0 42:28 43:25 
-8 1:0 2:100 3:0 4:-100 5:0 6:0 7:0 8:0 9:0 10:0 11:0 12:0 13:0 14:0 15:0 16:0 17:0 18:0 19:0 20:0 21:40 22:40 23:20 24:0 25:40 26:0 27:20 28:0 29:0 30:20 31:40 32:40 33:80 34:40 35:0 36:100 37:0 38:0 39:80 40:80 41:0 42:35 43:25 
-8 1:0 2:100 3:0 4:-100 5:0 6:0 7:0 8:0 9:0 10:0 11:0 12:0 13:0 14:0 15:0 16:0 17:0 18:0 19:0 20:0 21:40 22:40 23:20 24:0 25:40 26:0 27:20 28:0 29:0 30:20 31:40 32:40 33:80 34:40 35:0 36:100 37:0 38:0 39:80 40:80 41:0 42:42 43:25 
8 1:0 2:100 3:0 4:-100 5:0 6:0 7:0 8:0 9:0 10:0 11:0 12:0 13:0 14:0 15:0 16:0 17:0 18:0 19:0 20:0 21:40 22:40 23:20 24:0 25:40 26:0 27:20 28:0 29:0 30:20 31:40 32:40 33:80 34:40 35:0 36:100 37:0 38:0 39:80 40:80 41:0 42:50 43:25 
7.234082558577475 1:0 2:100 3:0 4:-100 5:0 6:0 7:0 8:0 9:0 10:0 11:0 12:0 13:0 14:0 15:0 16:0 17:0 18:0 19:0 20:0 21:40 22:40 23:20 24:0 25:40 26:0 27:20 28:0 29:0 30:20 31:40 32:40 33:80 34:40 35:0 36:100 37:0 38:0 39:80 40:80 41:0 42:57 43:25 
2.926120552563953 1:0 2:0 3:0 4:0 5:0 6:0 7:0 8:0 9:-100 10:0 11:0 12:0 13:0 14:0 15:0 16:0 17:0 18:0 19:0 20:100 21:0 22:60 23:20 24:0 25:0 26:0 27:20 28:0 29:40 30:20 31:60 32:20 33:0 34:0 35:0 36:60 37:0 38:20 39:20 40:20 41:35 42:38 43:65 
-5.508095764288592 1:0 2:-100 3:0 4:0 5:0 6:0 7:0 8:0 9:100 10:0 11:0 12:0 13:0 14:0 15:0 16:0 17:0 18:0 19:0 20:0 21:40 22:40 23:60 24:20 25:20 26:0 27:60 28:20 29:60 30:20 31:0 32:20 33:0 34:20 35:0 36:140 37:0 38:100 39:0 40:40 41:1 42:37 43:5 
-8 1:-100 2:0 3:0 4:0 5:0 6:0 7:0 8:0 9:0 10:0 11:0 12:100 13:0 14:0 15:0 16:0 17:0 18:0 19:0 20:0 21:0 22:40 23:20 24:20 25:40 26:0 27:0 28:40 29:0 30:0 31:60 32:0 33:0 34:0 35:0 36:20 37:20 38:0 39:0 40:20 41:68 42:50 43:25 
-3.999169394237776 1:0 2:100 3:0 4:0 5:-100 6:0 7:0 8:0 9:0 10:0 11:0 12:0 13:0 14:0 15:0 16:0 17:0 18:0 19:0 20:0 21:40 22:40 23:100 24:0 25:0 26:0 27:80 28:20 29:40 30:0 31:20 32:100 33:0 34:0 35:40 36:40 37:0 38:0 39:60 40:100 41:14 42:43 43:25 
-8 1:0 2:0 3:0 4:0 5:0 6:0 7:0 8:0 9:0 10:0 11:0 12:0 13:0 14:0 15:0 16:0 17:0 18:0 19:-100 20:100 21:40 22:40 23:20 24:0 25:20 26:20 27:20 28:60 29:80 30:20 31:40 32:20 33:0 34:0 35:20 36:40 37:20 38:0 39:0 40:20 41:18 42:45 43:25 
-2.053116350995857 1:0 2:0 3:0 4:0 5:0 6:0 7:0 8:0 9:0 10:0 11:0 12:0 13:0 14:0 15:0 16:0 17:100 18:-100 19:0 20:0 21:60 22:20 23:40 24:0 25:0 26:20 27:0 28:20 29:20 30:40 31:20 32:20 33:0 34:0 35:0 36:40 37:20 38:60 39:0 40:20 41:50 42:44 43:25 
-6.990508016584102 1:-100 2:0 3:0 4:0 5:0 6:0 7:0 8:0 9:0 10:100 11:0 12:0 13:0 14:0 15:0 16:0 17:0 18:0 19:0 20:0 21:0 22:40 23:20 24:20 25:40 26:0 27:0 28:40 29:0 30:0 31:60 32:0 33:0 34:0 35:0 36:20 37:20 38:0 39:0 40:20 41:68 42:50 43:25 
3.619344282527999 1:0 2:0 3:0 4:0 5:0 6:0 7:0 8:0 9:0 10:0 11:0 12:0 13:0 14:0 15:0 16:100 17:0 18:-100 19:0 20:0 21:0 22:20 23:0 24:20 25:0 26:20 27:60 28:20 29:0 30:0 31:0 32:80 33:0 34:0 35:20 36:40 37:40 38:0 39:20 40:20 41:47 42:38 43:65 
-8 1:100 2:0 3:0 4:0 5:0 6:0 7:0 8:0 9:-100 10:0 11:0 12:0 13:0 14:0 15:0 16:0 17:0 18:0 19:0 20:0 21:0 22:60 23:20 24:0 25:0 26:0 27:20 28:0 29:40 30:20 31:60 32:20 33:0 34:0 35:0 36:60 37:0 38:20 39:20 40:20 41:35 42:38 43:66 
8 1:100 2:0 3:0 4:0 5:0 6:0 7:0 8:0 9:-100 10:0 11:0 12:0 13:0 14:0 15:0 16:0 17:0 18:0 19:0 20:0 21:0 22:60 23:20 24:0 25:0 26:0 27:20 28:0 29:40 30:20 31:60 32:20 33:0 34:0 35:0 36:60 37:0 38:20 39:20 40:20 41:35 42:14 43:41 
6.95027472444347 1:100 2:0 3:0 4:0 5:0 6:0 7:0 8:0 9:-100 10:0 11:0 12:0 13:0 14:0 15:0 16:0 17:0 18:0 19:0 20:0 21:0 22:60 23:20 24:0 25:0 26:0 27:20 28:0 29:40 30:20 31:60 32:20 33:0 34:0 35:0 36:60 37:0 38:20 39:20 40:20 41:35 42:20 43:51 
-8 1:0 2:0 3:0 4:0 5:0 6:0 7:0 8:0 9:0 10:0 11:0 12:0 13:0 14:0 15:0 16:-100 17:0 18:100 19:0 20:0 21:40 22:80 23:20 24:0 25:20 26:0 27:0 28:20 29:40 30:0 31:80 32:40 33:0 34:0 35:0 36:40 37:20 38:20 39:0 40:0 41:44 42:50 43:30 
5.68378581930253 1:0 2:0 3:0 4:0 5:0 6:0 7:0 8:0 9:0 10:0 11:0 12:0 13:0 14:0 15:0 16:-100 17:0 18:100 19:0 20:0 21:40 22:80 23:20 24:0 25:20 26:0 27:0 28:20 29:40 30:0 31:80 32:40 33:0 34:0 35:0 36:40 37:20 38:20 39:0 40:0 41:44 42:50 43:63 
6.987091151183185 1:0 2:0 3:0 4:0 5:0 6:0 7:0 8:0 9:0 10:0 11:0 12:0 13:0 14:0 15:0 16:-100 17:0 18:100 19:0 20:0 21:40 22:80 23:20 24:0 25:20 26:0 27:0 28:20 29:40 30:0 31:80 32:40 33:0 34:0 35:0 36:40 37:20 38:20 39:0 40:0 41:44 42:50 43:25 
1.483327837453211 1:0 2:0 3:0 4:0 5:0 6:0 7:0 8:0 9:100 10:0 11:0 12:0 13:0 14:0 15:0 16:0 17:0 18:0 19:-100 20:0 21:40 22:60 23:0 24:20 25:20 26:0 27:0 28:20 29:60 30:0 31:20 32:20 33:0 34:0 35:40 36:20 37:40 38:20 39:20 40:0 41:52 42:21 43:51 
-3.577257614368386 1:0 2:0 3:0 4:0 5:0 6:0 7:0 8:0 9:-100 10:0 11:100 12:0 13:0 14:0 15:0 16:0 17:0 18:0 19:0 20:0 21:0 22:60 23:20 24:0 25:0 26:0 27:20 28:0 29:40 30:20 31:60 32:20 33:0 34:0 35:0 36:60 37:0 38:20 39:20 40:20 41:35 42:21 43:51 
-2.309546107357649 1:0 2:0 3:0 4:0 5:0 6:0 7:0 8:0 9:100 10:0 11:0 12:0 13:0 14:0 15:0 16:0 17:0 18:0 19:-100 20:0 21:20 22:0 23:40 24:0 25:80 26:0 27:80 28:60 29:40 30:40 31:20 32:40 33:100 34:0 35:60 36:40 37:20 38:20 39:20 40:20 41:14 42:50 43:39 
0.8817702224510422 1:0 2:0 3:0 4:0 5:0 6:0 7:0 8:0 9:100 10:0 11:0 12:0 13:0 14:0 15:0 16:0 17:0 18:-100 19:0 20:0 21:60 22:20 23:40 24:0 25:0 26:20 27:0 28:20 29:20 30:40 31:20 32:20 33:0 34:0 35:0 36:40 37:20 38:60 39:0 40:20 41:50 42:44 43:25 
8 1:0 2:0 3:0 4:0 5:0 6:0 7:0 8:100 9:0 10:0 11:0 12:0 13:0 14:0 15:0 16:-100 17:0 18:0 19:0 20:0 21:40 22:80 23:20 24:0 25:20 26:0 27:0 28:20 29:40 30:0 31:80 32:40 33:0 34:0 35:0 36:40 37:20 38:20 39:0 40:0 41:44 42:50 43:25 
-2.272745124748469 1:-100 2:0 3:0 4:0 5:0 6:0 7:0 8:0 9:0 10:0 11:100 12:0 13:0 14:0 15:0 16:0 17:0 18:0 19:0 20:0 21:0 22:100 23:20 24:0 25:0 26:60 27:20 28:20 29:20 30:20 31:80 32:40 33:80 34:20 35:40 36:40 37:0 38:40 39:40 40:0 41:0 42:32 43:64 
0.9829595045777356 1:-100 2:0 3:0 4:0 5:0 6:0 7:0 8:0 9:0 10:0 11:0 12:0 13:100 14:0 15:0 16:0 17:0 18:0 19:0 20:0 21:0 22:40 23:20 24:20 25:40 26:0 27:0 28:40 29:0 30:0 31:60 32:0 33:0 34:0 35:0 36:20 37:20 38:0 39:0 40:20 41:68 42:50 43:25 
-8 1:-100 2:0 3:0 4:0 5:0 6:0 7:0 8:0 9:0 10:0 11:0 12:0 13:100 14:0 15:0 16:0 17:0 18:0 19:0 20:0 21:0 22:40 23:20 24:20 25:40 26:0 27:0 28:40 29:0 30:0 31:60 32:0 33:0 34:0 35:0 36:20 37:20 38:0 39:0 40:20 41:68 42:50 43:25 
2.897426948055573 1:0 2:100 3:0 4:-100 5:0 6:0 7:0 8:0 9:0 10:0 11:0 12:0 13:0 14:0 15:0 16:0 17:0 18:0 19:0 20:0 21:40 22:80 23:0 24:0 25:40 26:20 27:0 28:0 29:40 30:0 31:40 32:20 33:0 34:0 35:60 36:40 37:40 38:20 39:40 40:20 41:16 42:21 43:47 
-7.985841479599822 1:0 2:0 3:-100 4:0 5:0 6:0 7:0 8:0 9:100 10:0 11:0 12:0 13:0 14:0 15:0 16:0 17:0 18:0 19:0 20:0 21:120 22:100 23:40 24:60 25:80 26:20 27:20 28:40 29:80 30:0 31:0 32:20 33:20 34:0 35:80 36:0 37:20 38:40 39:40 40:80 41:4 42:21 43:51 
-2.762312479043786 1:100 2:0 3:-100 4:0 5:0 6:0 7:0 8:0 9:0 10:0 11:0 12:0 13:0 14:0 15:0 16:0 17:0 18:0 19:0 20:0 21:60 22:60 23:20 24:40 25:0 26:60 27:20 28:80 29:60 30:20 31:20 32:0 33:20 34:0 35:60 36:20 37:20 38:0 39:20 40:40 41:8 42:19 43:64 
8 1:100 2:0 3:-100 4:0 5:0 6:0 7:0 8:0 9:0 10:0 11:0 12:0 13:0 14:0 15:0 16:0 17:0 18:0 19:0 20:0 21:60 22:60 23:20 24:40 25:0 26:60 27:20 28:80 29:60 30:20 31:20 32:0 33:20 34:0 35:60 36:20 37:20 38:0 39:20 40:40 41:6 42:19 43:49 
0.8851818947309545 1:0 2:0 3:0 4:0 5:100 6:0 7:0 8:0 9:0 10:0 11:0 12:0 13:0 14:0 15:0 16:0 17:0 18:0 19:-100 20:0 21:20 22:60 23:20 24:40 25:20 26:40 27:20 28:20 29:60 30:0 31:40 32:20 33:0 34:0 35:60 36:20 37:0 38:20 39:40 40:20 41:28 42:38 43:66 
2.341314092522794 1:0 2:0 3:0 4:0 5:0 6:0 7:0 8:0 9:0 10:0 11:-100 12:0 13:0 14:100 15:0 16:0 17:0 18:0 19:0 20:0 21:0 22:60 23:40 24:0 25:0 26:0 27:0 28:40 29:60 30:0 31:20 32:20 33:20 34:0 35:20 36:40 37:0 38:20 39:60 40:20 41:57 42:21 43:51 
0.4797173786360075 1:0 2:0 3:-100 4:0 5:0 6:0 7:0 8:0 9:100 10:0 11:0 12:0 13:0 14:0 15:0 16:0 17:0 18:0 19:0 20:0 21:20 22:100 23:80 24:20 25:60 26:0 27:20 28:60 29:20 30:0 31:0 32:40 33:0 34:20 35:60 36:60 37:20 38:80 39:20 40:60 41:2 42:21 43:51 
-8 1:0 2:0 3:0 4:0 5:0 6:0 7:-100 8:100 9:0 10:0 11:0 12:0 13:0 14:0 15:0 16:0 17:0 18:0 19:0 20:0 21:20 22:20 23:0 24:40 25:20 26:0 27:40 28:20 29:20 30:40 31:100 32:120 33:80 34:0 35:40 36:100 37:20 38:20 39:100 40:20 41:2 42:35 43:63 
3.237795484663137 1:0 2:0 3:0 4:0 5:100 6:0 7:-100 8:0 9:0 10:0 11:0 12:0 13:0 14:0 15:0 16:0 17:0 18:0 19:0 20:0 21:20 22:20 23:0 24:40 25:20 26:0 27:40 28:20 29:20 30:40 31:100 32:120 33:80 34:0 35:40 36:100 37:20 38:20 39:100 40:20 41:2 42:35 43:63 
1.550506327055496 1:0 2:0 3:0 4:0 5:0 6:0 7:0 8:0 9:0 10:0 11:0 12:0 13:0 14:0 15:-100 16:0 17:100 18:0 19:0 20:0 21:20 22:80 23:20 24:0 25:0 26:0 27:0 28:40 29:0 30:40 31:0 32:0 33:0 34:0 35:40 36:20 37:60 38:0 39:0 40:20 41:51 42:35 43:25 
0.8894591614386864 1:0 2:0 3:0 4:0 5:0 6:0 7:0 8:0 9:0 10:0 11:0 12:0 13:0 14:0 15:0 16:-100 17:0 18:0 19:0 20:100 21:60 22:40 23:0 24:20 25:40 26:0 27:0 28:60 29:40 30:0 31:0 32:20 33:40 34:20 35:0 36:100 37:0 38:40 39:20 40:0 41:39 42:53 43:25 
-8 1:0 2:0 3:0 4:0 5:0 6:0 7:0 8:0 9:0 10:0 11:-100 12:0 13:0 14:0 15:0 16:0 17:0 18:0 19:0 20:100 21:0 22:40 23:20 24:0 25:0 26:0 27:40 28:20 29:40 30:20 31:40 32:20 33:0 34:0 35:0 36:60 37:0 38:20 39:20 40:0 41:44 42:14 43:40 
4.182621629444398 1:0 2:0 3:0 4:0 5:0 6:0 7:0 8:0 9:0 10:0 11:-100 12:0 13:0 14:0 15:0 16:0 17:0 18:0 19:0 20:100 21:0 22:40 23:20 24:0 25:0 26:0 27:40 28:20 29:40 30:20 31:40 32:20 33:0 34:0 35:0 36:60 37:0 38:20 39:20 40:0 41:44 42:49 43:66 
-5.964264028595371 1:0 2:0 3:0 4:0 5:0 6:0 7:0 8:0 9:0 10:0 11:-100 12:0 13:0 14:0 15:0 16:0 17:0 18:0 19:0 20:100 21:0 22:40 23:20 24:0 25:0 26:0 27:40 28:20 29:40 30:20 31:40 32:20 33:0 34:0 35:0 36:60 37:0 38:20 39:20 40:0 41:44 42:21 43:53 
8 1:0 2:0 3:0 4:0 5:0 6:0 7:0 8:0 9:0 10:0 11:-100 12:0 13:0 14:0 15:0 16:0 17:0 18:0 19:0 20:100 21:0 22:40 23:20 24:0 25:0 26:0 27:40 28:20 29:40 30:20 31:40 32:20 33:0 34:0 35:0 36:60 37:0 38:20 39:20 40:0 41:44 42:38 43:66 
0.478765278769088 1:100 2:-100 3:0 4:0 5:0 6:0 7:0 8:0 9:0 10:0 11:0 12:0 13:0 14:0 15:0 16:0 17:0 18:0 19:0 20:0 21:60 22:100 23:60 24:40 25:60 26:0 27:40 28:60 29:60 30:0 31:0 32:40 33:20 34:0 35:20 36:160 37:20 38:100 39:0 40:40 41:2 42:14 43:83 
8 1:0 2:100 3:0 4:0 5:0 6:0 7:0 8:0 9:0 10:0 11:0 12:0 13:0 14:0 15:0 16:0 17:0 18:-100 19:0 20:0 21:60 22:40 23:0 24:20 25:20 26:0 27:0 28:40 29:40 30:0 31:20 32:20 33:0 34:0 35:0 36:40 37:40 38:40 39:20 40:0 41:26 42:50 43:70 
-8 1:0 2:100 3:0 4:0 5:0 6:0 7:0 8:0 9:0 10:0 11:0 12:0 13:0 14:0 15:0 16:0 17:0 18:-100 19:0 20:0 21:60 22:40 23:0 24:20 25:20 26:0 27:0 28:40 29:40 30:0 31:20 32:20 33:0 34:0 35:0 36:40 37:40 38:40 39:20 40:0 41:26 42:50 43:70 
8 1:0 2:100 3:0 4:0 5:0 6:0 7:0 8:0 9:0 10:0 11:0 12:0 13:0 14:0 15:0 16:0 17:0 18:-100 19:0 20:0 21:60 22:40 23:0 24:20 25:20 26:0 27:0 28:40 29:40 30:0 31:20 32:20 33:0 34:0 35:0 36:40 37:40 38:40 39:20 40:0 41:26 42:50 43:70 
-8 1:0 2:100 3:0 4:0 5:0 6:0 7:0 8:0 9:0 10:0 11:0 12:0 13:0 14:0 15:0 16:0 17:0 18:-100 19:0 20:0 21:60 22:40 23:0 24:20 25:20 26:0 27:0 28:40 29:40 30:0 31:20 32:20 33:0 34:0 35:0 36:40 37:40 38:40 39:20 40:0 41:26 42:50 43:70 
4.636129967169939 1:0 2:-100 3:0 4:0 5:0 6:0 7:0 8:0 9:100 10:0 11:0 12:0 13:0 14:0 15:0 16:0 17:0 18:0 19:0 20:0 21:0 22:0 23:0 24:20 25:40 26:0 27:40 28:40 29:60 30:0 31:0 32:20 33:80 34:0 35:20 36:20 37:20 38:0 39:40 40:0 41:60 42:50 43:39 
0.5970539054923836 1:0 2:0 3:0 4:0 5:0 6:0 7:0 8:0 9:0 10:0 11:-100 12:0 13:0 14:0 15:0 16:0 17:0 18:0 19:100 20:0 21:0 22:40 23:20 24:0 25:0 26:0 27:40 28:20 29:40 30:20 31:40 32:20 33:0 34:0 35:0 36:60 37:0 38:20 39:20 40:0 41:44 42:47 43:62 
2.265514320817873 1:0 2:0 3:0 4:0 5:0 6:0 7:0 8:0 9:100 10:-100 11:0 12:0 13:0 14:0 15:0 16:0 17:0 18:0 19:0 20:0 21:0 22:20 23:0 24:0 25:60 26:0 27:60 28:20 29:40 30:20 31:0 32:20 33:20 34:0 35:20 36:20 37:0 38:20 39:60 40:20 41:76 42:50 43:39 
0.5411840144239528 1:0 2:0 3:0 4:0 5:0 6:0 7:100 8:0 9:0 10:0 11:0 12:0 13:0 14:0 15:0 16:0 17:0 18:-100 19:0 20:0 21:20 22:40 23:20 24:20 25:20 26:0 27:0 28:40 29:120 30:0 31:20 32:0 33:0 34:0 35:20 36:40 37:60 38:20 39:20 40:0 41:55 42:35 43:50 
-2.940835975770422 1:0 2:0 3:0 4:0 5:0 6:0 7:0 8:0 9:-100 10:0 11:0 12:0 13:0 14:0 15:0 16:0 17:0 18:0 19:0 20:100 21:40 22:40 23:20 24:0 25:0 26:20 27:0 28:20 29:40 30:0 31:20 32:20 33:0 34:0 35:0 36:20 37:20 38:20 39:0 40:0 41:83 42:45 43:25 
-2.436962818132287 1:100 2:0 3:0 4:0 5:0 6:0 7:0 8:0 9:0 10:0 11:0 12:0 13:-100 14:0 15:0 16:0 17:0 18:0 19:0 20:0 21:20 22:80 23:80 24:0 25:0 26:0 27:0 28:40 29:40 30:0 31:20 32:20 33:0 34:0 35:20 36:60 37:0 38:40 39:40 40:20 41:2 42:46 43:70 
4.844204219143535 1:0 2:100 3:0 4:0 5:0 6:0 7:0 8:0 9:0 10:0 11:0 12:0 13:0 14:0 15:0 16:0 17:0 18:0 19:-100 20:0 21:20 22:40 23:60 24:20 25:0 26:20 27:80 28:40 29:40 30:60 31:40 32:40 33:0 34:40 35:0 36:60 37:20 38:0 39:20 40:20 41:11 42:32 43:26 
-2.084452064488916 1:0 2:0 3:-100 4:0 5:0 6:0 7:0 8:100 9:0 10:0 11:0 12:0 13:0 14:0 15:0 16:0 17:0 18:0 19:0 20:0 21:60 22:80 23:40 24:20 25:20 26:60 27:40 28:20 29:160 30:0 31:100 32:80 33:80 34:0 35:40 36:20 37:20 38:20 39:100 40:60 41:1 42:19 43:64 
-1.400980499406687 1:0 2:0 3:-100 4:0 5:0 6:0 7:0 8:100 9:0 10:0 11:0 12:0 13:0 14:0 15:0 16:0 17:0 18:0 19:0 20:0 21:60 22:80 23:40 24:20 25:20 26:60 27:40 28:20 29:160 30:0 31:100 32:80 33:80 34:0 35:40 36:20 37:20 38:20 39:100 40:60 41:1 42:19 43:64 
1.712447192417496 1:0 2:0 3:0 4:0 5:100 6:0 7:-100 8:0 9:0 10:0 11:0 12:0 13:0 14:0 15:0 16:0 17:0 18:0 19:0 20:0 21:40 22:40 23:20 24:0 25:0 26:20 27:20 28:120 29:40 30:60 31:120 32:40 33:0 34:20 35:20 36:0 37:20 38:20 39:20 40:60 41:3 42:50 43:25 
-2.33158478478846 1:0 2:0 3:0 4:0 5:100 6:0 7:-100 8:0 9:0 10:0 11:0 12:0 13:0 14:0 15:0 16:0 17:0 18:0 19:0 20:0 21:40 22:40 23:20 24:0 25:0 26:20 27:20 28:120 29:40 30:60 31:120 32:40 33:0 34:20 35:20 36:0 37:20 38:20 39:20 40:60 41:3 42:50 43:50 
-1.989022100567913 1:0 2:0 3:-100 4:0 5:0 6:0 7:0 8:0 9:100 10:0 11:0 12:0 13:0 14:0 15:0 16:0 17:0 18:0 19:0 20:0 21:60 22:80 23:40 24:20 25:20 26:60 27:40 28:20 29:160 30:0 31:100 32:80 33:80 34:0 35:40 36:20 37:20 38:20 39:100 40:60 41:1 42:19 43:64 
-0.04652816367658887 1:0 2:0 3:-100 4:0 5:0 6:0 7:0 8:0 9:100 10:0 11:0 12:0 13:0 14:0 15:0 16:0 17:0 18:0 19:0 20:0 21:60 22:80 23:40 24:20 25:20 26:60 27:40 28:20 29:160 30:0 31:100 32:80 33:80 34:0 35:40 36:20 37:20 38:20 39:100 40:60 41:1 42:19 43:64 
8 1:0 2:0 3:-100 4:0 5:0 6:0 7:0 8:0 9:100 10:0 11:0 12:0 13:0 14:0 15:0 16:0 17:0 18:0 19:0 20:0 21:60 22:80 23:40 24:20 25:20 26:60 27:40 28:20 29:160 30:0 31:100 32:80 33:80 34:0 35:40 36:20 37:20 38:20 39:100 40:60 41:1 42:19 43:49 
-8 1:-100 2:0 3:0 4:0 5:0 6:0 7:0 8:0 9:0 10:0 11:0 12:0 13:0 14:0 15:0 16:0 17:0 18:100 19:0 20:0 21:20 22:80 23:0 24:0 25:40 26:0 27:0 28:40 29:40 30:20 31:0 32:20 33:0 34:40 35:20 36:0 37:20 38:60 39:20 40:20 41:50 42:50 43:66 
2.163002349242716 1:-100 2:0 3:0 4:0 5:0 6:0 7:0 8:0 9:0 10:0 11:0 12:0 13:0 14:0 15:0 16:0 17:0 18:100 19:0 20:0 21:20 22:80 23:0 24:0 25:40 26:0 27:0 28:40 29:40 30:20 31:0 32:20 33:0 34:40 35:20 36:0 37:20 38:60 39:20 40:20 41:50 42:50 43:77 
8 1:0 2:0 3:0 4:0 5:0 6:0 7:-100 8:0 9:0 10:0 11:0 12:0 13:0 14:0 15:0 16:0 17:0 18:0 19:0 20:100 21:20 22:20 23:20 24:0 25:0 26:0 27:0 28:20 29:60 30:0 31:20 32:40 33:0 34:0 35:0 36:40 37:40 38:0 39:20 40:20 41:76 42:50 43:45 
1.266843506258299 1:0 2:100 3:-100 4:0 5:0 6:0 7:0 8:0 9:0 10:0 11:0 12:0 13:0 14:0 15:0 16:0 17:0 18:0 19:0 20:0 21:60 22:80 23:40 24:20 25:20 26:60 27:40 28:20 29:160 30:0 31:100 32:80 33:80 34:0 35:40 36:20 37:20 38:20 39:100 40:60 41:1 42:19 43:64 
-1.846319736461552 1:0 2:0 3:0 4:0 5:0 6:0 7:0 8:100 9:-100 10:0 11:0 12:0 13:0 14:0 15:0 16:0 17:0 18:0 19:0 20:0 21:40 22:100 23:120 24:0 25:60 26:0 27:40 28:20 29:40 30:40 31:20 32:0 33:0 34:0 35:0 36:60 37:0 38:60 39:60 40:20 41:48 42:54 43:25 
-3.045613005275111 1:0 2:100 3:0 4:0 5:-100 6:0 7:0 8:0 9:0 10:0 11:0 12:0 13:0 14:0 15:0 16:0 17:0 18:0 19:0 20:0 21:20 22:120 23:0 24:0 25:40 26:0 27:20 28:40 29:20 30:20 31:40 32:60 33:0 34:40 35:40 36:40 37:0 38:80 39:0 40:40 41:9 42:50 43:66 
2.69276725537934 1:0 2:0 3:-100 4:0 5:0 6:0 7:0 8:0 9:100 10:0 11:0 12:0 13:0 14:0 15:0 16:0 17:0 18:0 19:0 20:0 21:20 22:60 23:60 24:0 25:40 26:20 27:40 28:20 29:20 30:0 31:0 32:80 33:0 34:0 35:40 36:40 37:20 38:0 39:0 40:40 41:24 42:45 43:25 
-1.75833053260993 1:0 2:0 3:0 4:0 5:-100 6:0 7:0 8:0 9:0 10:0 11:0 12:0 13:0 14:100 15:0 16:0 17:0 18:0 19:0 20:0 21:20 22:120 23:0 24:0 25:40 26:0 27:20 28:40 29:20 30:20 31:40 32:60 33:0 34:40 35:40 36:40 37:0 38:80 39:0 40:40 41:9 42:50 43:66 
-2.059380166009355 1:0 2:0 3:100 4:0 5:0 6:0 7:0 8:0 9:-100 10:0 11:0 12:0 13:0 14:0 15:0 16:0 17:0 18:0 19:0 20:0 21:40 22:40 23:20 24:0 25:0 26:20 27:0 28:20 29:40 30:0 31:20 32:20 33:0 34:0 35:0 36:20 37:20 38:20 39:0 40:0 41:83 42:45 43:25 
-2.363214745338152 1:0 2:0 3:0 4:0 5:100 6:0 7:-100 8:0 9:0 10:0 11:0 12:0 13:0 14:0 15:0 16:0 17:0 18:0 19:0 20:0 21:20 22:20 23:20 24:0 25:0 26:0 27:0 28:20 29:60 30:0 31:20 32:40 33:0 34:0 35:0 36:40 37:40 38:0 39:20 40:20 41:76 42:50 43:45 
0.8710226425950508 1:0 2:0 3:0 4:0 5:0 6:0 7:0 8:0 9:100 10:0 11:0 12:0 13:0 14:0 15:0 16:0 17:0 18:0 19:0 20:-100 21:0 22:40 23:80 24:0 25:20 26:40 27:60 28:40 29:40 30:0 31:60 32:40 33:0 34:0 35:60 36:20 37:20 38:40 39:20 40:20 41:19 42:45 43:25 
-8 1:0 2:0 3:0 4:0 5:0 6:0 7:0 8:0 9:100 10:0 11:0 12:0 13:0 14:0 15:0 16:0 17:0 18:0 19:0 20:-100 21:0 22:40 23:80 24:0 25:20 26:40 27:60 28:40 29:40 30:0 31:60 32:40 33:0 34:0 35:60 36:20 37:20 38:40 39:20 40:20 41:19 42:45 43:25 
8 1:0 2:0 3:0 4:0 5:0 6:0 7:0 8:0 9:0 10:0 11:0 12:0 13:0 14:0 15:0 16:0 17:0 18:0 19:100 20:-100 21:0 22:40 23:80 24:0 25:20 26:40 27:60 28:40 29:40 30:0 31:60 32:40 33:0 34:0 35:60 36:20 37:20 38:40 39:20 40:20 41:19 42:45 43:25 
-8 1:0 2:0 3:0 4:0 5:0 6:0 7:0 8:0 9:0 10:0 11:0 12:0 13:0 14:0 15:0 16:0 17:0 18:0 19:100 20:-100 21:0 22:40 23:80 24:0 25:20 26:40 27:60 28:40 29:40 30:0 31:60 32:40 33:0 34:0 35:60 36:20 37:20 38:40 39:20 40:20 41:19 42:45 43:25 
8 1:0 2:0 3:0 4:0 5:0 6:0 7:0 8:0 9:0 10:0 11:0 12:0 13:0 14:0 15:0 16:0 17:0 18:0 19:100 20:-100 21:0 22:40 23:80 24:0 25:20 26:40 27:60 28:40 29:40 30:0 31:60 32:40 33:0 34:0 35:60 36:20 37:20 38:40 39:20 40:20 41:19 42:31 43:25 
-4.561369966232829 1:0 2:0 3:0 4:0 5:0 6:0 7:0 8:0 9:0 10:0 11:0 12:0 13:0 14:0 15:0 16:0 17:0 18:0 19:100 20:-100 21:0 22:40 23:80 24:0 25:20 26:40 27:60 28:40 29:40 30:0 31:60 32:40 33:0 34:0 35:60 36:20 37:20 38:40 39:20 40:20 41:19 42:31 43:25 
-1.726494790008161 1:100 2:0 3:-100 4:0 5:0 6:0 7:0 8:0 9:0 10:0 11:0 12:0 13:0 14:0 15:0 16:0 17:0 18:0 19:0 20:0 21:20 22:60 23:60 24:0 25:40 26:20 27:40 28:20 29:20 30:0 31:0 32:80 33:0 34:0 35:40 36:40 37:20 38:0 39:0 40:40 41:24 42:45 43:25 
1.931927701997725 1:0 2:0 3:0 4:100 5:0 6:0 7:0 8:0 9:0 10:0 11:0 12:0 13:0 14:0 15:0 16:0 17:0 18:0 19:-100 20:0 21:20 22:60 23:20 24:40 25:20 26:40 27:20 28:20 29:60 30:0 31:40 32:20 33:0 34:0 35:60 36:20 37:0 38:20 39:40 40:20 41:28 42:38 43:66 
4.098842243943199 1:0 2:0 3:0 4:0 5:-100 6:0 7:100 8:0 9:0 10:0 11:0 12:0 13:0 14:0 15:0 16:0 17:0 18:0 19:0 20:0 21:20 22:120 23:0 24:0 25:40 26:0 27:20 28:40 29:20 30:20 31:40 32:60 33:0 34:40 35:40 36:40 37:0 38:80 39:0 40:40 41:9 42:50 43:66 
6.478505231478238 1:-100 2:0 3:0 4:0 5:0 6:0 7:0 8:0 9:100 10:0 11:0 12:0 13:0 14:0 15:0 16:0 17:0 18:0 19:0 20:0 21:20 22:0 23:80 24:40 25:0 26:0 27:0 28:20 29:60 30:40 31:0 32:0 33:20 34:0 35:0 36:40 37:0 38:20 39:0 40:40 41:33 42:51 43:20 
1.421818001151449 1:0 2:0 3:-100 4:0 5:0 6:0 7:0 8:0 9:0 10:0 11:0 12:0 13:0 14:0 15:0 16:0 17:0 18:0 19:100 20:0 21:40 22:60 23:0 24:0 25:40 26:20 27:40 28:40 29:20 30:0 31:0 32:140 33:0 34:0 35:0 36:60 37:0 38:60 39:20 40:20 41:24 42:37 43:25 
2.521733690297523 1:0 2:0 3:-100 4:0 5:0 6:0 7:0 8:0 9:0 10:0 11:0 12:0 13:0 14:0 15:0 16:0 17:0 18:0 19:100 20:0 21:40 22:60 23:0 24:0 25:40 26:20 27:40 28:40 29:20 30:0 31:0 32:140 33:0 34:0 35:0 36:60 37:0 38:60 39:20 40:20 41:24 42:37 43:63 
-2.167650425036657 1:0 2:0 3:0 4:0 5:0 6:0 7:0 8:0 9:0 10:0 11:0 12:0 13:0 14:0 15:100 16:0 17:-100 18:0 19:0 20:0 21:80 22:20 23:0 24:60 25:20 26:0 27:80 28:20 29:20 30:20 31:60 32:20 33:40 34:0 35:40 36:20 37:80 38:40 39:20 40:0 41:22 42:50 43:25 
-2.439986288455348 1:-100 2:0 3:100 4:0 5:0 6:0 7:0 8:0 9:0 10:0 11:0 12:0 13:0 14:0 15:0 16:0 17:0 18:0 19:0 20:0 21:20 22:0 23:80 24:40 25:0 26:0 27:0 28:20 29:60 30:40 31:0 32:0 33:20 34:0 35:0 36:40 37:0 38:20 39:0 40:40 41:33 42:51 43:20 
4.556930624789054 1:0 2:0 3:0 4:-100 5:0 6:0 7:0 8:0 9:0 10:0 11:0 12:0 13:100 14:0 15:0 16:0 17:0 18:0 19:0 20:0 21:20 22:60 23:20 24:0 25:40 26:0 27:0 28:40 29:0 30:0 31:60 32:0 33:0 34:20 35:40 36:20 37:20 38:0 39:0 40:20 41:44 42:50 43:25 
-3.778094101484279 1:0 2:0 3:0 4:0 5:0 6:0 7:0 8:0 9:0 10:0 11:0 12:0 13:0 14:0 15:0 16:100 17:0 18:0 19:0 20:-100 21:0 22:40 23:20 24:0 25:20 26:0 27:20 28:40 29:20 30:20 31:20 32:20 33:0 34:0 35:0 36:0 37:0 38:0 39:20 40:40 41:87 42:50 43:47 
8 1:0 2:100 3:0 4:0 5:0 6:0 7:0 8:0 9:0 10:0 11:0 12:0 13:0 14:-100 15:0 16:0 17:0 18:0 19:0 20:0 21:40 22:20 23:20 24:40 25:140 26:0 27:40 28:20 29:20 30:60 31:40 32:20 33:40 34:20 35:0 36:0 37:60 38:60 39:0 40:20 41:31 42:50 43:30 
-5.993882721240341 1:0 2:100 3:0 4:0 5:0 6:0 7:0 8:0 9:0 10:0 11:0 12:0 13:0 14:-100 15:0 16:0 17:0 18:0 19:0 20:0 21:40 22:20 23:20 24:40 25:140 26:0 27:40 28:20 29:20 30:60 31:40 32:20 33:40 34:20 35:0 36:0 37:60 38:60 39:0 40:20 41:31 42:50 43:30 
5.893665674197656 1:-100 2:0 3:0 4:0 5:0 6:0 7:100 8:0 9:0 10:0 11:0 12:0 13:0 14:0 15:0 16:0 17:0 18:0 19:0 20:0 21:0 22:20 23:40 24:0 25:20 26:0 27:20 28:20 29:20 30:0 31:20 32:20 33:0 34:0 35:40 36:20 37:20 38:40 39:20 40:20 41:65 42:19 43:64 
8 1:0 2:0 3:0 4:0 5:0 6:0 7:0 8:0 9:0 10:0 11:100 12:0 13:0 14:-100 15:0 16:0 17:0 18:0 19:0 20:0 21:40 22:20 23:20 24:40 25:140 26:0 27:40 28:20 29:20 30:60 31:40 32:20 33:40 34:20 35:0 36:0 37:60 38:60 39:0 40:20 41:31 42:50 43:30 
-6.126208027627821 1:0 2:0 3:0 4:0 5:0 6:0 7:0 8:0 9:0 10:0 11:100 12:0 13:0 14:-100 15:0 16:0 17:0 18:0 19:0 20:0 21:40 22:20 23:20 24:40 25:140 26:0 27:40 28:20 29:20 30:60 31:40 32:20 33:40 34:20 35:0 36:0 37:60 38:60 39:0 40:20 41:31 42:50 43:30 
-5.327618142148073 1:0 2:0 3:0 4:0 5:-100 6:0 7:0 8:100 9:0 10:0 11:0 12:0 13:0 14:0 15:0 16:0 17:0 18:0 19:0 20:0 21:80 22:60 23:0 24:40 25:0 26:0 27:20 28:60 29:120 30:20 31:20 32:40 33:0 34:0 35:20 36:60 37:20 38:60 39:60 40:40 41:27 42:50 43:20 
-3.448586314646688 1:0 2:0 3:0 4:0 5:-100 6:0 7:0 8:0 9:100 10:0 11:0 12:0 13:0 14:0 15:0 16:0 17:0 18:0 19:0 20:0 21:80 22:60 23:0 24:40 25:0 26:0 27:20 28:60 29:120 30:20 31:20 32:40 33:0 34:0 35:20 36:60 37:20 38:60 39:60 40:40 41:27 42:50 43:20 
1.521555637715219 1:0 2:0 3:0 4:0 5:0 6:0 7:0 8:0 9:0 10:0 11:0 12:100 13:0 14:0 15:0 16:0 17:0 18:-100 19:0 20:0 21:40 22:20 23:0 24:0 25:0 26:0 27:20 28:20 29:0 30:20 31:0 32:0 33:0 34:0 35:0 36:0 37:0 38:0 39:20 40:20 41:93 42:50 43:25 
-2.234961104446624 1:0 2:100 3:0 4:0 5:0 6:0 7:0 8:0 9:-100 10:0 11:0 12:0 13:0 14:0 15:0 16:0 17:0 18:0 19:0 20:0 21:60 22:40 23:0 24:0 25:20 26:20 27:20 28:20 29:40 30:40 31:60 32:20 33:0 34:20 35:0 36:0 37:40 38:20 39:20 40:40 41:55 42:17 43:0 
7.723504918776894 1:0 2:0 3:0 4:0 5:0 6:0 7:100 8:0 9:0 10:0 11:0 12:0 13:0 14:-100 15:0 16:0 17:0 18:0 19:0 20:0 21:40 22:20 23:20 24:40 25:140 26:0 27:40 28:20 29:20 30:60 31:40 32:20 33:40 34:20 35:0 36:0 37:60 38:60 39:0 40:20 41:31 42:50 43:30 
8 1:0 2:0 3:0 4:0 5:0 6:0 7:100 8:0 9:0 10:0 11:0 12:0 13:0 14:-100 15:0 16:0 17:0 18:0 19:0 20:0 21:40 22:20 23:20 24:40 25:140 26:0 27:40 28:20 29:20 30:60 31:40 32:20 33:40 34:20 35:0 36:0 37:60 38:60 39:0 40:20 41:31 42:50 43:30 
-8 1:0 2:0 3:0 4:0 5:0 6:0 7:100 8:0 9:0 10:0 11:0 12:0 13:0 14:-100 15:0 16:0 17:0 18:0 19:0 20:0 21:40 22:20 23:20 24:40 25:140 26:0 27:40 28:20 29:20 30:60 31:40 32:20 33:40 34:20 35:0 36:0 37:60 38:60 39:0 40:20 41:31 42:50 43:30 
3.912295573904436 1:0 2:-100 3:0 4:0 5:0 6:0 7:0 8:0 9:100 10:0 11:0 12:0 13:0 14:0 15:0 16:0 17:0 18:0 19:0 20:0 21:80 22:100 23:40 24:40 25:60 26:0 27:20 28:80 29:80 30:20 31:20 32:40 33:0 34:0 35:80 36:40 37:20 38:20 39:20 40:20 41:0 42:21 43:51 
-2.485489607414227 1:0 2:0 3:0 4:0 5:0 6:0 7:0 8:0 9:0 10:0 11:0 12:100 13:-100 14:0 15:0 16:0 17:0 18:0 19:0 20:0 21:20 22:80 23:80 24:0 25:0 26:0 27:0 28:40 29:40 30:0 31:20 32:20 33:0 34:0 35:20 36:60 37:0 38:40 39:40 40:20 41:2 42:46 43:70 
8 1:0 2:0 3:0 4:0 5:0 6:0 7:0 8:0 9:0 10:0 11:0 12:100 13:-100 14:0 15:0 16:0 17:0 18:0 19:0 20:0 21:20 22:80 23:80 24:0 25:0 26:0 27:0 28:40 29:40 30:0 31:20 32:20 33:0 34:0 35:20 36:60 37:0 38:40 39:40 40:20 41:2 42:42 43:65 
-8 1:0 2:100 3:0 4:0 5:0 6:0 7:0 8:0 9:0 10:0 11:0 12:0 13:0 14:-100 15:0 16:0 17:0 18:0 19:0 20:0 21:60 22:40 23:0 24:20 25:0 26:0 27:40 28:20 29:40 30:0 31:20 32:20 33:0 34:20 35:40 36:40 37:40 38:80 39:40 40:0 41:50 42:37 43:40 
8 1:0 2:100 3:0 4:0 5:0 6:0 7:0 8:0 9:0 10:0 11:0 12:0 13:0 14:-100 15:0 16:0 17:0 18:0 19:0 20:0 21:60 22:40 23:0 24:20 25:0 26:0 27:40 28:20 29:40 30:0 31:20 32:20 33:0 34:20 35:40 36:40 37:40 38:80 39:40 40:0 41:50 42:35 43:47 
2.483655616768327 1:0 2:0 3:0 4:0 5:0 6:0 7:-100 8:0 9:100 10:0 11:0 12:0 13:0 14:0 15:0 16:0 17:0 18:0 19:0 20:0 21:40 22:40 23:60 24:0 25:20 26:20 27:40 28:20 29:20 30:20 31:0 32:40 33:0 34:20 35:20 36:20 37:20 38:0 39:40 40:60 41:18 42:45 43:25 
-8 1:0 2:0 3:0 4:0 5:0 6:0 7:-100 8:0 9:100 10:0 11:0 12:0 13:0 14:0 15:0 16:0 17:0 18:0 19:0 20:0 21:40 22:40 23:60 24:0 25:20 26:20 27:40 28:20 29:20 30:20 31:0 32:40 33:0 34:20 35:20 36:20 37:20 38:0 39:40 40:60 41:18 42:45 43:25 
-0.8384155188526903 1:0 2:0 3:0 4:0 5:0 6:0 7:0 8:100 9:0 10:0 11:0 12:0 13:0 14:-100 15:0 16:0 17:0 18:0 19:0 20:0 21:40 22:0 23:0 24:40 25:20 26:20 27:20 28:80 29:20 30:20 31:20 32:0 33:0 34:0 35:20 36:40 37:0 38:0 39:20 40:40 41:57 42:32 43:66 
-3.315680370236519 1:0 2:0 3:0 4:0 5:0 6:0 7:0 8:0 9:100 10:0 11:0 12:0 13:0 14:0 15:0 16:-100 17:0 18:0 19:0 20:0 21:20 22:0 23:20 24:0 25:0 26:0 27:20 28:60 29:20 30:20 31:0 32:20 33:40 34:0 35:20 36:0 37:0 38:0 39:0 40:0 41:90 42:50 43:39 
-1.897868901126588 1:-100 2:0 3:100 4:0 5:0 6:0 7:0 8:0 9:0 10:0 11:0 12:0 13:0 14:0 15:0 16:0 17:0 18:0 19:0 20:0 21:20 22:180 23:140 24:20 25:60 26:20 27:20 28:40 29:60 30:40 31:0 32:20 33:0 34:20 35:40 36:40 37:20 38:40 39:0 40:40 41:0 42:53 43:25 
8 1:0 2:0 3:0 4:0 5:0 6:0 7:0 8:0 9:0 10:0 11:0 12:0 13:0 14:0 15:0 16:0 17:100 18:-100 19:0 20:0 21:40 22:80 23:40 24:20 25:20 26:0 27:40 28:40 29:20 30:0 31:0 32:20 33:40 34:0 35:60 36:40 37:0 38:20 39:0 40:20 41:30 42:15 43:65 
-8 1:0 2:0 3:0 4:0 5:0 6:0 7:0 8:0 9:0 10:0 11:0 12:0 13:0 14:0 15:0 16:0 17:100 18:-100 19:0 20:0 21:40 22:80 23:40 24:20 25:20 26:0 27:40 28:40 29:20 30:0 31:0 32:20 33:40 34:0 35:60 36:40 37:0 38:20 39:0 40:20 41:30 42:28 43:65 
7.490947169677622 1:0 2:0 3:0 4:0 5:0 6:0 7:0 8:0 9:0 10:0 11:0 12:0 13:0 14:0 15:0 16:0 17:100 18:-100 19:0 20:0 21:40 22:80 23:40 24:20 25:20 26:0 27:40 28:40 29:20 30:0 31:0 32:20 33:40 34:0 35:60 36:40 37:0 38:20 39:0 40:20 41:30 42:16 43:65 
-8 1:0 2:0 3:0 4:0 5:0 6:0 7:0 8:0 9:0 10:0 11:0 12:0 13:0 14:0 15:0 16:0 17:100 18:-100 19:0 20:0 21:40 22:80 23:40 24:20 25:20 26:0 27:40 28:40 29:20 30:0 31:0 32:20 33:40 34:0 35:60 36:40 37:0 38:20 39:0 40:20 41:30 42:32 43:65 
0.924525334038485 1:0 2:0 3:0 4:0 5:0 6:0 7:0 8:0 9:0 10:0 11:0 12:0 13:0 14:0 15:0 16:0 17:0 18:0 19:100 20:-100 21:20 22:60 23:100 24:0 25:40 26:20 27:80 28:60 29:20 30:20 31:40 32:80 33:0 34:0 35:60 36:40 37:0 38:20 39:80 40:40 41:0 42:45 43:25 
-8 1:0 2:0 3:0 4:0 5:0 6:0 7:0 8:0 9:0 10:0 11:0 12:0 13:0 14:0 15:0 16:0 17:0 18:0 19:100 20:-100 21:20 22:60 23:100 24:0 25:40 26:20 27:80 28:60 29:20 30:20 31:40 32:80 33:0 34:0 35:60 36:40 37:0 38:20 39:80 40:40 41:0 42:45 43:25 
0.3157629906507383 1:0 2:100 3:-100 4:0 5:0 6:0 7:0 8:0 9:0 10:0 11:0 12:0 13:0 14:0 15:0 16:0 17:0 18:0 19:0 20:0 21:20 22:80 23:60 24:20 25:100 26:40 27:40 28:20 29:100 30:0 31:40 32:20 33:40 34:0 35:0 36:80 37:40 38:60 39:60 40:120 41:0 42:32 43:66 
-4.467556507961291 1:0 2:0 3:0 4:0 5:100 6:-100 7:0 8:0 9:0 10:0 11:0 12:0 13:0 14:0 15:0 16:0 17:0 18:0 19:0 20:0 21:20 22:100 23:80 24:20 25:60 26:0 27:100 28:80 29:100 30:20 31:20 32:80 33:20 34:0 35:0 36:80 37:60 38:20 39:20 40:60 41:0 42:50 43:42 
8 1:0 2:0 3:0 4:0 5:100 6:-100 7:0 8:0 9:0 10:0 11:0 12:0 13:0 14:0 15:0 16:0 17:0 18:0 19:0 20:0 21:20 22:100 23:80 24:20 25:60 26:0 27:100 28:80 29:100 30:20 31:20 32:80 33:20 34:0 35:0 36:80 37:60 38:20 39:20 40:60 41:0 42:50 43:52 
-8 1:0 2:0 3:0 4:0 5:100 6:-100 7:0 8:0 9:0 10:0 11:0 12:0 13:0 14:0 15:0 16:0 17:0 18:0 19:0 20:0 21:20 22:100 23:80 24:20 25:60 26:0 27:100 28:80 29:100 30:20 31:20 32:80 33:20 34:0 35:0 36:80 37:60 38:20 39:20 40:60 41:0 42:50 43:43 
0.03409116013215252 1:0 2:0 3:0 4:0 5:0 6:0 7:0 8:-100 9:0 10:0 11:0 12:0 13:0 14:0 15:0 16:0 17:100 18:0 19:0 20:0 21:40 22:0 23:40 24:0 25:20 26:0 27:0 28:20 29:0 30:0 31:20 32:0 33:0 34:0 35:20 36:20 37:20 38:40 39:0 40:20 41:58 42:50 43:70 
1.110228039631145 1:0 2:0 3:0 4:0 5:0 6:0 7:0 8:-100 9:0 10:0 11:0 12:0 13:0 14:0 15:0 16:0 17:100 18:0 19:0 20:0 21:40 22:0 23:40 24:0 25:20 26:0 27:0 28:20 29:0 30:0 31:20 32:0 33:0 34:0 35:20 36:20 37:20 38:40 39:0 40:20 41:58 42:50 43:70 
-1.828332520324902 1:0 2:0 3:0 4:0 5:0 6:0 7:0 8:0 9:0 10:0 11:0 12:0 13:0 14:100 15:0 16:0 17:0 18:0 19:0 20:-100 21:0 22:80 23:20 24:0 25:20 26:0 27:20 28:20 29:20 30:20 31:60 32:20 33:0 34:20 35:40 36:0 37:40 38:40 39:20 40:20 41:28 42:50 43:25 
0.9466519152356744 1:100 2:0 3:0 4:0 5:0 6:0 7:0 8:0 9:0 10:0 11:-100 12:0 13:0 14:0 15:0 16:0 17:0 18:0 19:0 20:0 21:60 22:100 23:20 24:40 25:40 26:40 27:0 28:20 29:80 30:0 31:20 32:20 33:0 34:0 35:40 36:40 37:40 38:20 39:40 40:0 41:0 42:38 43:66 
8 1:0 2:0 3:0 4:0 5:0 6:0 7:0 8:-100 9:100 10:0 11:0 12:0 13:0 14:0 15:0 16:0 17:0 18:0 19:0 20:0 21:20 22:80 23:60 24:40 25:40 26:0 27:40 28:80 29:180 30:0 31:60 32:60 33:20 34:0 35:40 36:20 37:0 38:80 39:20 40:40 41:0 42:21 43:50 
-6.237626566268503 1:0 2:0 3:0 4:0 5:0 6:0 7:0 8:-100 9:100 10:0 11:0 12:0 13:0 14:0 15:0 16:0 17:0 18:0 19:0 20:0 21:20 22:80 23:60 24:40 25:40 26:0 27:40 28:80 29:180 30:0 31:60 32:60 33:20 34:0 35:40 36:20 37:0 38:80 39:20 40:40 41:0 42:39 43:52 
-6.223004021370148 1:0 2:0 3:0 4:0 5:0 6:0 7:0 8:-100 9:100 10:0 11:0 12:0 13:0 14:0 15:0 16:0 17:0 18:0 19:0 20:0 21:20 22:80 23:60 24:40 25:40 26:0 27:40 28:80 29:180 30:0 31:60 32:60 33:20 34:0 35:40 36:20 37:0 38:80 39:20 40:40 41:0 42:39 43:52 
8 1:0 2:0 3:0 4:0 5:0 6:0 7:0 8:-100 9:100 10:0 11:0 12:0 13:0 14:0 15:0 16:0 17:0 18:0 19:0 20:0 21:20 22:80 23:60 24:40 25:40 26:0 27:40 28:80 29:180 30:0 31:60 32:60 33:20 34:0 35:40 36:20 37:0 38:80 39:20 40:40 41:0 42:21 43:50 
-4.669316819782146 1:0 2:0 3:0 4:0 5:0 6:0 7:0 8:-100 9:100 10:0 11:0 12:0 13:0 14:0 15:0 16:0 17:0 18:0 19:0 20:0 21:0 22:40 23:0 24:20 25:20 26:0 27:20 28:40 29:40 30:0 31:0 32:0 33:80 34:0 35:20 36:20 37:20 38:0 39:20 40:0 41:53 42:50 43:39 
7.802653318694878 1:0 2:0 3:0 4:0 5:0 6:0 7:0 8:0 9:0 10:0 11:0 12:-100 13:0 14:0 15:0 16:0 17:0 18:0 19:0 20:100 21:20 22:80 23:80 24:0 25:20 26:0 27:0 28:40 29:20 30:0 31:0 32:0 33:20 34:0 35:40 36:60 37:0 38:40 39:0 40:20 41:51 42:14 43:41 
-8 1:0 2:0 3:0 4:0 5:0 6:0 7:0 8:0 9:0 10:0 11:0 12:-100 13:0 14:0 15:0 16:0 17:0 18:0 19:0 20:100 21:20 22:80 23:80 24:0 25:20 26:0 27:0 28:40 29:20 30:0 31:0 32:0 33:20 34:0 35:40 36:60 37:0 38:40 39:0 40:20 41:51 42:46 43:63 
-0.5387153122901673 1:0 2:0 3:0 4:0 5:100 6:0 7:-100 8:0 9:0 10:0 11:0 12:0 13:0 14:0 15:0 16:0 17:0 18:0 19:0 20:0 21:60 22:20 23:40 24:0 25:0 26:0 27:20 28:60 29:40 30:40 31:140 32:80 33:80 34:0 35:20 36:0 37:0 38:0 39:20 40:80 41:2 42:50 43:25 
-0.2398243095952576 1:0 2:0 3:0 4:0 5:100 6:0 7:-100 8:0 9:0 10:0 11:0 12:0 13:0 14:0 15:0 16:0 17:0 18:0 19:0 20:0 21:60 22:20 23:40 24:0 25:0 26:0 27:20 28:60 29:40 30:40 31:140 32:80 33:80 34:0 35:20 36:0 37:0 38:0 39:20 40:80 41:2 42:50 43:50 
8 1:0 2:100 3:0 4:0 5:0 6:0 7:0 8:0 9:0 10:-100 11:0 12:0 13:0 14:0 15:0 16:0 17:0 18:0 19:0 20:0 21:0 22:0 23:0 24:60 25:20 26:0 27:0 28:0 29:0 30:0 31:20 32:0 33:0 34:0 35:0 36:20 37:20 38:0 39:40 40:0 41:32 42:53 43:25 
3.258019299769545 1:0 2:100 3:0 4:0 5:0 6:0 7:0 8:0 9:0 10:-100 11:0 12:0 13:0 14:0 15:0 16:0 17:0 18:0 19:0 20:0 21:0 22:0 23:0 24:60 25:20 26:0 27:0 28:0 29:0 30:0 31:20 32:0 33:0 34:0 35:0 36:20 37:20 38:0 39:40 40:0 41:32 42:53 43:20 
-0.8689234982795737 1:100 2:0 3:-100 4:0 5:0 6:0 7:0 8:0 9:0 10:0 11:0 12:0 13:0 14:0 15:0 16:0 17:0 18:0 19:0 20:0 21:80 22:80 23:40 24:20 25:20 26:0 27:0 28:20 29:0 30:0 31:60 32:20 33:0 34:20 35:40 36:40 37:0 38:0 39:0 40:20 41:49 42:50 43:25 
-1.762163953795305 1:0 2:0 3:0 4:0 5:0 6:0 7:0 8:-100 9:0 10:0 11:100 12:0 13:0 14:0 15:0 16:0 17:0 18:0 19:0 20:0 21:0 22:20 23:40 24:20 25:20 26:0 27:60 28:40 29:40 30:40 31:20 32:40 33:40 34:20 35:20 36:60 37:0 38:20 39:20 40:0 41:15 42:53 43:30 
-8 1:0 2:0 3:0 4:0 5:0 6:0 7:0 8:0 9:100 10:0 11:0 12:-100 13:0 14:0 15:0 16:0 17:0 18:0 19:0 20:0 21:20 22:80 23:80 24:0 25:20 26:0 27:0 28:40 29:20 30:0 31:0 32:0 33:20 34:0 35:40 36:60 37:0 38:40 39:0 40:20 41:51 42:14 43:41 
3.254772598169063 1:0 2:0 3:0 4:0 5:0 6:0 7:0 8:0 9:100 10:0 11:0 12:-100 13:0 14:0 15:0 16:0 17:0 18:0 19:0 20:0 21:20 22:80 23:80 24:0 25:20 26:0 27:0 28:40 29:20 30:0 31:0 32:0 33:20 34:0 35:40 36:60 37:0 38:40 39:0 40:20 41:51 42:46 43:63 
-7.634087649925742 1:0 2:0 3:0 4:-100 5:0 6:0 7:0 8:0 9:0 10:0 11:0 12:0 13:0 14:0 15:0 16:0 17:0 18:0 19:0 20:100 21:40 22:0 23:0 24:20 25:0 26:0 27:20 28:0 29:0 30:20 31:20 32:0 33:40 34:0 35:20 36:0 37:0 38:20 39:20 40:20 41:105 42:22 43:53 
8 1:0 2:0 3:0 4:-100 5:0 6:0 7:0 8:0 9:0 10:0 11:0 12:0 13:0 14:0 15:0 16:0 17:0 18:0 19:0 20:100 21:40 22:0 23:0 24:20 25:0 26:0 27:20 28:0 29:0 30:20 31:20 32:0 33:40 34:0 35:20 36:0 37:0 38:20 39:20 40:20 41:105 42:50 43:53 
4.448549068553071 1:0 2:0 3:0 4:-100 5:0 6:0 7:0 8:0 9:0 10:0 11:0 12:0 13:0 14:0 15:0 16:0 17:0 18:0 19:0 20:100 21:40 22:0 23:0 24:20 25:0 26:0 27:20 28:0 29:0 30:20 31:20 32:0 33:40 34:0 35:20 36:0 37:0 38:20 39:20 40:20 41:105 42:67 43:53 
1.097736356101466 1:100 2:0 3:-100 4:0 5:0 6:0 7:0 8:0 9:0 10:0 11:0 12:0 13:0 14:0 15:0 16:0 17:0 18:0 19:0 20:0 21:60 22:120 23:20 24:0 25:20 26:0 27:60 28:20 29:60 30:40 31:20 32:20 33:20 34:0 35:0 36:60 37:60 38:40 39:0 40:0 41:0 42:50 43:25 
-3.66946256569787 1:0 2:0 3:0 4:0 5:0 6:0 7:100 8:0 9:0 10:0 11:0 12:0 13:0 14:-100 15:0 16:0 17:0 18:0 19:0 20:0 21:20 22:0 23:0 24:0 25:0 26:0 27:0 28:40 29:0 30:40 31:0 32:40 33:0 34:0 35:0 36:80 37:0 38:40 39:0 40:40 41:21 42:38 43:40 
8 1:0 2:0 3:0 4:-100 5:0 6:0 7:0 8:0 9:0 10:0 11:0 12:0 13:0 14:0 15:0 16:100 17:0 18:0 19:0 20:0 21:40 22:0 23:0 24:20 25:0 26:0 27:20 28:0 29:0 30:20 31:20 32:0 33:40 34:0 35:20 36:0 37:0 38:20 39:20 40:20 41:105 42:22 43:53 
-6.496481900799012 1:0 2:0 3:0 4:-100 5:0 6:0 7:0 8:0 9:0 10:0 11:0 12:0 13:0 14:0 15:0 16:100 17:0 18:0 19:0 20:0 21:40 22:0 23:0 24:20 25:0 26:0 27:20 28:0 29:0 30:20 31:20 32:0 33:40 34:0 35:20 36:0 37:0 38:20 39:20 40:20 41:105 42:67 43:53 
-0.6960578857996571 1:0 2:0 3:0 4:0 5:0 6:0 7:0 8:0 9:0 10:0 11:0 12:0 13:100 14:0 15:-100 16:0 17:0 18:0 19:0 20:0 21:60 22:80 23:60 24:20 25:20 26:0 27:40 28:0 29:0 30:20 31:40 32:40 33:0 34:20 35:20 36:40 37:20 38:20 39:0 40:40 41:22 42:50 43:25 
-0.9785027346009948 1:0 2:0 3:0 4:0 5:100 6:-100 7:0 8:0 9:0 10:0 11:0 12:0 13:0 14:0 15:0 16:0 17:0 18:0 19:0 20:0 21:0 22:80 23:40 24:20 25:20 26:20 27:0 28:0 29:60 30:20 31:20 32:0 33:0 34:40 35:40 36:60 37:20 38:100 39:0 40:60 41:32 42:53 43:25 
-7.497780465742901 1:0 2:0 3:0 4:0 5:0 6:100 7:-100 8:0 9:0 10:0 11:0 12:0 13:0 14:0 15:0 16:0 17:0 18:0 19:0 20:0 21:20 22:20 23:20 24:0 25:0 26:0 27:0 28:20 29:60 30:0 31:20 32:40 33:0 34:0 35:0 36:40 37:40 38:0 39:20 40:20 41:76 42:50 43:45 
-1.134655567768684 1:0 2:0 3:0 4:0 5:0 6:0 7:0 8:0 9:100 10:0 11:0 12:0 13:0 14:0 15:0 16:0 17:0 18:-100 19:0 20:0 21:40 22:80 23:40 24:40 25:20 26:40 27:60 28:80 29:100 30:0 31:60 32:80 33:20 34:0 35:40 36:0 37:40 38:0 39:60 40:60 41:10 42:64 43:47 
2.68601811060828 1:0 2:0 3:0 4:0 5:0 6:0 7:0 8:0 9:100 10:0 11:0 12:0 13:0 14:0 15:0 16:0 17:0 18:-100 19:0 20:0 21:40 22:80 23:40 24:40 25:20 26:40 27:60 28:80 29:100 30:0 31:60 32:80 33:20 34:0 35:40 36:0 37:40 38:0 39:60 40:60 41:10 42:21 43:50 
1.915156677368368 1:0 2:0 3:0 4:0 5:0 6:0 7:0 8:0 9:-100 10:0 11:100 12:0 13:0 14:0 15:0 16:0 17:0 18:0 19:0 20:0 21:60 22:60 23:40 24:0 25:60 26:0 27:0 28:40 29:20 30:0 31:0 32:0 33:0 34:20 35:40 36:0 37:20 38:20 39:40 40:40 41:46 42:21 43:51 
-8 1:100 2:0 3:0 4:0 5:0 6:0 7:0 8:0 9:0 10:0 11:0 12:-100 13:0 14:0 15:0 16:0 17:0 18:0 19:0 20:0 21:20 22:80 23:80 24:0 25:20 26:0 27:0 28:40 29:20 30:0 31:0 32:0 33:20 34:0 35:40 36:60 37:0 38:40 39:0 40:20 41:51 42:14 43:41 
3.180026448908838 1:100 2:0 3:0 4:0 5:0 6:0 7:0 8:0 9:0 10:0 11:0 12:-100 13:0 14:0 15:0 16:0 17:0 18:0 19:0 20:0 21:20 22:80 23:80 24:0 25:20 26:0 27:0 28:40 29:20 30:0 31:0 32:0 33:20 34:0 35:40 36:60 37:0 38:40 39:0 40:20 41:51 42:46 43:63 
2.570441094208133 1:100 2:0 3:0 4:-100 5:0 6:0 7:0 8:0 9:0 10:0 11:0 12:0 13:0 14:0 15:0 16:0 17:0 18:0 19:0 20:0 21:40 22:0 23:0 24:20 25:0 26:0 27:20 28:0 29:0 30:20 31:20 32:0 33:40 34:0 35:20 36:0 37:0 38:20 39:20 40:20 41:105 42:50 43:53 
-8 1:100 2:0 3:0 4:-100 5:0 6:0 7:0 8:0 9:0 10:0 11:0 12:0 13:0 14:0 15:0 16:0 17:0 18:0 19:0 20:0 21:40 22:0 23:0 24:20 25:0 26:0 27:20 28:0 29:0 30:20 31:20 32:0 33:40 34:0 35:20 36:0 37:0 38:20 39:20 40:20 41:105 42:67 43:53 
-0.3409055384597369 1:0 2:0 3:0 4:0 5:0 6:0 7:0 8:100 9:0 10:-100 11:0 12:0 13:0 14:0 15:0 16:0 17:0 18:0 19:0 20:0 21:20 22:0 23:0 24:0 25:0 26:0 27:40 28:60 29:40 30:0 31:40 32:40 33:20 34:0 35:40 36:20 37:0 38:0 39:80 40:40 41:54 42:20 43:68 
-3.55417141893304 1:0 2:0 3:-100 4:0 5:0 6:0 7:0 8:0 9:0 10:0 11:0 12:0 13:100 14:0 15:0 16:0 17:0 18:0 19:0 20:0 21:80 22:80 23:40 24:20 25:20 26:0 27:0 28:20 29:0 30:0 31:60 32:20 33:0 34:20 35:40 36:40 37:0 38:0 39:0 40:20 41:49 42:50 43:25 
1.153107136445775 1:0 2:0 3:0 4:0 5:0 6:0 7:0 8:-100 9:0 10:0 11:0 12:0 13:0 14:100 15:0 16:0 17:0 18:0 19:0 20:0 21:40 22:40 23:20 24:0 25:0 26:20 27:0 28:20 29:100 30:0 31:40 32:0 33:0 34:0 35:0 36:40 37:20 38:20 39:20 40:20 41:48 42:45 43:25 
5.272643401396258 1:0 2:0 3:0 4:0 5:0 6:0 7:0 8:-100 9:0 10:0 11:0 12:0 13:0 14:100 15:0 16:0 17:0 18:0 19:0 20:0 21:40 22:40 23:20 24:0 25:0 26:20 27:0 28:20 29:100 30:0 31:40 32:0 33:0 34:0 35:0 36:40 37:20 38:20 39:20 40:20 41:48 42:31 43:25 
-8 1:0 2:0 3:0 4:0 5:0 6:0 7:0 8:-100 9:0 10:0 11:0 12:0 13:0 14:100 15:0 16:0 17:0 18:0 19:0 20:0 21:40 22:40 23:20 24:0 25:0 26:20 27:0 28:20 29:100 30:0 31:40 32:0 33:0 34:0 35:0 36:40 37:20 38:20 39:20 40:20 41:48 42:63 43:25 
7.408949997488683 1:0 2:0 3:-100 4:0 5:0 6:0 7:0 8:0 9:100 10:0 11:0 12:0 13:0 14:0 15:0 16:0 17:0 18:0 19:0 20:0 21:60 22:40 23:20 24:40 25:20 26:60 27:20 28:40 29:100 30:20 31:20 32:0 33:40 34:0 35:100 36:20 37:40 38:20 39:40 40:20 41:2 42:19 43:64 
2.5910231641279 1:0 2:0 3:0 4:0 5:0 6:0 7:-100 8:0 9:0 10:0 11:0 12:0 13:0 14:0 15:0 16:0 17:100 18:0 19:0 20:0 21:20 22:20 23:20 24:0 25:0 26:0 27:0 28:20 29:60 30:0 31:20 32:40 33:0 34:0 35:0 36:40 37:40 38:0 39:20 40:20 41:76 42:50 43:45 
5.964521678541701 1:0 2:0 3:100 4:0 5:0 6:0 7:0 8:0 9:0 10:0 11:0 12:-100 13:0 14:0 15:0 16:0 17:0 18:0 19:0 20:0 21:40 22:40 23:20 24:0 25:40 26:20 27:20 28:60 29:0 30:0 31:0 32:80 33:0 34:0 35:0 36:60 37:0 38:80 39:20 40:40 41:32 42:37 43:25 
8 1:0 2:0 3:100 4:0 5:0 6:0 7:0 8:0 9:0 10:0 11:0 12:-100 13:0 14:0 15:0 16:0 17:0 18:0 19:0 20:0 21:40 22:40 23:20 24:0 25:40 26:20 27:20 28:60 29:0 30:0 31:0 32:80 33:0 34:0 35:0 36:60 37:0 38:80 39:20 40:40 41:32 42:37 43:63 
-3.205649489435886 1:0 2:0 3:0 4:0 5:0 6:0 7:0 8:0 9:-100 10:0 11:100 12:0 13:0 14:0 15:0 16:0 17:0 18:0 19:0 20:0 21:20 22:60 23:20 24:0 25:0 26:0 27:20 28:20 29:20 30:20 31:0 32:0 33:0 34:0 35:40 36:40 37:20 38:20 39:20 40:20 41:81 42:21 43:51 
4.697536089711804 1:0 2:0 3:0 4:0 5:0 6:0 7:0 8:-100 9:100 10:0 11:0 12:0 13:0 14:0 15:0 16:0 17:0 18:0 19:0 20:0 21:0 22:20 23:0 24:20 25:60 26:0 27:20 28:40 29:60 30:20 31:0 32:20 33:80 34:0 35:40 36:0 37:0 38:20 39:40 40:20 41:23 42:50 43:39 
-8 1:0 2:0 3:0 4:0 5:0 6:0 7:0 8:0 9:0 10:0 11:0 12:0 13:0 14:0 15:0 16:0 17:0 18:100 19:0 20:-100 21:40 22:60 23:40 24:40 25:40 26:0 27:20 28:100 29:140 30:0 31:80 32:40 33:40 34:20 35:60 36:20 37:20 38:80 39:60 40:40 41:12 42:64 43:47 
8 1:0 2:0 3:0 4:0 5:0 6:0 7:0 8:0 9:0 10:0 11:0 12:0 13:0 14:0 15:0 16:0 17:0 18:100 19:0 20:-100 21:40 22:60 23:40 24:40 25:40 26:0 27:20 28:100 29:140 30:0 31:80 32:40 33:40 34:20 35:60 36:20 37:20 38:80 39:60 40:40 41:12 42:21 43:50 
-1.763315969040143 1:0 2:0 3:0 4:0 5:0 6:0 7:0 8:0 9:100 10:0 11:0 12:0 13:0 14:0 15:0 16:-100 17:0 18:0 19:0 20:0 21:20 22:60 23:80 24:0 25:0 26:0 27:40 28:40 29:60 30:20 31:60 32:40 33:20 34:0 35:20 36:40 37:0 38:20 39:60 40:20 41:23 42:47 43:62 
8 1:0 2:0 3:0 4:0 5:0 6:0 7:0 8:0 9:100 10:0 11:0 12:0 13:0 14:0 15:0 16:-100 17:0 18:0 19:0 20:0 21:20 22:100 23:40 24:0 25:20 26:0 27:20 28:20 29:80 30:0 31:20 32:0 33:0 34:20 35:20 36:60 37:0 38:60 39:20 40:20 41:63 42:30 43:4 
-2.698466500543664 1:0 2:0 3:0 4:0 5:0 6:0 7:0 8:0 9:100 10:0 11:0 12:0 13:0 14:0 15:0 16:-100 17:0 18:0 19:0 20:0 21:20 22:100 23:40 24:0 25:20 26:0 27:20 28:20 29:80 30:0 31:20 32:0 33:0 34:20 35:20 36:60 37:0 38:60 39:20 40:20 41:63 42:30 43:4 
-8 1:0 2:0 3:-100 4:0 5:0 6:0 7:0 8:0 9:0 10:0 11:0 12:100 13:0 14:0 15:0 16:0 17:0 18:0 19:0 20:0 21:80 22:80 23:40 24:20 25:20 26:0 27:0 28:20 29:0 30:0 31:60 32:20 33:0 34:20 35:40 36:40 37:0 38:0 39:0 40:20 41:49 42:50 43:25 
0.4615048312302297 1:0 2:0 3:0 4:0 5:0 6:0 7:0 8:0 9:0 10:0 11:0 12:0 13:0 14:0 15:0 16:0 17:0 18:0 19:100 20:-100 21:0 22:60 23:0 24:0 25:0 26:0 27:0 28:0 29:40 30:0 31:0 32:0 33:0 34:0 35:0 36:20 37:20 38:60 39:20 40:40 41:87 42:50 43:69 
-4.480411709490372 1:0 2:0 3:0 4:0 5:0 6:0 7:0 8:0 9:100 10:0 11:0 12:0 13:-100 14:0 15:0 16:0 17:0 18:0 19:0 20:0 21:40 22:80 23:80 24:0 25:0 26:80 27:40 28:0 29:60 30:20 31:60 32:20 33:60 34:20 35:0 36:40 37:20 38:0 39:100 40:20 41:2 42:67 43:20 
-6.051089519253029 1:0 2:0 3:0 4:0 5:0 6:0 7:0 8:0 9:0 10:100 11:0 12:0 13:0 14:0 15:0 16:0 17:0 18:-100 19:0 20:0 21:20 22:60 23:60 24:0 25:0 26:0 27:0 28:20 29:0 30:20 31:20 32:80 33:0 34:0 35:0 36:80 37:40 38:0 39:0 40:20 41:41 42:21 43:65 
-2.997037827544196 1:0 2:0 3:0 4:0 5:0 6:0 7:0 8:0 9:100 10:0 11:0 12:0 13:0 14:0 15:0 16:0 17:-100 18:0 19:0 20:0 21:20 22:20 23:20 24:20 25:60 26:0 27:40 28:20 29:60 30:20 31:20 32:20 33:40 34:0 35:20 36:40 37:0 38:0 39:60 40:0 41:36 42:50 43:39 
-7.292611110082865 1:0 2:0 3:0 4:0 5:0 6:0 7:0 8:100 9:0 10:0 11:0 12:-100 13:0 14:0 15:0 16:0 17:0 18:0 19:0 20:0 21:20 22:80 23:80 24:0 25:20 26:0 27:0 28:40 29:20 30:0 31:0 32:0 33:20 34:0 35:40 36:60 37:0 38:40 39:0 40:20 41:51 42:14 43:41 
6.97750026852602 1:0 2:0 3:0 4:0 5:0 6:0 7:0 8:100 9:0 10:0 11:0 12:-100 13:0 14:0 15:0 16:0 17:0 18:0 19:0 20:0 21:20 22:80 23:80 24:0 25:20 26:0 27:0 28:40 29:20 30:0 31:0 32:0 33:20 34:0 35:40 36:60 37:0 38:40 39:0 40:20 41:51 42:46 43:63 
2.079924244791004 1:-100 2:0 3:100 4:0 5:0 6:0 7:0 8:0 9:0 10:0 11:0 12:0 13:0 14:0 15:0 16:0 17:0 18:0 19:0 20:0 21:20 22:60 23:40 24:20 25:40 26:40 27:20 28:0 29:180 30:40 31:20 32:20 33:20 34:20 35:0 36:80 37:40 38:60 39:0 40:20 41:4 42:35 43:50 
0.6933994046142421 1:0 2:0 3:0 4:0 5:0 6:0 7:0 8:0 9:0 10:-100 11:0 12:0 13:0 14:0 15:100 16:0 17:0 18:0 19:0 20:0 21:20 22:0 23:40 24:20 25:0 26:0 27:40 28:20 29:20 30:20 31:0 32:40 33:0 34:0 35:0 36:100 37:0 38:0 39:40 40:20 41:70 42:32 43:25 
1.560888912776488 1:-100 2:100 3:0 4:0 5:0 6:0 7:0 8:0 9:0 10:0 11:0 12:0 13:0 14:0 15:0 16:0 17:0 18:0 19:0 20:0 21:0 22:20 23:0 24:0 25:0 26:20 27:20 28:20 29:40 30:20 31:20 32:20 33:40 34:20 35:40 36:0 37:0 38:0 39:60 40:40 41:60 42:19 43:64 
8 1:0 2:0 3:0 4:0 5:0 6:0 7:0 8:0 9:0 10:0 11:100 12:0 13:-100 14:0 15:0 16:0 17:0 18:0 19:0 20:0 21:20 22:60 23:40 24:20 25:40 26:0 27:20 28:40 29:20 30:20 31:0 32:40 33:0 34:40 35:20 36:60 37:0 38:40 39:20 40:0 41:0 42:42 43:46 
6.077149754241742 1:0 2:0 3:0 4:0 5:0 6:0 7:0 8:0 9:100 10:0 11:0 12:-100 13:0 14:0 15:0 16:0 17:0 18:0 19:0 20:0 21:20 22:20 23:40 24:0 25:60 26:0 27:60 28:0 29:20 30:20 31:20 32:20 33:40 34:0 35:20 36:20 37:20 38:0 39:40 40:0 41:56 42:50 43:39 
-4.013219917937366 1:0 2:0 3:0 4:-100 5:0 6:0 7:0 8:100 9:0 10:0 11:0 12:0 13:0 14:0 15:0 16:0 17:0 18:0 19:0 20:0 21:40 22:0 23:0 24:20 25:0 26:0 27:20 28:0 29:0 30:20 31:20 32:0 33:40 34:0 35:20 36:0 37:0 38:20 39:20 40:20 41:105 42:22 43:53 
8 1:0 2:0 3:0 4:-100 5:0 6:0 7:0 8:100 9:0 10:0 11:0 12:0 13:0 14:0 15:0 16:0 17:0 18:0 19:0 20:0 21:40 22:0 23:0 24:20 25:0 26:0 27:20 28:0 29:0 30:20 31:20 32:0 33:40 34:0 35:20 36:0 37:0 38:20 39:20 40:20 41:105 42:50 43:53 
-0.562637081423459 1:0 2:0 3:0 4:-100 5:0 6:0 7:0 8:100 9:0 10:0 11:0 12:0 13:0 14:0 15:0 16:0 17:0 18:0 19:0 20:0 21:40 22:0 23:0 24:20 25:0 26:0 27:20 28:0 29:0 30:20 31:20 32:0 33:40 34:0 35:20 36:0 37:0 38:20 39:20 40:20 41:105 42:67 43:53 
5.038543482959115 1:-100 2:0 3:0 4:0 5:0 6:0 7:0 8:100 9:0 10:0 11:0 12:0 13:0 14:0 15:0 16:0 17:0 18:0 19:0 20:0 21:0 22:20 23:0 24:0 25:0 26:20 27:20 28:20 29:40 30:20 31:20 32:20 33:40 34:20 35:40 36:0 37:0 38:0 39:60 40:40 41:60 42:19 43:64 
5.69372664605631 1:0 2:0 3:0 4:0 5:100 6:0 7:0 8:0 9:0 10:0 11:0 12:0 13:0 14:0 15:0 16:0 17:0 18:-100 19:0 20:0 21:20 22:60 23:40 24:0 25:20 26:0 27:40 28:0 29:40 30:20 31:40 32:60 33:20 34:0 35:40 36:20 37:80 38:0 39:20 40:20 41:16 42:50 43:25 
2.078052400099576 1:-100 2:0 3:0 4:0 5:100 6:0 7:0 8:0 9:0 10:0 11:0 12:0 13:0 14:0 15:0 16:0 17:0 18:0 19:0 20:0 21:60 22:100 23:80 24:60 25:40 26:0 27:60 28:60 29:80 30:20 31:20 32:80 33:0 34:0 35:40 36:80 37:0 38:40 39:20 40:40 41:0 42:38 43:40 
0.1562934508950025 1:0 2:0 3:0 4:0 5:0 6:0 7:0 8:0 9:-100 10:0 11:100 12:0 13:0 14:0 15:0 16:0 17:0 18:0 19:0 20:0 21:60 22:0 23:20 24:0 25:20 26:0 27:0 28:0 29:40 30:0 31:20 32:40 33:0 34:0 35:0 36:40 37:0 38:20 39:0 40:60 41:0 42:50 43:63 
-8 1:0 2:0 3:0 4:0 5:0 6:0 7:0 8:0 9:100 10:0 11:0 12:0 13:0 14:0 15:0 16:0 17:0 18:0 19:-100 20:0 21:40 22:40 23:80 24:0 25:0 26:0 27:60 28:80 29:40 30:40 31:20 32:60 33:0 34:0 35:0 36:40 37:0 38:20 39:40 40:40 41:9 42:45 43:25 
-6.454346432851112 1:0 2:0 3:-100 4:0 5:0 6:0 7:0 8:0 9:0 10:0 11:0 12:100 13:0 14:0 15:0 16:0 17:0 18:0 19:0 20:0 21:60 22:100 23:40 24:20 25:60 26:40 27:20 28:40 29:180 30:0 31:80 32:60 33:40 34:0 35:20 36:40 37:40 38:40 39:60 40:40 41:0 42:45 43:74 
-3.010395470779403 1:0 2:0 3:-100 4:0 5:0 6:0 7:0 8:0 9:0 10:0 11:100 12:0 13:0 14:0 15:0 16:0 17:0 18:0 19:0 20:0 21:60 22:80 23:40 24:20 25:20 26:60 27:40 28:20 29:160 30:0 31:100 32:80 33:80 34:0 35:40 36:20 37:20 38:20 39:100 40:60 41:1 42:19 43:64 
-8 1:0 2:0 3:0 4:-100 5:0 6:0 7:0 8:0 9:0 10:0 11:0 12:0 13:0 14:0 15:0 16:0 17:0 18:100 19:0 20:0 21:40 22:0 23:0 24:20 25:0 26:0 27:20 28:0 29:0 30:20 31:20 32:0 33:40 34:0 35:20 36:0 37:0 38:20 39:20 40:20 41:105 42:22 43:53 
8 1:0 2:0 3:0 4:-100 5:0 6:0 7:0 8:0 9:0 10:0 11:0 12:0 13:0 14:0 15:0 16:0 17:0 18:100 19:0 20:0 21:40 22:0 23:0 24:20 25:0 26:0 27:20 28:0 29:0 30:20 31:20 32:0 33:40 34:0 35:20 36:0 37:0 38:20 39:20 40:20 41:105 42:50 43:53 
0.5056752947093343 1:0 2:0 3:0 4:-100 5:0 6:0 7:0 8:0 9:0 10:0 11:0 12:0 13:0 14:0 15:0 16:0 17:0 18:100 19:0 20:0 21:40 22:0 23:0 24:20 25:0 26:0 27:20 28:0 29:0 30:20 31:20 32:0 33:40 34:0 35:20 36:0 37:0 38:20 39:20 40:20 41:105 42:67 43:53 
-1.527844219431422 1:0 2:0 3:100 4:-100 5:0 6:0 7:0 8:0 9:0 10:0 11:0 12:0 13:0 14:0 15:0 16:0 17:0 18:0 19:0 20:0 21:0 22:0 23:20 24:0 25:0 26:0 27:0 28:40 29:20 30:40 31:0 32:20 33:0 34:0 35:60 36:20 37:20 38:60 39:20 40:0 41:30 42:50 43:63 
1.349339941801541 1:0 2:0 3:0 4:0 5:0 6:0 7:0 8:0 9:0 10:0 11:0 12:0 13:0 14:0 15:100 16:0 17:-100 18:0 19:0 20:0 21:20 22:40 23:0 24:0 25:20 26:0 27:0 28:40 29:120 30:0 31:0 32:0 33:0 34:0 35:20 36:40 37:0 38:40 39:0 40:0 41:57 42:35 43:50 
1.364555631064235 1:0 2:0 3:0 4:0 5:0 6:0 7:0 8:0 9:0 10:0 11:0 12:0 13:0 14:0 15:0 16:-100 17:100 18:0 19:0 20:0 21:40 22:120 23:80 24:0 25:20 26:0 27:0 28:20 29:0 30:0 31:20 32:100 33:0 34:20 35:20 36:20 37:0 38:20 39:0 40:0 41:49 42:35 43:25 
1.099184972206881 1:0 2:0 3:0 4:0 5:0 6:0 7:0 8:0 9:100 10:0 11:0 12:0 13:0 14:0 15:0 16:0 17:0 18:0 19:-100 20:0 21:60 22:20 23:0 24:0 25:40 26:0 27:80 28:40 29:20 30:40 31:60 32:0 33:0 34:20 35:0 36:0 37:60 38:60 39:40 40:0 41:3 42:50 43:25 
-8 1:0 2:0 3:0 4:0 5:0 6:0 7:0 8:0 9:100 10:0 11:0 12:0 13:0 14:0 15:0 16:0 17:0 18:0 19:-100 20:0 21:60 22:20 23:0 24:0 25:40 26:0 27:80 28:40 29:20 30:40 31:60 32:0 33:0 34:20 35:0 36:0 37:60 38:60 39:40 40:0 41:3 42:50 43:50 
-3.282836032364116 1:0 2:0 3:0 4:0 5:-100 6:0 7:0 8:0 9:100 10:0 11:0 12:0 13:0 14:0 15:0 16:0 17:0 18:0 19:0 20:0 21:20 22:80 23:20 24:20 25:20 26:0 27:60 28:60 29:40 30:40 31:0 32:60 33:0 34:40 35:60 36:80 37:20 38:60 39:40 40:40 41:8 42:50 43:20 
-3.893149270281369 1:0 2:0 3:0 4:0 5:0 6:0 7:0 8:0 9:0 10:0 11:100 12:0 13:0 14:0 15:0 16:0 17:0 18:0 19:-100 20:0 21:0 22:20 23:20 24:0 25:60 26:20 27:20 28:40 29:0 30:0 31:0 32:20 33:0 34:0 35:0 36:60 37:0 38:60 39:20 40:0 41:50 42:50 43:70 
3.555544751458355 1:0 2:0 3:0 4:0 5:0 6:0 7:0 8:0 9:0 10:0 11:100 12:0 13:0 14:0 15:0 16:0 17:0 18:0 19:-100 20:0 21:0 22:20 23:20 24:0 25:60 26:20 27:20 28:40 29:0 30:0 31:0 32:20 33:0 34:0 35:0 36:60 37:0 38:60 39:20 40:0 41:50 42:50 43:70 
-0.7140360029120246 1:0 2:0 3:0 4:0 5:0 6:0 7:0 8:0 9:0 10:0 11:0 12:0 13:0 14:0 15:0 16:0 17:0 18:-100 19:0 20:100 21:40 22:80 23:40 24:40 25:20 26:40 27:60 28:80 29:100 30:0 31:60 32:80 33:20 34:0 35:40 36:0 37:40 38:0 39:60 40:60 41:10 42:64 43:47 
3.536712773468691 1:0 2:0 3:0 4:0 5:0 6:0 7:0 8:0 9:0 10:0 11:0 12:0 13:0 14:0 15:0 16:0 17:0 18:-100 19:0 20:100 21:40 22:80 23:40 24:40 25:20 26:40 27:60 28:80 29:100 30:0 31:60 32:80 33:20 34:0 35:40 36:0 37:40 38:0 39:60 40:60 41:10 42:21 43:50 
7.784698161343723 1:0 2:-100 3:100 4:0 5:0 6:0 7:0 8:0 9:0 10:0 11:0 12:0 13:0 14:0 15:0 16:0 17:0 18:0 19:0 20:0 21:120 22:140 23:80 24:60 25:60 26:40 27:40 28:60 29:80 30:20 31:40 32:20 33:20 34:0 35:60 36:40 37:40 38:20 39:40 40:40 41:0 42:21 43:51 
-8 1:0 2:-100 3:100 4:0 5:0 6:0 7:0 8:0 9:0 10:0 11:0 12:0 13:0 14:0 15:0 16:0 17:0 18:0 19:0 20:0 21:120 22:140 23:80 24:60 25:60 26:40 27:40 28:60 29:80 30:20 31:40 32:20 33:20 34:0 35:60 36:40 37:40 38:20 39:40 40:40 41:0 42:40 43:64 
1.056613792833804 1:0 2:0 3:0 4:0 5:100 6:0 7:-100 8:0 9:0 10:0 11:0 12:0 13:0 14:0 15:0 16:0 17:0 18:0 19:0 20:0 21:40 22:20 23:20 24:0 25:0 26:20 27:0 28:20 29:60 30:20 31:40 32:40 33:80 34:20 35:40 36:0 37:40 38:0 39:80 40:80 41:52 42:19 43:64 
-5.516625147276244 1:0 2:0 3:0 4:0 5:0 6:0 7:0 8:0 9:-100 10:0 11:0 12:100 13:0 14:0 15:0 16:0 17:0 18:0 19:0 20:0 21:40 22:20 23:40 24:40 25:20 26:20 27:20 28:20 29:20 30:0 31:0 32:80 33:0 34:0 35:60 36:40 37:0 38:0 39:40 40:40 41:14 42:42 43:65 
7.364927356388648 1:0 2:0 3:-100 4:100 5:0 6:0 7:0 8:0 9:0 10:0 11:0 12:0 13:0 14:0 15:0 16:0 17:0 18:0 19:0 20:0 21:100 22:40 23:80 24:60 25:60 26:20 27:40 28:0 29:60 30:0 31:0 32:20 33:20 34:0 35:80 36:0 37:0 38:40 39:60 40:60 41:10 42:14 43:41 
-8 1:0 2:0 3:-100 4:100 5:0 6:0 7:0 8:0 9:0 10:0 11:0 12:0 13:0 14:0 15:0 16:0 17:0 18:0 19:0 20:0 21:100 22:40 23:80 24:60 25:60 26:20 27:40 28:0 29:60 30:0 31:0 32:20 33:20 34:0 35:80 36:0 37:0 38:40 39:60 40:60 41:10 42:46 43:64 
8 1:0 2:-100 3:0 4:100 5:0 6:0 7:0 8:0 9:0 10:0 11:0 12:0 13:0 14:0 15:0 16:0 17:0 18:0 19:0 20:0 21:120 22:140 23:80 24:60 25:60 26:40 27:40 28:60 29:80 30:20 31:40 32:20 33:20 34:0 35:60 36:40 37:40 38:20 39:40 40:40 41:0 42:38 43:65 
-0.7178607212075133 1:0 2:-100 3:0 4:100 5:0 6:0 7:0 8:0 9:0 10:0 11:0 12:0 13:0 14:0 15:0 16:0 17:0 18:0 19:0 20:0 21:120 22:140 23:80 24:60 25:60 26:40 27:40 28:60 29:80 30:20 31:40 32:20 33:20 34:0 35:60 36:40 37:40 38:20 39:40 40:40 41:0 42:40 43:64 
-0.7778087289612271 1:0 2:0 3:0 4:0 5:0 6:0 7:0 8:0 9:0 10:0 11:0 12:0 13:0 14:-100 15:0 16:0 17:100 18:0 19:0 20:0 21:60 22:140 23:80 24:20 25:80 26:0 27:20 28:80 29:40 30:20 31:40 32:40 33:60 34:0 35:80 36:0 37:20 38:20 39:20 40:60 41:3 42:60 43:37 
-8 1:-100 2:0 3:0 4:0 5:0 6:0 7:0 8:0 9:0 10:0 11:0 12:100 13:0 14:0 15:0 16:0 17:0 18:0 19:0 20:0 21:80 22:100 23:80 24:20 25:0 26:0 27:60 28:20 29:0 30:20 31:0 32:20 33:20 34:0 35:0 36:60 37:20 38:40 39:20 40:20 41:5 42:50 43:25 
-8 1:0 2:-100 3:0 4:0 5:0 6:0 7:0 8:0 9:100 10:0 11:0 12:0 13:0 14:0 15:0 16:0 17:0 18:0 19:0 20:0 21:120 22:140 23:80 24:60 25:60 26:40 27:40 28:60 29:80 30:20 31:40 32:20 33:20 34:0 35:60 36:40 37:40 38:20 39:40 40:40 41:0 42:21 43:51 
-8 1:0 2:-100 3:0 4:0 5:0 6:0 7:0 8:0 9:100 10:0 11:0 12:0 13:0 14:0 15:0 16:0 17:0 18:0 19:0 20:0 21:120 22:140 23:80 24:60 25:60 26:40 27:40 28:60 29:80 30:20 31:40 32:20 33:20 34:0 35:60 36:40 37:40 38:20 39:40 40:40 41:0 42:21 43:51 
