svm_type nu_svr
kernel_type rbf
gamma 3.05176e-05
nr_class 2
total_sv 1653
rho 0.942483
probA 0.678212
SV
-6.677756109631699 1:0 2:0 3:0 4:-100 5:0 6:0 7:0 8:0 9:100 10:0 11:0 12:0 13:0 14:0 15:0 16:0 17:0 18:0 19:0 20:0 21:60 22:100 23:20 24:20 25:40 26:20 27:20 28:80 29:80 30:0 31:20 32:40 33:0 34:0 35:40 36:20 37:40 38:60 39:20 40:20 41:28 42:21 43:51 
-1.069774998051948 1:0 2:0 3:-100 4:100 5:0 6:0 7:0 8:0 9:0 10:0 11:0 12:0 13:0 14:0 15:0 16:0 17:0 18:0 19:0 20:0 21:100 22:80 23:40 24:20 25:40 26:0 27:20 28:40 29:100 30:20 31:20 32:20 33:20 34:0 35:80 36:40 37:0 38:20 39:40 40:60 41:0 42:38 43:65 
-2.467100344070295 1:0 2:0 3:0 4:0 5:0 6:0 7:0 8:0 9:100 10:0 11:0 12:0 13:0 14:-100 15:0 16:0 17:0 18:0 19:0 20:0 21:60 22:20 23:60 24:20 25:20 26:0 27:0 28:40 29:60 30:20 31:20 32:0 33:0 34:60 35:20 36:0 37:20 38:20 39:20 40:20 41:49 42:68 43:82 
-8 1:0 2:0 3:0 4:0 5:0 6:0 7:0 8:-100 9:0 10:0 11:100 12:0 13:0 14:0 15:0 16:0 17:0 18:0 19:0 20:0 21:0 22:60 23:0 24:0 25:20 26:0 27:40 28:0 29:0 30:20 31:0 32:40 33:0 34:0 35:20 36:40 37:20 38:0 39:40 40:20 41:23 42:50 43:20 
-8 1:0 2:0 3:0 4:0 5:0 6:0 7:0 8:-100 9:0 10:0 11:100 12:0 13:0 14:0 15:0 16:0 17:0 18:0 19:0 20:0 21:0 22:60 23:0 24:0 25:20 26:0 27:40 28:0 29:0 30:20 31:0 32:40 33:0 34:0 35:20 36:40 37:20 38:0 39:40 40:20 41:23 42:37 43:40 
3.056283121906886 1:0 2:0 3:0 4:0 5:0 6:0 7:0 8:-100 9:0 10:0 11:100 12:0 13:0 14:0 15:0 16:0 17:0 18:0 19:0 20:0 21:0 22:60 23:0 24:0 25:20 26:0 27:40 28:0 29:0 30:20 31:0 32:40 33:0 34:0 35:20 36:40 37:20 38:0 39:40 40:20 41:23 42:50 43:51 
8 1:0 2:0 3:0 4:0 5:0 6:0 7:0 8:-100 9:0 10:0 11:100 12:0 13:0 14:0 15:0 16:0 17:0 18:0 19:0 20:0 21:0 22:60 23:0 24:0 25:20 26:0 27:40 28:0 29:0 30:20 31:0 32:40 33:0 34:0 35:20 36:40 37:20 38:0 39:40 40:20 41:23 42:35 43:47 
5.428777391302459 1:0 2:0 3:0 4:0 5:0 6:0 7:0 8:0 9:100 10:0 11:0 12:0 13:0 14:0 15:-100 16:0 17:0 18:0 19:0 20:0 21:40 22:0 23:40 24:20 25:0 26:20 27:20 28:80 29:20 30:20 31:20 32:0 33:0 34:0 35:60 36:20 37:20 38:0 39:0 40:40 41:63 42:19 43:64 
4.13131836430819 1:0 2:0 3:0 4:0 5:0 6:0 7:0 8:100 9:0 10:0 11:0 12:0 13:0 14:0 15:-100 16:0 17:0 18:0 19:0 20:0 21:40 22:0 23:40 24:20 25:0 26:20 27:20 28:80 29:20 30:20 31:20 32:0 33:0 34:0 35:60 36:20 37:20 38:0 39:0 40:40 41:63 42:19 43:64 
-0.9004119123210914 1:0 2:-100 3:0 4:0 5:0 6:0 7:0 8:0 9:100 10:0 11:0 12:0 13:0 14:0 15:0 16:0 17:0 18:0 19:0 20:0 21:80 22:120 23:120 24:20 25:40 26:0 27:20 28:20 29:20 30:0 31:20 32:100 33:0 34:20 35:20 36:100 37:80 38:40 39:0 40:20 41:0 42:26 43:50 
8 1:0 2:0 3:-100 4:0 5:0 6:0 7:0 8:0 9:100 10:0 11:0 12:0 13:0 14:0 15:0 16:0 17:0 18:0 19:0 20:0 21:100 22:80 23:40 24:20 25:40 26:0 27:20 28:40 29:100 30:20 31:20 32:20 33:20 34:0 35:80 36:40 37:0 38:20 39:40 40:60 41:0 42:21 43:51 
1.766903905219808 1:0 2:0 3:0 4:0 5:0 6:0 7:0 8:0 9:0 10:0 11:0 12:0 13:0 14:0 15:0 16:0 17:0 18:100 19:0 20:-100 21:40 22:40 23:0 24:0 25:0 26:20 27:20 28:80 29:60 30:20 31:20 32:20 33:0 34:0 35:0 36:40 37:0 38:0 39:20 40:0 41:77 42:45 43:25 
-7.981117262687992 1:0 2:0 3:0 4:0 5:0 6:0 7:0 8:0 9:0 10:0 11:0 12:0 13:0 14:0 15:0 16:0 17:0 18:100 19:0 20:-100 21:0 22:20 23:20 24:0 25:40 26:0 27:20 28:80 29:100 30:20 31:40 32:20 33:40 34:40 35:40 36:0 37:0 38:60 39:40 40:40 41:34 42:39 43:53 
8 1:0 2:0 3:0 4:0 5:0 6:0 7:0 8:0 9:0 10:0 11:0 12:0 13:0 14:0 15:0 16:0 17:0 18:100 19:0 20:-100 21:0 22:20 23:20 24:0 25:40 26:0 27:20 28:80 29:100 30:20 31:40 32:20 33:40 34:40 35:40 36:0 37:0 38:60 39:40 40:40 41:34 42:21 43:50 
-2.604503677423256 1:0 2:0 3:0 4:0 5:0 6:0 7:-100 8:0 9:100 10:0 11:0 12:0 13:0 14:0 15:0 16:0 17:0 18:0 19:0 20:0 21:60 22:80 23:40 24:20 25:40 26:40 27:20 28:40 29:80 30:0 31:20 32:20 33:60 34:0 35:40 36:40 37:60 38:60 39:40 40:20 41:8 42:19 43:64 
-2.942612573757425 1:0 2:0 3:0 4:0 5:0 6:0 7:0 8:0 9:0 10:0 11:0 12:0 13:0 14:0 15:0 16:0 17:100 18:0 19:0 20:-100 21:20 22:20 23:20 24:20 25:0 26:60 27:40 28:40 29:40 30:0 31:20 32:0 33:40 34:0 35:20 36:40 37:0 38:0 39:20 40:0 41:65 42:45 43:74 
-3.934268025702461 1:0 2:0 3:0 4:0 5:0 6:0 7:0 8:0 9:0 10:0 11:0 12:0 13:0 14:0 15:0 16:0 17:0 18:-100 19:100 20:0 21:60 22:60 23:60 24:0 25:0 26:20 27:0 28:20 29:20 30:0 31:20 32:0 33:0 34:0 35:0 36:60 37:20 38:40 39:20 40:20 41:50 42:44 43:25 
3.669479504572621 1:-100 2:0 3:0 4:0 5:0 6:0 7:0 8:0 9:0 10:100 11:0 12:0 13:0 14:0 15:0 16:0 17:0 18:0 19:0 20:0 21:0 22:20 23:20 24:0 25:20 26:60 27:0 28:20 29:40 30:0 31:0 32:0 33:20 34:0 35:60 36:0 37:60 38:20 39:20 40:0 41:60 42:20 43:68 
-7.116385755484539 1:0 2:-100 3:0 4:0 5:0 6:0 7:0 8:0 9:100 10:0 11:0 12:0 13:0 14:0 15:0 16:0 17:0 18:0 19:0 20:0 21:120 22:120 23:40 24:40 25:20 26:20 27:20 28:60 29:100 30:40 31:40 32:60 33:0 34:0 35:40 36:60 37:20 38:60 39:40 40:60 41:0 42:50 43:20 
8 1:0 2:-100 3:0 4:0 5:0 6:0 7:0 8:0 9:100 10:0 11:0 12:0 13:0 14:0 15:0 16:0 17:0 18:0 19:0 20:0 21:20 22:40 23:20 24:20 25:40 26:40 27:60 28:20 29:60 30:20 31:20 32:0 33:0 34:20 35:0 36:80 37:20 38:60 39:20 40:40 41:8 42:37 43:5 
-1.028324841833069 1:0 2:0 3:0 4:0 5:0 6:0 7:0 8:0 9:-100 10:0 11:0 12:0 13:0 14:0 15:0 16:0 17:100 18:0 19:0 20:0 21:40 22:40 23:20 24:0 25:0 26:20 27:0 28:20 29:40 30:0 31:20 32:20 33:0 34:0 35:0 36:20 37:20 38:20 39:0 40:0 41:83 42:45 43:25 
-8 1:0 2:0 3:0 4:0 5:0 6:0 7:0 8:0 9:-100 10:100 11:0 12:0 13:0 14:0 15:0 16:0 17:0 18:0 19:0 20:0 21:40 22:40 23:20 24:0 25:0 26:20 27:0 28:20 29:40 30:0 31:20 32:20 33:0 34:0 35:0 36:20 37:20 38:20 39:0 40:0 41:83 42:45 43:25 
3.231005126812361 1:0 2:0 3:0 4:0 5:0 6:0 7:0 8:0 9:-100 10:0 11:100 12:0 13:0 14:0 15:0 16:0 17:0 18:0 19:0 20:0 21:40 22:40 23:20 24:0 25:0 26:20 27:0 28:20 29:40 30:0 31:20 32:20 33:0 34:0 35:0 36:20 37:20 38:20 39:0 40:0 41:83 42:45 43:25 
0.438144398701272 1:0 2:0 3:0 4:0 5:0 6:0 7:0 8:0 9:-100 10:0 11:0 12:0 13:0 14:0 15:100 16:0 17:0 18:0 19:0 20:0 21:40 22:40 23:20 24:0 25:0 26:20 27:0 28:20 29:40 30:0 31:20 32:20 33:0 34:0 35:0 36:20 37:20 38:20 39:0 40:0 41:83 42:45 43:25 
-2.330418480775879 1:0 2:0 3:0 4:0 5:0 6:0 7:0 8:0 9:-100 10:0 11:0 12:100 13:0 14:0 15:0 16:0 17:0 18:0 19:0 20:0 21:40 22:40 23:20 24:0 25:0 26:20 27:0 28:20 29:40 30:0 31:20 32:20 33:0 34:0 35:0 36:20 37:20 38:20 39:0 40:0 41:83 42:45 43:25 
-1.263023433886949 1:0 2:0 3:0 4:0 5:0 6:100 7:0 8:0 9:-100 10:0 11:0 12:0 13:0 14:0 15:0 16:0 17:0 18:0 19:0 20:0 21:40 22:40 23:20 24:0 25:0 26:20 27:0 28:20 29:40 30:0 31:20 32:20 33:0 34:0 35:0 36:20 37:20 38:20 39:0 40:0 41:83 42:45 43:25 
-6.976485897217785 1:100 2:0 3:0 4:0 5:0 6:0 7:0 8:0 9:-100 10:0 11:0 12:0 13:0 14:0 15:0 16:0 17:0 18:0 19:0 20:0 21:40 22:40 23:20 24:0 25:0 26:20 27:0 28:20 29:40 30:0 31:20 32:20 33:0 34:0 35:0 36:20 37:20 38:20 39:0 40:0 41:83 42:45 43:25 
0.3008188721691223 1:0 2:0 3:0 4:0 5:0 6:0 7:100 8:0 9:-100 10:0 11:0 12:0 13:0 14:0 15:0 16:0 17:0 18:0 19:0 20:0 21:40 22:40 23:20 24:0 25:0 26:20 27:0 28:20 29:40 30:0 31:20 32:20 33:0 34:0 35:0 36:20 37:20 38:20 39:0 40:0 41:83 42:45 43:25 
1.866690393022476 1:-100 2:0 3:0 4:0 5:0 6:0 7:0 8:0 9:100 10:0 11:0 12:0 13:0 14:0 15:0 16:0 17:0 18:0 19:0 20:0 21:20 22:60 23:0 24:20 25:0 26:0 27:20 28:40 29:40 30:0 31:20 32:20 33:40 34:0 35:80 36:20 37:20 38:20 39:0 40:20 41:46 42:19 43:64 
2.669134778314552 1:-100 2:0 3:0 4:0 5:0 6:0 7:0 8:0 9:100 10:0 11:0 12:0 13:0 14:0 15:0 16:0 17:0 18:0 19:0 20:0 21:20 22:60 23:0 24:20 25:0 26:0 27:20 28:40 29:40 30:0 31:20 32:20 33:40 34:0 35:80 36:20 37:20 38:20 39:0 40:20 41:39 42:19 43:49 
8 1:0 2:0 3:0 4:0 5:-100 6:0 7:0 8:0 9:100 10:0 11:0 12:0 13:0 14:0 15:0 16:0 17:0 18:0 19:0 20:0 21:80 22:40 23:20 24:20 25:0 26:20 27:20 28:20 29:60 30:40 31:0 32:40 33:40 34:20 35:0 36:40 37:20 38:60 39:40 40:40 41:9 42:35 43:50 
-3.835070097032264 1:0 2:0 3:-100 4:0 5:0 6:0 7:100 8:0 9:0 10:0 11:0 12:0 13:0 14:0 15:0 16:0 17:0 18:0 19:0 20:0 21:60 22:80 23:40 24:20 25:20 26:60 27:40 28:20 29:160 30:0 31:100 32:80 33:80 34:0 35:40 36:20 37:20 38:20 39:100 40:60 41:1 42:19 43:64 
4.922288883975469 1:0 2:0 3:0 4:0 5:0 6:0 7:0 8:100 9:-100 10:0 11:0 12:0 13:0 14:0 15:0 16:0 17:0 18:0 19:0 20:0 21:120 22:60 23:60 24:0 25:20 26:20 27:0 28:20 29:40 30:20 31:20 32:0 33:0 34:0 35:20 36:80 37:20 38:80 39:20 40:40 41:0 42:44 43:25 
-3.170340114280237 1:0 2:0 3:0 4:0 5:0 6:0 7:0 8:0 9:-100 10:0 11:0 12:0 13:100 14:0 15:0 16:0 17:0 18:0 19:0 20:0 21:40 22:40 23:20 24:0 25:0 26:20 27:0 28:20 29:40 30:0 31:20 32:20 33:0 34:0 35:0 36:20 37:20 38:20 39:0 40:0 41:83 42:45 43:25 
-1.486921092177184 1:0 2:0 3:0 4:0 5:0 6:0 7:0 8:0 9:-100 10:0 11:0 12:0 13:0 14:0 15:0 16:0 17:0 18:100 19:0 20:0 21:40 22:40 23:20 24:0 25:0 26:20 27:0 28:20 29:40 30:0 31:20 32:20 33:0 34:0 35:0 36:20 37:20 38:20 39:0 40:0 41:83 42:45 43:25 
8 1:0 2:0 3:-100 4:0 5:0 6:0 7:0 8:0 9:100 10:0 11:0 12:0 13:0 14:0 15:0 16:0 17:0 18:0 19:0 20:0 21:20 22:100 23:100 24:0 25:60 26:20 27:100 28:60 29:40 30:20 31:40 32:100 33:0 34:0 35:60 36:40 37:20 38:20 39:60 40:100 41:0 42:45 43:25 
-8 1:0 2:0 3:-100 4:0 5:0 6:0 7:0 8:0 9:100 10:0 11:0 12:0 13:0 14:0 15:0 16:0 17:0 18:0 19:0 20:0 21:20 22:100 23:100 24:0 25:60 26:20 27:100 28:60 29:40 30:20 31:40 32:100 33:0 34:0 35:60 36:40 37:20 38:20 39:60 40:100 41:0 42:45 43:25 
-8 1:0 2:0 3:-100 4:0 5:0 6:0 7:0 8:0 9:100 10:0 11:0 12:0 13:0 14:0 15:0 16:0 17:0 18:0 19:0 20:0 21:20 22:100 23:100 24:0 25:60 26:20 27:100 28:60 29:40 30:20 31:40 32:100 33:0 34:0 35:60 36:40 37:20 38:20 39:60 40:100 41:0 42:45 43:25 
0.229967027933856 1:0 2:0 3:-100 4:0 5:0 6:0 7:0 8:0 9:100 10:0 11:0 12:0 13:0 14:0 15:0 16:0 17:0 18:0 19:0 20:0 21:20 22:100 23:100 24:0 25:60 26:20 27:100 28:60 29:40 30:20 31:40 32:100 33:0 34:0 35:60 36:40 37:20 38:20 39:60 40:100 41:0 42:45 43:48 
-0.8409575237681949 1:0 2:0 3:0 4:0 5:0 6:0 7:0 8:0 9:-100 10:0 11:0 12:0 13:0 14:100 15:0 16:0 17:0 18:0 19:0 20:0 21:40 22:40 23:20 24:0 25:0 26:20 27:0 28:20 29:40 30:0 31:20 32:20 33:0 34:0 35:0 36:20 37:20 38:20 39:0 40:0 41:83 42:45 43:25 
4.971971419423835 1:0 2:0 3:0 4:0 5:0 6:0 7:0 8:0 9:-100 10:0 11:0 12:0 13:0 14:0 15:0 16:100 17:0 18:0 19:0 20:0 21:40 22:40 23:20 24:0 25:0 26:20 27:0 28:20 29:40 30:0 31:20 32:20 33:0 34:0 35:0 36:20 37:20 38:20 39:0 40:0 41:83 42:45 43:25 
2.34530960473111 1:0 2:0 3:0 4:100 5:0 6:0 7:0 8:0 9:-100 10:0 11:0 12:0 13:0 14:0 15:0 16:0 17:0 18:0 19:0 20:0 21:40 22:40 23:20 24:0 25:0 26:20 27:0 28:20 29:40 30:0 31:20 32:20 33:0 34:0 35:0 36:20 37:20 38:20 39:0 40:0 41:83 42:45 43:25 
3.606539668045986 1:0 2:100 3:0 4:0 5:0 6:0 7:0 8:0 9:-100 10:0 11:0 12:0 13:0 14:0 15:0 16:0 17:0 18:0 19:0 20:0 21:40 22:40 23:20 24:0 25:0 26:20 27:0 28:20 29:40 30:0 31:20 32:20 33:0 34:0 35:0 36:20 37:20 38:20 39:0 40:0 41:83 42:45 43:25 
0.5443507702545869 1:0 2:0 3:0 4:0 5:0 6:0 7:0 8:0 9:100 10:0 11:0 12:0 13:0 14:0 15:0 16:0 17:0 18:0 19:-100 20:0 21:40 22:0 23:80 24:0 25:40 26:0 27:40 28:20 29:20 30:0 31:60 32:80 33:0 34:0 35:40 36:40 37:0 38:0 39:60 40:60 41:48 42:45 43:25 
-3.378102531913901 1:0 2:0 3:0 4:0 5:0 6:0 7:0 8:0 9:-100 10:0 11:0 12:0 13:0 14:0 15:0 16:0 17:0 18:0 19:100 20:0 21:40 22:40 23:20 24:0 25:0 26:20 27:0 28:20 29:40 30:0 31:20 32:20 33:0 34:0 35:0 36:20 37:20 38:20 39:0 40:0 41:83 42:45 43:25 
2.038938744284567 1:0 2:0 3:0 4:0 5:0 6:0 7:0 8:0 9:0 10:0 11:0 12:0 13:100 14:0 15:0 16:0 17:0 18:0 19:0 20:-100 21:0 22:60 23:0 24:0 25:0 26:0 27:0 28:0 29:40 30:0 31:0 32:0 33:0 34:0 35:0 36:20 37:20 38:60 39:20 40:40 41:87 42:50 43:69 
1.227506573068675 1:-100 2:0 3:0 4:0 5:0 6:0 7:0 8:0 9:0 10:0 11:0 12:100 13:0 14:0 15:0 16:0 17:0 18:0 19:0 20:0 21:0 22:100 23:20 24:0 25:0 26:60 27:20 28:20 29:20 30:20 31:80 32:40 33:80 34:20 35:40 36:40 37:0 38:40 39:40 40:0 41:0 42:32 43:64 
-4.621223227790391 1:0 2:0 3:0 4:0 5:0 6:0 7:0 8:0 9:100 10:0 11:0 12:0 13:0 14:0 15:0 16:0 17:0 18:0 19:0 20:-100 21:0 22:60 23:0 24:0 25:0 26:0 27:0 28:0 29:40 30:0 31:0 32:0 33:0 34:0 35:0 36:20 37:20 38:60 39:20 40:40 41:87 42:50 43:69 
-1.883212149680583 1:0 2:0 3:0 4:0 5:100 6:0 7:0 8:0 9:0 10:0 11:0 12:0 13:0 14:0 15:0 16:0 17:0 18:0 19:0 20:-100 21:0 22:60 23:0 24:0 25:0 26:0 27:0 28:0 29:40 30:0 31:0 32:0 33:0 34:0 35:0 36:20 37:20 38:60 39:20 40:40 41:87 42:50 43:69 
8 1:0 2:0 3:0 4:0 5:0 6:0 7:0 8:100 9:0 10:0 11:0 12:0 13:0 14:0 15:0 16:0 17:0 18:0 19:0 20:-100 21:0 22:60 23:0 24:0 25:0 26:0 27:0 28:0 29:40 30:0 31:0 32:0 33:0 34:0 35:0 36:20 37:20 38:60 39:20 40:40 41:87 42:50 43:69 
-4.603327391852775 1:0 2:0 3:0 4:0 5:0 6:0 7:-100 8:0 9:0 10:0 11:100 12:0 13:0 14:0 15:0 16:0 17:0 18:0 19:0 20:0 21:100 22:140 23:40 24:20 25:40 26:0 27:40 28:40 29:60 30:20 31:0 32:20 33:0 34:60 35:40 36:60 37:40 38:100 39:60 40:20 41:0 42:50 43:20 
3.254703037395605 1:0 2:0 3:0 4:0 5:0 6:0 7:0 8:0 9:0 10:0 11:0 12:0 13:0 14:0 15:0 16:100 17:0 18:0 19:0 20:-100 21:0 22:60 23:0 24:0 25:0 26:0 27:0 28:0 29:40 30:0 31:0 32:0 33:0 34:0 35:0 36:20 37:20 38:60 39:20 40:40 41:87 42:50 43:69 
1.438395911162252 1:0 2:0 3:0 4:0 5:0 6:0 7:0 8:0 9:0 10:0 11:0 12:0 13:0 14:100 15:0 16:0 17:0 18:0 19:0 20:-100 21:0 22:60 23:0 24:0 25:0 26:0 27:0 28:0 29:40 30:0 31:0 32:0 33:0 34:0 35:0 36:20 37:20 38:60 39:20 40:40 41:87 42:50 43:69 
-5.293628412287926 1:0 2:0 3:100 4:0 5:0 6:0 7:0 8:0 9:0 10:0 11:0 12:0 13:0 14:0 15:0 16:0 17:0 18:0 19:0 20:-100 21:0 22:60 23:0 24:0 25:0 26:0 27:0 28:0 29:40 30:0 31:0 32:0 33:0 34:0 35:0 36:20 37:20 38:60 39:20 40:40 41:87 42:50 43:69 
-7.449990998963594 1:100 2:0 3:0 4:0 5:0 6:0 7:0 8:-100 9:0 10:0 11:0 12:0 13:0 14:0 15:0 16:0 17:0 18:0 19:0 20:0 21:40 22:160 23:60 24:40 25:20 26:0 27:0 28:60 29:40 30:20 31:20 32:60 33:0 34:0 35:20 36:20 37:40 38:0 39:0 40:40 41:9 42:51 43:51 
-2.014123315090379 1:0 2:100 3:0 4:0 5:0 6:0 7:0 8:0 9:0 10:0 11:0 12:0 13:0 14:0 15:0 16:0 17:0 18:0 19:0 20:-100 21:0 22:60 23:0 24:0 25:0 26:0 27:0 28:0 29:40 30:0 31:0 32:0 33:0 34:0 35:0 36:20 37:20 38:60 39:20 40:40 41:87 42:50 43:69 
-0.01497093746527448 1:0 2:0 3:0 4:100 5:0 6:0 7:0 8:0 9:0 10:0 11:0 12:0 13:0 14:0 15:0 16:0 17:0 18:0 19:0 20:-100 21:0 22:60 23:0 24:0 25:0 26:0 27:0 28:0 29:40 30:0 31:0 32:0 33:0 34:0 35:0 36:20 37:20 38:60 39:20 40:40 41:87 42:50 43:69 
0.3877807959479021 1:0 2:0 3:0 4:0 5:0 6:0 7:0 8:0 9:0 10:0 11:0 12:0 13:0 14:0 15:100 16:0 17:0 18:0 19:0 20:-100 21:0 22:60 23:0 24:0 25:0 26:0 27:0 28:0 29:40 30:0 31:0 32:0 33:0 34:0 35:0 36:20 37:20 38:60 39:20 40:40 41:87 42:50 43:69 
4.865388857486967 1:0 2:0 3:0 4:0 5:0 6:0 7:0 8:0 9:0 10:0 11:100 12:0 13:0 14:0 15:0 16:0 17:0 18:0 19:0 20:-100 21:0 22:60 23:0 24:0 25:0 26:0 27:0 28:0 29:40 30:0 31:0 32:0 33:0 34:0 35:0 36:20 37:20 38:60 39:20 40:40 41:87 42:50 43:69 
-5.626216212680652 1:0 2:0 3:0 4:0 5:0 6:0 7:0 8:0 9:0 10:100 11:0 12:0 13:0 14:0 15:0 16:0 17:0 18:0 19:0 20:-100 21:0 22:60 23:0 24:0 25:0 26:0 27:0 28:0 29:40 30:0 31:0 32:0 33:0 34:0 35:0 36:20 37:20 38:60 39:20 40:40 41:87 42:50 43:69 
5.467393569239955 1:0 2:0 3:0 4:0 5:0 6:0 7:0 8:0 9:0 10:0 11:0 12:0 13:0 14:0 15:0 16:0 17:100 18:0 19:0 20:-100 21:0 22:60 23:0 24:0 25:0 26:0 27:0 28:0 29:40 30:0 31:0 32:0 33:0 34:0 35:0 36:20 37:20 38:60 39:20 40:40 41:87 42:50 43:69 
-2.477763070246465 1:100 2:0 3:0 4:0 5:0 6:0 7:0 8:0 9:0 10:0 11:0 12:0 13:0 14:0 15:0 16:0 17:0 18:0 19:0 20:-100 21:0 22:60 23:0 24:0 25:0 26:0 27:0 28:0 29:40 30:0 31:0 32:0 33:0 34:0 35:0 36:20 37:20 38:60 39:20 40:40 41:87 42:50 43:69 
-3.077157766501669 1:0 2:0 3:0 4:0 5:0 6:100 7:0 8:0 9:0 10:0 11:0 12:0 13:0 14:0 15:0 16:0 17:0 18:0 19:0 20:-100 21:0 22:60 23:0 24:0 25:0 26:0 27:0 28:0 29:40 30:0 31:0 32:0 33:0 34:0 35:0 36:20 37:20 38:60 39:20 40:40 41:87 42:50 43:69 
-1.812585441227182 1:0 2:0 3:0 4:0 5:0 6:0 7:0 8:0 9:0 10:0 11:0 12:100 13:0 14:0 15:0 16:0 17:0 18:0 19:0 20:-100 21:0 22:60 23:0 24:0 25:0 26:0 27:0 28:0 29:40 30:0 31:0 32:0 33:0 34:0 35:0 36:20 37:20 38:60 39:20 40:40 41:87 42:50 43:69 
1.209664698596965 1:-100 2:0 3:0 4:0 5:0 6:0 7:0 8:0 9:100 10:0 11:0 12:0 13:0 14:0 15:0 16:0 17:0 18:0 19:0 20:0 21:0 22:100 23:20 24:0 25:0 26:60 27:20 28:20 29:20 30:20 31:80 32:40 33:80 34:20 35:40 36:40 37:0 38:40 39:40 40:0 41:0 42:32 43:64 
5.715254612449003 1:0 2:0 3:0 4:0 5:-100 6:0 7:0 8:0 9:100 10:0 11:0 12:0 13:0 14:0 15:0 16:0 17:0 18:0 19:0 20:0 21:100 22:20 23:40 24:0 25:100 26:20 27:0 28:60 29:60 30:20 31:20 32:0 33:0 34:20 35:20 36:40 37:20 38:40 39:20 40:40 41:35 42:50 43:60 
1.019686653088806 1:-100 2:0 3:0 4:100 5:0 6:0 7:0 8:0 9:0 10:0 11:0 12:0 13:0 14:0 15:0 16:0 17:0 18:0 19:0 20:0 21:80 22:100 23:60 24:40 25:60 26:20 27:20 28:80 29:80 30:0 31:0 32:20 33:20 34:0 35:80 36:20 37:20 38:40 39:40 40:40 41:4 42:38 43:65 
2.780238992528119 1:0 2:0 3:100 4:0 5:0 6:0 7:0 8:0 9:0 10:0 11:0 12:-100 13:0 14:0 15:0 16:0 17:0 18:0 19:0 20:0 21:40 22:60 23:20 24:0 25:20 26:20 27:20 28:20 29:140 30:20 31:20 32:20 33:0 34:0 35:60 36:0 37:40 38:40 39:20 40:20 41:42 42:54 43:25 
-5.278576551870923 1:0 2:100 3:0 4:0 5:0 6:0 7:0 8:0 9:-100 10:0 11:0 12:0 13:0 14:0 15:0 16:0 17:0 18:0 19:0 20:0 21:0 22:80 23:60 24:40 25:40 26:80 27:40 28:40 29:80 30:0 31:20 32:20 33:40 34:0 35:40 36:20 37:20 38:20 39:40 40:0 41:0 42:19 43:64 
-3.315031956511716 1:0 2:0 3:0 4:0 5:0 6:0 7:0 8:0 9:0 10:0 11:0 12:0 13:0 14:0 15:0 16:0 17:0 18:100 19:0 20:-100 21:20 22:20 23:20 24:20 25:0 26:60 27:40 28:40 29:40 30:0 31:20 32:0 33:40 34:0 35:20 36:40 37:0 38:0 39:20 40:0 41:65 42:45 43:74 
-0.8491312142308222 1:0 2:-100 3:0 4:0 5:0 6:0 7:0 8:0 9:100 10:0 11:0 12:0 13:0 14:0 15:0 16:0 17:0 18:0 19:0 20:0 21:40 22:80 23:40 24:40 25:20 26:20 27:20 28:20 29:60 30:20 31:40 32:20 33:20 34:0 35:100 36:40 37:40 38:0 39:0 40:40 41:2 42:21 43:51 
5.282457896657271 1:0 2:0 3:0 4:0 5:0 6:0 7:0 8:0 9:0 10:0 11:0 12:0 13:0 14:0 15:0 16:0 17:0 18:-100 19:100 20:0 21:80 22:80 23:60 24:0 25:0 26:0 27:0 28:0 29:20 30:0 31:20 32:0 33:0 34:0 35:0 36:60 37:0 38:20 39:20 40:20 41:56 42:44 43:25 
-1.272481767601365 1:0 2:0 3:0 4:0 5:0 6:0 7:0 8:-100 9:100 10:0 11:0 12:0 13:0 14:0 15:0 16:0 17:0 18:0 19:0 20:0 21:20 22:40 23:20 24:20 25:40 26:20 27:20 28:20 29:40 30:0 31:20 32:20 33:20 34:0 35:40 36:40 37:20 38:40 39:40 40:0 41:49 42:19 43:64 
-8 1:0 2:0 3:0 4:0 5:0 6:0 7:0 8:0 9:100 10:0 11:0 12:0 13:0 14:0 15:0 16:0 17:0 18:-100 19:0 20:0 21:40 22:80 23:0 24:0 25:0 26:20 27:0 28:40 29:20 30:0 31:20 32:0 33:0 34:20 35:0 36:80 37:20 38:20 39:0 40:0 41:70 42:28 43:25 
5.640765277207553 1:0 2:0 3:0 4:0 5:0 6:0 7:0 8:0 9:100 10:0 11:0 12:0 13:0 14:0 15:0 16:0 17:0 18:-100 19:0 20:0 21:40 22:80 23:0 24:0 25:0 26:20 27:0 28:40 29:20 30:0 31:20 32:0 33:0 34:20 35:0 36:80 37:20 38:20 39:0 40:0 41:70 42:28 43:25 
-4.114943504525757 1:0 2:0 3:0 4:0 5:0 6:0 7:0 8:0 9:0 10:0 11:0 12:0 13:0 14:100 15:0 16:0 17:0 18:0 19:-100 20:0 21:20 22:20 23:40 24:0 25:0 26:20 27:40 28:0 29:40 30:20 31:0 32:60 33:0 34:0 35:40 36:20 37:40 38:0 39:20 40:20 41:66 42:14 43:39 
5.562723493364293 1:0 2:0 3:0 4:0 5:0 6:0 7:0 8:0 9:0 10:0 11:0 12:0 13:0 14:100 15:0 16:0 17:0 18:0 19:-100 20:0 21:20 22:20 23:40 24:0 25:0 26:20 27:40 28:0 29:40 30:20 31:0 32:60 33:0 34:0 35:40 36:20 37:40 38:0 39:20 40:20 41:66 42:47 43:62 
-0.07710429350723473 1:0 2:0 3:0 4:0 5:0 6:0 7:0 8:0 9:0 10:0 11:0 12:-100 13:100 14:0 15:0 16:0 17:0 18:0 19:0 20:0 21:80 22:80 23:60 24:20 25:20 26:0 27:60 28:20 29:20 30:20 31:20 32:0 33:0 34:20 35:20 36:20 37:0 38:20 39:0 40:0 41:39 42:50 43:25 
-6.405717740364473 1:0 2:0 3:0 4:0 5:100 6:0 7:-100 8:0 9:0 10:0 11:0 12:0 13:0 14:0 15:0 16:0 17:0 18:0 19:0 20:0 21:100 22:60 23:0 24:20 25:20 26:40 27:40 28:20 29:60 30:20 31:0 32:0 33:0 34:0 35:0 36:120 37:20 38:20 39:0 40:60 41:35 42:50 43:25 
8 1:0 2:0 3:0 4:0 5:100 6:0 7:-100 8:0 9:0 10:0 11:0 12:0 13:0 14:0 15:0 16:0 17:0 18:0 19:0 20:0 21:100 22:60 23:0 24:20 25:20 26:40 27:40 28:20 29:60 30:20 31:0 32:0 33:0 34:0 35:0 36:120 37:20 38:20 39:0 40:60 41:35 42:50 43:24 
-0.4388088966807698 1:0 2:0 3:0 4:0 5:0 6:0 7:0 8:0 9:0 10:0 11:0 12:0 13:0 14:0 15:0 16:0 17:0 18:-100 19:0 20:100 21:80 22:80 23:60 24:0 25:0 26:0 27:0 28:0 29:20 30:0 31:20 32:0 33:0 34:0 35:0 36:60 37:0 38:20 39:20 40:20 41:56 42:44 43:25 
-5.857373477232027 1:0 2:0 3:0 4:0 5:0 6:0 7:0 8:0 9:100 10:-100 11:0 12:0 13:0 14:0 15:0 16:0 17:0 18:0 19:0 20:0 21:0 22:20 23:0 24:20 25:0 26:0 27:40 28:0 29:20 30:0 31:40 32:20 33:40 34:0 35:20 36:60 37:0 38:0 39:40 40:20 41:73 42:30 43:56 
-6.671866660649397 1:-100 2:0 3:0 4:0 5:0 6:0 7:0 8:0 9:0 10:0 11:100 12:0 13:0 14:0 15:0 16:0 17:0 18:0 19:0 20:0 21:0 22:20 23:40 24:0 25:20 26:0 27:20 28:20 29:20 30:0 31:20 32:20 33:0 34:0 35:40 36:20 37:20 38:40 39:20 40:20 41:65 42:19 43:64 
8 1:100 2:0 3:0 4:0 5:0 6:0 7:0 8:0 9:0 10:0 11:0 12:-100 13:0 14:0 15:0 16:0 17:0 18:0 19:0 20:0 21:80 22:80 23:60 24:20 25:20 26:0 27:60 28:20 29:20 30:20 31:20 32:0 33:0 34:20 35:20 36:20 37:0 38:20 39:0 40:0 41:39 42:50 43:25 
-3.969401427556733 1:0 2:0 3:0 4:0 5:0 6:0 7:0 8:0 9:0 10:0 11:0 12:0 13:0 14:0 15:0 16:0 17:0 18:0 19:-100 20:100 21:20 22:60 23:20 24:20 25:0 26:0 27:0 28:40 29:40 30:20 31:20 32:20 33:0 34:0 35:80 36:40 37:40 38:0 39:0 40:80 41:49 42:53 43:25 
3.20871053102816 1:0 2:-100 3:0 4:0 5:0 6:0 7:0 8:0 9:0 10:0 11:0 12:0 13:0 14:0 15:100 16:0 17:0 18:0 19:0 20:0 21:0 22:60 23:40 24:0 25:40 26:40 27:20 28:0 29:60 30:20 31:0 32:40 33:0 34:0 35:60 36:20 37:0 38:20 39:60 40:20 41:67 42:55 43:15 
1.851926808114884 1:-100 2:0 3:0 4:0 5:0 6:0 7:0 8:0 9:0 10:0 11:0 12:0 13:0 14:0 15:100 16:0 17:0 18:0 19:0 20:0 21:0 22:20 23:40 24:0 25:20 26:0 27:20 28:20 29:20 30:0 31:20 32:20 33:0 34:0 35:40 36:20 37:20 38:40 39:20 40:20 41:65 42:19 43:64 
1.728307324645296 1:-100 2:0 3:100 4:0 5:0 6:0 7:0 8:0 9:0 10:0 11:0 12:0 13:0 14:0 15:0 16:0 17:0 18:0 19:0 20:0 21:0 22:20 23:0 24:0 25:0 26:20 27:20 28:20 29:40 30:20 31:20 32:20 33:40 34:20 35:40 36:0 37:0 38:0 39:60 40:40 41:60 42:19 43:64 
4.028888265312331 1:0 2:0 3:0 4:0 5:0 6:0 7:0 8:0 9:0 10:0 11:0 12:0 13:0 14:0 15:0 16:0 17:100 18:-100 19:0 20:0 21:80 22:80 23:60 24:0 25:0 26:0 27:0 28:0 29:20 30:0 31:20 32:0 33:0 34:0 35:0 36:60 37:0 38:20 39:20 40:20 41:56 42:44 43:25 
-4.994276479101732 1:0 2:0 3:0 4:0 5:0 6:0 7:0 8:0 9:0 10:0 11:100 12:0 13:0 14:0 15:0 16:0 17:0 18:0 19:0 20:-100 21:0 22:20 23:20 24:0 25:40 26:0 27:20 28:80 29:100 30:20 31:40 32:20 33:40 34:40 35:40 36:0 37:0 38:60 39:40 40:40 41:34 42:21 43:50 
5.066707123395644 1:100 2:0 3:0 4:0 5:0 6:0 7:0 8:0 9:0 10:0 11:0 12:0 13:-100 14:0 15:0 16:0 17:0 18:0 19:0 20:0 21:100 22:80 23:60 24:0 25:0 26:0 27:60 28:20 29:40 30:20 31:20 32:20 33:0 34:0 35:0 36:60 37:60 38:40 39:0 40:20 41:0 42:50 43:25 
-5.793650236140349 1:0 2:0 3:0 4:0 5:0 6:0 7:0 8:0 9:0 10:0 11:0 12:100 13:-100 14:0 15:0 16:0 17:0 18:0 19:0 20:0 21:100 22:80 23:60 24:0 25:0 26:0 27:60 28:20 29:40 30:20 31:20 32:20 33:0 34:0 35:0 36:60 37:60 38:40 39:0 40:20 41:0 42:50 43:25 
-0.1451395773193584 1:0 2:0 3:0 4:0 5:0 6:0 7:0 8:0 9:0 10:0 11:100 12:0 13:-100 14:0 15:0 16:0 17:0 18:0 19:0 20:0 21:100 22:80 23:60 24:0 25:0 26:0 27:60 28:20 29:40 30:20 31:20 32:20 33:0 34:0 35:0 36:60 37:60 38:40 39:0 40:20 41:0 42:50 43:25 
-8 1:0 2:0 3:0 4:0 5:0 6:0 7:0 8:0 9:0 10:0 11:100 12:0 13:-100 14:0 15:0 16:0 17:0 18:0 19:0 20:0 21:100 22:80 23:60 24:0 25:0 26:0 27:60 28:20 29:40 30:20 31:20 32:20 33:0 34:0 35:0 36:60 37:60 38:40 39:0 40:20 41:0 42:50 43:25 
0.9383283970501382 1:0 2:0 3:0 4:0 5:0 6:0 7:0 8:0 9:0 10:0 11:0 12:0 13:0 14:0 15:0 16:0 17:0 18:0 19:100 20:-100 21:60 22:0 23:40 24:0 25:0 26:40 27:40 28:20 29:60 30:20 31:0 32:0 33:20 34:0 35:80 36:20 37:20 38:0 39:0 40:0 41:34 42:15 43:65 
-8 1:0 2:0 3:0 4:0 5:0 6:0 7:0 8:0 9:0 10:0 11:0 12:0 13:0 14:0 15:0 16:0 17:0 18:0 19:100 20:-100 21:60 22:0 23:40 24:0 25:0 26:40 27:40 28:20 29:60 30:20 31:0 32:0 33:20 34:0 35:80 36:20 37:20 38:0 39:0 40:0 41:34 42:28 43:65 
6.257638236637524 1:0 2:0 3:0 4:0 5:0 6:0 7:0 8:0 9:0 10:0 11:0 12:0 13:0 14:0 15:0 16:0 17:0 18:0 19:100 20:-100 21:60 22:0 23:40 24:0 25:0 26:40 27:40 28:20 29:60 30:20 31:0 32:0 33:20 34:0 35:80 36:20 37:20 38:0 39:0 40:0 41:34 42:32 43:65 
-5.791999704639359 1:0 2:0 3:-100 4:0 5:0 6:0 7:0 8:0 9:100 10:0 11:0 12:0 13:0 14:0 15:0 16:0 17:0 18:0 19:0 20:0 21:20 22:60 23:20 24:0 25:0 26:20 27:40 28:80 29:100 30:40 31:40 32:20 33:0 34:0 35:20 36:40 37:20 38:40 39:20 40:60 41:10 42:45 43:25 
0.5292907023053888 1:0 2:0 3:0 4:0 5:0 6:0 7:-100 8:0 9:100 10:0 11:0 12:0 13:0 14:0 15:0 16:0 17:0 18:0 19:0 20:0 21:20 22:40 23:20 24:0 25:0 26:20 27:20 28:20 29:20 30:20 31:0 32:20 33:0 34:20 35:0 36:20 37:20 38:0 39:0 40:40 41:56 42:45 43:25 
-8 1:0 2:0 3:0 4:0 5:0 6:0 7:-100 8:0 9:100 10:0 11:0 12:0 13:0 14:0 15:0 16:0 17:0 18:0 19:0 20:0 21:20 22:40 23:20 24:0 25:0 26:20 27:20 28:20 29:20 30:20 31:0 32:20 33:0 34:20 35:0 36:20 37:20 38:0 39:0 40:40 41:56 42:45 43:25 
-3.355107472161867 1:0 2:0 3:0 4:0 5:0 6:0 7:0 8:0 9:0 10:-100 11:0 12:0 13:0 14:0 15:0 16:0 17:0 18:0 19:100 20:0 21:0 22:0 23:0 24:0 25:0 26:20 27:0 28:60 29:0 30:0 31:60 32:40 33:20 34:0 35:80 36:0 37:0 38:0 39:40 40:40 41:91 42:67 43:20 
-1.103274760691934 1:0 2:0 3:0 4:0 5:0 6:0 7:0 8:0 9:-100 10:100 11:0 12:0 13:0 14:0 15:0 16:0 17:0 18:0 19:0 20:0 21:60 22:100 23:60 24:40 25:40 26:0 27:20 28:40 29:20 30:0 31:0 32:0 33:20 34:0 35:60 36:0 37:40 38:20 39:60 40:40 41:7 42:46 43:62 
-8 1:0 2:0 3:0 4:0 5:0 6:0 7:0 8:0 9:-100 10:100 11:0 12:0 13:0 14:0 15:0 16:0 17:0 18:0 19:0 20:0 21:60 22:100 23:60 24:40 25:40 26:0 27:20 28:40 29:20 30:0 31:0 32:0 33:20 34:0 35:60 36:0 37:40 38:20 39:60 40:40 41:7 42:25 43:57 
-8 1:0 2:0 3:0 4:0 5:0 6:0 7:0 8:0 9:-100 10:100 11:0 12:0 13:0 14:0 15:0 16:0 17:0 18:0 19:0 20:0 21:60 22:100 23:60 24:40 25:40 26:0 27:20 28:40 29:20 30:0 31:0 32:0 33:20 34:0 35:60 36:0 37:40 38:20 39:60 40:40 41:7 42:28 43:62 
8 1:0 2:0 3:0 4:0 5:0 6:0 7:0 8:0 9:-100 10:100 11:0 12:0 13:0 14:0 15:0 16:0 17:0 18:0 19:0 20:0 21:60 22:100 23:60 24:40 25:40 26:0 27:20 28:40 29:20 30:0 31:0 32:0 33:20 34:0 35:60 36:0 37:40 38:20 39:60 40:40 41:7 42:39 43:65 
8 1:0 2:0 3:0 4:0 5:100 6:0 7:-100 8:0 9:0 10:0 11:0 12:0 13:0 14:0 15:0 16:0 17:0 18:0 19:0 20:0 21:20 22:40 23:20 24:0 25:0 26:20 27:20 28:20 29:20 30:20 31:0 32:20 33:0 34:20 35:0 36:20 37:20 38:0 39:0 40:40 41:56 42:45 43:25 
-8 1:0 2:0 3:0 4:0 5:0 6:0 7:-100 8:100 9:0 10:0 11:0 12:0 13:0 14:0 15:0 16:0 17:0 18:0 19:0 20:0 21:20 22:40 23:20 24:0 25:0 26:20 27:20 28:20 29:20 30:20 31:0 32:20 33:0 34:20 35:0 36:20 37:20 38:0 39:0 40:40 41:56 42:45 43:25 
-3.467190005811809 1:-100 2:100 3:0 4:0 5:0 6:0 7:0 8:0 9:0 10:0 11:0 12:0 13:0 14:0 15:0 16:0 17:0 18:0 19:0 20:0 21:0 22:20 23:20 24:0 25:20 26:60 27:0 28:20 29:40 30:0 31:0 32:0 33:20 34:0 35:60 36:0 37:60 38:20 39:20 40:0 41:60 42:19 43:64 
0.1700814232455776 1:0 2:0 3:0 4:0 5:0 6:0 7:-100 8:0 9:0 10:0 11:0 12:0 13:0 14:0 15:100 16:0 17:0 18:0 19:0 20:0 21:20 22:20 23:0 24:0 25:0 26:0 27:0 28:40 29:0 30:20 31:60 32:40 33:0 34:0 35:40 36:20 37:0 38:40 39:20 40:0 41:38 42:50 43:25 
8 1:0 2:0 3:0 4:0 5:0 6:0 7:0 8:-100 9:0 10:0 11:0 12:0 13:0 14:0 15:0 16:0 17:0 18:0 19:0 20:100 21:40 22:40 23:20 24:0 25:20 26:40 27:0 28:0 29:60 30:0 31:0 32:80 33:0 34:0 35:80 36:0 37:0 38:0 39:0 40:40 41:22 42:14 43:41 
-8 1:0 2:0 3:0 4:0 5:0 6:0 7:0 8:-100 9:0 10:0 11:0 12:0 13:0 14:0 15:0 16:0 17:0 18:0 19:0 20:100 21:40 22:40 23:20 24:0 25:20 26:40 27:0 28:0 29:60 30:0 31:0 32:80 33:0 34:0 35:80 36:0 37:0 38:0 39:0 40:40 41:22 42:46 43:64 
4.148184402767496 1:0 2:0 3:0 4:0 5:0 6:0 7:0 8:0 9:100 10:0 11:0 12:0 13:0 14:0 15:0 16:0 17:0 18:0 19:-100 20:0 21:40 22:20 23:80 24:0 25:20 26:0 27:60 28:40 29:40 30:20 31:40 32:40 33:0 34:0 35:20 36:20 37:0 38:0 39:60 40:80 41:8 42:45 43:25 
8 1:0 2:0 3:0 4:0 5:0 6:0 7:0 8:0 9:100 10:0 11:0 12:0 13:-100 14:0 15:0 16:0 17:0 18:0 19:0 20:0 21:100 22:80 23:60 24:0 25:0 26:0 27:60 28:20 29:40 30:20 31:20 32:20 33:0 34:0 35:0 36:60 37:60 38:40 39:0 40:20 41:0 42:50 43:25 
-8 1:0 2:0 3:0 4:0 5:0 6:0 7:0 8:0 9:0 10:0 11:0 12:0 13:0 14:-100 15:0 16:0 17:100 18:0 19:0 20:0 21:0 22:80 23:60 24:20 25:60 26:0 27:20 28:0 29:20 30:20 31:40 32:20 33:0 34:0 35:20 36:60 37:0 38:80 39:0 40:0 41:23 42:55 43:4 
-1.617940770814897 1:0 2:0 3:0 4:0 5:0 6:0 7:0 8:0 9:0 10:0 11:0 12:0 13:0 14:-100 15:0 16:0 17:100 18:0 19:0 20:0 21:0 22:80 23:60 24:20 25:60 26:0 27:20 28:0 29:20 30:20 31:40 32:20 33:0 34:0 35:20 36:60 37:0 38:80 39:0 40:0 41:23 42:55 43:4 
8 1:0 2:0 3:0 4:0 5:0 6:0 7:0 8:0 9:0 10:0 11:0 12:0 13:0 14:-100 15:0 16:0 17:100 18:0 19:0 20:0 21:0 22:80 23:60 24:20 25:60 26:0 27:20 28:0 29:20 30:20 31:40 32:20 33:0 34:0 35:20 36:60 37:0 38:80 39:0 40:0 41:23 42:55 43:4 
3.128695190258489 1:0 2:-100 3:0 4:0 5:0 6:0 7:0 8:100 9:0 10:0 11:0 12:0 13:0 14:0 15:0 16:0 17:0 18:0 19:0 20:0 21:100 22:120 23:20 24:20 25:40 26:0 27:60 28:60 29:60 30:20 31:0 32:80 33:0 34:20 35:60 36:60 37:20 38:60 39:60 40:80 41:7 42:50 43:20 
-7.793823169320908 1:0 2:0 3:0 4:100 5:0 6:0 7:0 8:0 9:0 10:0 11:0 12:0 13:-100 14:0 15:0 16:0 17:0 18:0 19:0 20:0 21:100 22:80 23:60 24:0 25:0 26:0 27:60 28:20 29:40 30:20 31:20 32:20 33:0 34:0 35:0 36:60 37:60 38:40 39:0 40:20 41:0 42:50 43:25 
6.929675642887143 1:0 2:-100 3:0 4:0 5:0 6:0 7:0 8:0 9:100 10:0 11:0 12:0 13:0 14:0 15:0 16:0 17:0 18:0 19:0 20:0 21:100 22:120 23:20 24:20 25:40 26:0 27:60 28:60 29:60 30:20 31:0 32:80 33:0 34:20 35:60 36:60 37:20 38:60 39:60 40:80 41:7 42:50 43:20 
1.127976142966993 1:100 2:0 3:-100 4:0 5:0 6:0 7:0 8:0 9:0 10:0 11:0 12:0 13:0 14:0 15:0 16:0 17:0 18:0 19:0 20:0 21:20 22:60 23:20 24:0 25:0 26:20 27:40 28:80 29:100 30:40 31:40 32:20 33:0 34:0 35:20 36:40 37:20 38:40 39:20 40:60 41:10 42:45 43:25 
-0.1044892228994683 1:100 2:0 3:-100 4:0 5:0 6:0 7:0 8:0 9:0 10:0 11:0 12:0 13:0 14:0 15:0 16:0 17:0 18:0 19:0 20:0 21:0 22:40 23:20 24:0 25:20 26:20 27:40 28:40 29:20 30:0 31:60 32:40 33:0 34:0 35:60 36:20 37:0 38:20 39:20 40:20 41:51 42:45 43:25 
-2.644607465226338 1:100 2:0 3:-100 4:0 5:0 6:0 7:0 8:0 9:0 10:0 11:0 12:0 13:0 14:0 15:0 16:0 17:0 18:0 19:0 20:0 21:0 22:40 23:20 24:0 25:20 26:20 27:40 28:40 29:20 30:0 31:60 32:40 33:0 34:0 35:60 36:20 37:0 38:20 39:20 40:20 41:51 42:45 43:25 
3.82107372763879 1:0 2:0 3:-100 4:0 5:0 6:0 7:0 8:0 9:0 10:0 11:0 12:100 13:0 14:0 15:0 16:0 17:0 18:0 19:0 20:0 21:0 22:40 23:20 24:0 25:20 26:20 27:40 28:40 29:20 30:0 31:60 32:40 33:0 34:0 35:60 36:20 37:0 38:20 39:20 40:20 41:51 42:45 43:25 
-1.316227764040235 1:0 2:0 3:0 4:0 5:0 6:0 7:0 8:0 9:100 10:0 11:0 12:-100 13:0 14:0 15:0 16:0 17:0 18:0 19:0 20:0 21:40 22:120 23:20 24:20 25:20 26:0 27:20 28:80 29:60 30:20 31:20 32:20 33:80 34:20 35:60 36:0 37:0 38:20 39:20 40:20 41:41 42:60 43:37 
-0.1229554490835748 1:0 2:0 3:0 4:0 5:0 6:0 7:0 8:0 9:100 10:0 11:0 12:0 13:0 14:0 15:0 16:-100 17:0 18:0 19:0 20:0 21:0 22:0 23:40 24:20 25:60 26:0 27:40 28:0 29:40 30:0 31:20 32:40 33:20 34:0 35:60 36:0 37:20 38:20 39:40 40:20 41:80 42:50 43:39 
4.666730692659527 1:0 2:0 3:0 4:0 5:0 6:0 7:-100 8:0 9:0 10:0 11:100 12:0 13:0 14:0 15:0 16:0 17:0 18:0 19:0 20:0 21:20 22:100 23:20 24:20 25:0 26:0 27:0 28:20 29:20 30:20 31:40 32:40 33:40 34:20 35:60 36:0 37:0 38:0 39:0 40:20 41:63 42:60 43:37 
-8 1:0 2:0 3:100 4:-100 5:0 6:0 7:0 8:0 9:0 10:0 11:0 12:0 13:0 14:0 15:0 16:0 17:0 18:0 19:0 20:0 21:120 22:80 23:0 24:0 25:60 26:0 27:20 28:60 29:40 30:20 31:60 32:60 33:40 34:20 35:60 36:20 37:0 38:40 39:40 40:40 41:0 42:22 43:53 
8 1:0 2:0 3:100 4:-100 5:0 6:0 7:0 8:0 9:0 10:0 11:0 12:0 13:0 14:0 15:0 16:0 17:0 18:0 19:0 20:0 21:120 22:80 23:0 24:0 25:60 26:0 27:20 28:60 29:40 30:20 31:60 32:60 33:40 34:20 35:60 36:20 37:0 38:40 39:40 40:40 41:0 42:50 43:82 
-3.93602872765324 1:0 2:0 3:100 4:-100 5:0 6:0 7:0 8:0 9:0 10:0 11:0 12:0 13:0 14:0 15:0 16:0 17:0 18:0 19:0 20:0 21:120 22:80 23:0 24:0 25:60 26:0 27:20 28:60 29:40 30:20 31:60 32:60 33:40 34:20 35:60 36:20 37:0 38:40 39:40 40:40 41:0 42:67 43:80 
1.712904141719222 1:0 2:0 3:0 4:0 5:0 6:100 7:-100 8:0 9:0 10:0 11:0 12:0 13:0 14:0 15:0 16:0 17:0 18:0 19:0 20:0 21:20 22:100 23:20 24:20 25:0 26:0 27:0 28:20 29:20 30:20 31:40 32:40 33:40 34:20 35:60 36:0 37:0 38:0 39:0 40:20 41:63 42:60 43:37 
8 1:0 2:0 3:0 4:0 5:0 6:0 7:0 8:0 9:100 10:-100 11:0 12:0 13:0 14:0 15:0 16:0 17:0 18:0 19:0 20:0 21:100 22:40 23:40 24:0 25:20 26:0 27:0 28:20 29:20 30:0 31:0 32:20 33:0 34:0 35:20 36:20 37:0 38:20 39:20 40:40 41:61 42:44 43:25 
8 1:0 2:0 3:0 4:0 5:0 6:0 7:0 8:0 9:100 10:0 11:0 12:0 13:0 14:-100 15:0 16:0 17:0 18:0 19:0 20:0 21:120 22:0 23:40 24:0 25:40 26:0 27:20 28:20 29:120 30:20 31:0 32:20 33:80 34:20 35:0 36:60 37:40 38:40 39:60 40:20 41:38 42:8 43:25 
-4.90141589433106 1:0 2:0 3:0 4:0 5:0 6:0 7:0 8:0 9:100 10:0 11:0 12:0 13:0 14:-100 15:0 16:0 17:0 18:0 19:0 20:0 21:120 22:0 23:40 24:0 25:40 26:0 27:20 28:20 29:120 30:20 31:0 32:20 33:80 34:20 35:0 36:60 37:40 38:40 39:60 40:20 41:38 42:42 43:25 
8 1:0 2:0 3:0 4:0 5:0 6:0 7:0 8:100 9:0 10:0 11:-100 12:0 13:0 14:0 15:0 16:0 17:0 18:0 19:0 20:0 21:100 22:60 23:60 24:0 25:20 26:0 27:0 28:20 29:40 30:20 31:0 32:0 33:0 34:0 35:0 36:60 37:0 38:60 39:20 40:40 41:20 42:25 43:25 
0.4463399517356446 1:0 2:100 3:0 4:0 5:0 6:0 7:-100 8:0 9:0 10:0 11:0 12:0 13:0 14:0 15:0 16:0 17:0 18:0 19:0 20:0 21:20 22:100 23:20 24:20 25:0 26:0 27:0 28:20 29:20 30:20 31:40 32:40 33:40 34:20 35:60 36:0 37:0 38:0 39:0 40:20 41:63 42:60 43:37 
-2.900602544207908 1:0 2:0 3:0 4:0 5:0 6:0 7:-100 8:0 9:0 10:0 11:0 12:0 13:0 14:0 15:0 16:0 17:0 18:0 19:0 20:100 21:60 22:160 23:20 24:0 25:60 26:0 27:0 28:80 29:40 30:0 31:0 32:40 33:0 34:0 35:0 36:100 37:0 38:120 39:20 40:40 41:26 42:54 43:25 
4.744668506066007 1:0 2:0 3:-100 4:0 5:0 6:0 7:0 8:0 9:100 10:0 11:0 12:0 13:0 14:0 15:0 16:0 17:0 18:0 19:0 20:0 21:0 22:40 23:20 24:0 25:20 26:20 27:40 28:40 29:20 30:0 31:60 32:40 33:0 34:0 35:60 36:20 37:0 38:20 39:20 40:20 41:51 42:45 43:25 
-0.05126809014654506 1:0 2:0 3:0 4:0 5:0 6:0 7:0 8:0 9:0 10:0 11:0 12:0 13:0 14:0 15:0 16:0 17:0 18:0 19:100 20:-100 21:20 22:20 23:0 24:0 25:20 26:0 27:20 28:20 29:40 30:20 31:40 32:0 33:0 34:0 35:0 36:20 37:20 38:80 39:40 40:20 41:47 42:50 43:25 
-1.964558778885949 1:-100 2:0 3:0 4:0 5:0 6:0 7:0 8:0 9:0 10:0 11:0 12:100 13:0 14:0 15:0 16:0 17:0 18:0 19:0 20:0 21:40 22:20 23:60 24:20 25:20 26:80 27:20 28:80 29:60 30:20 31:0 32:0 33:40 34:0 35:80 36:20 37:20 38:0 39:0 40:20 41:0 42:19 43:64 
-6.180985610384536 1:0 2:0 3:0 4:0 5:0 6:0 7:0 8:0 9:100 10:0 11:-100 12:0 13:0 14:0 15:0 16:0 17:0 18:0 19:0 20:0 21:100 22:60 23:60 24:0 25:20 26:0 27:0 28:20 29:40 30:20 31:0 32:0 33:0 34:0 35:0 36:60 37:0 38:60 39:20 40:40 41:20 42:44 43:25 
8 1:0 2:0 3:0 4:0 5:0 6:0 7:0 8:0 9:100 10:0 11:-100 12:0 13:0 14:0 15:0 16:0 17:0 18:0 19:0 20:0 21:100 22:60 23:60 24:0 25:20 26:0 27:0 28:20 29:40 30:20 31:0 32:0 33:0 34:0 35:0 36:60 37:0 38:60 39:20 40:40 41:20 42:21 43:25 
-8 1:0 2:0 3:0 4:0 5:0 6:0 7:0 8:0 9:100 10:0 11:-100 12:0 13:0 14:0 15:0 16:0 17:0 18:0 19:0 20:0 21:100 22:60 23:60 24:0 25:20 26:0 27:0 28:20 29:40 30:20 31:0 32:0 33:0 34:0 35:0 36:60 37:0 38:60 39:20 40:40 41:20 42:45 43:46 
2.666362572378356 1:0 2:0 3:0 4:0 5:0 6:0 7:0 8:0 9:0 10:0 11:100 12:-100 13:0 14:0 15:0 16:0 17:0 18:0 19:0 20:0 21:20 22:140 23:80 24:0 25:20 26:0 27:60 28:100 29:20 30:0 31:20 32:40 33:0 34:20 35:20 36:80 37:0 38:60 39:0 40:40 41:4 42:38 43:65 
0.175873261474412 1:0 2:0 3:0 4:0 5:0 6:0 7:0 8:0 9:0 10:0 11:0 12:100 13:0 14:-100 15:0 16:0 17:0 18:0 19:0 20:0 21:60 22:20 23:20 24:0 25:40 26:20 27:120 28:40 29:0 30:80 31:40 32:20 33:0 34:40 35:20 36:20 37:0 38:40 39:80 40:0 41:36 42:42 43:25 
0.3630018131167476 1:100 2:0 3:0 4:0 5:0 6:0 7:0 8:0 9:0 10:0 11:0 12:0 13:0 14:0 15:0 16:-100 17:0 18:0 19:0 20:0 21:0 22:20 23:20 24:20 25:20 26:0 27:40 28:60 29:0 30:40 31:0 32:40 33:0 34:0 35:0 36:60 37:0 38:20 39:20 40:0 41:83 42:32 43:25 
3.584373525122429 1:0 2:0 3:-100 4:0 5:0 6:0 7:0 8:0 9:100 10:0 11:0 12:0 13:0 14:0 15:0 16:0 17:0 18:0 19:0 20:0 21:100 22:140 23:80 24:20 25:40 26:20 27:0 28:60 29:40 30:0 31:40 32:20 33:0 34:100 35:40 36:40 37:20 38:40 39:0 40:40 41:0 42:78 43:76 
-3.949544089715314 1:0 2:0 3:0 4:0 5:0 6:0 7:0 8:0 9:0 10:0 11:100 12:0 13:0 14:0 15:-100 16:0 17:0 18:0 19:0 20:0 21:0 22:40 23:40 24:0 25:20 26:40 27:40 28:40 29:0 30:20 31:80 32:20 33:0 34:0 35:20 36:40 37:0 38:0 39:20 40:20 41:15 42:45 43:25 
-1.915334590252122 1:0 2:100 3:-100 4:0 5:0 6:0 7:0 8:0 9:0 10:0 11:0 12:0 13:0 14:0 15:0 16:0 17:0 18:0 19:0 20:0 21:100 22:140 23:80 24:20 25:40 26:20 27:0 28:60 29:40 30:0 31:40 32:20 33:0 34:100 35:40 36:40 37:20 38:40 39:0 40:40 41:0 42:78 43:76 
-0.3286623116458353 1:0 2:0 3:-100 4:100 5:0 6:0 7:0 8:0 9:0 10:0 11:0 12:0 13:0 14:0 15:0 16:0 17:0 18:0 19:0 20:0 21:100 22:140 23:80 24:20 25:40 26:20 27:0 28:60 29:40 30:0 31:40 32:20 33:0 34:100 35:40 36:40 37:20 38:40 39:0 40:40 41:0 42:78 43:76 
-4.716627842150592 1:0 2:0 3:0 4:0 5:0 6:0 7:0 8:0 9:0 10:0 11:0 12:0 13:0 14:100 15:0 16:0 17:0 18:0 19:-100 20:0 21:20 22:40 23:60 24:20 25:0 26:20 27:80 28:40 29:40 30:60 31:40 32:40 33:0 34:40 35:0 36:60 37:20 38:0 39:20 40:20 41:11 42:32 43:26 
-8 1:100 2:0 3:0 4:0 5:-100 6:0 7:0 8:0 9:0 10:0 11:0 12:0 13:0 14:0 15:0 16:0 17:0 18:0 19:0 20:0 21:40 22:60 23:40 24:20 25:0 26:0 27:0 28:20 29:0 30:0 31:60 32:20 33:0 34:20 35:40 36:20 37:0 38:0 39:0 40:20 41:31 42:50 43:25 
8 1:0 2:0 3:0 4:0 5:0 6:0 7:0 8:0 9:100 10:0 11:0 12:0 13:0 14:0 15:0 16:0 17:0 18:0 19:-100 20:0 21:20 22:0 23:0 24:0 25:20 26:20 27:40 28:80 29:0 30:60 31:60 32:20 33:0 34:40 35:20 36:20 37:0 38:20 39:20 40:0 41:46 42:50 43:25 
-6.516836723660645 1:0 2:0 3:0 4:0 5:0 6:0 7:0 8:0 9:100 10:0 11:0 12:0 13:0 14:0 15:0 16:0 17:0 18:0 19:-100 20:0 21:20 22:0 23:0 24:0 25:20 26:20 27:40 28:80 29:0 30:60 31:60 32:20 33:0 34:40 35:20 36:20 37:0 38:20 39:20 40:0 41:46 42:50 43:50 
-4.67684703390142 1:0 2:-100 3:0 4:0 5:0 6:0 7:0 8:0 9:100 10:0 11:0 12:0 13:0 14:0 15:0 16:0 17:0 18:0 19:0 20:0 21:0 22:40 23:20 24:0 25:0 26:0 27:40 28:20 29:80 30:20 31:20 32:20 33:0 34:20 35:0 36:100 37:40 38:20 39:0 40:20 41:32 42:68 43:82 
-5.096811093726997 1:0 2:100 3:0 4:0 5:-100 6:0 7:0 8:0 9:0 10:0 11:0 12:0 13:0 14:0 15:0 16:0 17:0 18:0 19:0 20:0 21:40 22:60 23:40 24:20 25:0 26:0 27:0 28:20 29:0 30:0 31:60 32:20 33:0 34:20 35:40 36:20 37:0 38:0 39:0 40:20 41:31 42:50 43:25 
0.7615066019793489 1:100 2:0 3:-100 4:0 5:0 6:0 7:0 8:0 9:0 10:0 11:0 12:0 13:0 14:0 15:0 16:0 17:0 18:0 19:0 20:0 21:100 22:140 23:80 24:20 25:40 26:20 27:0 28:60 29:40 30:0 31:40 32:20 33:0 34:100 35:40 36:40 37:20 38:40 39:0 40:40 41:0 42:78 43:76 
4.043655731299392 1:0 2:100 3:0 4:-100 5:0 6:0 7:0 8:0 9:0 10:0 11:0 12:0 13:0 14:0 15:0 16:0 17:0 18:0 19:0 20:0 21:60 22:140 23:80 24:40 25:60 26:20 27:40 28:60 29:120 30:0 31:40 32:40 33:20 34:0 35:80 36:0 37:20 38:40 39:40 40:20 41:0 42:21 43:51 
-2.139097422021064 1:0 2:100 3:0 4:-100 5:0 6:0 7:0 8:0 9:0 10:0 11:0 12:0 13:0 14:0 15:0 16:0 17:0 18:0 19:0 20:0 21:60 22:140 23:80 24:40 25:60 26:20 27:40 28:60 29:120 30:0 31:40 32:40 33:20 34:0 35:80 36:0 37:20 38:40 39:40 40:20 41:0 42:40 43:64 
-0.9211848726906149 1:0 2:0 3:0 4:0 5:0 6:0 7:0 8:0 9:-100 10:0 11:100 12:0 13:0 14:0 15:0 16:0 17:0 18:0 19:0 20:0 21:60 22:80 23:100 24:20 25:20 26:60 27:20 28:20 29:80 30:0 31:0 32:0 33:40 34:0 35:60 36:20 37:20 38:0 39:0 40:40 41:0 42:19 43:64 
-8 1:-100 2:0 3:0 4:0 5:0 6:0 7:0 8:100 9:0 10:0 11:0 12:0 13:0 14:0 15:0 16:0 17:0 18:0 19:0 20:0 21:0 22:20 23:40 24:0 25:20 26:0 27:20 28:20 29:20 30:0 31:20 32:20 33:0 34:0 35:40 36:20 37:20 38:40 39:20 40:20 41:69 42:19 43:64 
-2.701267624460057 1:0 2:0 3:-100 4:0 5:0 6:0 7:0 8:0 9:0 10:0 11:0 12:0 13:100 14:0 15:0 16:0 17:0 18:0 19:0 20:0 21:100 22:40 23:80 24:60 25:60 26:20 27:40 28:0 29:60 30:0 31:0 32:20 33:20 34:0 35:80 36:0 37:0 38:40 39:60 40:60 41:10 42:14 43:41 
8 1:0 2:0 3:-100 4:0 5:0 6:0 7:0 8:0 9:0 10:0 11:0 12:0 13:100 14:0 15:0 16:0 17:0 18:0 19:0 20:0 21:100 22:40 23:80 24:60 25:60 26:20 27:40 28:0 29:60 30:0 31:0 32:20 33:20 34:0 35:80 36:0 37:0 38:40 39:60 40:60 41:10 42:14 43:41 
-8 1:0 2:0 3:-100 4:0 5:0 6:0 7:0 8:0 9:0 10:0 11:0 12:0 13:100 14:0 15:0 16:0 17:0 18:0 19:0 20:0 21:100 22:40 23:80 24:60 25:60 26:20 27:40 28:0 29:60 30:0 31:0 32:20 33:20 34:0 35:80 36:0 37:0 38:40 39:60 40:60 41:10 42:46 43:64 
8 1:0 2:0 3:-100 4:0 5:0 6:0 7:0 8:0 9:0 10:0 11:0 12:0 13:100 14:0 15:0 16:0 17:0 18:0 19:0 20:0 21:100 22:40 23:80 24:60 25:60 26:20 27:40 28:0 29:60 30:0 31:0 32:20 33:20 34:0 35:80 36:0 37:0 38:40 39:60 40:60 41:10 42:46 43:64 
5.954835333826176 1:0 2:0 3:0 4:100 5:0 6:0 7:0 8:0 9:0 10:0 11:0 12:0 13:0 14:0 15:-100 16:0 17:0 18:0 19:0 20:0 21:0 22:40 23:40 24:0 25:20 26:40 27:40 28:40 29:0 30:20 31:80 32:20 33:0 34:0 35:20 36:40 37:0 38:0 39:20 40:20 41:15 42:45 43:25 
-8 1:0 2:0 3:0 4:100 5:0 6:0 7:0 8:0 9:0 10:0 11:0 12:0 13:0 14:0 15:-100 16:0 17:0 18:0 19:0 20:0 21:0 22:40 23:40 24:0 25:20 26:40 27:40 28:40 29:0 30:20 31:80 32:20 33:0 34:0 35:20 36:40 37:0 38:0 39:20 40:20 41:15 42:31 43:25 
8 1:0 2:0 3:0 4:0 5:0 6:0 7:0 8:0 9:100 10:0 11:0 12:0 13:0 14:0 15:0 16:0 17:0 18:0 19:0 20:-100 21:140 22:0 23:40 24:0 25:40 26:0 27:20 28:20 29:60 30:20 31:20 32:40 33:60 34:60 35:0 36:40 37:40 38:0 39:60 40:20 41:8 42:8 43:25 
-6.981908245277127 1:0 2:0 3:0 4:0 5:0 6:0 7:0 8:0 9:100 10:0 11:0 12:0 13:0 14:0 15:0 16:0 17:0 18:0 19:0 20:-100 21:140 22:0 23:40 24:0 25:40 26:0 27:20 28:20 29:60 30:20 31:20 32:40 33:60 34:60 35:0 36:40 37:40 38:0 39:60 40:20 41:8 42:42 43:25 
0.4229055633155078 1:0 2:0 3:0 4:0 5:0 6:0 7:0 8:0 9:0 10:0 11:0 12:0 13:0 14:0 15:-100 16:100 17:0 18:0 19:0 20:0 21:0 22:40 23:40 24:0 25:20 26:40 27:40 28:40 29:0 30:20 31:80 32:20 33:0 34:0 35:20 36:40 37:0 38:0 39:20 40:20 41:15 42:45 43:25 
0.08917988795594405 1:0 2:-100 3:0 4:0 5:0 6:0 7:0 8:0 9:100 10:0 11:0 12:0 13:0 14:0 15:0 16:0 17:0 18:0 19:0 20:0 21:80 22:100 23:20 24:40 25:40 26:20 27:20 28:20 29:60 30:20 31:40 32:60 33:0 34:0 35:100 36:20 37:40 38:20 39:40 40:60 41:0 42:21 43:51 
8 1:0 2:-100 3:0 4:0 5:0 6:0 7:0 8:0 9:100 10:0 11:0 12:0 13:0 14:0 15:0 16:0 17:0 18:0 19:0 20:0 21:80 22:100 23:20 24:40 25:40 26:20 27:20 28:20 29:60 30:20 31:40 32:60 33:0 34:0 35:100 36:20 37:40 38:20 39:40 40:60 41:0 42:38 43:65 
4.149959976714499 1:0 2:-100 3:0 4:0 5:0 6:0 7:0 8:0 9:100 10:0 11:0 12:0 13:0 14:0 15:0 16:0 17:0 18:0 19:0 20:0 21:80 22:100 23:20 24:40 25:40 26:20 27:20 28:20 29:60 30:20 31:40 32:60 33:0 34:0 35:100 36:20 37:40 38:20 39:40 40:60 41:0 42:21 43:51 
8 1:0 2:0 3:0 4:0 5:0 6:0 7:0 8:-100 9:100 10:0 11:0 12:0 13:0 14:0 15:0 16:0 17:0 18:0 19:0 20:0 21:80 22:60 23:60 24:20 25:0 26:0 27:20 28:20 29:20 30:0 31:40 32:20 33:0 34:0 35:0 36:40 37:0 38:0 39:20 40:0 41:23 42:50 43:25 
-8 1:0 2:0 3:0 4:0 5:0 6:0 7:-100 8:0 9:100 10:0 11:0 12:0 13:0 14:0 15:0 16:0 17:0 18:0 19:0 20:0 21:40 22:60 23:40 24:40 25:40 26:0 27:40 28:0 29:100 30:0 31:40 32:40 33:0 34:40 35:0 36:140 37:20 38:140 39:0 40:60 41:1 42:37 43:5 
-0.8886930094733299 1:0 2:-100 3:0 4:100 5:0 6:0 7:0 8:0 9:0 10:0 11:0 12:0 13:0 14:0 15:0 16:0 17:0 18:0 19:0 20:0 21:80 22:100 23:20 24:40 25:40 26:20 27:20 28:20 29:60 30:20 31:40 32:60 33:0 34:0 35:100 36:20 37:40 38:20 39:40 40:60 41:0 42:38 43:65 
6.385990852016658 1:0 2:0 3:0 4:0 5:100 6:0 7:-100 8:0 9:0 10:0 11:0 12:0 13:0 14:0 15:0 16:0 17:0 18:0 19:0 20:0 21:40 22:60 23:40 24:40 25:40 26:0 27:40 28:0 29:100 30:0 31:40 32:40 33:0 34:40 35:0 36:140 37:20 38:140 39:0 40:60 41:1 42:37 43:5 
-8 1:0 2:0 3:0 4:0 5:0 6:0 7:0 8:0 9:0 10:0 11:0 12:-100 13:0 14:0 15:100 16:0 17:0 18:0 19:0 20:0 21:40 22:0 23:20 24:40 25:20 26:20 27:20 28:20 29:60 30:0 31:0 32:60 33:20 34:0 35:60 36:20 37:0 38:0 39:0 40:40 41:41 42:14 43:42 
-7.960493217676034 1:0 2:0 3:0 4:0 5:0 6:0 7:0 8:0 9:0 10:0 11:0 12:-100 13:0 14:0 15:100 16:0 17:0 18:0 19:0 20:0 21:40 22:0 23:20 24:40 25:20 26:20 27:20 28:20 29:60 30:0 31:0 32:60 33:20 34:0 35:60 36:20 37:0 38:0 39:0 40:40 41:41 42:14 43:38 
8 1:0 2:0 3:0 4:0 5:0 6:0 7:0 8:0 9:0 10:0 11:0 12:-100 13:0 14:0 15:100 16:0 17:0 18:0 19:0 20:0 21:40 22:0 23:20 24:40 25:20 26:20 27:20 28:20 29:60 30:0 31:0 32:60 33:20 34:0 35:60 36:20 37:0 38:0 39:0 40:40 41:41 42:17 43:46 
8 1:0 2:0 3:0 4:0 5:0 6:0 7:0 8:0 9:0 10:0 11:0 12:-100 13:0 14:0 15:100 16:0 17:0 18:0 19:0 20:0 21:40 22:0 23:20 24:40 25:20 26:20 27:20 28:20 29:60 30:0 31:0 32:60 33:20 34:0 35:60 36:20 37:0 38:0 39:0 40:40 41:41 42:21 43:53 
4.296404791394485 1:0 2:0 3:0 4:0 5:0 6:0 7:0 8:0 9:0 10:0 11:100 12:-100 13:0 14:0 15:0 16:0 17:0 18:0 19:0 20:0 21:40 22:0 23:20 24:40 25:20 26:20 27:20 28:20 29:60 30:0 31:0 32:60 33:20 34:0 35:60 36:20 37:0 38:0 39:0 40:40 41:41 42:14 43:42 
-0.003019851510241237 1:0 2:-100 3:0 4:0 5:0 6:0 7:0 8:0 9:100 10:0 11:0 12:0 13:0 14:0 15:0 16:0 17:0 18:0 19:0 20:0 21:60 22:100 23:0 24:40 25:40 26:20 27:20 28:40 29:80 30:20 31:40 32:40 33:0 34:0 35:40 36:60 37:40 38:40 39:60 40:0 41:5 42:21 43:51 
-4.083410701012933 1:0 2:-100 3:0 4:0 5:0 6:0 7:0 8:0 9:100 10:0 11:0 12:0 13:0 14:0 15:0 16:0 17:0 18:0 19:0 20:0 21:60 22:100 23:0 24:40 25:40 26:20 27:20 28:40 29:80 30:20 31:40 32:40 33:0 34:0 35:40 36:60 37:40 38:40 39:60 40:0 41:5 42:21 43:51 
-0.6250011698834882 1:0 2:-100 3:0 4:0 5:0 6:0 7:0 8:0 9:100 10:0 11:0 12:0 13:0 14:0 15:0 16:0 17:0 18:0 19:0 20:0 21:200 22:60 23:80 24:0 25:20 26:20 27:0 28:40 29:40 30:40 31:20 32:20 33:0 34:0 35:60 36:60 37:20 38:60 39:20 40:40 41:0 42:45 43:25 
8 1:0 2:-100 3:0 4:100 5:0 6:0 7:0 8:0 9:0 10:0 11:0 12:0 13:0 14:0 15:0 16:0 17:0 18:0 19:0 20:0 21:60 22:60 23:20 24:60 25:40 26:40 27:20 28:40 29:100 30:0 31:40 32:60 33:0 34:0 35:100 36:40 37:0 38:20 39:60 40:20 41:0 42:38 43:65 
0.2997031399843803 1:0 2:0 3:0 4:0 5:0 6:0 7:0 8:0 9:0 10:0 11:0 12:-100 13:0 14:100 15:0 16:0 17:0 18:0 19:0 20:0 21:40 22:0 23:20 24:40 25:20 26:20 27:20 28:20 29:60 30:0 31:0 32:60 33:20 34:0 35:60 36:20 37:0 38:0 39:0 40:40 41:41 42:14 43:42 
-8 1:0 2:0 3:100 4:0 5:0 6:0 7:0 8:0 9:0 10:0 11:0 12:-100 13:0 14:0 15:0 16:0 17:0 18:0 19:0 20:0 21:40 22:0 23:20 24:40 25:20 26:20 27:20 28:20 29:60 30:0 31:0 32:60 33:20 34:0 35:60 36:20 37:0 38:0 39:0 40:40 41:41 42:14 43:42 
-8 1:0 2:0 3:100 4:0 5:0 6:0 7:0 8:0 9:0 10:0 11:0 12:-100 13:0 14:0 15:0 16:0 17:0 18:0 19:0 20:0 21:40 22:0 23:20 24:40 25:20 26:20 27:20 28:20 29:60 30:0 31:0 32:60 33:20 34:0 35:60 36:20 37:0 38:0 39:0 40:40 41:41 42:28 43:62 
2.251639273132585 1:0 2:0 3:100 4:0 5:0 6:0 7:0 8:0 9:0 10:0 11:0 12:-100 13:0 14:0 15:0 16:0 17:0 18:0 19:0 20:0 21:40 22:0 23:20 24:40 25:20 26:20 27:20 28:20 29:60 30:0 31:0 32:60 33:20 34:0 35:60 36:20 37:0 38:0 39:0 40:40 41:41 42:42 43:64 
-0.4775897939524794 1:0 2:0 3:100 4:0 5:0 6:0 7:0 8:0 9:0 10:0 11:0 12:-100 13:0 14:0 15:0 16:0 17:0 18:0 19:0 20:0 21:40 22:0 23:20 24:40 25:20 26:20 27:20 28:20 29:60 30:0 31:0 32:60 33:20 34:0 35:60 36:20 37:0 38:0 39:0 40:40 41:41 42:14 43:38 
8 1:0 2:0 3:100 4:0 5:0 6:0 7:0 8:0 9:0 10:0 11:0 12:-100 13:0 14:0 15:0 16:0 17:0 18:0 19:0 20:0 21:40 22:0 23:20 24:40 25:20 26:20 27:20 28:20 29:60 30:0 31:0 32:60 33:20 34:0 35:60 36:20 37:0 38:0 39:0 40:40 41:41 42:21 43:53 
-0.09732230769769958 1:0 2:0 3:-100 4:100 5:0 6:0 7:0 8:0 9:0 10:0 11:0 12:0 13:0 14:0 15:0 16:0 17:0 18:0 19:0 20:0 21:100 22:160 23:60 24:20 25:60 26:20 27:20 28:60 29:20 30:0 31:40 32:0 33:0 34:80 35:60 36:0 37:20 38:40 39:20 40:20 41:2 42:78 43:76 
8 1:0 2:0 3:0 4:0 5:0 6:0 7:0 8:0 9:100 10:0 11:0 12:0 13:0 14:0 15:0 16:0 17:0 18:-100 19:0 20:0 21:0 22:100 23:80 24:0 25:0 26:0 27:20 28:40 29:60 30:0 31:60 32:40 33:20 34:20 35:20 36:60 37:0 38:0 39:20 40:20 41:30 42:21 43:51 
-3.339209275732425 1:0 2:0 3:0 4:0 5:0 6:0 7:0 8:0 9:100 10:0 11:0 12:0 13:0 14:0 15:0 16:0 17:0 18:-100 19:0 20:0 21:0 22:100 23:80 24:0 25:0 26:0 27:20 28:40 29:60 30:0 31:60 32:40 33:20 34:20 35:20 36:60 37:0 38:0 39:20 40:20 41:30 42:47 43:62 
0.7878359303602956 1:0 2:0 3:0 4:0 5:0 6:0 7:0 8:0 9:0 10:0 11:0 12:-100 13:0 14:0 15:0 16:0 17:0 18:0 19:0 20:100 21:40 22:0 23:20 24:40 25:20 26:20 27:20 28:20 29:60 30:0 31:0 32:60 33:20 34:0 35:60 36:20 37:0 38:0 39:0 40:40 41:41 42:14 43:42 
5.736319417211646 1:0 2:0 3:0 4:0 5:0 6:0 7:0 8:0 9:100 10:0 11:0 12:0 13:0 14:0 15:0 16:0 17:0 18:0 19:0 20:-100 21:0 22:0 23:0 24:20 25:20 26:0 27:40 28:0 29:60 30:0 31:0 32:80 33:0 34:0 35:0 36:20 37:0 38:0 39:0 40:40 41:79 42:50 43:25 
-8 1:0 2:0 3:0 4:0 5:100 6:0 7:0 8:0 9:0 10:0 11:0 12:-100 13:0 14:0 15:0 16:0 17:0 18:0 19:0 20:0 21:40 22:0 23:20 24:40 25:20 26:20 27:20 28:20 29:60 30:0 31:0 32:60 33:20 34:0 35:60 36:20 37:0 38:0 39:0 40:40 41:41 42:14 43:42 
5.113087627981658 1:0 2:0 3:0 4:0 5:0 6:0 7:0 8:0 9:0 10:0 11:0 12:0 13:0 14:0 15:0 16:0 17:0 18:0 19:-100 20:100 21:40 22:0 23:20 24:20 25:0 26:60 27:20 28:40 29:20 30:0 31:20 32:0 33:0 34:0 35:40 36:40 37:0 38:0 39:20 40:20 41:65 42:67 43:20 
0.420862792573081 1:0 2:-100 3:0 4:100 5:0 6:0 7:0 8:0 9:0 10:0 11:0 12:0 13:0 14:0 15:0 16:0 17:0 18:0 19:0 20:0 21:60 22:100 23:0 24:40 25:40 26:20 27:20 28:40 29:80 30:20 31:40 32:40 33:0 34:0 35:40 36:60 37:40 38:40 39:60 40:0 41:5 42:38 43:65 
-8 1:0 2:0 3:0 4:0 5:0 6:0 7:0 8:0 9:100 10:0 11:0 12:-100 13:0 14:0 15:0 16:0 17:0 18:0 19:0 20:0 21:40 22:0 23:20 24:40 25:20 26:20 27:20 28:20 29:60 30:0 31:0 32:60 33:20 34:0 35:60 36:20 37:0 38:0 39:0 40:40 41:41 42:14 43:42 
0.5677785270190577 1:0 2:0 3:0 4:0 5:0 6:0 7:0 8:0 9:100 10:0 11:0 12:-100 13:0 14:0 15:0 16:0 17:0 18:0 19:0 20:0 21:40 22:0 23:20 24:40 25:20 26:20 27:20 28:20 29:60 30:0 31:0 32:60 33:20 34:0 35:60 36:20 37:0 38:0 39:0 40:40 41:41 42:14 43:38 
8 1:0 2:0 3:0 4:0 5:0 6:0 7:0 8:0 9:100 10:0 11:0 12:-100 13:0 14:0 15:0 16:0 17:0 18:0 19:0 20:0 21:40 22:0 23:20 24:40 25:20 26:20 27:20 28:20 29:60 30:0 31:0 32:60 33:20 34:0 35:60 36:20 37:0 38:0 39:0 40:40 41:41 42:21 43:53 
-0.8396502443132248 1:100 2:0 3:0 4:-100 5:0 6:0 7:0 8:0 9:0 10:0 11:0 12:0 13:0 14:0 15:0 16:0 17:0 18:0 19:0 20:0 21:40 22:40 23:20 24:40 25:20 26:0 27:80 28:80 29:20 30:20 31:20 32:20 33:40 34:0 35:20 36:0 37:40 38:0 39:0 40:20 41:44 42:50 43:25 
1.918138916639247 1:0 2:0 3:0 4:0 5:0 6:0 7:0 8:0 9:-100 10:0 11:0 12:0 13:0 14:0 15:0 16:0 17:0 18:0 19:0 20:100 21:0 22:60 23:20 24:0 25:0 26:0 27:20 28:0 29:40 30:20 31:60 32:20 33:0 34:0 35:0 36:60 37:0 38:20 39:20 40:20 41:35 42:38 43:65 
-8 1:-100 2:0 3:0 4:0 5:0 6:0 7:0 8:0 9:0 10:0 11:0 12:100 13:0 14:0 15:0 16:0 17:0 18:0 19:0 20:0 21:0 22:40 23:20 24:20 25:40 26:0 27:0 28:40 29:0 30:0 31:60 32:0 33:0 34:0 35:0 36:20 37:20 38:0 39:0 40:20 41:68 42:50 43:25 
-3.743995410276284 1:0 2:100 3:0 4:0 5:-100 6:0 7:0 8:0 9:0 10:0 11:0 12:0 13:0 14:0 15:0 16:0 17:0 18:0 19:0 20:0 21:40 22:40 23:100 24:0 25:0 26:0 27:80 28:20 29:40 30:0 31:20 32:100 33:0 34:0 35:40 36:40 37:0 38:0 39:60 40:100 41:14 42:43 43:25 
-8 1:0 2:0 3:0 4:0 5:0 6:0 7:0 8:0 9:0 10:0 11:0 12:0 13:0 14:0 15:0 16:0 17:0 18:0 19:-100 20:100 21:40 22:40 23:20 24:0 25:20 26:20 27:20 28:60 29:80 30:20 31:40 32:20 33:0 34:0 35:20 36:40 37:20 38:0 39:0 40:20 41:18 42:45 43:25 
-2.01543211605901 1:0 2:0 3:0 4:0 5:0 6:0 7:0 8:0 9:0 10:0 11:0 12:0 13:0 14:0 15:0 16:0 17:100 18:-100 19:0 20:0 21:60 22:20 23:40 24:0 25:0 26:20 27:0 28:20 29:20 30:40 31:20 32:20 33:0 34:0 35:0 36:40 37:20 38:60 39:0 40:20 41:50 42:44 43:25 
-6.210643330326862 1:-100 2:0 3:0 4:0 5:0 6:0 7:0 8:0 9:0 10:100 11:0 12:0 13:0 14:0 15:0 16:0 17:0 18:0 19:0 20:0 21:0 22:40 23:20 24:20 25:40 26:0 27:0 28:40 29:0 30:0 31:60 32:0 33:0 34:0 35:0 36:20 37:20 38:0 39:0 40:20 41:68 42:50 43:25 
4.498935403080267 1:0 2:0 3:0 4:0 5:0 6:0 7:0 8:0 9:0 10:0 11:0 12:0 13:0 14:0 15:0 16:100 17:0 18:-100 19:0 20:0 21:0 22:20 23:0 24:20 25:0 26:20 27:60 28:20 29:0 30:0 31:0 32:80 33:0 34:0 35:20 36:40 37:40 38:0 39:20 40:20 41:47 42:38 43:65 
-8 1:100 2:0 3:0 4:0 5:0 6:0 7:0 8:0 9:-100 10:0 11:0 12:0 13:0 14:0 15:0 16:0 17:0 18:0 19:0 20:0 21:0 22:60 23:20 24:0 25:0 26:0 27:20 28:0 29:40 30:20 31:60 32:20 33:0 34:0 35:0 36:60 37:0 38:20 39:20 40:20 41:35 42:38 43:66 
8 1:100 2:0 3:0 4:0 5:0 6:0 7:0 8:0 9:-100 10:0 11:0 12:0 13:0 14:0 15:0 16:0 17:0 18:0 19:0 20:0 21:0 22:60 23:20 24:0 25:0 26:0 27:20 28:0 29:40 30:20 31:60 32:20 33:0 34:0 35:0 36:60 37:0 38:20 39:20 40:20 41:35 42:14 43:41 
6.633756655730743 1:100 2:0 3:0 4:0 5:0 6:0 7:0 8:0 9:-100 10:0 11:0 12:0 13:0 14:0 15:0 16:0 17:0 18:0 19:0 20:0 21:0 22:60 23:20 24:0 25:0 26:0 27:20 28:0 29:40 30:20 31:60 32:20 33:0 34:0 35:0 36:60 37:0 38:20 39:20 40:20 41:35 42:20 43:51 
-8 1:0 2:0 3:0 4:0 5:0 6:0 7:0 8:0 9:0 10:0 11:0 12:0 13:0 14:0 15:0 16:-100 17:0 18:100 19:0 20:0 21:40 22:80 23:20 24:0 25:20 26:0 27:0 28:20 29:40 30:0 31:80 32:40 33:0 34:0 35:0 36:40 37:20 38:20 39:0 40:0 41:44 42:50 43:30 
7.031218347443688 1:0 2:0 3:0 4:0 5:0 6:0 7:0 8:0 9:0 10:0 11:0 12:0 13:0 14:0 15:0 16:-100 17:0 18:100 19:0 20:0 21:40 22:80 23:20 24:0 25:20 26:0 27:0 28:20 29:40 30:0 31:80 32:40 33:0 34:0 35:0 36:40 37:20 38:20 39:0 40:0 41:44 42:50 43:63 
7.157396396862349 1:0 2:0 3:0 4:0 5:0 6:0 7:0 8:0 9:0 10:0 11:0 12:0 13:0 14:0 15:0 16:-100 17:0 18:100 19:0 20:0 21:40 22:80 23:20 24:0 25:20 26:0 27:0 28:20 29:40 30:0 31:80 32:40 33:0 34:0 35:0 36:40 37:20 38:20 39:0 40:0 41:44 42:50 43:25 
0.9895683330589954 1:0 2:0 3:0 4:0 5:0 6:0 7:0 8:0 9:100 10:0 11:0 12:0 13:0 14:0 15:0 16:0 17:0 18:0 19:-100 20:0 21:40 22:60 23:0 24:20 25:20 26:0 27:0 28:20 29:60 30:0 31:20 32:20 33:0 34:0 35:40 36:20 37:40 38:20 39:20 40:0 41:52 42:21 43:51 
-0.8481631523573717 1:0 2:0 3:0 4:0 5:0 6:0 7:0 8:0 9:-100 10:0 11:100 12:0 13:0 14:0 15:0 16:0 17:0 18:0 19:0 20:0 21:0 22:60 23:20 24:0 25:0 26:0 27:20 28:0 29:40 30:20 31:60 32:20 33:0 34:0 35:0 36:60 37:0 38:20 39:20 40:20 41:35 42:21 43:51 
-0.8163867755189598 1:0 2:0 3:0 4:0 5:0 6:0 7:0 8:0 9:100 10:0 11:0 12:0 13:0 14:0 15:0 16:0 17:0 18:0 19:-100 20:0 21:20 22:0 23:40 24:0 25:80 26:0 27:80 28:60 29:40 30:40 31:20 32:40 33:100 34:0 35:60 36:40 37:20 38:20 39:20 40:20 41:14 42:50 43:39 
8 1:0 2:0 3:0 4:0 5:0 6:0 7:0 8:100 9:0 10:0 11:0 12:0 13:0 14:0 15:0 16:-100 17:0 18:0 19:0 20:0 21:40 22:80 23:20 24:0 25:20 26:0 27:0 28:20 29:40 30:0 31:80 32:40 33:0 34:0 35:0 36:40 37:20 38:20 39:0 40:0 41:44 42:50 43:25 
-1.064047153378911 1:-100 2:0 3:0 4:0 5:0 6:0 7:0 8:0 9:0 10:0 11:100 12:0 13:0 14:0 15:0 16:0 17:0 18:0 19:0 20:0 21:0 22:100 23:20 24:0 25:0 26:60 27:20 28:20 29:20 30:20 31:80 32:40 33:80 34:20 35:40 36:40 37:0 38:40 39:40 40:0 41:0 42:32 43:64 
-0.1826006771726649 1:-100 2:0 3:0 4:0 5:0 6:0 7:0 8:0 9:0 10:0 11:0 12:0 13:100 14:0 15:0 16:0 17:0 18:0 19:0 20:0 21:0 22:40 23:20 24:20 25:40 26:0 27:0 28:40 29:0 30:0 31:60 32:0 33:0 34:0 35:0 36:20 37:20 38:0 39:0 40:20 41:68 42:50 43:25 
-8 1:-100 2:0 3:0 4:0 5:0 6:0 7:0 8:0 9:0 10:0 11:0 12:0 13:100 14:0 15:0 16:0 17:0 18:0 19:0 20:0 21:0 22:40 23:20 24:20 25:40 26:0 27:0 28:40 29:0 30:0 31:60 32:0 33:0 34:0 35:0 36:20 37:20 38:0 39:0 40:20 41:68 42:50 43:25 
-0.06242549553310412 1:0 2:100 3:0 4:-100 5:0 6:0 7:0 8:0 9:0 10:0 11:0 12:0 13:0 14:0 15:0 16:0 17:0 18:0 19:0 20:0 21:40 22:80 23:0 24:0 25:40 26:20 27:0 28:0 29:40 30:0 31:40 32:20 33:0 34:0 35:60 36:40 37:40 38:20 39:40 40:20 41:16 42:21 43:47 
-6.770193650491591 1:0 2:0 3:-100 4:0 5:0 6:0 7:0 8:0 9:100 10:0 11:0 12:0 13:0 14:0 15:0 16:0 17:0 18:0 19:0 20:0 21:120 22:100 23:40 24:60 25:80 26:20 27:20 28:40 29:80 30:0 31:0 32:20 33:20 34:0 35:80 36:0 37:20 38:40 39:40 40:80 41:4 42:21 43:51 
-2.56180860372877 1:100 2:0 3:-100 4:0 5:0 6:0 7:0 8:0 9:0 10:0 11:0 12:0 13:0 14:0 15:0 16:0 17:0 18:0 19:0 20:0 21:60 22:60 23:20 24:40 25:0 26:60 27:20 28:80 29:60 30:20 31:20 32:0 33:20 34:0 35:60 36:20 37:20 38:0 39:20 40:40 41:8 42:19 43:64 
8 1:100 2:0 3:-100 4:0 5:0 6:0 7:0 8:0 9:0 10:0 11:0 12:0 13:0 14:0 15:0 16:0 17:0 18:0 19:0 20:0 21:60 22:60 23:20 24:40 25:0 26:60 27:20 28:80 29:60 30:20 31:20 32:0 33:20 34:0 35:60 36:20 37:20 38:0 39:20 40:40 41:6 42:19 43:49 
0.8172342934635299 1:0 2:0 3:0 4:0 5:100 6:0 7:0 8:0 9:0 10:0 11:0 12:0 13:0 14:0 15:0 16:0 17:0 18:0 19:-100 20:0 21:20 22:60 23:20 24:40 25:20 26:40 27:20 28:20 29:60 30:0 31:40 32:20 33:0 34:0 35:60 36:20 37:0 38:20 39:40 40:20 41:28 42:38 43:66 
2.607855488968455 1:0 2:0 3:0 4:0 5:0 6:0 7:0 8:0 9:0 10:0 11:-100 12:0 13:0 14:100 15:0 16:0 17:0 18:0 19:0 20:0 21:0 22:60 23:40 24:0 25:0 26:0 27:0 28:40 29:60 30:0 31:20 32:20 33:20 34:0 35:20 36:40 37:0 38:20 39:60 40:20 41:57 42:21 43:51 
0.1120113498295734 1:0 2:0 3:-100 4:0 5:0 6:0 7:0 8:0 9:100 10:0 11:0 12:0 13:0 14:0 15:0 16:0 17:0 18:0 19:0 20:0 21:20 22:100 23:80 24:20 25:60 26:0 27:20 28:60 29:20 30:0 31:0 32:40 33:0 34:20 35:60 36:60 37:20 38:80 39:20 40:60 41:2 42:21 43:51 
-8 1:0 2:0 3:0 4:0 5:0 6:0 7:-100 8:100 9:0 10:0 11:0 12:0 13:0 14:0 15:0 16:0 17:0 18:0 19:0 20:0 21:20 22:20 23:0 24:40 25:20 26:0 27:40 28:20 29:20 30:40 31:100 32:120 33:80 34:0 35:40 36:100 37:20 38:20 39:100 40:20 41:2 42:35 43:63 
3.395183845025037 1:0 2:0 3:0 4:0 5:100 6:0 7:-100 8:0 9:0 10:0 11:0 12:0 13:0 14:0 15:0 16:0 17:0 18:0 19:0 20:0 21:20 22:20 23:0 24:40 25:20 26:0 27:40 28:20 29:20 30:40 31:100 32:120 33:80 34:0 35:40 36:100 37:20 38:20 39:100 40:20 41:2 42:35 43:63 
1.088364483379944 1:0 2:0 3:0 4:0 5:0 6:0 7:0 8:0 9:0 10:0 11:0 12:0 13:0 14:0 15:-100 16:0 17:100 18:0 19:0 20:0 21:20 22:80 23:20 24:0 25:0 26:0 27:0 28:40 29:0 30:40 31:0 32:0 33:0 34:0 35:40 36:20 37:60 38:0 39:0 40:20 41:51 42:35 43:25 
0.9901299695152332 1:0 2:0 3:0 4:0 5:0 6:0 7:0 8:0 9:0 10:0 11:0 12:0 13:0 14:0 15:0 16:-100 17:0 18:0 19:0 20:100 21:60 22:40 23:0 24:20 25:40 26:0 27:0 28:60 29:40 30:0 31:0 32:20 33:40 34:20 35:0 36:100 37:0 38:40 39:20 40:0 41:39 42:53 43:25 
-8 1:0 2:0 3:0 4:0 5:0 6:0 7:0 8:0 9:0 10:0 11:-100 12:0 13:0 14:0 15:0 16:0 17:0 18:0 19:0 20:100 21:0 22:40 23:20 24:0 25:0 26:0 27:40 28:20 29:40 30:20 31:40 32:20 33:0 34:0 35:0 36:60 37:0 38:20 39:20 40:0 41:44 42:14 43:40 
2.417991650359923 1:0 2:0 3:0 4:0 5:0 6:0 7:0 8:0 9:0 10:0 11:-100 12:0 13:0 14:0 15:0 16:0 17:0 18:0 19:0 20:100 21:0 22:40 23:20 24:0 25:0 26:0 27:40 28:20 29:40 30:20 31:40 32:20 33:0 34:0 35:0 36:60 37:0 38:20 39:20 40:0 41:44 42:49 43:66 
-3.950106117811656 1:0 2:0 3:0 4:0 5:0 6:0 7:0 8:0 9:0 10:0 11:-100 12:0 13:0 14:0 15:0 16:0 17:0 18:0 19:0 20:100 21:0 22:40 23:20 24:0 25:0 26:0 27:40 28:20 29:40 30:20 31:40 32:20 33:0 34:0 35:0 36:60 37:0 38:20 39:20 40:0 41:44 42:21 43:53 
8 1:0 2:0 3:0 4:0 5:0 6:0 7:0 8:0 9:0 10:0 11:-100 12:0 13:0 14:0 15:0 16:0 17:0 18:0 19:0 20:100 21:0 22:40 23:20 24:0 25:0 26:0 27:40 28:20 29:40 30:20 31:40 32:20 33:0 34:0 35:0 36:60 37:0 38:20 39:20 40:0 41:44 42:38 43:66 
0.6933146747675721 1:100 2:-100 3:0 4:0 5:0 6:0 7:0 8:0 9:0 10:0 11:0 12:0 13:0 14:0 15:0 16:0 17:0 18:0 19:0 20:0 21:60 22:100 23:60 24:40 25:60 26:0 27:40 28:60 29:60 30:0 31:0 32:40 33:20 34:0 35:20 36:160 37:20 38:100 39:0 40:40 41:2 42:14 43:83 
8 1:0 2:100 3:0 4:0 5:0 6:0 7:0 8:0 9:0 10:0 11:0 12:0 13:0 14:0 15:0 16:0 17:0 18:-100 19:0 20:0 21:60 22:40 23:0 24:20 25:20 26:0 27:0 28:40 29:40 30:0 31:20 32:20 33:0 34:0 35:0 36:40 37:40 38:40 39:20 40:0 41:26 42:50 43:70 
-8 1:0 2:100 3:0 4:0 5:0 6:0 7:0 8:0 9:0 10:0 11:0 12:0 13:0 14:0 15:0 16:0 17:0 18:-100 19:0 20:0 21:60 22:40 23:0 24:20 25:20 26:0 27:0 28:40 29:40 30:0 31:20 32:20 33:0 34:0 35:0 36:40 37:40 38:40 39:20 40:0 41:26 42:50 43:70 
8 1:0 2:100 3:0 4:0 5:0 6:0 7:0 8:0 9:0 10:0 11:0 12:0 13:0 14:0 15:0 16:0 17:0 18:-100 19:0 20:0 21:60 22:40 23:0 24:20 25:20 26:0 27:0 28:40 29:40 30:0 31:20 32:20 33:0 34:0 35:0 36:40 37:40 38:40 39:20 40:0 41:26 42:50 43:70 
-8 1:0 2:100 3:0 4:0 5:0 6:0 7:0 8:0 9:0 10:0 11:0 12:0 13:0 14:0 15:0 16:0 17:0 18:-100 19:0 20:0 21:60 22:40 23:0 24:20 25:20 26:0 27:0 28:40 29:40 30:0 31:20 32:20 33:0 34:0 35:0 36:40 37:40 38:40 39:20 40:0 41:26 42:50 43:70 
-4.944673797750966 1:0 2:0 3:-100 4:0 5:0 6:0 7:0 8:0 9:0 10:0 11:0 12:100 13:0 14:0 15:0 16:0 17:0 18:0 19:0 20:0 21:20 22:100 23:80 24:0 25:20 26:0 27:20 28:80 29:40 30:0 31:0 32:40 33:20 34:20 35:40 36:80 37:0 38:60 39:40 40:40 41:2 42:38 43:59 
5.841886043490736 1:0 2:-100 3:0 4:0 5:0 6:0 7:0 8:0 9:100 10:0 11:0 12:0 13:0 14:0 15:0 16:0 17:0 18:0 19:0 20:0 21:0 22:0 23:0 24:20 25:40 26:0 27:40 28:40 29:60 30:0 31:0 32:20 33:80 34:0 35:20 36:20 37:20 38:0 39:40 40:0 41:60 42:50 43:39 
1.089218407061906 1:0 2:0 3:0 4:0 5:0 6:0 7:0 8:0 9:0 10:0 11:-100 12:0 13:0 14:0 15:0 16:0 17:0 18:0 19:100 20:0 21:0 22:40 23:20 24:0 25:0 26:0 27:40 28:20 29:40 30:20 31:40 32:20 33:0 34:0 35:0 36:60 37:0 38:20 39:20 40:0 41:44 42:47 43:62 
3.812528342270635 1:0 2:0 3:0 4:0 5:0 6:0 7:0 8:0 9:100 10:-100 11:0 12:0 13:0 14:0 15:0 16:0 17:0 18:0 19:0 20:0 21:0 22:20 23:0 24:0 25:60 26:0 27:60 28:20 29:40 30:20 31:0 32:20 33:20 34:0 35:20 36:20 37:0 38:20 39:60 40:20 41:76 42:50 43:39 
0.7243188877458487 1:0 2:0 3:0 4:0 5:0 6:0 7:100 8:0 9:0 10:0 11:0 12:0 13:0 14:0 15:0 16:0 17:0 18:-100 19:0 20:0 21:20 22:40 23:20 24:20 25:20 26:0 27:0 28:40 29:120 30:0 31:20 32:0 33:0 34:0 35:20 36:40 37:60 38:20 39:20 40:0 41:55 42:35 43:50 
-2.579397366689448 1:0 2:0 3:0 4:0 5:0 6:0 7:0 8:0 9:-100 10:0 11:0 12:0 13:0 14:0 15:0 16:0 17:0 18:0 19:0 20:100 21:40 22:40 23:20 24:0 25:0 26:20 27:0 28:20 29:40 30:0 31:20 32:20 33:0 34:0 35:0 36:20 37:20 38:20 39:0 40:0 41:83 42:45 43:25 
-4.677363773917514 1:100 2:0 3:0 4:0 5:0 6:0 7:0 8:0 9:0 10:0 11:0 12:0 13:-100 14:0 15:0 16:0 17:0 18:0 19:0 20:0 21:20 22:80 23:80 24:0 25:0 26:0 27:0 28:40 29:40 30:0 31:20 32:20 33:0 34:0 35:20 36:60 37:0 38:40 39:40 40:20 41:2 42:46 43:70 
3.866049439916532 1:0 2:100 3:0 4:0 5:0 6:0 7:0 8:0 9:0 10:0 11:0 12:0 13:0 14:0 15:0 16:0 17:0 18:0 19:-100 20:0 21:20 22:40 23:60 24:20 25:0 26:20 27:80 28:40 29:40 30:60 31:40 32:40 33:0 34:40 35:0 36:60 37:20 38:0 39:20 40:20 41:11 42:32 43:26 
1.454597387854077 1:0 2:0 3:0 4:0 5:100 6:0 7:-100 8:0 9:0 10:0 11:0 12:0 13:0 14:0 15:0 16:0 17:0 18:0 19:0 20:0 21:40 22:40 23:20 24:0 25:0 26:20 27:20 28:120 29:40 30:60 31:120 32:40 33:0 34:20 35:20 36:0 37:20 38:20 39:20 40:60 41:3 42:50 43:25 
-1.8609209497714 1:0 2:0 3:0 4:0 5:100 6:0 7:-100 8:0 9:0 10:0 11:0 12:0 13:0 14:0 15:0 16:0 17:0 18:0 19:0 20:0 21:40 22:40 23:20 24:0 25:0 26:20 27:20 28:120 29:40 30:60 31:120 32:40 33:0 34:20 35:20 36:0 37:20 38:20 39:20 40:60 41:3 42:50 43:50 
-1.499251492099722 1:0 2:0 3:-100 4:0 5:0 6:0 7:0 8:0 9:100 10:0 11:0 12:0 13:0 14:0 15:0 16:0 17:0 18:0 19:0 20:0 21:60 22:80 23:40 24:20 25:20 26:60 27:40 28:20 29:160 30:0 31:100 32:80 33:80 34:0 35:40 36:20 37:20 38:20 39:100 40:60 41:1 42:19 43:64 
-0.03512341277085079 1:0 2:0 3:-100 4:0 5:0 6:0 7:0 8:0 9:100 10:0 11:0 12:0 13:0 14:0 15:0 16:0 17:0 18:0 19:0 20:0 21:60 22:80 23:40 24:20 25:20 26:60 27:40 28:20 29:160 30:0 31:100 32:80 33:80 34:0 35:40 36:20 37:20 38:20 39:100 40:60 41:1 42:19 43:64 
8 1:0 2:0 3:-100 4:0 5:0 6:0 7:0 8:0 9:100 10:0 11:0 12:0 13:0 14:0 15:0 16:0 17:0 18:0 19:0 20:0 21:60 22:80 23:40 24:20 25:20 26:60 27:40 28:20 29:160 30:0 31:100 32:80 33:80 34:0 35:40 36:20 37:20 38:20 39:100 40:60 41:1 42:19 43:49 
-8 1:-100 2:0 3:0 4:0 5:0 6:0 7:0 8:0 9:0 10:0 11:0 12:0 13:0 14:0 15:0 16:0 17:0 18:100 19:0 20:0 21:20 22:80 23:0 24:0 25:40 26:0 27:0 28:40 29:40 30:20 31:0 32:20 33:0 34:40 35:20 36:0 37:20 38:60 39:20 40:20 41:50 42:50 43:66 
0.8647583938267305 1:-100 2:0 3:0 4:0 5:0 6:0 7:0 8:0 9:0 10:0 11:0 12:0 13:0 14:0 15:0 16:0 17:0 18:100 19:0 20:0 21:20 22:80 23:0 24:0 25:40 26:0 27:0 28:40 29:40 30:20 31:0 32:20 33:0 34:40 35:20 36:0 37:20 38:60 39:20 40:20 41:50 42:50 43:77 
8 1:0 2:0 3:0 4:0 5:0 6:0 7:-100 8:0 9:0 10:0 11:0 12:0 13:0 14:0 15:0 16:0 17:0 18:0 19:0 20:100 21:20 22:20 23:20 24:0 25:0 26:0 27:0 28:20 29:60 30:0 31:20 32:40 33:0 34:0 35:0 36:40 37:40 38:0 39:20 40:20 41:76 42:50 43:45 
-0.760515487638081 1:0 2:0 3:0 4:0 5:0 6:0 7:0 8:100 9:-100 10:0 11:0 12:0 13:0 14:0 15:0 16:0 17:0 18:0 19:0 20:0 21:40 22:100 23:120 24:0 25:60 26:0 27:40 28:20 29:40 30:40 31:20 32:0 33:0 34:0 35:0 36:60 37:0 38:60 39:60 40:20 41:48 42:54 43:25 
-2.094890380236528 1:0 2:100 3:0 4:0 5:-100 6:0 7:0 8:0 9:0 10:0 11:0 12:0 13:0 14:0 15:0 16:0 17:0 18:0 19:0 20:0 21:20 22:120 23:0 24:0 25:40 26:0 27:20 28:40 29:20 30:20 31:40 32:60 33:0 34:40 35:40 36:40 37:0 38:80 39:0 40:40 41:9 42:50 43:66 
0.8882087537106549 1:0 2:0 3:-100 4:0 5:0 6:0 7:0 8:0 9:100 10:0 11:0 12:0 13:0 14:0 15:0 16:0 17:0 18:0 19:0 20:0 21:20 22:60 23:60 24:0 25:40 26:20 27:40 28:20 29:20 30:0 31:0 32:80 33:0 34:0 35:40 36:40 37:20 38:0 39:0 40:40 41:24 42:45 43:25 
-2.325606996320697 1:0 2:0 3:0 4:0 5:-100 6:0 7:0 8:0 9:0 10:0 11:0 12:0 13:0 14:100 15:0 16:0 17:0 18:0 19:0 20:0 21:20 22:120 23:0 24:0 25:40 26:0 27:20 28:40 29:20 30:20 31:40 32:60 33:0 34:40 35:40 36:40 37:0 38:80 39:0 40:40 41:9 42:50 43:66 
2.765454048407332 1:0 2:0 3:-100 4:0 5:0 6:0 7:0 8:0 9:0 10:0 11:0 12:100 13:0 14:0 15:0 16:0 17:0 18:0 19:0 20:0 21:60 22:80 23:40 24:20 25:20 26:60 27:40 28:20 29:160 30:0 31:100 32:80 33:80 34:0 35:40 36:20 37:20 38:20 39:100 40:60 41:1 42:19 43:64 
-0.4963586254215644 1:0 2:0 3:100 4:0 5:0 6:0 7:0 8:0 9:-100 10:0 11:0 12:0 13:0 14:0 15:0 16:0 17:0 18:0 19:0 20:0 21:40 22:40 23:20 24:0 25:0 26:20 27:0 28:20 29:40 30:0 31:20 32:20 33:0 34:0 35:0 36:20 37:20 38:20 39:0 40:0 41:83 42:45 43:25 
-3.442007835047174 1:100 2:0 3:-100 4:0 5:0 6:0 7:0 8:0 9:0 10:0 11:0 12:0 13:0 14:0 15:0 16:0 17:0 18:0 19:0 20:0 21:60 22:80 23:40 24:20 25:20 26:60 27:40 28:20 29:160 30:0 31:100 32:80 33:80 34:0 35:40 36:20 37:20 38:20 39:100 40:60 41:1 42:19 43:64 
8 1:100 2:0 3:-100 4:0 5:0 6:0 7:0 8:0 9:0 10:0 11:0 12:0 13:0 14:0 15:0 16:0 17:0 18:0 19:0 20:0 21:60 22:80 23:40 24:20 25:20 26:60 27:40 28:20 29:160 30:0 31:100 32:80 33:80 34:0 35:40 36:20 37:20 38:20 39:100 40:60 41:1 42:19 43:49 
-8 1:100 2:0 3:-100 4:0 5:0 6:0 7:0 8:0 9:0 10:0 11:0 12:0 13:0 14:0 15:0 16:0 17:0 18:0 19:0 20:0 21:60 22:80 23:40 24:20 25:20 26:60 27:40 28:20 29:160 30:0 31:100 32:80 33:80 34:0 35:40 36:20 37:20 38:20 39:100 40:60 41:1 42:19 43:64 
-2.511181090373853 1:0 2:0 3:0 4:0 5:100 6:0 7:-100 8:0 9:0 10:0 11:0 12:0 13:0 14:0 15:0 16:0 17:0 18:0 19:0 20:0 21:20 22:20 23:20 24:0 25:0 26:0 27:0 28:20 29:60 30:0 31:20 32:40 33:0 34:0 35:0 36:40 37:40 38:0 39:20 40:20 41:76 42:50 43:45 
1.199555604206937 1:0 2:0 3:0 4:0 5:0 6:0 7:0 8:0 9:100 10:0 11:0 12:0 13:0 14:0 15:0 16:0 17:0 18:0 19:0 20:-100 21:0 22:40 23:80 24:0 25:20 26:40 27:60 28:40 29:40 30:0 31:60 32:40 33:0 34:0 35:60 36:20 37:20 38:40 39:20 40:20 41:19 42:45 43:25 
-8 1:0 2:0 3:0 4:0 5:0 6:0 7:0 8:0 9:100 10:0 11:0 12:0 13:0 14:0 15:0 16:0 17:0 18:0 19:0 20:-100 21:0 22:40 23:80 24:0 25:20 26:40 27:60 28:40 29:40 30:0 31:60 32:40 33:0 34:0 35:60 36:20 37:20 38:40 39:20 40:20 41:19 42:45 43:25 
8 1:0 2:0 3:0 4:0 5:0 6:0 7:0 8:0 9:0 10:0 11:0 12:0 13:0 14:0 15:0 16:0 17:0 18:0 19:100 20:-100 21:0 22:40 23:80 24:0 25:20 26:40 27:60 28:40 29:40 30:0 31:60 32:40 33:0 34:0 35:60 36:20 37:20 38:40 39:20 40:20 41:19 42:45 43:25 
-0.06587662464351147 1:0 2:0 3:0 4:0 5:0 6:0 7:0 8:0 9:0 10:0 11:0 12:0 13:0 14:0 15:0 16:0 17:0 18:0 19:100 20:-100 21:0 22:40 23:80 24:0 25:20 26:40 27:60 28:40 29:40 30:0 31:60 32:40 33:0 34:0 35:60 36:20 37:20 38:40 39:20 40:20 41:19 42:63 43:25 
-8 1:0 2:0 3:0 4:0 5:0 6:0 7:0 8:0 9:0 10:0 11:0 12:0 13:0 14:0 15:0 16:0 17:0 18:0 19:100 20:-100 21:0 22:40 23:80 24:0 25:20 26:40 27:60 28:40 29:40 30:0 31:60 32:40 33:0 34:0 35:60 36:20 37:20 38:40 39:20 40:20 41:19 42:45 43:25 
8 1:0 2:0 3:0 4:0 5:0 6:0 7:0 8:0 9:0 10:0 11:0 12:0 13:0 14:0 15:0 16:0 17:0 18:0 19:100 20:-100 21:0 22:40 23:80 24:0 25:20 26:40 27:60 28:40 29:40 30:0 31:60 32:40 33:0 34:0 35:60 36:20 37:20 38:40 39:20 40:20 41:19 42:31 43:25 
-3.967058301477427 1:0 2:0 3:0 4:0 5:0 6:0 7:0 8:0 9:0 10:0 11:0 12:0 13:0 14:0 15:0 16:0 17:0 18:0 19:100 20:-100 21:0 22:40 23:80 24:0 25:20 26:40 27:60 28:40 29:40 30:0 31:60 32:40 33:0 34:0 35:60 36:20 37:20 38:40 39:20 40:20 41:19 42:31 43:25 
-1.534049065392176 1:100 2:0 3:-100 4:0 5:0 6:0 7:0 8:0 9:0 10:0 11:0 12:0 13:0 14:0 15:0 16:0 17:0 18:0 19:0 20:0 21:20 22:60 23:60 24:0 25:40 26:20 27:40 28:20 29:20 30:0 31:0 32:80 33:0 34:0 35:40 36:40 37:20 38:0 39:0 40:40 41:24 42:45 43:25 
1.722825295678747 1:0 2:0 3:0 4:100 5:0 6:0 7:0 8:0 9:0 10:0 11:0 12:0 13:0 14:0 15:0 16:0 17:0 18:0 19:-100 20:0 21:20 22:60 23:20 24:40 25:20 26:40 27:20 28:20 29:60 30:0 31:40 32:20 33:0 34:0 35:60 36:20 37:0 38:20 39:40 40:20 41:28 42:38 43:66 
2.999051347282058 1:0 2:0 3:0 4:0 5:-100 6:0 7:100 8:0 9:0 10:0 11:0 12:0 13:0 14:0 15:0 16:0 17:0 18:0 19:0 20:0 21:20 22:120 23:0 24:0 25:40 26:0 27:20 28:40 29:20 30:20 31:40 32:60 33:0 34:40 35:40 36:40 37:0 38:80 39:0 40:40 41:9 42:50 43:66 
-1.178290457297059 1:0 2:0 3:0 4:0 5:0 6:0 7:0 8:100 9:-100 10:0 11:0 12:0 13:0 14:0 15:0 16:0 17:0 18:0 19:0 20:0 21:100 22:80 23:20 24:0 25:20 26:20 27:0 28:40 29:20 30:60 31:20 32:0 33:0 34:0 35:40 36:40 37:0 38:20 39:20 40:40 41:40 42:45 43:25 
5.455541010340418 1:-100 2:0 3:0 4:0 5:0 6:0 7:0 8:0 9:100 10:0 11:0 12:0 13:0 14:0 15:0 16:0 17:0 18:0 19:0 20:0 21:20 22:0 23:80 24:40 25:0 26:0 27:0 28:20 29:60 30:40 31:0 32:0 33:20 34:0 35:0 36:40 37:0 38:20 39:0 40:40 41:33 42:51 43:20 
0.4660956633246351 1:0 2:0 3:-100 4:0 5:0 6:0 7:0 8:0 9:0 10:0 11:0 12:0 13:0 14:0 15:0 16:0 17:0 18:0 19:100 20:0 21:40 22:60 23:0 24:0 25:40 26:20 27:40 28:40 29:20 30:0 31:0 32:140 33:0 34:0 35:0 36:60 37:0 38:60 39:20 40:20 41:24 42:37 43:25 
3.077201647786141 1:0 2:0 3:-100 4:0 5:0 6:0 7:0 8:0 9:0 10:0 11:0 12:0 13:0 14:0 15:0 16:0 17:0 18:0 19:100 20:0 21:40 22:60 23:0 24:0 25:40 26:20 27:40 28:40 29:20 30:0 31:0 32:140 33:0 34:0 35:0 36:60 37:0 38:60 39:20 40:20 41:24 42:37 43:63 
-2.631416573130527 1:-100 2:0 3:100 4:0 5:0 6:0 7:0 8:0 9:0 10:0 11:0 12:0 13:0 14:0 15:0 16:0 17:0 18:0 19:0 20:0 21:20 22:0 23:80 24:40 25:0 26:0 27:0 28:20 29:60 30:40 31:0 32:0 33:20 34:0 35:0 36:40 37:0 38:20 39:0 40:40 41:33 42:51 43:20 
6.667442778489685 1:0 2:0 3:0 4:-100 5:0 6:0 7:0 8:0 9:0 10:0 11:0 12:0 13:100 14:0 15:0 16:0 17:0 18:0 19:0 20:0 21:20 22:60 23:20 24:0 25:40 26:0 27:0 28:40 29:0 30:0 31:60 32:0 33:0 34:20 35:40 36:20 37:20 38:0 39:0 40:20 41:44 42:50 43:25 
-2.963282444618758 1:0 2:0 3:0 4:0 5:0 6:0 7:0 8:0 9:0 10:0 11:0 12:0 13:0 14:0 15:0 16:100 17:0 18:0 19:0 20:-100 21:0 22:40 23:20 24:0 25:20 26:0 27:20 28:40 29:20 30:20 31:20 32:20 33:0 34:0 35:0 36:0 37:0 38:0 39:20 40:40 41:87 42:50 43:47 
8 1:0 2:100 3:0 4:0 5:0 6:0 7:0 8:0 9:0 10:0 11:0 12:0 13:0 14:-100 15:0 16:0 17:0 18:0 19:0 20:0 21:40 22:20 23:20 24:40 25:140 26:0 27:40 28:20 29:20 30:60 31:40 32:20 33:40 34:20 35:0 36:0 37:60 38:60 39:0 40:20 41:31 42:50 43:30 
-5.834346813624994 1:0 2:100 3:0 4:0 5:0 6:0 7:0 8:0 9:0 10:0 11:0 12:0 13:0 14:-100 15:0 16:0 17:0 18:0 19:0 20:0 21:40 22:20 23:20 24:40 25:140 26:0 27:40 28:20 29:20 30:60 31:40 32:20 33:40 34:20 35:0 36:0 37:60 38:60 39:0 40:20 41:31 42:50 43:30 
6.185401666466891 1:-100 2:0 3:0 4:0 5:0 6:0 7:100 8:0 9:0 10:0 11:0 12:0 13:0 14:0 15:0 16:0 17:0 18:0 19:0 20:0 21:0 22:20 23:40 24:0 25:20 26:0 27:20 28:20 29:20 30:0 31:20 32:20 33:0 34:0 35:40 36:20 37:20 38:40 39:20 40:20 41:65 42:19 43:64 
8 1:0 2:0 3:0 4:0 5:0 6:0 7:0 8:0 9:0 10:0 11:100 12:0 13:0 14:-100 15:0 16:0 17:0 18:0 19:0 20:0 21:40 22:20 23:20 24:40 25:140 26:0 27:40 28:20 29:20 30:60 31:40 32:20 33:40 34:20 35:0 36:0 37:60 38:60 39:0 40:20 41:31 42:50 43:30 
-6.268331230982935 1:0 2:0 3:0 4:0 5:0 6:0 7:0 8:0 9:0 10:0 11:100 12:0 13:0 14:-100 15:0 16:0 17:0 18:0 19:0 20:0 21:40 22:20 23:20 24:40 25:140 26:0 27:40 28:20 29:20 30:60 31:40 32:20 33:40 34:20 35:0 36:0 37:60 38:60 39:0 40:20 41:31 42:50 43:30 
-3.238147060997879 1:0 2:0 3:0 4:0 5:-100 6:0 7:0 8:0 9:100 10:0 11:0 12:0 13:0 14:0 15:0 16:0 17:0 18:0 19:0 20:0 21:80 22:60 23:0 24:40 25:0 26:0 27:20 28:60 29:120 30:20 31:20 32:40 33:0 34:0 35:20 36:60 37:20 38:60 39:60 40:40 41:27 42:50 43:20 
-1.488254690517262 1:0 2:100 3:0 4:0 5:0 6:0 7:0 8:0 9:-100 10:0 11:0 12:0 13:0 14:0 15:0 16:0 17:0 18:0 19:0 20:0 21:60 22:40 23:0 24:0 25:20 26:20 27:20 28:20 29:40 30:40 31:60 32:20 33:0 34:20 35:0 36:0 37:40 38:20 39:20 40:40 41:55 42:17 43:0 
7.986690976735992 1:0 2:0 3:0 4:0 5:0 6:0 7:100 8:0 9:0 10:0 11:0 12:0 13:0 14:-100 15:0 16:0 17:0 18:0 19:0 20:0 21:40 22:20 23:20 24:40 25:140 26:0 27:40 28:20 29:20 30:60 31:40 32:20 33:40 34:20 35:0 36:0 37:60 38:60 39:0 40:20 41:31 42:50 43:30 
7.955617304770537 1:0 2:0 3:0 4:0 5:0 6:0 7:100 8:0 9:0 10:0 11:0 12:0 13:0 14:-100 15:0 16:0 17:0 18:0 19:0 20:0 21:40 22:20 23:20 24:40 25:140 26:0 27:40 28:20 29:20 30:60 31:40 32:20 33:40 34:20 35:0 36:0 37:60 38:60 39:0 40:20 41:31 42:50 43:30 
-8 1:0 2:0 3:0 4:0 5:0 6:0 7:100 8:0 9:0 10:0 11:0 12:0 13:0 14:-100 15:0 16:0 17:0 18:0 19:0 20:0 21:40 22:20 23:20 24:40 25:140 26:0 27:40 28:20 29:20 30:60 31:40 32:20 33:40 34:20 35:0 36:0 37:60 38:60 39:0 40:20 41:31 42:50 43:30 
3.567267070336652 1:0 2:-100 3:0 4:0 5:0 6:0 7:0 8:0 9:100 10:0 11:0 12:0 13:0 14:0 15:0 16:0 17:0 18:0 19:0 20:0 21:80 22:100 23:40 24:40 25:60 26:0 27:20 28:80 29:80 30:20 31:20 32:40 33:0 34:0 35:80 36:40 37:20 38:20 39:20 40:20 41:0 42:21 43:51 
-1.693511721166923 1:0 2:0 3:0 4:0 5:0 6:0 7:0 8:0 9:0 10:0 11:0 12:100 13:-100 14:0 15:0 16:0 17:0 18:0 19:0 20:0 21:20 22:80 23:80 24:0 25:0 26:0 27:0 28:40 29:40 30:0 31:20 32:20 33:0 34:0 35:20 36:60 37:0 38:40 39:40 40:20 41:2 42:46 43:70 
8 1:0 2:0 3:0 4:0 5:0 6:0 7:0 8:0 9:0 10:0 11:0 12:100 13:-100 14:0 15:0 16:0 17:0 18:0 19:0 20:0 21:20 22:80 23:80 24:0 25:0 26:0 27:0 28:40 29:40 30:0 31:20 32:20 33:0 34:0 35:20 36:60 37:0 38:40 39:40 40:20 41:2 42:42 43:65 
-8 1:0 2:100 3:0 4:0 5:0 6:0 7:0 8:0 9:0 10:0 11:0 12:0 13:0 14:-100 15:0 16:0 17:0 18:0 19:0 20:0 21:60 22:40 23:0 24:20 25:0 26:0 27:40 28:20 29:40 30:0 31:20 32:20 33:0 34:20 35:40 36:40 37:40 38:80 39:40 40:0 41:50 42:37 43:40 
0.7941362028515244 1:0 2:100 3:0 4:0 5:0 6:0 7:0 8:0 9:0 10:0 11:0 12:0 13:0 14:-100 15:0 16:0 17:0 18:0 19:0 20:0 21:60 22:40 23:0 24:20 25:0 26:0 27:40 28:20 29:40 30:0 31:20 32:20 33:0 34:20 35:40 36:40 37:40 38:80 39:40 40:0 41:50 42:50 43:51 
8 1:0 2:100 3:0 4:0 5:0 6:0 7:0 8:0 9:0 10:0 11:0 12:0 13:0 14:-100 15:0 16:0 17:0 18:0 19:0 20:0 21:60 22:40 23:0 24:20 25:0 26:0 27:40 28:20 29:40 30:0 31:20 32:20 33:0 34:20 35:40 36:40 37:40 38:80 39:40 40:0 41:50 42:35 43:47 
0.2139422938691717 1:0 2:0 3:0 4:0 5:100 6:0 7:-100 8:0 9:0 10:0 11:0 12:0 13:0 14:0 15:0 16:0 17:0 18:0 19:0 20:0 21:40 22:40 23:60 24:0 25:20 26:20 27:40 28:20 29:20 30:20 31:0 32:40 33:0 34:20 35:20 36:20 37:20 38:0 39:40 40:60 41:18 42:45 43:25 
1.630956711271795 1:0 2:0 3:0 4:0 5:0 6:0 7:-100 8:0 9:100 10:0 11:0 12:0 13:0 14:0 15:0 16:0 17:0 18:0 19:0 20:0 21:40 22:40 23:60 24:0 25:20 26:20 27:40 28:20 29:20 30:20 31:0 32:40 33:0 34:20 35:20 36:20 37:20 38:0 39:40 40:60 41:18 42:45 43:25 
-8 1:0 2:0 3:0 4:0 5:0 6:0 7:-100 8:0 9:100 10:0 11:0 12:0 13:0 14:0 15:0 16:0 17:0 18:0 19:0 20:0 21:40 22:40 23:60 24:0 25:20 26:20 27:40 28:20 29:20 30:20 31:0 32:40 33:0 34:20 35:20 36:20 37:20 38:0 39:40 40:60 41:18 42:45 43:25 
-4.607938843447244 1:0 2:0 3:0 4:0 5:0 6:0 7:0 8:0 9:100 10:0 11:0 12:0 13:0 14:0 15:0 16:-100 17:0 18:0 19:0 20:0 21:20 22:0 23:20 24:0 25:0 26:0 27:20 28:60 29:20 30:20 31:0 32:20 33:40 34:0 35:20 36:0 37:0 38:0 39:0 40:0 41:90 42:50 43:39 
-1.87898123064172 1:-100 2:0 3:100 4:0 5:0 6:0 7:0 8:0 9:0 10:0 11:0 12:0 13:0 14:0 15:0 16:0 17:0 18:0 19:0 20:0 21:20 22:180 23:140 24:20 25:60 26:20 27:20 28:40 29:60 30:40 31:0 32:20 33:0 34:20 35:40 36:40 37:20 38:40 39:0 40:40 41:0 42:53 43:25 
8 1:0 2:0 3:0 4:0 5:0 6:0 7:0 8:0 9:0 10:0 11:0 12:0 13:0 14:0 15:0 16:0 17:100 18:-100 19:0 20:0 21:40 22:80 23:40 24:20 25:20 26:0 27:40 28:40 29:20 30:0 31:0 32:20 33:40 34:0 35:60 36:40 37:0 38:20 39:0 40:20 41:30 42:15 43:65 
-8 1:0 2:0 3:0 4:0 5:0 6:0 7:0 8:0 9:0 10:0 11:0 12:0 13:0 14:0 15:0 16:0 17:100 18:-100 19:0 20:0 21:40 22:80 23:40 24:20 25:20 26:0 27:40 28:40 29:20 30:0 31:0 32:20 33:40 34:0 35:60 36:40 37:0 38:20 39:0 40:20 41:30 42:28 43:65 
7.720151435926605 1:0 2:0 3:0 4:0 5:0 6:0 7:0 8:0 9:0 10:0 11:0 12:0 13:0 14:0 15:0 16:0 17:100 18:-100 19:0 20:0 21:40 22:80 23:40 24:20 25:20 26:0 27:40 28:40 29:20 30:0 31:0 32:20 33:40 34:0 35:60 36:40 37:0 38:20 39:0 40:20 41:30 42:16 43:65 
-8 1:0 2:0 3:0 4:0 5:0 6:0 7:0 8:0 9:0 10:0 11:0 12:0 13:0 14:0 15:0 16:0 17:100 18:-100 19:0 20:0 21:40 22:80 23:40 24:20 25:20 26:0 27:40 28:40 29:20 30:0 31:0 32:20 33:40 34:0 35:60 36:40 37:0 38:20 39:0 40:20 41:30 42:32 43:65 
2.05581886282354 1:0 2:0 3:0 4:0 5:0 6:0 7:0 8:0 9:0 10:0 11:0 12:0 13:0 14:0 15:0 16:0 17:0 18:0 19:100 20:-100 21:20 22:60 23:100 24:0 25:40 26:20 27:80 28:60 29:20 30:20 31:40 32:80 33:0 34:0 35:60 36:40 37:0 38:20 39:80 40:40 41:0 42:45 43:25 
-8 1:0 2:0 3:0 4:0 5:0 6:0 7:0 8:0 9:0 10:0 11:0 12:0 13:0 14:0 15:0 16:0 17:0 18:0 19:100 20:-100 21:20 22:60 23:100 24:0 25:40 26:20 27:80 28:60 29:20 30:20 31:40 32:80 33:0 34:0 35:60 36:40 37:0 38:20 39:80 40:40 41:0 42:45 43:25 
0.6014393537445994 1:0 2:100 3:-100 4:0 5:0 6:0 7:0 8:0 9:0 10:0 11:0 12:0 13:0 14:0 15:0 16:0 17:0 18:0 19:0 20:0 21:20 22:80 23:60 24:20 25:100 26:40 27:40 28:20 29:100 30:0 31:40 32:20 33:40 34:0 35:0 36:80 37:40 38:60 39:60 40:120 41:0 42:32 43:66 
-4.619396595101374 1:0 2:0 3:0 4:0 5:100 6:-100 7:0 8:0 9:0 10:0 11:0 12:0 13:0 14:0 15:0 16:0 17:0 18:0 19:0 20:0 21:20 22:100 23:80 24:20 25:60 26:0 27:100 28:80 29:100 30:20 31:20 32:80 33:20 34:0 35:0 36:80 37:60 38:20 39:20 40:60 41:0 42:50 43:42 
8 1:0 2:0 3:0 4:0 5:100 6:-100 7:0 8:0 9:0 10:0 11:0 12:0 13:0 14:0 15:0 16:0 17:0 18:0 19:0 20:0 21:20 22:100 23:80 24:20 25:60 26:0 27:100 28:80 29:100 30:20 31:20 32:80 33:20 34:0 35:0 36:80 37:60 38:20 39:20 40:60 41:0 42:50 43:52 
-8 1:0 2:0 3:0 4:0 5:100 6:-100 7:0 8:0 9:0 10:0 11:0 12:0 13:0 14:0 15:0 16:0 17:0 18:0 19:0 20:0 21:20 22:100 23:80 24:20 25:60 26:0 27:100 28:80 29:100 30:20 31:20 32:80 33:20 34:0 35:0 36:80 37:60 38:20 39:20 40:60 41:0 42:50 43:43 
0.01799759136612884 1:0 2:0 3:0 4:0 5:0 6:0 7:0 8:-100 9:0 10:0 11:0 12:0 13:0 14:0 15:0 16:0 17:100 18:0 19:0 20:0 21:40 22:0 23:40 24:0 25:20 26:0 27:0 28:20 29:0 30:0 31:20 32:0 33:0 34:0 35:20 36:20 37:20 38:40 39:0 40:20 41:58 42:50 43:70 
0.9621765110366153 1:0 2:0 3:0 4:0 5:0 6:0 7:0 8:-100 9:0 10:0 11:0 12:0 13:0 14:0 15:0 16:0 17:100 18:0 19:0 20:0 21:40 22:0 23:40 24:0 25:20 26:0 27:0 28:20 29:0 30:0 31:20 32:0 33:0 34:0 35:20 36:20 37:20 38:40 39:0 40:20 41:58 42:50 43:70 
-2.170490948896518 1:0 2:0 3:0 4:0 5:0 6:0 7:0 8:0 9:0 10:0 11:0 12:0 13:0 14:100 15:0 16:0 17:0 18:0 19:0 20:-100 21:0 22:80 23:20 24:0 25:20 26:0 27:20 28:20 29:20 30:20 31:60 32:20 33:0 34:20 35:40 36:0 37:40 38:40 39:20 40:20 41:28 42:50 43:25 
0.9205221659300825 1:100 2:0 3:0 4:0 5:0 6:0 7:0 8:0 9:0 10:0 11:-100 12:0 13:0 14:0 15:0 16:0 17:0 18:0 19:0 20:0 21:60 22:100 23:20 24:40 25:40 26:40 27:0 28:20 29:80 30:0 31:20 32:20 33:0 34:0 35:40 36:40 37:40 38:20 39:40 40:0 41:0 42:38 43:66 
8 1:0 2:0 3:0 4:0 5:0 6:0 7:0 8:-100 9:100 10:0 11:0 12:0 13:0 14:0 15:0 16:0 17:0 18:0 19:0 20:0 21:20 22:80 23:60 24:40 25:40 26:0 27:40 28:80 29:180 30:0 31:60 32:60 33:20 34:0 35:40 36:20 37:0 38:80 39:20 40:40 41:0 42:21 43:50 
-4.620181145527075 1:0 2:0 3:0 4:0 5:0 6:0 7:0 8:-100 9:100 10:0 11:0 12:0 13:0 14:0 15:0 16:0 17:0 18:0 19:0 20:0 21:20 22:80 23:60 24:40 25:40 26:0 27:40 28:80 29:180 30:0 31:60 32:60 33:20 34:0 35:40 36:20 37:0 38:80 39:20 40:40 41:0 42:39 43:52 
-6.979162302993901 1:0 2:0 3:0 4:0 5:0 6:0 7:0 8:-100 9:100 10:0 11:0 12:0 13:0 14:0 15:0 16:0 17:0 18:0 19:0 20:0 21:20 22:80 23:60 24:40 25:40 26:0 27:40 28:80 29:180 30:0 31:60 32:60 33:20 34:0 35:40 36:20 37:0 38:80 39:20 40:40 41:0 42:39 43:52 
8 1:0 2:0 3:0 4:0 5:0 6:0 7:0 8:-100 9:100 10:0 11:0 12:0 13:0 14:0 15:0 16:0 17:0 18:0 19:0 20:0 21:20 22:80 23:60 24:40 25:40 26:0 27:40 28:80 29:180 30:0 31:60 32:60 33:20 34:0 35:40 36:20 37:0 38:80 39:20 40:40 41:0 42:21 43:50 
-2.751971234223557 1:0 2:0 3:0 4:0 5:0 6:0 7:0 8:-100 9:100 10:0 11:0 12:0 13:0 14:0 15:0 16:0 17:0 18:0 19:0 20:0 21:0 22:40 23:0 24:20 25:20 26:0 27:20 28:40 29:40 30:0 31:0 32:0 33:80 34:0 35:20 36:20 37:20 38:0 39:20 40:0 41:53 42:50 43:39 
8 1:0 2:0 3:0 4:0 5:0 6:0 7:0 8:0 9:0 10:0 11:0 12:-100 13:0 14:0 15:0 16:0 17:0 18:0 19:0 20:100 21:20 22:80 23:80 24:0 25:20 26:0 27:0 28:40 29:20 30:0 31:0 32:0 33:20 34:0 35:40 36:60 37:0 38:40 39:0 40:20 41:51 42:14 43:41 
-8 1:0 2:0 3:0 4:0 5:0 6:0 7:0 8:0 9:0 10:0 11:0 12:-100 13:0 14:0 15:0 16:0 17:0 18:0 19:0 20:100 21:20 22:80 23:80 24:0 25:20 26:0 27:0 28:40 29:20 30:0 31:0 32:0 33:20 34:0 35:40 36:60 37:0 38:40 39:0 40:20 41:51 42:46 43:63 
-1.297600227337567 1:0 2:0 3:0 4:0 5:100 6:0 7:-100 8:0 9:0 10:0 11:0 12:0 13:0 14:0 15:0 16:0 17:0 18:0 19:0 20:0 21:60 22:20 23:40 24:0 25:0 26:0 27:20 28:60 29:40 30:40 31:140 32:80 33:80 34:0 35:20 36:0 37:0 38:0 39:20 40:80 41:2 42:50 43:25 
8 1:0 2:100 3:0 4:0 5:0 6:0 7:0 8:0 9:0 10:-100 11:0 12:0 13:0 14:0 15:0 16:0 17:0 18:0 19:0 20:0 21:0 22:0 23:0 24:60 25:20 26:0 27:0 28:0 29:0 30:0 31:20 32:0 33:0 34:0 35:0 36:20 37:20 38:0 39:40 40:0 41:32 42:53 43:25 
3.824202466384183 1:0 2:100 3:0 4:0 5:0 6:0 7:0 8:0 9:0 10:-100 11:0 12:0 13:0 14:0 15:0 16:0 17:0 18:0 19:0 20:0 21:0 22:0 23:0 24:60 25:20 26:0 27:0 28:0 29:0 30:0 31:20 32:0 33:0 34:0 35:0 36:20 37:20 38:0 39:40 40:0 41:32 42:53 43:20 
-0.7806269232470859 1:0 2:100 3:0 4:0 5:0 6:0 7:0 8:0 9:0 10:-100 11:0 12:0 13:0 14:0 15:0 16:0 17:0 18:0 19:0 20:0 21:0 22:0 23:0 24:60 25:20 26:0 27:0 28:0 29:0 30:0 31:20 32:0 33:0 34:0 35:0 36:20 37:20 38:0 39:40 40:0 41:32 42:53 43:53 
-1.054954778054429 1:100 2:0 3:-100 4:0 5:0 6:0 7:0 8:0 9:0 10:0 11:0 12:0 13:0 14:0 15:0 16:0 17:0 18:0 19:0 20:0 21:80 22:80 23:40 24:20 25:20 26:0 27:0 28:20 29:0 30:0 31:60 32:20 33:0 34:20 35:40 36:40 37:0 38:0 39:0 40:20 41:49 42:50 43:25 
-1.203126969077138 1:0 2:0 3:0 4:0 5:0 6:0 7:0 8:-100 9:0 10:0 11:100 12:0 13:0 14:0 15:0 16:0 17:0 18:0 19:0 20:0 21:0 22:20 23:40 24:20 25:20 26:0 27:60 28:40 29:40 30:40 31:20 32:40 33:40 34:20 35:20 36:60 37:0 38:20 39:20 40:0 41:15 42:53 43:30 
-8 1:0 2:0 3:0 4:0 5:0 6:0 7:0 8:0 9:100 10:0 11:0 12:-100 13:0 14:0 15:0 16:0 17:0 18:0 19:0 20:0 21:20 22:80 23:80 24:0 25:20 26:0 27:0 28:40 29:20 30:0 31:0 32:0 33:20 34:0 35:40 36:60 37:0 38:40 39:0 40:20 41:51 42:14 43:41 
0.8640524750536057 1:0 2:0 3:0 4:0 5:0 6:0 7:0 8:0 9:100 10:0 11:0 12:-100 13:0 14:0 15:0 16:0 17:0 18:0 19:0 20:0 21:20 22:80 23:80 24:0 25:20 26:0 27:0 28:40 29:20 30:0 31:0 32:0 33:20 34:0 35:40 36:60 37:0 38:40 39:0 40:20 41:51 42:46 43:63 
-7.226827128727392 1:0 2:0 3:0 4:-100 5:0 6:0 7:0 8:0 9:0 10:0 11:0 12:0 13:0 14:0 15:0 16:0 17:0 18:0 19:0 20:100 21:40 22:0 23:0 24:20 25:0 26:0 27:20 28:0 29:0 30:20 31:20 32:0 33:40 34:0 35:20 36:0 37:0 38:20 39:20 40:20 41:105 42:22 43:53 
8 1:0 2:0 3:0 4:-100 5:0 6:0 7:0 8:0 9:0 10:0 11:0 12:0 13:0 14:0 15:0 16:0 17:0 18:0 19:0 20:100 21:40 22:0 23:0 24:20 25:0 26:0 27:20 28:0 29:0 30:20 31:20 32:0 33:40 34:0 35:20 36:0 37:0 38:20 39:20 40:20 41:105 42:50 43:53 
2.8645440184069 1:0 2:0 3:0 4:-100 5:0 6:0 7:0 8:0 9:0 10:0 11:0 12:0 13:0 14:0 15:0 16:0 17:0 18:0 19:0 20:100 21:40 22:0 23:0 24:20 25:0 26:0 27:20 28:0 29:0 30:20 31:20 32:0 33:40 34:0 35:20 36:0 37:0 38:20 39:20 40:20 41:105 42:67 43:53 
-4.249040781754906 1:0 2:0 3:0 4:0 5:0 6:0 7:100 8:0 9:0 10:0 11:0 12:0 13:0 14:-100 15:0 16:0 17:0 18:0 19:0 20:0 21:20 22:0 23:0 24:0 25:0 26:0 27:0 28:40 29:0 30:40 31:0 32:40 33:0 34:0 35:0 36:80 37:0 38:40 39:0 40:40 41:21 42:38 43:40 
8 1:0 2:0 3:0 4:-100 5:0 6:0 7:0 8:0 9:0 10:0 11:0 12:0 13:0 14:0 15:0 16:100 17:0 18:0 19:0 20:0 21:40 22:0 23:0 24:20 25:0 26:0 27:20 28:0 29:0 30:20 31:20 32:0 33:40 34:0 35:20 36:0 37:0 38:20 39:20 40:20 41:105 42:22 43:53 
-7.114687821734101 1:0 2:0 3:0 4:-100 5:0 6:0 7:0 8:0 9:0 10:0 11:0 12:0 13:0 14:0 15:0 16:100 17:0 18:0 19:0 20:0 21:40 22:0 23:0 24:20 25:0 26:0 27:20 28:0 29:0 30:20 31:20 32:0 33:40 34:0 35:20 36:0 37:0 38:20 39:20 40:20 41:105 42:67 43:53 
-0.1044193706859552 1:0 2:0 3:0 4:0 5:0 6:0 7:0 8:0 9:0 10:0 11:0 12:0 13:100 14:0 15:-100 16:0 17:0 18:0 19:0 20:0 21:60 22:80 23:60 24:20 25:20 26:0 27:40 28:0 29:0 30:20 31:40 32:40 33:0 34:20 35:20 36:40 37:20 38:20 39:0 40:40 41:22 42:50 43:25 
-0.5810328720672019 1:0 2:0 3:0 4:0 5:100 6:-100 7:0 8:0 9:0 10:0 11:0 12:0 13:0 14:0 15:0 16:0 17:0 18:0 19:0 20:0 21:0 22:80 23:40 24:20 25:20 26:20 27:0 28:0 29:60 30:20 31:20 32:0 33:0 34:40 35:40 36:60 37:20 38:100 39:0 40:60 41:32 42:53 43:25 
-7.345591103320278 1:0 2:0 3:0 4:0 5:0 6:100 7:-100 8:0 9:0 10:0 11:0 12:0 13:0 14:0 15:0 16:0 17:0 18:0 19:0 20:0 21:20 22:20 23:20 24:0 25:0 26:0 27:0 28:20 29:60 30:0 31:20 32:40 33:0 34:0 35:0 36:40 37:40 38:0 39:20 40:20 41:76 42:50 43:45 
-0.8415391877952263 1:0 2:100 3:0 4:-100 5:0 6:0 7:0 8:0 9:0 10:0 11:0 12:0 13:0 14:0 15:0 16:0 17:0 18:0 19:0 20:0 21:40 22:0 23:0 24:20 25:0 26:0 27:20 28:0 29:0 30:20 31:20 32:0 33:40 34:0 35:20 36:0 37:0 38:20 39:20 40:20 41:105 42:22 43:53 
5.789446058732698 1:0 2:100 3:0 4:-100 5:0 6:0 7:0 8:0 9:0 10:0 11:0 12:0 13:0 14:0 15:0 16:0 17:0 18:0 19:0 20:0 21:40 22:0 23:0 24:20 25:0 26:0 27:20 28:0 29:0 30:20 31:20 32:0 33:40 34:0 35:20 36:0 37:0 38:20 39:20 40:20 41:105 42:50 43:53 
-8 1:0 2:100 3:0 4:-100 5:0 6:0 7:0 8:0 9:0 10:0 11:0 12:0 13:0 14:0 15:0 16:0 17:0 18:0 19:0 20:0 21:40 22:0 23:0 24:20 25:0 26:0 27:20 28:0 29:0 30:20 31:20 32:0 33:40 34:0 35:20 36:0 37:0 38:20 39:20 40:20 41:105 42:67 43:53 
2.100055492224311 1:0 2:0 3:0 4:0 5:0 6:0 7:0 8:0 9:100 10:0 11:0 12:0 13:0 14:0 15:0 16:0 17:0 18:-100 19:0 20:0 21:40 22:80 23:40 24:40 25:20 26:40 27:60 28:80 29:100 30:0 31:60 32:80 33:20 34:0 35:40 36:0 37:40 38:0 39:60 40:60 41:10 42:21 43:50 
2.181772586868005 1:0 2:0 3:0 4:0 5:0 6:0 7:0 8:0 9:-100 10:0 11:100 12:0 13:0 14:0 15:0 16:0 17:0 18:0 19:0 20:0 21:60 22:60 23:40 24:0 25:60 26:0 27:0 28:40 29:20 30:0 31:0 32:0 33:0 34:20 35:40 36:0 37:20 38:20 39:40 40:40 41:46 42:21 43:51 
-8 1:100 2:0 3:0 4:0 5:0 6:0 7:0 8:0 9:0 10:0 11:0 12:-100 13:0 14:0 15:0 16:0 17:0 18:0 19:0 20:0 21:20 22:80 23:80 24:0 25:20 26:0 27:0 28:40 29:20 30:0 31:0 32:0 33:20 34:0 35:40 36:60 37:0 38:40 39:0 40:20 41:51 42:14 43:41 
3.51379875224179 1:100 2:0 3:0 4:0 5:0 6:0 7:0 8:0 9:0 10:0 11:0 12:-100 13:0 14:0 15:0 16:0 17:0 18:0 19:0 20:0 21:20 22:80 23:80 24:0 25:20 26:0 27:0 28:40 29:20 30:0 31:0 32:0 33:20 34:0 35:40 36:60 37:0 38:40 39:0 40:20 41:51 42:46 43:63 
-1.899635794128452 1:0 2:0 3:0 4:0 5:0 6:0 7:0 8:0 9:0 10:0 11:0 12:0 13:0 14:0 15:0 16:0 17:0 18:-100 19:100 20:0 21:20 22:60 23:40 24:0 25:20 26:0 27:40 28:0 29:40 30:20 31:40 32:60 33:20 34:0 35:40 36:20 37:80 38:0 39:20 40:20 41:16 42:50 43:25 
-0.1144291934283623 1:0 2:0 3:0 4:0 5:0 6:0 7:0 8:100 9:0 10:-100 11:0 12:0 13:0 14:0 15:0 16:0 17:0 18:0 19:0 20:0 21:20 22:0 23:0 24:0 25:0 26:0 27:40 28:60 29:40 30:0 31:40 32:40 33:20 34:0 35:40 36:20 37:0 38:0 39:80 40:40 41:54 42:20 43:68 
-4.614846313557043 1:0 2:0 3:-100 4:0 5:0 6:0 7:0 8:0 9:0 10:0 11:0 12:0 13:100 14:0 15:0 16:0 17:0 18:0 19:0 20:0 21:80 22:80 23:40 24:20 25:20 26:0 27:0 28:20 29:0 30:0 31:60 32:20 33:0 34:20 35:40 36:40 37:0 38:0 39:0 40:20 41:49 42:50 43:25 
2.059350514703372 1:0 2:0 3:0 4:0 5:0 6:0 7:0 8:-100 9:0 10:0 11:0 12:0 13:0 14:100 15:0 16:0 17:0 18:0 19:0 20:0 21:40 22:40 23:20 24:0 25:0 26:20 27:0 28:20 29:100 30:0 31:40 32:0 33:0 34:0 35:0 36:40 37:20 38:20 39:20 40:20 41:48 42:45 43:25 
4.330541775714543 1:0 2:0 3:0 4:0 5:0 6:0 7:0 8:-100 9:0 10:0 11:0 12:0 13:0 14:100 15:0 16:0 17:0 18:0 19:0 20:0 21:40 22:40 23:20 24:0 25:0 26:20 27:0 28:20 29:100 30:0 31:40 32:0 33:0 34:0 35:0 36:40 37:20 38:20 39:20 40:20 41:48 42:31 43:25 
-8 1:0 2:0 3:0 4:0 5:0 6:0 7:0 8:-100 9:0 10:0 11:0 12:0 13:0 14:100 15:0 16:0 17:0 18:0 19:0 20:0 21:40 22:40 23:20 24:0 25:0 26:20 27:0 28:20 29:100 30:0 31:40 32:0 33:0 34:0 35:0 36:40 37:20 38:20 39:20 40:20 41:48 42:63 43:25 
7.120953595122225 1:0 2:0 3:-100 4:0 5:0 6:0 7:0 8:0 9:100 10:0 11:0 12:0 13:0 14:0 15:0 16:0 17:0 18:0 19:0 20:0 21:60 22:40 23:20 24:40 25:20 26:60 27:20 28:40 29:100 30:20 31:20 32:0 33:40 34:0 35:100 36:20 37:40 38:20 39:40 40:20 41:2 42:19 43:64 
2.519535580377728 1:0 2:0 3:0 4:0 5:0 6:0 7:-100 8:0 9:0 10:0 11:0 12:0 13:0 14:0 15:0 16:0 17:100 18:0 19:0 20:0 21:20 22:20 23:20 24:0 25:0 26:0 27:0 28:20 29:60 30:0 31:20 32:40 33:0 34:0 35:0 36:40 37:40 38:0 39:20 40:20 41:76 42:50 43:45 
5.263189590299795 1:0 2:0 3:100 4:0 5:0 6:0 7:0 8:0 9:0 10:0 11:0 12:-100 13:0 14:0 15:0 16:0 17:0 18:0 19:0 20:0 21:40 22:40 23:20 24:0 25:40 26:20 27:20 28:60 29:0 30:0 31:0 32:80 33:0 34:0 35:0 36:60 37:0 38:80 39:20 40:40 41:32 42:37 43:25 
8 1:0 2:0 3:100 4:0 5:0 6:0 7:0 8:0 9:0 10:0 11:0 12:-100 13:0 14:0 15:0 16:0 17:0 18:0 19:0 20:0 21:40 22:40 23:20 24:0 25:40 26:20 27:20 28:60 29:0 30:0 31:0 32:80 33:0 34:0 35:0 36:60 37:0 38:80 39:20 40:40 41:32 42:37 43:63 
0.3667308941836976 1:0 2:0 3:0 4:0 5:0 6:0 7:0 8:0 9:-100 10:0 11:100 12:0 13:0 14:0 15:0 16:0 17:0 18:0 19:0 20:0 21:40 22:60 23:20 24:20 25:40 26:40 27:20 28:0 29:60 30:0 31:40 32:60 33:0 34:0 35:40 36:60 37:0 38:20 39:40 40:20 41:6 42:21 43:51 
-6.470053795303402 1:0 2:0 3:0 4:0 5:0 6:0 7:0 8:0 9:-100 10:0 11:100 12:0 13:0 14:0 15:0 16:0 17:0 18:0 19:0 20:0 21:20 22:60 23:20 24:0 25:0 26:0 27:20 28:20 29:20 30:20 31:0 32:0 33:0 34:0 35:40 36:40 37:20 38:20 39:20 40:20 41:81 42:21 43:51 
1.758267150521446 1:0 2:0 3:0 4:0 5:0 6:0 7:0 8:-100 9:100 10:0 11:0 12:0 13:0 14:0 15:0 16:0 17:0 18:0 19:0 20:0 21:0 22:20 23:0 24:20 25:60 26:0 27:20 28:40 29:60 30:20 31:0 32:20 33:80 34:0 35:40 36:0 37:0 38:20 39:40 40:20 41:23 42:50 43:39 
-7.051819409150959 1:0 2:0 3:0 4:0 5:0 6:0 7:0 8:0 9:0 10:0 11:0 12:0 13:0 14:0 15:0 16:0 17:0 18:100 19:0 20:-100 21:40 22:60 23:40 24:40 25:40 26:0 27:20 28:100 29:140 30:0 31:80 32:40 33:40 34:20 35:60 36:20 37:20 38:80 39:60 40:40 41:12 42:64 43:47 
8 1:0 2:0 3:0 4:0 5:0 6:0 7:0 8:0 9:0 10:0 11:0 12:0 13:0 14:0 15:0 16:0 17:0 18:100 19:0 20:-100 21:40 22:60 23:40 24:40 25:40 26:0 27:20 28:100 29:140 30:0 31:80 32:40 33:40 34:20 35:60 36:20 37:20 38:80 39:60 40:40 41:12 42:21 43:50 
-0.7535770012332104 1:0 2:0 3:0 4:0 5:0 6:0 7:0 8:0 9:100 10:0 11:0 12:0 13:0 14:0 15:0 16:-100 17:0 18:0 19:0 20:0 21:20 22:60 23:80 24:0 25:0 26:0 27:40 28:40 29:60 30:20 31:60 32:40 33:20 34:0 35:20 36:40 37:0 38:20 39:60 40:20 41:23 42:38 43:53 
8 1:0 2:0 3:0 4:0 5:0 6:0 7:0 8:0 9:100 10:0 11:0 12:0 13:0 14:0 15:0 16:-100 17:0 18:0 19:0 20:0 21:20 22:100 23:40 24:0 25:20 26:0 27:20 28:20 29:80 30:0 31:20 32:0 33:0 34:20 35:20 36:60 37:0 38:60 39:20 40:20 41:63 42:30 43:4 
-2.027111082004624 1:0 2:0 3:0 4:0 5:0 6:0 7:0 8:0 9:100 10:0 11:0 12:0 13:0 14:0 15:0 16:-100 17:0 18:0 19:0 20:0 21:20 22:100 23:40 24:0 25:20 26:0 27:20 28:20 29:80 30:0 31:20 32:0 33:0 34:20 35:20 36:60 37:0 38:60 39:20 40:20 41:63 42:30 43:4 
-8 1:0 2:0 3:-100 4:0 5:0 6:0 7:0 8:0 9:0 10:0 11:0 12:100 13:0 14:0 15:0 16:0 17:0 18:0 19:0 20:0 21:80 22:80 23:40 24:20 25:20 26:0 27:0 28:20 29:0 30:0 31:60 32:20 33:0 34:20 35:40 36:40 37:0 38:0 39:0 40:20 41:49 42:50 43:25 
-4.562838900768082 1:0 2:0 3:0 4:0 5:0 6:0 7:0 8:0 9:100 10:0 11:0 12:0 13:-100 14:0 15:0 16:0 17:0 18:0 19:0 20:0 21:40 22:80 23:80 24:0 25:0 26:80 27:40 28:0 29:60 30:20 31:60 32:20 33:60 34:20 35:0 36:40 37:20 38:0 39:100 40:20 41:2 42:67 43:20 
-5.666787542115973 1:0 2:0 3:0 4:0 5:0 6:0 7:0 8:0 9:0 10:100 11:0 12:0 13:0 14:0 15:0 16:0 17:0 18:-100 19:0 20:0 21:20 22:60 23:60 24:0 25:0 26:0 27:0 28:20 29:0 30:20 31:20 32:80 33:0 34:0 35:0 36:80 37:40 38:0 39:0 40:20 41:41 42:21 43:65 
-2.414482604182211 1:0 2:0 3:0 4:0 5:0 6:0 7:0 8:0 9:100 10:0 11:0 12:0 13:0 14:0 15:0 16:0 17:-100 18:0 19:0 20:0 21:20 22:20 23:20 24:20 25:60 26:0 27:40 28:20 29:60 30:20 31:20 32:20 33:40 34:0 35:20 36:40 37:0 38:0 39:60 40:0 41:36 42:50 43:39 
1.212499774675853 1:0 2:0 3:0 4:0 5:0 6:0 7:0 8:0 9:100 10:-100 11:0 12:0 13:0 14:0 15:0 16:0 17:0 18:0 19:0 20:0 21:20 22:20 23:0 24:0 25:80 26:0 27:80 28:40 29:40 30:20 31:0 32:40 33:20 34:0 35:60 36:20 37:20 38:20 39:60 40:0 41:34 42:50 43:39 
-5.900562512252112 1:0 2:0 3:0 4:0 5:0 6:0 7:0 8:100 9:0 10:0 11:0 12:-100 13:0 14:0 15:0 16:0 17:0 18:0 19:0 20:0 21:20 22:80 23:80 24:0 25:20 26:0 27:0 28:40 29:20 30:0 31:0 32:0 33:20 34:0 35:40 36:60 37:0 38:40 39:0 40:20 41:51 42:14 43:41 
5.960838579290427 1:0 2:0 3:0 4:0 5:0 6:0 7:0 8:100 9:0 10:0 11:0 12:-100 13:0 14:0 15:0 16:0 17:0 18:0 19:0 20:0 21:20 22:80 23:80 24:0 25:20 26:0 27:0 28:40 29:20 30:0 31:0 32:0 33:20 34:0 35:40 36:60 37:0 38:40 39:0 40:20 41:51 42:46 43:63 
2.111585482167037 1:-100 2:0 3:100 4:0 5:0 6:0 7:0 8:0 9:0 10:0 11:0 12:0 13:0 14:0 15:0 16:0 17:0 18:0 19:0 20:0 21:20 22:60 23:40 24:20 25:40 26:40 27:20 28:0 29:180 30:40 31:20 32:20 33:20 34:20 35:0 36:80 37:40 38:60 39:0 40:20 41:4 42:35 43:50 
0.6598847891567716 1:-100 2:100 3:0 4:0 5:0 6:0 7:0 8:0 9:0 10:0 11:0 12:0 13:0 14:0 15:0 16:0 17:0 18:0 19:0 20:0 21:0 22:20 23:0 24:0 25:0 26:20 27:20 28:20 29:40 30:20 31:20 32:20 33:40 34:20 35:40 36:0 37:0 38:0 39:60 40:40 41:60 42:19 43:64 
8 1:0 2:0 3:0 4:0 5:0 6:0 7:0 8:0 9:0 10:0 11:100 12:0 13:-100 14:0 15:0 16:0 17:0 18:0 19:0 20:0 21:20 22:60 23:40 24:20 25:40 26:0 27:20 28:40 29:20 30:20 31:0 32:40 33:0 34:40 35:20 36:60 37:0 38:40 39:20 40:0 41:0 42:42 43:46 
5.227055233374094 1:0 2:0 3:0 4:0 5:0 6:0 7:0 8:0 9:100 10:0 11:0 12:-100 13:0 14:0 15:0 16:0 17:0 18:0 19:0 20:0 21:20 22:20 23:40 24:0 25:60 26:0 27:60 28:0 29:20 30:20 31:20 32:20 33:40 34:0 35:20 36:20 37:20 38:0 39:40 40:0 41:56 42:50 43:39 
-4.499963680922956 1:0 2:0 3:0 4:-100 5:0 6:0 7:0 8:100 9:0 10:0 11:0 12:0 13:0 14:0 15:0 16:0 17:0 18:0 19:0 20:0 21:40 22:0 23:0 24:20 25:0 26:0 27:20 28:0 29:0 30:20 31:20 32:0 33:40 34:0 35:20 36:0 37:0 38:20 39:20 40:20 41:105 42:22 43:53 
8 1:0 2:0 3:0 4:-100 5:0 6:0 7:0 8:100 9:0 10:0 11:0 12:0 13:0 14:0 15:0 16:0 17:0 18:0 19:0 20:0 21:40 22:0 23:0 24:20 25:0 26:0 27:20 28:0 29:0 30:20 31:20 32:0 33:40 34:0 35:20 36:0 37:0 38:20 39:20 40:20 41:105 42:50 43:53 
-1.578812686513515 1:0 2:0 3:0 4:-100 5:0 6:0 7:0 8:100 9:0 10:0 11:0 12:0 13:0 14:0 15:0 16:0 17:0 18:0 19:0 20:0 21:40 22:0 23:0 24:20 25:0 26:0 27:20 28:0 29:0 30:20 31:20 32:0 33:40 34:0 35:20 36:0 37:0 38:20 39:20 40:20 41:105 42:67 43:53 
1.570790050302135 1:0 2:0 3:0 4:0 5:0 6:0 7:0 8:0 9:100 10:0 11:0 12:0 13:0 14:0 15:0 16:0 17:0 18:-100 19:0 20:0 21:80 22:40 23:20 24:0 25:20 26:0 27:0 28:40 29:0 30:0 31:20 32:0 33:0 34:0 35:20 36:60 37:40 38:80 39:0 40:0 41:32 42:50 43:70 
3.821793569940217 1:-100 2:0 3:0 4:0 5:0 6:0 7:0 8:100 9:0 10:0 11:0 12:0 13:0 14:0 15:0 16:0 17:0 18:0 19:0 20:0 21:0 22:20 23:0 24:0 25:0 26:20 27:20 28:20 29:40 30:20 31:20 32:20 33:40 34:20 35:40 36:0 37:0 38:0 39:60 40:40 41:60 42:19 43:64 
5.369096259802208 1:0 2:0 3:0 4:0 5:100 6:0 7:0 8:0 9:0 10:0 11:0 12:0 13:0 14:0 15:0 16:0 17:0 18:-100 19:0 20:0 21:20 22:60 23:40 24:0 25:20 26:0 27:40 28:0 29:40 30:20 31:40 32:60 33:20 34:0 35:40 36:20 37:80 38:0 39:20 40:20 41:16 42:50 43:25 
3.064123373612913 1:-100 2:0 3:0 4:0 5:100 6:0 7:0 8:0 9:0 10:0 11:0 12:0 13:0 14:0 15:0 16:0 17:0 18:0 19:0 20:0 21:60 22:100 23:80 24:60 25:40 26:0 27:60 28:60 29:80 30:20 31:20 32:80 33:0 34:0 35:40 36:80 37:0 38:40 39:20 40:40 41:0 42:38 43:40 
-0.3275685166006513 1:0 2:0 3:0 4:0 5:0 6:0 7:0 8:0 9:-100 10:0 11:100 12:0 13:0 14:0 15:0 16:0 17:0 18:0 19:0 20:0 21:60 22:0 23:20 24:0 25:20 26:0 27:0 28:0 29:40 30:0 31:20 32:40 33:0 34:0 35:0 36:40 37:0 38:20 39:0 40:60 41:0 42:50 43:63 
-8 1:0 2:0 3:0 4:0 5:0 6:0 7:0 8:0 9:100 10:0 11:0 12:0 13:0 14:0 15:0 16:0 17:0 18:0 19:-100 20:0 21:40 22:40 23:80 24:0 25:0 26:0 27:60 28:80 29:40 30:40 31:20 32:60 33:0 34:0 35:0 36:40 37:0 38:20 39:40 40:40 41:9 42:45 43:25 
-8 1:0 2:0 3:-100 4:0 5:0 6:0 7:0 8:0 9:0 10:0 11:0 12:100 13:0 14:0 15:0 16:0 17:0 18:0 19:0 20:0 21:60 22:100 23:40 24:20 25:60 26:40 27:20 28:40 29:180 30:0 31:80 32:60 33:40 34:0 35:20 36:40 37:40 38:40 39:60 40:40 41:0 42:45 43:74 
-3.747357146454239 1:0 2:0 3:-100 4:0 5:0 6:0 7:0 8:0 9:0 10:0 11:100 12:0 13:0 14:0 15:0 16:0 17:0 18:0 19:0 20:0 21:60 22:80 23:40 24:20 25:20 26:60 27:40 28:20 29:160 30:0 31:100 32:80 33:80 34:0 35:40 36:20 37:20 38:20 39:100 40:60 41:1 42:19 43:64 
-8 1:0 2:0 3:0 4:-100 5:0 6:0 7:0 8:0 9:0 10:0 11:0 12:0 13:0 14:0 15:0 16:0 17:0 18:100 19:0 20:0 21:40 22:0 23:0 24:20 25:0 26:0 27:20 28:0 29:0 30:20 31:20 32:0 33:40 34:0 35:20 36:0 37:0 38:20 39:20 40:20 41:105 42:22 43:53 
8 1:0 2:0 3:0 4:-100 5:0 6:0 7:0 8:0 9:0 10:0 11:0 12:0 13:0 14:0 15:0 16:0 17:0 18:100 19:0 20:0 21:40 22:0 23:0 24:20 25:0 26:0 27:20 28:0 29:0 30:20 31:20 32:0 33:40 34:0 35:20 36:0 37:0 38:20 39:20 40:20 41:105 42:50 43:53 
0.07518209384394944 1:0 2:0 3:0 4:-100 5:0 6:0 7:0 8:0 9:0 10:0 11:0 12:0 13:0 14:0 15:0 16:0 17:0 18:100 19:0 20:0 21:40 22:0 23:0 24:20 25:0 26:0 27:20 28:0 29:0 30:20 31:20 32:0 33:40 34:0 35:20 36:0 37:0 38:20 39:20 40:20 41:105 42:67 43:53 
-0.4766479477554708 1:0 2:0 3:100 4:-100 5:0 6:0 7:0 8:0 9:0 10:0 11:0 12:0 13:0 14:0 15:0 16:0 17:0 18:0 19:0 20:0 21:0 22:0 23:20 24:0 25:0 26:0 27:0 28:40 29:20 30:40 31:0 32:20 33:0 34:0 35:60 36:20 37:20 38:60 39:20 40:0 41:30 42:50 43:63 
8 1:0 2:0 3:0 4:0 5:0 6:0 7:0 8:0 9:0 10:0 11:0 12:0 13:0 14:0 15:0 16:0 17:0 18:0 19:100 20:-100 21:0 22:0 23:0 24:0 25:0 26:0 27:40 28:40 29:40 30:20 31:40 32:40 33:0 34:0 35:40 36:20 37:0 38:0 39:60 40:20 41:50 42:15 43:65 
-8 1:0 2:0 3:0 4:0 5:0 6:0 7:0 8:0 9:0 10:0 11:0 12:0 13:0 14:0 15:0 16:0 17:0 18:0 19:100 20:-100 21:0 22:0 23:0 24:0 25:0 26:0 27:40 28:40 29:40 30:20 31:40 32:40 33:0 34:0 35:40 36:20 37:0 38:0 39:60 40:20 41:50 42:28 43:65 
0.8242505855028883 1:0 2:0 3:0 4:0 5:0 6:0 7:0 8:0 9:0 10:0 11:0 12:0 13:0 14:0 15:100 16:0 17:-100 18:0 19:0 20:0 21:20 22:40 23:0 24:0 25:20 26:0 27:0 28:40 29:120 30:0 31:0 32:0 33:0 34:0 35:20 36:40 37:0 38:40 39:0 40:0 41:57 42:35 43:50 
0.5688534319277428 1:0 2:0 3:0 4:0 5:0 6:0 7:0 8:0 9:0 10:0 11:0 12:0 13:0 14:0 15:0 16:-100 17:100 18:0 19:0 20:0 21:40 22:120 23:80 24:0 25:20 26:0 27:0 28:20 29:0 30:0 31:20 32:100 33:0 34:20 35:20 36:20 37:0 38:20 39:0 40:0 41:49 42:35 43:25 
-1.610591445790829 1:0 2:0 3:0 4:0 5:-100 6:0 7:0 8:100 9:0 10:0 11:0 12:0 13:0 14:0 15:0 16:0 17:0 18:0 19:0 20:0 21:20 22:80 23:20 24:20 25:20 26:0 27:60 28:60 29:40 30:40 31:0 32:60 33:0 34:40 35:60 36:80 37:20 38:60 39:40 40:40 41:8 42:50 43:20 
-1.020883391741912 1:0 2:0 3:0 4:0 5:0 6:0 7:0 8:0 9:100 10:0 11:0 12:0 13:0 14:0 15:0 16:0 17:0 18:0 19:-100 20:0 21:0 22:40 23:0 24:0 25:80 26:0 27:40 28:40 29:40 30:40 31:0 32:20 33:80 34:0 35:20 36:20 37:20 38:20 39:20 40:0 41:23 42:50 43:39 
-2.005537486364491 1:0 2:0 3:0 4:0 5:-100 6:0 7:0 8:0 9:100 10:0 11:0 12:0 13:0 14:0 15:0 16:0 17:0 18:0 19:0 20:0 21:20 22:80 23:20 24:20 25:20 26:0 27:60 28:60 29:40 30:40 31:0 32:60 33:0 34:40 35:60 36:80 37:20 38:60 39:40 40:40 41:8 42:50 43:20 
3.216719329434954 1:0 2:0 3:0 4:0 5:0 6:0 7:0 8:0 9:0 10:0 11:100 12:0 13:0 14:0 15:0 16:0 17:0 18:0 19:-100 20:0 21:0 22:20 23:20 24:0 25:60 26:20 27:20 28:40 29:0 30:0 31:0 32:20 33:0 34:0 35:0 36:60 37:0 38:60 39:20 40:0 41:50 42:50 43:70 
-8 1:0 2:0 3:0 4:0 5:0 6:0 7:0 8:0 9:0 10:0 11:100 12:0 13:0 14:0 15:0 16:0 17:0 18:0 19:-100 20:0 21:0 22:20 23:20 24:0 25:60 26:20 27:20 28:40 29:0 30:0 31:0 32:20 33:0 34:0 35:0 36:60 37:0 38:60 39:20 40:0 41:50 42:50 43:70 
8 1:0 2:0 3:0 4:0 5:0 6:0 7:0 8:0 9:0 10:0 11:100 12:0 13:0 14:0 15:0 16:0 17:0 18:0 19:-100 20:0 21:0 22:20 23:20 24:0 25:60 26:20 27:20 28:40 29:0 30:0 31:0 32:20 33:0 34:0 35:0 36:60 37:0 38:60 39:20 40:0 41:50 42:50 43:70 
-3.592275413990959 1:0 2:0 3:0 4:0 5:0 6:0 7:0 8:0 9:0 10:0 11:100 12:0 13:0 14:0 15:0 16:0 17:0 18:0 19:-100 20:0 21:0 22:20 23:20 24:0 25:60 26:20 27:20 28:40 29:0 30:0 31:0 32:20 33:0 34:0 35:0 36:60 37:0 38:60 39:20 40:0 41:50 42:50 43:70 
-1.229925525336153 1:0 2:0 3:0 4:0 5:0 6:0 7:0 8:0 9:0 10:0 11:0 12:0 13:0 14:0 15:0 16:0 17:0 18:-100 19:0 20:100 21:40 22:80 23:40 24:40 25:20 26:40 27:60 28:80 29:100 30:0 31:60 32:80 33:20 34:0 35:40 36:0 37:40 38:0 39:60 40:60 41:10 42:64 43:47 
3.780753229521741 1:0 2:0 3:0 4:0 5:0 6:0 7:0 8:0 9:0 10:0 11:0 12:0 13:0 14:0 15:0 16:0 17:0 18:-100 19:0 20:100 21:40 22:80 23:40 24:40 25:20 26:40 27:60 28:80 29:100 30:0 31:60 32:80 33:20 34:0 35:40 36:0 37:40 38:0 39:60 40:60 41:10 42:21 43:50 
8 1:0 2:-100 3:100 4:0 5:0 6:0 7:0 8:0 9:0 10:0 11:0 12:0 13:0 14:0 15:0 16:0 17:0 18:0 19:0 20:0 21:120 22:140 23:80 24:60 25:60 26:40 27:40 28:60 29:80 30:20 31:40 32:20 33:20 34:0 35:60 36:40 37:40 38:20 39:40 40:40 41:0 42:21 43:51 
-7.827023397302101 1:0 2:-100 3:100 4:0 5:0 6:0 7:0 8:0 9:0 10:0 11:0 12:0 13:0 14:0 15:0 16:0 17:0 18:0 19:0 20:0 21:120 22:140 23:80 24:60 25:60 26:40 27:40 28:60 29:80 30:20 31:40 32:20 33:20 34:0 35:60 36:40 37:40 38:20 39:40 40:40 41:0 42:40 43:64 
